0.05615879,0.043743696,-0.0017779123,-0.044823777,0.043879926,-0.05680491,0.03587449,-0.019611683,0.021204574,0.06653215,0.028712133,0.028746003,-0.09937046,-0.039794594,0.02950713,-0.01653581,-0.034952417,-0.0070188185,0.05916414,-0.08876014,-0.01677521,-0.13311984,-0.09127335,-0.014812226,-0.02966897,0.04584576,-0.06918386,0.100402266,-0.024837956,-0.116378866,0.037876535,0.08448244,-0.01817535,-0.06959651,0.124249585,-0.029448492,0.036016937,0.01753746,-0.053220555,0.016783597,-0.025788235,-0.059345648,0.033172272,-0.06332872,-0.0024886758,0.07120578,0.12850441,-0.12850864,0.083557814,0.01318664,0.03766193,0.08483955,0.06127078,-0.08387458,-0.025176229,0.026871031,-0.007217785,0.099970944,0.11302183,0.060187284,-0.041261245,0.092177264,-0.025096089,0.08153946,-0.029663084,-0.03008033,0.0058391434,-0.08631351,0.074922495,0.116082184,0.0907698,0.03236883,-0.030511834,0.055932105,0.106223054,-0.104741156,-0.0758597,-0.028023165,0.019157212,-0.117458686,0.062158015,0.027118368,-0.00356666,0.047740694,0.068893485,0.09741615,-0.13589087,-0.09123157,0.10230362,-0.12210512,-0.077615604,0.015427208,-0.03430695,-0.02820888,0.07712951,-0.10340262,-0.03255162,-0.05512502,0.06912703,0.030900428,-0.033101827,0.034102708,-0.027872829,0.09966736,-0.080415025,-0.09583106,0.041071437,-0.053129908,-0.012218318,-0.027399786,-0.017438257,0.0044307588,-0.059271175,-0.08982891,-0.09073229,-0.07986142,0.085796416,0.03571773,0.051702566,-0.076899864,0.015263379,-0.049086582,-0.005814268,0.039484426,0.0023689535,-0.07691355,0.0033041418,0.07659917,-0.047296517,0.066241756,0.06166786,0.0952801,0.020528557,-0.02216057,0.059106395,-0.035882294,0.006032774,0.11911856,-0.05550976,0.045875482,-0.117837295,0.087171055,-0.063068,0.0128198555,0.039816376,-0.00071451894,-0.05780506,-0.013148403,0.020908024,0.015160447,-0.014022949,-0.046922974,0.061423067,0.09159885,-0.055600405,-0.09479499,0.0016999029,0.110959694,-0.034507483,-0.101178996,0.03702394,0.05184805,-0.031592347,0.016763495,-0.055802863,0.053078875,-0.053254537,-0.10021141,0.020017654,-0.031815987,-0.05448355,-0.13508326,0.020220794,-0.09316522,0.11721104,0.00042992109,-0.1095281,0.0700644,-0.010953722,-0.07311408,0.015259934,-0.07721156,-0.051018126,-0.041904237,0.024135405,-0.025913661,-0.02082005,0.13080713,-0.046970513,-0.036094233,0.10745796,-0.0155293895,-0.048633594,0.0064477413,-0.092994265,0.013704492,0.025785733,0.024066547,0.031792235,-0.057569176,-0.006294982,-0.039868686,0.0074326578,-0.062122177,0.02649168,-0.050659087,-0.0047978736,0.016201938,0.0640513,0.088526614,0.0025159344,-0.039506122,0.082101785,0.08724207,-0.02275129,-0.021140395,0.12115956,-0.078667276,-0.07941082,0.09928542,-0.0036832714,-0.022026671,0.025276478,-0.0465524,-0.03505105,0.013502009,0.021151472,0.041280426,-0.026452303,-0.074039,-0.012591113,-0.037479427,0.065001704,0.08063567,0.036283836,-0.05662178,-0.02971028,-0.059354912,0.01545151,0.05604225,-0.11179206,0.0035190317,0.07077589,-0.09633408,0.09918187,0.04598271,0.010081843,0.0067885784,0.08307556,0.015112658,0.025241902,0.055066667,0.029498314,0.09719483,-0.026741387,0.019490281,
