0.0021503689,-0.0036118857,0.0037080331,-0.006770451,0.004126363,0.00028801913,0.0030201497,0.006489197,0.0023728807,-0.00786356,-0.002913075,0.000477,0.002964567,-0.004887138,0.0024894772,-0.0020774517,-0.0009728181,0.005427429,0.0098089725,0.0024958085,-0.00044506227,-0.0017368072,-0.0018857348,-0.005830886,0.0020401552,-0.0027947612,-0.0038411585,-0.0010941181,0.009851037,-0.009221459,0.007371437,0.0037279348,0.003923531,-0.007900577,0.008871094,-0.009854307,-0.007991209,-0.0067807594,0.0043579973,-0.004645553,-0.0028442307,0.007542924,0.005574127,-0.009331974,-0.00087300985,0.0022606584,0.003838647,0.0028982898,0.0019958166,-0.015257062,-0.0012442396,0.011130965,-0.0022029295,-0.0013091651,-0.0044677146,-0.011712716,0.00405148,-0.0005696582,0.010595338,0.004962923,0.011834459,-0.006486816,0.0010345645,-0.004323885,-0.00067675824,-0.007325143,-0.0028121232,-0.0021897973,0.0074937367,0.0045430767,-0.002567375,0.0012216172,0.004020121,-0.006635256,-0.008649529,0.0012448383,0.0033538018,-0.0029122955,0.0048661386,0.007383072,-0.005605291,-0.0045136437,0.008333341,0.004870736,-0.003941619,-0.003953631,-0.0029200797,-0.003068918,0.0047592237,-0.0019012766,-0.0032630363,0.008657713,0.009296391,0.0048963875,0.0050699976,0.0017860384,0.0044034556,-0.0056219925,-0.0014080734,-0.014880241,-0.0075909225,-0.007146711,0.0076022283,-0.0055568106,0.0018287706,3.5698245e-05,0.0073482613,-0.004989721,-4.987943e-05,0.0021231545,0.008308786,0.009042911,0.0079087755,-0.011993724,-0.0022480038,0.010896269,-0.0060912217,-0.004257967,-0.0060569765,-0.0012851018,0.007104236,-0.0038948297,0.006974776,0.0021811153,0.010233521,-0.0041835164,0.0069872374,-0.0033252088,0.0032111672,-0.00501132,-0.0023394683,-0.001202844,0.008619297,-0.0024743075,-0.0011471951,0.00361309,-0.0008121163,0.00046924147,-0.003962432,-0.00012183254,0.00073724147,-0.00221401,0.0001116157,0.0040186825,-0.0032102247,0.0025365949,0.006166064,0.001065536,-0.0018915529,-0.006376634,0.004078748,-0.0054153507,0.0018542237,-0.0064605037,0.0005577628,0.0074039605,0.005327783,-0.0022591015,0.010157953,0.0006984283,-0.0020607891,-0.0012068005,0.0057084304,-0.006790995,-0.0037021094,-0.005995604,0.010437629,-0.0037081721,-0.005772084,0.0056637265,0.0043968237,-0.0045360783,-0.0014685623,-0.0029977,0.0032123053,0.0044999975,-0.0031053966,-0.012603395,-0.0043364386,0.003194251,-0.0011959894,0.002840841,-0.00382563,-0.011750743,0.009238666,-0.0016403254,-0.005268916,-0.00063992175,0.0045511564,-0.0014651928,0.004597164,0.010698593,0.009626735,-0.007041779,-0.0003251652,0.004019881,0.0071854554,-0.0038134796,-0.00023972716,0.0062638535,0.008426183,0.0033309096,-0.0015494893,0.0037841608,0.0064805397,-0.00080898055,-0.0051778597,0.0010537456,-0.0032473786,-0.0048677637,0.012458369,0.0018991783,-0.0010530064,-0.003987082,0.002004997,-0.0073422045,0.003250385,-0.0005171395,0.0037697,0.0018483448,0.004729902,0.00076677464,0.0034681438,-0.0032251333,-0.0022337702,-0.0031997103,0.006996014,-0.019865483,-0.0025674906,-0.0054955143,0.0068404055,-0.00492779,-0.0013868067,0.0040698056,0.008127156,-0.007196252,0.0039081043,0.008008119,0.010601471,0.0077027986,-0.0013402309,-0.012136845,-0.0019382053,0.004413629,-0.002383604,0.0019936324,-0.016472537,-0.010250131,0.018139234,-0.007400064,-0.0029262262,-0.004740015,0.00074388634,0.001011678,0.008951176,0.006117478,
