-0.06019117,0.014668726,-0.10707096,-0.003012827,0.019859876,0.024785666,-0.011395222,0.023233874,0.072181396,-0.057542,0.0012732698,-0.03114776,-0.059473254,-0.033945665,-0.061970983,0.06500186,0.020396484,-0.029840102,0.0035789837,-0.014532437,0.035998415,-0.027411705,0.07592035,0.0026123067,-0.0363631,0.008075113,0.073879175,-0.08311056,0.0044339164,0.008653185,0.049735945,-0.009004781,0.065490834,-0.0041832426,-0.07879616,-0.0042326315,-0.0281701,-0.06409195,-0.013714278,-0.025737515,-0.07974754,-0.010762231,0.025259525,0.02565629,0.007468629,0.030647254,0.039580937,0.067510046,-0.016987344,-0.020087961,-0.082570605,0.0061578564,-0.00059493905,-0.012150853,0.07222079,-0.003517872,0.022916652,-0.012107199,-0.014097263,-0.013385666,0.016791845,-0.012051176,-0.0057714796,0.0672521,0.055328447,0.015013268,0.06621628,-0.066964015,-0.03138397,-0.070100255,-0.0020672628,0.0031478642,-0.041184884,-0.037270945,-0.014091548,-0.020514885,0.06895217,0.035069257,0.06805276,0.0076668235,-0.060378447,-0.041901298,-0.0033518448,-0.035477784,-0.009626974,-0.012671289,-0.045384314,0.0007299415,-0.017351016,0.01617658,-0.054636773,0.10217253,-0.016590755,0.014797452,-0.0056583514,-0.00025222675,-0.090866484,0.0059464755,0.01905601,0.032594852,-0.028773375,0.008840776,0.01458257,0.014139767,0.076677255,0.00669623,-5.3903084e-05,0.028234884,0.07413232,0.009857679,0.0051450864,0.004195646,0.007689241,0.006802739,0.07288853,-0.04144519,-0.0055591394,-0.009616725,-0.060203716,-0.011327098,0.0033706431,0.036734443,0.0018738975,-0.016861286,-0.002935831,-0.0013472396,-0.0063482546,-0.08746319,-0.021535723,-0.0032036365,0.057194404,0.051718805,0.050575934,0.025670633,-0.0046549104,-0.011203077,-0.054133546,0.06870939,0.0073966994,0.068953425,0.036203552,0.008723491,0.009598266,-0.050617576,0.02360655,0.011967796,-0.0063732713,-0.0025837533,-0.07077083,-0.004063576,-0.04281172,0.008390306,-0.0520421,-0.00851712,0.026787909,0.082944535,0.011112031,-0.0060658143,-0.033891324,0.0068220748,-0.06374716,-0.0050754086,0.0704646,0.0082107615,0.0042924336,0.051378243,-0.029648466,-0.012609449,0.021642601,0.0077924086,-0.10439597,-0.09317809,-0.038422856,-0.025350377,-0.06526153,-0.06286936,-0.012995052,0.046783134,0.025597539,0.05384798,-0.002395317,0.004813847,-0.0533187,0.008577069,-0.043586683,0.03197817,-0.007899249,0.0041049374,0.006681059,-0.00963907,0.009822995,-0.05414035,0.013226153,-0.01309675,-0.028320622,0.054651055,-0.03263731,0.0023765757,0.010879632,-0.01819654,0.02515318,0.05456565,-0.008506276,0.007823159,-0.095621385,-0.009205113,-0.019980278,-0.028570287,0.012866248,0.062806875,-0.011355629,-0.018766867,0.035146914,0.004875565,0.017481275,0.0040670875,0.021487143,0.017046664,-0.011953238,-0.07940448,-0.009781666,0.0054790094,0.046721295,0.0013222749,0.110651545,-0.007560795,-0.047292605,-0.04774779,0.015235837,-0.03540981,-0.021287786,-0.018240001,-0.023888864,-0.012990101,0.037820738,0.03249932,-0.053850703,-0.015413157,-0.0026636606,0.018912649,0.009269234,-0.033030495,-0.036484558,-0.018189253,0.005011905,0.003738695,0.026087327,-0.010080501,0.013221786,-0.052134927,-0.0016515742,-0.0011669453,-0.006505261,-0.00091243535,0.006408148,0.109996915,
