0.03346841037273407,0.008596227504312992,-0.018627744168043137,-0.022643255069851875,-0.009278779849410057,0.006266284268349409,0.06146297603845596,0.0004985579871572554,-0.034353580325841904,0.05834190919995308,-0.05278651416301727,-0.045240722596645355,0.07491956651210785,-0.009463241323828697,-0.02939348854124546,-0.003826237516477704,0.002922497456893325,0.012058424763381481,-0.03419610112905502,0.04628530517220497,0.0017548551550135016,-0.041573334485292435,-0.03423977643251419,-0.05950136110186577,0.013097543269395828,-0.008626592345535755,-0.11570222675800323,-0.05704369395971298,-0.01778796687722206,0.006409845780581236,0.03669213503599167,-0.0453077033162117,-0.009610992856323719,0.00852009654045105,-0.041247908025979996,-0.04461832717061043,0.007283154875040054,-0.08491099625825882,0.049682531505823135,-0.01964811608195305,-0.035686444491147995,0.03145784139633179,0.012649507261812687,0.022397473454475403,-0.004907755181193352,0.05396200343966484,0.013046672567725182,0.11312084645032883,0.00037703290581703186,-0.012900113128125668,-0.018828868865966797,0.019723037257790565,-0.00161650194786489,-0.01361052505671978,-0.01107046753168106,-0.015037109144032001,-0.08101379126310349,-0.00029499648371711373,-0.005231920164078474,-0.07542193681001663,-0.02459108456969261,-0.03247927874326706,-0.004187421873211861,-0.02480470947921276,0.049011941999197006,0.019432509317994118,-0.03654881566762924,-0.034854527562856674,-0.033205512911081314,0.0034875725395977497,-0.01564645767211914,0.019696597009897232,-0.07086285203695297,0.07410705834627151,0.008037818595767021,0.11003194749355316,0.0067911772057414055,0.0046675363555550575,0.02114996314048767,0.04095892608165741,0.03779848292469978,-0.01842440851032734,0.13397271931171417,0.03857322782278061,-0.04487261176109314,0.05446900427341461,0.032508473843336105,-0.03756124898791313,-0.0835646241903305,0.06577932834625244,0.08137534558773041,-0.16368921101093292,-0.062076449394226074,0.024523163214325905,-0.012644005939364433,0.016735833138227463,0.04702926427125931,-0.0023224675096571445,-0.04740160331130028,-0.06709150969982147,0.030923228710889816,-0.007171995937824249,-0.020007804036140442,-0.0753355473279953,-0.0012591059785336256,0.040578026324510574,-0.005841136910021305,-0.05466494709253311,-0.05095022916793823,0.005779380444437265,0.005126432050019503,0.08921018242835999,-0.02402624674141407,0.10606521368026733,0.004020771477371454,0.07316236197948456,0.04505223408341408,-0.02287405915558338,0.010799462907016277,-0.048129625618457794,-0.01577741838991642,-0.011088537983596325,-0.0481078065931797,0.02997029945254326,0.13866087794303894,0.012848437763750553,-0.029331857338547707,-0.01660119742155075,-0.02944597229361534,0.04863467812538147,0.022153597325086594,-0.015760915353894234,-0.02081247977912426,-0.03570098802447319,-0.03364238515496254,-0.008825447410345078,-0.054942596703767776,0.03035050258040428,-0.0066766878589987755,-0.04517792910337448,0.029225144535303116,-0.02437061071395874,-0.032025523483753204,0.015532718040049076,0.02474263496696949,0.04555976018309593,0.01309244241565466,0.04748322442173958,-0.0418485663831234,-0.01807856559753418,-0.057130493223667145,-0.012331215664744377,-0.0013341583544388413,0.006933142896741629,-0.0070039937272667885,0.07105673104524612,-0.028726493939757347,0.028353778645396233,-0.06070863455533981,-0.05827343836426735,-0.033017609268426895,-0.07594642043113708,0.01880025491118431,-0.019484825432300568,-0.024771569296717644,-0.04324846714735031,-0.03901274502277374,0.0425991415977478,-0.02385444939136505,-0.055363599210977554,0.09152327477931976,-0.027097221463918686,0.04454268142580986,-0.03769876807928085,-0.01406131498515606,0.007321457378566265,-0.029575852677226067,0.017998935654759407,0.0013796313432976604,0.02099805511534214,0.039326995611190796,0.020656436681747437,-0.033100906759500504,0.005919464398175478,0.05342539772391319,-0.03960515558719635,-0.07593905925750732,0.09794586896896362,-0.07792889326810837,0.03062748908996582,-0.05506441742181778,0.05103892832994461,0.05313076823949814,-0.03629222512245178,0.018364369869232178,-0.06708952784538269,-0.0858960896730423,0.05798793211579323,0.03370096534490585,-0.03104930743575096,0.011580088175833225,0.07519608736038208,-0.07708308845758438,-0.11927928775548935,-0.01466613169759512,0.024731941521167755,-0.0242622047662735,0.018938548862934113,0.04147123545408249,0.009910565800964832,-0.05414870008826256,0.04379558935761452,-0.03588056564331055,-0.042789213359355927,-0.05059508606791496,-0.07312606275081635,-0.09134205430746078,0.017692608758807182,-0.04392426460981369,-0.0018485115142539144,0.09500900655984879,-0.03778970614075661,0.03133169189095497,-0.03206394985318184,0.004590354394167662,0.07691886276006699,0.024253329262137413,-0.03945952281355858,-0.0234361682087183,0.017928527668118477,0.007918818853795528,0.03686574101448059,-0.037817467004060745,0.06443473696708679,-0.028448306024074554,-0.04145818203687668,-0.08041597157716751,0.014489040710031986,0.04038560390472412,0.015394723042845726,-0.02501639910042286,-0.024908853694796562,-0.04780525714159012,-0.02064475789666176,0.005076522473245859,0.11159457266330719,-0.16361559927463531,-0.059829000383615494,-0.021652355790138245,-0.0202185045927763,-0.047758765518665314,0.010560862720012665,-0.008864020928740501,-0.011909273453056812,0.07238884270191193,-0.04172768443822861,-0.10449004918336868,-0.03434654325246811,0.057144325226545334,0.13618652522563934,0.09241847693920135,-0.01610753871500492,-0.0748593658208847,0.02982798032462597,-0.02524103783071041,0.08664320409297943,0.05735192820429802,-0.023716971278190613,0.036447882652282715,0.002609043149277568,0.17808844149112701,-0.0069287605583667755,-0.02232608012855053,0.023082448169589043,-0.23753447830677032,0.020227758213877678,0.03518432006239891,0.0028415173292160034,-0.02705884911119938,-0.04981507733464241,0.08344119787216187,0.0007608262822031975,-0.1117996871471405,-0.09065090864896774,-0.08859706670045853,0.08452742546796799,0.05607800558209419,0.07335615903139114,0.0379977747797966,-0.0010216239606961608,0.019211485981941223,0.032686881721019745,-0.038802776485681534,0.0794014185667038,-0.04349331557750702,0.014317712746560574,0.04741944372653961,-0.08533111214637756,-0.057423509657382965,-0.012752065435051918,-0.037776924669742584,0.007013075985014439,-0.13170930743217468,-0.0319637656211853,-0.009667422622442245,0.02520068921148777,0.026528408750891685,-0.030160440132021904,-0.1396789401769638,0.004552152939140797,0.05777263641357422,-0.04153360426425934,0.052654869854450226,-0.07476291060447693,-0.10300562530755997,-0.004438006319105625,-0.062042344361543655,0.14967431128025055,-0.04137091711163521,0.08280422538518906,0.0017043107654899359,0.042479008436203,0.05837659910321236,0.00396303553134203,0.04247010499238968,-0.02525017037987709,0.06754513084888458,0.022056173533201218,-0.04867083951830864,0.062110401690006256,-0.001771167735569179,-0.06877931952476501,0.03701901435852051,0.02431240677833557,0.120629221200943,0.12528511881828308,-0.012051220051944256,-0.02807592786848545,-0.041420068591833115,-0.007225944194942713,0.040660977363586426,0.03797077015042305,-0.012516077607870102,0.030006375163793564,-0.020716574043035507,-0.09832840412855148,-0.021866295486688614,0.04840133339166641,-0.03994796797633171,0.04455764591693878,0.019837716594338417,-0.08834251016378403,0.007339031435549259,0.06300926953554153,-0.017666835337877274,-0.13799571990966797,0.07064242660999298,-0.017610104754567146,-0.0807909294962883,-0.021497847512364388,-0.004324111621826887,-0.016549156978726387,-0.03855125606060028,0.010674925521016121,-0.0814262181520462,-0.033898841589689255,0.05763371288776398,0.0043522631749510765,-0.00651894323527813,-0.029568742960691452,-0.006403462029993534,0.009524025022983551,-0.05632537230849266,-0.11636045575141907,0.05739926919341087,0.020897407084703445,-0.029328232631087303,-0.11366425454616547,0.013071353547275066,0.061463579535484314,0.039285387843847275,-0.002636921824887395,-0.023421967402100563,-0.08348613232374191,0.005595632828772068,-0.012492232024669647,0.04749031364917755,0.0015402351273223758,-0.03930925205349922,-0.020153088495135307,-0.06230815500020981,0.03736068680882454,0.024464495480060577,0.002736062277108431,0.05405459553003311,-0.09391488134860992,0.029280059039592743,-0.012046399526298046,-0.05610746517777443,-0.010328602977097034,0.007833120413124561,-0.03424818068742752,0.01664086803793907,0.017804857343435287,-0.028936387971043587,-0.01360170729458332,-0.011569536291062832,-0.020838560536503792,0.02714153379201889,-0.033200401812791824,-0.02765713259577751,-0.11562782526016235,0.10527353733778,0.0495978407561779,-0.006806610152125359,0.008464256301522255,0.037096165120601654,0.04937252402305603,0.0530218705534935,-0.022223087027668953,-0.013494397513568401,0.08215885609388351,0.03942474350333214,-0.028793584555387497,0.006076791323721409,-0.0013411305844783783,0.02723490633070469,-0.019765028730034828,0.02822568267583847,0.06303787231445312,0.03414080664515495,0.02029506303369999,-0.01204125676304102,0.019664891064167023,0.07004943490028381,0.03726160153746605,-0.03053678199648857,0.03192828595638275,0.08153285831212997,-0.04010923579335213,0.0029110312461853027,0.06466453522443771,-0.00039320593350566924,-0.07034070789813995,0.03494538366794586,0.003687860444188118,0.004385560750961304,-0.02957942895591259,-0.013796668499708176,0.032124001532793045,0.13058649003505707,0.08780264854431152,0.04649323225021362,0.03108515776693821,-0.05207347869873047,-0.011778337880969048,-0.020961662754416466,-0.023072652518749237,0.00033963879104703665,0.09579983353614807,0.04690912738442421,0.011637350544333458,0.0033578902948647738,0.047701459378004074,0.08159784227609634,-0.06797395646572113,0.008623591624200344,-0.14613956212997437,-0.10944078862667084,-0.03147311881184578,-0.09912313520908356,0.08140383660793304,-0.16415829956531525,-0.020367315039038658,-0.10196512937545776,0.024068450555205345,-0.081952303647995,0.016076618805527687,-0.048368193209171295,-0.042333342134952545,-0.05180719867348671,0.008998336270451546,0.016272693872451782,0.013868381269276142,-0.03967985883355141,0.07740887999534607,0.010587195865809917,0.08378462493419647,0.025954142212867737,0.03968352451920509,0.020070455968379974,-0.039822034537792206,-0.03182736411690712,0.02927471324801445,0.05921627953648567,0.09172185510396957,-0.09675771743059158,0.03075883723795414,-0.10606803745031357,-0.18166443705558777,0.01863003522157669,0.02297159470617771,-0.01680455356836319,-0.1686016321182251,-0.01325155422091484,0.06599245965480804,-0.0875566154718399,0.039476990699768066,0.04992547631263733,-0.051541898399591446,-0.11001520603895187,0.07022682577371597,0.03212737664580345,0.045858245342969894,-0.025233978405594826,-0.02017674222588539,0.02860666997730732,-0.031048770993947983,0.014039499685168266,-0.003230468602851033,-0.05348704382777214,-0.010368341580033302,-0.05022751912474632,-0.03550861403346062,-0.012426747009158134,0.018616702407598495,-0.021181592717766762,-0.04642695188522339,-0.010286670178174973,-0.06165781989693642,-0.03759302198886871,0.029237516224384308,0.0030359304510056973,-0.041919272392988205,0.027059828862547874,0.020533954724669456,-0.053185660392045975,0.0072699422016739845,-0.026179488748311996,0.0345846526324749,0.018073230981826782,0.00135804433375597,-0.02082047611474991,-0.022328924387693405,-0.017870979383587837,0.0642198696732521,-0.019336538389325142,-0.06259655952453613,0.022086456418037415,-0.023628614842891693,0.016107497736811638,0.055735401809215546,-0.004824232775717974,-0.03788354620337486,-0.07528242468833923,-0.038145534694194794,-0.009334355592727661,-0.017682408913969994,-0.008739958517253399,-0.01302431896328926,-0.037844594568014145,-0.03914736956357956,0.011871703900396824,0.11347347497940063,0.017242221161723137,0.007153394632041454,0.001931701204739511,-0.0072418320924043655,0.015554971992969513,0.0057184430770576,-0.013619862496852875,-0.05646058917045593,0.018309378996491432,-0.029558077454566956,0.002831549383699894,-0.04530756175518036,
-0.038107749074697495,0.004133216105401516,-0.05353551357984543,-0.06181839853525162,0.07574760168790817,-0.046092357486486435,0.049429044127464294,0.0221884585916996,-0.12185955047607422,-0.08071690052747726,-0.012913989834487438,-0.006452382076531649,-0.08835363388061523,-0.028738386929035187,-0.06524652987718582,-0.01997034065425396,0.03636415675282478,-0.034498803317546844,0.027414921671152115,-0.009256625548005104,0.01661205291748047,0.03315962851047516,0.015765221789479256,0.01945624127984047,-0.0019699844997376204,0.02222338877618313,-0.08712927997112274,-0.03857927769422531,0.08801108598709106,0.021116109564900398,0.015899494290351868,0.02300974540412426,0.016478901728987694,-0.07315131276845932,0.028476286679506302,-0.04016757011413574,-0.008338800631463528,-0.050716668367385864,0.01996154524385929,-0.05518050864338875,0.015083473175764084,-0.010446615517139435,0.06488952785730362,0.003956861328333616,0.08735872805118561,0.03877301141619682,-0.0061548249796032906,-0.0920969694852829,0.012947377748787403,-0.03776165097951889,0.002379028592258692,-0.002562296576797962,0.02137986570596695,0.01188640296459198,-0.02733427844941616,-0.08564168959856033,-0.00555321853607893,0.041204020380973816,0.022652840241789818,-0.049981869757175446,-0.041178684681653976,0.01789887063205242,-0.02199709229171276,-0.00948647316545248,-0.01912270300090313,0.03696436062455177,0.102544866502285,-0.003334276145324111,-0.049628615379333496,0.024884095415472984,0.04702913388609886,-0.013530420139431953,-0.06728977710008621,-0.03812616318464279,0.00019824079936370254,-0.07396814227104187,0.004469162784516811,-0.005458885803818703,-0.0063647557981312275,-0.051251091063022614,-0.028115399181842804,-0.025242792442440987,-0.009109876118600368,-0.020534494891762733,0.03395862132310867,0.029114697128534317,0.038404617458581924,0.09090062230825424,-0.08459306508302689,0.0708106979727745,-0.13327057659626007,-0.12806133925914764,0.0471825897693634,-0.12147410213947296,-0.04571579396724701,0.04203252121806145,0.040546879172325134,0.052838411182165146,0.014319504611194134,-0.050678934901952744,0.00662150327116251,0.19614963233470917,0.005125467199832201,-0.004355395212769508,-0.0818968340754509,0.10107670724391937,0.041293565183877945,0.07411415129899979,0.02023845911026001,-0.004387413617223501,0.012700892984867096,-0.0013443034840747714,-0.005596079397946596,-0.061670735478401184,0.06773705035448074,0.023156924173235893,-0.08948827534914017,-0.006167897488921881,0.04186036437749863,-0.009888364933431149,0.020370444282889366,0.023045646026730537,0.046686675399541855,0.042235683649778366,0.06835968047380447,0.010396627709269524,0.050806932151317596,-0.05800233781337738,0.028149019926786423,0.10861413925886154,-0.029432551935315132,0.012205634266138077,0.023505883291363716,-0.016050085425376892,0.028505869209766388,0.033261366188526154,0.007176901679486036,0.0023853122256696224,-0.05365895479917526,-0.027946051210165024,-0.0018647395772859454,-0.013288135640323162,-0.015218394808471203,0.029715772718191147,0.022972702980041504,0.007010194938629866,-0.02273521013557911,-0.03266248106956482,-0.05721358582377434,0.019777819514274597,0.050189271569252014,0.0128646120429039,-0.012480090372264385,0.08057162910699844,0.04864468798041344,0.00653992872685194,0.0330413319170475,0.02737671509385109,-0.022408222779631615,0.03954429551959038,-0.051759272813797,0.029405122622847557,0.005655479151755571,-0.021570878103375435,-0.04125986248254776,0.022445419803261757,-0.0593385323882103,-0.03988289460539818,-0.02978738397359848,-0.06223618611693382,0.05151364952325821,-0.0013443990610539913,-0.0373578704893589,0.008773485198616982,0.017261266708374023,0.0271266158670187,-0.045244473963975906,0.021307239308953285,0.03126863017678261,-0.027095802128314972,0.045837778598070145,0.05796116590499878,0.04087849333882332,0.0028761739376932383,0.028207235038280487,0.1260831356048584,0.0305651668459177,0.0815480425953865,0.06310924887657166,0.04845001921057701,-0.008727315813302994,0.06024059280753136,0.010925018228590488,-0.022868553176522255,0.006561530288308859,0.0063311997801065445,0.09210432320833206,-0.05079447478055954,-0.019666597247123718,0.012995013035833836,0.018387578427791595,-0.07582300901412964,0.02611398696899414,0.05663232132792473,0.09128919988870621,-0.010307053104043007,-0.06410913169384003,-0.08531790971755981,-0.046300698071718216,-0.026986511424183846,0.086065873503685,0.08535702526569366,0.05466490983963013,-0.03835149481892586,0.00610084505751729,0.03788066282868385,0.021532287821173668,-0.019849445670843124,0.04663478583097458,-0.03927931562066078,-0.01200590655207634,-0.07446814328432083,0.0016770537476986647,-0.0560595728456974,0.01347580086439848,0.08044352382421494,-0.10604633390903473,0.002889014780521393,-0.06443530321121216,0.08503921329975128,0.006599048152565956,0.02220737189054489,0.014160076156258583,0.06962572038173676,-0.06816460192203522,-0.007080256473273039,0.013604813255369663,-0.07950732111930847,-0.013590972870588303,-0.019169149920344353,-0.021044312044978142,-0.05067586898803711,0.0008003908442333341,0.05548783764243126,0.07682225108146667,-0.02898845262825489,0.2991645634174347,-0.05003056675195694,0.016365792602300644,-0.03134020045399666,0.004443431738764048,-0.0003647109551820904,-0.0006720675737597048,0.03331945836544037,0.08574779331684113,-0.021783243864774704,0.039223115891218185,-0.005008314736187458,0.16850042343139648,-0.01111332606524229,0.02261064015328884,-0.014415859244763851,-0.06989938765764236,0.01806054264307022,0.10767200589179993,0.10635609924793243,0.1054065078496933,-0.12604920566082,0.09018401056528091,-0.0346408411860466,0.06075974553823471,-0.08207529038190842,-0.07088273018598557,-0.018312472850084305,-0.032485537230968475,-0.04200258478522301,-0.1189882680773735,0.005681466776877642,-0.0035139410756528378,-0.1229553148150444,0.12233100831508636,0.014227012172341347,-0.142419695854187,-0.06463024020195007,-0.023967280983924866,0.005905637517571449,-0.1274329274892807,0.02839105948805809,0.2505960166454315,0.09969904273748398,-0.09561040252447128,0.08179418742656708,0.09781359136104584,0.2680569887161255,-0.05248798802495003,0.025019751861691475,0.05628928169608116,0.1760949194431305,-0.02112400531768799,0.04642027989029884,-0.05262028053402901,-0.0839608758687973,-0.18367117643356323,0.08057956397533417,0.06727352738380432,-0.10422752052545547,0.10540696978569031,0.0552096888422966,-0.13236673176288605,-0.12923814356327057,0.06521982699632645,-0.08211064338684082,-0.06214155629277229,-0.054926175624132156,0.13501693308353424,-0.008776959031820297,-0.02026037871837616,-0.006685872562229633,0.13923892378807068,-0.14620035886764526,0.06470965594053268,0.14703792333602905,-0.005051555577665567,0.016488434746861458,0.023979805409908295,-0.07753738015890121,-0.0741899386048317,0.010630330070853233,-0.007896719500422478,-0.027185186743736267,-0.08822116255760193,-0.03702516853809357,-0.0046184794045984745,-0.2060849964618683,0.039277855306863785,-0.023792022839188576,0.02630857191979885,-0.0007873938302509487,0.049038778990507126,0.01838989555835724,0.10336270183324814,0.12628410756587982,0.032979898154735565,-0.03769735246896744,0.09212443977594376,0.10787730664014816,-0.03216436877846718,-0.05115994065999985,0.011915992945432663,0.08659201115369797,-0.07259481400251389,-0.08298471570014954,0.04109911993145943,0.024309296160936356,-0.009663748554885387,-0.044177766889333725,-0.005819601006805897,-0.08292535692453384,-0.07940799742937088,-0.008164621889591217,-0.01945510134100914,-0.03060096874833107,0.1810256838798523,0.010722379200160503,0.05137144401669502,0.03522779420018196,0.014931266196072102,-0.04061238095164299,-0.033746324479579926,-0.0338485911488533,-0.026263650506734848,-0.020410478115081787,-0.024127207696437836,-0.0711619034409523,-0.02271992899477482,-0.07098744064569473,0.0991164967417717,0.10472404956817627,0.09862729907035828,-0.03800636902451515,0.014899931848049164,-0.02602752298116684,-0.05897818133234978,-0.0888231173157692,-0.019160527735948563,-0.023661432787775993,0.013556266203522682,-0.05156545341014862,-0.08610454946756363,-0.03517122566699982,0.009780792519450188,0.03391435369849205,-0.04315465688705444,0.001577161718159914,0.03577697277069092,0.08048667758703232,0.02841855399310589,0.04222662001848221,-0.021923258900642395,-0.049102555960416794,0.012558060698211193,-0.020801717415452003,-0.005661631468683481,0.0340513214468956,0.0008091590134426951,-0.004358512815088034,0.00940523948520422,0.014260229654610157,-0.13884760439395905,0.02184336818754673,-0.1081564649939537,-0.0015459671849384904,0.08044032752513885,-0.023111362010240555,0.005399534944444895,0.09160929918289185,0.07240664958953857,-0.0897882729768753,-0.018943052738904953,0.06368597596883774,-0.010470417328178883,-0.003766989568248391,-0.05965840443968773,0.0049370103515684605,0.024899063631892204,-0.0247372817248106,-0.0015763832489028573,0.13323599100112915,-0.06600658595561981,0.0055010044015944,0.06993669271469116,0.030965788289904594,0.040219131857156754,-0.009789365343749523,-0.12885504961013794,0.00774500472471118,0.01398526132106781,-0.09417940676212311,-0.0833071619272232,-0.03483163192868233,-0.06283503770828247,0.01278671808540821,0.009580101817846298,-0.022872140631079674,0.001084421994164586,0.025578022003173828,0.054496970027685165,-0.03636705502867699,0.027916332706809044,-0.03669999539852142,-0.07722898572683334,0.013174722902476788,0.017726749181747437,-0.025359787046909332,-0.03562328219413757,-0.037265289574861526,0.10913671553134918,0.008495720103383064,-0.0026833165902644396,0.014551572501659393,0.012417204678058624,0.025827255100011826,-0.11568838357925415,-0.06296331435441971,-0.0631440132856369,0.056146834045648575,-0.044673994183540344,-0.10501132160425186,0.08178853988647461,-0.006761622149497271,-0.007177053485065699,0.04726015031337738,-0.04823567718267441,-0.05032400041818619,-0.13043427467346191,0.008218403905630112,0.02307151071727276,-0.028743261471390724,-0.13016533851623535,0.08230053633451462,-0.008768093772232533,-0.0913575142621994,-0.03849303349852562,0.0947088822722435,-0.04563070833683014,0.07963776588439941,-0.011638617143034935,-0.020086901262402534,-0.0023871571756899357,0.03196693956851959,0.021248647943139076,-0.020203804597258568,-0.05746963992714882,-0.007547854445874691,-0.04238595440983772,-0.05318991094827652,0.022965867072343826,-0.06623679399490356,-0.052055731415748596,0.09644585102796555,-0.036376968026161194,-0.08936718106269836,-0.006418715696781874,-0.03625381365418434,0.01522482093423605,-0.044013336300849915,-0.15731549263000488,0.02524697780609131,-0.030527690425515175,-0.05578473582863808,0.02553260512650013,-0.11555495858192444,0.043051984161138535,-0.03937236964702606,0.0007890734705142677,0.011037957854568958,0.01968747191131115,0.01634455844759941,-0.041794855147600174,-0.04004610329866409,0.02413991466164589,0.0008671827963553369,-0.1054997518658638,-0.023308219388127327,-0.045432765036821365,-0.00012183588114567101,0.09321825951337814,-0.013840713538229465,0.050854843109846115,0.053607672452926636,0.010871859267354012,0.0051360055804252625,0.07306762784719467,-0.015379954129457474,-0.02429892309010029,0.021152764558792114,-0.0357644222676754,-0.05779658630490303,-0.0738496333360672,0.05146997421979904,0.019235940650105476,0.013128108344972134,-0.05756862089037895,0.07226904481649399,0.06538518518209457,0.0014529228210449219,-0.040763333439826965,-0.024591248482465744,-0.014920360408723354,-0.017925051972270012,-0.012994368560612202,-0.006309532560408115,0.01528291404247284,-0.0892447754740715,-0.004285106435418129,0.01311514899134636,-0.01516789197921753,-0.021854743361473083,0.03332674503326416,0.04910844564437866,-0.0009365158621221781,-0.013440155424177647,0.031036552041769028,0.06993252038955688,-0.017599036917090416,-0.12362731993198395,0.0359598807990551,-0.079084113240242,-0.06643305718898773,-0.12976114451885223,0.04511183500289917,0.07455852627754211,0.03765437379479408,-0.06728924065828323,0.030732933431863785,-0.01670784130692482,
-0.057963088154792786,-0.02764156274497509,-0.006742366123944521,-0.019222481176257133,0.0678962990641594,0.014869439415633678,-0.040043048560619354,-0.02916150726377964,0.015997616574168205,-0.011018904857337475,0.022638611495494843,0.03570616617798805,-0.014331630431115627,-0.010037119500339031,-0.005890324246138334,0.006942268460988998,0.034614447504282,0.02098463475704193,-0.06330429017543793,-0.05682433024048805,-0.04554542899131775,-0.040477462112903595,-0.015136174857616425,-0.010577605105936527,0.02572951465845108,-0.0038993624038994312,-0.013138932175934315,0.04142863303422928,0.004756714683026075,-0.02435605227947235,-0.019395703449845314,0.03708462789654732,0.019046122208237648,0.020968064665794373,-0.038311634212732315,0.024038776755332947,-0.0022385104093700647,0.02397507056593895,-0.031148988753557205,0.04996118322014809,-0.030291913077235222,-0.06158670410513878,-0.012107068672776222,-0.015376864932477474,-0.04727797210216522,-0.058184098452329636,-0.04667139798402786,-0.027433259412646294,-0.007556544616818428,-0.023005761206150055,-0.011160227470099926,0.04251573979854584,-0.009909410960972309,0.020664094015955925,0.05318956822156906,-0.05327896028757095,-0.06157427281141281,-0.012402359396219254,-0.016759874299168587,-0.028994053602218628,-0.0015248623676598072,-0.04895529896020889,0.019654149189591408,0.02473343163728714,0.028383495286107063,-0.01581547223031521,-0.023326409980654716,0.09222155064344406,0.001705159549601376,0.03834584355354309,0.08964036405086517,-0.0344649963080883,-0.010428004898130894,0.09099211543798447,0.04137307032942772,0.013176022097468376,0.015009448863565922,-0.024616973474621773,0.057049453258514404,-0.03243466094136238,-0.0034934442956000566,-0.07427843660116196,0.04985703155398369,-0.0025484305806457996,-0.0009893719106912613,-0.10403353720903397,0.052177682518959045,0.08738400787115097,0.02466297708451748,-0.02573796734213829,0.014737886376678944,0.028752466663718224,0.02955271117389202,0.09220819920301437,0.01731131784617901,0.05366087704896927,0.04254196956753731,-0.012926540337502956,0.032216060906648636,0.006359024904668331,-0.03167795017361641,-0.06543701142072678,-0.04354802519083023,0.09390991181135178,-0.012703129090368748,-0.019510067999362946,0.05213657394051552,-0.007027418818324804,-0.059135813266038895,0.03296538442373276,0.005840316880494356,0.03651758283376694,-0.04794248193502426,0.07642320543527603,-0.06543277204036713,0.012555517256259918,-0.1209382563829422,0.07322629541158676,0.00543468352407217,-0.011092795990407467,-0.017072316259145737,-0.03385577350854874,-0.0033522064331918955,-0.02015872113406658,0.030792871490120888,-0.06576985120773315,0.036301903426647186,0.02032361924648285,0.0697387084364891,0.09534897655248642,0.06463885307312012,-0.008338020183146,-0.002339600818231702,0.009365445002913475,-0.003601311007514596,-0.03648066893219948,0.04888699948787689,0.0685872957110405,0.09205784648656845,0.05057182535529137,-0.022114580497145653,-0.028314080089330673,-0.023609956726431847,0.051001500338315964,-0.05784197151660919,-0.03844517469406128,0.04364827647805214,0.030713077634572983,-0.05208996683359146,0.013091342523694038,-0.0067402697168290615,-0.04719291627407074,0.053698327392339706,0.052457887679338455,-0.017873145639896393,-0.042840637266635895,0.037820301949977875,-0.04198961704969406,-0.04835107922554016,0.03274159133434296,0.010688663460314274,0.04063386842608452,0.006907701957970858,0.025566646829247475,-0.03309483081102371,-0.0427698977291584,-0.046165723353624344,-0.001822160673327744,-0.0037974396254867315,-0.07165256887674332,0.01851055771112442,-0.06033463031053543,0.05844058841466904,0.023520175367593765,-0.002915821271017194,0.011177407577633858,0.012102417647838593,-0.02760884538292885,-0.010261645540595055,-0.014227375388145447,0.012581344693899155,0.02076464146375656,-0.021113868802785873,0.029453027993440628,0.009200419299304485,0.0033034593798220158,0.0113227479159832,0.08515710383653641,-0.05020614713430405,0.0184340663254261,0.0068112509325146675,0.1076957955956459,-0.039150670170784,-0.07376176863908768,-0.08671265095472336,0.026337139308452606,0.011937162838876247,0.006238785572350025,-0.0810462087392807,-0.03898066282272339,-0.04849375784397125,-0.036920011043548584,0.06662152707576752,-0.012515650130808353,-0.07697305828332901,-0.023290399461984634,-0.020549416542053223,-0.01651754230260849,0.04894114285707474,-0.06647130846977234,-0.027220912277698517,0.01678292453289032,0.027264459058642387,-0.061136048287153244,-0.0467393659055233,-0.02322911098599434,-0.01694135181605816,0.002914992393925786,-0.038690872490406036,-0.001143250847235322,0.0072256699204444885,0.015427794307470322,-0.018460046499967575,0.04237425699830055,0.014538549818098545,-0.06769134104251862,0.0646289587020874,0.015435144305229187,-0.04516418278217316,0.0011293655261397362,0.017454853281378746,-0.006677228957414627,-0.01880091242492199,-0.09217897057533264,-0.0026408799458295107,0.04831302538514137,-0.0351129025220871,0.03856506571173668,-0.03109291009604931,-0.03757355362176895,0.028748318552970886,-0.03638746961951256,-0.02149575762450695,0.003162084612995386,0.003942948766052723,0.06713973730802536,0.06546827405691147,0.007614183239638805,-0.011380386538803577,0.01749279536306858,-0.026215292513370514,0.0045174770057201385,-0.01749369688332081,0.044532205909490585,0.04286210983991623,-0.012731674127280712,0.05984454229474068,-0.009823323227465153,0.01542584877461195,0.02779657393693924,-0.11789410561323166,-0.06952767074108124,-0.16115669906139374,-0.015553947538137436,-0.10382401198148727,-0.0020529823377728462,0.13321135938167572,-0.06621021777391434,-0.03354256972670555,0.1164293959736824,-0.10655713826417923,0.05633192136883736,0.012930257245898247,3.8270118238870054e-05,0.1982094943523407,0.11928483098745346,-0.004582823254168034,0.05712740495800972,-0.15522320568561554,-0.07383948564529419,0.06924479454755783,-0.022129422053694725,0.06140948086977005,0.0285507682710886,0.06776450574398041,0.05214093253016472,0.0026605818420648575,-0.03642982617020607,0.147856667637825,0.04362097382545471,-0.06848070025444031,0.04254792258143425,-0.011537975631654263,0.10600635409355164,0.010529193095862865,0.006651649251580238,0.13109564781188965,0.043348439037799835,-0.009414241649210453,-0.019539237022399902,0.08746423572301865,0.1498669534921646,-0.03866284713149071,0.03340986743569374,0.023897236213088036,-0.10229982435703278,-0.04579664021730423,0.13895198702812195,0.08642756938934326,0.07524264603853226,0.08971245586872101,-0.022040298208594322,0.006507256533950567,0.07823126018047333,0.07097374647855759,0.04856913536787033,0.12213578820228577,0.018574221059679985,-0.13116824626922607,0.011348169296979904,-0.011819259263575077,0.10441184043884277,-0.0230100080370903,-0.045393526554107666,-0.029894763603806496,0.01440849807113409,-0.07340951263904572,0.010184197686612606,0.03707090765237808,0.020009972155094147,0.07806988805532455,0.008201053366065025,0.03073306940495968,-0.12495891749858856,-0.011836756952106953,-0.007906691171228886,-0.051617346704006195,-0.0052183847874403,-0.01505549717694521,-0.007454988081008196,-0.06041405349969864,0.059167008846998215,0.019108640030026436,0.002697874093428254,-0.023852942511439323,-0.058797746896743774,0.00925766583532095,0.05120998993515968,-0.007984045892953873,0.052753642201423645,-0.009636947885155678,-0.08856594562530518,-0.014684807509183884,-0.08800801634788513,0.005668266676366329,-0.0022102268412709236,0.01001017913222313,-0.042181842029094696,-0.13501639664173126,0.04894348978996277,-0.008510304614901543,-0.08068760484457016,-0.06644290685653687,-0.039225153625011444,-0.05077222362160683,0.04056078940629959,0.008398113772273064,0.03172695264220238,0.008985258638858795,-0.04994123429059982,-0.03355465084314346,0.03861429542303085,0.08620306849479675,0.041470419615507126,0.06316277384757996,0.0005039841053076088,0.021600408479571342,-0.008015657775104046,0.02369586005806923,0.004351532086730003,-0.043748024851083755,0.037257421761751175,0.06250552088022232,-0.0273085068911314,0.0613650344312191,-0.04049472510814667,-0.08642690628767014,-0.014833644963800907,-0.03299936652183533,0.02011815458536148,0.015503033995628357,-0.062231842428445816,0.06429831683635712,-0.01295723207294941,-0.044153451919555664,-0.01991448737680912,0.01802132837474346,0.010586189106106758,-0.04617118090391159,0.011354448273777962,-0.0023344182409346104,-0.007998702116310596,-0.0022228823509067297,0.06893546134233475,-0.014375085011124611,0.027636690065264702,-0.02810947597026825,-0.015978751704096794,-0.007933640852570534,-0.006282501854002476,0.00721676554530859,0.04325154796242714,-0.10087193548679352,0.005357840098440647,0.004116036929190159,-0.006387592293322086,-0.023007752373814583,0.03843742609024048,0.019533734768629074,-0.023274773731827736,0.011000602506101131,0.03344900161027908,-0.021464386954903603,0.013375331647694111,-0.006381897255778313,-0.0011479631066322327,0.010400790721178055,-0.021977564319968224,-0.008057444356381893,0.06548382341861725,-0.015088092535734177,0.07555558532476425,-0.018856536597013474,0.0025222860276699066,-0.006716171745210886,-0.00209281244315207,-0.008609664626419544,0.07945649325847626,0.011925701051950455,0.047569867223501205,-0.012441170401871204,0.06389012187719345,-0.02557349018752575,-0.0325506217777729,0.010401777923107147,-0.040482573211193085,0.012414372526109219,-0.022883230820298195,0.06699905544519424,0.01934848353266716,0.027889151126146317,0.06011006981134415,-0.02265128679573536,0.05017266049981117,0.05838664248585701,-0.027298366650938988,0.02742789126932621,-0.019180336967110634,-0.01867852173745632,-0.014877624809741974,0.027034249156713486,-0.015108796767890453,-0.0017599902348592877,0.0297327172011137,-0.022488832473754883,0.006996050477027893,-0.00966974813491106,0.09952995181083679,-0.008181468583643436,-0.043969910591840744,0.021700434386730194,0.02755245938897133,0.026259422302246094,0.021163931116461754,0.01741814985871315,-0.032094281166791916,0.03524589166045189,0.06442766636610031,-0.015130619518458843,0.023049751296639442,0.05059755593538284,0.025930728763341904,-0.009757151827216148,0.07913010567426682,-0.01906498707830906,0.0041477493941783905,-0.02499423921108246,0.07167366147041321,0.008534356951713562,0.046423740684986115,0.03424197435379028,-0.03076248988509178,-0.032289229333400726,-0.012153753079473972,0.006403130944818258,-0.02084760181605816,-0.1253189742565155,0.04339853674173355,-0.11913920938968658,0.03600192070007324,0.0019969309214502573,0.024842577055096626,0.0912386104464531,0.02385649085044861,0.05313028022646904,0.014503859914839268,0.025856440886855125,-0.052220746874809265,0.004038387443870306,-0.015977976843714714,-0.01721017248928547,0.045118577778339386,0.05135893076658249,0.08613884449005127,0.010446934029459953,0.031645268201828,0.015255482867360115,0.060120705515146255,0.009113495238125324,-0.09156008064746857,0.017370492219924927,-0.019173597916960716,0.06313575804233551,0.0503486692905426,-0.06995666027069092,0.013578014448285103,-0.03776921331882477,0.07391679286956787,0.01216451358050108,0.04180072993040085,0.025521986186504364,-0.007243194617331028,-0.036331657320261,0.004049357026815414,0.03851933404803276,0.02287878468632698,-0.01522365678101778,0.02299549989402294,0.06934026628732681,0.016525505110621452,-0.018918227404356003,-0.027967192232608795,-0.0038172707427293062,0.009462373331189156,0.01221520733088255,-0.030279187485575676,0.015951408073306084,0.019744692370295525,-0.030460752546787262,-0.010358791798353195,-0.019088981673121452,0.03451121225953102,-0.002948434790596366,-0.006977485492825508,-0.022191481664776802,-0.013023057952523232,0.019642464816570282,0.010214466601610184,0.015424690209329128,-0.015106833539903164,-0.028411496430635452,-0.012775381095707417,0.0034419025760143995,-0.022344691678881645,-0.011969683691859245,0.0637916773557663,0.038498200476169586,-0.07736805081367493,0.013812205754220486,-0.013086896389722824,-0.006762845907360315,0.008400236256420612,-0.02939598634839058,0.07203307002782822,0.056955933570861816,-0.05144926905632019,
0.030306747183203697,-0.01202286034822464,-0.005710597615689039,0.06293974816799164,0.08471865206956863,0.01728876866400242,0.08929315954446793,0.0004936166224069893,0.0328633077442646,-0.028161726891994476,-0.011985314078629017,0.07261430472135544,0.062427058815956116,0.06199532002210617,-0.020966462790966034,0.04235101491212845,-0.0023470099549740553,-0.00796668604016304,0.059626948088407516,-0.00024293411115650088,-0.013257365673780441,0.0945153757929802,-0.021735303103923798,0.09070432931184769,0.00042209544335491955,-0.01634875126183033,-0.02907554619014263,0.0009845345048233867,-0.039118941873311996,-0.02710275538265705,0.0256696455180645,0.029110459610819817,0.015618138946592808,0.020663676783442497,0.012130994349718094,-0.05734395980834961,-0.029590966179966927,0.1261916607618332,6.689143629046157e-05,0.046024248003959656,0.005458697210997343,-0.009225158020853996,0.012296932749450207,-0.02623922936618328,-0.033116091042757034,0.03253692016005516,0.0657019168138504,-0.025006884709000587,0.0055474997498095036,-0.0095162158831954,0.0007975806365720928,0.021176278591156006,0.09066083282232285,0.06551061570644379,0.07712356746196747,0.00889536738395691,0.004266828298568726,0.0064025321044027805,-0.012110917828977108,0.04852500930428505,0.050792161375284195,0.0200089942663908,0.06550472974777222,0.006762829143553972,-0.02197892777621746,-0.056052591651678085,0.10371679067611694,0.02484046295285225,0.02006080187857151,-0.051482636481523514,0.03450819104909897,-0.002957980614155531,-0.02580934204161167,0.027484852820634842,0.08493085950613022,0.05559593439102173,0.05827828869223595,0.060106631368398666,-0.024627018719911575,-0.006401773076504469,0.003241967875510454,-0.013724093325436115,0.015812618657946587,-0.019837139174342155,-0.03809594735503197,-0.021348919719457626,-0.012053788639605045,0.1209983229637146,0.07453090697526932,0.010710048489272594,0.025879040360450745,0.07118266075849533,-0.0020071985200047493,-0.0005310660926625133,0.03670286014676094,0.029430333524942398,0.004102526698261499,0.034728407859802246,-0.004097094293683767,-0.012185195460915565,-0.03128474950790405,0.05594275891780853,0.05127526447176933,-0.0008524189470335841,0.0013827886432409286,-0.018765084445476532,0.0050164200365543365,0.07132133841514587,0.1811029016971588,0.049302686005830765,0.17904898524284363,0.06397505849599838,-0.049603331834077835,0.04640989005565643,-0.02092086523771286,-0.014154721051454544,0.045540496706962585,0.004864098038524389,0.04440991207957268,-0.029583066701889038,0.14028434455394745,0.09076672792434692,-0.04686056822538376,-0.07832736521959305,0.09264430403709412,-0.02955925278365612,0.008829199708998203,0.038702599704265594,-0.05602947250008583,0.08095958083868027,-0.056537777185440063,-0.0327756330370903,-0.05416441708803177,0.005096186883747578,-0.008494569920003414,0.026206456124782562,0.009559535421431065,0.04637384042143822,0.06754346191883087,-0.01692923903465271,-0.0030906028114259243,-0.00011326619278406724,-0.030954955145716667,0.001566721242852509,0.012895406223833561,0.0020231720991432667,0.02418142929673195,-0.008934401907026768,-0.04181294143199921,0.026117688044905663,-0.04684124514460564,0.021234340965747833,0.035754457116127014,-0.03522561490535736,0.04737953841686249,-0.0763280913233757,0.014089547097682953,0.0009353034547530115,0.002119314158335328,0.0744171291589737,0.05395793914794922,0.045273274183273315,0.000701826298609376,0.04692217707633972,-0.024112090468406677,0.0841948390007019,0.05449290946125984,-0.04173915460705757,0.03812389448285103,-0.05347056686878204,0.06844876706600189,-0.0696163922548294,0.02922075428068638,0.02555391564965248,0.02584877237677574,-0.02697225660085678,-0.020125199109315872,-0.023676546290516853,-0.001118054031394422,0.00016525451792404056,0.006681378465145826,-0.028175054118037224,-0.019104773178696632,-0.041526369750499725,-0.020959438756108284,0.04637748748064041,-0.010927432216703892,-0.07951414585113525,0.06171010434627533,0.018295058980584145,0.01872696913778782,0.017522916197776794,-0.07771268486976624,-0.08039774745702744,0.03331686928868294,-0.05690569058060646,-0.040931615978479385,0.012533748522400856,0.06166014447808266,0.017610998824238777,0.06687896698713303,-0.0415007546544075,0.08437787741422653,0.1311202049255371,-0.020002251490950584,0.05356495827436447,-0.03991881385445595,0.0273663979023695,0.004311508499085903,-0.07662665843963623,-0.016995707526803017,-0.020192423835396767,-0.06707669794559479,-0.04129800572991371,0.08306106925010681,0.0739298015832901,0.13043633103370667,-0.055600013583898544,0.058025117963552475,-0.048294343054294586,0.07250839471817017,-0.1515430212020874,0.05337267369031906,-0.03974316641688347,0.07406841963529587,-0.024385277181863785,0.085794597864151,-0.019335534423589706,0.07193955779075623,0.09081386774778366,-0.05342840030789375,-0.04023377597332001,0.036503665149211884,-0.021053818985819817,-0.023250283673405647,0.05563957989215851,0.061159808188676834,0.08078421652317047,0.08789324015378952,0.10327427089214325,0.04050906002521515,0.040452077984809875,-0.02783072367310524,0.08737978339195251,0.017333414405584335,-0.037957049906253815,0.11295030266046524,-0.035055920481681824,-0.015868086367845535,-0.03503074124455452,0.07110603898763657,0.008700041100382805,-0.0024676290340721607,0.07239937782287598,0.0930088683962822,-0.009655809961259365,0.050280142575502396,-0.09190790355205536,0.13164874911308289,-0.028627654537558556,-0.05883326753973961,-0.09911487996578217,-0.03110765479505062,-0.09181530773639679,0.0021084672771394253,0.028483055531978607,-0.10962124168872833,-0.15845443308353424,-0.10252619534730911,0.025990426540374756,-0.1915593445301056,-0.058530036360025406,0.08860757201910019,-0.04353686049580574,0.05519625172019005,0.03865507245063782,-0.0017672533867880702,0.0344867929816246,0.012746027670800686,0.02586992457509041,0.00458723958581686,-0.0711805522441864,0.09442903846502304,-0.0679025948047638,-0.01531307678669691,0.04157435894012451,-0.06264080107212067,-0.003708203323185444,0.2245861291885376,-0.004787675570696592,0.04359142854809761,-0.06333991140127182,-0.017115166410803795,0.04105907678604126,-0.030264846980571747,0.10858842730522156,-0.016854209825396538,-0.057881008833646774,0.12261031568050385,-0.09234434366226196,-0.16788005828857422,0.013279472477734089,0.05383992940187454,-0.07094869762659073,0.036695219576358795,-0.02809375524520874,0.0003651455044746399,-0.1264217495918274,-0.04360315576195717,-0.00519558833912015,-0.05056684836745262,-0.07664844393730164,-0.05086997523903847,-0.02038535475730896,0.18220755457878113,-0.06493840366601944,0.1159827709197998,-0.04345868155360222,-0.03288888558745384,-0.01821843348443508,-0.049961913377046585,-0.045145634561777115,-0.07127486169338226,0.028143228963017464,-0.028406860306859016,-0.028730040416121483,0.05200568214058876,0.06898129731416702,-0.038132619112730026,-0.08749482035636902,0.04392773285508156,-0.1388501077890396,0.008169121108949184,-0.03166817128658295,-0.11097178608179092,-0.02594705857336521,-0.0016498924233019352,-0.040583498775959015,-0.0037453542463481426,-0.03945416584610939,0.06787525117397308,0.03219359740614891,-0.055727921426296234,-0.058853112161159515,0.04513061046600342,0.015873592346906662,-0.1074124276638031,-0.07689590007066727,-0.0025636018253862858,0.07506794482469559,0.011209968477487564,0.0323818139731884,0.08159215748310089,0.04798566550016403,-0.038751084357500076,0.08359912782907486,0.024625727906823158,0.11442292481660843,-0.019207186996936798,0.06281711906194687,0.053516000509262085,-0.06086965650320053,0.10358620434999466,0.007963846437633038,0.14256249368190765,0.04528771713376045,0.02701582945883274,0.00011782821820816025,0.006533574778586626,0.026299623772501945,-0.008717539720237255,-0.03329399228096008,0.02402767911553383,-0.1440974771976471,-0.025721754878759384,0.0476369708776474,-0.018703913316130638,0.09877234697341919,0.10331732779741287,-0.12043999880552292,0.013301980681717396,-0.03102710470557213,-0.07417171448469162,-0.004358944483101368,-0.023190883919596672,-0.04160825535655022,0.028918365016579628,0.010769277811050415,0.051103752106428146,-0.012319914996623993,0.14260582625865936,0.01714746095240116,0.07152988016605377,-0.0017325249500572681,-0.009003459475934505,0.036932844668626785,-0.024447020143270493,0.021893121302127838,0.0024171657860279083,0.020305534824728966,-0.002941959071904421,0.03169699013233185,-0.054182279855012894,-0.022329337894916534,0.0021786147262901068,0.019960563629865646,0.033228419721126556,-0.005255287047475576,-0.12107786536216736,0.020095374435186386,-0.012955153360962868,-0.006239460781216621,0.04230649396777153,0.015330541878938675,-0.0057798121124506,-0.00782183650881052,0.021256787702441216,0.07827753573656082,0.06538769602775574,0.03380661457777023,0.016983849927783012,0.012414966709911823,0.001730262883938849,-0.04267299175262451,0.01799745298922062,0.006783604621887207,0.03914961963891983,0.06661094725131989,0.020585279911756516,0.04615475982427597,-0.0027564559131860733,-0.004972365219146013,0.03289605677127838,-0.02002015709877014,-0.1767810732126236,0.03767409175634384,-0.007691084872931242,0.0034294582437723875,-0.04001377522945404,0.007462814915925264,-0.03903945907950401,-0.019314153119921684,0.0016261301934719086,0.10366100072860718,-0.02384066767990589,0.006426606792956591,0.03173923119902611,0.016545414924621582,0.07599306851625443,-0.030115684494376183,-1.209603578899987e-05,0.04001275449991226,-0.057193029671907425,-0.032788168638944626,-0.0030590498354285955,0.04533708095550537,-0.06736476719379425,0.011121467687189579,-0.018134960904717445,0.012583532370626926,-0.0505046546459198,0.007452581077814102,-0.07629774510860443,0.0692092776298523,0.018522871658205986,0.011403041891753674,-0.04419974610209465,-0.03583734109997749,0.07915031909942627,0.0019300406565889716,0.08195045590400696,-0.05471155792474747,-0.004546972457319498,-0.002598188351839781,-0.047703709453344345,-0.02820657379925251,-0.022715553641319275,-0.07054068148136139,0.0780470222234726,-0.10220566391944885,-0.00812521018087864,-0.00291509204544127,0.02930089272558689,0.04696023836731911,-0.08364053070545197,0.003863696940243244,-0.06146794930100441,0.009234920144081116,0.07124516367912292,0.11900404095649719,0.05388476699590683,-0.05013379082083702,0.031229829415678978,0.15238432586193085,0.07408919185400009,-0.11651721596717834,-0.00141598389018327,-0.04213077947497368,0.009382800199091434,0.2081991732120514,-0.031456880271434784,-0.008656335063278675,0.041620880365371704,0.08281369507312775,-0.024929175153374672,-0.000516143103595823,0.034814585000276566,0.08359789103269577,0.06999868154525757,-0.013900302350521088,-0.15329885482788086,-0.009132470935583115,-0.009989450685679913,-0.07639830559492111,0.0019677698146551847,0.026103690266609192,0.005345060955733061,0.0735754519701004,-0.0761973187327385,0.029129838570952415,0.014624613337218761,0.035373441874980927,0.09666763246059418,0.024493444710969925,0.0227268785238266,0.018552497029304504,-0.014440345577895641,-0.03814120590686798,0.05187606066465378,0.006406295113265514,0.00047523571993224323,0.03982611373066902,-0.03034142404794693,-0.018343333154916763,0.015463258139789104,-0.01053471677005291,0.06837911903858185,-0.026141135022044182,-0.0436004213988781,0.06209918484091759,-0.04467165842652321,0.011072318069636822,0.05217122286558151,0.07512196898460388,0.007937605492770672,-0.08311407268047333,0.050298094749450684,0.0429619625210762,-0.04011942818760872,-0.04266854748129845,0.0009856411488726735,0.04801037162542343,0.02720993012189865,-0.03496038168668747,0.0016571334563195705,-0.011654657311737537,0.048921264708042145,0.03767181187868118,0.0034405109472572803,0.07501561939716339,0.015756594017148018,0.020515311509370804,0.0005297723691910505,-0.0401158332824707,-0.014123870991170406,-0.08371980488300323,-0.0092697748914361,0.028403814882040024,-0.003626941004768014,0.016658643260598183,0.02299904078245163,-0.04543963819742203,0.031222868710756302,-0.006392338313162327,0.08757246285676956,0.07826977223157883,
0.02166212908923626,0.006725317798554897,-0.08913475275039673,0.07331309467554092,-0.003492579562589526,0.024488059803843498,-0.029109006747603416,0.0036783069372177124,0.06461284309625626,-0.011313005350530148,0.01566481776535511,-0.03268345072865486,-0.007651840336620808,0.0369131937623024,0.007317484822124243,-0.04704538732767105,0.001676838262937963,-0.01580808311700821,0.016181649640202522,-0.06145213544368744,0.0353253148496151,-0.013450995087623596,-0.061802372336387634,-0.05829111859202385,-0.09453734010457993,-0.041870780289173126,0.01723875291645527,-0.021755149587988853,-0.016821861267089844,0.013467308133840561,0.026685277000069618,0.00836043432354927,-0.033508580178022385,-0.0011752020800486207,0.006855518091470003,-0.03690795227885246,0.04049448296427727,-0.12545184791088104,0.06882917135953903,0.012626660987734795,0.022596782073378563,0.06261269003152847,0.004568878095597029,0.04100482910871506,0.07670529931783676,0.05913909897208214,0.07570821791887283,0.03764455020427704,0.040074918419122696,-0.04077759385108948,0.02997247502207756,-0.03000483103096485,0.02317088097333908,0.0010439741890877485,0.03217944875359535,0.02025981992483139,0.046904537826776505,-0.04688144847750664,-0.02145279012620449,-0.0585559606552124,0.028338389471173286,-0.06375974416732788,-0.0182882659137249,0.03890443965792656,0.020885778591036797,0.09090271592140198,0.024622507393360138,-0.0634734034538269,-0.009593955241143703,0.006322725210338831,0.0032371999695897102,-0.04575694724917412,-0.028263146057724953,-0.008539242669939995,0.16842488944530487,0.003706501331180334,-0.05914139002561569,0.014095486141741276,-0.09340180456638336,0.009654185734689236,-0.06438500434160233,0.0728573426604271,0.014043183997273445,0.05585254356265068,-0.031723711639642715,0.042355913668870926,-0.04172394052147865,-0.06507337093353271,0.05592096969485283,-0.0020278634037822485,-0.011977069079875946,-0.09341409802436829,-0.032171692699193954,-0.15021182596683502,0.03585553914308548,-0.023610282689332962,0.013983986340463161,0.03597722575068474,0.023287251591682434,0.048060137778520584,0.03182762488722801,0.03764250501990318,0.015635568648576736,-0.09367302805185318,0.02154228277504444,0.04650697857141495,0.027329470962285995,-0.03466207534074783,-0.036757756024599075,0.036032356321811676,0.011050623841583729,-0.05634457990527153,-0.03289971500635147,-0.09870485216379166,0.06595955044031143,-0.007894398644566536,-0.01508606318384409,0.021187501028180122,0.05058607459068298,0.05206429213285446,0.0038173848297446966,0.1135578379034996,-0.025543387979269028,-0.010831181891262531,0.01267708744853735,-0.031061766669154167,-0.031697098165750504,0.03301047161221504,0.011356435716152191,0.009897283278405666,0.018014146015048027,-0.0019629052840173244,0.018224474042654037,0.037114884704351425,0.00798599049448967,0.015307744964957237,0.015682565048336983,0.019867653027176857,-0.03246627748012543,0.03200400620698929,0.009331822395324707,0.03543579950928688,0.047606293112039566,-0.030007515102624893,0.009228560142219067,-0.016695359721779823,-0.026929015293717384,-0.033013470470905304,-0.052383530884981155,0.1076146587729454,0.01838929019868374,-0.0028059387113898993,-0.004504122771322727,0.016261175274848938,0.025019625201821327,0.12076832354068756,-0.007597535382956266,-0.011264515109360218,-0.011961137875914574,0.10439977794885635,0.011317914351820946,-0.015091490000486374,0.023050034418702126,-0.007246135268360376,0.05491458252072334,-0.029218442738056183,0.02826756425201893,-0.042452458292245865,0.04735284298658371,-0.002867551986128092,-0.02373765967786312,0.07751539349555969,-0.006097142118960619,0.014039243571460247,0.0027486891485750675,0.03288821130990982,0.009024993516504765,-0.010046372190117836,0.025000540539622307,-0.06553644686937332,-0.03500330448150635,-0.050731826573610306,0.023589950054883957,-0.023617558181285858,0.018857484683394432,0.05169735476374626,-0.019072841852903366,-0.04266725480556488,0.025848491117358208,-0.033753328025341034,-0.026078274473547935,-0.018498677760362625,0.06610608845949173,0.010566460900008678,-0.043771982192993164,0.044915445148944855,-0.03926961123943329,0.0019895690493285656,0.04832705110311508,0.05369824916124344,0.020734086632728577,0.011270907707512379,0.022282253950834274,0.09676310420036316,0.06480073928833008,-0.056186553090810776,-0.08507213741540909,-0.07878118753433228,-0.009535831399261951,0.09463828802108765,0.0482092909514904,0.046549417078495026,-0.01415067445486784,-0.016543785110116005,-0.02491977997124195,0.07663892209529877,-0.029545629397034645,-0.022884003818035126,0.009019012562930584,0.010331248864531517,0.04986199364066124,0.027736080810427666,0.03717999532818794,0.029948288574814796,0.09268558025360107,0.023564020171761513,-0.10550880432128906,0.06938755512237549,0.024024832993745804,0.07574322819709778,0.059950534254312515,-0.00038673216477036476,-0.0195577722042799,-0.01625184342265129,0.015078937634825706,0.02710307575762272,-0.10894997417926788,-0.11749923974275589,0.019781848415732384,0.06456252187490463,0.004890707321465015,0.044353991746902466,0.08448145538568497,0.14657007157802582,0.008052309975028038,0.007275405339896679,-0.0016612205654382706,0.01274231355637312,-0.03648243844509125,0.036939945071935654,-0.011106695979833603,-0.09380802512168884,0.1494404673576355,-0.07037192583084106,0.026647092774510384,-0.016757506877183914,-0.06011766940355301,0.04966157302260399,-0.10384105890989304,0.036021213978528976,0.1381053775548935,-0.010165035724639893,0.1727011799812317,-0.07204241305589676,0.10377746820449829,-0.0016459309263154864,0.0015953561523929238,-0.06741614639759064,-0.003833431052044034,0.01085783913731575,0.1283712387084961,-0.036410342901945114,-0.12363241612911224,-0.0078381123021245,0.09227114170789719,-0.09047721326351166,-0.0856713354587555,-0.02731434628367424,-0.0026215510442852974,0.12234761565923691,0.18256746232509613,0.042574599385261536,0.00812398549169302,0.005315259099006653,0.1897030621767044,-0.0192889217287302,0.06737954169511795,0.014543737284839153,0.07368154078722,0.07557307928800583,-0.09351116418838501,0.048880722373723984,0.045672450214624405,0.19912739098072052,0.024227028712630272,-0.18046791851520538,0.0036666295491158962,-0.021956395357847214,-0.01777608133852482,-0.10486561059951782,-0.07205034792423248,-0.19324132800102234,0.011809906922280788,0.01596531644463539,0.016633423045277596,-0.05079001188278198,0.05496535822749138,0.03659824654459953,0.006121288985013962,-0.0599716454744339,0.06144561991095543,0.023786529898643494,-0.0768902376294136,-0.009581195190548897,0.09166070073843002,-0.010867416858673096,-0.07243825495243073,0.0565263107419014,0.09327532351016998,0.028190281242132187,0.026254016906023026,0.00876452587544918,0.0673166960477829,0.028389232233166695,-0.007891681976616383,-0.08628634363412857,0.006508633494377136,-0.05778265371918678,-0.07802218943834305,0.018623031675815582,-0.15206274390220642,-0.014642720110714436,0.030100904405117035,-0.031204795464873314,-0.03399854898452759,-0.03270741552114487,-0.02893063798546791,0.0656781941652298,-0.007951732724905014,-0.05307627469301224,0.004338528960943222,-0.014004643075168133,-0.0074709756299853325,0.009639428928494453,0.010169613175094128,0.08091851323843002,-0.003911897540092468,-0.05576157569885254,-0.057627949863672256,-0.1215946301817894,-0.035707417875528336,-0.04442937299609184,-0.008161953650414944,0.08092225342988968,-0.04376574605703354,0.04788320139050484,0.067827507853508,0.049459297209978104,-0.06393411010503769,0.029056213796138763,0.0185947697609663,-0.05972633883357048,-0.023325279355049133,0.021069543436169624,0.04590888321399689,0.018395712599158287,-0.03301889821887016,0.14701363444328308,-0.030072776600718498,0.05314189940690994,0.07722336798906326,-0.005106770433485508,-0.025290291756391525,-0.08476869016885757,0.042541831731796265,0.09570557624101639,-0.0031573716551065445,0.008419780060648918,0.03498232364654541,-0.1103799119591713,0.03612906485795975,0.023339327424764633,-0.054021622985601425,-0.0374499149620533,0.03080078586935997,0.05293181538581848,-0.04891791194677353,-0.010967939160764217,0.09365606307983398,0.019109254702925682,-0.0655294805765152,-0.021377265453338623,0.007660294882953167,-0.018882812932133675,-0.01280108280479908,0.02235831320285797,-0.0059003387577831745,-0.029323795810341835,0.0036052085924893618,-0.009381652809679508,-0.0001987977884709835,-0.0427398681640625,0.007916743867099285,-0.049956317991018295,-0.030750267207622528,0.016795897856354713,-0.07891026884317398,0.015507460571825504,0.06771054863929749,-0.02360285259783268,-0.04085104539990425,-0.005257302429527044,-0.0692146047949791,-0.017723487690091133,-0.047427427023649216,-0.027774112299084663,0.01665240153670311,0.14538143575191498,-0.015376521274447441,0.030608460307121277,0.05103873834013939,0.009911639615893364,0.053105369210243225,0.037085145711898804,0.03581263870000839,-0.024767879396677017,0.0778634324669838,-0.03681780770421028,-0.006180978380143642,-0.026621749624609947,-0.03089013509452343,0.05374881625175476,0.021967679262161255,-0.03901998698711395,-0.00969407707452774,0.10762431472539902,0.008123932406306267,0.04519268125295639,-0.07264281809329987,0.053954269737005234,-0.007693044375628233,-0.013328180648386478,0.035310786217451096,-0.009231026284396648,-0.032757632434368134,-0.025355147197842598,0.006264644209295511,-0.017677586525678635,0.06046011298894882,0.06274940073490143,0.028063632547855377,0.04220355302095413,0.08854876458644867,0.028499651700258255,0.003975638188421726,0.018324950709939003,-0.007773033808916807,0.0018684756942093372,0.07533887773752213,0.0034696038346737623,-0.015275643207132816,-0.01471199095249176,-0.034526173025369644,-0.060372792184352875,-0.02145063504576683,-0.028096746653318405,0.012903090566396713,-0.09278929978609085,0.020560530945658684,0.01953366957604885,-0.054004229605197906,-0.0418524295091629,-0.07726512104272842,0.025294512510299683,-0.007578791584819555,-0.0159264225512743,-0.10307986289262772,0.026224926114082336,0.008685796521604061,-0.09185753017663956,-0.03436870500445366,0.015241233631968498,-0.012311271391808987,0.07046866416931152,-0.0036899412516504526,0.006107619497925043,0.012767507694661617,0.0009119472815655172,0.046363454312086105,-0.09435031563043594,0.04532473534345627,-0.0402582548558712,0.10263481736183167,-0.021994059905409813,-0.012751983478665352,0.02979903854429722,-0.011730133555829525,0.0294124074280262,0.15433578193187714,-0.049680475145578384,0.026238521561026573,0.04178667441010475,0.0004999696975573897,-0.08594664186239243,-0.03438609093427658,-0.05185123160481453,0.04786090552806854,0.0071064927615225315,0.009710213169455528,0.013674426823854446,0.03431040048599243,0.012322135269641876,0.04565533250570297,0.08621608465909958,-0.09252326190471649,-0.014271597377955914,0.043082162737846375,-0.01053000520914793,-0.014396889135241508,0.0005780847277492285,0.019769534468650818,0.028575969859957695,-0.0283795353025198,0.09651143103837967,0.023587742820382118,0.014323966577649117,-0.11082030087709427,-0.095400370657444,-0.00825745053589344,0.0370858795940876,0.05262071266770363,-0.015879590064287186,0.016628887504339218,-0.02087082527577877,-0.04193245247006416,0.05664645507931709,-0.030433526262640953,0.05614152550697327,-0.0998728945851326,0.001085640280507505,0.033653903752565384,-0.046572040766477585,0.08416873961687088,0.08147476613521576,-0.02557649090886116,0.006265111267566681,-0.04169866070151329,0.0010025035589933395,0.03399183601140976,0.02505427785217762,0.04403558373451233,-0.04218492656946182,0.031022820621728897,-0.07648948580026627,-0.04272611811757088,-0.02176712080836296,0.03943406790494919,0.039796989411115646,-0.043828994035720825,0.04290575161576271,0.03087013214826584,-0.00564618781208992,0.0426655188202858,0.08475185185670853,0.01468698587268591,-0.03268519043922424,0.014460320584475994,-0.002841696608811617,-0.0455375537276268,0.006348277907818556,0.00828796997666359,-0.05551888793706894,0.019131269305944443,-0.047722723335027695,-0.054903704673051834,-0.08707022666931152,
-0.03285724297165871,0.03576236590743065,0.039809469133615494,0.005944314878433943,0.04839538410305977,-0.047754496335983276,0.0017971734050661325,0.0025825307238847017,-0.04193386062979698,-0.03819364681839943,0.03501966595649719,0.016886582598090172,-0.0608879029750824,0.016490602865815163,-0.0003971437690779567,0.003146160626783967,0.03350542113184929,-0.05398350581526756,0.04851910099387169,0.009043892845511436,0.030168306082487106,0.008661414496600628,-0.0034207371063530445,0.0486825592815876,0.014626172371208668,0.01212562806904316,0.02198551595211029,0.08252717554569244,0.024731844663619995,0.016918981447815895,0.01457999087870121,0.029421765357255936,0.0502871610224247,-0.004595673177391291,0.05156901478767395,-0.017217617481946945,0.010099508799612522,-0.0808795690536499,-0.03987361490726471,-0.004222988151013851,0.024513699114322662,0.0031212447211146355,0.007082441821694374,0.0038642589934170246,0.001590079627931118,0.023820068687200546,0.03892361372709274,0.12605124711990356,0.02254599705338478,-0.01692582666873932,0.0549178384244442,-0.06670625507831573,-0.03111301362514496,0.013064448721706867,0.11544732004404068,0.04151920974254608,0.03287703916430473,0.0501004159450531,-0.014503861777484417,0.0749075785279274,-0.007830736227333546,0.02951139397919178,-0.010336469858884811,-0.04653213918209076,-0.010930278338491917,0.03750750795006752,0.025409674271941185,-0.05760675296187401,0.07200445234775543,-0.012753047980368137,-0.02117987535893917,-0.04663493111729622,-0.030948389321565628,0.08977927267551422,0.014991343952715397,-0.02710716426372528,-0.041775893419981,0.0627150759100914,-0.0069956411607563496,0.006764093413949013,-0.002781761810183525,-0.1384483128786087,0.006204684264957905,0.026134537532925606,-0.03389327600598335,-0.043896954506635666,-0.08532047271728516,-0.0012049720389768481,-0.008125669322907925,0.032603226602077484,0.014147811569273472,0.06237700581550598,0.04692326486110687,-0.09442967921495438,0.007338071707636118,-0.056251417845487595,-0.030085885897278786,-0.008929988369345665,-0.07105781137943268,-0.048104897141456604,-0.025795241817831993,0.14630988240242004,0.02352314256131649,-0.006876835599541664,0.05420687422156334,0.00530965905636549,0.049338001757860184,-0.07477016001939774,-0.06802981346845627,-0.059508614242076874,0.006246200297027826,0.06766672432422638,0.009868007153272629,-0.02117537148296833,-0.027790628373622894,0.022509483620524406,-0.13864995539188385,0.0711049735546112,-0.021473795175552368,0.06687530875205994,-0.048669736832380295,-0.06877505779266357,0.01645616628229618,0.03908563405275345,-0.025755349546670914,0.1079796850681305,-0.053963661193847656,0.00626505259424448,-0.07663118839263916,-0.00927351601421833,0.08403939008712769,-0.012686680071055889,-0.012096311897039413,0.033378105610609055,-0.05471939593553543,0.025352101773023605,0.0397653765976429,-0.1228947564959526,-0.0012528536608442664,-0.012539570219814777,0.01564634032547474,-0.03880802169442177,-0.0029983867425471544,-0.013098032213747501,-0.025536999106407166,-0.09968338906764984,0.008462954312562943,-0.01077636145055294,-0.0019342326559126377,0.01631259173154831,0.0025334993842989206,-0.016931386664509773,-0.001731887343339622,0.023692931979894638,-0.011248823255300522,0.012920310720801353,0.011654665693640709,-0.016256410628557205,0.029658813029527664,-0.08179279416799545,-0.006443191319704056,0.010599847882986069,0.006764533929526806,-0.06893742829561234,0.04436250030994415,0.0829843133687973,0.016522156074643135,0.03591790422797203,-0.041570309549570084,-0.028311165049672127,-0.0130201056599617,0.09121483564376831,0.010071572847664356,-0.006077772472053766,0.05175671726465225,0.048888567835092545,-0.013940177857875824,-0.051936812698841095,0.036618877202272415,-0.046071600168943405,-0.018618972972035408,0.045477911829948425,-0.01398884505033493,-0.043777160346508026,-0.014953331090509892,0.020698247477412224,-0.024182215332984924,-0.008664051070809364,-0.03568274900317192,0.03469206765294075,0.0074455831199884415,0.03315719962120056,0.005173098295927048,0.05529475212097168,-0.04698688164353371,0.014388155192136765,-0.043570730835199356,0.0037766580935567617,0.04168935865163803,-0.009826773777604103,0.020281897857785225,-0.005209981929510832,0.04560912400484085,-0.058183275163173676,-0.023146960884332657,-0.03203294426202774,-0.022178038954734802,0.034938063472509384,0.0018346625147387385,0.020342081785202026,-0.026311863213777542,0.049902185797691345,-0.029828885570168495,-0.011657162569463253,-0.05060282349586487,-0.08091817051172256,0.07161105424165726,0.004897866398096085,0.08421605080366135,0.010751438327133656,0.043445512652397156,0.010826448909938335,-0.00131195446010679,0.02807927317917347,-0.017647823318839073,0.04621877893805504,-0.03859425708651543,-0.013197764754295349,-0.005736990831792355,-0.007722130976617336,0.020887451246380806,0.041376274079084396,0.05582382529973984,-0.04265691712498665,0.02274634689092636,0.011627285741269588,-0.028108220547437668,0.03847338631749153,0.04748227819800377,0.0032453685998916626,-0.04293886572122574,0.041461750864982605,0.07030440866947174,0.08026327937841415,-0.0008901927503757179,-0.03513708338141441,-0.07413510978221893,-0.035731565207242966,-0.056597158312797546,-0.020585674792528152,0.09812504798173904,0.05589555203914642,-0.036605339497327805,-0.04128255322575569,0.07119247317314148,-0.06132505461573601,-0.14646007120609283,-0.028183693066239357,-0.17439596354961395,-0.05963791906833649,-0.03368183970451355,-0.023629898205399513,0.05209856852889061,-0.048983313143253326,-0.011181655339896679,-0.030096236616373062,-0.0630415752530098,-0.001620710827410221,-0.03571128845214844,0.010320731438696384,0.0694209635257721,0.029893899336457253,0.004822784569114447,-0.08656433969736099,0.056718405336141586,0.01201594527810812,0.003935071639716625,-0.03783363476395607,0.11656766384840012,-0.07442984730005264,0.15042276680469513,-0.026715127751231194,0.025786006823182106,0.09109660238027573,0.018662841990590096,0.12160437554121017,-0.044661495834589005,0.09913203120231628,-0.0734783485531807,-0.06273694336414337,0.0633668452501297,-0.04372673109173775,-0.057075854390859604,0.12047047913074493,-0.016530556604266167,0.025578347966074944,-0.011838116683065891,0.0067482697777450085,0.07618162781000137,0.0026801626663655043,-0.058933548629283905,0.08447067439556122,-0.17505893111228943,0.07454004138708115,0.006908946204930544,0.01896856725215912,-0.11274553090333939,-0.02650044672191143,0.024430759251117706,0.0033389260061085224,0.056962963193655014,0.00801767036318779,-0.059467069804668427,-0.11763809621334076,-0.06064357981085777,-0.03490579500794411,-0.19480636715888977,0.039750467985868454,-0.0668490007519722,0.007837801240384579,-0.012873053550720215,-0.10894457995891571,0.08894334733486176,0.07255473732948303,0.00022384616022463888,-0.01991584151983261,0.029298050329089165,-0.006169671658426523,0.028361819684505463,0.031952694058418274,0.13117127120494843,-0.029914777725934982,0.008181014098227024,0.017611002549529076,0.07103291153907776,0.04079591855406761,-0.04296219348907471,-0.016919363290071487,0.031190289184451103,0.0070442757569253445,0.036987803876399994,0.06819123029708862,0.02318829856812954,0.021245921030640602,0.07920896261930466,-0.0023264356423169374,-0.1813117116689682,0.13102160394191742,0.035826366394758224,0.009390195831656456,0.001481105457060039,0.11244213581085205,0.035924479365348816,-0.04669510945677757,-0.008220190182328224,-0.028112102299928665,-0.027586039155721664,0.029482971876859665,0.051783643662929535,-0.000384840794140473,0.007676904555410147,-0.018988655880093575,0.05731350928544998,-0.06858967989683151,0.051952287554740906,-0.014365841634571552,0.04813019558787346,0.006226272322237492,0.031010473147034645,0.05421217903494835,0.06607917696237564,-0.026268700137734413,0.0004155106144025922,-0.012335121631622314,0.03650185465812683,-0.01146011147648096,-0.0017592093208804727,0.05014146491885185,0.07047641277313232,0.005607403814792633,-0.012855501845479012,0.03327295929193497,0.03883366286754608,-0.010442505590617657,-0.0467379167675972,0.009836806915700436,0.015729045495390892,0.006999544333666563,-0.09129934757947922,-0.02352035604417324,-0.024699082598090172,0.0259396992623806,-0.0528220497071743,-0.026156779378652573,0.02230958268046379,-0.049201756715774536,0.0068082045763731,0.020467083901166916,0.07767325639724731,-0.02128271572291851,-0.011509398929774761,0.024937300011515617,0.004061272367835045,-0.028216606006026268,0.04826630279421806,0.005267257336527109,0.07910122722387314,0.004972773138433695,-0.030275626108050346,0.00038708950160071254,0.010268003679811954,0.042901311069726944,-0.011018318124115467,-0.004361363593488932,0.02834702469408512,0.03736427426338196,-0.026489058509469032,-0.08836446702480316,-0.0009390102350153029,0.00031191896414384246,-0.03201627358794212,0.013188344426453114,-0.019739406183362007,0.02503306232392788,0.005528305657207966,-0.048528920859098434,-0.04424425959587097,-0.0011130493367090821,0.007845254614949226,-0.04968080297112465,-0.014193895272910595,0.04995010420680046,-0.07548464834690094,0.015896286815404892,0.1260029524564743,-0.07633019238710403,-0.018427979201078415,0.01027974858880043,0.056285638362169266,0.030823184177279472,-0.014523927122354507,0.04560597240924835,0.08370808511972427,0.027554355561733246,-0.0024883963633328676,0.06896550953388214,-0.041591573506593704,0.03788287565112114,-0.0829089805483818,-0.05207490548491478,0.045051977038383484,0.010098542086780071,0.06477782130241394,0.009727920405566692,0.01635458879172802,-0.0008243781048804522,0.013271412812173367,0.014660431072115898,-0.02712569572031498,-0.0515768900513649,-0.06424741446971893,0.0025500336196273565,-0.006257154047489166,-0.060063499957323074,0.021491095423698425,-0.060893259942531586,-0.013484584167599678,-0.0138380853459239,-0.009955738671123981,0.021723156794905663,0.15391363203525543,0.06430795788764954,0.04890339449048042,-0.02327532321214676,-0.034557368606328964,0.05017047002911568,0.1752147525548935,-0.043547727167606354,-0.046981655061244965,0.0061907474882900715,-0.12794454395771027,-0.044429708272218704,0.08719541132450104,0.008502689190208912,-0.015464633703231812,0.06335627287626266,0.08003199100494385,0.035359837114810944,-0.038596559315919876,0.04166296124458313,-0.001885108882561326,0.017375068739056587,0.08413676917552948,-0.028337009251117706,-0.037297528237104416,-0.06193994730710983,0.013634959235787392,0.020938420668244362,-0.14181236922740936,-0.22085803747177124,-0.04139753058552742,0.03305501863360405,-0.05885674059391022,-0.0949629545211792,0.034220267087221146,0.045388128608465195,-0.017021823674440384,0.0486890934407711,0.002525988733395934,0.014985091984272003,-0.03888422250747681,-0.004304174333810806,0.12243626266717911,0.04780622199177742,0.043901391327381134,0.015059078112244606,-0.0037994938902556896,-0.03612526133656502,0.0976952314376831,-0.018155107274651527,0.019645126536488533,0.005109456833451986,-0.003984027076512575,0.03299510106444359,-0.06550218164920807,0.032739777117967606,0.03587312251329422,0.015252629294991493,0.023230424150824547,0.009576428681612015,-0.03532032668590546,-0.05848872289061546,-0.051002513617277145,-0.01156630739569664,0.04604753106832504,-0.016712578013539314,0.0587741956114769,0.05870598927140236,-0.09286527335643768,0.017681114375591278,0.00481646740809083,0.07092650979757309,0.04279953986406326,-0.07568753510713577,0.04556054249405861,0.06404589861631393,-0.008804534561932087,-0.034403081983327866,-0.01766774244606495,0.05735582485795021,-0.0054497551172971725,0.009155352599918842,-0.021326512098312378,0.05949469283223152,-0.013382877223193645,-0.019293680787086487,0.020954519510269165,0.0025938302278518677,0.001481394050642848,-0.016221623867750168,-0.019686423242092133,-0.012380498461425304,-0.016507724300026894,0.021180611103773117,-0.025625692680478096,0.04882488027215004,0.02836822345852852,0.0033115847036242485,-0.0680205449461937,0.04671836271882057,0.033783141523599625,-0.006606890819966793,0.027758928015828133,-0.05052812770009041,0.024136407300829887,-0.002036785939708352,
-0.011865080334246159,-0.020018037408590317,0.05829097703099251,0.02982235886156559,-0.05610325187444687,-0.024516591802239418,0.05407314375042915,-0.014686892740428448,-0.01233393419533968,-0.0029604777228087187,0.09534454345703125,0.017777685075998306,-0.04059026390314102,-0.04146306589245796,-0.021993892267346382,0.037347212433815,0.023853745311498642,0.059426914900541306,0.03131115809082985,-0.01947435736656189,-0.0013746734475716949,0.10556815564632416,-0.002990634646266699,0.06475020945072174,0.0072299279272556305,-0.002795885782688856,-0.010825875215232372,0.01835751160979271,-0.013515655882656574,0.08157214522361755,-0.01289279293268919,-0.03619489446282387,-0.00594377564266324,-0.006305682007223368,0.005181741435080767,-0.08673376590013504,-0.02864154987037182,0.04670572653412819,-0.007255225908011198,0.0022320349235087633,0.06406817585229874,0.04524073749780655,0.04634421691298485,0.004355205688625574,-0.05413180962204933,0.018294569104909897,0.041242584586143494,0.03934193402528763,0.0072231534868478775,-0.0254671610891819,-0.009944802150130272,-0.03083755448460579,0.01739460788667202,0.08691827952861786,0.07239360362291336,0.027255631983280182,0.0516393668949604,0.014570308849215508,-0.026261674240231514,0.10509095340967178,-0.0032586483284831047,-0.013777477666735649,-0.031295813620090485,0.0208174716681242,-0.02626846730709076,0.06523523479700089,-0.04178260639309883,0.07137724757194519,0.01932193525135517,0.04576343670487404,0.0007629286265000701,-0.05332864448428154,-0.08700322359800339,-0.05188680440187454,-0.03506757691502571,-0.03406395763158798,0.013928848318755627,-0.04317671060562134,0.0031370692886412144,0.04432554915547371,-0.019160179421305656,0.005932271480560303,0.01944008655846119,0.06290134787559509,-0.04697094112634659,-0.06826039403676987,0.016479995101690292,-0.15240775048732758,-0.06614178419113159,0.03402811288833618,0.08479446172714233,-0.002329833572730422,0.026377355679869652,-0.06550021469593048,-0.06972035765647888,0.031822413206100464,0.0015023057349026203,0.11845847964286804,0.013054252602159977,-0.11727675050497055,-0.012156565673649311,0.17195895314216614,-0.021433398127555847,-0.0346040278673172,-0.03532371297478676,-0.12149794399738312,-0.02105780318379402,0.005700342357158661,-0.07156761735677719,-0.060884080827236176,0.015907349064946175,0.04443053901195526,-0.007352436427026987,0.04561848193407059,-0.028345543891191483,-0.034975163638591766,0.0021595475263893604,0.11994467675685883,-0.03151639550924301,0.03767205402255058,0.07584734261035919,0.05903763696551323,0.01965940371155739,-0.0021278460044413805,-0.0034412858076393604,-0.0063862246461212635,0.023897428065538406,0.0011313167633488774,0.013391776941716671,0.0205580685287714,-0.009779793210327625,0.05076492205262184,0.046680860221385956,0.01214776560664177,0.039704129099845886,0.07713179290294647,-0.07425785064697266,0.057985011488199234,-0.01350262202322483,0.0006884676986373961,-0.02537168189883232,-0.04372335225343704,0.004439589101821184,-0.0018456281395629048,-0.055394455790519714,0.011323945596814156,-0.02375115267932415,-0.030248329043388367,-0.03949958458542824,-0.0463390089571476,0.026671573519706726,0.07845776528120041,0.008466441184282303,0.04239346459507942,0.035531215369701385,0.05841700732707977,-0.016153771430253983,0.022265737876296043,0.035022251307964325,0.015454635955393314,-0.0019830092787742615,0.07245467603206635,-0.02957955189049244,0.04662751406431198,0.06698427349328995,0.015365056693553925,0.03940684720873833,0.022132184356451035,0.03551732003688812,0.0031637256033718586,-0.024964774027466774,0.0031899316236376762,-0.028966061770915985,-0.004141815006732941,0.049870289862155914,-0.01241733506321907,0.019844643771648407,-0.036099422723054886,-0.015379712916910648,0.016170764341950417,-0.04903862997889519,0.04287746176123619,0.041944414377212524,0.07405857741832733,-0.007334295194596052,0.05077499896287918,0.08822242170572281,-0.056966230273246765,0.039349742233753204,0.008390713483095169,0.01323207002133131,-0.007884863764047623,-0.006114531308412552,-0.017594119533896446,-0.050723809748888016,0.053261712193489075,0.005558728706091642,-0.04039624333381653,0.022801950573921204,-0.02365233190357685,0.05913244187831879,-0.03367798402905464,-0.016203030943870544,0.015425294637680054,-0.006000161170959473,-0.04318425431847572,-0.07930246740579605,0.03748692572116852,0.0477549210190773,0.07763784378767014,-0.012992437928915024,-0.038795001804828644,-0.01930338703095913,0.0260612852871418,0.006814473308622837,0.0011185966432094574,-0.0704282745718956,0.014915754087269306,0.11376846581697464,-0.042483653873205185,0.015477228909730911,-0.04228416085243225,-0.018184546381235123,0.029575688764452934,0.06088343635201454,0.05595393478870392,-0.10646990686655045,0.030788712203502655,-0.041407667100429535,-0.020821185782551765,-0.0502593033015728,0.003093018429353833,0.12005775421857834,-0.0367426872253418,-0.06586907804012299,-0.0035472791641950607,-0.013092005625367165,-0.01752326823771,-0.051792241632938385,-0.017215702682733536,0.045590899884700775,0.023726817220449448,0.03542042523622513,-0.021341612562537193,-0.027943924069404602,-0.05869879946112633,0.09537532925605774,-0.024040665477514267,0.010304988361895084,-0.03804611414670944,0.07290145754814148,0.08287090063095093,0.03718958795070648,0.02342803403735161,0.02647610940039158,0.013753587380051613,0.06627192348241806,0.04445389285683632,-0.20476984977722168,-0.044671207666397095,-0.06920760124921799,-0.04817558452486992,-0.2517158091068268,-0.05978072062134743,-0.14985118806362152,0.1111864298582077,0.2868404686450958,-0.008575405925512314,0.04748641699552536,-0.03651018813252449,-0.06188373640179634,0.007229363080114126,-0.007915670052170753,0.048079412430524826,0.11731797456741333,-0.012527369894087315,0.014475657604634762,-0.07873032242059708,-0.14924247562885284,-0.0485556423664093,-0.060411736369132996,0.017002882435917854,-0.08753231167793274,-0.08921916782855988,0.053783781826496124,0.05823880434036255,-0.09826274961233139,-0.01663392037153244,0.054526373744010925,-0.11539454758167267,-0.0838356465101242,-0.052637677639722824,-0.09082294255495071,0.08849868178367615,-0.010572856292128563,-0.07763106375932693,0.04027917608618736,-0.061510663479566574,0.19247107207775116,0.024435630068182945,0.10468939691781998,0.011295381002128124,0.038582693785429,-0.08481422066688538,0.017514625564217567,-0.009501060470938683,-0.03270811587572098,0.10045979917049408,-0.10378159582614899,-0.05520885810256004,-0.09217450022697449,-0.043129920959472656,0.01649092137813568,-0.07264472544193268,0.019482934847474098,0.012848296202719212,0.17259614169597626,-0.0968487337231636,-0.13777583837509155,0.07823164016008377,-0.046184781938791275,0.0673852264881134,-0.06029405817389488,-0.0587371326982975,-0.011387652717530727,0.030646780505776405,-0.011703304946422577,0.03640321269631386,0.013141294941306114,-0.0064775580540299416,0.08024290204048157,-0.02945435419678688,0.05823336914181709,-0.06230583414435387,0.056138016283512115,-0.006040962412953377,0.027603240683674812,0.06417091935873032,-0.027592265978455544,0.011835913173854351,-0.02549450844526291,-0.0021696367766708136,0.00258800876326859,-0.023822955787181854,-0.027400298044085503,0.032160352915525436,0.0390300378203392,-0.02261831983923912,0.04379503056406975,0.012204328551888466,-0.017459655180573463,-0.013341161422431469,-0.014821731485426426,-0.007117225788533688,0.02622208744287491,0.10987560451030731,0.005740394350141287,-0.031215548515319824,-0.08163391798734665,-0.0007905804668553174,0.046823374927043915,0.0627531036734581,0.09723402559757233,0.05521528795361519,-0.018419085070490837,-0.025635378435254097,0.01008229237049818,0.11307661235332489,-0.06489089131355286,-0.0004996939096599817,0.038120854645967484,-0.06364211440086365,0.015984972938895226,-0.0693688690662384,-0.08327072113752365,0.058948028832674026,-0.02818184718489647,0.10749993473291397,0.038673337548971176,0.012713421136140823,0.011048142798244953,0.08945349603891373,0.0580308623611927,0.04737538844347,-0.040224116295576096,-0.008477522060275078,-0.02208155393600464,-0.03004550002515316,-0.09899595379829407,0.012325245887041092,0.021972907707095146,-0.03202264755964279,0.014348044991493225,-0.012202632613480091,0.017178993672132492,0.011729614809155464,0.003828887129202485,-0.04656028002500534,-0.0024655787274241447,-0.006522360723465681,0.009713445790112019,0.10725059360265732,-0.04417124763131142,0.008205262012779713,-0.028033273294568062,0.026511378586292267,0.0015674460446462035,-0.0039013857021927834,-0.028482118621468544,0.0010375240817666054,-0.019900284707546234,0.024555671960115433,0.017416080459952354,-0.013717367313802242,-0.006387102883309126,0.0178893581032753,-0.010584801435470581,-0.022258112207055092,-0.02340550348162651,0.013567260466516018,-0.015313750132918358,0.04611307755112648,-0.07765226066112518,-0.04410311579704285,0.015716519206762314,-0.003564374754205346,-0.025321952998638153,-0.02275240235030651,-0.018769457936286926,-0.016413822770118713,0.02349974401295185,-0.01780364103615284,0.010787617415189743,0.005271208006888628,-0.12296069413423538,-0.10545240342617035,0.019364669919013977,0.037401337176561356,0.05356349050998688,0.03615685552358627,0.029262961819767952,0.009786788374185562,-0.018176930025219917,0.14807943999767303,0.010712482035160065,-0.007150114048272371,0.04256581887602806,-0.019832422956824303,0.035470884293317795,-0.018700381740927696,-0.032458942383527756,-0.05273204296827316,-0.0033763025421649218,-0.028120720759034157,0.01061078067868948,0.018807053565979004,-0.06427009403705597,-0.029720013961195946,0.0693584680557251,-0.04987334832549095,-0.011971875093877316,-0.0753462016582489,0.08735142648220062,-0.02208961546421051,-0.0016519130440428853,0.006727044470608234,-0.07623877376317978,-0.00438482454046607,0.0009398485417477787,-0.05151922628283501,0.06532500684261322,-0.023939331993460655,0.006775416433811188,-0.030949020758271217,-0.021043363958597183,0.02432115375995636,-0.028365429490804672,-0.027435412630438805,-0.12879544496536255,0.026245854794979095,0.04304967075586319,0.00015047290071379393,-0.020022794604301453,0.0037451423704624176,0.01068216934800148,0.13136941194534302,-0.0816417783498764,-0.0509154237806797,0.0194903165102005,0.0031500249169766903,0.03435245901346207,-0.0021652530413120985,-0.061144791543483734,-0.09946125000715256,0.016024291515350342,0.0666210949420929,-0.05845809727907181,-0.021301358938217163,0.051430594176054,-0.0444723442196846,-0.05130007490515709,-0.034209709614515305,0.02835230343043804,0.013798553496599197,-0.011816348880529404,0.02239813096821308,-0.058094266802072525,-0.0033941997680813074,0.02773454785346985,-0.0753297433257103,-0.09280503541231155,0.003202876541763544,0.03545438125729561,0.041905101388692856,-0.02217031456530094,-0.00817184615880251,0.01951455883681774,0.04010242223739624,-0.00783435720950365,-0.0032733469270169735,-0.054033391177654266,0.017326589673757553,-0.0243095550686121,-0.007559619843959808,-0.011124311946332455,0.01012334506958723,0.053529687225818634,0.016110051423311234,0.018607372418045998,0.021359683945775032,0.07633229345083237,-0.028430111706256866,-0.022853389382362366,-0.018143363296985626,0.014889631420373917,0.004597299266606569,0.02646457590162754,0.015354777686297894,-0.004036415833979845,0.011851034127175808,-0.02164703980088234,-0.007990112528204918,0.0017173989908769727,-0.04541036859154701,0.020953074097633362,0.06608147919178009,-0.03259560465812683,-0.034919850528240204,0.03642720729112625,-0.0019515518797561526,0.023790979757905006,-0.051979441195726395,-0.0026222693268209696,-0.027795568108558655,0.009074373170733452,-0.07162639498710632,-0.023142166435718536,-0.016945287585258484,-0.026867737993597984,-0.023192966356873512,0.027953194454312325,0.014326535165309906,-0.010380551218986511,-0.006445247679948807,0.04277096316218376,-0.10488828271627426,0.014675131067633629,0.07952523231506348,0.005447286646813154,-0.026004193350672722,0.015199728310108185,0.06817081570625305,0.022281646728515625,-0.00719883618876338,-0.07106000185012817,0.004543122369796038,
0.02725394256412983,0.02966190315783024,-0.030381910502910614,0.03599166125059128,0.11505091935396194,-0.02331802435219288,-0.013160658068954945,-0.06492530554533005,0.06858023256063461,-0.024042809382081032,-0.04036162048578262,0.021289588883519173,0.03247738257050514,-0.02438224107027054,0.03773333132266998,0.011389782652258873,0.06944902241230011,0.02523447759449482,0.03547042980790138,0.025104397907853127,0.015390097163617611,0.009683875367045403,-0.015626320615410805,0.03778104856610298,0.01465091947466135,-0.03982555866241455,-0.03013242967426777,-0.042773012071847916,0.02562524750828743,-0.014186257496476173,-0.03845458850264549,-0.007531935349106789,-0.0006878983695060015,0.028618717566132545,-0.03538193181157112,0.04228419065475464,0.025017160922288895,-0.013387316837906837,0.025361400097608566,-0.0001861392956925556,0.031031426042318344,0.0164189375936985,-0.027593646198511124,-0.023535868152976036,-0.003249866422265768,-0.01963670365512371,0.0038687826599925756,0.04154946655035019,0.01968110352754593,0.016297083348035812,0.009534692391753197,0.046807270497083664,0.05263116583228111,0.0728706419467926,0.08697966486215591,-0.0006517423316836357,0.06926187127828598,-0.07513995468616486,-0.006960756611078978,0.005511773284524679,0.010124250315129757,0.03580496087670326,0.04921538382768631,-0.01590767130255699,-0.007146715186536312,-0.043344639241695404,-0.009302487596869469,0.014714708551764488,-0.04454636573791504,0.0037989241536706686,0.0035873656161129475,-0.015415760688483715,-0.04013805463910103,0.023510320112109184,-0.015580532141029835,0.10343053936958313,0.017301684245467186,-0.05969884991645813,-0.06466729193925858,0.0026998883113265038,-0.017899565398693085,0.08170660585165024,-0.12331189960241318,0.011303123086690903,0.04526274651288986,-0.03927089273929596,-0.034222569316625595,0.11036238819360733,0.010507732629776001,-0.06703530997037888,-0.004498803056776524,-0.022964714094996452,0.0727570652961731,0.08136799931526184,0.0809037908911705,-0.0312279611825943,0.05505730211734772,-0.0023066692519932985,-0.021484844386577606,-0.006708377040922642,-0.002617679303511977,-0.008069343864917755,-0.049282848834991455,-0.11433041095733643,0.0544014610350132,0.038870517164468765,0.02337162010371685,-0.005232028663158417,0.050858307629823685,0.04024284705519676,0.045959796756505966,-0.056191861629486084,-0.02868545427918434,0.008277609013020992,0.014514225535094738,-0.015148298814892769,-0.013439387083053589,0.005898653529584408,0.008367516100406647,-0.06644377112388611,-0.05909854173660278,-0.05861542001366615,0.027570776641368866,-0.06565213948488235,0.02363676391541958,-0.07125270366668701,-0.0031111259013414383,-0.03817319497466087,-0.006053144112229347,-0.02114306390285492,-0.05713874101638794,-0.028576528653502464,-0.02661592699587345,-0.008329242467880249,-0.03769630193710327,0.010083116590976715,-0.056554295122623444,-0.07210133224725723,0.002694907132536173,0.008737596683204174,0.002046017674729228,-0.10116522759199142,-0.030384652316570282,0.028063826262950897,-0.10283663868904114,-0.04656894877552986,-0.004125713370740414,-0.01780320703983307,-0.017293818295001984,0.029460253193974495,0.05772754177451134,-0.024177446961402893,-0.03165276348590851,0.011015822179615498,-0.03598799556493759,-0.03382067009806633,0.0233073141425848,0.061332739889621735,-0.058574989438056946,0.08343181014060974,-0.06616765260696411,0.00491216778755188,-0.03310844674706459,0.005336867179721594,-0.0007035201997496188,0.040559325367212296,0.02236734703183174,-0.023926151916384697,0.010283603332936764,0.060280993580818176,-0.025765296071767807,0.010789729654788971,-0.05430985242128372,0.011074202135205269,0.04180857166647911,0.01800525188446045,0.013740653172135353,-0.0046021523885428905,0.004576787352561951,0.05121784284710884,-0.02570183575153351,-0.02818032167851925,0.052908189594745636,0.03290112689137459,0.009975997731089592,0.02985004521906376,-0.010350176133215427,0.05363595858216286,-0.017285138368606567,-0.03235166519880295,0.014378335326910019,0.02100359834730625,0.07088615745306015,0.02836749516427517,0.17384707927703857,0.014316912740468979,0.08164846897125244,0.01136975921690464,0.011593855917453766,0.007663311902433634,0.06682845950126648,-0.05189669877290726,0.05762013792991638,0.051381200551986694,0.11989427357912064,0.058046650141477585,-0.037761934101581573,0.11606866121292114,0.03444287180900574,0.10569976270198822,0.010491705499589443,0.05531615391373634,-0.02480577677488327,0.07699570804834366,-0.09572959691286087,0.12168325483798981,0.045796867460012436,-0.020816391333937645,-0.11090259999036789,0.0419929213821888,-0.1186181902885437,-0.04191390424966812,0.06454357504844666,-0.019496871158480644,0.092409648001194,-0.019750965759158134,-0.03269975259900093,-0.05909675732254982,0.006585448980331421,-0.05545353889465332,0.04328826442360878,-0.026037750765681267,-0.06145237758755684,0.004048845265060663,0.0031943204812705517,0.08478132635354996,0.02327748015522957,-0.032149799168109894,0.09267478436231613,-0.011154193431138992,-0.006727837026119232,0.006041486747562885,-0.05724906921386719,0.07058780640363693,-0.018597695976495743,0.12267403304576874,-0.012668934650719166,0.08299829810857773,-0.007098813075572252,-0.0006383871659636497,0.00925329141318798,0.030385863035917282,0.087682344019413,0.02638784423470497,0.044096264988183975,0.06744346767663956,-0.19168032705783844,-0.051828641444444656,-0.047131504863500595,-0.11449526995420456,0.048700280487537384,-0.04744848981499672,-0.05121481418609619,-0.002709953347221017,0.007568398490548134,0.011648000217974186,0.18525449931621552,-0.0713796466588974,-0.028563054278492928,-0.07923386245965958,-0.051635757088661194,0.03399908170104027,0.0034863923210650682,-0.007076714653521776,-0.20241862535476685,0.01246159989386797,0.0946781188249588,0.04073683172464371,-0.0008929969044402242,0.07056182622909546,-0.14590254426002502,-0.11215337365865707,0.036595556885004044,0.05359486863017082,-0.052335239946842194,-0.017945999279618263,-0.04851086065173149,-0.11215285956859589,0.04366948455572128,0.01993889920413494,0.025788111612200737,-0.04609152674674988,0.022868191823363304,-0.06272070854902267,-0.08754470199346542,0.010474493727087975,0.050819434225559235,0.06108839437365532,-0.007855495437979698,-0.1747988611459732,-0.09087295830249786,0.019385680556297302,-0.08441592752933502,-0.08003240078687668,0.07932054251432419,-0.1331252008676529,0.09194910526275635,0.011537143029272556,-0.07250498235225677,0.023874659091234207,-0.036873914301395416,0.08756302297115326,-0.060925744473934174,-0.08481030911207199,0.036587584763765335,0.011175707913935184,-0.18676427006721497,-0.009443663991987705,-0.03647239878773689,-0.06079299747943878,0.0021170855034142733,-0.03368046507239342,-0.03661664202809334,0.05811813101172447,0.020985906943678856,0.036803703755140305,-0.0020903958939015865,0.08118946105241776,-0.0034094653092324734,0.007820271886885166,0.06690713763237,0.0400877371430397,0.02407011017203331,0.08239585161209106,0.09418448805809021,-0.10218504816293716,0.0030956531409174204,-0.02078004740178585,-0.04707048460841179,-0.06382516771554947,-0.03871097043156624,-0.03496183082461357,0.01647971011698246,0.10437119007110596,0.017762107774615288,0.016083747148513794,-0.030274773016572,0.12427083402872086,0.012562604621052742,0.016297267749905586,0.03017551824450493,0.05437251552939415,-0.03797293081879616,0.0019460604526102543,-0.025158949196338654,0.047776415944099426,-0.03020864725112915,0.026572948321700096,0.009390917606651783,-0.020830148831009865,-0.0010455126175656915,0.03920513764023781,-0.007238117977976799,0.09375203400850296,0.043377477675676346,0.0015845445450395346,-0.02311478741466999,0.019327437505126,0.04881768301129341,0.12049786746501923,-0.01957707107067108,-0.02005947194993496,-0.06647153943777084,-0.044623859226703644,0.020406628027558327,-0.05453071743249893,-0.015180923976004124,-0.0025819966103881598,0.04970422759652138,-0.022461984306573868,-0.06691253185272217,0.013671861961483955,-0.1023612841963768,-0.01958647184073925,-0.09804745018482208,0.034598853439092636,0.08314221352338791,0.02250431291759014,0.08943544328212738,-0.010162025690078735,0.14393475651741028,0.03901426121592522,0.019145073369145393,-0.029257826507091522,0.019270364195108414,0.11298517882823944,0.08746101707220078,-0.04139832779765129,0.050778184086084366,-0.060664378106594086,-0.02042997255921364,0.03173696994781494,-0.04368915781378746,0.020285775884985924,-0.00714262155815959,-0.03859417513012886,0.010326349176466465,0.025460977107286453,0.17045645415782928,-0.005965906661003828,0.02440594509243965,-0.017082713544368744,0.1748630255460739,-0.04092114418745041,0.013907501474022865,-0.11218051612377167,0.035128023475408554,-0.016885781660676003,-0.06768777221441269,0.011173457838594913,0.05675734952092171,0.02658662386238575,0.02593916282057762,0.02798859030008316,0.0033712114673107862,0.011510344222187996,-0.006067181471735239,0.10898882150650024,-0.031360458582639694,-0.17064258456230164,0.029803529381752014,0.006484837271273136,0.031509581953287125,-0.05643255636096001,0.07845146954059601,0.0605679452419281,-0.0383191853761673,0.10669448226690292,0.03539086878299713,-0.05368060618638992,-0.024583563208580017,-0.03771819919347763,0.025474634021520615,0.06258687376976013,0.028222475200891495,0.0025708393659442663,0.059788357466459274,-0.003933346830308437,-0.04948911815881729,-0.0307184886187315,0.06808644533157349,0.041908636689186096,0.043287355452775955,0.04892934858798981,0.04587961733341217,0.036701370030641556,-0.0434650182723999,-0.06650206446647644,-0.04270973429083824,0.07322154194116592,-0.06571768969297409,-0.05416880175471306,0.11898759752511978,-0.060793716460466385,-0.04890391230583191,0.07089897245168686,-0.09212043881416321,0.0721757560968399,0.014926090836524963,0.07218940556049347,-0.019871313124895096,0.03548559546470642,0.059556879103183746,-0.037951577454805374,-0.11369763314723969,-0.06097109615802765,0.06867071241140366,0.0025398845318704844,0.04754338413476944,-0.07615958154201508,-0.0038839555345475674,0.0482826866209507,0.06258824467658997,0.03714367002248764,0.059682901948690414,-0.018052147701382637,-0.017409803345799446,-0.03322862833738327,0.0238108541816473,0.010842031799256802,0.08809226751327515,-0.09121726453304291,0.010050341486930847,-0.024523964151740074,0.019033901393413544,0.08898846060037613,-0.0859142392873764,-0.02733314223587513,-0.07109446823596954,-0.05524105206131935,-0.005305654834955931,0.06996218860149384,-0.034223463386297226,-0.04471025615930557,-0.09065712243318558,0.10259908437728882,0.0462506078183651,0.11197076737880707,0.006594803184270859,0.04190528020262718,-0.12539590895175934,-0.007479741703718901,0.015886016190052032,0.049432020634412766,0.014233602210879326,-0.012827369384467602,0.03038431517779827,-0.01511425618082285,0.043213438242673874,0.06982507556676865,-0.01705431193113327,-0.026221606880426407,-0.05298473685979843,0.044843051582574844,0.018801260739564896,0.018024301156401634,-0.07398291677236557,-0.05689820647239685,-0.03448634594678879,0.07135009765625,0.013550329953432083,-0.07499412447214127,0.05108555778861046,-0.010075335390865803,0.01587878353893757,-0.02167995274066925,0.02139376476407051,0.0051346938125789165,0.01970580220222473,0.04265948012471199,0.019148414954543114,0.0038701719604432583,0.016942154616117477,-0.04133941978216171,0.027615806087851524,0.055119629949331284,0.01022228691726923,0.04201021045446396,-0.001800647471100092,-0.010337776504456997,0.008491883054375648,-0.04616006836295128,0.025762049481272697,0.05742907524108887,0.11133085936307907,-0.05725080147385597,0.05182311683893204,0.0464702844619751,0.03044600412249565,0.04170221835374832,0.01042171847075224,-0.010616549290716648,-0.041157644242048264,-0.039897382259368896,0.03364806994795799,-0.020899111405014992,-0.0160099808126688,-0.11389089375734329,0.022973965853452682,0.040741853415966034,0.04630617797374725,0.04705556109547615,-0.04498017206788063,-0.05229852721095085,-0.08478119224309921,-0.06179638206958771,
