-0.008548741228878498,-0.029738958925008774,0.03207656741142273,-0.027509957551956177,0.012534098699688911,-0.03151443228125572,0.015379047952592373,0.04585554823279381,0.0640718936920166,-0.052702005952596664,0.04559361934661865,0.024923890829086304,0.03568095341324806,0.04432407394051552,-0.03935640677809715,0.0379471629858017,0.01374761201441288,-0.03931901231408119,-0.0634545311331749,0.026123210787773132,0.0035584697034209967,-0.006369905546307564,-0.03903703764081001,0.02658662758767605,-0.019570086151361465,0.04841659218072891,0.05980057641863823,-0.04261913523077965,0.025173822417855263,-0.038912031799554825,-0.09211845695972443,0.017433011904358864,0.016456980258226395,-0.02435818873345852,0.015621204860508442,0.05268079787492752,0.04416361823678017,-0.006115254480391741,0.06552652269601822,-0.012890174053609371,-0.03393170237541199,-0.013457191176712513,0.019797325134277344,-0.03684615343809128,0.010640569031238556,0.012635160237550735,-0.007326666731387377,0.043938301503658295,0.0019566889386624098,-0.0560474656522274,0.051045771688222885,0.009570196270942688,0.022972334176301956,-0.00784188974648714,-0.007233030162751675,-0.0278642438352108,-0.010048510506749153,0.020556390285491943,-0.008017399348318577,-0.02801957167685032,0.01956941746175289,-0.0095081040635705,0.013797431252896786,0.009960331954061985,-0.03830279782414436,0.017446549609303474,0.04723045229911804,-0.07821763306856155,0.09056994318962097,-0.05969586968421936,0.0320311114192009,-0.11809545755386353,-0.043458160012960434,-0.04679655656218529,-0.0031411717645823956,-0.0852804034948349,-0.05664854124188423,-0.003023096825927496,0.0554046630859375,-0.041267771273851395,-0.032435450702905655,0.06308101117610931,-0.0014366274699568748,0.052351631224155426,-0.0393945537507534,-0.00397513248026371,0.01965411938726902,0.0019189724698662758,-0.04525585100054741,0.04196304455399513,-0.012700842693448067,-0.04908965528011322,0.08915840834379196,-0.05787085369229317,-0.004854791797697544,0.09624413400888443,0.015590984374284744,0.0597723051905632,-0.05331933870911598,-0.07696780562400818,0.04791061952710152,0.08285129815340042,-0.060750436037778854,-0.006866597104817629,0.054639097303152084,-0.03386063873767853,-0.010776598006486893,0.03902420774102211,-0.02449561469256878,0.02204757370054722,-0.0029714603442698717,0.03980091214179993,-0.03974945470690727,0.044166773557662964,-0.03365921601653099,0.04967217519879341,-0.02888626977801323,-0.025087697431445122,0.02410152554512024,-0.01939759962260723,0.024381577968597412,0.02138497494161129,-0.0015159428585320711,0.003146582981571555,-0.017776159569621086,-0.05456602945923805,0.030434172600507736,-0.010416790843009949,0.004821050446480513,0.015208783559501171,-0.03906938433647156,-0.04601525887846947,-0.04589821770787239,0.04814833775162697,0.03860915079712868,0.016115471720695496,-0.04556012153625488,-0.06890540570020676,0.0052785989828407764,-0.0037307124584913254,0.03595421835780144,0.028006965294480324,-0.01243978925049305,0.030049743130803108,0.024800101295113564,0.023112820461392403,-0.02535351924598217,-0.03980982303619385,-0.03875555843114853,-0.04948434606194496,-0.011628556996583939,0.016515161842107773,0.012761677615344524,0.028871946036815643,-0.00755035737529397,0.04458117112517357,0.010950666852295399,-0.009047271683812141,0.0252337995916605,0.016266006976366043,0.01309521496295929,-0.04787144064903259,-0.04497327283024788,0.043416332453489304,0.0380936898291111,0.020529894158244133,0.018772713840007782,-0.0209277905523777,0.017173711210489273,0.014783930964767933,-0.0665813684463501,0.01722622849047184,0.014752368442714214,-0.00807834044098854,-0.004116938449442387,-0.09087438881397247,-0.011633544228971004,0.06983235478401184,-0.00727536017075181,0.0319245308637619,0.00792901124805212,-0.02682359702885151,-0.046431150287389755,0.011883891187608242,-0.026242736726999283,-0.01296900399029255,0.044663481414318085,-0.02890317514538765,-0.009228760376572609,0.006332725286483765,-0.02391737326979637,0.02170439437031746,-0.05387341231107712,0.0024193350691348314,0.07436627894639969,0.015341522172093391,-0.04257533699274063,0.03338482230901718,0.012357584200799465,-0.011281049810349941,0.009334754198789597,0.0576152540743351,0.02474266290664673,0.0071602812968194485,-0.0221539456397295,-0.04829952120780945,-0.004057243932038546,0.05577343329787254,0.13947518169879913,-0.04245566576719284,-0.0031924990471452475,0.0085178567096591,0.039978448301553726,0.07844249904155731,0.03483395278453827,-0.035955898463726044,-0.004364473279565573,-0.009567923843860626,-0.019931266084313393,-0.03205575793981552,-0.07918466627597809,0.05877301096916199,-0.022850271314382553,-0.037864960730075836,0.06633388996124268,-0.034059830009937286,0.01771966554224491,0.09885955601930618,-0.03070223331451416,-0.015325400047004223,0.04278316721320152,-0.029914049431681633,-0.09309516847133636,0.06940595805644989,0.009561852551996708,-0.0295668113976717,-0.021091528236865997,-0.014390253461897373,-0.0213975440710783,0.01551845483481884,-0.001677621272392571,-0.03405033424496651,0.03126443177461624,-0.03615835681557655,0.025892749428749084,0.04617946594953537,0.10521704703569412,0.0034890223760157824,0.023888645693659782,-0.009624660015106201,0.03703797608613968,0.027811840176582336,0.0201834999024868,0.05878065899014473,-0.008275864645838737,-0.045128580182790756,0.041957419365644455,-0.07463152706623077,-0.20144182443618774,-0.08153478056192398,0.1371062844991684,0.019493544474244118,-0.08888687193393707,0.04872627928853035,0.13248614966869354,0.10622617602348328,0.030856233090162277,0.05449069291353226,-0.017144575715065002,-0.08318142592906952,5.756576865678653e-05,-0.01608724147081375,-0.10250166058540344,-0.10050570964813232,0.12954731285572052,-0.009770979173481464,0.021915804594755173,0.035554952919483185,-0.007025736849755049,-0.018917303532361984,0.12279695272445679,-0.05809503793716431,-0.04058493673801422,-0.029772816225886345,0.02691284567117691,-0.10310361534357071,0.0592670738697052,0.015331648290157318,-0.12240003049373627,-0.05241330340504646,0.007968099787831306,-0.11009655147790909,-0.05727922543883324,-0.003914050757884979,-0.08444302529096603,-0.07910338789224625,0.017947550863027573,0.030825434252619743,0.0844629779458046,0.024882961064577103,-0.01888945885002613,0.07537119835615158,0.07090827077627182,0.0372856929898262,0.000956665666308254,0.11172789335250854,0.03671358898282051,0.04377245157957077,-0.046354781836271286,-0.06878583133220673,-0.01498105563223362,0.02007608488202095,-0.027217360213398933,-0.08688218891620636,-0.05133560299873352,-0.05981196463108063,-0.02781071700155735,0.004427042324095964,0.24531243741512299,-0.043983783572912216,0.01273577194660902,0.07515538483858109,0.013607177883386612,0.020394248887896538,-0.005683842580765486,0.01406624261289835,-0.02500634454190731,-0.03350294381380081,-0.009058313444256783,-0.04595222324132919,-0.016438908874988556,0.01640392653644085,0.03828885778784752,0.01957135833799839,-0.03714003041386604,0.05470504239201546,-0.0031053193379193544,0.08058717846870422,-0.08472707122564316,-0.007294639945030212,-0.07505855709314346,-0.011273970827460289,-0.037000127136707306,0.049765218049287796,-0.008652881719172001,-0.024178236722946167,0.04708247631788254,-0.013441639021039009,-0.05446258932352066,0.04344204440712929,-0.042000703513622284,6.320194370346144e-05,-0.006516142748296261,0.026771405711770058,0.004647132940590382,0.027522535994648933,0.019009660929441452,-0.0023201252333819866,0.04139421507716179,-0.012053001672029495,-0.00022229058959055692,-0.050368182361125946,-0.03159473091363907,0.009745799005031586,0.03815654292702675,-0.07062486559152603,0.01110033132135868,-0.02761964313685894,-0.0005294757429510355,0.06363656371831894,-0.020250841975212097,0.01882847398519516,-0.01928643509745598,-0.026256531476974487,-0.00011638167052296922,-0.0736427903175354,0.00025724017177708447,-0.0616639107465744,0.03500384837388992,-0.05525888130068779,-0.0003221373481210321,-0.021103933453559875,-0.012869124300777912,0.03412279859185219,-0.001399792148731649,0.01461896300315857,-0.025004256516695023,0.03853673115372658,-0.01299760676920414,-0.03480527922511101,0.01083249319344759,-0.002195359207689762,0.004372949246317148,0.028210854157805443,-0.06713316589593887,0.008211510255932808,-0.02075420692563057,-0.006594330538064241,-0.002184508368372917,0.003027212806046009,0.010588658973574638,-0.015081564895808697,0.006267176941037178,0.006626476533710957,0.03837795555591583,0.005991213954985142,0.047984007745981216,-0.03464880958199501,-0.0024211572017520666,-0.012108393013477325,-0.012203291058540344,0.028172485530376434,-0.013295537792146206,-0.005235258489847183,0.021476391702890396,-0.011399276554584503,0.05926607921719551,-0.009488494135439396,0.031467437744140625,-0.0040494780987501144,-0.0016002921620383859,-0.0005738193867728114,-0.0016976036131381989,-0.0037193119060248137,0.0029779504984617233,-0.02896111086010933,0.036701787263154984,0.030088314786553383,0.011387743055820465,-0.015109587460756302,-0.018837517127394676,0.05041257292032242,0.02497958391904831,-0.011886948719620705,0.03382450342178345,-0.014644293114542961,0.015949226915836334,-0.009097276255488396,-0.0011839611688628793,-0.007918713614344597,0.003004576312378049,-0.0649397224187851,0.019256291911005974,0.04829680919647217,-0.028447020798921585,0.006642048712819815,-0.013112575747072697,-0.02701079659163952,0.016142908483743668,-0.0016858347225934267,0.0025664186105132103,-0.005644320975989103,0.019489463418722153,-0.006718894466757774,-0.025423793122172356,0.027650216594338417,-0.029821326956152916,0.04889898747205734,-0.039484843611717224,-0.046554192900657654,-0.006377141922712326,-0.03362872079014778,-0.02739088609814644,0.016032328829169273,0.00929171871393919,-0.1042364165186882,0.025519996881484985,-0.10063949972391129,0.05060144141316414,-0.0032665913458913565,-0.005273550748825073,0.013168470934033394,-0.02167961373925209,0.018110139295458794,0.03066926635801792,0.017320038750767708,0.06022753193974495,0.04071667417883873,0.07112249732017517,0.012371275573968887,-0.06960663944482803,0.07210826873779297,-0.028247224166989326,-0.005942189134657383,-0.06016528606414795,0.011970357038080692,-0.0041981954127550125,0.03597639873623848,0.007251454051584005,-0.01332393754273653,-0.021171942353248596,0.027168048545718193,-0.05319312959909439,-0.010842211544513702,-0.0025383317843079567,0.03806312754750252,-0.0010374326957389712,-0.05700168013572693,-0.01931612938642502,-0.020635193213820457,-0.0019507462857291102,-0.02613610215485096,-0.046677105128765106,0.06729301810264587,0.08448480069637299,-0.04798758029937744,-0.0695396363735199,0.04522131755948067,-0.01814700849354267,0.004910401534289122,0.04139137640595436,-0.004201596602797508,-0.03922911360859871,0.006726633291691542,-0.007814261130988598,-0.004593200515955687,-0.01389824878424406,0.011353258974850178,-0.03380690515041351,0.01426201406866312,-0.012249734252691269,-0.009606205858290195,-0.02441466972231865,0.01852569170296192,-0.007945965975522995,0.017329618334770203,0.008139394223690033,-0.011283786036074162,0.017135409638285637,-0.026363397017121315,-0.004401043057441711,-0.007623062003403902,0.013550308533012867,0.0033562839962542057,0.014653624966740608,-0.03724934160709381,-0.025965917855501175,0.03357109799981117,-0.021653925999999046,-0.00671458151191473,0.00029738785815425217,-0.0044430922716856,0.03908650949597359,-0.0308058001101017,-0.019948944449424744,0.011213859543204308,0.0148521289229393,0.03210609406232834,-0.026433514431118965,-0.01750016026198864,0.0554681234061718,0.018041329458355904,-0.0245753712952137,-0.015834618359804153,-0.013776026666164398,0.02881225384771824,-0.019932443276047707,-0.024743206799030304,-0.004353382624685764,0.030221035704016685,0.0024518100544810295,-0.020289534702897072,-0.01917758770287037,-0.020792394876480103,0.017676152288913727,-0.06435041129589081,-0.02533365599811077,0.01159941591322422,-0.019337855279445648,0.0007904016529209912,-0.010999890975654125,0.014674654230475426,-0.040607668459415436,-0.06190776452422142,-0.009260505437850952,0.0467117540538311,
-0.012612470425665379,-0.030306251719594002,0.008035861887037754,-0.0044832853600382805,0.004161362536251545,0.004490750376135111,0.03234279528260231,-0.008761958219110966,-0.01852012239396572,-0.010435452684760094,-0.0060514952056109905,-0.02948686294257641,-0.007535630837082863,0.023016920313239098,-0.09762026369571686,0.033515192568302155,0.0059244646690785885,0.00448594568297267,-0.03940092772245407,-0.013179093599319458,0.05352483317255974,-0.025202861055731773,-0.06678935885429382,0.007209948729723692,0.046485986560583115,-0.06363192945718765,0.07592544704675674,-0.03787241876125336,0.0006648872513324022,-0.005002219695597887,0.04774637147784233,0.008021043613553047,-0.0015141826588660479,-0.031307872384786606,-0.015205605886876583,0.03497077524662018,0.004128413740545511,0.04380626603960991,0.01620662212371826,-0.0328565314412117,-0.028777001425623894,-0.018355272710323334,-0.012216993607580662,0.010467038489878178,-0.05386047065258026,0.06639596819877625,0.032895807176828384,-0.014313409104943275,-0.006479348987340927,-0.04136718437075615,0.003952760715037584,-0.039975978434085846,0.0752682015299797,0.01580958440899849,0.03984230011701584,0.02020346187055111,0.07907655835151672,0.04259428381919861,-0.03169386088848114,0.05173367261886597,0.004296984989196062,0.009240866638720036,-0.0449068509042263,-0.05967704579234123,0.00533938966691494,-0.049574434757232666,-0.0188998244702816,-0.051615819334983826,-0.025319620966911316,0.062644362449646,0.12044480443000793,-0.08756263554096222,-0.04901912435889244,-0.015615721233189106,0.04681578651070595,-0.013143900781869888,0.0910201445221901,0.06863367557525635,0.08231677114963531,0.01680181734263897,0.004530006553977728,-0.04027491435408592,0.07543350756168365,0.03405075892806053,-0.010885733179748058,-0.0076143573969602585,0.021754590794444084,0.0368114672601223,0.04358337074518204,-0.016199365258216858,0.009823039174079895,-0.012204170227050781,-0.038070544600486755,-0.026411233469843864,-0.009982768446207047,0.11054037511348724,0.06296098977327347,0.06356820464134216,0.026186872273683548,0.03643190115690231,-0.0743890181183815,-0.012328860349953175,0.03655029088258743,0.03145318105816841,-0.061206575483083725,-0.05473560839891434,0.04934357479214668,-0.06254039704799652,0.005899052135646343,0.03930087015032768,0.003103627823293209,-0.00887648481875658,-0.028337271884083748,-0.008034922182559967,0.012245790101587772,0.02227647788822651,0.021686451509594917,0.023723041638731956,-0.01040180865675211,0.0840684175491333,-0.00909077562391758,0.04290175810456276,-0.0004497132613323629,-0.008126559667289257,0.05143620818853378,-0.01830206997692585,0.039657313376665115,0.015054138377308846,0.0009112746338360012,0.03383032605051994,-0.021520743146538734,-0.06096820533275604,0.04708264395594597,-0.05424092710018158,-0.0031487527303397655,0.052695512771606445,0.020505394786596298,0.013486123643815517,0.016888834536075592,-0.009025122970342636,-0.017442231997847557,-0.0075289467349648476,-0.01345470454543829,0.018354790285229683,-0.004647130146622658,-0.09505952894687653,-0.01994956098496914,-0.05494975298643112,-0.0005329541745595634,-0.04946603626012802,-0.0151551878079772,0.056975074112415314,0.06753420829772949,0.008776773698627949,0.001248713000677526,-0.04251489043235779,-0.02557992748916149,0.059489767998456955,0.022873368114233017,-0.012119372375309467,0.0032243847381323576,-0.05023537576198578,0.0012113325065001845,-0.05072351545095444,0.008689096197485924,0.016279660165309906,0.00791142974048853,0.01876332052052021,-0.07690244168043137,0.016444822773337364,-0.056671228259801865,0.0031479864846915007,0.02338440716266632,0.03805697336792946,0.009479215368628502,0.013803801499307156,0.014377490617334843,-0.01686706580221653,-0.012649692595005035,0.014399964362382889,0.02686506137251854,0.1348227560520172,0.057877108454704285,-0.05229971185326576,0.018196428194642067,0.03484531119465828,-0.030194969847798347,0.018033884465694427,0.004887953866273165,0.03609491139650345,-0.04155336320400238,-0.10887547582387924,-0.03493485227227211,-0.034998632967472076,0.11015435308218002,-0.04034046083688736,-0.010304614901542664,-0.07086402177810669,0.03413883596658707,-0.04642859846353531,0.005248264875262976,-0.0024584894999861717,-0.05813560262322426,0.00539190461859107,0.030932972207665443,-0.017459308728575706,0.0068145692348480225,0.03518160060048103,-0.04495391994714737,-0.003972969483584166,-0.04357877001166344,-0.016425691545009613,-0.06974444538354874,0.020288603380322456,-0.02535317838191986,0.03459995239973068,-0.0014502167468890548,-0.06665676832199097,0.04719846323132515,0.04372388496994972,-0.03337497264146805,-0.010534319095313549,0.08380035310983658,-0.06363495439291,-0.0037765915039926767,-0.010764197446405888,-0.030835049226880074,0.09432065486907959,-0.019561031833291054,-0.10322992503643036,-0.004211484454572201,-0.017809081822633743,-0.016182126477360725,0.05060889944434166,-0.07976081967353821,0.03192240372300148,-0.05131956562399864,-0.017537960782647133,-0.004903862252831459,0.05193549022078514,0.007712861988693476,-0.022417481988668442,-0.07490003108978271,-0.07402203232049942,0.043272506445646286,0.008332673460245132,0.12522435188293457,0.03195795789361,-0.0636235922574997,-0.0511486679315567,-0.07576510310173035,-0.033974092453718185,0.055787593126297,-0.03824666887521744,-0.1459755003452301,-0.002475536661222577,0.04817494750022888,-0.04153315722942352,0.055180445313453674,0.08398819714784622,0.01621447317302227,-0.016829686239361763,0.0865786150097847,-0.0015815750230103731,0.028374753892421722,-0.005359555594623089,0.0983894020318985,0.03552570939064026,0.01108427345752716,-0.08502821624279022,-0.03875228762626648,0.0532408133149147,-0.04311584681272507,0.03159797191619873,-0.03510762378573418,0.06559120863676071,-0.06268903613090515,-0.06542328745126724,0.028684379532933235,-0.18067042529582977,-0.042143259197473526,-0.18829438090324402,0.040737174451351166,0.03378588706254959,-0.017639944329857826,0.031834494322538376,-0.012107540853321552,-0.05805012211203575,0.07913738489151001,-0.028542816638946533,0.01368532795459032,-0.012189502827823162,-0.010999152436852455,-0.025978542864322662,0.03207751363515854,-0.0056075528264045715,0.09644538164138794,-0.06641416251659393,0.12208826094865799,-0.028735999017953873,0.02338690310716629,-0.09445697069168091,-0.11016163229942322,-0.07666437327861786,-0.05338694900274277,0.07968787848949432,0.0069537898525595665,0.03819187730550766,-0.03584711253643036,-0.029900938272476196,0.06954320520162582,0.03889952600002289,0.07379762828350067,-0.044113170355558395,-0.0623214915394783,-0.07796064019203186,0.060695577412843704,0.04556013271212578,0.12440135329961777,-0.030533157289028168,0.02819781005382538,0.004455120302736759,0.012779486365616322,-0.0021303799003362656,-0.07039237767457962,-0.011126830242574215,0.028114967048168182,0.060230910778045654,-0.01617474853992462,0.01601537875831127,-0.010681645944714546,-0.05201055109500885,-0.0047766598872840405,-0.0004800537135452032,0.03607191517949104,-0.004591344855725765,0.02549481764435768,-0.02458561770617962,-0.04031559079885483,-0.03869970515370369,0.03355427831411362,-0.012030459940433502,0.02138931304216385,0.0018593888962641358,0.042692385613918304,-0.02978171780705452,0.019385764375329018,-0.0038788558449596167,0.05643438175320625,0.02020944096148014,-0.032004330307245255,-0.006697853561490774,-0.011128541082143784,-0.02928735688328743,-0.042780712246894836,-0.01201309822499752,0.03616117686033249,0.016486207023262978,0.010498292744159698,-0.06220957636833191,-0.008807161822915077,-0.0011608846252784133,-0.018650593236088753,0.00212006620131433,-0.03812163695693016,-0.03214697167277336,0.013421723619103432,-0.004750931169837713,-0.016627732664346695,0.05123833566904068,0.01340151485055685,-0.028866983950138092,-0.032576367259025574,0.023661810904741287,-0.041429005563259125,0.08742430061101913,0.009859704412519932,0.0007233357755467296,-0.029003452509641647,-0.022462710738182068,-0.037388455122709274,0.03857062757015228,-0.01917143724858761,-0.03863357752561569,0.011997933499515057,0.004246199037879705,0.014214577153325081,-0.03293353319168091,0.013582373969256878,-0.003890174673870206,-0.01130133867263794,0.037203822284936905,-0.01671099103987217,0.007964667864143848,-0.003242139471694827,-0.026578865945339203,0.01212547067552805,0.01594846136868,-0.05495524778962135,0.03520558401942253,0.00725929532200098,-0.007365338038653135,0.04413522779941559,-0.031804848462343216,0.027958786115050316,0.05654527619481087,-0.007019971963018179,0.019338728860020638,0.030053293332457542,0.018728408962488174,-0.04442111402750015,-0.05914272367954254,-0.0010757019044831395,-0.01810668595135212,-0.0558457151055336,0.06962087750434875,-0.03697013109922409,-0.02673298865556717,-0.01887224055826664,0.0010487724794074893,0.0040292819030582905,0.02161788009107113,0.049153704196214676,-0.0384787917137146,0.014868628233671188,0.00490221893414855,0.005581992212682962,0.008056540042161942,0.0009907932253554463,-0.0028892962727695704,0.0329936221241951,0.05739200487732887,-0.014174483716487885,0.0714685320854187,-0.018532074987888336,0.052665725350379944,-0.029506146907806396,0.052404459565877914,0.052616462111473083,-0.04376962035894394,-0.01652558334171772,-0.023749839514493942,0.05072515085339546,-0.0005002100951969624,0.09124870598316193,0.013338698074221611,0.007993600331246853,-0.021462440490722656,-0.01001044176518917,0.015424029901623726,-0.07066047191619873,0.003101417561993003,-0.049085795879364014,0.059161171317100525,-0.0344076007604599,-0.0059018321335315704,-0.004985455889254808,-0.0717822015285492,0.0035121110267937183,0.03117503598332405,0.026573166251182556,-0.0012265852419659495,0.021093372255563736,-0.03105146996676922,0.028352612629532814,-0.029861103743314743,-0.06465420126914978,0.03428913280367851,-0.00793334748595953,0.03457091748714447,0.030831249430775642,0.027299419045448303,-0.017861036583781242,0.03873351588845253,-0.03301496058702469,-0.003963555209338665,-0.009497126564383507,0.02979906275868416,-0.019541917368769646,0.01674136333167553,0.04008350148797035,0.0023482381366193295,-0.02239581197500229,0.06387478113174438,-0.026362698525190353,0.036839623004198074,0.0667300596833229,0.00928582064807415,0.051935967057943344,-0.008375424891710281,0.03696361929178238,0.005888571962714195,0.018919482827186584,-0.0028538235928863287,0.0663665160536766,0.021221982315182686,-0.04323151335120201,-0.006594010628759861,0.024550607427954674,-0.003174725454300642,-0.02253674529492855,-0.025431202724575996,-0.022980349138379097,-0.014558587223291397,-0.02675042673945427,-0.04982857406139374,-0.03222920745611191,-0.017153320834040642,-0.0171553585678339,-0.015356007032096386,0.01749357208609581,0.02896181493997574,0.013728542253375053,0.026857316493988037,0.014145513996481895,0.013895658776164055,0.0654708668589592,-0.0035696583800017834,-0.0314934141933918,0.059249915182590485,0.006939927116036415,0.021986858919262886,0.029588889330625534,-0.018865173682570457,0.0033078875858336687,-0.017030276358127594,0.03267305716872215,0.004135799128562212,-0.056639641523361206,-0.009925049729645252,-0.02211599424481392,0.025035003200173378,0.014523761346936226,0.034725647419691086,0.01570233516395092,-0.04155886173248291,0.0024624557700008154,0.054980143904685974,-0.043864089995622635,0.019475409761071205,0.04318130016326904,0.009434112347662449,9.7277807071805e-05,-0.01775139942765236,0.031269825994968414,-0.015051678754389286,0.037846241146326065,0.0034791245125234127,0.025631185621023178,0.01387383509427309,-0.06511706113815308,-0.01732839085161686,0.020280158147215843,0.003002892481163144,0.000487212062580511,0.019649798050522804,0.02016408182680607,0.012989288195967674,0.045104555785655975,0.020358258858323097,0.008894470520317554,0.01629737764596939,0.002214717445895076,0.03606507182121277,-0.011978955008089542,0.024395566433668137,-0.06468772888183594,-0.028266234323382378,-0.02702213265001774,-0.03313146531581879,-0.024293435737490654,0.025141466408967972,-0.024452688172459602,0.012569085694849491,0.004011917859315872,-0.05253320932388306,
0.02591494843363762,-0.046594176441431046,0.005926250014454126,0.01573885977268219,-0.022150501608848572,0.0348937027156353,-0.04442141205072403,0.0323844775557518,-0.05558641999959946,-0.00861264392733574,0.03629126399755478,-0.02869768999516964,-0.020967956632375717,-0.0038938240613788366,-0.02310808002948761,0.019653812050819397,0.0013169713784009218,0.04283547028899193,0.022207606583833694,-0.053069040179252625,0.0014106737216934562,0.0077799176797270775,-0.03454769402742386,-0.020961180329322815,0.020591653883457184,0.054419972002506256,0.019564295187592506,0.009523273445665836,-0.01922336407005787,0.02238699607551098,0.022521112114191055,0.008251018822193146,0.07495611906051636,0.04980180040001869,-0.008436559699475765,0.057657141238451004,-0.056485824286937714,-0.010392233729362488,-0.09673459082841873,-0.07344899326562881,-0.010174466297030449,-0.03399059921503067,0.01135281939059496,0.0008943280554376543,0.09949827194213867,-0.006225075572729111,-0.04632049426436424,-0.07505296915769577,-0.03162485733628273,0.011694267392158508,-0.03144580498337746,-0.09620864689350128,0.0014472936745733023,0.04885061830282211,0.059313803911209106,0.12530195713043213,0.04866258427500725,0.020612454041838646,-0.05347716808319092,0.023408574983477592,0.011417337693274021,0.034803275018930435,-0.02419314533472061,-0.012521561235189438,0.036599114537239075,0.0034844449255615473,-0.1062321737408638,-0.07010474801063538,0.08300260454416275,0.037258923053741455,-0.03306175023317337,0.02091427706182003,0.03149615600705147,0.04556756466627121,0.036874305456876755,0.0066190860234200954,0.08747117221355438,0.0023804251104593277,0.004143392667174339,0.03664867579936981,0.018818147480487823,-0.04522497206926346,0.0028718963731080294,-0.007519470993429422,-0.004876045510172844,0.041875209659338,0.017553137615323067,0.010187999345362186,0.04456130042672157,0.009296631440520287,-0.025790415704250336,0.044478971511125565,-0.032492492347955704,-0.0030332976020872593,0.010054772719740868,-0.019824665039777756,-0.03709828853607178,-0.054022107273340225,0.01915433071553707,-0.03574616461992264,0.0544159933924675,0.009388072416186333,0.010996883735060692,0.004977515432983637,-0.06824564188718796,-0.004514598753303289,-0.007831182330846786,-0.022645175457000732,-0.00829985924065113,0.0015065929619595408,-0.007768088951706886,-0.04077904298901558,-0.022478366270661354,0.015604043379426003,-0.006326944567263126,-0.027226747944951057,-0.00506005622446537,0.10430887341499329,0.018207937479019165,-0.03523625433444977,-0.09128968417644501,-0.032558053731918335,0.019895222038030624,-0.01382212433964014,-0.028955649584531784,-0.054544124752283096,-0.05634389817714691,0.027555854991078377,-0.0024007835891097784,0.0012876834953203797,-0.0645781084895134,0.008068297989666462,0.030003655701875687,-0.02779984474182129,0.00043521582847461104,0.018588636070489883,-0.026455620303750038,0.038862962275743484,-0.03021131455898285,0.01393967866897583,-0.01767737790942192,0.05205400288105011,-0.00010752552043413743,-0.011672222055494785,-0.014264428056776524,-0.07835467904806137,0.01579045131802559,-0.005130445584654808,-0.014086524024605751,0.02303648740053177,0.005567128770053387,-0.0034666836727410555,-0.0003310581378173083,0.0015403529396280646,-0.017106464132666588,-0.01293701771646738,0.0017492638435214758,0.00010746162297436967,-0.021623222157359123,-0.022289063781499863,0.0005890513421036303,0.021810295060276985,0.09836716204881668,0.003912060055881739,0.035776108503341675,-0.03727308660745621,-0.004522813018411398,-0.0005740072228945792,-0.0030177340377122164,-0.012299053370952606,-0.028558706864714622,-0.014570522122085094,0.04923650994896889,0.02991585247218609,-0.04308714717626572,0.020856935530900955,-0.005768733564764261,0.011738885194063187,0.0038975966162979603,0.01617784984409809,-0.011907796375453472,0.024622708559036255,0.031234176829457283,-0.012742247432470322,0.0018324359552934766,-0.012639492750167847,-0.007027852348983288,0.011586659587919712,0.0199822299182415,0.019886495545506477,-0.040891703218221664,-0.003612457076087594,-0.0396987684071064,-0.012983379885554314,-0.024662908166646957,0.01391452644020319,0.02014799602329731,0.002088981680572033,0.060806598514318466,0.07861879467964172,-0.0013306624023243785,-0.02460959181189537,-0.02899307571351528,-0.02697630040347576,-0.065791055560112,-0.0041591753251850605,0.027202293276786804,0.014901349321007729,-0.017700210213661194,0.06616969406604767,0.09849954396486282,0.04420740157365799,-0.018062718212604523,0.022031256929039955,-0.014170912094414234,-0.03833543509244919,0.0016281373100355268,0.011053252033889294,0.004918432328850031,-0.04841369017958641,-0.02566251903772354,0.03333376348018646,0.06933783739805222,0.0010045631788671017,0.04666457697749138,-0.10068342834711075,-0.07086258381605148,0.0025373618118464947,-0.10575692355632782,0.013834821991622448,-0.04302375763654709,-0.039293527603149414,-0.0014223811449483037,-0.017546191811561584,-0.031019948422908783,0.01682732068002224,-0.0895390436053276,0.0492708720266819,-0.09185034781694412,0.01954551599919796,-0.005247368011623621,0.0038201853167265654,-0.06939978152513504,-0.0938187837600708,-0.09533978998661041,0.015868641436100006,0.014250470325350761,-0.032379306852817535,0.029839016497135162,-0.02380785346031189,0.012534533627331257,-0.05312391370534897,0.013629769906401634,-0.053505901247262955,0.012478267773985863,0.036123745143413544,-0.0038501841481775045,0.01737544685602188,0.07834763824939728,-0.023747550323605537,-0.11138686537742615,0.013069731183350086,-0.0605810172855854,-0.005924746859818697,0.04609064757823944,-0.02060779370367527,0.03808600455522537,0.05731533095240593,0.044368449598550797,-0.027792712673544884,-0.026701344177126884,-0.019695954397320747,-0.061353933066129684,0.03309236466884613,0.02395481988787651,-0.01133188046514988,-0.12534108757972717,-0.18851351737976074,0.0010669638868421316,0.005608648061752319,0.025920411571860313,-0.07057153433561325,0.020984675735235214,-0.037655290216207504,0.1861693412065506,0.1049712523818016,-0.060964372009038925,-0.09040707349777222,0.2467440813779831,0.017181484028697014,-0.04223645105957985,-0.050589002668857574,-0.15102660655975342,0.10102516412734985,0.12049884349107742,0.1215776726603508,0.02571037784218788,0.021302781999111176,0.057286426424980164,-0.011129642836749554,0.04091635346412659,0.015426368452608585,-0.047738783061504364,-0.03341871127486229,-0.009096070192754269,0.07334978133440018,-0.02186703123152256,0.04597852751612663,0.0366726852953434,-0.011341891251504421,-0.04692427068948746,-0.04980795457959175,0.018871277570724487,-0.05061551183462143,0.04082309082150459,-0.011939468793570995,0.010834566317498684,-0.026108454912900925,0.019795749336481094,-0.12086308002471924,-0.029651103541254997,-0.03806716576218605,0.004798451438546181,0.038086291402578354,0.02327626757323742,-0.004868835676461458,-0.07101082056760788,0.0025201248936355114,-0.01876036822795868,0.0017381339566782117,0.019251059740781784,-0.04879786819219589,0.005937585141509771,0.02740449644625187,0.023407967761158943,0.021405979990959167,-0.0795585960149765,0.023083142936229706,0.021601149812340736,-0.004845940042287111,-0.027042053639888763,0.0006445021135732532,-0.0008023442351259291,0.019313234835863113,-0.015255413949489594,0.04664264991879463,-0.03229497745633125,-0.013714859262108803,-0.0008077028905972838,0.02914395183324814,-0.07632710784673691,-0.0418720617890358,-0.03240819275379181,-0.02919434942305088,0.037384580820798874,0.05036375671625137,0.020506439730525017,-0.025767067447304726,0.019275479018688202,0.03907988965511322,-0.010287093929946423,0.034588586539030075,0.004002322908490896,-0.041972815990448,-0.01094771083444357,0.031751297414302826,0.02341887541115284,0.01951844058930874,-0.011850262992084026,-0.010434756055474281,0.038804665207862854,0.02920830436050892,0.0026096971705555916,-0.04005822911858559,0.03564339503645897,-0.011634986847639084,0.05735347792506218,0.0035365272779017687,0.04177673161029816,0.08448965847492218,0.014921685680747032,-0.01611997000873089,0.03834892064332962,0.01103394664824009,0.013346207328140736,0.03894117474555969,-0.00964602455496788,0.006688241381198168,-0.00127667305059731,0.014227194711565971,-0.040935978293418884,0.05661781132221222,0.022464601323008537,0.016621870920062065,0.02869119495153427,-0.03034864366054535,-0.006063792854547501,-0.04119303077459335,-0.012785813771188259,-0.0027484872844070196,0.0314846932888031,0.020464284345507622,0.018085606396198273,-0.030850831419229507,0.014288423582911491,0.032473232597112656,0.020450778305530548,-0.022189911454916,0.036651819944381714,0.017850853502750397,0.00808993075042963,-0.012018556706607342,0.05560587719082832,-0.031442102044820786,-0.034358054399490356,0.04872985929250717,0.058189019560813904,0.037345804274082184,0.05878559872508049,0.03220648318529129,-0.0010326140327379107,0.034793656319379807,-0.044069238007068634,0.03579309582710266,-0.03222180902957916,-0.00015962138422764838,-0.017809202894568443,-0.004040655214339495,-0.03870214894413948,-0.019851798191666603,0.012114890851080418,-0.023804550990462303,0.03083871118724346,0.0440865196287632,0.017941422760486603,0.002053060568869114,-0.015510964207351208,0.006285652052611113,0.03348013013601303,0.005467928480356932,-0.00247066468000412,0.010668237693607807,-0.006665374618023634,0.01935802400112152,0.025326650589704514,0.06482905894517899,0.04347933828830719,-0.009726358577609062,-0.02815297432243824,-0.03384767845273018,0.039341121912002563,-0.007892065681517124,-0.002154215704649687,0.023494796827435493,0.010271013714373112,-0.02003927156329155,-0.05528698116540909,0.014249071478843689,0.016011439263820648,0.04672577604651451,0.04883516579866409,0.004334222991019487,0.02963346242904663,0.03582960367202759,0.037961602210998535,0.00923957023769617,-0.027467448264360428,-0.01539569441229105,0.002325178822502494,0.007437164895236492,0.007948944345116615,0.08495769649744034,-0.011953960172832012,-0.024633241817355156,-0.03940121456980705,0.04592275992035866,0.07047942280769348,0.07060278207063675,0.04196126386523247,-0.0057623968459665775,0.025409288704395294,-0.05626542121171951,-0.04120763763785362,0.017288492992520332,0.06935951858758926,-0.024565694853663445,-0.07916302978992462,-0.02550988830626011,-0.016997192054986954,0.025866558775305748,-0.07480800896883011,0.00488784397020936,-0.030012112110853195,0.006044131238013506,-0.017321616411209106,-0.03408198431134224,-0.011952337808907032,0.05285301059484482,-0.019305970519781113,-0.0032513553742319345,-0.004739845171570778,0.020670784637331963,-0.0833493173122406,0.008942092768847942,-0.0017981785349547863,-0.02104697749018669,-0.004446457605808973,-0.00594121590256691,0.049925144761800766,0.028148742392659187,0.004813219420611858,-0.0063809980638325214,-0.020907144993543625,-0.03478774055838585,0.02761762961745262,0.0005916620139032602,0.03384099528193474,-0.029940346255898476,-0.0032817446626722813,-0.0025893496349453926,-0.0034481973852962255,-0.0037140280473977327,0.0036656821612268686,0.005722593516111374,0.022746343165636063,0.004544121213257313,0.02908969856798649,0.011393243446946144,0.015112328343093395,0.0064160022884607315,-0.003318492788821459,-0.04561974108219147,0.050962649285793304,-0.008955704048275948,-0.00201851362362504,0.0360281728208065,-0.020797763019800186,0.019597550854086876,-0.025233594700694084,-0.007887490093708038,0.055618494749069214,0.03150850906968117,-0.00523564824834466,0.02303009107708931,-0.03173298016190529,-0.05309901013970375,-0.025931276381015778,0.001897718058899045,-0.00011485328286653385,0.024615516886115074,-0.00312466430477798,-0.023628318682312965,0.006279499735683203,0.05108415707945824,-0.03593790531158447,0.0028134656604379416,-0.07565521448850632,0.009384064935147762,0.032670050859451294,0.037939369678497314,-0.02762574702501297,-0.007509530056267977,0.02693886123597622,0.003540448844432831,0.007485237438231707,-0.013445230200886726,-0.04298580810427666,0.0031407030764967203,0.04146694019436836,-0.03486786037683487,0.0015386443119496107,0.04654693976044655,0.00618181424215436,-0.014934644103050232,-0.00515272282063961,0.0183187834918499,
0.065635547041893,0.07495053857564926,-0.04275456443428993,0.07124114781618118,-0.024399014189839363,-0.006521227303892374,-0.0339595302939415,0.02420075610280037,0.04757017269730568,0.011914171278476715,-0.07174113392829895,-0.0003280063683632761,-0.04611341655254364,0.07423723489046097,0.03476733714342117,-0.057440828531980515,0.11006446927785873,0.04922741279006004,-0.032449934631586075,-0.015503009781241417,0.029418423771858215,-0.04882645234465599,0.0370606929063797,-0.09378045052289963,-0.03783600777387619,0.09243603050708771,-0.03681843727827072,0.06301745027303696,0.049324072897434235,-0.10219904035329819,0.02297578752040863,0.014001252129673958,0.009250606410205364,0.02105431817471981,0.07967022061347961,-0.007912336848676205,0.0448441281914711,0.020314350724220276,-0.022166961804032326,0.004672916606068611,0.006091210059821606,0.011898492462933064,-0.0074233380146324635,-0.03239353001117706,0.060386668890714645,-0.014173701405525208,0.06050069257616997,-0.005149885546416044,-0.0021286464761942625,-0.07302457094192505,0.020780423656105995,0.0485505573451519,0.0004566417192108929,0.0016953620361164212,0.024938825517892838,-0.052813902497291565,-0.15405447781085968,-0.024008680135011673,0.03701045364141464,0.00868461187928915,-0.030994972214102745,-0.01490845251828432,0.05273544415831566,0.002428815234452486,-0.03473275899887085,0.01171806175261736,0.03597204014658928,-0.028885819017887115,0.011491893790662289,-0.013650125823915005,0.09987177699804306,-0.043798644095659256,0.0034684566780924797,0.01811917871236801,-0.03803231939673424,-0.08583631366491318,-0.02368653006851673,-0.025540480390191078,0.02885490655899048,0.07903104275465012,-0.0042622946202754974,0.08282516151666641,0.02838519960641861,0.024494808167219162,0.05671905353665352,0.004044818691909313,0.009390179999172688,-0.008308262564241886,-0.025816047564148903,0.05786363035440445,0.06193898245692253,-0.059039320796728134,-0.008904158137738705,-0.07084283232688904,-0.08516309410333633,0.03563808277249336,0.040423519909381866,0.06908115744590759,-0.04942552372813225,0.050285570323467255,-0.021151568740606308,-0.0013891162816435099,-0.003103275317698717,-0.01877419836819172,-0.01581234112381935,-0.011652438901364803,0.023661643266677856,-0.033380232751369476,-0.028070149943232536,0.04753279313445091,0.05796649679541588,-0.0031254233326762915,-0.0031069815158843994,0.011479896493256092,-0.004457189701497555,-0.09636825323104858,-0.04210620000958443,-0.1395348161458969,-0.09022407978773117,-0.0080060213804245,0.06201539933681488,0.06330258399248123,-0.0017765698721632361,-0.00676666060462594,-0.07468768954277039,0.08850370347499847,-0.05392035096883774,-0.06060708686709404,-0.006066419649869204,0.03463975712656975,0.012895486317574978,0.01759069226682186,-0.02304786816239357,0.05504172667860985,0.045144930481910706,-0.0123293437063694,0.015244102105498314,-0.03376170992851257,-0.0016986802220344543,0.04118603840470314,0.040883101522922516,-0.0294122863560915,-0.03834279254078865,-0.020035216584801674,0.012531151995062828,0.022219644859433174,0.008679076097905636,0.03966101258993149,-0.028438899666070938,0.005781511776149273,0.006526018958538771,-0.012925932183861732,-0.014607880264520645,-4.652688585338183e-05,-0.010426471941173077,0.025356940925121307,-0.04369771480560303,0.029322899878025055,0.032276272773742676,0.00860405433923006,0.018665309995412827,0.0010800855234265327,-0.009112956933677197,0.02900586649775505,0.03159560635685921,-0.018728043884038925,0.009828154928982258,0.02121560089290142,-0.015832988545298576,-0.025115983560681343,0.010003759525716305,0.020298518240451813,0.0030772886238992214,-0.002633873373270035,0.004413353744894266,-0.0440174825489521,0.003998186904937029,-0.0006059084553271532,-0.005571114365011454,-0.05715730041265488,-0.023504093289375305,0.017293190583586693,0.04518180340528488,-0.024023018777370453,-0.019640669226646423,-0.004676674026995897,0.01603635959327221,-0.018102867528796196,-0.019373757764697075,-0.042109712958335876,0.018089091405272484,0.06326501071453094,0.022765835747122765,0.017501411959528923,-0.09144896268844604,-0.0013278010301291943,0.005492552649229765,-0.00018959054432343692,-0.07569585740566254,0.0543295219540596,0.0621170774102211,0.018092462792992592,-0.026862088590860367,0.04722822085022926,-0.007024775259196758,0.13287609815597534,0.03235482797026634,-0.00807409267872572,0.05119924619793892,-0.05148841068148613,0.002500334521755576,0.0011764006922021508,0.12591658532619476,-0.013185287825763226,0.03615395352244377,-0.06516943871974945,-0.08717193454504013,0.06343776732683182,-0.0003793137439060956,0.07489156723022461,-0.029963156208395958,-0.07168086618185043,-0.05292750149965286,-0.028358155861496925,0.01590067893266678,-0.06761553883552551,-0.028297321870923042,0.030640194192528725,0.08710910379886627,-0.0020265323109924793,-0.015577869489789009,0.018912699073553085,0.01968906819820404,-0.08033711463212967,-0.023683546110987663,-0.0756327286362648,0.042490117251873016,-0.0644235908985138,0.08244796842336655,-0.024392718449234962,-0.038036368787288666,-0.0664583370089531,0.020676130428910255,0.050718940794467926,0.07195112109184265,0.05274246633052826,-0.044442109763622284,0.012558601796627045,-0.08973092585802078,-0.004563443828374147,0.12095621228218079,0.015276833437383175,-0.025436747819185257,-0.017966412007808685,0.07747658342123032,-0.029056567698717117,-0.008949176408350468,-0.029596814885735512,-0.06130586192011833,-0.06447289139032364,-0.0642077624797821,-0.11312726140022278,-0.11046025902032852,-0.008986729197204113,0.009517922066152096,-0.02371116355061531,-0.19439534842967987,-0.08209355175495148,-0.050315532833337784,0.06633467227220535,-0.019783902913331985,0.031520240008831024,-0.09389112144708633,-0.03772087022662163,-0.020800994709134102,-0.04891327768564224,-0.08613474667072296,-0.06381794810295105,0.04183096066117287,0.03486689180135727,-0.09889506548643112,0.04469940438866615,-0.08426091074943542,-0.06190415099263191,0.017168782651424408,-0.1118241548538208,-0.05176423490047455,0.050130654126405716,-0.21957582235336304,-0.2689473628997803,-0.04087235406041145,-0.17833258211612701,0.04571309685707092,0.07627991586923599,-0.03926049917936325,-0.08855148404836655,0.08502549678087234,0.02996266447007656,-0.04034081846475601,0.09120997786521912,0.008565324358642101,0.04101555421948433,0.16960443556308746,-0.10628674924373627,-0.05113686993718147,-0.050606176257133484,-0.054629649966955185,-0.040162764489650726,-0.061281200498342514,0.13796603679656982,-0.09382234513759613,-0.11345799267292023,0.06497601419687271,0.03638000413775444,-0.019492678344249725,0.03098420239984989,-0.12087506800889969,-0.040184564888477325,0.04359007626771927,0.03533213585615158,-0.01055848877876997,-0.06514827162027359,-0.07198448479175568,0.0236999299377203,-0.09640958160161972,-0.001891662017442286,-0.01709245704114437,0.02955111674964428,0.008694618940353394,-0.046361684799194336,0.03071499429643154,0.040969450026750565,-0.008720836602151394,0.019126201048493385,-0.05799027904868126,-0.0104559026658535,0.03867808356881142,-0.039253368973731995,0.00902598351240158,-0.0066972458735108376,-0.04249249026179314,-0.06596297025680542,-0.0346418060362339,-0.04286391660571098,-0.025280727073550224,-0.013126361183822155,-0.0035241597797721624,-0.03701736778020859,-0.06188957393169403,-0.04761415719985962,-0.06201118230819702,0.0005749791162088513,-0.060931093990802765,-0.08936768025159836,0.00453925272449851,0.023692278191447258,-0.049808308482170105,0.04785292595624924,0.0003631657164078206,0.0461425818502903,0.01315030176192522,0.08990517258644104,-0.029528994113206863,0.02558736689388752,0.019542375579476357,-0.07344210892915726,-0.02052624709904194,-0.09194432199001312,0.04308474063873291,-0.03108450025320053,-0.055974531918764114,0.04049531742930412,-0.0014330820413306355,0.002828003605827689,-0.011099622584879398,-0.06262627243995667,0.14956645667552948,-0.016314906999468803,-0.03606557473540306,-0.05239446833729744,0.04791603237390518,-0.004314066842198372,0.00922633707523346,0.07798830419778824,-0.028750881552696228,0.039024997502565384,-0.04992260783910751,0.06117299571633339,0.00619840994477272,-0.006199747323989868,-0.0718432143330574,-0.04678667336702347,0.034569840878248215,-0.021287765353918076,-0.0476740300655365,0.043806012719869614,-0.04670083522796631,0.04923984035849571,0.035106025636196136,-0.056044019758701324,-0.0033761656377464533,-0.0545608252286911,-0.0840504989027977,-0.028817549347877502,0.021392909809947014,0.0525369755923748,0.021922973915934563,-0.0401204489171505,-0.017445996403694153,0.022059166803956032,0.006653584074229002,0.04498175159096718,0.021035272628068924,-0.019935602322220802,-0.011142170056700706,-0.0072029633447527885,0.010013790801167488,-0.032197900116443634,9.935901471180841e-05,0.019726427271962166,0.0411720871925354,0.0024007989559322596,-0.025593401864171028,0.05596690997481346,0.01900363527238369,-0.03537013381719589,-0.0014439685037359595,-0.0007603815756738186,0.030315788462758064,0.0282876119017601,0.054012466222047806,0.018761927261948586,-0.022323545068502426,-0.049973756074905396,-0.0015989652602002025,0.010522044263780117,0.061276234686374664,0.005042906850576401,-0.015753185376524925,-0.004883171990513802,-0.09405335783958435,0.0014003589749336243,0.026506002992391586,0.010960571467876434,-0.0765594094991684,0.03339866176247597,-0.027364958077669144,-0.013076599687337875,-0.041042957454919815,-0.0161859393119812,-0.02347654476761818,0.1117662638425827,0.04697072133421898,-0.04125280678272247,0.0050584315322339535,0.025740325450897217,0.03604661300778389,-0.03355749323964119,0.04290172830224037,0.0009322469704784453,0.054349422454833984,-0.0003985806251876056,0.019368242472410202,-0.05486253276467323,0.001471593976020813,0.0014837327180430293,-0.027927935123443604,0.02858387492597103,-0.054849110543727875,-0.006153456401079893,-0.004969095345586538,0.012809976004064083,0.04394318535923958,0.025517592206597328,0.0021291044540703297,0.03659266233444214,0.004240489099174738,-0.04776763916015625,-0.05931859463453293,0.027749327942728996,0.056730717420578,-0.013528316281735897,-0.002957106102257967,-0.058019645512104034,-0.011375347152352333,-0.04123619943857193,-0.08865070343017578,0.010035047307610512,-0.013941566459834576,0.10780393332242966,0.0018136794678866863,-0.04979555681347847,0.0023757710587233305,0.009678792208433151,0.0023145752493292093,-0.01503310538828373,-0.0392257496714592,-0.04663391038775444,0.00888098031282425,-0.03557739034295082,0.03518643602728844,-0.05449322983622551,-0.040208104997873306,0.029135923832654953,-0.008422511629760265,0.004315382335335016,-0.0020320939365774393,0.052021391689777374,-0.020207542926073074,0.021967748180031776,0.004734516609460115,-0.02862856164574623,-0.010142972692847252,0.0060173817910254,0.04417543113231659,0.005401822738349438,-0.002917628036811948,0.042861729860305786,0.00223626010119915,0.026880653575062752,0.006754934322088957,-0.043131500482559204,0.0051141283474862576,0.049802038818597794,-0.02611546963453293,-0.023225633427500725,0.007421291433274746,0.016155101358890533,-0.013384215533733368,0.0009690348524600267,-0.015954753383994102,-0.01657051034271717,-0.03923746570944786,-0.03264867141842842,0.0015963951591402292,-0.017329774796962738,-0.007562877610325813,-0.035759225487709045,0.023405371233820915,-0.01560542918741703,-0.009748591110110283,0.013417520560324192,-0.05004983767867088,0.021400220692157745,-0.06042545661330223,-0.03948758915066719,0.026540309190750122,-0.021638110280036926,-0.01914418488740921,0.012490496970713139,0.07959846407175064,0.014504468068480492,0.008088061586022377,0.00055331876501441,-0.0015861550346016884,-0.022223753854632378,-0.006359795108437538,0.021967003121972084,-0.01568209007382393,0.0008394248434342444,-0.008295557461678982,-0.05210002884268761,-0.027864037081599236,0.008068637922406197,-0.017879370599985123,0.0028211791068315506,-0.003028370440006256,0.0273550134152174,-0.016914736479520798,-0.01644926331937313,0.020953213796019554,0.02191113866865635,-0.0015561063773930073,-0.0035576485097408295,-0.00024185447546187788,0.03756373003125191,
0.02613656595349312,-0.006770990788936615,-0.053899072110652924,-0.0221901573240757,0.022377753630280495,0.026031233370304108,-0.011887713335454464,0.004350314848124981,0.03965352848172188,-0.03218671306967735,-0.05634118244051933,0.04402421787381172,0.024125246331095695,0.05160747841000557,0.030559886246919632,0.015950679779052734,0.05116995424032211,0.07580471783876419,0.008622648194432259,-0.014365646056830883,-0.029257625341415405,-0.017404476180672646,-0.01386222243309021,0.015049159526824951,-0.031817346811294556,0.014400247484445572,-0.009314105845987797,0.0505734384059906,0.13798409700393677,-0.12183298915624619,-0.006248929537832737,0.03210292011499405,-0.06440690904855728,0.028188837692141533,0.05456821992993355,-0.02071734145283699,0.03143167868256569,-0.005012494046241045,-0.06270196288824081,0.0018101828172802925,-0.004852570593357086,-0.001144259818829596,-0.04366731271147728,-0.01403400581330061,-0.07615451514720917,-0.054243188351392746,0.01569002866744995,-0.009154701605439186,-0.04067064821720123,-0.024564523249864578,0.01494473684579134,0.06631901115179062,-0.01111773680895567,-0.056417062878608704,-0.05828746408224106,0.056358858942985535,0.007167397998273373,0.0172447357326746,0.05198724940419197,-0.036376260221004486,0.05228973552584648,0.01204163022339344,0.04597696661949158,0.006862766575068235,-0.058904096484184265,0.022176509723067284,-0.0034259757958352566,-0.14752097427845,0.0024729063734412193,-0.0021619012113660574,-0.003161860629916191,-0.024307912215590477,-0.01659855991601944,0.025642719119787216,-0.013868443667888641,0.01803792268037796,0.02771811932325363,-0.07045389711856842,0.025293895974755287,0.019025467336177826,0.016025103628635406,0.04733209311962128,0.05292632430791855,0.05056469514966011,0.003514699637889862,-0.03809715807437897,0.04535369202494621,0.09488317370414734,0.07472588866949081,0.0015692533925175667,-0.01161679346114397,-0.04585212096571922,0.01269648876041174,-0.046597663313150406,0.01894441619515419,0.00950915552675724,0.05245610699057579,0.003676850348711014,-0.01961512118577957,-0.027975914999842644,0.039328571408987045,0.010300502181053162,-0.05019615590572357,-0.023862726986408234,0.025906821712851524,-0.05967466160655022,-0.012551874853670597,0.0037258765660226345,0.025707179680466652,-0.00906216911971569,-0.08175809681415558,0.047264933586120605,0.01812192238867283,-0.061785582453012466,0.008812140673398972,0.07165228575468063,-0.0451713465154171,-0.0889909639954567,-0.06693050265312195,-0.04524565860629082,-0.03845075145363808,0.02336895279586315,0.04619118198752403,-0.04721808061003685,-0.07852233946323395,0.03408263996243477,-0.026650557294487953,-0.029939034953713417,0.020235862582921982,0.00509419571608305,-0.06919264048337936,-0.04310839623212814,-0.013316906057298183,0.0054153744131326675,0.009019207209348679,-0.01041475124657154,-0.004347695503383875,-0.0465896837413311,-0.023395251482725143,0.01215249765664339,0.00418896833434701,-0.0028976404573768377,-0.02441159076988697,-0.01603049784898758,-0.008097467012703419,0.010550898499786854,0.04618492349982262,-0.03639194741845131,0.02124842256307602,-0.019471388310194016,-0.00836318451911211,0.047179460525512695,0.031116699799895287,0.008745281957089901,8.607192967247101e-07,-0.03154013678431511,0.0027286685071885586,-0.005420236848294735,0.02246786653995514,0.010699229314923286,-0.03728367015719414,0.0763358324766159,0.001558974152430892,-0.029220234602689743,-0.0068689133040606976,0.01296653039753437,-0.017480693757534027,-0.014932255260646343,-0.04749903827905655,0.02884557656943798,0.008217617869377136,0.017118584364652634,-0.0037855245172977448,-0.030151108279824257,0.01162462867796421,0.0019320606952533126,0.03010513074696064,0.03748662397265434,-0.00045316448085941374,-0.006573279853910208,0.013287927024066448,-0.03375215455889702,-0.02116757072508335,-0.005184873007237911,0.003933020867407322,-0.006810029968619347,-0.055005017668008804,-0.015717511996626854,0.05136477202177048,0.025470193475484848,0.005149343051016331,-0.032160475850105286,0.05395883321762085,-0.0052591050043702126,-0.03914631903171539,-0.029637359082698822,-0.016149109229445457,0.011774107813835144,0.06612537801265717,0.13004864752292633,-0.05257090926170349,-0.030188346281647682,-0.0901622325181961,0.004631005227565765,0.03008875995874405,-0.014221669174730778,0.04679814353585243,0.09020636975765228,0.12001267820596695,0.06826970726251602,0.03203393518924713,-0.030228326097130775,0.12394022941589355,0.023108389228582382,0.02958296425640583,0.009268904104828835,-0.049301598221063614,0.01395310927182436,-0.037313926964998245,0.0036815661005675793,0.025882795453071594,-0.03423618525266647,0.014945751056075096,-0.06663388758897781,0.06612492352724075,0.10383778810501099,0.0760141909122467,-0.0103041622787714,0.031983815133571625,0.0006347602466121316,-0.06332873553037643,-0.05187038704752922,-0.08839727938175201,0.03129233419895172,-0.07916558533906937,0.015751881524920464,-0.1379881352186203,-0.0869130790233612,0.004357243422418833,-0.029850007966160774,-0.08097777515649796,0.07010338455438614,0.01201037410646677,-0.03852401301264763,-0.04064847156405449,0.0033364654518663883,-0.0011103040305897593,0.04591570049524307,-0.0007860106416046619,-0.017890125513076782,-0.03453357145190239,0.03221543878316879,0.04365675151348114,-0.030816614627838135,0.08634551614522934,-0.011450807563960552,0.01686781458556652,-0.03220752999186516,0.06476110219955444,-0.134913370013237,-0.0023765515070408583,-0.1357812136411667,0.010695543140172958,-0.003897023154422641,0.025131069123744965,0.16052936017513275,0.008895047940313816,-0.07584337890148163,-0.1161046102643013,-0.033920105546712875,-0.05931047722697258,-0.0549875870347023,-0.008757698349654675,-0.0318400003015995,-0.18450357019901276,-0.06807488948106766,-0.06726595759391785,0.06860928237438202,0.011681192554533482,-0.21339938044548035,0.034519072622060776,-0.030436374247074127,-0.003734923666343093,-0.02771068923175335,-0.09891225397586823,-0.036792200058698654,0.05836772918701172,0.0428125262260437,0.06097140535712242,-0.1982700079679489,0.029691576957702637,0.10155805945396423,0.11161059886217117,-0.0039131431840360165,0.040266115218400955,-0.11656700819730759,0.08080080896615982,-0.06018337234854698,-0.05726662278175354,-0.07210520654916763,-0.08494136482477188,-0.02210591919720173,0.015155764296650887,0.028662363067269325,0.07090814411640167,0.01098792813718319,0.03869089111685753,-0.010704131796956062,0.02620779164135456,0.011666197329759598,0.0921500027179718,0.09983808547258377,-0.18619988858699799,-0.0073433127254247665,-0.05623122677206993,0.008011537604033947,-0.06359328329563141,0.06904120743274689,-0.04416261613368988,-0.07237445563077927,-0.013079648837447166,0.015090917237102985,0.014476296491920948,0.04217015579342842,-0.010239326395094395,-0.0029912388417869806,-0.03762704133987427,0.04754084721207619,0.016909491270780563,0.006604950409382582,0.006595649756491184,-0.039662476629018784,-0.005705767776817083,-0.012899353168904781,-0.03538132458925247,0.05274583771824837,-0.04517114534974098,0.049405112862586975,0.036338236182928085,-0.02463892288506031,-0.008945210836827755,-0.03660253807902336,-0.006195724010467529,-0.0092200618237257,0.0050390297546982765,-0.01661413349211216,0.04766028746962547,0.05164926499128342,0.02570297382771969,0.020499618723988533,0.0022582453675568104,-0.03343488276004791,0.04649044945836067,-0.033191703259944916,-0.08560101687908173,0.005559524986892939,-0.022384531795978546,0.024130791425704956,-0.08951923251152039,-0.023226793855428696,-0.055124953389167786,0.00494376989081502,-0.007870513945817947,0.042443715035915375,-0.10917622596025467,0.012842018157243729,0.032598886638879776,0.005585597828030586,0.010887914337217808,-0.0016539801144972444,0.0050539239309728146,0.014192373491823673,-0.02123820222914219,-0.09590227156877518,-0.053589724004268646,-0.01557755284011364,0.03178487718105316,-0.011874985881149769,-0.02029554545879364,0.0030000992119312286,0.06777599453926086,0.015149613842368126,0.03327805548906326,-0.031345367431640625,0.027739373967051506,0.017336878925561905,-0.026518894359469414,0.012509086169302464,0.053528156131505966,0.017452601343393326,-0.03251373767852783,0.08549860864877701,-0.0272462610155344,0.004434454720467329,-0.04566769674420357,0.02635444514453411,0.06358908861875534,0.02523880824446678,0.012698458507657051,-0.02193537726998329,0.029647737741470337,0.009146099910140038,0.000498600653372705,-0.024620776996016502,0.019644996151328087,-0.012107296846807003,0.016668524593114853,-0.004517351742833853,0.02039748802781105,0.009399907663464546,-0.008348850533366203,0.05895252898335457,0.035477861762046814,-0.07329866290092468,0.007190951146185398,0.0009486449998803437,0.056486520916223526,-0.05238969251513481,0.05254846811294556,0.0028821523301303387,0.0335339680314064,0.011216764338314533,-0.024905923753976822,0.006001708097755909,-0.04481678828597069,0.057176265865564346,-0.0658247172832489,0.03455681726336479,-0.06359559297561646,-0.011221954599022865,0.010722431354224682,0.01663994789123535,-0.049927785992622375,0.023233018815517426,0.008353299461305141,0.020388012751936913,0.0008840625523589551,-0.01636500097811222,-0.030956579372286797,0.09668441861867905,0.007528516463935375,-0.039305467158555984,-0.01392457727342844,0.08200115710496902,0.02199632115662098,0.031096693128347397,0.032641272991895676,-0.0732928141951561,-0.0678802952170372,0.011443029157817364,0.0012512699468061328,-0.028486022725701332,0.059870507568120956,-0.03268200159072876,-0.045108363032341,0.03409146890044212,0.025370599702000618,-0.019274407997727394,0.03962806239724159,-0.004894355311989784,-0.030742064118385315,-0.09388403594493866,-0.02761535532772541,-0.008160458877682686,-0.033262815326452255,-0.007231545634567738,-0.03593135252594948,0.009584306739270687,0.016975410282611847,0.009281155653297901,-0.04897890239953995,0.014783279038965702,-0.0010611925972625613,-0.0033162522595375776,-0.015581337735056877,-0.022633902728557587,-0.0009535163408145308,0.028058098629117012,-0.019786566495895386,-0.000993394642136991,-0.06325481086969376,-0.021656835451722145,0.02973417565226555,0.011570882052183151,-0.01446094922721386,-0.02324547991156578,0.016447212547063828,-0.028112206608057022,0.036865320056676865,-0.026008740067481995,-0.027140570804476738,0.05318878963589668,0.02960602380335331,-0.007472047582268715,0.007876727730035782,0.02789037488400936,0.05020979791879654,0.04244553670287132,-0.023813845589756966,0.0038447289261966944,-0.024618955329060555,0.050097767263650894,-0.0419129878282547,-0.004826653748750687,-0.07208816707134247,-0.009657679125666618,-0.030470091849565506,-0.01891181990504265,0.023273516446352005,0.017352871596813202,-0.03885214030742645,-0.04594866931438446,-0.0020313297864049673,-0.011325988918542862,-0.025672834366559982,0.0013546189293265343,-0.010212953202426434,0.03193120285868645,-0.012593267485499382,0.05540935695171356,0.06347537040710449,-0.0173037089407444,0.017946556210517883,0.01597309485077858,0.028090864419937134,-0.012634120881557465,-0.029211508110165596,0.009979845955967903,-0.05002128705382347,0.0017743476200848818,0.01579171046614647,-0.008136408403515816,-0.01571846194565296,-0.040710799396038055,-0.03115508146584034,0.016728198155760765,-0.02472967840731144,0.020709780976176262,-0.03470520302653313,0.03404955938458443,0.039505619555711746,0.002657526871189475,0.026513980701565742,-0.022242030128836632,-0.00376420421525836,-0.005604661535471678,-0.0040741716511547565,0.06470728665590286,0.0036675874143838882,0.020214971154928207,-0.01644190587103367,0.02030116692185402,0.007511336822062731,-0.006186245940625668,-0.006664182059466839,0.014042844995856285,-0.011525161564350128,0.0582096092402935,0.0022203149273991585,0.019205091521143913,0.0015673344023525715,-0.04560864344239235,-0.04611983522772789,-0.0229191854596138,0.04405836760997772,-0.01177565474063158,0.060089726001024246,0.01445664931088686,0.045452360063791275,-0.029108311980962753,-0.013360167853534222,0.020046193152666092,0.018907582387328148,-0.01680072210729122,-0.00042357062920928,0.03970562666654587,
-0.0134801110252738,-0.02495269663631916,0.028086084872484207,0.06562821567058563,0.028236016631126404,-0.008187067694962025,-0.02207164652645588,-0.04294547066092491,-0.015925079584121704,0.050606176257133484,-0.035461295396089554,-0.060099925845861435,-0.020451031625270844,0.007754010148346424,-0.020587358623743057,-0.07395774126052856,0.03643032908439636,0.04423285648226738,0.08039484173059464,-0.019452709704637527,-0.052926987409591675,0.04689912497997284,0.030188459903001785,-9.409745871380437e-06,-0.044183455407619476,0.05855953320860863,-0.04042671620845795,0.032004326581954956,0.005595447961241007,-0.056044355034828186,0.05589079111814499,-0.026866886764764786,0.02682056836783886,-0.00501323351636529,-0.001235157367773354,0.051258839666843414,0.03070797584950924,-0.032290954142808914,0.024270394816994667,0.029882561415433884,-0.03608294203877449,0.04311308264732361,-0.043713267892599106,-0.002034626202657819,0.06704296171665192,0.04752793908119202,-0.004383444786071777,0.005560353398323059,0.009941202588379383,0.026745064184069633,0.011764210648834705,-0.02378830499947071,0.03069557622075081,0.0021445248275995255,-0.044031210243701935,0.03492646664381027,0.009129833430051804,0.008284264244139194,-0.020233331248164177,0.060097187757492065,-0.05194700136780739,0.02147075906395912,0.043171077966690063,0.03108859993517399,-0.0265522301197052,0.01068880781531334,0.0028137005865573883,0.06734751909971237,-0.0234220027923584,-0.004154653288424015,-0.049811962991952896,0.03396875411272049,-0.003980156034231186,-0.04500533267855644,0.021859310567378998,-0.0744163766503334,-0.016917310655117035,0.013235743157565594,-0.014357669278979301,0.053933072835206985,0.004704948049038649,-0.1469981074333191,-0.039772141724824905,-0.032339759171009064,0.03322466462850571,0.06880545616149902,-0.026514636352658272,-0.009846572764217854,-0.00806480459868908,-0.012326211668550968,0.07317862659692764,0.030001280829310417,0.04738740250468254,0.009166296571493149,0.0072698104195296764,-0.02730972319841385,0.02757103182375431,-0.005165036767721176,0.013290266506373882,-0.05160143971443176,0.015643931925296783,-0.019004860892891884,0.011724338866770267,-0.03283264487981796,0.020286059007048607,0.026538018137216568,0.020890943706035614,-0.022452907636761665,0.0572158508002758,-0.022075846791267395,0.06932896375656128,0.06722049415111542,0.034453053027391434,0.05192212387919426,0.011534780263900757,-0.059185635298490524,-0.0021456682588905096,-0.06808488816022873,-0.01337162870913744,-0.025518890470266342,0.11576706916093826,-0.00959473941475153,0.030120849609375,0.009482002817094326,-0.02125111222267151,0.054860666394233704,-0.08297091722488403,-0.05163484811782837,-0.0077093010768294334,-0.041764818131923676,0.03284331038594246,0.025618717074394226,0.010058294050395489,-0.006088714115321636,-0.018723472952842712,-0.017288658767938614,-0.0021482224110513926,0.04364445060491562,0.026528533548116684,-0.06510314345359802,0.0040182024240493774,0.047771185636520386,-0.0027249876875430346,-0.0059838141314685345,-0.008073589764535427,-0.014114749617874622,0.006644012406468391,0.013687101192772388,0.0007104269461706281,0.042815305292606354,-0.01839231699705124,-0.07788623124361038,0.021885478869080544,0.03469132259488106,0.0858006402850151,0.0015936428681015968,-0.03762570023536682,0.034966129809617996,-0.009574239142239094,-0.02165408991277218,-0.017039569094777107,-0.049478136003017426,0.003259425051510334,-0.00398440845310688,-0.030536893755197525,0.0074987770058214664,-0.07728198170661926,0.006851120851933956,-0.05239211022853851,0.006106036249548197,0.021153554320335388,-0.06829841434955597,-0.00951752346009016,0.006114386487752199,0.027926165610551834,-0.025737306103110313,0.005657494533807039,0.010190933011472225,-0.004254089668393135,-0.02709486335515976,-0.037158213555812836,0.06530753523111343,-0.0018499959260225296,0.014650371856987476,0.05145138129591942,0.056397322565317154,-0.0004576133214868605,0.014768624678254128,-0.00034266928560100496,0.004939798265695572,0.007450839038938284,-0.033972419798374176,-0.019164277240633965,-0.0433339849114418,-0.05666588991880417,0.0986589714884758,-0.021357860416173935,0.036170683801174164,0.029385222122073174,0.03133067116141319,0.021307826042175293,-0.021910177543759346,-0.003647131146863103,0.010190269909799099,-0.012435153126716614,-0.024870069697499275,-0.026171959936618805,-0.042670074850320816,0.05495911464095116,-0.0195697583258152,-0.08168084919452667,0.0041755372658371925,0.044412512332201004,-0.06395222246646881,-0.016184493899345398,-0.045017700642347336,0.029423661530017853,0.06817103922367096,0.0326220765709877,-0.01339165773242712,0.08443008363246918,0.0022679856047034264,0.06312219053506851,-0.027821529656648636,0.05705038458108902,-0.052079811692237854,-0.13420909643173218,0.050994809716939926,0.07247133553028107,0.02660362794995308,0.008423037827014923,-0.03805815055966377,0.02839803323149681,-0.015781115740537643,-0.05251077935099602,0.011173320934176445,0.045960456132888794,0.01576889678835869,0.05231010913848877,0.02319386787712574,-0.0016766570042818785,-0.04425272345542908,0.012520150281488895,-0.04917900636792183,-0.012382752262055874,-0.11384234577417374,0.038728419691324234,-0.0008250544196926057,-0.07046873867511749,0.015916142612695694,0.04937947541475296,-0.11320113390684128,0.005662102252244949,-0.09039274603128433,-0.05823906511068344,0.002791709965094924,0.002415717812255025,-0.0076985787600278854,0.03965258598327637,-0.06646033376455307,0.017226416617631912,-0.05864245817065239,0.035010144114494324,0.018674777820706367,0.158036008477211,0.01005914993584156,-0.034832388162612915,0.06127610430121422,0.02833317033946514,-0.05385177582502365,-0.03127807378768921,0.09045427292585373,0.010067249648272991,-0.09205490350723267,-0.05954412370920181,-0.160978764295578,-0.1390620619058609,-0.0790896862745285,0.011248195543885231,0.08531659096479416,-0.0343087837100029,0.031961746513843536,0.00015916198026388884,-0.0636400356888771,-0.11668362468481064,-0.043879687786102295,-0.1301811784505844,0.034932490438222885,0.10956552624702454,0.04523630812764168,0.04096421226859093,-0.14064151048660278,-0.06499575078487396,0.07421891391277313,-0.05870155245065689,0.044162578880786896,0.016274888068437576,-0.05733007192611694,-0.0759642943739891,0.05642541125416756,0.09427460283041,-0.06943866610527039,-0.16250525414943695,-0.09585171192884445,-0.06786826997995377,-0.07835785299539566,-0.013570648618042469,0.052188482135534286,-0.04816184937953949,0.13825936615467072,0.04862038418650627,0.0561734102666378,0.09248099476099014,0.050700701773166656,-0.0013681682758033276,0.12439687550067902,0.06383431702852249,-0.006796861067414284,-0.04972805827856064,0.06690207123756409,-0.04842909052968025,-0.007530592381954193,0.019495906308293343,0.0034341139253228903,0.041056662797927856,0.015226985327899456,0.03272300586104393,0.015210006386041641,0.0013269810006022453,-0.0374145470559597,0.016842126846313477,0.04611242562532425,0.020398588851094246,-0.005488128401339054,0.018376050516963005,-0.022159969434142113,-0.02645980753004551,-0.03860299289226532,-0.10205516964197159,-0.03476094827055931,-0.01492991391569376,-0.018444376066327095,0.040045078843832016,0.023598631843924522,0.0013697455869987607,-0.0152960903942585,-0.024072270840406418,-0.0064302412793040276,-0.022767046466469765,-0.0365927517414093,0.035193875432014465,0.055427435785532,0.007646538317203522,-0.044909704476594925,-0.052792035043239594,0.007631378713995218,-0.011031373403966427,0.008765102364122868,0.016696568578481674,-0.002764766803011298,0.014112621545791626,0.016084685921669006,-0.05192704126238823,0.04567130655050278,-0.07044408470392227,-0.058668628334999084,-0.01109137013554573,0.054041728377342224,-0.050589192658662796,-0.06459704786539078,-0.0231180340051651,-0.00046141710481606424,0.06816123425960541,-0.06195492669939995,-0.05788689851760864,-0.025477644056081772,-0.06647119671106339,-0.009802174754440784,-0.0785057544708252,0.13021114468574524,0.009261219762265682,0.036549538373947144,-0.012946180067956448,0.020758172497153282,-0.017567772418260574,-0.005927086807787418,-0.04583742469549179,0.04938684403896332,-0.008802701719105244,0.01875957101583481,0.03959980234503746,-0.04503326863050461,-0.01397645752876997,-0.006051177158951759,0.0391564778983593,-0.01605302281677723,-0.007175518665462732,-0.034582652151584625,-0.01867402344942093,0.053145233541727066,0.008746908977627754,-0.010552001185715199,0.007141992449760437,0.018137414008378983,0.02824869006872177,0.005517799407243729,0.021201204508543015,0.034665290266275406,0.04784655570983887,-0.015535163693130016,-0.03570343926548958,-0.030073439702391624,-0.023989228531718254,0.01431472972035408,-0.015917574986815453,0.05888183414936066,-0.037338439375162125,0.010280690155923367,0.029248390346765518,-0.017452361062169075,-0.00015587746747769415,-0.03731582313776016,0.02503689005970955,0.0046775126829743385,0.015685074031352997,-0.057504698634147644,0.039853040128946304,-0.050833094865083694,-0.006734910421073437,0.009043470956385136,-0.03391483426094055,0.041814737021923065,-0.021219875663518906,0.054166752845048904,-0.02899608388543129,-0.03594591096043587,-0.022907286882400513,0.021058836951851845,0.01497278455644846,-0.040812764316797256,-0.0102302897721529,0.012416149489581585,0.06710188835859299,-0.026004767045378685,-0.019613996148109436,-0.0032281691674143076,0.03233834728598595,0.00906533282250166,0.03840044140815735,0.0037639488000422716,-0.004204833414405584,-0.04499521479010582,-0.019051726907491684,-0.009884381666779518,0.004761185497045517,0.03032710775732994,0.0221074428409338,-0.08295666426420212,-0.012020068243145943,0.027759678661823273,0.07967330515384674,-0.052135881036520004,0.063187375664711,0.009290704503655434,0.02088896557688713,0.04753170162439346,0.11819227784872055,-0.005985387600958347,-0.030850257724523544,-0.014097926206886768,0.02623215690255165,0.05276030674576759,0.05531027168035507,-0.001789458328858018,-0.0042467364110052586,-0.029835660010576248,0.013085534796118736,0.01935887709259987,0.015935735777020454,0.017627734690904617,0.019683122634887695,0.047795750200748444,-0.030602172017097473,0.06455647200345993,0.005062894430011511,-0.04106209799647331,0.09187059104442596,-0.025593174621462822,-0.03603461757302284,-0.02194777876138687,0.032167449593544006,0.008783850818872452,-0.021580955013632774,-0.036524225026369095,0.030697640031576157,-0.010340490378439426,0.012111164629459381,0.018444614484906197,0.019130421802401543,-0.0034555962774902582,0.02884390577673912,0.010806532576680183,-0.046966128051280975,0.012521535158157349,-0.009307699277997017,-0.019737444818019867,-0.01708819344639778,-0.020209411159157753,0.029184812679886818,-0.02904476970434189,-0.0005395160987973213,0.04248994588851929,0.05909590795636177,0.02819281816482544,-0.06261546164751053,0.025608152151107788,0.0038563173729926348,-0.02279769815504551,0.02434382773935795,0.009709753096103668,0.01251977775245905,0.0048071942292153835,0.03342495858669281,-0.033403974026441574,0.023599090054631233,0.01472525391727686,0.043938346207141876,0.015470432117581367,-0.024663472548127174,0.008192365989089012,-0.006029394455254078,0.02551957406103611,0.007601426914334297,0.03818167373538017,-0.016445517539978027,0.015026064589619637,0.016804970800876617,0.0475495308637619,-0.04932922124862671,-0.00512721249833703,-0.02332986146211624,-0.03675781562924385,0.013620683923363686,-0.00583615992218256,-0.028199633583426476,0.04081204906105995,-0.016745785251259804,0.04538698121905327,-0.05166426673531532,0.006329030264168978,-0.0089762257412076,-0.043615151196718216,-0.006503312382847071,-0.05688756704330444,-0.009320265613496304,-0.03054998442530632,0.02155916392803192,-0.04739481210708618,0.01625661924481392,-0.011157017201185226,-0.029152071103453636,0.026330256834626198,0.007789928931742907,-0.023988112807273865,0.01166587881743908,-0.023299816995859146,-0.00036575150443241,0.021421920508146286,-0.004109474830329418,-0.05695066228508949,-0.014370406046509743,0.0002633860276546329,0.012028095312416553,-0.0006035682163201272,0.02048601396381855,-0.007451832294464111,
-0.02057468891143799,0.052186518907547,0.011979297734797001,0.018791263923048973,0.012782064266502857,0.039572011679410934,-0.011546340771019459,0.007487599737942219,-0.07219614833593369,-0.06111443042755127,0.03170409053564072,0.0028956145979464054,0.04151102155447006,-0.05882064998149872,-0.014055313542485237,0.08174455165863037,-0.028386246412992477,0.02213505655527115,-0.019112294539809227,-0.0007927318220026791,-0.07413720339536667,-0.004222495947033167,-0.024339446797966957,0.07063797116279602,0.10055144131183624,0.003737456165254116,0.05007486417889595,-0.00864684022963047,-0.02752920798957348,0.1030145213007927,0.04444464296102524,-0.038095664232969284,0.01911379024386406,0.04241257905960083,-0.02707204781472683,0.024216698482632637,-0.03829937055706978,0.042695965617895126,0.04374057799577713,-0.0032926881685853004,0.05279715731739998,-0.058914218097925186,-0.02088090591132641,0.06083507090806961,0.01051649171859026,-0.02939043566584587,-0.057200297713279724,-0.057372089475393295,-0.01696045882999897,0.049106668680906296,-0.05088561773300171,-0.06261230260133743,0.015485813841223717,-0.010437525808811188,-0.003727607661858201,0.03027377463877201,0.05878579989075661,0.0551484040915966,-0.0010674226796254516,0.0013981068041175604,-0.020580772310495377,0.018168501555919647,-0.004806376062333584,0.02900092676281929,-0.015331900678575039,-0.016314705833792686,0.023892488330602646,-0.034486934542655945,-0.11275486648082733,0.05522845312952995,0.0012691353913396597,-0.031151194125413895,0.02606280893087387,-0.04715877026319504,0.02324228547513485,-0.005344914738088846,0.05677404999732971,-0.045130785554647446,0.026960181072354317,-0.005197350867092609,0.06959979981184006,0.0397048220038414,-0.04761872813105583,-0.009100014343857765,0.006122928112745285,-0.003677110420539975,0.051255963742733,-0.08943282812833786,0.05638685077428818,0.002054756972938776,-0.05130506679415703,0.057836148887872696,0.019004318863153458,-0.015341738238930702,-0.010440961457788944,0.01584082655608654,0.08358923345804214,-0.01944398321211338,0.005087816622108221,-0.004943473264575005,0.031013961881399155,-0.040953438729047775,0.06475139409303665,0.0972653403878212,-0.02433696947991848,0.02469361014664173,0.02411336451768875,-0.02887425385415554,0.00827742088586092,0.006769951898604631,0.05483169108629227,-0.0021264920942485332,-0.015065622515976429,0.02358320541679859,-0.03491877764463425,-0.0772041380405426,0.14232948422431946,-0.014154341071844101,0.01814732886850834,-0.0846056416630745,-0.07944614440202713,-0.03496275097131729,0.035064470022916794,-0.07287248224020004,-0.025804998353123665,0.0572970025241375,-0.049928825348615646,0.05653085559606552,-0.05236966162919998,0.029300926253199577,-0.006999383680522442,-0.0006505093188025057,0.01907709427177906,-0.03434225544333458,-0.014667530544102192,0.0029957275837659836,-0.004230672959238291,-0.015597892925143242,0.013505085371434689,-0.014141498133540154,-0.05425003543496132,0.003974901512265205,0.02587113343179226,0.019624361768364906,0.021699832752346992,-0.005359304137527943,0.03870689868927002,0.0023903478868305683,-0.01908894069492817,-0.0029646640177816153,-0.019362807273864746,0.02542823925614357,0.034516479820013046,-0.005744420923292637,0.025965575128793716,0.02214427851140499,0.0043543316423892975,-0.04091167822480202,-0.007383277174085379,-0.009673257358372211,-0.03385603800415993,-0.0017255512066185474,-0.04502169042825699,-0.030507449060678482,0.03882231190800667,-0.0005489226896315813,0.008528882637619972,-0.0069618308916687965,-0.02791365422308445,0.031205888837575912,-0.010230417363345623,0.0452803373336792,0.019758038222789764,-0.013001689687371254,-0.0028251379262655973,0.060243282467126846,0.016178490594029427,-0.021844245493412018,0.02958802320063114,0.00253948662430048,-0.023614980280399323,-0.031141197308897972,-0.010894659906625748,-0.09340333938598633,-0.10013239830732346,0.050552330911159515,-0.01124284602701664,-0.04510114714503288,0.010853124782443047,-0.004635077901184559,-0.0134889492765069,-0.008298994041979313,0.009416690096259117,0.08221030980348587,0.07251714169979095,-0.07776401191949844,0.028384478762745857,0.06284060329198837,0.057550929486751556,0.007203319575637579,-0.031341444700956345,0.0022364819888025522,0.059125594794750214,-0.08230391889810562,-0.014964543282985687,0.011050219647586346,-0.052103087306022644,0.08722907304763794,0.01714138872921467,0.002183746313676238,0.15112394094467163,0.015200497582554817,-0.04538320004940033,-0.06192145124077797,-0.013550491072237492,0.10371170192956924,0.01278404425829649,0.0036213442217558622,-0.01664326712489128,-0.1142231896519661,0.05373784899711609,-0.01049078069627285,0.021393975242972374,0.001008557272143662,-0.01329290121793747,-0.015296002849936485,-0.02247094176709652,0.013929255306720734,-0.11090568453073502,-0.036470137536525726,0.1470603495836258,0.055894479155540466,0.03905938193202019,0.030579205602407455,0.006482596043497324,0.0848795548081398,0.06386367976665497,-0.1019473597407341,-0.14141230285167694,0.04627217724919319,-0.020751403644680977,0.11064097285270691,-0.06263270229101181,-0.07537907361984253,-0.04456787183880806,-0.03501613065600395,-0.01847642846405506,-0.004804205149412155,0.12111201882362366,0.04386933147907257,-0.0524362213909626,-0.0001869922416517511,-0.08374755084514618,0.025202704593539238,0.13785089552402496,0.058045126497745514,-0.043438591063022614,0.0308910571038723,0.044233206659555435,-0.057763371616601944,-0.24391376972198486,0.09410121291875839,-0.15637549757957458,-0.001162875210866332,-0.0030989949591457844,0.0235934779047966,0.007098027504980564,0.014081950299441814,0.033729538321495056,0.18419109284877777,-0.1289939433336258,0.07384590804576874,-0.0019088658737018704,-0.06537144631147385,-0.09419553726911545,0.05673197656869888,-0.04870981723070145,-0.10773736238479614,0.03876678645610809,0.06928321719169617,-0.1369737982749939,0.09759789705276489,-0.22869044542312622,-0.018461206927895546,0.16956877708435059,0.057134367525577545,-0.046699158847332,0.08304440975189209,0.022988559678196907,0.06252935528755188,0.006938081234693527,0.11366382986307144,-0.04726314917206764,0.12326783686876297,-0.003732810029760003,0.1593443751335144,0.04010942950844765,0.10714008659124374,-0.06379672884941101,0.02543286792933941,-0.06472722440958023,-0.16158689558506012,-0.033904604613780975,0.03135104849934578,-0.02990243025124073,0.0393994078040123,0.009817000478506088,-0.04866459593176842,-0.07962886989116669,-0.11395887285470963,0.07477480918169022,0.04437330737709999,0.09551461786031723,-0.182892844080925,0.023485761135816574,-0.14500932395458221,-0.09367498755455017,0.018940750509500504,-0.21181167662143707,0.1320062279701233,-0.006448740605264902,-0.022762054577469826,-0.0006918107974343002,0.006361705716699362,0.024991553276777267,-0.043648455291986465,0.04305097833275795,0.011135777458548546,0.021048005670309067,-0.03216515854001045,-0.011858545243740082,-0.043607793748378754,-0.12124766409397125,0.02900911122560501,0.04862894117832184,-0.03823550418019295,-0.010319105349481106,-0.03203224390745163,0.037244830280542374,0.0022030030377209187,0.04376634955406189,-0.037857282906770706,0.0681452751159668,0.007651961874216795,-0.00794571079313755,0.03573639318346977,-0.010746940970420837,-0.03361005336046219,0.019338468089699745,-0.057990994304418564,-0.04536787420511246,0.010781929828226566,-0.06062914803624153,0.03855941444635391,0.020170951262116432,0.021086247637867928,0.050237443298101425,0.0123825054615736,0.05830896273255348,0.026640279218554497,0.00957128033041954,-0.04055827856063843,-0.02238568291068077,0.008789097890257835,0.02258417196571827,0.013464168645441532,-0.0644499734044075,0.05635334923863411,-0.002190641826018691,-0.04167460650205612,0.05565785989165306,0.0077690198086202145,-0.021636582911014557,-0.0005743312067352235,-0.02339961938560009,0.01039170939475298,0.02233172580599785,0.07947251945734024,-0.01386273093521595,0.031093312427401543,-0.013702884316444397,-0.0038372373674064875,0.027144387364387512,0.06703748553991318,0.023506319150328636,-0.03047206811606884,0.043440043926239014,-0.007940154522657394,0.03863954544067383,0.02587057277560234,0.008607199415564537,-0.00015691241424065083,-0.09431079775094986,0.04476359859108925,0.019979309290647507,-0.028176290914416313,-0.0010426838416606188,-0.05299346521496773,-0.010138004086911678,-0.0049025313928723335,-0.002020313637331128,-0.0007254218799062073,0.0807165801525116,-0.05230952426791191,-0.04438422992825508,-0.036142706871032715,-0.005085085518658161,0.044597551226615906,0.052803028374910355,-0.03691772744059563,0.009418005123734474,-0.04604271426796913,0.044542346149683,0.06553900241851807,-0.0011666385689750314,0.01914406009018421,0.04405380040407181,0.08303430676460266,-0.009229541756212711,-0.02804303728044033,-0.03556719049811363,-0.009634904563426971,0.03443712741136551,0.002744711935520172,0.052567195147275925,-0.005536423996090889,-0.007238229736685753,0.005547167733311653,0.028211332857608795,-0.012100153602659702,-0.13506266474723816,0.0076564340852200985,0.03626257926225662,0.04536595195531845,-0.014952212572097778,-0.040885478258132935,-0.04857482761144638,-0.03636603057384491,0.018203459680080414,-0.05198287218809128,0.03318801894783974,0.042696431279182434,-0.061541084200143814,-0.03597570210695267,-0.00015438839909620583,-0.03445662558078766,-0.035790398716926575,0.02279525436460972,0.05510943755507469,-0.08494807779788971,0.024570371955633163,0.014658762142062187,0.013638797216117382,0.03694809973239899,0.05437849089503288,-0.03658688813447952,-0.04854859784245491,0.007116853259503841,0.05019638314843178,0.023255417123436928,0.019572393968701363,0.021330663934350014,0.05303322523832321,-0.03911372274160385,0.04435059055685997,-0.05036839842796326,-0.023367565125226974,-0.007713835686445236,0.049844320863485336,0.005537211894989014,0.0565103255212307,-0.008210868574678898,0.001104019465856254,-0.0582345649600029,-0.03655189275741577,0.12432806193828583,-0.00928601622581482,-0.021255910396575928,-0.027615169063210487,-0.061662208288908005,0.03927449509501457,0.04423725605010986,-0.04684464633464813,0.02925218641757965,-0.011014338582754135,-0.04146723449230194,0.00015669524145778269,0.01465333066880703,-0.04072418808937073,0.039000652730464935,-0.003075270215049386,-0.027101648971438408,0.026196077466011047,0.028462735936045647,-0.0534263476729393,0.011154270730912685,-0.05404028668999672,-0.0198503527790308,0.05260779708623886,0.054448775947093964,0.032196301966905594,-0.06310974061489105,0.029594585299491882,0.054938867688179016,-0.08242867141962051,-0.05424739792943001,0.004329343792051077,-0.04064805060625076,0.006042190827429295,0.08873225748538971,-0.05197354778647423,-0.007157474756240845,0.011657601222395897,0.003582744626328349,0.011600030586123466,-0.001085965777747333,0.014828196726739407,-0.0040917545557022095,-0.04094046354293823,-0.0021865786984562874,0.00928425695747137,-0.03508557379245758,0.01026005856692791,-0.03309856727719307,0.00840804260224104,-0.019809413701295853,0.0257855411618948,-0.009222012013196945,-0.027829915285110474,0.014750787988305092,-0.016300221905112267,0.014260537922382355,0.013171897269785404,0.024770410731434822,0.007005215622484684,-0.005644951015710831,0.004864062182605267,0.017917096614837646,0.0070963650941848755,0.006285266485065222,-0.03159325197339058,0.025720985606312752,0.017193032428622246,-0.03721904009580612,0.030225496739149094,0.0448627769947052,-0.025350188836455345,0.053728051483631134,0.007734578102827072,-0.016642361879348755,-0.028340166434645653,-0.016173845157027245,0.00680142967030406,-0.004859616979956627,-0.015571940690279007,0.0316486619412899,0.030507689341902733,0.03533795848488808,0.03992049768567085,0.013961278833448887,0.022382287308573723,0.016069790348410606,0.046429455280303955,0.009091497398912907,-0.05608367919921875,-0.006068337708711624,0.0005101223359815776,0.013217736035585403,-0.003297714749351144,0.039873961359262466,-0.03612456098198891,0.03164759650826454,-0.014162985607981682,-0.029303869232535362,-0.003504275344312191,-0.023313574492931366,
0.007358287926763296,-0.008745403029024601,-0.024392658844590187,0.01766953058540821,0.016374310478568077,0.010220988653600216,-0.026150865480303764,0.010103508830070496,-0.040686480700969696,-0.042262252420186996,-0.06279589235782623,-0.009444506838917732,0.05012921243906021,-0.0456814207136631,-0.003303827717900276,-0.0005628264625556767,-0.012177987955510616,-0.05080236867070198,0.0759204775094986,-0.010296648368239403,-0.0014517289819195867,-0.0695640817284584,0.011706982739269733,0.04343073070049286,-0.03557964414358139,0.054847270250320435,-0.0004959534853696823,0.023149261251091957,0.019777752459049225,0.044648896902799606,-0.042945459485054016,0.05830017477273941,-0.02946115843951702,0.0593753308057785,-0.005978141911327839,0.032344307750463486,0.05023999139666557,0.028608165681362152,-0.06800132244825363,0.0434320829808712,-0.03411971405148506,0.03525422513484955,0.01289911288768053,0.026923995465040207,0.004185876343399286,-0.008316070772707462,0.015853261575102806,-0.06121007725596428,0.025637703016400337,0.02184465527534485,0.004617409780621529,0.008095220662653446,-0.0060149263590574265,-0.033136457204818726,-0.007840821519494057,-0.020803825929760933,-0.011234964244067669,0.055080920457839966,0.022616401314735413,0.010661798529326916,-0.04663053900003433,-0.02163384109735489,-0.02385244518518448,-0.010595371946692467,0.041964780539274216,0.020741751417517662,-0.07993669807910919,-0.030194832012057304,-0.06078065186738968,0.09366492927074432,0.053487520664930344,0.014322474598884583,-0.03149014338850975,-0.11224707961082458,-0.03231952339410782,0.008310362696647644,0.05334896594285965,-0.02693149633705616,-0.00878542847931385,-0.0019139524083584547,0.0050878520123660564,0.008473185822367668,0.028976894915103912,0.03704481199383736,0.005259952042251825,0.1107727587223053,0.015060900710523129,0.02439022623002529,0.03668759763240814,-0.061555273830890656,-0.04416586086153984,-0.009821332059800625,-0.08312087506055832,0.08278453350067139,-0.0608491487801075,0.06782373040914536,0.037945251911878586,0.041019193828105927,0.04438532888889313,-0.0146696288138628,-0.0331556499004364,-0.05370744690299034,-0.0446334071457386,-0.01718466728925705,-0.002090194495394826,0.02366231568157673,0.05855802446603775,-0.01543973758816719,-0.08742516487836838,0.02283051796257496,0.018666619434952736,0.04478883743286133,0.02328900247812271,-0.0272434763610363,0.021045509725809097,0.0085254842415452,0.01037825457751751,-0.10357978194952011,0.009444530121982098,0.02890685386955738,0.0778551772236824,-0.012851067818701267,-0.018307693302631378,-0.07271597534418106,0.025281812995672226,0.08051756024360657,-0.01999801956117153,0.05739204213023186,-0.009052456356585026,-0.009510709904134274,-0.015878872945904732,0.005407258868217468,-0.012715316377580166,0.017401037737727165,-0.0011534281075000763,-0.02275201492011547,0.00491039315238595,-0.11334992945194244,0.03423856198787689,0.05490544065833092,0.0505596324801445,0.0077203200198709965,-0.035857610404491425,-0.010996631346642971,-0.03126848116517067,0.007540704682469368,0.0254885945469141,-0.009138449095189571,-0.017163705080747604,0.03989288583397865,0.0155522795394063,0.0051849461160600185,-0.005304071586579084,-0.03597978129982948,0.02999918907880783,0.020267881453037262,-0.03060043789446354,-0.050737906247377396,0.011071008630096912,0.01105906255543232,-0.034468282014131546,0.06926252692937851,0.050937581807374954,-0.00575361168012023,-0.028809692710638046,0.03592734411358833,-0.02000846341252327,-0.008876853622496128,-0.005596140865236521,0.011538696475327015,0.055142030119895935,-0.009594772011041641,0.013396281749010086,0.025570644065737724,0.025445200502872467,0.002737815724685788,0.0012283803662285209,0.01625365950167179,0.02169676125049591,-0.027880476787686348,-0.006609437987208366,-0.009941198863089085,-0.01769530214369297,-0.006923906970769167,-0.074797622859478,0.05154808610677719,0.011346951127052307,-0.011155260726809502,-0.05943284183740616,0.04050208255648613,-0.02898799441754818,0.018459554761648178,-0.017068998888134956,0.015654636546969414,-0.03158033639192581,-0.04065287858247757,-0.016750240698456764,-0.05568096041679382,-0.028610555455088615,-0.0035932878963649273,-0.02552047185599804,-0.043214213103055954,0.009301025420427322,-0.0009720180532895029,0.04869087412953377,-0.029604841023683548,-0.020031344145536423,0.006883838679641485,0.047256018966436386,-0.024527331814169884,-0.012698941864073277,-0.04993339255452156,-0.050099678337574005,-0.07127609103918076,0.021782148629426956,0.020112143829464912,-0.001478260732255876,-9.782471897779033e-05,0.0988486111164093,-0.03440934419631958,-0.04128827527165413,-0.015417427755892277,0.017151102423667908,0.025724904611706734,-0.012722739018499851,0.030462563037872314,-0.0824669897556305,0.02216348610818386,0.023605845868587494,-0.07101835310459137,0.0041136653162539005,-0.025028441101312637,-0.0029724696651101112,-0.01945345662534237,-0.008213435299694538,0.020250190049409866,-0.059972744435071945,-0.06311190128326416,-0.0340162068605423,-0.0031033139675855637,0.04277726635336876,-0.059827324002981186,0.003800368634983897,-0.040840569883584976,0.052919577807188034,-0.032804183661937714,-0.0056623537093400955,-0.01174232829362154,0.028997041285037994,-0.03733585774898529,0.005860833451151848,0.018662555143237114,-0.024027610197663307,-0.02506142109632492,0.03525002673268318,0.027506310492753983,-0.08758274465799332,-0.022181401029229164,-0.04022097587585449,-0.039989907294511795,-0.1615120768547058,-0.046378955245018005,-0.17640939354896545,-0.050924334675073624,0.041224684566259384,0.04773041233420372,-0.019793270155787468,0.01831233501434326,-0.07700055092573166,0.044880401343107224,0.005313846282660961,0.06891120970249176,0.047467395663261414,0.007754828315228224,-0.07188230007886887,0.050921015441417694,-0.07908225059509277,-0.01680786907672882,0.029496414586901665,-0.14777003228664398,-0.0237664096057415,-0.013707331381738186,-0.014075623825192451,0.022968405857682228,-0.09888934344053268,-0.024402650073170662,0.16157513856887817,0.07328857481479645,0.034100256860256195,-0.09938136488199234,-0.013358909636735916,0.06648485362529755,0.08857915550470352,-0.0033640058245509863,0.03100961446762085,0.005845134612172842,0.05810880288481712,-0.10876951366662979,-0.09548024833202362,0.0014707694062963128,-0.004192488733679056,-0.1264961212873459,0.04291636496782303,-0.08177582919597626,-0.05155050382018089,0.02179892174899578,0.02077377960085869,0.06744322925806046,-0.00013798473810311407,0.11745700240135193,-0.0001022620708681643,0.04693983495235443,-0.02068023756146431,0.010472151450812817,0.013021093793213367,-0.04971986263990402,-0.12923020124435425,-0.09076817333698273,-0.10428975522518158,-0.07264754176139832,-0.005653753876686096,0.012607963755726814,0.0320466011762619,0.05017008259892464,-0.005295809358358383,0.013609133660793304,0.0326610803604126,0.026136554777622223,0.018877623602747917,-0.05309576541185379,0.06146956980228424,0.018099751323461533,-0.023284224793314934,0.03691947087645531,-0.03596876934170723,-0.012607489712536335,0.007902930490672588,-0.03373519703745842,0.06027195230126381,-0.0059019653126597404,0.04769810661673546,0.02167782373726368,0.015299653634428978,-0.003204918932169676,-0.040985964238643646,-0.009003794752061367,0.08036252856254578,-0.03885822743177414,-0.009093551896512508,0.02506648749113083,-0.016016138717532158,-0.008489688858389854,0.007546000182628632,0.000833788188174367,-0.015782250091433525,-0.013740147463977337,0.008301913738250732,0.06472035497426987,-0.021146614104509354,0.02798258513212204,-0.026858646422624588,-0.06640470772981644,0.026908177882432938,-0.0057060918770730495,-0.05665808171033859,0.029598964378237724,-0.056408677250146866,-0.02766503021121025,0.009476479142904282,-0.03360296040773392,-0.027756093069911003,-0.02064524218440056,-0.030499672517180443,-0.011886034160852432,0.04508312791585922,-0.01386948861181736,0.050230734050273895,0.02585316263139248,0.02333911880850792,0.020739035680890083,-0.03427828475832939,0.07725024968385696,0.03245454654097557,0.07012957334518433,-0.021468428894877434,-0.003809035988524556,-0.040691960602998734,-0.012019550427794456,0.020460790023207664,-0.029543926939368248,0.07730620354413986,-0.03080078400671482,-0.020923849195241928,0.000394258153392002,-0.04617740586400032,-0.006122095976024866,0.024380411952733994,0.010794340632855892,-0.023557428270578384,-0.03988879919052124,-0.01906902715563774,-0.001978435553610325,-0.01721566915512085,0.039095696061849594,0.0384044349193573,-0.04558105766773224,0.01828397624194622,0.004273262340575457,0.014043274335563183,-0.009276635013520718,-0.01480541005730629,0.051220789551734924,-0.025239823386073112,0.0015351780457422137,-0.04991016909480095,0.05833814665675163,-0.035984668880701065,0.04954923316836357,0.02570372447371483,0.031079774722456932,-0.009243988431990147,0.032488904893398285,0.06949475407600403,-0.014275230467319489,0.025212706997990608,-0.024436218664050102,0.03590052202343941,0.012057133950293064,0.02566155605018139,0.025232208892703056,-0.013031506910920143,0.02343115396797657,0.021803896874189377,-0.07251762598752975,0.01922067068517208,-0.01664692908525467,0.025984004139900208,-0.007912896573543549,-0.015660099685192108,-0.003564694197848439,-0.00669447798281908,0.014369179494678974,-0.017858078703284264,0.031099019572138786,-0.01595573127269745,-0.027620766311883926,0.02572293020784855,0.018344009295105934,-0.04109397158026695,-0.018035557121038437,0.02577555924654007,0.03384825959801674,0.017459716647863388,0.07045571506023407,-6.335807120194659e-05,0.07307153940200806,-0.010036593303084373,0.068887859582901,-0.0024774193298071623,0.021007107570767403,0.03430992364883423,-0.003122657537460327,0.017240969464182854,0.035268355160951614,-0.02281760983169079,-0.020610885694622993,-0.054507844150066376,0.02269616350531578,-0.054167404770851135,0.05681576207280159,0.015844134613871574,-0.02014661766588688,-0.06374236941337585,0.015113402158021927,-0.05756981298327446,-0.014767331071197987,-0.020577671006321907,-0.025359688326716423,-0.07901730388402939,0.055440593510866165,-0.031626686453819275,-0.0205144714564085,0.040910858660936356,-0.07185093313455582,0.05254082754254341,-0.0014340830966830254,-0.032068945467472076,-0.061309296637773514,0.03224213793873787,0.016945485025644302,0.016278306022286415,-0.08890876173973083,-0.018565570935606956,0.017086299136281013,-0.028735386207699776,-0.04358215630054474,0.016421347856521606,0.007226939778774977,0.005081782117486,-0.005810463801026344,0.010365916416049004,0.06334119290113449,-0.008466366678476334,-0.0849079042673111,-0.03939563035964966,0.0179907139390707,0.03733758628368378,0.03726038709282875,0.08134663850069046,-0.019505102187395096,0.058956652879714966,0.010338565334677696,0.011960480362176895,0.022700034081935883,0.034703344106674194,-0.009644562378525734,0.03742058947682381,0.05418936908245087,-0.02216082066297531,-0.0027042110450565815,0.01988944038748741,-0.043125588446855545,0.01771935261785984,0.006557269487529993,-0.02357269637286663,-0.01895982027053833,-0.011694171465933323,-0.025102851912379265,0.016072405502200127,0.06203062832355499,-0.015114984475076199,0.015015462413430214,0.031737953424453735,-0.04657810181379318,-0.013733940199017525,-0.006412551738321781,0.01566549576818943,0.04101600870490074,-0.038866691291332245,-0.03201284632086754,0.05901405215263367,-0.018067313358187675,-0.0012553081614896655,0.021112408488988876,-0.05070986598730087,0.05327349156141281,-0.016963381320238113,0.01103910431265831,-0.029070209711790085,0.041230689734220505,0.026820044964551926,0.04691951721906662,0.020052898675203323,-0.02460377849638462,0.04442818835377693,0.05403273180127144,-0.02923925407230854,0.05402159318327904,-0.006547360680997372,-0.016955845057964325,0.026261141523718834,-0.004456214141100645,0.029851360246539116,-0.012191333808004856,-0.026479320600628853,0.018911996856331825,-0.004201443400233984,-0.005676198285073042,-0.01807163469493389,0.028541794046759605,-0.001225231564603746,0.021649718284606934,0.08260566741228104,0.014421389438211918,0.023929858580231667,0.033394087105989456,
