-0.020499564707279205,0.044812511652708054,-0.10960789024829865,0.00016927382966969162,0.005727284122258425,0.043391283601522446,0.006811641622334719,-0.0659220740199089,0.07395864278078079,-0.0063359481282532215,0.024006811901926994,0.048944100737571716,-0.042539216578006744,0.03159545361995697,-0.028917238116264343,-0.03744818642735481,0.0020631670486181974,0.03673197701573372,0.07898817956447601,0.05185859277844429,0.05149974673986435,0.020844241604208946,-0.03415780887007713,0.08344673365354538,0.03640234097838402,0.008950083516538143,0.02470606379210949,-0.050252512097358704,-0.09514744579792023,-0.07291583716869354,-0.06096635386347771,0.04287881404161453,0.018368767574429512,-0.03902067989110947,-0.03719606623053551,0.017294641584157944,0.0674494057893753,-0.03896137326955795,-0.03555891290307045,-0.0718899816274643,0.049386218190193176,0.003922451287508011,-0.017401818186044693,0.030698996037244797,-0.08608945459127426,0.007636766415089369,-0.00711264181882143,0.039855122566223145,-0.08766235411167145,-0.0016148805152624846,-0.039465807378292084,-0.03843938186764717,-0.02361294999718666,-0.05848683789372444,-0.01230530347675085,0.0784633681178093,-0.00762699730694294,0.000916360761038959,-0.05286356806755066,-0.06021816283464432,0.0069089727476239204,-0.06421755999326706,0.007303580641746521,-0.006543763913214207,0.0760207548737526,-0.06871338933706284,0.01596207544207573,0.06758391857147217,0.012793920934200287,-0.006194575224071741,-0.02516300231218338,0.03441086411476135,0.02119893580675125,0.007490331307053566,0.01074281521141529,-0.000952955917455256,-0.06795961409807205,-0.003937677945941687,-0.03984682261943817,-0.0019228376913815737,-0.026943882927298546,-0.0032737464644014835,-0.04146231338381767,-0.008242685347795486,0.011955982074141502,-0.06777305901050568,-0.011293647810816765,-0.042319394648075104,0.0024885477032512426,-0.06402051448822021,0.0021415611263364553,-0.0673835426568985,-0.0935765877366066,-0.06065663695335388,-0.028404295444488525,0.0006529113161377609,0.005849002860486507,-0.048239413648843765,0.00668398616835475,0.03373575210571289,0.061677493155002594,0.048577681183815,-0.008041149005293846,-0.05393284931778908,0.011642641387879848,0.06241361051797867,-0.011877036653459072,-0.02048197202384472,0.014082892797887325,-0.00334752700291574,0.01147425640374422,-0.005092700477689505,0.0184512697160244,-0.013765004463493824,0.05049114301800728,0.0043143839575350285,0.022317614406347275,-0.018711455166339874,-0.03567406162619591,-0.018474284559488297,0.009356916882097721,-0.021746469661593437,-0.0211138054728508,0.05131867155432701,-0.013999508693814278,-0.03342799097299576,0.018300091847777367,-0.041589610278606415,-0.00866781547665596,-0.030085094273090363,0.008511584252119064,0.015581391751766205,-0.006325476337224245,-0.06143885478377342,-0.03011113405227661,0.04145801067352295,0.006430287379771471,0.0037608174607157707,0.09285509586334229,0.022051915526390076,0.06070464476943016,0.0970621332526207,-0.03340814635157585,0.049011290073394775,0.06726274639368057,0.0025947741232812405,0.0002574817626737058,0.07830391824245453,-0.027065319940447807,0.04765261337161064,0.01772048883140087,0.02978455275297165,0.007826649583876133,-0.012231213971972466,-0.00047245618770830333,-0.007481799460947514,0.019885089248418808,-0.012266433797776699,-0.029490038752555847,0.0062383986078202724,-0.043950241059064865,0.008547251112759113,0.0845739096403122,-0.026346398517489433,-0.015494887717068195,-0.05061624199151993,0.03244166821241379,0.09377378970384598,0.06961969286203384,-0.0008819667273201048,0.009668838232755661,-0.011632981710135937,0.001871783286333084,0.05374487489461899,-0.02818438783288002,-0.05113450437784195,-0.06183285638689995,-0.07969442009925842,-0.04699629172682762,-0.01579149253666401,0.03962438181042671,0.020504288375377655,0.05325054004788399,0.05669147148728371,0.048417579382658005,0.032075416296720505,0.10999665409326553,0.11659547686576843,0.06835431605577469,0.04844459518790245,0.013303456827998161,-0.00790622178465128,-0.004848015960305929,0.00329385744407773,0.06653530895709991,-0.04968913272023201,0.052901215851306915,0.025262290611863136,0.06399871408939362,0.0931447222828865,0.07336542755365372,-0.0015812083147466183,0.09121282398700714,0.017297448590397835,-0.0816672295331955,0.04431319236755371,0.05931982025504112,0.027899956330657005,-0.03842673823237419,-0.038084182888269424,-0.0016921218484640121,-0.045973118394613266,-0.024717751890420914,-0.021492065861821175,0.002118741162121296,0.022790171205997467,0.08978834748268127,-0.01683131791651249,-0.06319798529148102,0.03792871534824371,-0.009095213375985622,-0.02723175287246704,0.07393858581781387,0.057069554924964905,-0.060881536453962326,0.027682309970259666,0.021399686112999916,0.042546022683382034,-0.027824364602565765,-0.026772236451506615,0.06152520701289177,-0.004572538658976555,-0.016559848561882973,0.04890303686261177,0.0488024465739727,-0.05601293966174126,0.04112895578145981,0.024437112733721733,0.02445218898355961,-0.01683424785733223,0.01454609353095293,0.020596172660589218,0.07461139559745789,0.03262120112776756,0.04733090102672577,0.0048932707868516445,0.061240892857313156,0.09796188771724701,-0.03791692107915878,0.057737238705158234,0.00797215010970831,-0.057010579854249954,0.043295908719301224,-0.007744236383587122,-0.0006721428362652659,-0.0033017394598573446,-0.02254565991461277,0.03687388822436333,0.006784497760236263,0.031576283276081085,0.021687397733330727,-0.01086653396487236,-0.010467148385941982,-0.011114228516817093,0.057780537754297256,-0.02491438016295433,0.031827688217163086,0.016818014904856682,-0.02675936184823513,0.059118930250406265,-0.03348589688539505,-0.06256827712059021,-0.05374258756637573,-0.001062755356542766,-0.015137494541704655,-0.0023408657871186733,0.04778043553233147,-0.011470826342701912,0.030563978478312492,-0.038080472499132156,-0.015093429014086723,-0.08142228424549103,-0.008143085986375809,-0.07426648586988449,0.01920286938548088,-0.020938005298376083,-0.039217278361320496,-0.026306558400392532,0.01244338694959879,0.011521724984049797,0.023016206920146942,0.05273551493883133,0.005142196547240019,-0.005845715757459402,0.027861343696713448,0.006224130280315876,0.0025357184931635857,0.059528350830078125,0.08388245850801468,-0.01695224642753601,-0.005133680533617735,0.08317280560731888,-0.04800010472536087,-0.027453700080513954,0.036907169967889786,0.012950900942087173,-0.012394911609590054,-0.02625409886240959,0.06470908224582672,0.03206193447113037,0.07507138699293137,0.051515281200408936,0.016698839142918587,0.0432877242565155,-0.019740547984838486,-0.05753478407859802,-0.054485101252794266,-0.024002952501177788,-0.0265059694647789,0.0732763335108757,0.013536496087908745,0.016245076432824135,-0.089408278465271,-0.018872346729040146,0.05473059043288231,0.004844844341278076,-0.019636090844869614,0.037058182060718536,0.05602637305855751,-0.033534739166498184,-0.03228360787034035,0.048112042248249054,0.0041681742295622826,-0.05979503318667412,0.006155135575681925,-0.008997250348329544,0.04283523932099342,-0.01645023748278618,0.032935626804828644,0.05577775463461876,-0.0009346289443783462,-0.013679053634405136,0.030851610004901886,-0.01938369870185852,0.04151717945933342,-0.04960115626454353,-0.15882326662540436,0.0014654739061370492,0.014287813566625118,-0.035995036363601685,0.05443090572953224,-0.04957621917128563,-0.10188543796539307,-0.08880233764648438,0.06011870875954628,-0.03055596724152565,-0.042455703020095825,0.11894061416387558,0.07309546321630478,0.06638756394386292,0.007106000557541847,0.16661855578422546,-0.008527680300176144,-0.06414295732975006,0.017224570736289024,0.018300078809261322,-0.0865958109498024,0.0454879105091095,-0.0047981408424675465,-0.05797509104013443,0.040872134268283844,0.006040945183485746,0.0020935265347361565,-0.09171101450920105,0.03418133407831192,0.1067887470126152,0.12199809402227402,0.04944348335266113,-0.017135579138994217,0.01951943151652813,0.0670553520321846,0.06248711794614792,0.029170097783207893,-0.029899349436163902,0.007750739809125662,0.0009677668567746878,0.04370418190956116,-0.08867619931697845,0.017006447538733482,0.0623672679066658,-0.09587942063808441,0.09964709728956223,-0.05718068405985832,-0.07253308594226837,0.048077285289764404,-0.07529963552951813,0.020652974024415016,0.04889717325568199,0.015679584816098213,0.025562923401594162,0.023955686017870903,-0.07258490473031998,0.0244041346013546,-0.016877751797437668,-0.033794622868299484,0.018394166603684425,-0.02355814352631569,0.022826820611953735,0.08084459602832794,0.013396226800978184,0.04415284842252731,0.077074334025383,0.04393532872200012,-0.05838548019528389,0.0002023245469899848,-0.029982835054397583,0.012147677130997181,-0.026658231392502785,-0.04432656243443489,-0.03684147074818611,-0.02274909056723118,0.10023128986358643,-0.0381605364382267,0.032179854810237885,0.022671179845929146,0.008142645470798016,-0.03388599306344986,-0.044862013310194016,-0.0638665184378624,-0.0013875373406335711,-0.042847998440265656,-0.03168107569217682,-0.05065852403640747,-0.008208021521568298,0.011440864764153957,0.07991725951433182,0.08100329339504242,-0.00531345047056675,0.06776788085699081,-0.051287490874528885,0.006429567933082581,0.017306946218013763,0.027781089767813683,-0.0332840159535408,0.06976711004972458,-0.03428417444229126,0.04624757543206215,0.0005159355350770056,0.01237425021827221,-0.02325754053890705,-0.016813596710562706,-0.08224321156740189,0.0066700163297355175,0.002989012748003006,-0.033941466361284256,0.02758234739303589,0.010277416557073593,-0.09503504633903503,-0.0531768724322319,-0.0393589586019516,-0.018017634749412537,0.04288096725940704,-0.01216336339712143,-0.015656910836696625,0.0767553448677063,-0.04715827479958534,-0.01009549479931593,-0.017148654907941818,0.06319280713796616,0.049874644726514816,-0.019936228170990944,0.018580978736281395,0.026924671605229378,0.07595303654670715,0.005037387367337942,-0.014764292165637016,-0.014558541588485241,-0.04798552766442299,0.08720739185810089,0.03276946023106575,0.005156395025551319,0.0964166447520256,-0.1095222532749176,-0.0627635046839714,0.020845802500844002,-0.012589440681040287,0.11073695868253708,0.02017546445131302,0.04107644036412239,0.07447583973407745,-0.002506832592189312,0.04537895694375038,0.028805900365114212,0.03902224078774452,0.035370174795389175,0.02206023782491684,0.060172852128744125,0.014531134627759457,0.07009664922952652,-0.029217112809419632,0.010674528777599335,0.04500386863946915,0.04752879962325096,0.08446822315454483,0.038489099591970444,0.08036251366138458,0.03221341222524643,0.046694040298461914,0.02479877509176731,-0.05045447498559952,-0.021864131093025208,-0.064278244972229,-0.0844404473900795,-0.006399592384696007,-0.03143250197172165,-0.017025703564286232,0.09671861678361893,0.057885147631168365,0.026448208838701248,-0.0440940260887146,-0.014220241457223892,0.07186280936002731,-0.0284211877733469,-0.022227801382541656,0.041968896985054016,-0.02025090716779232,-0.05878766253590584,0.03184918314218521,0.038351718336343765,-0.1443779170513153,-0.07058291882276535,0.06598804146051407,0.041151173412799835,0.0519835501909256,-0.0008990621427074075,0.0019769836217164993,0.011193038895726204,-0.036120329052209854,-0.018272923305630684,-0.003400627290830016,0.07350564748048782,0.058707866817712784,0.05032981559634209,-0.020525919273495674,-0.041689980775117874,-0.03924640268087387,0.031662795692682266,-0.004283876158297062,0.03767652437090874,-0.009188342839479446,0.05838552862405777,0.0240358654409647,-0.014078307896852493,-0.04871463030576706,0.028502656146883965,-0.010425345040857792,0.015088070183992386,0.03813297301530838,0.01935952715575695,0.002573883393779397,-0.030325263738632202,-0.020749622955918312,-0.005047577898949385,-0.032320890575647354,0.028444351628422737,0.01441660150885582,0.027819309383630753,-0.03304045647382736,-0.08661608397960663,-0.04669814184308052,-0.03286920115351677,0.0027298862114548683,0.0674050822854042,0.03448032587766647,0.053382180631160736,-0.002619601786136627,
-0.10014153271913528,0.027717022225260735,0.016551699489355087,0.09411188960075378,-0.05628274381160736,-0.03351493179798126,0.03964953497052193,-0.10377395898103714,0.041702792048454285,0.014155558310449123,-0.10360550135374069,0.06182350218296051,-0.04393265023827553,-0.10980614274740219,-0.04508395493030548,-0.05666229873895645,0.050114355981349945,0.02526155300438404,-0.04845119267702103,-0.02979530580341816,0.0166068933904171,-0.05420392006635666,0.062362123280763626,0.01029218453913927,-0.0026060743257403374,-0.025799371302127838,-0.006686845328658819,-0.07644001394510269,-0.04806317389011383,-0.08419551700353622,-0.045413315296173096,-0.03107318840920925,0.045619264245033264,-0.03070121817290783,-0.03324133902788162,-0.028098607435822487,0.10226664692163467,-0.0808839201927185,-0.03267623484134674,-0.06938663125038147,0.03856910765171051,-0.05382513999938965,0.0056533063761889935,-0.008508916012942791,-0.059256915003061295,-0.10422742366790771,0.01761344075202942,-0.08161607384681702,-0.02082643285393715,-0.018268441781401634,0.021404556930065155,-0.07248907536268234,-0.131904736161232,-0.13194115459918976,0.010302945971488953,0.03105519525706768,0.020750943571329117,0.06640142947435379,-0.12068542838096619,-0.0036186492070555687,0.01303073763847351,0.03237878158688545,0.011507131159305573,-0.023688046261668205,0.008863278664648533,0.03719298169016838,-0.042457133531570435,-0.040309060364961624,0.0523262545466423,0.0018448397750034928,0.005855012685060501,0.03087564930319786,0.016832949593663216,-0.009820530191063881,0.0032077282667160034,-0.033143751323223114,-0.003909923601895571,-0.020727058872580528,0.0021455890964716673,-0.018834521993994713,-0.025426235049962997,-0.004949663300067186,-0.008481832221150398,-0.03739400953054428,0.0005518427351489663,-0.016400033608078957,-0.01916610635817051,0.024598628282546997,0.02627907134592533,-0.013317981734871864,-0.04717089980840683,-0.061303745955228806,-0.13281317055225372,0.012292749248445034,-0.05644149333238602,-0.01066851057112217,0.0177018940448761,0.03525865823030472,0.01232299953699112,0.031374216079711914,0.04425076022744179,-0.042810749262571335,0.0064348396845161915,0.10310298204421997,0.038402531296014786,-0.011407727375626564,-0.08275313675403595,0.007784191519021988,0.038891810923814774,0.04797397553920746,0.06304264068603516,-0.02848055586218834,0.07762032747268677,-0.014406917616724968,0.008367566391825676,-0.03829190507531166,-0.07339059561491013,-0.034960635006427765,-0.03983696177601814,-0.05781085044145584,0.048198651522397995,0.011452727019786835,0.04847963899374008,0.054208237677812576,0.03533835709095001,-0.03374716266989708,0.019290948286652565,0.02777397446334362,-0.029793433845043182,-0.005164862144738436,-0.06013040989637375,0.020052991807460785,-0.0040857819840312,-0.00032431870931759477,0.0376933291554451,-0.06324928998947144,0.05803874135017395,-0.07497769594192505,0.05028923228383064,0.0782749280333519,-0.04616363346576691,0.002464194782078266,0.026603035628795624,-0.031494613736867905,-0.030354700982570648,-0.026401793584227562,0.03188873827457428,-0.08457902818918228,-0.0021030735224485397,-0.020737625658512115,-0.06391119211912155,0.017833532765507698,0.02086408995091915,-0.029823536053299904,-0.049959734082221985,0.01881680265069008,0.0494922436773777,-0.06950689852237701,-0.005371278617531061,-0.026195766404271126,0.00983469933271408,0.0157870315015316,-0.0019280693959444761,0.008863583207130432,0.006107822991907597,-0.06026267632842064,-0.07003015279769897,0.08146937191486359,0.07414444535970688,0.012427283450961113,-0.022092582657933235,-0.018762413412332535,-0.08242008835077286,0.06152878701686859,-0.041329264640808105,0.08648420125246048,-0.04024544358253479,-0.04765971004962921,0.03384242579340935,-0.08484193682670593,-0.05280914157629013,0.04180761054158211,-0.12055017054080963,-0.08578549325466156,-0.04898771643638611,-0.051008738577365875,-0.06287302076816559,-0.07726345211267471,-0.06895802915096283,-0.07101207971572876,0.011195555329322815,-0.04577045887708664,-0.03001280501484871,0.06364820897579193,-0.011733629740774632,0.004098690580576658,-0.023528914898633957,-0.008485071361064911,-0.006081865169107914,0.057683445513248444,0.02080068551003933,0.027743395417928696,0.05952565744519234,-0.0516783781349659,-0.022900117561221123,0.006398635916411877,-0.00617473479360342,0.0015477234264835715,0.0014006879646331072,0.004836114589124918,-0.03361302614212036,-0.09247483313083649,0.007368895225226879,-0.041529327630996704,-0.025100061669945717,0.04442339017987251,-0.012119574472308159,-0.05844864621758461,0.07189728319644928,-0.0022810841910541058,-0.03181402385234833,0.0619063675403595,-0.11243496835231781,-0.051585279405117035,0.014341063797473907,0.0030531971715390682,0.03846590593457222,-0.020949704572558403,-0.034071698784828186,0.07676976174116135,-0.09383834898471832,0.10716333985328674,0.011783787980675697,0.023944152519106865,-0.017706003040075302,-0.011420376598834991,0.025781041011214256,0.0162368081510067,0.09698648005723953,-0.046636588871479034,-0.0066721802577376366,-0.024248648434877396,-0.07269352674484253,0.015013889409601688,0.15589532256126404,-0.11724437773227692,0.05818016827106476,0.10687131434679031,-0.1130429282784462,0.01635526306927204,-0.03618323802947998,0.0463939905166626,-0.04827432334423065,0.05380742624402046,-0.030917100608348846,-0.017851967364549637,0.15397314727306366,0.007796208839863539,-0.01156825851649046,0.048209235072135925,-0.0163365937769413,-0.06882737576961517,-0.04306361451745033,0.03505316376686096,-0.039943378418684006,-0.013019667007029057,0.0302259624004364,-0.041255272924900055,-0.05964178591966629,-0.056053485721349716,-0.05005771666765213,0.055662158876657486,0.01553525123745203,-0.0026942912954837084,-0.05304328352212906,0.02020661160349846,0.012989036738872528,0.01733127050101757,-0.0032644569873809814,-0.03943094611167908,0.018319465219974518,-0.03167816251516342,-0.01727219671010971,-0.05521830916404724,-0.006344481837004423,0.027244536206126213,0.015303747728466988,0.008427330292761326,-0.011142505332827568,-0.050156183540821075,0.00718957232311368,0.0059096431359648705,0.061958976089954376,0.054946161806583405,-0.00839708000421524,-0.026543790474534035,0.017948225140571594,0.05177609622478485,0.0697760209441185,0.045798659324645996,0.021145151928067207,-0.06832918524742126,-0.017236100509762764,0.06622523814439774,-0.02211291901767254,-0.025752590969204903,-0.028305914252996445,0.024199286475777626,0.0005076660308986902,-0.015259446576237679,-0.06054716184735298,-0.034814830869436264,0.03371007367968559,-0.02491801790893078,-0.00499579356983304,0.02803361602127552,-0.019138744100928307,-0.04396169260144234,-0.01480735745280981,0.02352331019937992,0.029123587533831596,0.039416417479515076,-0.002464673947542906,-0.009491135366261005,-0.09209368377923965,0.10002533346414566,-0.05064884200692177,0.0038445345126092434,0.011861149221658707,-0.02720036916434765,-0.043385762721300125,-0.03729821741580963,-0.017674483358860016,-0.06415621191263199,-0.013666173443198204,-0.02655508555471897,-0.016466721892356873,-0.049302369356155396,-0.04150549694895744,-0.02831766940653324,-0.040552590042352676,-0.0053572566248476505,-0.03860162943601608,0.03797520697116852,0.0034993274603039026,-0.05049310252070427,-0.010494212619960308,0.02233436144888401,-0.00019033496209885925,0.008688290603458881,-0.003363839816302061,0.03971254825592041,0.034777719527482986,-0.007463151589035988,-0.0024485173635184765,0.040621835738420486,0.007998766377568245,-0.07606294006109238,-0.10899171978235245,-0.03787050023674965,0.09137938171625137,0.06914205849170685,-0.027123985812067986,0.21778525412082672,0.06017700955271721,-0.011169974692165852,0.06716541945934296,0.059842389076948166,-0.03426920250058174,-0.02190990559756756,-0.052789922803640366,0.03576907142996788,0.15319180488586426,0.026967789977788925,0.12482400238513947,-0.07904624193906784,-0.14123111963272095,-0.08537402004003525,-0.0397382490336895,0.0542597658932209,0.06482202559709549,-0.05236426740884781,0.021875428035855293,-0.00873869564384222,-0.1027885228395462,-0.08960717916488647,0.04134659096598625,-0.009239235892891884,-0.10058005154132843,0.11940468102693558,0.03694229573011398,0.02281002700328827,-0.010663846507668495,-0.031084535643458366,-0.16886869072914124,-0.05766519159078598,-0.034711986780166626,0.0034538963809609413,0.10945593565702438,0.05302146077156067,-0.07556918263435364,0.0016458317404612899,0.08319037407636642,-0.08068157732486725,-0.07329761236906052,-0.043807413429021835,-0.05860581248998642,0.01776772364974022,-0.05905495584011078,0.05084790661931038,0.04050976410508156,-0.0678139477968216,-0.004850866738706827,-0.017110247164964676,0.02387188747525215,-0.1277850866317749,0.04041445627808571,0.048860903829336166,0.11724205315113068,0.027932550758123398,0.04140804708003998,-0.07465729117393494,-0.04789474979043007,-0.012620771303772926,0.0008957897662185133,0.028628448024392128,0.01823578029870987,-0.04207707569003105,0.025085894390940666,0.030058179050683975,-0.07988692075014114,0.04530993476510048,-0.059334710240364075,-0.018752260133624077,0.012159952893853188,0.007927749305963516,0.04489913955330849,-0.019238432869315147,-0.06135444715619087,-0.0708744153380394,0.023482797667384148,0.0012884034076705575,0.04370308667421341,0.06344293802976608,-0.008326442912220955,0.018025118857622147,0.029379764571785927,-0.021761028096079826,-0.048935048282146454,0.029852518811821938,0.029027527198195457,0.06236809119582176,-0.03936806321144104,-0.024363163858652115,0.03506229817867279,-0.04883632808923721,0.061330683529376984,0.01962995156645775,-0.005402611568570137,-0.03320649638772011,-0.14166177809238434,-0.03198573738336563,-0.011693635024130344,0.042312998324632645,-0.0012947040377184749,0.029381578788161278,0.04522930830717087,0.017776427790522575,-0.008056512102484703,0.041125789284706116,0.01945413649082184,-0.0026762501802295446,-0.07418984919786453,-0.05754121020436287,0.02329166606068611,0.03059556521475315,-0.030817372724413872,-0.010612974874675274,-0.01578550785779953,0.12425645440816879,0.020532144233584404,0.044311463832855225,-0.033821359276771545,0.03942126780748367,-0.09697674959897995,0.10120692104101181,0.03179417550563812,-0.055007319897413254,0.051488734781742096,0.043211326003074646,0.0032087196595966816,0.07799646258354187,0.03381650522351265,0.023280145600438118,0.08422485738992691,-0.0032138428650796413,0.022905873134732246,-0.015775838866829872,0.013390466570854187,0.035676103085279465,-0.045974038541316986,0.026124687865376472,-0.0746837630867958,-0.08253307640552521,0.030469708144664764,0.07328351587057114,0.09919735044240952,-0.0002295680606039241,-0.02914423681795597,0.03130272403359413,0.006099277175962925,0.013601604849100113,-0.02333618700504303,0.03344622254371643,-0.07151670753955841,0.02157941460609436,0.13641008734703064,4.3179305066587403e-05,0.056797564029693604,-0.011463849805295467,0.06783420592546463,0.02632506936788559,-0.029659423977136612,0.050878677517175674,-0.02809172496199608,-0.10266342014074326,-0.07684532552957535,-0.17847397923469543,-0.006208661012351513,0.018030596897006035,0.05526790767908096,0.008647807873785496,0.01222920697182417,0.015361259691417217,-0.022812334820628166,-0.011880893260240555,-0.01811341755092144,0.030329562723636627,-0.08934725075960159,0.021543942391872406,-0.04575691372156143,-0.03874104842543602,0.0026052759494632483,-0.008220129646360874,0.034729570150375366,0.03546466305851936,0.0266299806535244,-0.029784897342324257,0.028598982840776443,-0.056374840438365936,-0.09078191965818405,-0.006693039555102587,0.13472945988178253,-0.008658272214233875,0.005649618338793516,-0.0034768704790621996,-0.033189807087183,0.026589861139655113,0.020922468975186348,0.09430339187383652,0.029374945908784866,0.058437805622816086,-0.03174586966633797,0.06978719681501389,0.023091869428753853,-0.019638141617178917,0.011947542428970337,0.014833126217126846,-0.09051820635795593,-0.08651869744062424,-0.022264739498496056,-0.03304785117506981,0.05075964331626892,-0.041314538568258286,-0.08831260353326797,-0.010231013409793377,
0.04846569523215294,-0.00860473420470953,-0.04803131893277168,0.03566407412290573,0.04916837811470032,0.06457865238189697,-0.006780373863875866,0.0597502738237381,0.07836248725652695,-0.010102679952979088,-0.07553433626890182,0.012902295216917992,-0.046317849308252335,0.016981666907668114,0.012956959195435047,0.03102710470557213,-0.030040061101317406,-0.013608026318252087,0.06183409318327904,0.01724899560213089,0.020545074716210365,-0.027391908690333366,-0.00600117864087224,0.05055850371718407,-0.018599506467580795,-0.008532405830919743,0.08753843605518341,-0.029846901074051857,-0.06013278290629387,-0.04962038993835449,-0.006051960866898298,0.04971852898597717,-0.021902410313487053,0.02569558098912239,0.011729822494089603,0.028650574386119843,0.013277403078973293,-0.028788555413484573,0.01825779303908348,-0.1277177929878235,0.0006800645496696234,-0.032027628272771835,-0.028333816677331924,0.021140236407518387,-0.1618098020553589,0.03169374540448189,-0.18254297971725464,-0.11110498011112213,-0.002286001108586788,0.05447841435670853,-0.04042503237724304,0.023828210309147835,-0.06654056906700134,-0.11630801856517792,-0.04659450054168701,-0.027423908933997154,0.004382493440061808,0.035240620374679565,-0.008341814391314983,-0.07208774238824844,-0.025020845234394073,-0.006774927955120802,0.013301912695169449,0.02395714819431305,0.049716413021087646,-0.04965142905712128,0.035488832741975784,-0.0409049466252327,0.012615892104804516,-0.0420578308403492,-0.03253750875592232,0.1294146180152893,-0.031104475259780884,-0.005001915153115988,0.11703890562057495,0.04590793326497078,-0.0439530648291111,0.023334398865699768,0.07171263545751572,0.0029755854047834873,0.08775163441896439,0.02645949088037014,0.0034950976260006428,0.011193772777915001,0.03458697721362114,-0.035268865525722504,-0.021161673590540886,0.017026463523507118,0.05479973182082176,0.012415079399943352,0.08113626390695572,0.04768358916044235,-0.03586413711309433,0.01112779974937439,-0.0765218511223793,0.005211798939853907,-0.004246694967150688,-0.008255008608102798,-0.04699433594942093,-0.023750318214297295,-0.0390840582549572,0.0757792517542839,0.030865415930747986,0.03322502225637436,0.042205605655908585,0.010540148243308067,0.01562943309545517,0.02887486107647419,0.06485351175069809,0.02497023344039917,0.09425187110900879,0.026004191488027573,-0.023737840354442596,0.0018476116238161922,0.005884287878870964,0.03494247421622276,0.06234821677207947,0.019703643396496773,0.03219655528664589,-0.021386325359344482,0.04331658408045769,0.0839768648147583,0.0644504576921463,0.0394623838365078,-0.036458227783441544,-0.016805171966552734,0.07608207315206528,0.05989495664834976,0.06317565590143204,-0.007809979375451803,0.11032703518867493,0.027314312756061554,0.09558982402086258,0.13751569390296936,0.047034576535224915,0.011518227867782116,0.031663548201322556,0.09870835393667221,0.020600425079464912,-0.01591958850622177,-0.04366275668144226,0.006262763869017363,0.0012770189205184579,0.01538864616304636,-0.0064082094468176365,0.02232987806200981,-0.007302463054656982,0.04559330642223358,-0.002578278537839651,0.0663776621222496,-0.045285966247320175,-0.0388459712266922,-0.042283643037080765,-0.0340292789041996,0.01610536314547062,-0.03142743185162544,-0.01653541997075081,0.04728662222623825,-0.019662048667669296,-0.013069123029708862,-0.026098456233739853,-0.03999964892864227,0.05232837796211243,-0.02554512210190296,0.04642287269234657,-0.009390204213559628,0.10215736925601959,0.09961605072021484,0.09728854894638062,-0.07750587165355682,-0.0571565143764019,-0.05862824618816376,-0.0016310052014887333,0.04808197170495987,0.02260645478963852,0.008440769277513027,-0.08775468915700912,0.06452184915542603,0.025829583406448364,-0.03364017978310585,0.08832553029060364,0.10426794737577438,0.10456763952970505,0.06564678996801376,0.05640995502471924,0.013439696282148361,0.0010894611477851868,0.03266443312168121,0.08532938361167908,-0.028494669124484062,-0.018998948857188225,-0.02259235456585884,-0.11349886655807495,-0.02131502330303192,-0.030944107100367546,0.02431023120880127,-0.045461248606443405,-0.041545718908309937,-0.0549626424908638,0.02051849290728569,-0.011906457133591175,-0.09702523052692413,0.004480236209928989,-0.01591220684349537,-0.005274111405014992,0.046701543033123016,0.004890114534646273,0.007166340947151184,0.0006071171956136823,-0.04149718955159187,-0.023718174546957016,-0.06168816611170769,0.019279399886727333,0.003478496102616191,0.08526423573493958,-0.013186871074140072,-0.052112579345703125,-0.04968753829598427,-0.015558289363980293,0.05875338986515999,-0.028444336727261543,-0.06147175282239914,0.053499504923820496,0.026859546080231667,-0.02743464708328247,-0.0007574814953841269,0.000883879023604095,-0.006434612441807985,-0.026447584852576256,-0.04575321823358536,-0.030010666698217392,-0.009640219621360302,-0.09749802947044373,0.04488575831055641,-0.022433623671531677,0.03530997782945633,0.01773860678076744,0.012748193927109241,0.06658895313739777,-0.003677819622680545,-0.00956242810934782,0.05970442667603493,-0.019604751840233803,0.020101496949791908,0.05961634963750839,0.06532513350248337,0.037630386650562286,-0.06172405928373337,-0.061040401458740234,0.014489331282675266,0.07594747096300125,0.09212356805801392,-0.018464984372258186,0.026774434372782707,0.028307443484663963,-0.051728472113609314,-0.004425432533025742,0.1274026334285736,0.020614812150597572,0.09848134964704514,0.09093599021434784,0.02014385163784027,-0.008892371319234371,-0.09840988367795944,-0.06342890113592148,0.022903790697455406,-0.005003962200134993,0.01047586277127266,0.031657688319683075,-0.010758897289633751,-0.036620210856199265,0.0158850010484457,0.06663019955158234,-0.04036934673786163,0.005574233829975128,0.019373152405023575,-0.07048921287059784,-0.02446879632771015,0.053567901253700256,-0.028553767129778862,0.03750207647681236,-0.011412285268306732,-0.014958866871893406,-0.05801453813910484,-0.01741691306233406,-0.004632312338799238,-0.0077515565790236,0.005926759913563728,-0.03816216439008713,-0.010887378826737404,-0.02528560906648636,0.001820782315917313,-0.012507126666605473,0.01717638038098812,-0.1588336080312729,-0.1255495548248291,-0.07474762201309204,-0.04905087500810623,0.023231085389852524,-0.0020091431215405464,-0.06406321376562119,-0.03558030724525452,-0.05361179634928703,-0.0034445018973201513,-0.009006411768496037,0.0035008282866328955,-0.05329680070281029,0.005807972047477961,0.03521888703107834,0.049368277192115784,-0.11824262887239456,-0.029362337663769722,0.04152146726846695,0.03583984076976776,0.07271072268486023,-0.03544674813747406,-0.03810402378439903,0.006432127207517624,-0.019237488508224487,-0.13205915689468384,-0.02390083484351635,0.033658310770988464,-0.01899852603673935,0.014624996110796928,0.0424756295979023,0.053244296461343765,-0.04282265901565552,-0.00864549819380045,0.09028372913599014,0.03803195804357529,-0.02982386201620102,-0.002584245055913925,0.05027294158935547,-0.027804920449852943,-0.043480511754751205,-0.016625860705971718,0.028657957911491394,-0.03843066096305847,0.030460750684142113,0.0050615789368748665,-0.0427912101149559,0.06690985709428787,0.009917964227497578,0.00411491934210062,0.04444742575287819,0.04921610653400421,-0.14442095160484314,0.062210820615291595,-0.0014266102807596326,-0.018514249473810196,0.07397685199975967,-0.042999304831027985,0.02642890065908432,0.007533288095146418,-0.05414622277021408,0.03359571471810341,0.00992161687463522,-0.022226430475711823,0.002336821984499693,-0.009486489929258823,0.03670987859368324,-0.032178591936826706,-0.05921129882335663,-0.025434322655200958,-0.018810829147696495,0.003164019901305437,0.021450607106089592,0.02285369299352169,-0.01010133232921362,0.011147219687700272,-0.08951598405838013,-0.012640159577131271,0.07498935610055923,-0.0540185421705246,0.05038367211818695,0.10054882615804672,0.07844668626785278,0.10217691212892532,-0.018590440973639488,0.006493814755231142,-0.040517233312129974,0.02017182484269142,0.07531396299600601,-0.054088979959487915,-0.04134294018149376,0.03787653520703316,-0.08177702873945236,-0.0019788446370512247,0.17510810494422913,0.06365634500980377,0.033110566437244415,-0.04123978689312935,-0.01626424863934517,0.020558441057801247,0.07789555191993713,-0.043562550097703934,0.030841242522001266,0.036290690302848816,0.030596086755394936,0.02090808004140854,-0.025529149919748306,0.05731538310647011,0.01710733212530613,0.04768868163228035,0.10569266229867935,-0.0004547405114863068,0.0042867413721978664,0.015511893667280674,0.010368927381932735,0.012862637639045715,-0.035151589661836624,-0.061634283512830734,-0.04410805553197861,-0.03436383605003357,-0.10725228488445282,-0.070319265127182,0.018443215638399124,0.028387676924467087,0.0578477680683136,-0.024082202464342117,-0.045283909887075424,-0.05857367813587189,-0.007376485969871283,0.05968806520104408,0.09655849635601044,0.03899697959423065,0.04558170214295387,0.01097436249256134,0.043359436094760895,0.11538224667310715,-0.019258692860603333,-0.002575621707364917,-0.005278994329273701,-0.004718089010566473,-0.005659994203597307,-0.011798049323260784,-0.06247805804014206,0.010077051818370819,-0.07090703397989273,-0.0514150969684124,0.01602238230407238,-0.017232028767466545,0.058538179844617844,0.07613492012023926,0.037706408649683,-0.0378897599875927,-0.0014714739518240094,0.040345899760723114,0.02155173011124134,0.04861610755324364,-0.00342097831889987,0.08493465930223465,0.007248160894960165,0.05589360371232033,0.09194482117891312,0.010418049991130829,0.02062789909541607,0.026170819997787476,0.06591342389583588,-0.0050910781137645245,0.033974479883909225,-0.038761891424655914,0.10129357129335403,0.011538855731487274,-0.0025536816101521254,0.05024420842528343,-0.0002834443876054138,-0.011937454342842102,0.05658875033259392,0.018940750509500504,0.037924230098724365,-0.042970675975084305,-0.06475862860679626,0.049654435366392136,0.05911261588335037,0.04632788151502609,0.022624479606747627,-0.056388258934020996,-0.12159939855337143,0.014376524835824966,-0.057535428553819656,-0.05453166738152504,-0.07953034341335297,-0.08542944490909576,-0.10608245432376862,0.05851181223988533,0.012639481574296951,0.0359678640961647,0.05936812981963158,-0.02634669467806816,0.047896090894937515,0.028455082327127457,0.09345735609531403,0.05366208776831627,0.0466131791472435,0.010627837851643562,0.057997092604637146,-0.018187785521149635,0.024959471076726913,0.054224371910095215,-0.03191822022199631,0.0009443345479667187,-0.0055681681260466576,-0.02641347236931324,-0.0448031947016716,-0.06311644613742828,-0.04846493899822235,0.00670907087624073,0.04398297145962715,-0.01124433521181345,-0.009051838889718056,0.07442471385002136,0.060392312705516815,0.1079302504658699,-0.06618569791316986,-0.00848042406141758,0.06257186084985733,0.011092317290604115,-0.042385000735521317,-0.006024534814059734,0.016110649332404137,0.016642484813928604,-0.03930596634745598,0.006760363467037678,-0.05404170975089073,0.011281618848443031,0.024533966556191444,-0.10216833651065826,-0.004466129466891289,-0.01077525969594717,0.04099529981613159,0.028802761808037758,0.010780513286590576,-0.0044148084707558155,0.004013774450868368,-0.006948091555386782,-0.018009983003139496,0.054671552032232285,0.01974262110888958,-0.051545362919569016,0.06019565835595131,0.05494203791022301,-0.0004711831279564649,-0.014593720436096191,0.06065913662314415,-0.08602409809827805,-0.005449977703392506,0.20762769877910614,0.020157024264335632,-0.012684838846325874,0.0022221568506211042,0.08417007327079773,-0.016066182404756546,0.04610704630613327,-0.0029870897997170687,-0.013216977939009666,0.021046994253993034,0.05134067311882973,-0.002882331842556596,-0.015905985608696938,-0.05007714778184891,-0.0648140162229538,-0.08535271883010864,-0.07881547510623932,-0.055110614746809006,-0.05388448387384415,-0.05845674127340317,0.010913572274148464,-0.050405099987983704,-0.016902077943086624,0.11227498948574066,0.08740021288394928,0.03940274566411972,0.018161715939641,-0.006086963228881359,0.04259103909134865,
-0.09152287989854813,0.04829064756631851,0.0020343277137726545,-0.041659511625766754,-0.027984529733657837,-0.07789241522550583,-0.03995324298739433,-0.04113087058067322,-0.005733732599765062,0.06334833800792694,0.03447309881448746,-0.025846101343631744,0.03117002174258232,0.0033450385089963675,-0.038928817957639694,0.00245294370688498,-0.0151677830144763,0.04900667816400528,0.0016451245173811913,-0.03869880363345146,-0.02425296977162361,0.04881308972835541,0.014323549345135689,0.030776645988225937,0.00014772408758290112,-0.08381658047437668,0.006200575269758701,-0.03138115629553795,-0.03356890752911568,0.022371573373675346,0.030130775645375252,0.05956010892987251,0.09740297496318817,0.0139566445723176,0.03220552206039429,0.016100531443953514,-0.009847446344792843,0.04895872622728348,-0.009088953025639057,-0.006290976889431477,-0.01452162116765976,-0.027820846065878868,-0.006378901656717062,0.0014097184175625443,-0.01161686796694994,0.07468719035387039,0.008216715417802334,-0.006445316132158041,0.10869625955820084,-0.028971822932362556,0.09074003994464874,0.00906966533511877,-0.044838547706604004,0.08485199511051178,0.04622160643339157,0.05883348360657692,0.07208200544118881,0.05290133133530617,-0.039538100361824036,0.005325499456375837,0.023532910272479057,0.014803172089159489,-0.0023750781547278166,0.027961615473031998,0.08016685396432877,-0.05026092752814293,0.05947495251893997,0.07871486246585846,-0.0007262158906087279,0.05223247781395912,0.04700785502791405,0.016829943284392357,-0.07974852621555328,-0.031601790338754654,-0.08568264544010162,-0.05666312202811241,-0.07465220987796783,-0.08492036163806915,-0.014099405147135258,0.06514908373355865,0.009040500968694687,0.08035264164209366,0.017167262732982635,0.03894475847482681,0.054671723395586014,0.03333307430148125,-0.014998069033026695,0.060409095138311386,-0.0031781604047864676,-0.06430644541978836,0.008315849117934704,-0.002603202825412154,0.035051729530096054,-0.018471308052539825,0.011570523492991924,0.03002743609249592,-0.058298539370298386,0.0630362257361412,-0.014476985670626163,0.04661507532000542,-0.03510965406894684,0.06697048991918564,-0.05738265439867973,0.010921960696578026,-0.007939807139337063,0.11488210409879684,-0.014110607095062733,-0.03316013887524605,-0.037519585341215134,0.017714528366923332,-0.033481065183877945,-0.038717951625585556,0.12542028725147247,-0.042034562677145004,-0.020958689972758293,-0.057144489139318466,-0.025825168937444687,0.015559821389615536,0.045837800949811935,-0.016474302858114243,0.04402132332324982,0.06319353729486465,0.029952598735690117,-0.029070517048239708,-0.021845854818820953,0.05920575559139252,-0.007866590283811092,-0.022587159648537636,-0.004451720975339413,0.028833840042352676,0.0032568098977208138,0.046616047620773315,-0.03521733358502388,-0.06654472649097443,-0.026897430419921875,-0.05956733599305153,-0.10177981108427048,-0.08052272349596024,-0.012924706563353539,-0.02708275429904461,-0.027820009738206863,0.005691187456250191,0.06675316393375397,-0.04864639788866043,-0.007096908986568451,0.03250393643975258,0.03449105843901634,-0.07719678431749344,0.0979757010936737,-0.011532607488334179,0.009285190142691135,-0.11486916989088058,0.035004764795303345,0.005751509685069323,-0.002000274136662483,-0.02762390673160553,-0.014382082037627697,0.032958827912807465,0.017096569761633873,-0.04282742366194725,0.015177049674093723,0.017994994297623634,0.033108893781900406,0.07300597429275513,-0.006582043133676052,0.03464900329709053,-0.005605270620435476,0.043379101902246475,-0.057316962629556656,-0.01000954583287239,0.0928168073296547,0.051897142082452774,0.03296468406915665,-0.04699728637933731,0.014701155945658684,-0.04056612029671669,0.008626794442534447,0.004321680404245853,0.054378654807806015,0.014981698244810104,-0.010412458330392838,-0.01907392032444477,0.015258634462952614,0.0029768606182187796,-0.003535785712301731,-0.06732846051454544,-0.05988667905330658,-0.08664015680551529,-0.00046252808533608913,-0.030657880008220673,0.023024478927254677,-0.011645839549601078,-0.051458220928907394,-0.014181534759700298,-0.013723491691052914,-0.07863585650920868,-0.034433770924806595,0.03608161211013794,-0.02119474671781063,0.11545853316783905,0.08792785555124283,-0.007741136010736227,0.1267547607421875,0.0924609899520874,0.02705351449549198,-0.06697572767734528,0.0005390547448769212,0.023273929953575134,-0.05157475546002388,-0.04276874661445618,-0.0037878428120166063,-0.06922514736652374,-0.006782989017665386,-0.04092579707503319,-0.007913948968052864,0.04069842770695686,-0.11474616080522537,-0.04069335013628006,-0.01184745691716671,0.01301858015358448,0.04697616025805473,0.010025001130998135,-0.027797440066933632,-0.03333262354135513,0.06509135663509369,0.03646629676222801,-0.059260718524456024,-0.040384966880083084,0.08372239023447037,-0.0019658487290143967,-0.019405458122491837,0.07628035545349121,0.07844779640436172,-0.016261817887425423,-0.06357121467590332,-0.02918907441198826,0.04142399877309799,-0.04317404702305794,-0.006298001855611801,0.0856892392039299,-0.07864756137132645,-0.09190784394741058,0.032636549323797226,0.01724376529455185,-0.024204419925808907,0.0009459067368879914,-0.006734662223607302,-0.07813054323196411,0.06548714637756348,-0.03554590418934822,0.029612179845571518,-0.12212993949651718,-0.05447091907262802,-0.016143620014190674,0.050812993198633194,0.04232136532664299,0.02954297699034214,0.07343348860740662,-0.00015816965606063604,-0.009840883314609528,-0.004305386450141668,0.007548461202532053,0.11016077548265457,-0.02025371976196766,0.03849409893155098,0.10732177644968033,0.047424230724573135,0.017543045803904533,0.06981270760297775,0.02474190667271614,-0.08765928447246552,-0.028100555762648582,-0.03385095298290253,-0.019524231553077698,-0.057287588715553284,0.006230337545275688,-0.012447004206478596,0.003767706686630845,-0.040432363748550415,0.03371591866016388,-0.003366697346791625,0.03159983828663826,0.04179791361093521,-0.025236066430807114,0.07407954335212708,0.011638935655355453,0.09627354145050049,-0.02660989947617054,0.025190267711877823,-0.03115774132311344,-0.05549953505396843,-0.049703776836395264,0.009864951483905315,0.035882335156202316,-0.023993628099560738,0.03232252225279808,-0.026919279247522354,-0.11259527504444122,-0.04409036412835121,-0.039001159369945526,-0.018042102456092834,0.09624858945608139,0.0006548883393406868,0.016233446076512337,0.02781972847878933,-0.015872742980718613,-0.015970127657055855,0.005229049362242222,0.011503142304718494,-0.03245072066783905,0.016185568645596504,0.00333237973973155,0.004642468877136707,-0.05530966818332672,-0.03640688210725784,-0.09218237549066544,0.004064005799591541,0.005496414378285408,-0.12911850214004517,-0.014741912484169006,0.025083214044570923,-0.006750917062163353,-0.09203045815229416,-0.004282904323190451,0.027073590084910393,-0.05793217197060585,0.06529364734888077,0.025095459073781967,-0.04391825199127197,0.02763543091714382,0.03790295869112015,0.03229973837733269,-0.019575582817196846,-0.04256909340620041,0.01510691363364458,-0.019229844212532043,0.06033999100327492,0.019426066428422928,0.018272824585437775,0.07106339931488037,-0.029078202322125435,-0.03431195393204689,0.07491032779216766,0.08658552914857864,0.05206407979130745,0.034788914024829865,0.01233663223683834,0.03550170361995697,0.012137806043028831,0.0036727970000356436,-0.025032952427864075,-0.013262075372040272,0.07177489250898361,0.049231719225645065,-0.02185743674635887,0.054623186588287354,-0.037055570632219315,-0.025609038770198822,0.021608471870422363,-0.05233816057443619,-0.015096824616193771,-0.03890492394566536,0.049751490354537964,0.14771996438503265,0.12426130473613739,0.07242956012487411,0.0003889924264512956,0.013774923980236053,0.0055575924925506115,0.008580449968576431,-0.016025202348828316,-0.024473555386066437,0.00010802342148963362,0.00862856861203909,-0.04773265868425369,0.040162473917007446,0.11056309938430786,0.02112654782831669,-0.1693897694349289,0.012748942710459232,0.045558299869298935,-0.07825793325901031,0.02462051250040531,-7.581672252854332e-05,-0.03779004514217377,0.04533027857542038,0.00664259260520339,0.05335133895277977,0.030365826562047005,-0.09202642738819122,-0.08696233481168747,-0.029423905536532402,-0.10406158119440079,0.020873108878731728,-0.08448851853609085,-0.03573847562074661,-0.023916911333799362,-0.062412504106760025,0.004376981407403946,0.0687129944562912,-0.013931802473962307,-0.0336998887360096,-0.03264143317937851,0.023142686113715172,-0.033320244401693344,-0.007123458199203014,-0.06273698806762695,-0.0020239101722836494,-0.006627971306443214,0.0029991588089615107,0.007059388794004917,0.02480304054915905,-0.09207718074321747,0.03220703452825546,-0.023762788623571396,-0.029088705778121948,-0.036936841905117035,0.07912582159042358,0.022134659811854362,0.03553333878517151,-0.03871243819594383,0.01167665608227253,-0.03207835927605629,0.016281388700008392,-0.06062958016991615,-0.06771034002304077,0.12504607439041138,0.15335898101329803,-0.054296091198921204,0.048829156905412674,-0.03843525052070618,0.008661067113280296,0.052808839827775955,0.026270899921655655,0.012878846377134323,0.008417325094342232,0.1300591379404068,0.040485214442014694,0.09213618189096451,0.07555656135082245,0.08891094475984573,0.0007548584835603833,-0.007439113687723875,-0.08117440342903137,0.04101921245455742,0.004800593946129084,-0.028463298454880714,0.02621849626302719,0.022487837821245193,0.024877913296222687,0.01710513047873974,0.022415561601519585,-0.015141051262617111,-0.0279269777238369,-0.036559704691171646,0.041709285229444504,-0.10595255345106125,-0.007728576194494963,0.03403080999851227,0.021583735942840576,0.08393330127000809,0.07709269970655441,-0.05916396901011467,0.048573993146419525,-0.029886219650506973,-0.00883723795413971,-0.0015016532270237803,0.03935377672314644,-0.008290617726743221,-0.0027821275871247053,-0.007176899816840887,-0.06990686058998108,0.08360191434621811,0.05829126387834549,-0.013718409463763237,-0.09193167835474014,-0.020140985026955605,-0.04554208368062973,-0.06067582964897156,0.06648135185241699,-0.04069283977150917,-0.09999784082174301,0.022781871259212494,-0.025748174637556076,-0.0893469825387001,0.109112948179245,-0.021526897326111794,-0.0047454251907765865,-0.004393650218844414,-0.06775614619255066,0.029378678649663925,0.031214885413646698,-0.011778237298130989,-0.002436055801808834,0.05077403411269188,0.01795077882707119,0.039975788444280624,0.10246255248785019,0.06446539610624313,0.08548129349946976,-0.028891878202557564,0.061013996601104736,-0.04527996480464935,-0.09813810139894485,0.011526352725923061,-0.020895959809422493,0.00824918132275343,-0.02303897589445114,-0.04159741848707199,-0.02192862331867218,0.028952527791261673,0.017743268981575966,-0.04089251905679703,0.041103120893239975,-0.10330962389707565,0.03445791080594063,-0.00724488589912653,0.004882626701146364,0.018730994313955307,-0.07998178899288177,0.010782149620354176,-0.0513056144118309,0.07707174867391586,0.01787068508565426,0.05016201362013817,0.05117473378777504,-0.026504941284656525,0.028864402323961258,0.0037827331107109785,-0.08065800368785858,0.01864495500922203,-0.0022143200039863586,0.07522794604301453,0.0613718219101429,0.06654002517461777,0.025868583470582962,0.002188648795709014,0.021162785589694977,-0.02127840369939804,0.02214624732732773,-0.05457676202058792,-0.058753643184900284,-0.03961111232638359,-0.032243601977825165,-0.012941648252308369,0.005799152888357639,0.025896627455949783,0.028629928827285767,0.06725741922855377,0.04447179287672043,0.03366885706782341,-0.032269805669784546,0.1624702662229538,0.12665559351444244,0.06687186658382416,0.054290659725666046,0.009317700751125813,0.04492814838886261,0.010333768092095852,0.02384469099342823,0.010868791490793228,0.026266176253557205,-0.025912461802363396,0.04739837348461151,-0.04988834261894226,0.027125757187604904,0.015768853947520256,0.04440212622284889,-0.0011988175101578236,-0.025916360318660736,-0.07199782133102417,0.01224505715072155,0.018054455518722534,0.06920116394758224,-0.008781492710113525,-0.00419575022533536,
0.061773885041475296,0.03791985660791397,0.0010256003588438034,0.02953225187957287,-0.002636346034705639,0.027009649202227592,0.015545456670224667,-0.07780337333679199,-0.014412159100174904,0.05050337687134743,0.012857204303145409,0.06313148140907288,0.009442328475415707,-0.08272482454776764,-0.03329251706600189,0.02391798608005047,-0.06494178622961044,-0.0063584609888494015,-0.03197380527853966,0.038048867136240005,0.04029214009642601,-0.021532438695430756,-0.0314578115940094,-0.012264917604625225,-0.027431702241301537,-0.0835324376821518,0.006034941878169775,-0.002165039535611868,-0.010160056874155998,-0.035553913563489914,0.003979605156928301,-0.11704541742801666,0.05987536907196045,0.017518240958452225,0.004415083210915327,0.039594389498233795,0.06552399694919586,0.04545246809720993,-0.011041554622352123,0.025701940059661865,0.09567536413669586,-0.007646976504474878,0.03864750266075134,-0.12009613960981369,0.06149417534470558,-0.00958157330751419,0.03916597366333008,-0.02960856631398201,0.10298231244087219,0.09729699790477753,0.04802057147026062,0.052779894322156906,-0.015361147932708263,-0.06897258758544922,0.03798536956310272,0.005605123937129974,-0.012489579617977142,-0.05021786317229271,-0.12455948442220688,0.033903028815984726,0.041556209325790405,-1.0850360013137106e-05,-0.056281134486198425,0.06876714527606964,-0.0028325743041932583,-0.028629230335354805,-0.0887506753206253,0.08676747232675552,-0.026462135836482048,-0.07013576477766037,0.049459852278232574,0.09482454508543015,0.05396142601966858,-0.031871382147073746,-0.028318369761109352,-0.07211986184120178,-0.0315132699906826,0.02850458212196827,-0.04680230841040611,-0.05440036207437515,0.04358496516942978,0.052334487438201904,-0.005609757266938686,-0.05488913133740425,0.01393193006515503,0.00386398215778172,0.025554677471518517,0.03229834884405136,0.03279290720820427,-0.00988793559372425,0.025579694658517838,0.007541127502918243,-0.036111827939748764,0.05957780033349991,-0.043925940990448,-0.019836513325572014,0.04578053578734398,-6.460462464019656e-05,-0.061434242874383926,-0.00837894156575203,-0.010808772407472134,-0.05718335509300232,-0.12926582992076874,0.0065932790748775005,0.049220114946365356,-0.0017135534435510635,-0.023393655195832253,0.03915374353528023,-0.05506398528814316,-0.010170294903218746,0.1027529388666153,0.031155187636613846,-0.03755275905132294,0.13340848684310913,0.009354053996503353,-0.051723528653383255,0.0004914423916488886,-0.01493198424577713,0.029549382627010345,-0.02131856046617031,-0.053835805505514145,-0.11330927908420563,0.002094235736876726,-0.03131699562072754,-0.010509544983506203,-0.04273049533367157,-0.015102118253707886,-0.018779844045639038,0.025157015770673752,0.02285643108189106,0.03182181715965271,0.037597786635160446,0.004860259126871824,-0.016638563945889473,-0.0061840154230594635,-0.04015990346670151,-0.04143834114074707,0.04197845607995987,-0.017605917528271675,0.012135148979723454,-0.04726575314998627,-0.013706879690289497,-0.029170719906687737,-0.01593172363936901,0.07596942782402039,0.09221304953098297,0.01957220770418644,-0.020139608532190323,0.1141480877995491,-0.00042022636625915766,0.013845316134393215,0.06567537039518356,0.0037966682575643063,0.06056913733482361,-0.007969921454787254,0.049674686044454575,0.008598590269684792,-0.06729931384325027,0.05001857876777649,-0.014990773983299732,0.016584299504756927,0.03311026468873024,-0.0013922883663326502,0.05458618700504303,-0.04808158054947853,0.06274811178445816,-0.0336412638425827,0.030252307653427124,-0.11225511878728867,-0.0560854934155941,0.0009254782926291227,0.08559311926364899,-0.045238036662340164,0.020580139011144638,-0.03752048313617706,0.12025414407253265,-0.029426218941807747,0.005805219057947397,-0.028027335181832314,-0.03929663076996803,-0.008706510066986084,-0.020781775936484337,0.028912510722875595,-0.07473704218864441,-0.05570405349135399,0.029077520594000816,-0.009593826718628407,-0.04191666841506958,-0.02871120534837246,0.01967804878950119,0.058097850531339645,0.04285820573568344,0.046242546290159225,0.06946707516908646,-0.03547394648194313,-0.08555708825588226,0.017959551885724068,0.024519579485058784,0.0219180379062891,0.06933994591236115,0.05726218223571777,-0.09120108187198639,0.004999514203518629,-0.058236561715602875,-0.06535439938306808,0.09410420060157776,0.022404249757528305,0.07348398864269257,0.03309139981865883,-0.015886124223470688,0.05597579851746559,-0.0027724814135581255,0.04034515470266342,-0.011406458914279938,0.047455769032239914,0.03111627697944641,-0.06917805224657059,0.09508996456861496,0.06843562424182892,-0.06666454672813416,0.01130982581526041,0.02930673584342003,-0.03226564824581146,-0.040750958025455475,-0.048257045447826385,0.014916200190782547,-0.0631181001663208,0.01792730763554573,-0.14388249814510345,-0.00549192912876606,0.03310614451766014,-0.025428447872400284,-9.103181946557015e-05,0.04173650965094566,0.008706211112439632,-0.048266492784023285,0.016150427982211113,0.049695588648319244,-0.09618721902370453,-0.022946493700146675,0.02076851762831211,0.06517831236124039,0.01841193251311779,-0.026071377098560333,0.09274660050868988,0.03969345986843109,-0.06450562924146652,-0.030895235016942024,0.029475048184394836,-0.008393809199333191,0.010338748805224895,0.0839529037475586,0.03898921236395836,-0.017454972490668297,0.010944659821689129,0.020441552624106407,-0.021354002878069878,-0.03826897591352463,0.020746655762195587,0.01579568348824978,0.05586108937859535,-0.03413066267967224,0.030574053525924683,-0.0035335677675902843,-0.0023758288007229567,-0.026810701936483383,-0.028712794184684753,-0.022665787488222122,0.04431641101837158,-0.0023880265653133392,0.0007600291864946485,-0.062098417431116104,-0.047304924577474594,0.05490332841873169,0.007997059263288975,0.02974286489188671,0.05608995258808136,0.10959433019161224,0.10621173679828644,-0.035934384912252426,0.012546277604997158,0.053075216710567474,0.036560699343681335,0.008374856784939766,0.00902747455984354,-0.029930949211120605,-0.04735293611884117,-0.0411745086312294,-0.022231871262192726,0.06705309450626373,0.005384445656090975,-0.11469899863004684,-0.03782480210065842,-0.05112382397055626,-0.057310670614242554,-0.036618273705244064,-0.016577668488025665,-0.024692460894584656,0.039605822414159775,0.035869795829057693,-0.10543800890445709,-0.0073136198334395885,0.061059314757585526,-0.04341063275933266,0.015870381146669388,0.0896693617105484,0.013753942213952541,-0.09807123988866806,0.0240278672426939,-0.013935490511357784,0.044643767178058624,-0.03848644718527794,0.02475828118622303,0.06614916026592255,0.027860375121235847,0.05429604649543762,0.07650063186883926,-0.02921174094080925,-0.11818276345729828,-0.060205258429050446,0.014666495844721794,-0.026995213702321053,-0.033855438232421875,-0.020983710885047913,0.018953055143356323,-0.017064208164811134,-0.05958395451307297,0.05104921758174896,-0.01753632165491581,-0.005116049200296402,0.00011057284427806735,-0.01248601358383894,0.04870679974555969,-0.07713393867015839,-0.016322167590260506,-0.009132086299359798,-0.010044761933386326,0.060800954699516296,0.028751807287335396,0.007821603678166866,0.033560704439878464,0.024122891947627068,-0.024859782308340073,-0.061573270708322525,-0.04421465843915939,-0.11872640997171402,0.06805731356143951,-0.007057150360196829,-0.04101471230387688,-0.05665060877799988,0.01939343847334385,0.0001579599775141105,0.0045992536470294,0.0013267125468701124,-0.031268659979104996,-0.02992923930287361,0.04641328752040863,-0.10210257023572922,-0.0337250716984272,-0.05422547087073326,0.123567134141922,0.07064174860715866,-0.07554440200328827,0.08077598363161087,0.020556095987558365,-0.016337420791387558,0.043161191046237946,0.0019518642220646143,0.0011477821972221136,-0.07690701633691788,0.03657868877053261,0.006625072099268436,-0.010028304532170296,-0.1335146427154541,-0.02129034698009491,0.016172941774129868,-0.11575239896774292,0.034486912190914154,0.013172906823456287,-0.007527987938374281,-0.07551023364067078,0.006967336870729923,-0.02955162525177002,0.009560919366776943,-0.07727360725402832,-0.07592187821865082,0.0002731955610215664,0.012223082594573498,-0.023505352437496185,-0.00535951741039753,0.023260928690433502,-0.07134377956390381,0.11168412119150162,-0.05726584792137146,-0.01656361110508442,-0.025537654757499695,-0.0015035499818623066,0.04541332274675369,0.02815828286111355,-0.02093483880162239,0.08791521936655045,0.017070120200514793,-0.023306097835302353,-0.060401879251003265,0.004121165256947279,-0.047477155923843384,-0.02405216172337532,0.056927744299173355,-0.06832285970449448,-0.004164132755249739,0.013285547494888306,-0.01433942187577486,-0.0694747269153595,-0.026486581191420555,0.11296992748975754,-0.054149776697158813,0.02835005335509777,-0.04034894332289696,0.05848347395658493,0.018556218594312668,0.015229867771267891,-0.012993182986974716,-0.00040967139648273587,-0.010143051855266094,-0.004271661397069693,0.014651390723884106,0.022496594116091728,0.0072830235585570335,0.0008512209169566631,0.024385299533605576,-0.046403996646404266,0.0131291588768363,0.0032856587786227465,0.06289225071668625,-0.008477174676954746,0.09679494798183441,0.006416353862732649,0.022908776998519897,0.0598190538585186,-0.01247109193354845,0.0019059870392084122,-0.04177866131067276,-0.007062825374305248,0.03521619364619255,0.04665461555123329,0.06377561390399933,0.018190328031778336,-0.014429078437387943,-0.020840847864747047,0.03420598432421684,0.07720068842172623,0.03294197842478752,0.04830292612314224,-0.03464687243103981,0.012211051769554615,-0.06387840956449509,-0.010880639776587486,-0.0016063253860920668,0.014992598444223404,0.07092303782701492,0.018487805500626564,-0.01988023892045021,0.04369555786252022,0.024415673688054085,-0.005243591498583555,0.01934821531176567,0.03406345471739769,-0.074411541223526,-0.04823245108127594,0.11040777713060379,0.08473895490169525,-0.059767208993434906,0.013168940320611,0.07077642530202866,0.031706519424915314,-0.037273794412612915,-0.029158271849155426,0.008615256287157536,-0.06179063767194748,0.0530034601688385,-0.050387367606163025,-0.10444467514753342,0.009902519173920155,-0.05185580253601074,-0.08821001648902893,-0.019067713990807533,-0.028631431981921196,-0.0984688550233841,-0.09236074984073639,0.01920456811785698,-0.04841603338718414,-0.04341144859790802,-0.08812200278043747,-0.03475888445973396,0.0020494190976023674,0.02613907679915428,0.03974313288927078,-0.014481235295534134,0.056154292076826096,-0.0823962539434433,0.1256711333990097,-0.03562048077583313,-0.0035039023496210575,-0.008617810904979706,-0.03378147631883621,-0.01650291122496128,-0.06714095920324326,-0.026084044948220253,0.026513714343309402,-0.005763548891991377,0.046477001160383224,0.04592043533921242,0.015831558033823967,0.011675437912344933,-0.01419845037162304,0.03926105424761772,0.011194461025297642,-0.05488753691315651,0.08082745969295502,0.03257880359888077,0.01908896304666996,0.039562441408634186,0.04688834026455879,0.043388303369283676,0.07490228116512299,-0.020459821447730064,-0.004491742234677076,0.0478501133620739,0.10888580977916718,0.06210612133145332,0.08411295711994171,0.03983293101191521,0.030690997838974,0.020259512588381767,0.04642041400074959,0.09448239207267761,0.007556461263448,0.06577452272176743,0.05100023001432419,-0.028559481725096703,-0.008644858375191689,0.003990174271166325,-0.009010584093630314,0.07423622906208038,-0.057261768728494644,0.01050331350415945,0.10043124854564667,0.016896868124604225,0.1013176366686821,-0.012912568636238575,-0.044859908521175385,-0.03015213832259178,-0.055111829191446304,0.08799371123313904,0.05543864890933037,-0.07124034315347672,0.02723795175552368,0.04641104117035866,-0.027064230293035507,-0.007313077338039875,0.010018372908234596,-0.012626449577510357,-0.057255517691373825,0.013142969459295273,0.05360976606607437,-0.005776781588792801,-0.04287703335285187,0.06174551323056221,0.00651973532512784,0.10330801457166672,-0.1606244444847107,-0.04379747435450554,0.059377629309892654,-0.06370492279529572,-0.007796584628522396,0.03110811486840248,
-0.025010865181684494,0.07023916393518448,-0.04044089838862419,-0.0769173726439476,-0.07392390072345734,0.015012534335255623,0.0709691271185875,0.019522471353411674,0.04977952688932419,-0.005457568448036909,-0.058606021106243134,-0.10862895846366882,-0.08588266372680664,0.007262004539370537,-0.02160157635807991,0.05236269161105156,-0.014198225922882557,0.024505503475666046,-0.014246949926018715,0.0220483485609293,0.010195543058216572,0.06171657517552376,0.07690571248531342,0.03938683494925499,-0.031024832278490067,-0.0067823296412825584,0.025013815611600876,-0.02314167469739914,0.007705398835241795,0.021321194246411324,-0.028954317793250084,-0.010918107815086842,0.05863390490412712,0.06272466480731964,-0.03455594927072525,0.005163917317986488,-0.05559373274445534,-0.012815008871257305,-0.06607887148857117,-0.11183962225914001,-0.16818803548812866,0.013606248423457146,-0.0031115873716771603,-0.08013708144426346,-0.12541240453720093,-0.00658143125474453,-0.0021173192653805017,0.04395101219415665,-0.011303781531751156,-0.0057403021492064,-0.04291018471121788,-0.06580353528261185,0.01679048500955105,-0.0448639914393425,-0.0365157276391983,-0.04627556726336479,0.03825906291604042,-0.06839148700237274,-0.1458621621131897,-0.024230115115642548,-0.023405369371175766,-0.03316446393728256,-0.05751404911279678,-0.010142074897885323,0.013759966939687729,0.07241658121347427,0.045039936900138855,-0.037186555564403534,-0.06324121356010437,0.0595410019159317,-0.07048601657152176,-0.02142200991511345,-0.0076262084767222404,-0.02956477366387844,-0.07387259602546692,-0.032105717808008194,-0.02518066205084324,-0.04874899238348007,-0.04746079817414284,-0.032799653708934784,-0.01726498082280159,-0.02089466154575348,-0.01932450197637081,-0.02603090927004814,0.016425995156168938,-0.08730083703994751,-0.002618310507386923,0.031179193407297134,0.04188326746225357,-0.0048108878545463085,0.05926031246781349,-0.028938526287674904,-0.050515320152044296,0.07932355999946594,-0.010073089972138405,-0.09936683624982834,0.05637453868985176,0.08654355257749557,-0.012528475373983383,-0.04175443574786186,-0.06383442133665085,-0.04944418743252754,-0.08290009945631027,0.0036820045206695795,-0.07244284451007843,0.021480979397892952,0.06463724374771118,0.05363187566399574,0.03065558709204197,-0.0007528638234362006,-0.03287506848573685,-0.05018357187509537,0.00026602979050949216,0.11820092052221298,-0.0032239374704658985,-0.04143153876066208,0.0059948633424937725,-0.015358353033661842,-0.06882001459598541,-0.004147122148424387,-0.06113520637154579,-0.013708860613405704,-0.004691062029451132,0.021550992503762245,0.00828625075519085,0.016263071447610855,-0.025597304105758667,-0.02302258275449276,-0.04050813242793083,-0.035457368940114975,-0.0591350793838501,-0.05687066540122032,-0.011687022633850574,-0.17033664882183075,0.03592553362250328,0.03027280792593956,0.0599525086581707,0.05328536033630371,-0.030966870486736298,0.037151772528886795,0.04835733771324158,-0.026744339615106583,0.052057258784770966,0.014121460728347301,0.03736467286944389,0.007946506142616272,-0.02822158858180046,-0.06896691769361496,-0.021111225709319115,-0.0439777597784996,-0.05224018171429634,-0.06584107130765915,-0.07696734368801117,0.012326116673648357,-0.004079632926732302,0.050093743950128555,-0.00021569714590441436,0.04568086192011833,0.005079369526356459,-0.011112211272120476,-0.028234507888555527,-0.02550552971661091,-0.057298846542835236,0.040112514048814774,-0.02084118314087391,-0.1359931081533432,0.03244451805949211,-0.13450327515602112,0.062277648597955704,-0.0461876280605793,0.015786387026309967,0.02327072061598301,0.04628857970237732,-0.049853596836328506,-0.03918955475091934,-0.01392394956201315,-0.005779208615422249,0.0033374640624970198,-0.05598503351211548,-0.01248519029468298,-0.10089905560016632,0.02345414273440838,0.03148079290986061,-0.060569699853658676,0.06148989498615265,0.0988432988524437,-0.09914766997098923,0.08690358698368073,0.04754682257771492,-0.007604692131280899,0.011042669415473938,-0.0027640426997095346,0.021585848182439804,0.02598254382610321,-0.022098254412412643,0.023209691047668457,0.05230962485074997,0.042113542556762695,0.08510391414165497,-0.025477595627307892,-0.04865974932909012,0.019743306562304497,0.13103294372558594,0.03870588168501854,0.017838342115283012,0.02802550233900547,0.01341150887310505,-0.01463877223432064,-0.018416710197925568,0.016688181087374687,-0.024488192051649094,0.05894549563527107,-0.029968854039907455,-0.008570868521928787,0.02211064100265503,0.045890964567661285,-0.04091811925172806,-0.030848009511828423,0.021089158952236176,-0.047598421573638916,-0.020743848755955696,0.04416695609688759,-0.043768756091594696,0.05163581296801567,0.0572458952665329,-0.01612243242561817,-0.0025327163748443127,-0.05152327939867973,-0.07659244537353516,-0.003366539953276515,0.015343135222792625,-0.05351412296295166,0.06967718154191971,0.02671978808939457,0.003777251346036792,-0.023397203534841537,-0.05889993533492088,-0.10212810337543488,-0.03790464252233505,-0.015586277469992638,-0.014593207277357578,-0.04500138387084007,-0.02362585999071598,0.011384704150259495,0.08996272087097168,0.011471130885183811,-0.05659399926662445,0.03604701906442642,-0.01895914226770401,0.02666250616312027,-0.013020298443734646,-0.015652168542146683,-0.07998505234718323,0.016709379851818085,-0.015357980504631996,-0.1369580328464508,-0.0373065359890461,-0.08385968208312988,-0.01940034329891205,0.08860673755407333,-0.008379877544939518,-0.03017732873558998,0.035718970000743866,-0.030823687091469765,0.019049130380153656,0.0007437301683239639,-0.11196056008338928,0.008518959395587444,-0.10267936438322067,-0.09551916271448135,0.07225107401609421,-0.01330489106476307,-0.009947961196303368,-0.011998824775218964,-0.04647962749004364,-0.013482277281582355,-0.05106278881430626,-0.07242132723331451,-0.09746179729700089,-0.04130829498171806,-0.11480841785669327,-0.05103212222456932,-0.05008285120129585,-0.09191161394119263,-0.04114668816328049,-0.07120268046855927,-0.014092775993049145,-0.022939203307032585,0.0022253114730119705,0.0771501436829567,0.04909291863441467,-0.00452025281265378,-0.021382732316851616,0.020536409690976143,0.0002560487773735076,0.027466468513011932,0.03913478925824165,0.03312412276864052,-0.0852491483092308,0.049467604607343674,0.015891920775175095,-0.02034803293645382,0.045857686549425125,0.006412002723664045,-0.08929741382598877,0.02853827364742756,0.00748541159555316,-0.03693569079041481,-0.02250213921070099,-0.017749318853020668,-0.007691189646720886,-0.046946097165346146,0.051622506231069565,-0.01606864295899868,0.020881885662674904,-0.07705920189619064,-0.03763045370578766,-0.06457971036434174,0.015375849790871143,0.027861908078193665,-0.059256285429000854,0.07382617145776749,-0.014031395316123962,-0.024260086938738823,0.056171465665102005,-0.0010112484451383352,0.10930078476667404,0.027308588847517967,-0.03279350325465202,0.06206567957997322,-0.07148230820894241,0.00951194018125534,0.04879947751760483,-0.08145687729120255,0.061923179775476456,0.06327179819345474,0.08537033200263977,-0.005409054923802614,0.014691337943077087,0.008361482992768288,-0.13655883073806763,-0.05048264190554619,-0.01342904381453991,-0.0035494344774633646,-0.021286245435476303,-0.0488133542239666,-0.058618005365133286,-0.05616962909698486,-0.017212670296430588,0.042934808880090714,-0.026723233982920647,0.00554065452888608,0.0057802642695605755,0.027849990874528885,0.05922749638557434,0.04415072500705719,0.004213931038975716,0.034106168895959854,-0.004865655675530434,-0.02338964119553566,-0.025912225246429443,-0.056535664945840836,-0.03164133429527283,0.1892826408147812,0.1082896888256073,0.06567135453224182,0.01575329154729843,-0.011687067337334156,0.0007851847331039608,0.08927159756422043,0.039085470139980316,0.002453289460390806,0.022992167621850967,0.02285051718354225,0.01965070329606533,-0.02248481847345829,-0.000975992064923048,-0.004524257034063339,0.04585084691643715,-0.044440772384405136,-0.040536388754844666,0.07246027141809464,-0.01769973151385784,0.0037178683560341597,0.046974215656518936,0.06933745741844177,0.013013757765293121,0.11924916505813599,0.06081315129995346,0.060865119099617004,0.05272859334945679,-0.02499929443001747,0.040945518761873245,0.028515078127384186,0.014272023923695087,0.04310687631368637,-0.005240424536168575,-0.05284031480550766,-0.01881621964275837,-0.10820360481739044,0.03643243759870529,-0.03602353855967522,5.365670585888438e-05,-0.026212401688098907,0.004828538279980421,-0.012381077744066715,0.01935144141316414,-0.047169748693704605,0.00586075522005558,-0.02839069254696369,0.06731929630041122,0.07842134684324265,0.08772663027048111,0.05872374773025513,0.006844757590442896,0.04987228289246559,-0.05747051164507866,-0.0790880098938942,0.028704684227705002,0.02355990931391716,-0.01541976723819971,-0.04328710213303566,-0.057028334587812424,0.008619493804872036,-0.026631033048033714,-0.0303923562169075,-0.007910608313977718,-0.10794804245233536,-0.03011711873114109,0.00219163135625422,-0.00424697482958436,-0.06092884764075279,-0.02274230122566223,-0.07199002057313919,-0.005556428339332342,-0.004838535096496344,0.008606605231761932,0.06877610832452774,0.04572011157870293,-0.04958068206906319,0.03206731379032135,-0.08691345900297165,-0.023537376895546913,0.014320277608931065,-0.07905054092407227,-0.03245404362678528,0.10275305062532425,0.023534370586276054,0.06411433219909668,0.03298480063676834,0.018576808273792267,-0.005821374710649252,0.04171742871403694,0.0007222038111649454,0.013094189576804638,0.043891169130802155,0.0780726969242096,-4.1735125705599785e-05,-0.0008238647715188563,-0.018482215702533722,-0.03957309201359749,0.03232229873538017,0.016996286809444427,0.05065815523266792,-0.016453029587864876,0.02021743357181549,0.019769879058003426,-0.02207501232624054,-0.05299770459532738,-0.023902084678411484,0.04659000411629677,-0.050992969423532486,-0.030288126319646835,-0.04665256291627884,-0.012836506590247154,0.049799393862485886,-0.08791796118021011,-0.025274695828557014,-0.026444286108016968,0.03574526682496071,0.016593649983406067,-0.020546430721879005,0.09854219853878021,-0.0008209655643440783,-0.03841378167271614,0.06971543282270432,0.011334235779941082,-0.03166857734322548,-0.030131690204143524,0.03488558903336525,0.01926509290933609,0.029110228642821312,0.08123424649238586,0.019858522340655327,-0.007236133329570293,-0.03798949345946312,-0.007132751867175102,-0.04884059354662895,-0.030938725918531418,-0.13728393614292145,-0.14769017696380615,-0.0059929536655545235,-0.01383025012910366,-0.019648266956210136,-0.008213484659790993,0.028670765459537506,0.03033188357949257,-0.0066070049069821835,-0.040536388754844666,0.025043008849024773,-0.017554868012666702,-0.07774009555578232,-0.08509339392185211,-0.059368640184402466,-0.08934857696294785,0.018078379333019257,-0.029323939234018326,0.0025081667117774487,-0.0409557968378067,-0.08190113306045532,-0.05343455448746681,-0.04832037165760994,0.014423747546970844,-0.07809396088123322,0.07741864770650864,-0.032554350793361664,-0.021375132724642754,-0.0025310965720564127,-0.12791642546653748,-0.0316380113363266,0.04047424718737602,0.00012425122258719057,-0.0443958155810833,-0.0003604325756896287,0.023293213918805122,-0.013344880193471909,0.024459632113575935,-0.010738846845924854,-0.07835883647203445,0.007741671521216631,-0.04737275093793869,-0.03181218355894089,0.02212020754814148,0.01401442475616932,0.05137556418776512,0.062273040413856506,-0.011900514364242554,-0.023701053112745285,0.020541638135910034,-0.03172817453742027,-0.053002264350652695,0.025081494823098183,-0.011438864283263683,-0.05520975589752197,-0.025736244395375252,-0.0845898687839508,-0.04716458171606064,-0.03497406840324402,-0.023330649361014366,0.028786685317754745,0.016413569450378418,-0.12784579396247864,-0.031221209093928337,-0.06389198452234268,-0.0003134157450404018,-0.010174133814871311,-0.0024412309285253286,-0.008989169262349606,-0.006684277672320604,0.06260427832603455,0.03185050189495087,0.03428918495774269,0.07141461223363876,0.01661643758416176,0.015600397251546383,0.02628094144165516,
-0.014530351385474205,0.014966527931392193,-0.034127842634916306,2.6410038117319345e-05,-0.0820678174495697,-0.07411710172891617,0.035792578011751175,-0.03233271837234497,0.024770569056272507,-0.0613337904214859,0.03372109308838844,0.038192473351955414,-0.05372558906674385,0.018429066985845566,-0.06466994434595108,-0.038524921983480453,-0.01592876762151718,-0.042438335716724396,-0.011456716805696487,-0.006408314220607281,-0.0063104452565312386,-0.07629929482936859,-0.010782300494611263,0.009668449871242046,-0.032078299671411514,-0.04481632634997368,0.008373592980206013,0.018814386799931526,-0.018592113628983498,-0.13741472363471985,-0.0003871330991387367,-0.018835317343473434,0.01687120646238327,0.008656326681375504,0.028872037306427956,-0.05903594568371773,-0.01961502619087696,0.018689343705773354,0.04393555968999863,0.020840192213654518,-0.008329751901328564,0.010982727631926537,-0.022118521854281425,0.018545914441347122,0.040134262293577194,0.03117465414106846,-0.0296286940574646,-0.029344456270337105,0.04295690730214119,0.08099786937236786,0.04673299938440323,-0.05144796147942543,-0.11738796532154083,0.003258130047470331,0.0186463575810194,-0.006325783208012581,0.009479857049882412,0.03224627673625946,-0.06146938353776932,0.018490023910999298,0.0038458933122456074,-0.0004071965522598475,-0.012808995321393013,0.006653629243373871,0.03534071147441864,0.11304780840873718,0.043793413788080215,-0.02488078735768795,0.02629641629755497,-0.01608378440141678,0.0009742445545271039,-0.055568426847457886,0.009285960346460342,-0.009660899639129639,-0.09275665879249573,-0.0307230893522501,-0.02558366023004055,-0.06095726042985916,-0.046831827610731125,-0.04484874755144119,-0.0391131229698658,0.07916253805160522,0.10831157118082047,0.0035082679241895676,0.07306455075740814,-0.007293639704585075,-0.007405770942568779,0.05417696014046669,-0.02896922081708908,-0.021299319341778755,-0.04011525958776474,0.024760909378528595,-0.005249274894595146,-0.01833738572895527,0.04553714022040367,0.0449661910533905,-0.005696365609765053,-0.007773956283926964,0.04541493207216263,0.01470110472291708,-0.05001112073659897,-0.02487589791417122,0.043083224445581436,0.04079468548297882,-0.05804497003555298,-0.015539540909230709,-0.0004712501831818372,-0.05824650451540947,-0.014940820634365082,0.033614631742239,-0.036745715886354446,0.11626183986663818,0.05502063408493996,-0.03365088626742363,-0.017937378957867622,-0.04379667341709137,-0.03167724609375,0.051312003284692764,0.029600931331515312,0.02507084794342518,0.003812112845480442,-0.01556699350476265,0.024313906207680702,0.01992620714008808,0.010123572312295437,-0.04247531667351723,-0.019257251173257828,0.02484547719359398,-0.0381319522857666,0.02245822735130787,0.022812003269791603,0.006245500408113003,0.02576984092593193,0.03457259386777878,0.04074275121092796,-0.059101320803165436,0.017465608194470406,-0.020684197545051575,-0.04881606623530388,-0.02275043912231922,-0.031641650944948196,0.022528652101755142,-0.035777073353528976,-0.000137911454658024,0.0282443854957819,0.027281703427433968,0.023979073390364647,0.01759100705385208,0.10701853036880493,0.022628527134656906,-0.019046101719141006,0.05238436907529831,0.06503298878669739,0.006850278005003929,-0.033908817917108536,-0.03380722552537918,0.03638065606355667,0.014255003072321415,0.01679205149412155,-0.03588414192199707,0.0009075916605070233,0.010617733001708984,-0.12108807265758514,-0.11612097173929214,-0.029449468478560448,-0.013398164883255959,-0.011121467687189579,0.0003709718002937734,-0.032925624400377274,0.006403219886124134,-0.01235153153538704,-0.01072673685848713,-0.06125401705503464,0.0061559216119349,0.05669281631708145,0.10805158317089081,0.013537686318159103,0.03941250219941139,-0.014733134768903255,0.027519145980477333,-0.019371166825294495,0.08375818282365799,-0.03274939954280853,-0.0672922134399414,-0.06471369415521622,-0.052960313856601715,-0.041962724179029465,-0.007531253155320883,-0.04777299985289574,0.05238039046525955,0.003526734421029687,0.016770191490650177,0.053599148988723755,0.10771798342466354,-0.02959050051867962,-0.009003791026771069,0.018671168014407158,0.02754882164299488,0.013248027302324772,-0.05798076465725899,-0.07039538770914078,-0.005057146772742271,0.04488448426127434,0.013067474588751793,0.004216777626425028,0.006277990527451038,0.00207601860165596,0.04489676654338837,0.05758293345570564,0.01723979413509369,-0.017133891582489014,-0.022196460515260696,-0.031126389279961586,0.06637554615736008,-0.005809615831822157,0.018947042524814606,-0.026648545637726784,0.06094585731625557,0.12091685086488724,-0.025118082761764526,-0.028526633977890015,0.07016913592815399,-0.08624609559774399,0.028471814468503,0.03640783950686455,-0.04601043462753296,0.0468452014029026,-0.027417223900556564,-0.006956720259040594,0.018569553270936012,-0.07350935786962509,0.021646184846758842,0.044223852455616,-0.003004274796694517,-0.008070546202361584,-0.09113220125436783,-0.04804535582661629,0.006703379098325968,0.07247243076562881,0.04894439876079559,-0.0639478787779808,-0.0030267322435975075,0.002262054942548275,0.013106675818562508,0.046467579901218414,-0.06722315400838852,-0.10220015794038773,-0.0072569227777421474,0.042406946420669556,0.016037987545132637,0.030453333631157875,-0.08729927241802216,-0.031216904520988464,-0.07622002065181732,-0.05299163982272148,-0.0476217046380043,-0.014467624947428703,-0.015211996622383595,-0.042339667677879333,-0.022838788107037544,-0.0573812797665596,0.014994562603533268,-0.01562909036874771,0.10132615268230438,-0.03111250139772892,-0.03996830806136131,0.06332898139953613,0.00899329874664545,0.03639144450426102,0.10221635550260544,-0.006952604744583368,0.047328416258096695,0.03724370151758194,-0.029030002653598785,-0.04089459776878357,-0.022065812721848488,0.019963502883911133,-0.021575501188635826,0.0011832432355731726,0.00799588207155466,0.04575219377875328,0.04886315390467644,-0.010385679081082344,0.03164567053318024,0.023796599358320236,0.0543651320040226,0.07237431406974792,0.0315156914293766,-0.062285441905260086,-0.040336932986974716,-0.011993709951639175,-0.024976620450615883,-0.002596884733065963,-0.004705565050244331,0.03281010687351227,-0.0006802980788052082,0.07408402115106583,0.11373962461948395,0.07420948892831802,0.08152129501104355,0.021472498774528503,-0.0011596129043027759,0.04541041702032089,0.026141289621591568,0.07780211418867111,0.015940451994538307,-0.03673024848103523,0.00035646461765281856,0.01035573985427618,0.0473005436360836,-0.11717621237039566,0.03093322366476059,-0.019532982259988785,-0.001809102133847773,-0.0497131310403347,0.011799710802733898,-0.03389618545770645,0.06589127331972122,0.08005876839160919,0.10722086578607559,0.04540855810046196,-0.006830212660133839,-0.004165053833276033,0.0026186180766671896,-0.0997939258813858,0.05153772607445717,-0.01026865467429161,0.018978595733642578,-0.015059394761919975,0.006007298827171326,0.02792230062186718,-0.10886270552873611,-0.04762784764170647,0.0059188008308410645,-0.0235269907861948,-0.0355243980884552,0.06422866135835648,-0.047189563512802124,0.004270242527127266,0.02472149208188057,0.04871184006333351,0.008688646368682384,-0.038374163210392,0.02946101501584053,-0.02168738842010498,0.0027544707991182804,-0.003437483450397849,0.008808910846710205,-0.032842885702848434,-0.0035770488902926445,-0.02903692238032818,0.11406536400318146,0.052825186401605606,0.09317173808813095,0.006758436560630798,-0.033295728266239166,-0.0018784599378705025,-0.04517769813537598,-0.030467819422483444,-0.020389869809150696,0.08529496192932129,-0.05609413608908653,0.009297742508351803,-0.031205911189317703,-0.01276859175413847,-0.0016709079500287771,-0.0010208275634795427,-0.0014362536603584886,0.01882239058613777,-0.008035071194171906,-0.12585905194282532,0.07768923044204712,0.01818493939936161,-0.0005802498781122267,0.030110154300928116,0.07606355845928192,-0.051771607249975204,-0.0920829176902771,0.023298123851418495,0.01716652512550354,-0.1132916510105133,-0.041432593017816544,0.009834571741521358,-0.036131732165813446,-0.038226012140512466,-0.02499895542860031,0.006665028166025877,0.08259475976228714,-0.0729730874300003,0.1243358626961708,0.028094103559851646,-0.0214682687073946,0.02100159227848053,0.04486612230539322,-0.032995954155921936,-0.02688010223209858,-0.02562091313302517,0.003981050569564104,0.0677248015999794,0.0143171027302742,-0.07929160445928574,-0.06913741677999496,0.034839630126953125,-0.05751451849937439,-0.09068284183740616,-0.014477947726845741,0.004534436389803886,0.02974487841129303,-0.039667241275310516,0.030283235013484955,0.029741086065769196,0.04702834412455559,0.02972150407731533,-0.005830128211528063,-3.203477263014065e-06,-0.08000888675451279,0.08704284578561783,0.06764595955610275,0.07439041882753372,-0.00891752541065216,-0.03511183708906174,-0.06493474543094635,0.046617813408374786,-0.03564603999257088,-0.02203073352575302,0.03625966235995293,0.03837447240948677,-0.10286066681146622,0.00868102815002203,0.021138224750757217,0.0007789070950821042,-0.11431565135717392,0.0661928802728653,0.01562999002635479,0.021036086603999138,0.04761158302426338,-0.08052671700716019,-0.010533628053963184,0.006269891746342182,0.003539016703143716,0.006854903884232044,0.003559483913704753,-0.013277421705424786,0.010285835713148117,-0.044859081506729126,-0.03433303162455559,-0.03182384744286537,-0.04105139896273613,-0.04727843031287193,-0.034444354474544525,0.035784412175416946,-0.022672686725854874,0.06345164030790329,0.023066731169819832,-0.020569561049342155,0.035512376576662064,0.011153653264045715,0.03839334100484848,0.04455507919192314,-0.014893803745508194,-0.035144656896591187,-0.11871721595525742,-0.015083000995218754,-0.04634338244795799,-0.07397681474685669,0.08720620721578598,0.042157988995313644,0.006594368722289801,-0.07592742145061493,-0.021078364923596382,-0.0036919808480888605,-0.011672798544168472,-0.059756018221378326,-0.10720244795084,0.03209223225712776,0.10106728225946426,0.0070290290750563145,0.04712873697280884,-0.09436986595392227,0.06386338919401169,0.01892608217895031,-0.04863738641142845,0.038083769381046295,0.03672889247536659,-0.03189866989850998,0.05265875533223152,0.021197890862822533,-0.0757640153169632,-0.08172538876533508,0.04237129166722298,-0.07819885015487671,-0.06673040986061096,-0.019560016691684723,-0.05212065577507019,-0.051521509885787964,0.004513423424214125,-0.032772909849882126,-0.04009261354804039,0.05985666438937187,-0.012638330459594727,0.04277036339044571,-0.039560332894325256,-0.08191393315792084,0.013660077936947346,-0.020994124934077263,0.023839913308620453,0.07751250267028809,-0.01730363629758358,-0.007104104850441217,0.022562911733984947,-0.0040893894620239735,0.01620417647063732,0.02691744826734066,-0.011739527806639671,-0.07072236388921738,0.03589211776852608,-0.022224152460694313,-0.0037015494890511036,0.016481542959809303,0.010179362259805202,-0.05530693009495735,-0.006706878077238798,0.05925501883029938,0.07335752248764038,0.025020429864525795,-0.03366189822554588,-0.01447359286248684,0.05979933589696884,-0.009095397777855396,-0.015124010853469372,-0.007455930113792419,-0.04513686150312424,-0.0023297318257391453,0.023495711386203766,-0.022264940664172173,0.013708729296922684,0.07369435578584671,-0.038219716399908066,0.01822148822247982,-0.036983590573072433,-0.05706096813082695,-0.033742714673280716,-0.053385306149721146,-0.0304359532892704,-0.04044155776500702,0.029057489708065987,-0.03245645388960838,0.023029780015349388,0.025439618155360222,-0.018526922911405563,-0.0883527398109436,-0.0397220104932785,0.05678778514266014,-0.034125905483961105,-0.048491135239601135,0.11263347417116165,0.049179453402757645,0.057543832808732986,0.08743830770254135,0.06156888231635094,0.031250424683094025,-0.03331594541668892,-0.027686934918165207,0.057110343128442764,0.012246961705386639,0.05587281286716461,0.0603073388338089,-0.017293989658355713,-0.10015545040369034,0.003273008158430457,-0.01322881132364273,-0.01685749553143978,-0.05294370651245117,-0.01968684233725071,-0.0029982489068061113,-0.010135293938219547,
0.033241041004657745,0.06850241869688034,0.06100546941161156,0.09816593676805496,0.005210659001022577,0.026808233931660652,-0.056491248309612274,0.009563740342855453,0.11113190650939941,0.006088740658015013,0.06287874281406403,0.049063339829444885,-0.028440969064831734,-0.04106590524315834,-0.006970894988626242,0.007304480765014887,0.01406530849635601,0.01574871875345707,0.04246198758482933,0.037014733999967575,0.01139345858246088,0.08897440880537033,0.004529376048594713,0.026936443522572517,0.05469183996319771,-0.04353659972548485,-0.06518243253231049,-0.034075334668159485,0.0034113172441720963,-0.016294484958052635,-0.026945389807224274,0.016963986679911613,-0.04169956222176552,-0.008365385234355927,0.0659823790192604,0.029187709093093872,-0.02654753439128399,0.05778219550848007,0.037000108510255814,-0.07937270402908325,-0.031160293146967888,0.036820188164711,0.03628448024392128,-0.09575749188661575,-0.11443951725959778,0.027255287393927574,0.025146478787064552,-0.028233272954821587,0.001873305533081293,0.02673415280878544,-0.016335504129529,0.0352860763669014,-0.025391960516572,0.02336113713681698,-0.03501829132437706,0.040729403495788574,-0.05632689967751503,-0.024745287373661995,0.01702766865491867,-0.07828179001808167,0.08477743715047836,-0.02946995198726654,-0.03907835856080055,0.023731041699647903,-0.04620867595076561,-0.12096152454614639,-0.003933200147002935,-0.08567222952842712,-0.055795520544052124,0.009537885896861553,0.03224073722958565,-0.0202619768679142,-0.02993953414261341,-0.017007950693368912,-0.017303576692938805,-0.04708031937479973,-0.0013500753557309508,-0.05424097925424576,0.01812387816607952,-0.01709982194006443,0.017263803631067276,0.022889068350195885,0.05384143814444542,0.07576126605272293,0.008825327269732952,-0.007925666868686676,0.014725740998983383,0.03997375816106796,0.02023712918162346,0.035705696791410446,0.001737243845127523,-0.0015577961457893252,0.02303261309862137,-0.011537590064108372,0.022088011726737022,0.0402691476047039,-0.049138136208057404,0.02670004963874817,0.03822963312268257,0.017878124490380287,-0.00017840902728494257,-0.02922438271343708,0.04051194339990616,-0.004413689021021128,0.07499971985816956,0.04262138530611992,-0.02918320521712303,0.021667568013072014,-0.04997273534536362,-0.007783838547766209,-0.07862083613872528,-0.010298935696482658,-0.04765048250555992,0.018498165532946587,-0.018103431910276413,-0.02134598419070244,-0.06052263826131821,-0.014397085644304752,0.014053638093173504,0.0084227928891778,0.06026835739612579,-0.02048460766673088,-0.03302010893821716,0.11437228322029114,0.13391812145709991,0.04479517787694931,0.009008950553834438,0.0004464001103769988,-0.01645287312567234,0.05588070675730705,0.004963146056979895,-0.0010122142266482115,0.03812359645962715,-0.014851278625428677,0.013364683836698532,-0.05377023294568062,-0.04384509474039078,-0.06284169107675552,-0.003551884088665247,0.06093250960111618,-0.05840577557682991,-0.06009284779429436,-0.010053380392491817,-0.042492616921663284,-0.05321387201547623,-0.07585053890943527,0.0017337597673758864,-0.029404854401946068,-0.002686473773792386,-0.10382191836833954,-0.004238013178110123,0.05092955008149147,-0.07071187347173691,0.02033056505024433,0.01771547831594944,0.017569757997989655,0.00946091953665018,0.06183037906885147,0.00610377686098218,0.010381355881690979,-0.0670190081000328,0.03901776298880577,0.03713270649313927,0.05686409771442413,0.026398448273539543,-0.015502123162150383,-0.062004465609788895,0.07805933058261871,0.05568487197160721,0.0057227881625294685,0.020506344735622406,0.047024354338645935,-0.03621210157871246,-0.08676496148109436,-0.06576715409755707,-0.009176082909107208,-0.029527531936764717,-0.09091216325759888,-0.14868450164794922,0.02085757441818714,-0.005394111853092909,-0.022947272285819054,0.0009089359664358199,0.013414300046861172,0.028395431116223335,0.03259800374507904,-0.01388343796133995,-0.03341228887438774,0.03224737569689751,0.034719400107860565,-0.022097796201705933,0.0638599768280983,-0.025530235841870308,0.09017438441514969,0.04911984130740166,0.034436482936143875,0.030244965106248856,0.03772691637277603,0.004263591021299362,-0.07900189608335495,-0.019202599301934242,0.08997730910778046,-0.008069493807852268,-0.03305689990520477,0.03295563533902168,-0.0019996976479887962,0.036755915731191635,0.05640236660838127,0.05800817906856537,0.06480950862169266,0.15703599154949188,0.129689559340477,0.020052263513207436,0.04426219314336777,0.04434714466333389,0.05898715555667877,-0.06618930399417877,0.09706269204616547,0.07439997047185898,-0.0930284634232521,0.062273651361465454,0.05692126229405403,-0.12938232719898224,0.061699677258729935,0.01678568497300148,-0.064558245241642,0.0669960007071495,0.03342039883136749,-0.05738632753491402,-0.0785321295261383,0.058097291737794876,0.06556452065706253,0.004498716909438372,0.02916233241558075,0.01856100931763649,0.0013467816170305014,-0.008221976459026337,-0.012166613712906837,0.0020315260626375675,-0.06030062586069107,-0.09240051358938217,-0.05740019679069519,-0.03994615003466606,-0.045920856297016144,-0.02470281347632408,-0.031048502773046494,-0.003943359479308128,0.00829977449029684,-0.002124597318470478,-0.008236328139901161,0.07135128229856491,-0.03496984764933586,0.042266275733709335,-0.0654541552066803,0.03545234724879265,-0.06047314405441284,-0.11056023836135864,0.01755836419761181,-0.01969260908663273,0.040155090391635895,0.030566733330488205,0.006291244179010391,0.0552712045609951,-0.021860582754015923,0.09473757445812225,0.005951871629804373,-0.09189055114984512,0.018358789384365082,-0.02368600107729435,-0.08360114693641663,-0.017394499853253365,0.049168623983860016,0.06832423061132431,-0.037301961332559586,-0.010928167030215263,0.042252540588378906,-0.019164683297276497,-0.06106024235486984,0.04493659362196922,-0.02749139443039894,0.025109555572271347,-0.03547536954283714,-0.06702951341867447,-0.0800442025065422,-0.01885247975587845,-0.04630042985081673,-0.0851978212594986,-0.09204305708408356,0.03402227908372879,0.0054206233471632,-0.00596251105889678,0.015354000963270664,0.01815473474562168,0.09809236228466034,0.07209310680627823,-0.014778810553252697,0.015299941413104534,-0.0037626142147928476,0.06337112188339233,-0.01476485189050436,-0.03289107605814934,0.012017307803034782,-0.025826310738921165,-0.0035970055032521486,0.0022025955840945244,-0.027848776429891586,0.03910033777356148,0.04385775700211525,0.029639707878232002,0.0031058681197464466,-0.07676533609628677,0.12087550014257431,-0.010828027501702309,0.016237838193774223,0.030331987887620926,-0.06356557458639145,0.015198424458503723,0.004995360039174557,-0.06060728430747986,-0.09962500631809235,-0.004872141871601343,-0.07919169217348099,-0.07461944967508316,0.008255841210484505,0.029028180986642838,0.02798118256032467,-0.00827858317643404,0.021624809131026268,-0.03418704867362976,-0.06547918170690536,0.015866592526435852,0.1038312092423439,0.012968803755939007,-0.061518967151641846,0.012135536409914494,0.014024489559233189,0.0136593421921134,-0.02577667497098446,0.04779713973402977,0.043400686234235764,0.057387080043554306,0.010575022548437119,0.005949859041720629,-0.017598075792193413,0.03676924481987953,0.0905199646949768,-0.02756936103105545,-0.003941305447369814,-0.026995349675416946,-0.01833493635058403,-0.021574104204773903,0.018316330388188362,0.00863838754594326,-0.021775441244244576,-0.01785130240023136,0.02635974995791912,-0.024769095703959465,-0.08684224635362625,-0.058628764003515244,-0.07552091777324677,0.0056009250693023205,-0.04116136580705643,0.06452065706253052,0.06411588937044144,0.030477318912744522,0.08433394879102707,0.015023447573184967,-0.04544884338974953,0.04673777520656586,0.02555622160434723,0.0950450748205185,-0.00047094724141061306,0.012287660501897335,0.028385180979967117,0.0322137176990509,0.10225067287683487,0.1460091471672058,0.06083415821194649,0.055167682468891144,-0.06997931748628616,0.08485961705446243,0.0399603471159935,-0.02758418396115303,0.011860299855470657,-0.0009152503334917128,-0.0716729536652565,-0.07617714256048203,0.08766496181488037,0.05776521936058998,-0.034572843462228775,0.011076442897319794,0.012491593137383461,0.049128372222185135,0.03214703127741814,0.08037708699703217,-0.010635599493980408,0.00794339831918478,0.06601031124591827,0.06423274427652359,0.05888834223151207,-0.0012598830508068204,0.09645171463489532,-0.007212639320641756,0.029496103525161743,0.04694139584898949,0.023646647110581398,-0.0005301273195073009,0.03158702328801155,0.01793682761490345,-0.05116034299135208,0.025137396529316902,0.03218661621212959,-0.00018769533198792487,0.02818068116903305,-0.03417470306158066,-0.026971273124217987,-0.04589047282934189,0.008204176090657711,0.07037753611803055,0.0162068922072649,-0.07023009657859802,-0.060526907444000244,0.006982675287872553,-0.009522450156509876,-0.006649576593190432,-0.008219005540013313,0.002250845544040203,-0.007085867691785097,-0.011248745955526829,0.06427466869354248,-0.12017587572336197,0.02751149795949459,0.025326449424028397,0.02672412618994713,-0.0034701768308877945,-0.08817071467638016,0.07741577923297882,-0.03867599740624428,-0.052179764956235886,0.04970348998904228,-0.021577931940555573,-0.0052476790733635426,-0.020915890112519264,-0.033848024904727936,-0.00497044762596488,0.004798153415322304,0.06722495704889297,0.07444671541452408,0.040864020586013794,0.056182119995355606,0.16043901443481445,0.05069791525602341,0.049168266355991364,0.04517190158367157,0.002226708922535181,0.03601557016372681,0.1272246241569519,0.05170581117272377,0.10799918323755264,0.08191317319869995,0.07620814442634583,0.017634565010666847,-0.04396112635731697,-0.010853963904082775,-0.041428279131650925,-0.05429596081376076,-0.005871589295566082,-0.015729593113064766,0.00675227353349328,-0.02622370980679989,-0.0015992219559848309,0.006253793369978666,0.005624423734843731,-0.043181587010622025,0.009476623497903347,0.04033677279949188,0.022430419921875,-0.014274226501584053,-0.03971141204237938,-0.0251912958920002,-0.04013499990105629,-0.05334505811333656,-0.01739969663321972,0.03415263444185257,0.06639254838228226,-0.004629409406334162,0.028133222833275795,-0.01069711335003376,-0.008919506333768368,0.0872662141919136,0.07876512408256531,-0.0003928684163838625,0.032529547810554504,0.029894014820456505,0.014131353236734867,0.006101269740611315,0.03450578823685646,-0.019866548478603363,0.031903743743896484,0.07500196248292923,0.0730183869600296,-0.08620419353246689,-0.05536207929253578,-0.08421394973993301,-0.039948802441358566,-0.0411653108894825,-0.025802413001656532,-0.00676152715459466,0.08820759505033493,0.02763993851840496,-0.008585639297962189,0.033611442893743515,-0.020245924592018127,-0.004650114104151726,-0.019478142261505127,-0.04824544116854668,-0.026301411911845207,0.08450189977884293,-0.024097343906760216,0.04745963588356972,-0.011289717629551888,0.03377431631088257,0.03752387315034866,-0.03221386671066284,0.018787961453199387,-0.022218303754925728,-0.1134316697716713,-0.06708493828773499,0.07487064599990845,0.014127807691693306,-0.005989036522805691,-0.031995128840208054,-0.04113388434052467,-0.06961705535650253,-0.0032119033858180046,-0.02298634871840477,0.025486797094345093,0.01140867080539465,0.007216586731374264,-0.049285709857940674,0.0330064557492733,-0.03453964740037918,0.046464428305625916,-0.005879648495465517,-0.0451425276696682,-0.0044917091727256775,0.015224992297589779,0.004094521980732679,0.008037148043513298,0.02222905308008194,0.023650510236620903,-0.05894947424530983,-0.10199516266584396,-0.030428363010287285,-0.020374562591314316,0.050169359892606735,-0.1011226549744606,-0.1350269764661789,-0.01850493624806404,-0.05500893294811249,-0.009613793343305588,-0.023166680708527565,-0.05012090876698494,-0.0323149748146534,0.001315153087489307,-0.03579536825418472,-0.04340357705950737,0.06857477128505707,0.04226631298661232,0.08510120958089828,0.07842162251472473,0.08089713752269745,0.01854068972170353,0.03835852071642876,-0.036895591765642166,0.05635228380560875,
