0.07582531869411469,0.008605306036770344,-0.009543473832309246,0.021574653685092926,0.028976446017622948,-0.06052431836724281,0.013727030716836452,0.008110865950584412,0.01069510355591774,-0.0014680681051686406,0.03302335739135742,0.04291045293211937,-0.03134024143218994,0.014485055580735207,-0.006370066665112972,0.05132367089390755,0.027530038729310036,-0.008263742551207542,-0.012538505718111992,0.018367039039731026,0.04613674432039261,0.021502327173948288,-0.06511338800191879,-0.007186747156083584,0.006122924853116274,0.025239182636141777,-0.028769752010703087,-0.027773939073085785,-0.044052012264728546,0.007736658677458763,-0.05732269585132599,-0.07829154282808304,0.01704825647175312,-0.03363826870918274,-0.0676392987370491,0.02856874279677868,-0.014909136109054089,0.036475036293268204,-0.015846872702240944,-0.00636088103055954,-0.01143746916204691,-0.026533043012022972,-0.004238741006702185,0.005839366931468248,-0.015571159310638905,0.02725951187312603,-0.0879891887307167,-0.08395617455244064,0.009361570701003075,0.04683924466371536,0.025096571072936058,0.019753215834498405,-0.007072526030242443,-0.01067314576357603,-0.05092597007751465,-0.03185632452368736,0.03747840225696564,-0.019151190295815468,-0.029903706163167953,0.015113679692149162,0.011234402656555176,0.07527430355548859,0.02409948781132698,-0.013261165469884872,0.03507884219288826,0.003617422189563513,-0.036531563848257065,0.02790226973593235,0.0909118577837944,-0.003009415464475751,0.014552182517945766,0.022943412885069847,-0.04805268347263336,-0.04084988683462143,-0.011727310717105865,0.016810892149806023,0.019412381574511528,0.06541234999895096,-0.17522794008255005,0.06258170306682587,0.07211533188819885,-0.11458573490381241,-0.011480159126222134,-0.03247634693980217,-0.03634100779891014,0.022151431068778038,0.02545919455587864,-0.011050227098166943,-0.214349165558815,-0.034439295530319214,-0.040104497224092484,0.014809926971793175,0.0040376270189881325,-0.031291890889406204,0.01599694788455963,-0.016840368509292603,0.0071172709576785564,-0.04532274976372719,-0.08513673394918442,0.005572055466473103,0.0024268070701509714,0.02490982972085476,0.06614432483911514,0.035321008414030075,0.11049206554889679,0.04823438823223114,0.006204958539456129,-0.007459644693881273,0.04111044108867645,0.03174429386854172,-0.008298567496240139,-0.010651569813489914,-0.009893874637782574,0.0007122448878362775,0.03117745742201805,0.04616788774728775,0.08936059474945068,0.022058479487895966,-0.005633596796542406,-0.011517828330397606,-0.02746983803808689,-0.041736140847206116,-0.07011929154396057,-0.031206995248794556,0.10117876529693604,0.09586253762245178,0.004982973914593458,0.08101703226566315,-0.01757442206144333,0.07239220291376114,0.03930980712175369,0.04356954246759415,-0.0226480383425951,0.02962191216647625,0.032337434589862823,0.00799912866204977,-0.027909033000469208,-0.042056214064359665,0.059192679822444916,0.036558110266923904,0.005069767590612173,0.024079477414488792,0.004884305875748396,-0.004606260918080807,-0.023428676649928093,0.029404522851109505,-0.0073354169726371765,0.0036459206603467464,0.011518673039972782,-0.03853162005543709,-0.03874952718615532,0.050387732684612274,0.0021971329115331173,-0.0008844879339449108,-0.023003561422228813,0.07610210031270981,-0.05802089720964432,0.03599075227975845,0.010633858852088451,0.0580928772687912,0.006384152453392744,0.08898458629846573,0.004177069291472435,0.020456526428461075,-0.05153948441147804,0.022842492908239365,-0.04607256501913071,0.019158517941832542,-0.009329495951533318,-0.0077196210622787476,0.015962248668074608,-0.030360529199242592,0.027994520962238312,0.0077843694016337395,-0.01629425771534443,0.036109406501054764,0.0009571097907610238,-0.026002267375588417,-0.03660426661372185,0.10736332833766937,-0.01442481018602848,-0.04283257573843002,-0.01363105047494173,-0.00197721179574728,0.006266128271818161,-0.03042534552514553,-0.0236551184207201,0.01885547675192356,0.0016360176960006356,0.007095049601048231,0.0199744813144207,0.0014902787515893579,0.005122750997543335,0.03622282296419144,-0.020788464695215225,0.03535276651382446,0.051416922360658646,0.00032703831675462425,0.029067223891615868,0.05587981641292572,-0.025120990350842476,0.014214015565812588,-0.0008411547751165926,0.01847863756120205,-0.0438346303999424,-0.018838057294487953,0.019579611718654633,0.0826636329293251,0.013691119849681854,-0.04669997841119766,-0.0077483924105763435,-0.012831362895667553,0.006040150299668312,-0.061499617993831635,0.08995796740055084,0.018484974279999733,0.0525994747877121,-0.04123552516102791,0.036864664405584335,-0.04452352970838547,0.008515417575836182,-0.003621594049036503,-0.03719359636306763,-0.07786303758621216,0.04207335785031319,-0.08202119916677475,-0.0440075546503067,-0.0023193680681288242,-0.007823900319635868,0.005331185646355152,0.016177549958229065,-0.0073790038004517555,0.18362957239151,-0.014104473404586315,-0.004473336506634951,-0.010428693145513535,-0.024607142433524132,0.0341341570019722,-0.053052812814712524,-0.050834719091653824,-0.01213712990283966,-0.05016687139868736,-0.016816718503832817,0.017348842695355415,0.036677006632089615,-0.04194066300988197,0.006607598625123501,-0.008781952783465385,-0.01048083882778883,-0.05292677506804466,-0.0465349406003952,-0.040853019803762436,-0.0005162706947885454,0.05352812632918358,0.09140460938215256,0.02970554307103157,-0.03129274398088455,0.07661217451095581,-0.1634412258863449,-0.14132452011108398,-0.009272818453609943,-0.014891105704009533,-0.03843436390161514,0.10037554800510406,0.04773710295557976,5.727948519052006e-05,0.03301414102315903,-0.07097065448760986,-0.06269356608390808,-0.1702282726764679,0.01162969321012497,-0.08819369226694107,-0.030614780262112617,-0.0547945573925972,-0.09491277486085892,0.06967447698116302,0.07620459049940109,-0.014596710912883282,0.008774456568062305,0.00041488438728265464,0.08414378762245178,-0.05395074933767319,-0.1001189798116684,0.0016932036960497499,-0.044036272913217545,0.017444638535380363,-0.05481056869029999,-0.1059795618057251,-0.08589813858270645,0.06707246601581573,-0.0738871842622757,-0.005456232465803623,-0.20287053287029266,-0.13887234032154083,-0.05857537314295769,0.11267322301864624,-0.055426884442567825,0.03314829617738724,0.03367309644818306,-0.079698845744133,0.08206509798765182,-0.16390472650527954,0.07778996974229813,0.06690964847803116,-0.016843125224113464,0.07127205282449722,-0.0021828562021255493,0.10536566376686096,-0.05899856239557266,-0.0030759302899241447,-0.06718850880861282,0.07224281877279282,-0.052134182304143906,-0.03076423704624176,0.010915223509073257,0.03987613320350647,0.025342313572764397,-0.1360509991645813,-0.013951613567769527,-0.14668725430965424,0.0966835469007492,0.014219137839972973,0.00825801957398653,0.003108715172857046,-0.10125089436769485,-0.06142283231019974,-0.003657970344647765,0.06711413711309433,-0.0009252479067072272,-0.045824240893125534,-0.034759167581796646,0.026354487985372543,-0.029328903183341026,0.1068880632519722,-0.006586876232177019,-0.044413238763809204,-0.09384053945541382,-0.04236249625682831,0.06838817894458771,-0.07079971581697464,-0.009692269377410412,-0.01336177159100771,-0.017353270202875137,-0.06262257695198059,-0.04874994978308678,-0.029109081253409386,0.0016222505364567041,-0.035803165286779404,-0.02765251323580742,0.0297483429312706,-0.04454093798995018,0.07900933176279068,-0.03013293258845806,0.0024596096482127905,0.016720572486519814,-0.05082537233829498,-0.05232112109661102,0.02629418671131134,-0.0203027855604887,0.0008829367579892278,0.11294148862361908,-0.028240233659744263,-0.05372531712055206,-0.0014305546646937728,-0.041342999786138535,-0.07159016281366348,-0.02915945090353489,-0.010201002471148968,0.03287430480122566,0.05031485855579376,0.040567100048065186,-0.015383522026240826,0.03290839493274689,0.0004072628798894584,0.0408521443605423,0.0192384272813797,0.018464824184775352,0.0073080104775726795,0.026792267337441444,-0.10396717488765717,-0.02867010422050953,0.0438089445233345,0.03623630851507187,0.019511422142386436,-0.06061505526304245,0.08658973127603531,0.019156882539391518,-0.013640012592077255,-0.02516149915754795,-0.004519897513091564,0.042431704699993134,-0.03545217216014862,0.03875233232975006,-0.03638864681124687,-0.02104661613702774,0.004769171588122845,-0.06665291637182236,0.06025874242186546,-0.008000295609235764,0.02741272933781147,0.04551437497138977,0.033248402178287506,-0.010835475288331509,-0.016904477030038834,0.013805962167680264,-0.00502707390114665,-0.026530714705586433,-0.02248525433242321,0.01362029742449522,-0.06405571848154068,0.04795851930975914,-0.009206344373524189,0.014333640225231647,0.027203964069485664,0.014284057542681694,0.03467407077550888,-0.024327237159013748,-0.0072786686941981316,0.00667197909206152,-0.0009545549983158708,0.017442435026168823,0.05062547326087952,-0.023655682802200317,0.009750054217875004,0.08831784874200821,0.006427907384932041,0.004072613548487425,-0.009165443480014801,0.005062646232545376,0.009860691614449024,0.06381523609161377,0.029474621638655663,0.0037896272260695696,0.026083622127771378,-0.027130993083119392,-0.01098422147333622,-0.022276319563388824,0.0955493226647377,-0.00979806948453188,-0.01757647469639778,0.020924903452396393,0.02559317648410797,-0.011246687732636929,0.02361064963042736,-0.031692203134298325,0.010166827589273453,-0.015074004419147968,0.0019176681526005268,-0.001667067757807672,0.010999937541782856,-0.01097256038337946,0.020966457203030586,-0.02185176871716976,-0.0028553542215377092,0.0840875655412674,0.058896489441394806,0.020437879487872124,-0.024154650047421455,-0.009227829985320568,0.03622123599052429,-0.011160224676132202,0.016502827405929565,-0.04659225046634674,-0.008821390569210052,0.03438590466976166,-0.03979184851050377,-0.0038377679884433746,-0.004911939147859812,-0.0018416113452985883,-0.016227537766098976,-0.0057930233888328075,-0.03230278193950653,0.04140134155750275,-0.03839946910738945,0.013110281899571419,-0.00954817421734333,-0.06275211274623871,0.027264012023806572,-0.017965521663427353,-0.030510548502206802,0.06704380363225937,-0.019162610173225403,-0.029251372441649437,0.0035710500087589025,0.03967908397316933,0.03709947317838669,0.02838071808218956,0.00766069907695055,-0.0032126707956194878,-0.034744344651699066,-0.01868324540555477,0.07565679401159286,-0.014400571584701538,0.03453047201037407,-0.04608358070254326,0.01667000912129879,-0.05942094698548317,0.021872488781809807,-0.0569327287375927,0.007407922297716141,-0.0028898620512336493,0.028709284961223602,-0.006713364738970995,-0.002809411147609353,0.044366758316755295,-0.02456710673868656,-0.00821618176996708,0.030192367732524872,-0.014781457372009754,0.0011095403460785747,-0.17761264741420746,0.04170004650950432,-0.025965871289372444,0.008225904777646065,0.09087885171175003,-0.0571896992623806,0.001835254137404263,-0.016606761142611504,-0.033279914408922195,0.08524523675441742,0.06150512769818306,0.04048708453774452,-0.025755500420928,-0.013382396660745144,0.015786245465278625,-0.03968561068177223,0.04119754582643509,-0.026407873257994652,-0.012552446685731411,0.002177017042413354,0.011574964970350266,-0.11901002377271652,-0.03212505206465721,-0.016043154522776604,0.034421585500240326,0.040845587849617004,-0.026647547259926796,0.0276767797768116,0.05704202502965927,-0.013755773194134235,0.010134930722415447,-0.007271068170666695,-0.027446389198303223,-0.05498914420604706,-0.02113984525203705,0.029116779565811157,-0.036139391362667084,0.030728617683053017,-0.027238065376877785,-0.016204824671149254,0.025231298059225082,-0.0045534162782132626,0.010364691726863384,-0.019280029460787773,-0.0008680848986841738,-0.05856338515877724,-0.02565154805779457,-0.06614010781049728,0.04236862063407898,0.0189537163823843,0.031153036281466484,-0.047728121280670166,0.02537386305630207,-0.057379670441150665,-0.011137216351926327,0.057700660079717636,-0.061649344861507416,-0.017023375257849693,0.03139519318938255,-0.0512721948325634,0.027509596198797226,0.032996006309986115,0.0015206412645056844,0.005360858514904976,0.050723835825920105,0.013995551504194736,
-0.028359360992908478,0.14152342081069946,0.0353325754404068,0.01430177129805088,-0.04574909806251526,-0.022810587659478188,0.05901738628745079,0.006273989100009203,-0.06589560210704803,-0.0058961049653589725,0.014280594885349274,-0.08959805220365524,-0.014734068885445595,0.06517108529806137,0.0005071263876743615,0.034401558339595795,0.0007944632670842111,0.0006473636603914201,0.02941863052546978,0.02806267701089382,-0.032111916691064835,0.01057001668959856,0.09688030928373337,0.03378880023956299,0.0007137067732401192,-0.07666043192148209,-0.015016996301710606,-0.011454060673713684,0.02661752514541149,0.017295563593506813,0.01068808138370514,-0.03509916737675667,0.031073519960045815,0.020610693842172623,0.06878402084112167,0.04316175356507301,0.03771530091762543,0.012250307016074657,0.05859933793544769,-0.05006718635559082,0.026442907750606537,-0.04092112556099892,-0.019983068108558655,0.009107545018196106,0.045803654938936234,0.005375370383262634,0.017020344734191895,-0.007286308333277702,-0.011725680902600288,-0.07411277294158936,-0.04085623845458031,0.011200972832739353,0.033076029270887375,-0.11463196575641632,0.03442870453000069,-0.026409994810819626,0.049339961260557175,-0.005837919190526009,0.07661937922239304,-0.00816649291664362,0.009080739691853523,0.09142225235700607,-0.053139396011829376,-0.018663208931684494,-0.040603287518024445,0.10121624171733856,0.042925674468278885,-0.05200011655688286,-0.008569941855967045,0.04456300288438797,0.012589036487042904,0.018545394763350487,-0.02323254942893982,0.05853046476840973,0.016649063676595688,-0.052379343658685684,-0.00485578877851367,0.0020305097568780184,-0.06963348388671875,0.01623770222067833,-0.02087394706904888,-0.07531147450208664,-0.046752918511629105,-0.03884199261665344,-0.01262412965297699,0.012845483608543873,-0.07229253649711609,0.0016521619400009513,-0.0037127702962607145,-0.06503422558307648,0.004710246808826923,0.03673650324344635,0.04498528316617012,0.0013654581271111965,-0.10965653508901596,-0.01377404946833849,-0.01338273100554943,0.014137271791696548,0.047415297478437424,0.09132310748100281,-0.031585823744535446,0.029933324083685875,-0.02196529135107994,0.021350929513573647,-0.09003132581710815,0.07764896005392075,0.03978631645441055,-0.05357316881418228,0.015531505458056927,-0.10098356753587723,0.06366008520126343,0.010094836354255676,0.02285628765821457,-0.006697546690702438,-0.0447549931704998,0.049617230892181396,0.003394808154553175,0.019919725134968758,-0.02385696955025196,-0.044685572385787964,0.01792534440755844,-0.07508883625268936,0.03800513595342636,-0.016090303659439087,-0.0428224578499794,0.021631384268403053,0.009051508270204067,-0.11994355916976929,-0.018062662333250046,0.1080101877450943,-0.015235348604619503,0.09176968038082123,0.04641621559858322,0.029615918174386024,-0.03377267345786095,0.022799614816904068,-0.05948624387383461,0.02723749727010727,-0.050891194492578506,-0.11153687536716461,0.00976191833615303,0.037743810564279556,-0.02453417144715786,-0.006902783177793026,-0.04792473465204239,-0.021601930260658264,-0.019562259316444397,-0.02841118536889553,-0.059066276997327805,0.004518880508840084,-0.04299214482307434,0.057529889047145844,0.03329931199550629,0.0020964546129107475,-0.027617186307907104,0.03844454512000084,-0.03752028942108154,-0.034021131694316864,0.01838313601911068,-0.05447845533490181,-0.015598910860717297,-0.07178240269422531,0.03662810102105141,0.10479488968849182,0.029816513881087303,0.052267029881477356,0.02142753079533577,0.030912425369024277,0.04527357593178749,-0.05229679122567177,-0.005532261449843645,0.0058430819772183895,0.007517027668654919,0.005704749841243029,-0.015331611968576908,0.02839473821222782,0.008094355463981628,-0.031038938090205193,-0.0009698165231384337,0.056946948170661926,-0.02634718269109726,-0.012378590181469917,0.018808607012033463,-0.0232685636729002,-0.016695979982614517,-0.03676076605916023,0.06646713614463806,-0.006905996706336737,-0.09075380861759186,0.05039718747138977,-0.020096393302083015,-0.04819006472826004,-0.003226430853828788,0.04901153966784477,0.04656703770160675,-0.05552123859524727,0.06347109377384186,0.04934925213456154,-0.004403183702379465,-0.041625309735536575,-0.058494824916124344,0.0268558356910944,-0.033948518335819244,-0.03768322616815567,-0.04992474615573883,0.028204532340168953,-0.009467117488384247,-0.00903427042067051,-0.008169634267687798,-0.09109476953744888,-0.005140501074492931,0.0257305558770895,-0.02080434560775757,0.02854105457663536,0.007207084447145462,0.09145469963550568,-0.00020167118054814637,-0.07437889277935028,-0.026479750871658325,-0.0044282227754592896,0.03184391185641289,-0.05747015401721001,0.03458826243877411,-0.09380047023296356,0.011478394269943237,0.027174295857548714,0.08174717426300049,0.06602921336889267,0.05063968151807785,-0.08024560660123825,-0.050910625606775284,-0.10152949392795563,0.07925648987293243,0.0034755300730466843,-0.02624071203172207,-0.013850630261003971,-0.024866076186299324,0.006367512047290802,0.03576104715466499,0.015023999847471714,0.06127915903925896,-0.06596029549837112,-0.0392552986741066,-0.04646073654294014,0.057336315512657166,0.0061844512820243835,0.013309799134731293,-0.06690879911184311,0.05188097432255745,-0.032208818942308426,0.06574420630931854,0.03673846274614334,-0.003916308283805847,0.06526124477386475,0.03333178535103798,-0.023881785571575165,-0.21181896328926086,0.17710888385772705,-0.043090809136629105,-0.013997666537761688,0.11909516900777817,0.11597619950771332,-0.017514420673251152,0.051488038152456284,-0.08036720007658005,-0.002738537499681115,-0.07912536710500717,0.07892630994319916,0.037405189126729965,-0.08191047608852386,-0.0583508238196373,0.06770686060190201,-0.04761167988181114,0.07974021881818771,-0.0022458629682660103,-0.02890382893383503,-0.03303194418549538,-0.04906543716788292,-0.09258700162172318,0.043478209525346756,0.0007641895208507776,-0.022816352546215057,0.04196537658572197,0.06032719835639,0.002326980698853731,-0.08571965247392654,0.050796713680028915,-0.004655411932617426,-0.05119919031858444,0.0101235406473279,-0.05721113830804825,0.08425315469503403,0.06500384211540222,0.07054571062326431,0.05188598111271858,-0.01665106788277626,-0.03984605148434639,0.16979224979877472,0.12540479004383087,-0.06222086772322655,-0.05901173874735832,-0.030610747635364532,-0.025623390451073647,-0.01637682504951954,-0.06554616242647171,-0.027454709634184837,-0.05638296529650688,0.07663853466510773,0.09973200410604477,0.04479384794831276,0.21177272498607635,-0.08207008242607117,-0.029554011300206184,-0.06778896600008011,-0.09910034388303757,0.09104211628437042,-0.03614693135023117,0.14411863684654236,0.07376915216445923,-0.06870416551828384,0.06005392596125603,0.06775632500648499,-0.12729276716709137,0.015157543122768402,0.010418763384222984,-0.06707671284675598,-0.049587931483983994,0.06947789341211319,-0.04405619576573372,-0.008079838939011097,-0.04388471692800522,0.06590449810028076,-0.019020339474081993,0.02846428193151951,-0.033158496022224426,0.000836163351777941,-0.07357816398143768,-0.01693788915872574,-0.029774924740195274,0.10932813584804535,0.006429949775338173,-0.0005558204720728099,0.10463226586580276,0.09452450275421143,0.004922877997159958,0.004943785257637501,-0.038699451833963394,-0.08220625668764114,0.046007830649614334,-0.04489893838763237,0.0647166520357132,0.004102894105017185,-0.006635639816522598,0.06402565538883209,0.0016775571275502443,0.06071167066693306,0.059542085975408554,0.03752567991614342,-0.02248808927834034,-0.02017858438193798,0.03170425444841385,-0.008595331571996212,-0.10460598766803741,-0.027321549132466316,-0.025469161570072174,-0.033328551799058914,-0.05943795293569565,-0.02756279706954956,-0.01700737327337265,0.013206180185079575,-0.11989039927721024,-0.026655932888388634,0.03393429517745972,0.005952082108706236,-0.017408311367034912,-0.05588512495160103,0.06280111521482468,0.018135743215680122,-0.010932139120995998,-0.017036156728863716,0.06010737270116806,0.029149513691663742,-0.012191028334200382,-0.07620930671691895,-0.031410347670316696,0.04404330253601074,-0.020416205748915672,-0.052141692489385605,0.021306529641151428,0.07541116327047348,0.027297738939523697,-0.08675940334796906,-0.07111535966396332,-0.008660205639898777,-0.0279108714312315,-0.042997464537620544,-0.015857752412557602,-0.04860354959964752,-0.007389487698674202,0.0037043250631541014,0.036512553691864014,-0.05976831912994385,-0.03210996091365814,-0.01188325509428978,-0.002932182280346751,0.007474042940884829,0.0013753409730270505,0.06326162815093994,0.00888049229979515,-0.002707474632188678,-0.037106920033693314,0.0443936251103878,0.055572185665369034,0.052399005740880966,0.00398098723962903,-0.024150777608156204,-0.016128936782479286,-0.028858959674835205,0.00869041308760643,-0.022916074842214584,0.0745946392416954,0.028789598494768143,0.01686931774020195,-0.05595831945538521,-0.012312306091189384,-0.004406065214425325,-0.023347562178969383,-0.012535296380519867,0.055882781744003296,-0.002240988193079829,-0.016005661338567734,-0.011875889264047146,0.05684506520628929,0.008091866970062256,-0.015112797729671001,-0.013590133748948574,0.023531317710876465,-0.09761913120746613,0.06536219269037247,-0.07659097015857697,0.10494031012058258,-0.06853849440813065,0.021032685413956642,0.01642105169594288,0.017940480262041092,0.05569533631205559,-0.009664366953074932,-0.001792724709957838,-0.02365066297352314,0.07654305547475815,-0.03277992457151413,-0.05695158615708351,0.0004038548795506358,0.004696403164416552,-0.04005363956093788,-0.02541813626885414,-0.04705400764942169,-0.024743955582380295,-0.0768500491976738,-0.037826940417289734,-0.03454052656888962,-0.03698410838842392,-0.015562898479402065,-0.013352368958294392,-0.017422083765268326,-0.030371883884072304,-0.016689088195562363,0.019433142617344856,0.010858752764761448,-0.03365175426006317,0.10252896696329117,0.017856134101748466,-0.015973303467035294,-0.013594248332083225,0.02529742754995823,0.0060110678896307945,-0.0008763084188103676,0.02777615375816822,-0.06778264045715332,0.0628955289721489,-0.030219292268157005,0.11073420196771622,-0.09013522416353226,0.0064229597337543964,0.07247503846883774,-0.022284600883722305,-0.04359937831759453,-0.021250298246741295,-0.07376619428396225,0.02202966809272766,0.014844883233308792,-0.07494206726551056,0.07241462171077728,-0.03777670860290527,-0.09100578725337982,0.004363286774605513,0.032054927200078964,-0.017077894881367683,-0.05452890321612358,0.04676574841141701,-0.07684888690710068,0.09124094992876053,0.028202379122376442,-0.05746108666062355,0.01716049388051033,-0.06116754934191704,0.05426592379808426,0.057035692036151886,-0.026024477556347847,-0.00696502486243844,0.02442679926753044,-0.1178012564778328,-0.013588194735348225,0.07241200655698776,0.004087192006409168,-0.02751249261200428,0.018563654273748398,0.009399322792887688,0.052129726856946945,0.0019354387186467648,0.0022691008634865284,0.010106664150953293,-0.045960038900375366,-0.0286225825548172,0.07978521287441254,0.015763744711875916,0.023861544206738472,0.004164968151599169,0.04426673799753189,0.020974373444914818,0.034803926944732666,0.011439050547778606,0.00521420082077384,-0.003876384813338518,-0.017838390544056892,0.05207143351435661,0.033408164978027344,-0.018579859286546707,-0.05352500081062317,-0.014530873857438564,0.026467807590961456,0.0421137660741806,0.005614326801151037,-0.005263798404484987,0.03522036224603653,-0.01731906458735466,-0.04237004742026329,-0.020231876522302628,0.016097990795969963,-0.01642215996980667,0.0009018973214551806,0.01744423247873783,-0.086659274995327,-0.038320425897836685,-0.01788558065891266,-0.027931252494454384,-0.07861912995576859,0.09010418504476547,-0.029327115043997765,-0.004470350686460733,-0.009858713485300541,-0.06164395064115524,0.04004529491066933,-0.00047038300544954836,0.010374912060797215,0.00669036153703928,0.035477977246046066,-0.012405584566295147,-0.08641829341650009,-0.042429182678461075,0.04706506431102753,0.1002986878156662,-0.0920848622918129,0.04132718965411186,0.03538384288549423,-0.017426878213882446,
0.03646601736545563,0.02273000404238701,0.012014830484986305,-0.07663217931985855,0.07655566185712814,0.01624498888850212,-0.022771256044507027,0.005344287492334843,0.00923551619052887,0.021880008280277252,-0.0280701145529747,0.020744075998663902,0.07807845622301102,-0.003286550287157297,-0.02094641700387001,0.06525839120149612,0.05813363939523697,-0.017113691195845604,-0.004460019059479237,-0.0013216693187132478,0.032413359731435776,0.0298005361109972,0.011144413612782955,0.05820154771208763,-0.06431185454130173,0.017100142315030098,0.01888996921479702,0.017850415781140327,0.01118101179599762,0.0007282466976903379,-0.009710165672004223,0.008998594246804714,-0.009022247046232224,-0.0276342686265707,-0.08557187765836716,0.03549974784255028,-0.05801154673099518,-0.045603081583976746,-0.04616532847285271,0.003060265677049756,-0.03032701462507248,-0.08277970552444458,0.03026420995593071,0.04568741098046303,0.01700294390320778,0.008587331511080265,0.09246067702770233,-0.010842349380254745,-0.02776864729821682,-0.017252327874302864,-0.0068090432323515415,-0.01910129375755787,0.04220029339194298,0.05138126015663147,-0.016855746507644653,0.04279215633869171,0.01681515946984291,-0.004395606927573681,0.022480085492134094,0.0286160446703434,-0.038913942873477936,-0.021681318059563637,0.012546502985060215,-0.044366758316755295,0.03632320463657379,-0.0532618947327137,0.04816671460866928,0.019361786544322968,0.09920249879360199,0.02816193923354149,0.016581235453486443,-0.014181455597281456,0.002040068618953228,-0.025404805317521095,0.03215303644537926,-0.022688260301947594,0.03728653863072395,-0.006861679255962372,-0.035449858754873276,-0.05186678469181061,0.06437312811613083,-0.11121650040149689,-0.006809941492974758,0.03054267168045044,0.06703772395849228,-0.011547687463462353,0.0005708240205422044,-0.10018562525510788,-0.074681356549263,-0.06700755655765533,0.030268149450421333,0.04181956499814987,-0.03968460112810135,-0.013971824198961258,-0.030998701229691505,0.053713105618953705,-0.04024462774395943,-0.001091107726097107,-0.00025034131249412894,0.05053197965025902,-0.07043838500976562,0.07338465750217438,-0.08628527075052261,0.013721982017159462,-0.07153656333684921,0.005588056985288858,-0.007477169390767813,0.03321016952395439,0.02977224625647068,-0.007897766306996346,0.00492069823667407,0.043036237359046936,-0.0253196582198143,-0.04697360843420029,0.01366021204739809,0.06847163289785385,0.01969955489039421,-0.005677457433193922,0.04383694753050804,-0.044135816395282745,0.051596179604530334,-0.03175748884677887,-0.006881258450448513,0.018163541331887245,-0.03919002786278725,-0.03099401667714119,0.0773557722568512,0.04499935358762741,0.046296559274196625,-0.00789524894207716,0.0052969749085605145,-0.009385921992361546,0.0664508268237114,0.04100784286856651,-0.01949351280927658,-0.014525402337312698,0.032593198120594025,0.0011431528255343437,0.024519484490156174,0.002821739297360182,-0.03070937469601631,0.01584680750966072,0.06722187995910645,-0.0029601636342704296,0.016707956790924072,0.036239348351955414,0.05503906309604645,-0.010060301050543785,-0.022865496575832367,-0.048181090503931046,0.14345358312129974,-0.06067945435643196,0.012884555384516716,-0.019855612888932228,0.0020085619762539864,0.09060472249984741,-0.032811716198921204,-0.0023583804722875357,-0.056173618882894516,0.13206030428409576,-0.0035228473134338856,0.06644760817289352,-0.046888984739780426,0.00024921318981796503,-0.024407856166362762,-0.03303113952279091,0.0024352509062737226,0.01834152452647686,-0.07113657146692276,0.004533848259598017,0.02419312484562397,0.0060958717949688435,0.0010807886719703674,-0.016625531017780304,-0.0025744400918483734,0.059117916971445084,0.005807721987366676,0.020089689642190933,0.02643464505672455,0.08514437824487686,-0.012549595907330513,-0.002243464346975088,0.007768813520669937,-0.030588876456022263,0.03308188170194626,-0.06277105212211609,0.02653065323829651,-0.016279827803373337,-0.010086880065500736,-0.00554275419563055,0.03186624124646187,-0.04474957287311554,0.05802939832210541,0.0039781308732926846,-0.02778630144894123,0.02180655300617218,-0.019599219784140587,-0.03532305732369423,0.00042894165380857885,-0.06003540754318237,-0.027931315824389458,0.010871361009776592,-0.08757054805755615,-0.05932047218084335,0.015363948419690132,-0.0814378634095192,0.0734805092215538,-0.021019835025072098,0.027433089911937714,0.011540575884282589,-0.026268640533089638,-0.02809787727892399,-0.025293169543147087,0.05067763477563858,-0.09154485911130905,-0.04463508352637291,0.029748408123850822,-0.028623804450035095,-0.009550281800329685,-0.012036211788654327,-0.018600739538669586,0.032714586704969406,-0.031618766486644745,0.009692223742604256,-0.025161627680063248,0.06210201606154442,-0.09500545263290405,-0.013950079679489136,-0.08913791179656982,-0.05611761659383774,0.01687162183225155,0.018070127815008163,-0.05560570955276489,0.014751152135431767,-0.02479935623705387,-0.03771604970097542,-0.012020226567983627,-0.044928714632987976,0.043636538088321686,0.0506114587187767,-0.0040445756167173386,-0.09293060749769211,-0.008813545107841492,-0.023692026734352112,0.00963908527046442,-0.01794183999300003,0.019773751497268677,-0.05040344223380089,0.008858147077262402,0.0045502036809921265,-0.009182913228869438,0.0034884391352534294,-0.03472784534096718,0.011300738900899887,-0.024452591314911842,-0.03024962916970253,0.015477471053600311,-0.010637165047228336,0.007993641309440136,0.03518182039260864,0.06219148263335228,-0.018845094367861748,-0.026101289317011833,0.03459476679563522,0.0045727756805717945,0.041611604392528534,0.03563576191663742,0.0037605254910886288,-0.00968476664274931,-0.0036929124034941196,-0.07034764438867569,-0.02697797864675522,-0.022566167637705803,-0.022884497418999672,-0.07132735848426819,-0.01983634941279888,-0.04389962553977966,-0.11131109297275543,-0.04989887773990631,-0.03316715359687805,-0.05956539139151573,0.023790879175066948,-0.06146978214383125,0.06889019906520844,0.01126939244568348,-0.03844565525650978,-0.04336162284016609,-0.013794339261949062,-0.04537031799554825,0.1081552505493164,-0.05544949695467949,-0.024018095806241035,-0.062405090779066086,-0.053212590515613556,0.057252008467912674,0.044994063675403595,-0.026012830436229706,0.03063862770795822,0.05607321485877037,-0.005130021367222071,-0.00608866335824132,0.04140545055270195,0.016497358679771423,0.01609690859913826,-0.12542778253555298,-0.051710184663534164,0.060328152030706406,0.02637380361557007,-0.11785264313220978,-0.0051631079986691475,0.012990346178412437,0.016283420845866203,0.008147400803864002,-0.16179542243480682,0.021315282210707664,0.05829586833715439,-0.0003340482944622636,-0.03781133517622948,0.0063136848621070385,-0.042143967002630234,-0.003423343412578106,0.04250197485089302,0.05398992449045181,-0.0044570378959178925,-0.0161509420722723,-0.03551442548632622,0.013558639213442802,-0.044107239693403244,-0.03421345725655556,-0.008023448288440704,0.05552034452557564,-0.013027249835431576,-0.01797989197075367,0.09746421128511429,0.03932216763496399,-0.04166398569941521,-0.036093201488256454,0.04196853190660477,-0.011466884054243565,0.02829813025891781,-0.05949496105313301,-0.06245733052492142,-0.0932060033082962,0.020294690504670143,0.04967844486236572,0.02203109674155712,0.0929887518286705,-0.11111046373844147,-0.05844590440392494,0.018238935619592667,-0.06311718374490738,-0.013522629626095295,-0.010561672039330006,-0.007935870438814163,0.043680671602487564,-0.06769824773073196,-0.04815874993801117,0.05777831748127937,0.008418620564043522,-0.0062131029553711414,0.06495063751935959,0.0008990054484456778,-0.054337140172719955,-0.047262199223041534,0.029284631833434105,-0.023896634578704834,0.025783801451325417,0.012405377812683582,-0.011213630437850952,-0.06388374418020248,-0.009871367365121841,-0.03378622233867645,0.033866193145513535,0.0261917132884264,0.010996872559189796,-0.02559833601117134,0.013893984258174896,-0.03167220205068588,-0.03310307487845421,-0.003423945978283882,0.01642684079706669,0.033896394073963165,-0.005031140521168709,0.01784830540418625,-5.7100354752037674e-05,0.011009581387043,0.011135060340166092,0.023455893620848656,0.0007895860471762717,0.008357553742825985,-0.041478995233774185,0.0742439404129982,-0.01378951407968998,0.0683918446302414,-0.008924298919737339,0.002135487738996744,-0.021245727315545082,-0.005574644077569246,0.004557734355330467,-0.0031503827776759863,0.03550731763243675,-0.0010615931823849678,-0.01930089294910431,-0.025721099227666855,-0.08270465582609177,0.06079579144716263,0.033443644642829895,-0.014476281590759754,0.018778568133711815,0.04336319491267204,0.07939402759075165,0.013076823204755783,-0.02831890434026718,-0.02683342434465885,0.0086673554033041,0.012172737158834934,-0.06629156321287155,0.03747168928384781,-0.07767321914434433,0.026144716888666153,-0.05826941132545471,-0.026975251734256744,0.05018264055252075,0.02437983825802803,-0.07394618541002274,0.027177272364497185,0.006108460947871208,-0.033391956239938736,-0.003565439721569419,-0.042558953166007996,-0.051468122750520706,0.037420403212308884,-0.0037063981872051954,-0.015209576115012169,0.05465061962604523,0.009135180152952671,0.015754418447613716,0.03142918646335602,0.0789089947938919,-0.04470118507742882,0.04554757848381996,0.026929693296551704,-0.04832415655255318,0.046488407999277115,0.035410553216934204,0.07824737578630447,0.003051214152947068,-0.028384819626808167,-0.04996773228049278,-0.03402664139866829,0.041073061525821686,0.029777655377984047,0.053037405014038086,0.03904522955417633,0.01958681084215641,0.04133123531937599,-0.0005111493519507349,0.0035469939466565847,0.015168590471148491,0.0331832654774189,0.020118962973356247,-0.01000912394374609,-0.019249681383371353,0.04294942691922188,-0.07882817834615707,-0.018461033701896667,0.020380213856697083,-0.022149808704853058,-0.062665194272995,-0.05856947973370552,0.030521098524332047,0.04088759422302246,-0.03049851395189762,-0.013005543500185013,0.08128036558628082,-0.04154597967863083,0.006952173542231321,-0.043443694710731506,-0.03821727633476257,0.09946387261152267,0.03094477392733097,0.059724655002355576,-0.038254961371421814,0.0002265926159452647,-0.11022113263607025,-0.029264338314533234,-0.02702624909579754,0.018990950658917427,-0.1352156698703766,0.04362153261899948,0.004144242499023676,-0.03536585345864296,-0.04868612438440323,-0.03241463005542755,0.08559731394052505,0.005404478870332241,0.03364447131752968,-0.03155974671244621,0.025002604350447655,-0.029974663630127907,0.06943788379430771,-0.10787200182676315,0.03110593557357788,-0.05105080083012581,-0.01993381977081299,-0.04181521013379097,0.006328864488750696,0.0358918234705925,-0.023089293390512466,-0.0405542254447937,0.017776498571038246,0.07505598664283752,-0.01802707277238369,0.027212364599108696,0.021360017359256744,-0.008236910216510296,-0.009629663079977036,-0.02762458473443985,-0.00253018899820745,0.033236850053071976,0.02206282876431942,-0.02434580773115158,0.026399271562695503,-0.0018905310425907373,-0.0035016117617487907,0.0237234216183424,0.06402970105409622,-0.021711349487304688,-0.018874460831284523,0.006433957722038031,-0.0008089067996479571,-0.0390813946723938,-0.005299588665366173,0.003999458160251379,0.007585409563034773,-0.020178843289613724,0.022087402641773224,0.03526415303349495,0.014752413146197796,-0.06381627172231674,0.02147608809173107,-0.04252108186483383,-0.0017497577937319875,-0.0019315410172566772,0.0023334980942308903,0.01928422413766384,0.008718074299395084,0.02263494022190571,-0.027469828724861145,-0.01624075137078762,0.010588647797703743,-0.008816528134047985,0.07292305678129196,0.01835172064602375,0.007303471211344004,-0.043194983154535294,0.0014393118908628821,-0.02663702517747879,-0.03542362153530121,0.021591607481241226,0.006192365661263466,0.03616799786686897,0.048264093697071075,-0.045668572187423706,0.001005710568279028,0.018346566706895828,0.016649972647428513,-0.0040800729766488075,0.01662464812397957,0.017420830205082893,-0.056715331971645355,-0.02202746644616127,0.004452893044799566,0.015418099239468575,0.06554722040891647,-0.019614020362496376,
-0.024032821878790855,-0.05629120022058487,0.01944103091955185,0.021343274042010307,0.13836927711963654,0.01910598762333393,0.08058351278305054,0.011074892245233059,0.018531696870923042,-0.023663770407438278,0.01603826694190502,-0.016178272664546967,-0.015847409144043922,0.03784084692597389,0.03662978112697601,0.01230790838599205,0.014606870710849762,0.053380437195301056,0.044513579457998276,0.03717124089598656,-0.04445347934961319,0.1097443625330925,-0.07516804337501526,0.007480246014893055,0.04407953470945358,0.04587572067975998,0.017807694151997566,-0.03935101255774498,-0.0008892951300367713,-0.05635593831539154,0.021796079352498055,-0.008135379292070866,0.027219314128160477,0.06534040719270706,0.013841423206031322,-0.014642682857811451,-0.003226446220651269,0.011119225062429905,0.03709876909852028,0.0426778607070446,0.03624379262328148,-0.023420827463269234,0.0038371426053345203,0.010316778905689716,0.007247525732964277,-0.026286909356713295,-0.04046352952718735,-0.05801982432603836,-0.008393295109272003,-0.03521151840686798,0.07403866946697235,-0.0023481445387005806,-0.033626627177000046,-0.05291585996747017,-0.006590006407350302,-0.00484982505440712,0.008029881864786148,-0.040201738476753235,0.009937840513885021,-0.044608719646930695,-0.0019261770648881793,-0.016897782683372498,0.031805023550987244,-0.026852620765566826,-0.0642976313829422,-0.0390903577208519,0.04009319841861725,-0.05022762715816498,0.008054995909333229,0.039554718881845474,-0.006319598760455847,-0.06523081660270691,-0.05526616796851158,-0.03832140192389488,0.03238699585199356,-0.028053969144821167,0.013248750008642673,0.02711401879787445,-0.015420342795550823,-0.049743086099624634,0.05125419422984123,0.022252149879932404,-0.02988901548087597,0.03878011181950569,0.0765206590294838,0.02289034239947796,0.05803412199020386,-0.0029168177861720324,-0.052460625767707825,0.04633520543575287,-0.007791807409375906,0.022804848849773407,0.08242034167051315,-0.08111642301082611,-0.04754920303821564,0.017224984243512154,-0.05611368268728256,0.1296236664056778,0.023620188236236572,0.025999577715992928,0.06710745394229889,-0.016449449583888054,0.0026677229907363653,-5.116559623274952e-05,-0.02234853245317936,0.10076116025447845,0.08042831718921661,0.10835133492946625,0.031033415347337723,0.010822856798768044,0.12100012600421906,-0.009214860387146473,0.01070049125701189,-0.0024503269232809544,0.03718633949756622,0.07213626056909561,-0.05927557498216629,-0.03360480070114136,-0.005147466901689768,0.014009570702910423,0.014989756979048252,-0.0048752836883068085,-0.0683642104268074,-0.043271504342556,-0.040921974927186966,0.02502969279885292,0.041610151529312134,0.004998466465622187,0.0008658139267936349,0.011110348626971245,0.011694387532770634,0.009008943103253841,-0.030897077172994614,-0.06342904269695282,0.02637544274330139,-0.024463189765810966,-0.014876286499202251,0.022509826347231865,-0.003129450837150216,0.049498844891786575,0.038205310702323914,0.08257234841585159,0.04951104149222374,0.05712198466062546,-0.010292860679328442,0.029208187013864517,0.025822363793849945,0.023574819788336754,-0.01830054633319378,0.00854631420224905,-0.03832726553082466,-0.0027503434102982283,-0.03268570452928543,-0.029245661571621895,0.018479757010936737,-0.03714516758918762,-0.04091783985495567,0.038175590336322784,0.035372793674468994,0.07060208171606064,0.037295859307050705,0.18168289959430695,0.023965368047356606,0.10993342846632004,-0.03339231386780739,0.02393416129052639,0.011736594140529633,-0.007236335892230272,-0.02915738709270954,-0.019083384424448013,0.00183474353980273,0.07187353074550629,-0.02371690236032009,0.03401203453540802,-0.00979862455278635,-0.00929934624582529,-0.08600901812314987,0.008691917173564434,0.12310335785150528,-0.07399328798055649,-0.03214461728930473,0.014944027177989483,0.021977927535772324,-0.0019357525743544102,0.019573727622628212,-0.009738527238368988,-0.04421786963939667,-0.05588548630475998,-0.1051253005862236,0.0691181868314743,-0.0015963214682415128,-0.005598992574959993,-0.020887184888124466,-0.009325996972620487,0.03937860205769539,-0.027126293629407883,0.053238362073898315,0.007206873502582312,0.08551657199859619,0.09419769793748856,-0.053124651312828064,-0.0497748889029026,-0.08191829174757004,-0.03926386684179306,-0.01305969338864088,-0.013019736856222153,0.08782318234443665,-0.03557165339589119,0.04519638046622276,0.07289910316467285,0.04234134778380394,-0.0010046105599030852,-0.004546671640127897,0.07504980266094208,-0.0039069089107215405,-0.056280121207237244,0.02514730952680111,0.012061215937137604,0.0220628771930933,0.004549175500869751,-0.04132796451449394,-0.025854645296931267,0.05401236191391945,-0.023090297356247902,0.05068565532565117,0.0583343431353569,-0.008929917588829994,0.05352025479078293,0.029196253046393394,0.043628059327602386,-0.012929336167871952,-0.014074202626943588,0.13446520268917084,0.09972141683101654,0.0813184455037117,0.03850572556257248,0.009297728538513184,0.03178330883383751,-0.006796437315642834,0.0069792550057172775,-0.033060695976018906,-0.052602171897888184,0.03533856198191643,-0.05549314618110657,-0.01485817413777113,-0.13664773106575012,-0.03860025852918625,0.056910499930381775,0.08462734520435333,0.005705645773559809,-0.004147924017161131,-0.03971113637089729,-0.019975684583187103,-0.0032562962733209133,-0.024448277428746223,-0.031373701989650726,0.00950944796204567,0.046181026846170425,-0.008165257051587105,-0.10033480823040009,0.018795378506183624,0.08674788475036621,0.07443252950906754,0.026656797155737877,0.01968991942703724,0.023553570732474327,0.13037018477916718,0.07236365228891373,0.13234402239322662,-0.00038115892675705254,0.07807619869709015,0.07466062903404236,0.020620983093976974,0.11935911327600479,0.04145106300711632,0.01052597165107727,-0.022041214630007744,-0.06317441910505295,0.011477072723209858,-0.05782310292124748,0.0726206824183464,0.02279033325612545,0.08420517295598984,0.0036554771941155195,-0.09740306437015533,0.022451126947999,0.02858496829867363,0.08365113288164139,-0.07740981131792068,-0.013160744681954384,0.08487150073051453,0.036004237830638885,0.019447743892669678,-0.017028724774718285,0.005321498028934002,-0.02309766225516796,0.04556681588292122,0.04175759479403496,0.11053390055894852,0.08783803135156631,-0.03807831555604935,-0.013042923994362354,-0.009981521405279636,0.06299469619989395,0.0010712984949350357,-0.06342537701129913,0.11765348166227341,0.07254049926996231,0.1156458780169487,0.07690411806106567,0.1085842028260231,-0.03364679962396622,-0.009038013406097889,-0.01779625006020069,0.021181462332606316,0.011857842095196247,0.05582236871123314,-0.011895505711436272,-0.008860387839376926,0.06985785812139511,-0.020289931446313858,0.020825255662202835,0.07657953351736069,-0.014863497577607632,-0.04785185679793358,0.05251071974635124,-0.03350239619612694,0.04251804202795029,-0.024975916370749474,0.04561999812722206,0.004910911433398724,0.06640974432229996,0.06520086526870728,0.05134556442499161,-0.011304203420877457,0.014709659852087498,-0.0074666752479970455,0.011154182255268097,0.0054527330212295055,-0.10375060886144638,0.10796932876110077,-0.004117436707019806,0.09647992998361588,-0.021821273490786552,-0.001618922338820994,-0.02569696120917797,0.02587028592824936,-0.03537542745471001,-0.12228115648031235,-0.07542836666107178,0.009711583144962788,-0.06101428344845772,-0.038758259266614914,-0.043333981186151505,-0.05014067143201828,0.19958727061748505,0.06061239540576935,-0.02222953923046589,-0.03179587051272392,0.030429115518927574,0.028904961422085762,0.05242271348834038,0.05288323760032654,0.07105553895235062,0.16495011746883392,-0.0501757450401783,0.04508166387677193,-0.06555981189012527,0.023060690611600876,-0.02324957773089409,0.19046461582183838,0.0674242451786995,-0.012302432209253311,0.09930986166000366,-0.02656427025794983,0.04825526103377342,-0.0155878821387887,-0.032633885741233826,-0.04064904898405075,-0.05227132886648178,0.13243108987808228,0.0496368333697319,0.049588900059461594,-0.048886142671108246,-0.01940111815929413,-0.0009001962025649846,0.012193959206342697,-0.03718535974621773,0.0283914003521204,-0.03402823954820633,0.055178508162498474,-0.031695395708084106,-0.0627535879611969,-0.008187046274542809,0.02310551330447197,0.033793285489082336,-0.01877634972333908,-0.016368035227060318,0.015573297627270222,0.036177217960357666,0.08325614780187607,0.02767869085073471,0.04034955054521561,0.01974153332412243,-0.016311299055814743,0.04802386462688446,-0.06352587044239044,0.008826034143567085,0.025780418887734413,0.01776173710823059,-0.06900949031114578,0.027463559061288834,-0.0022622612304985523,0.018795516341924667,-0.03633332997560501,-0.07540629804134369,0.03913157805800438,-0.008747083134949207,0.16961826384067535,0.012833232060074806,0.05697108805179596,-0.021327374503016472,0.05702486261725426,0.0010803354671224952,0.006108351517468691,0.08488413691520691,0.035778988152742386,0.0759303942322731,-0.004106953740119934,-0.03778759762644768,-0.0633135586977005,0.0005450165481306612,-0.03692694753408432,0.043304137885570526,0.026872647926211357,0.03815450519323349,-0.007510232739150524,-0.0674167275428772,-0.02900407649576664,0.054119206964969635,-0.010597437620162964,0.05474697798490524,-0.007189066149294376,0.0005982241127640009,0.02144012413918972,-0.022478794679045677,0.013902600854635239,-0.012708507478237152,-0.02770569548010826,-0.0045754918828606606,-0.009189094416797161,0.03434490039944649,-0.021570991724729538,0.038699910044670105,-0.0209899190813303,-0.12816552817821503,-0.02659323252737522,0.06324490904808044,0.05815612152218819,-0.05319657176733017,-0.006982064340263605,0.010823063552379608,0.02058764174580574,-0.04077097028493881,0.033436644822359085,0.05700388550758362,0.06922486424446106,0.06313396245241165,0.04210492596030235,-0.012552138417959213,0.022141873836517334,-0.009349886327981949,-0.026454275473952293,0.0075371358543634415,-0.00723267113789916,0.02395448461174965,-0.036997705698013306,0.013069403357803822,0.003087888937443495,0.14350613951683044,0.06896214187145233,0.10204214602708817,0.04146919772028923,-0.032590996474027634,0.0847712978720665,0.033896464854478836,-0.05225753039121628,0.03828747943043709,0.016753865405917168,0.04768434166908264,-0.010333503596484661,0.11906550824642181,0.01855243183672428,0.04790915548801422,-0.0051909335888922215,-0.001126092509366572,-0.005560215562582016,-0.005658350884914398,0.10090500861406326,0.033130064606666565,0.019217513501644135,0.12169112265110016,-0.018482312560081482,0.061899226158857346,-0.010486082173883915,-0.011844528838992119,0.0595930777490139,0.007715687621384859,-0.013472097925841808,-0.02333468198776245,-0.0012691480806097388,0.02304159477353096,0.036012500524520874,-0.006207803264260292,-0.07388252764940262,-0.059225283563137054,0.0006524650380015373,-0.030847694724798203,0.007062770891934633,-0.03633994981646538,0.05962608382105827,-0.03155161067843437,-0.05278978869318962,0.039983104914426804,-0.047799572348594666,0.021240051835775375,-0.0009182680514641106,-0.05517210066318512,-0.013998530805110931,-0.0754990503191948,-0.00505305640399456,0.05749833211302757,-0.01779700629413128,-0.013265754096210003,-0.024473901838064194,0.0440291091799736,-0.03457149118185043,0.015606367960572243,0.05427871271967888,0.04045329988002777,-0.06126179173588753,-0.02326025813817978,0.05381908267736435,-0.03095303289592266,-0.010681395418941975,0.04766087979078293,0.07652317732572556,-0.007240661419928074,0.07504312694072723,-0.08492676168680191,0.042738087475299835,0.037286803126335144,-0.07500801235437393,0.006584445480257273,0.00788353756070137,0.08569695800542831,0.033494845032691956,-0.03970253840088844,0.06169819086790085,0.00580349238589406,-0.017266159877181053,-0.016106516122817993,0.04383750632405281,0.014705338515341282,-0.12402990460395813,0.14654642343521118,-0.04012492671608925,-0.0060805692337453365,0.03882507234811783,0.030819633975625038,-0.025323685258626938,-0.01438989955931902,-0.04287361353635788,-0.014908059500157833,-0.01262054406106472,-0.06848018616437912,
-0.014826519414782524,0.030999524518847466,-0.02066788263618946,0.04250987246632576,-0.02209945023059845,-0.020429497584700584,-0.023174619302153587,-0.00030241187778301537,-0.008715729229152203,0.022776389494538307,0.047273144125938416,-0.033859048038721085,-0.04488253593444824,0.026212293654680252,-0.023724855855107307,-0.03591364249587059,-0.043737877160310745,-0.019415324553847313,0.004160942044109106,-0.007092727348208427,0.015523619018495083,-0.03015688620507717,-0.00564767187461257,0.03441241383552551,-0.035157252103090286,-0.004434121772646904,0.028043895959854126,-0.016871759667992592,-0.01111810002475977,0.015287281945347786,-0.01875004917383194,0.036694224923849106,-0.00026900871307589114,0.020968666300177574,0.036134522408246994,0.01374286413192749,0.03444187715649605,-0.043301187455654144,0.010732300579547882,-0.016903536394238472,-0.04577979817986488,-0.04471947252750397,0.03794027492403984,-0.0005850457237102091,0.017771737650036812,0.031165674328804016,-0.007190843112766743,0.017171453684568405,-0.016802100464701653,-0.008666555397212505,-0.04071315750479698,0.005853768903762102,0.02840334363281727,-0.08547385782003403,0.03238716349005699,0.03525848686695099,-0.08251825720071793,0.014286015182733536,0.06065851449966431,0.029910122975707054,0.053334999829530716,-0.07317744940519333,-0.0052880640141665936,0.01691509783267975,-0.09288466721773148,-0.0156901516020298,-0.0473988838493824,-0.026758678257465363,-0.012413062155246735,-0.01653190702199936,0.002313593402504921,0.011688845232129097,-0.020391864702105522,-0.026344366371631622,0.06346933543682098,0.048021044582128525,0.005227020941674709,0.09616462886333466,-0.08522746711969376,0.052616678178310394,-0.022514183074235916,-0.058494020253419876,0.032797642052173615,0.024622062221169472,-0.02540736086666584,0.021812865510582924,-0.0023133496288210154,-0.0681815817952156,-0.05578198656439781,0.022432221099734306,0.01403789035975933,0.026938561350107193,0.023224808275699615,0.015163728035986423,-0.12349074333906174,0.036551717668771744,-0.025863150134682655,-0.0061008683405816555,-0.047782283276319504,-0.027767563238739967,-0.01494521088898182,0.049605175852775574,0.035741519182920456,-0.010310167446732521,0.08850652724504471,0.01779051497578621,0.03418249264359474,-0.008333583362400532,-0.02008204162120819,-0.00950080156326294,0.02881341055035591,0.022581569850444794,-0.018113555386662483,-0.011641154065728188,-0.10106271505355835,-0.0324031338095665,0.02003290131688118,-0.020654357969760895,0.05674629285931587,0.009707219898700714,-0.06440688669681549,0.017907610163092613,-0.012677264399826527,-0.019971538335084915,-0.017985982820391655,0.00323758227750659,0.005431004799902439,-0.03396303206682205,-0.011688153259456158,-0.028506089001893997,0.02817406877875328,-0.0331089049577713,0.021932154893875122,-0.017125068232417107,0.015982622280716896,-0.02909865416586399,-0.045138269662857056,-0.02615622989833355,0.05298866704106331,0.04574660584330559,-0.004396665841341019,-0.019659552723169327,0.007667548023164272,0.0072089508175849915,0.03997357189655304,-0.0003598313487600535,0.004615962039679289,0.0009649269632063806,0.05582483857870102,-0.013438673689961433,-0.056572072207927704,0.05127633735537529,0.007999558933079243,-0.007869276218116283,0.05242820084095001,0.0016584224067628384,0.02114909701049328,-0.039256107062101364,0.017856556922197342,0.037404656410217285,-0.00270849815569818,-0.07006356120109558,0.02998211421072483,0.022175464779138565,0.021657977253198624,0.044166747480630875,0.019977785646915436,0.06021006032824516,-0.03103182092308998,0.037199124693870544,0.03156554698944092,0.029011240229010582,0.029196815565228462,0.003808989655226469,0.02898256480693817,0.02360564097762108,0.016088858246803284,-0.02636079117655754,-0.11490567028522491,-0.03758649900555611,0.01611328125,0.01811772957444191,0.0174417681992054,0.03778493031859398,-0.014734797179698944,0.02300514094531536,0.02591901272535324,-0.0004767383506987244,-0.02342384122312069,-0.010141544975340366,-0.022150440141558647,0.003760320134460926,0.009940818883478642,0.09996761381626129,-0.06014121323823929,-0.055488377809524536,-0.00937766395509243,0.0026379895862191916,0.03794035688042641,0.05020404979586601,0.007954842410981655,0.02140277624130249,0.006586912088096142,-0.041542503982782364,-0.01269705593585968,0.027021797373890877,0.025922536849975586,0.01705479994416237,0.004655298311263323,0.02742893248796463,-0.011037574149668217,0.05730200186371803,0.045822545886039734,0.05191748961806297,0.02152797020971775,0.07628101110458374,0.012963680550456047,-0.04314642399549484,-0.07567347586154938,0.015415004454553127,0.009640521369874477,-0.024489881470799446,0.029849855229258537,0.054062679409980774,0.0055679017677903175,0.022626636549830437,-0.05596205219626427,-0.011292599141597748,0.012608123011887074,0.027639372274279594,-0.026069797575473785,-0.014330731704831123,0.05478958413004875,-0.09789153188467026,-0.07999570667743683,0.04417412355542183,-0.04813282936811447,-0.026380550116300583,0.022946983575820923,-0.07441455870866776,-0.04470934346318245,0.0007189851603470743,-0.06643293797969818,0.0344257727265358,0.0358101911842823,-0.031939998269081116,0.046473320573568344,-0.009413040243089199,0.12691430747509003,0.06767208129167557,-0.010341309010982513,0.03233477845788002,-0.009704286232590675,0.05655921623110771,0.042081668972969055,0.008038152940571308,0.001296282047405839,0.017123809084296227,0.03514189273118973,-0.025904105976223946,0.04470575600862503,0.0890747681260109,0.028338685631752014,0.0904926285147667,-0.015887759625911713,0.00446611363440752,0.056526388972997665,-0.044663991779088974,0.0631464496254921,0.01001513097435236,0.04889528080821037,-0.009951177053153515,0.006809219252318144,-0.0020289416424930096,0.062029775232076645,-0.008378518745303154,0.04784779250621796,-0.0415126197040081,0.05541187897324562,-0.008648333139717579,-0.013437513262033463,-0.03079306334257126,0.03643343225121498,0.0887485072016716,-0.07037980109453201,-0.060199081897735596,-0.05385977774858475,-0.015190125443041325,-0.06997383385896683,0.08964808285236359,0.06369679421186447,-0.04062174633145332,-0.048694510012865067,-0.07661236077547073,-0.005380283575505018,0.05326836556196213,-0.11082183569669724,0.035438183695077896,0.09313145279884338,-0.024120327085256577,0.048131395131349564,-0.07453056424856186,-0.08036341518163681,0.04818445444107056,0.0945005789399147,0.04771696403622627,-0.06618200987577438,0.0703534483909607,-0.07436823844909668,0.07274032384157181,-0.013817849569022655,-0.03291650861501694,-0.03215472027659416,-0.06839315593242645,0.04269866272807121,0.06861178576946259,-0.1618925780057907,-0.04338601604104042,-0.004745163023471832,-0.05816137418150902,-0.0433184988796711,-0.026834093034267426,0.009002072736620903,0.009587622247636318,0.06802089512348175,-0.0999523252248764,-0.0025075373705476522,0.03985385224223137,-0.013251744210720062,0.04968675971031189,-0.03223589062690735,0.01639900729060173,-0.10985825210809708,0.06755747646093369,0.04994935542345047,0.02119373343884945,-0.07167761772871017,-0.00634467788040638,0.026569876819849014,-0.022256989032030106,0.034055426716804504,0.05576975643634796,0.08408025652170181,-0.012653926387429237,-0.021354233846068382,0.012868335470557213,0.01457963790744543,-0.03169458359479904,-0.05916864052414894,-0.045821499079465866,0.05778287723660469,0.11798027902841568,0.054544735699892044,0.042567379772663116,0.0036562266759574413,-0.06321760267019272,-0.0003863660094793886,-0.04145266115665436,-0.007023348473012447,-0.08030897378921509,0.11289319396018982,0.0003664045943878591,0.003833476221188903,-0.0014849075814709067,-0.06391122192144394,-0.005938269197940826,-0.05575978755950928,0.03669239953160286,-0.06775254756212234,0.020227698609232903,-0.0032698221039026976,-0.0552169568836689,0.008337357081472874,-0.014277419075369835,0.0693003460764885,0.030163191258907318,-0.021661119535565376,-0.026915373280644417,-0.032128412276506424,-0.022296754643321037,-0.09906063973903656,0.08233242481946945,0.06923650205135345,-0.013528640381991863,-0.06294760853052139,0.07529041916131973,0.0049401139840483665,0.012505062855780125,-0.03767554461956024,-0.01781756617128849,-0.013244383968412876,-0.016204265877604485,-0.005871632136404514,0.00392135651782155,-0.011032088659703732,0.031682487577199936,-0.012793437577784061,0.012353269383311272,-0.008717697113752365,0.03693857789039612,0.010158240795135498,-0.002802288392558694,-0.004632564261555672,-0.04166308790445328,0.025621427223086357,0.008839485235512257,-0.080507792532444,-0.04612879455089569,0.0011306364322081208,-0.04514837637543678,0.07391314208507538,-0.032715268433094025,-0.017763465642929077,0.01183758769184351,0.030771968886256218,-0.016199801117181778,-0.009006788954138756,0.07396777719259262,0.0029681590385735035,0.012692088261246681,0.03816463053226471,0.016869984567165375,-0.022091949358582497,-0.04218302294611931,0.021670963615179062,-0.05294830724596977,-0.0010592505568638444,0.00016404848429374397,-0.013562969863414764,0.021777285262942314,0.04032018780708313,-0.0008959442493505776,-0.037442807108163834,0.023644087836146355,-0.03592459857463837,-0.000296441197860986,0.004457745235413313,-0.09075607359409332,0.02013801410794258,0.000679377990309149,0.02168666571378708,-0.04868726432323456,0.00996821653097868,-0.01677660271525383,-0.016015205532312393,-0.04594793543219566,-0.012605573050677776,0.01660311408340931,-0.061539217829704285,-0.019958440214395523,-0.04378405585885048,-0.07247953116893768,-0.06245052069425583,-0.04103522747755051,-0.01625271886587143,-0.027156298980116844,-0.008644616231322289,0.05927824229001999,-0.017632534727454185,0.005425595212727785,-0.004921094048768282,-0.03627434000372887,0.032069262117147446,-0.055092114955186844,-0.04695582017302513,0.009528718888759613,0.046881627291440964,0.05451742932200432,-0.02136322669684887,0.005925903562456369,0.0490838959813118,-0.017570259049534798,-0.02494104765355587,-0.007585014682263136,0.08051948994398117,0.06265485286712646,-0.08180046826601028,0.012894307263195515,-0.01960819400846958,0.0004347613430581987,0.04521416127681732,0.02154998481273651,0.014215621165931225,0.006157888565212488,0.005804292857646942,-0.042632807046175,0.012726672925055027,0.05408923700451851,-0.1004609540104866,0.02026361972093582,0.08337036520242691,-0.027241693809628487,0.011680272407829762,-0.04123547300696373,0.028122296556830406,-0.01592119224369526,0.04005296155810356,0.05977395549416542,-0.07236611098051071,0.032555028796195984,0.00188547617290169,0.025072073563933372,-0.021282298490405083,-0.016357021406292915,-0.010880926623940468,0.00043426299816928804,-0.030321825295686722,-0.031134242191910744,-0.02155950851738453,-0.08728157728910446,-0.11373641341924667,-0.02891242690384388,-0.00032039813231676817,-0.0037092273123562336,0.007311517838388681,-0.021419083699584007,-0.020425325259566307,-0.1025770977139473,0.016090821474790573,0.042942993342876434,0.019160069525241852,0.04249248281121254,0.06385563313961029,0.04614628851413727,0.0023651723749935627,-0.007825889624655247,-0.042953815311193466,0.03224385902285576,-0.03641631454229355,0.013147230260074139,-0.009694872424006462,-0.02747255004942417,-0.03471819683909416,0.008186990395188332,0.027821673080325127,-0.01613091304898262,-0.03135382756590843,-0.00854830164462328,0.07211103290319443,-0.1056918054819107,-0.052479423582553864,0.00767227029427886,-0.00158574222587049,0.10332086682319641,-0.0028213902842253447,-0.0723661333322525,0.0021438070107251406,-0.026458295062184334,0.03116917796432972,0.0519385039806366,-0.06365978717803955,-0.0023028207942843437,0.0032147360034286976,-0.019184084609150887,0.007037549279630184,0.003627835074439645,-0.004130109213292599,0.007698963396251202,0.05920844525098801,0.013765745796263218,0.04356713220477104,0.019731786102056503,-0.0523892343044281,-0.06983337551355362,-0.007625593803822994,-0.016662703827023506,-0.021718474105000496,-0.08806397020816803,0.015208604745566845,0.02815028466284275,0.023227987810969353,-0.012910058721899986,0.04048087075352669,0.03841574862599373,0.06758301705121994,0.028622277081012726,
0.012616610154509544,0.002293431432917714,0.03802131861448288,0.02647925727069378,-0.03016396053135395,-0.009305925108492374,-0.07760793715715408,-0.009647483937442303,-0.023049000650644302,0.01378064788877964,-0.035773929208517075,0.004896282684057951,-0.02371661737561226,0.07568619400262833,-0.017474422231316566,0.06285188347101212,0.0008588698110543191,-0.031856074929237366,-0.0006742318510077894,-0.016688784584403038,0.02275064028799534,-0.0316072478890419,-0.05518215149641037,0.042072098702192307,-0.03283364325761795,-0.024898774921894073,0.007864280603826046,-0.047691941261291504,-0.016812941059470177,-0.023261016234755516,0.01873735524713993,-0.06181235983967781,0.040133994072675705,-0.06612563878297806,0.06837815046310425,-0.026382971554994583,-0.048373326659202576,-0.019886543974280357,-0.038884181529283524,0.03492862731218338,0.040696803480386734,-0.07678820937871933,0.002282223664224148,-0.021281108260154724,-0.03168587014079094,-0.035192836076021194,0.024014219641685486,0.011563819833099842,0.04648229852318764,0.029969610273838043,0.012579293921589851,0.014682603068649769,0.006162612698972225,-0.0930517241358757,-0.014703664928674698,-0.039048731327056885,0.011206382885575294,0.007543816231191158,-0.024257956072688103,-0.025855306535959244,0.020722774788737297,0.007503075525164604,-0.0027848256286233664,-0.02758156508207321,0.15822069346904755,-0.015080886892974377,-0.03981262072920799,0.005386286415159702,-0.1590283364057541,0.050785407423973083,0.07676524668931961,0.0047901528887450695,-0.05517268180847168,0.04444466531276703,0.03306138142943382,-0.06345531344413757,-0.07825525104999542,0.05027785524725914,-0.08492474257946014,0.04530131444334984,-0.041210222989320755,0.010131048038601875,-0.011649676598608494,0.004348463844507933,0.02810419350862503,-0.008415264077484608,-0.04745619371533394,0.011101456359028816,0.05675650015473366,-0.053421758115291595,0.02884087711572647,-0.028777018189430237,-0.026217997074127197,0.01963098533451557,-0.0046127899549901485,-0.03325701504945755,-0.012228529900312424,-0.0733751431107521,-0.15079006552696228,-0.05052158236503601,0.006848518270999193,0.0027943856548517942,0.02879340574145317,0.04129410162568092,0.009772705845534801,-0.08216232061386108,-0.04698432609438896,0.045582082122564316,-0.03832535073161125,0.04996302351355553,-0.0019840197637677193,-0.00325591373257339,0.037634216248989105,0.02755325846374035,-0.04884235933423042,-0.01491868682205677,0.027815602719783783,-0.09966940432786942,-0.02616288512945175,-0.056104790419340134,0.04652063548564911,-0.01292580645531416,-0.01815401390194893,-0.027399664744734764,0.027350394055247307,-0.0328330434858799,-0.028542086482048035,0.0038145962171256542,0.00022885375074110925,0.017148755490779877,0.019659556448459625,-0.08175215125083923,-0.025817686691880226,-0.007008207030594349,0.006795324385166168,-0.022869819775223732,-0.014009096659719944,0.01946208067238331,0.010681414045393467,-0.08546342700719833,0.03598702698945999,0.0012019355781376362,0.0008233002154156566,0.01520091574639082,0.036851439625024796,0.0236023161560297,-0.022977689281105995,-0.05827220529317856,0.03790190815925598,0.08666857331991196,0.018952911719679832,0.030423732474446297,0.02725621499121189,0.017729377374053,0.004489963408559561,0.05348272621631622,-0.03315531089901924,-0.012926999479532242,-0.0010103394743055105,0.019418705254793167,0.02575559914112091,-0.030846402049064636,-0.0006513427360914648,-0.0008714182185940444,0.054078347980976105,0.0038104725535959005,0.08985461294651031,-0.04193539544939995,-0.014595495536923409,0.0022528895642608404,-0.034991566091775894,0.0046000550501048565,0.006632364820688963,-0.003756554564461112,0.012618840672075748,0.0297798253595829,-0.010120206512510777,0.024160107597708702,-0.04064078629016876,0.003260697703808546,0.0302621778100729,-0.053708963096141815,0.04237055405974388,-0.0021597237791866064,0.043331392109394073,0.01562768965959549,-0.053332116454839706,-0.03773747384548187,-0.047866225242614746,0.04725111648440361,-0.05845653638243675,-0.02606356330215931,0.026719598099589348,-0.020331785082817078,-0.03541900962591171,-0.0439252145588398,0.14688685536384583,0.019888045266270638,-0.006531259510666132,-0.08096073567867279,-0.04435514286160469,-0.030307037755846977,0.0028110307175666094,0.006246825214475393,0.05006365478038788,-0.043795425444841385,0.04267963021993637,-0.025364268571138382,0.031698744744062424,0.003455420956015587,0.017363794147968292,0.04475518316030502,0.037203557789325714,-0.12883210182189941,-0.08100622147321701,-0.002763135591521859,0.06579625606536865,-0.058820940554142,-0.0106712831184268,-0.03519382327795029,-0.016982130706310272,-0.0235793124884367,0.024001378566026688,-0.008518720045685768,0.005272585432976484,0.071604423224926,-0.0039181942120194435,-0.03106684610247612,-0.018037403002381325,-0.054831914603710175,-0.009174007922410965,0.044292595237493515,-0.00446719117462635,0.0912465825676918,-0.029605139046907425,0.04166574403643608,-0.03236024081707001,0.005342869088053703,-0.021985609084367752,0.001288815401494503,-0.015189473517239094,0.0017697028815746307,0.022746901959180832,-0.01919722929596901,0.041770629584789276,-0.08343525230884552,-0.019713426008820534,-0.00013610052701551467,-0.002414459129795432,-0.01647188328206539,-0.0028479713946580887,0.0029538716189563274,0.01809130609035492,0.021004896610975266,0.004478486720472574,-0.02566513605415821,-0.05737726390361786,0.011145449243485928,0.08825023472309113,-0.07035615295171738,0.0739358514547348,0.03339286148548126,0.013618605211377144,0.0381254106760025,0.009411361068487167,-0.07358035445213318,-0.1061478704214096,-0.09067334234714508,-0.014809070155024529,-0.07385893166065216,-0.010987686924636364,0.05203456059098244,-0.05069012567400932,0.03167020529508591,0.01757904142141342,-0.04591650888323784,0.048799023032188416,0.029752740636467934,0.12366676330566406,-0.01556782703846693,0.019408514723181725,0.008256340399384499,0.07259003072977066,-0.039627790451049805,-0.03948451578617096,0.01149794366210699,-0.017497019842267036,0.04395658150315285,-0.004035051446408033,0.10306555777788162,0.0328044518828392,0.02481146529316902,-0.03317079320549965,-0.16751538217067719,-0.030355272814631462,0.0017419923096895218,-0.14762119948863983,-0.010492603294551373,0.04726298525929451,0.04002244770526886,-0.05275637283921242,-0.0548192597925663,-0.06065290793776512,-0.014957979321479797,-0.03751450404524803,0.09552536904811859,-0.015529273077845573,-0.054040487855672836,-0.08723370730876923,-0.0009033460519276559,-0.03548533469438553,0.031376078724861145,-0.1340215504169464,0.025948001071810722,-0.08517174422740936,-0.09157609939575195,-0.053199030458927155,-0.03333398327231407,-0.020604422315955162,-0.10757333040237427,-0.003917238675057888,-0.02091382071375847,0.07841801643371582,0.03506512939929962,0.05221395194530487,0.0012466266052797437,0.054885122925043106,0.012390545569360256,-0.06923633813858032,0.030971704050898552,-0.06621720641851425,-0.06306873261928558,-0.017520343884825706,-0.030570903792977333,0.01891905814409256,0.04663844406604767,0.030438436195254326,-0.013670837506651878,0.041948795318603516,-0.014228676445782185,-0.017685646191239357,0.01043891441076994,-0.05409495159983635,-0.026075497269630432,0.04457353428006172,-0.0055063883773982525,-0.00721971970051527,0.03630394861102104,0.002655822318047285,-0.027067216113209724,0.033889032900333405,0.046950072050094604,0.01639525406062603,-0.12190083414316177,0.057313792407512665,0.01766856759786606,0.0430658794939518,-0.01889624632894993,0.02162192203104496,0.031340498477220535,-0.08698155730962753,0.009433623403310776,0.04505782574415207,0.05802619457244873,-0.0005481094704009593,-0.006625529378652573,-0.028299620375037193,-0.01833472214639187,-0.014713505282998085,0.019382435828447342,-0.08962418884038925,-0.0058277505449950695,-0.029518313705921173,0.055986128747463226,-0.013382983393967152,0.002608497627079487,0.002818966517224908,0.013586558401584625,0.015322143211960793,-0.14132466912269592,0.005789857357740402,0.06594254821538925,-0.0003703770344145596,0.001983994385227561,-0.009921371005475521,-0.02898390032351017,0.007513257209211588,-0.07143332809209824,0.020920202136039734,-0.011034499853849411,-0.010213972069323063,-0.11348819732666016,-0.023001743480563164,0.0010589251760393381,-0.02401973493397236,0.086690753698349,-0.036107271909713745,-0.05981045588850975,0.026112422347068787,0.006918658968061209,0.07354293018579483,0.031242946162819862,0.03346370905637741,-0.006744652986526489,0.04713601991534233,-0.017106832936406136,0.03689923509955406,0.010142803192138672,0.04240025579929352,-0.044406212866306305,0.004744024947285652,-0.00705818273127079,0.009201664477586746,-0.007504303939640522,-0.004496109671890736,-0.037942640483379364,0.047989096492528915,-0.04798470437526703,0.06428580731153488,0.0002639658923726529,0.058004166930913925,0.03168964385986328,0.030828528106212616,-0.02757491171360016,-0.025504296645522118,0.01928330957889557,-0.016236208379268646,-0.0059624966233968735,0.02545270510017872,0.004030454438179731,-0.019514622166752815,-0.023387016728520393,-0.010780954733490944,0.00266155949793756,0.022126860916614532,-0.046697791665792465,-0.008377780206501484,-0.118063785135746,0.004849875345826149,0.010818864218890667,-0.10230594128370285,-0.010080067440867424,-0.035527002066373825,0.055238645523786545,0.030481161549687386,0.021348416805267334,-0.025243012234568596,0.04149504378437996,-0.024375438690185547,-0.04933657869696617,0.04726416990160942,-0.09737581759691238,-0.02498048171401024,0.010932470671832561,0.09055643528699875,-0.05037635564804077,0.05268785357475281,-0.012278296053409576,-0.11490347236394882,-0.0286662969738245,-0.04253385215997696,-0.03711176663637161,0.01154207531362772,-0.0189756341278553,-0.008634601719677448,0.017522890120744705,-0.014238499104976654,0.0271451473236084,0.004234092775732279,-0.020883912220597267,0.010538138449192047,0.024349145591259003,0.011403009295463562,-0.04240994527935982,-0.013447916135191917,-0.05227416008710861,-0.05826758220791817,-0.010475973598659039,0.0025684332940727472,-0.05463838949799538,-0.05717272311449051,0.03250487893819809,-0.013896438293159008,0.04002465307712555,0.04230322688817978,0.1021340861916542,-0.004780585877597332,0.05754036828875542,0.01099854614585638,0.02778244949877262,-0.031563326716423035,0.01719815842807293,0.061556167900562286,-0.03351632133126259,-0.15040990710258484,-0.022600824013352394,0.03457149863243103,-0.04992346465587616,-0.036303337663412094,0.02791462652385235,-0.0027639700565487146,0.00043682410614565015,-0.06834712624549866,-0.010137290693819523,0.02465287409722805,-0.04087342694401741,0.027237527072429657,0.00915027316659689,0.025954408571124077,-0.01286165788769722,-0.04954461380839348,0.09230462461709976,-0.021004317328333855,-0.01058192178606987,0.03813545033335686,-0.018804503604769707,-0.0022092547733336687,-0.004816601984202862,0.06199803575873375,0.004088227637112141,-0.0032734062988311052,-0.05948386713862419,0.009488304145634174,-0.01787092536687851,-0.005821002181619406,0.02328389137983322,0.053855590522289276,-0.00034831109223887324,0.07203744351863861,0.037809599190950394,-0.08027521520853043,0.07305167615413666,0.011339854449033737,0.020122481510043144,0.006090021226555109,0.09890437871217728,0.053400516510009766,-0.05045606195926666,-0.024069035425782204,-0.03804739937186241,-0.1159319207072258,-0.02355477400124073,0.004598862491548061,0.0030418068636208773,0.08000289648771286,-0.06441034376621246,0.009380893781781197,0.012937300838530064,-0.010522009804844856,-0.004676403943449259,-0.009029330685734749,-0.02029057778418064,0.004141851328313351,-0.006462198216468096,0.0025312381330877542,0.019976776093244553,0.014411321841180325,0.0032575454097241163,-0.051054228097200394,-0.024892905727028847,-0.00046012920211069286,0.0017772553255781531,0.01695827580988407,-0.01995067670941353,-0.03926704823970795,0.004946822766214609,-0.026847561821341515,0.0026978778187185526,0.006929183844476938,0.005602970719337463,0.02493658848106861,-0.031205810606479645,0.00940146204084158,-0.04242996498942375,-0.014314607717096806,0.023333614692091942,
0.014428540132939816,-0.014593586325645447,0.023161133751273155,0.050226181745529175,0.027857517823576927,-0.045519545674324036,0.005903500132262707,0.0022792997770011425,0.031149648129940033,-0.0031520493794232607,0.014711149968206882,-0.029222063720226288,0.05113513395190239,0.025705726817250252,0.011558176949620247,0.034069545567035675,-0.0148295434191823,-0.034231141209602356,-0.0346798412501812,-0.03931213915348053,0.007780618499964476,0.04213341325521469,-0.03310450166463852,-0.05728960782289505,0.011631092987954617,0.009877482429146767,0.03455566614866257,-0.058841247111558914,0.021475091576576233,-0.017611244693398476,-0.011346962302923203,0.0340588204562664,-0.024091320112347603,0.002862437628209591,-0.03422676399350166,0.0009773995261639357,-0.040684882551431656,-0.028595298528671265,-0.0028679247479885817,-0.023147325962781906,0.035624343901872635,-0.0305328369140625,0.02437814138829708,-0.043362464755773544,-0.04297460988163948,-0.048167433589696884,0.05314471200108528,-0.035729601979255676,0.021059392020106316,-0.012665537185966969,-0.045002736151218414,0.025079017505049706,-0.004626706708222628,0.06089980527758598,0.04290086030960083,0.06219939887523651,-0.021164989098906517,0.038721002638339996,0.07185210287570953,0.017138594761490822,-0.019880730658769608,-0.016149146482348442,-0.051177844405174255,0.008437887765467167,0.01810409314930439,0.04510816931724548,-0.0628589615225792,-0.011816011741757393,0.08124721050262451,-0.062430381774902344,-0.061249297112226486,-0.03836284205317497,0.009318995289504528,0.04066627472639084,0.04755125567317009,-0.006237566936761141,-0.06428834050893784,-0.007573625072836876,-0.03135978430509567,-0.05427258089184761,0.01919221132993698,-0.07468165457248688,-0.0707664042711258,0.03683248534798622,0.09400756657123566,-0.027914000675082207,0.03580213710665703,-0.06432898342609406,-0.0769386813044548,-0.03053431771695614,0.05164534971117973,-0.03034757450222969,0.00019282301946077496,-0.01672079972922802,-0.058714158833026886,-0.0004769425140693784,-0.057150982320308685,0.0227530375123024,-0.053147606551647186,-0.030047472566366196,0.01991068199276924,-0.013929594308137894,0.03144277259707451,-0.02593715861439705,-0.05027822032570839,0.05035663768649101,0.015509706921875477,-0.048243697732686996,-0.009658526629209518,-0.06558828055858612,0.012823350727558136,0.04304691404104233,0.0004244481970090419,0.03528173267841339,-0.09580187499523163,-0.035763613879680634,0.0010138204088434577,0.07344432920217514,-0.02584906667470932,-0.006110269110649824,0.056193891912698746,-0.018940363079309464,0.039234358817338943,-0.05372532457113266,-0.014426704496145248,-0.12669827044010162,-0.05426708981394768,0.06009320914745331,0.0406436063349247,-0.008246328681707382,0.01338253915309906,-0.01186759676784277,-0.01615629903972149,0.008794967085123062,0.0203767791390419,-0.06149999052286148,-0.04635213688015938,0.02014431171119213,-0.03916439414024353,0.03728476166725159,0.02385752461850643,0.03714883700013161,0.02972644567489624,-0.004477518144994974,-0.0187078807502985,0.020213665440678596,0.002408875385299325,-0.006188224535435438,0.04010722413659096,0.05423954874277115,-0.11090721189975739,-0.02599635347723961,-0.047609150409698486,-0.027646413072943687,0.05854392796754837,-0.03452087938785553,0.018965039402246475,0.0374172143638134,-0.0799419954419136,0.0718049556016922,-0.052831459790468216,0.014121358282864094,0.006774087902158499,0.07593975961208344,-0.008988230489194393,-0.014742439612746239,-0.04787742346525192,0.011877676472067833,0.06115422025322914,0.01169496402144432,-0.020295143127441406,0.012378447689116001,-0.016109704971313477,0.021418122574687004,0.0009635220048949122,0.010772156529128551,0.0174070056527853,0.012443136423826218,-0.014194542542099953,-0.05887894704937935,-0.05042474716901779,0.027218591421842575,-0.040472306311130524,0.0074100736528635025,0.0010066047543659806,-0.024952592328190804,0.07489088922739029,0.022632267326116562,-0.087376169860363,0.01947629824280739,-0.022554557770490646,0.024748869240283966,-0.006881699897348881,0.08199293166399002,-0.015229250304400921,0.01623792201280594,0.045877039432525635,0.026625068858265877,-0.05620753765106201,0.06284084171056747,0.014976097270846367,0.038021668791770935,-0.03991018608212471,0.014465002343058586,0.07202668488025665,-0.04169861972332001,0.029745666310191154,0.030322009697556496,0.002533482387661934,0.05442699044942856,0.033318545669317245,-0.0030446273740381002,0.03817730396986008,-0.07221487164497375,0.05142064765095711,0.04474063962697983,0.014279448427259922,-0.015020075254142284,0.006138832774013281,-0.05369408801198006,-0.019706660881638527,0.03172091394662857,-0.0024760616943240166,0.008607357740402222,0.05211969465017319,-0.04984332621097565,-0.017042869701981544,-0.00900063756853342,-0.04468207806348801,-0.045630477368831635,0.009713830426335335,-0.024396497756242752,0.09133864939212799,0.0577743761241436,-0.014858279377222061,0.001398126594722271,-0.035705678164958954,0.06650944799184799,-0.05163200572133064,-0.03781965747475624,-0.06692073494195938,-0.03542639687657356,-0.057568833231925964,-0.019603440538048744,-0.017794892191886902,-0.033302631229162216,0.03775033354759216,-0.046473149210214615,0.044221289455890656,-0.005240142811089754,-0.04629190266132355,-0.0009233210003003478,-0.006676475051790476,0.01770687662065029,0.05798543989658356,0.006720426958054304,-0.04486441984772682,-0.017046021297574043,-0.10570888221263885,0.07032123953104019,0.03523224964737892,0.04038258269429207,0.013314912095665932,0.016825031489133835,-0.0018245431128889322,0.00450177863240242,0.03648920729756355,-0.03218282386660576,0.05001968890428543,-0.05151161551475525,-0.0005187487113289535,0.059170790016651154,0.003456428647041321,-0.030938738957047462,-0.04158482328057289,0.04323263838887215,0.08533093333244324,0.0208320003002882,-0.04101399704813957,-0.00922472309321165,-0.04050421714782715,-0.010622098110616207,-0.07295764237642288,-0.10398334264755249,-0.0462484285235405,-0.016398634761571884,0.0009601798374205828,0.08185479789972305,0.009996687062084675,0.08750179409980774,0.008454112336039543,0.08960992097854614,-0.03951053321361542,-0.0032568927854299545,0.07233238220214844,-0.032795343548059464,-0.08374039083719254,0.12470278888940811,0.10258905589580536,-0.024004941806197166,-0.011445918120443821,0.01831807941198349,0.04150228947401047,0.007356495596468449,-0.05827275291085243,0.04921690747141838,0.05414494499564171,0.11287164688110352,0.05298285558819771,0.0035839183256030083,0.043505702167749405,-0.057832542806863785,-0.04990215227007866,0.0508590005338192,0.0640173926949501,0.02674504555761814,0.10836325585842133,0.04801158607006073,-0.032495640218257904,-0.06621631234884262,0.008737395517528057,-0.02876625582575798,-0.07823361456394196,0.0017963802674785256,-0.05865088477730751,0.0068511259742081165,-0.060890600085258484,0.07448406517505646,-0.02049330621957779,0.013089360669255257,0.017384877428412437,0.03510527312755585,0.003279885044321418,0.029182367026805878,0.06849568337202072,-0.03586433082818985,-0.08696231245994568,0.02758576162159443,0.0018205642700195312,0.013791739009320736,0.09058894217014313,-0.024348296225070953,0.1330786794424057,0.030333643779158592,0.03490973263978958,0.019233427941799164,0.04496615380048752,-0.03793253004550934,0.03909390792250633,-0.030591445043683052,-0.05789288505911827,0.06682610511779785,-0.006677000783383846,0.023538202047348022,-0.0541483610868454,0.19909673929214478,0.0571313239634037,0.09498701989650726,-0.07177593559026718,0.09485619515180588,-0.04943615570664406,0.0035912920720875263,-0.007013349328190088,0.050585027784109116,0.07272040098905563,-0.005310758017003536,-0.04037715867161751,-0.035782553255558014,0.006638093385845423,-0.082111656665802,-0.024527549743652344,0.08575458079576492,-0.09200473129749298,0.0258596520870924,0.025886835530400276,-0.05002046003937721,0.015047364868223667,0.0013941151555627584,-0.03669046238064766,0.012804493308067322,0.01653261110186577,0.12483563274145126,0.12738236784934998,-0.053562313318252563,-0.05629456788301468,0.035433173179626465,-0.045563530176877975,-0.04716577008366585,0.035796504467725754,-0.023358335718512535,-0.002432310488075018,-0.10360147804021835,0.018540307879447937,-0.01843181625008583,-0.04818487912416458,0.008684661239385605,-0.02855890803039074,-0.008094380609691143,0.033652983605861664,-0.007549074944108725,-0.001617945497855544,-0.004240475594997406,0.000606804562266916,-0.07222265750169754,0.03448978438973427,-0.006823554635047913,0.03519288823008537,-0.04185434430837631,0.04034573957324028,0.013628886081278324,0.0506497323513031,-0.03961843252182007,0.01872880570590496,0.003433454083278775,0.030207395553588867,-0.0002784498210530728,-0.03183802589774132,0.036876581609249115,0.012752830050885677,0.010571555234491825,-0.014724316075444221,0.028659701347351074,4.369652015157044e-05,0.01767328754067421,0.01146780140697956,-0.01720423623919487,0.01736897975206375,-0.05257294327020645,0.050346989184617996,-0.021009543910622597,-0.007484182249754667,-0.02485579065978527,0.032245736569166183,0.01752401515841484,-0.012683483771979809,-0.02547137625515461,-0.005107277538627386,0.012658592313528061,-0.011599927209317684,0.0361437126994133,-0.014016326516866684,-0.08190974593162537,0.028353795409202576,0.05118320882320404,-0.02603367157280445,-0.027951199561357498,0.006435409653931856,-0.008952989242970943,0.018974434584379196,0.011552232317626476,-0.04396844655275345,-0.029096899554133415,-0.026418622583150864,0.025733433663845062,-0.016727270558476448,-0.054435014724731445,0.023808302357792854,-0.043642666190862656,0.03549166023731232,-0.0040277945809066296,-0.007271619979292154,0.012122904881834984,0.06082504987716675,0.025769921019673347,-0.07112931460142136,-0.05235876142978668,-0.005826488137245178,-0.06067037209868431,0.021210942417383194,0.02419186197221279,0.07429715245962143,-0.013492059893906116,-0.0077784364111721516,-0.028679141774773598,-0.01466879528015852,-0.06369150429964066,0.002865609247237444,0.0025772119406610727,0.0007571028545498848,0.027070047333836555,0.06758522242307663,0.011345498263835907,0.018485039472579956,-0.01669411174952984,-0.007276518736034632,-0.01834099180996418,0.01649707369506359,-0.03477572277188301,-0.012336320243775845,-0.007663379423320293,-0.03665050119161606,-0.07497548311948776,-0.0309597197920084,0.05425568297505379,0.007386700250208378,0.005163862369954586,0.030003691092133522,0.004614126868546009,-0.0410027839243412,0.053327519446611404,-0.05820424109697342,-0.01554736029356718,-0.03973200544714928,0.0007072061416693032,-0.0357915461063385,-0.051748551428318024,0.008931286633014679,0.02749437279999256,0.03721160441637039,-0.02236529253423214,-0.05006583034992218,0.000797610089648515,0.01707170344889164,0.03438166528940201,0.005694998893886805,-0.006542465183883905,-0.007593192160129547,0.05754680186510086,0.031149685382843018,-0.09791279584169388,-0.04192611202597618,0.020203715190291405,0.005840384401381016,0.02131091244518757,-0.01555843185633421,0.03393024578690529,0.04913320019841194,-0.04247983172535896,0.0067225247621536255,0.011769024655222893,0.011351034045219421,-0.04535296931862831,-0.02217273786664009,0.015643469989299774,-0.029589219018816948,0.012451720423996449,-0.008612089790403843,0.025964859873056412,-0.0304388590157032,0.03878720477223396,0.013352569192647934,0.0008878194494172931,-0.01565396972000599,0.053794436156749725,0.008015364408493042,0.025943728163838387,-0.02170250006020069,-0.011161532253026962,0.018600396811962128,0.0450020469725132,-0.014732194133102894,0.004418908152729273,0.009741198271512985,0.02330339513719082,-0.012095083482563496,0.03021359071135521,-0.021871861070394516,0.027268311008810997,-0.08689769357442856,0.018435748293995857,0.002057980513200164,-0.05519424378871918,-0.02908703126013279,0.016420282423496246,-0.018739966675639153,0.047474462538957596,-0.033409811556339264,-0.00374629907310009,-0.027717947959899902,0.0717272013425827,0.026122739538550377,0.007977199740707874,-0.056680310517549515,0.03830577805638313,0.038997434079647064,0.045144546777009964,
0.06171203777194023,0.040022775530815125,-0.0339624285697937,0.002859708620235324,-0.0011952189961448312,0.007474885787814856,0.07228260487318039,0.01670870929956436,-0.0572417676448822,-0.04031921550631523,0.02908346988260746,0.06173190101981163,0.005258049350231886,-0.014556451700627804,0.05663032457232475,-0.04233375936746597,0.01944049634039402,-0.01573454774916172,-0.011868474073708057,-0.0729857012629509,-0.0513024777173996,0.05026419833302498,-0.0917118713259697,-0.019556982442736626,-0.0470108836889267,0.09121046215295792,0.026484139263629913,0.016017422080039978,-0.01648659072816372,-0.029054785147309303,-0.044813163578510284,0.09932634979486465,-0.03265536203980446,-0.011339744552969933,-0.006528496742248535,0.01864282414317131,0.11176369339227676,0.06338601559400558,-0.07637029886245728,-0.028833910822868347,0.09245117008686066,0.03936571255326271,-0.012721188366413116,0.007310808170586824,0.022328142076730728,-0.006457565352320671,0.05948939546942711,0.029452478513121605,-0.00753361452370882,0.0347445048391819,0.029562877491116524,-0.01574384979903698,0.014338339678943157,-0.11656723916530609,-0.034393370151519775,0.050680965185165405,0.02165023796260357,-0.014658259227871895,0.09860030561685562,-0.08581472933292389,-0.002596142701804638,0.021728267893195152,0.012797418050467968,0.026300301775336266,0.054119355976581573,-0.019862573593854904,-0.020318450406193733,0.02329001948237419,-0.08743812888860703,0.0008554849191568792,0.030670225620269775,0.030726267024874687,0.026206471025943756,0.022797105833888054,0.06224491819739342,0.047379884868860245,0.09452026337385178,0.03907671570777893,0.010092371143400669,-0.08140693604946136,-0.010873649269342422,-0.07483377307653427,0.025334445759654045,-0.06818032264709473,-0.03583034500479698,0.006734559312462807,0.10547243058681488,0.008088727481663227,0.0068590957671403885,0.009093682281672955,0.001591196283698082,0.02487947791814804,-0.01841641217470169,-0.016933564096689224,0.03772367909550667,0.06298506259918213,-0.007698977831751108,-0.09081429988145828,-0.058987684547901154,0.00453823572024703,0.0005590588552877307,0.04528505727648735,-0.03277329355478287,0.016881031915545464,0.07747533172369003,0.010109847411513329,0.014139403589069843,-0.09427177160978317,-0.04380418360233307,0.04235442355275154,0.06429733335971832,0.008467484265565872,-0.021929005160927773,-0.01782407984137535,0.08945111185312271,-0.004857366438955069,-0.02731565199792385,0.026643816381692886,-0.09917013347148895,0.015094654634594917,-0.016482992097735405,0.025039635598659515,0.04441126808524132,0.006142904981970787,-0.00409950315952301,-0.015842802822589874,-0.022762365639209747,0.003384831827133894,-0.023020664229989052,-0.0050398739986121655,-0.010080461390316486,-0.02445564977824688,-0.05894680693745613,0.01932736299932003,0.03010263293981552,-0.01010646391659975,0.0003534230636432767,0.04441336914896965,0.01236210111528635,-0.02919277548789978,-0.006784345023334026,-0.055631935596466064,0.030700480565428734,0.03812034800648689,-0.019472656771540642,0.02825903706252575,-0.02568398229777813,-0.057585928589105606,0.012746489606797695,-0.040499113500118256,0.006138970609754324,-0.07316113263368607,0.025269361212849617,0.050337985157966614,0.031730059534311295,0.00239363731816411,-0.016144944354891777,-0.036679696291685104,0.007692823652178049,-0.0424686074256897,0.009667886421084404,0.04954652860760689,-0.03558707609772682,0.08223243057727814,0.029841266572475433,-0.03871413320302963,0.042625851929187775,0.012783746235072613,0.0026011536829173565,0.009797833859920502,-0.015448888763785362,-0.025220898911356926,-0.007103031035512686,-0.07067370414733887,-0.0009999225148931146,-0.0017957815434783697,0.05320940911769867,-0.03628024086356163,-0.03503929451107979,-0.060072802007198334,0.000521618640050292,-0.022670434787869453,-0.04221706837415695,0.036061495542526245,0.06671291589736938,0.008197376504540443,-0.021473325788974762,-0.028234833851456642,-0.013601944781839848,-0.004710105247795582,-0.006100863218307495,-0.02229159325361252,0.09785538911819458,-0.03625507280230522,0.040004901587963104,-0.05231539160013199,0.06054716557264328,0.04180809110403061,0.04576994106173515,-0.10746243596076965,-0.007077720016241074,-0.027748659253120422,0.07902733981609344,-0.01062117237597704,-0.005748439114540815,-0.04373239353299141,0.07838362455368042,0.04251876473426819,-0.0010534495813772082,0.0345904640853405,-0.03944507613778114,0.002273554215207696,0.010997943580150604,-0.08741061389446259,-0.05305873602628708,0.030091160908341408,-0.0031217464711517096,0.028621919453144073,0.021321294829249382,0.011370179243385792,0.03671533614397049,-0.029316600412130356,0.06518600136041641,0.07840649038553238,0.07187209278345108,-0.05502361059188843,-0.08236037939786911,0.018908463418483734,0.0739995464682579,0.09638526290655136,0.0060372790321707726,-0.01374923437833786,0.046319834887981415,-0.07479692250490189,-0.017176581546664238,-0.0032198706176131964,0.036117881536483765,0.07688730955123901,-0.03333559259772301,0.018911322578787804,0.03461142256855965,-0.03359602019190788,0.07239148020744324,0.009074711240828037,0.057606033980846405,-0.020408589392900467,0.05055641010403633,0.003460798878222704,-0.00688623683527112,0.06672550737857819,0.01284278929233551,-0.016124211251735687,0.0022447460796684027,0.08062392473220825,-0.0031828400678932667,0.08935480564832687,-0.026087915524840355,0.0060120332054793835,0.06482692807912827,0.0061307623982429504,0.10536070168018341,0.031323958188295364,0.021645881235599518,-0.04867703095078468,-0.0770764872431755,0.01994924619793892,-0.05885375291109085,-0.05156441405415535,0.03459874168038368,0.0506674163043499,0.006527820602059364,0.11431507021188736,0.07435235381126404,0.0562882125377655,0.011896063573658466,-0.008147690445184708,-0.03670479357242584,0.01998288929462433,-0.07486771047115326,-0.009033547714352608,-0.005884275306016207,-0.021799741312861443,0.03697451204061508,0.01767456717789173,0.09068255871534348,-0.022273879498243332,0.14339908957481384,-0.00732589652761817,0.0947120413184166,0.030892452225089073,0.05290726572275162,-0.02066606841981411,0.029120881110429764,0.016640013083815575,-0.08364065736532211,-0.09383206069469452,0.03431740775704384,-0.053665172308683395,-0.05852239206433296,-0.007341260556131601,-0.07452308386564255,0.11317740380764008,-0.029909200966358185,-0.09815585613250732,-0.05356651172041893,-0.034248027950525284,0.053875844925642014,0.005564519204199314,-0.03909885138273239,-0.038145631551742554,0.049318328499794006,0.0027783415280282497,0.053519994020462036,-0.023492926731705666,-0.04593067616224289,-0.005250005517154932,-0.022868752479553223,0.08620551228523254,-0.06712266802787781,-0.10077258944511414,0.05372568219900131,0.021992983296513557,0.05840935558080673,0.0176826361566782,0.04521406814455986,0.028810041025280952,-0.017621662467718124,-0.02362162619829178,0.024644160643219948,0.00029949890449643135,0.11827467381954193,-0.08274859935045242,0.05603672191500664,-0.04072299972176552,0.015726817771792412,-0.03583974391222,0.033373236656188965,-0.04403770714998245,0.0556192584335804,0.06829231977462769,0.02370378188788891,0.008098527789115906,-0.15393725037574768,-0.022636035457253456,0.005520493257790804,0.028467252850532532,0.08201061189174652,-7.585596176795661e-05,0.0174550861120224,0.0516621470451355,0.07989972829818726,-0.0005300946650095284,0.04405117407441139,-0.026478983461856842,0.07042822241783142,0.053883254528045654,0.0036906269378960133,0.019030440598726273,0.013261447660624981,0.03752946853637695,-0.15778905153274536,-0.012723054736852646,-0.06159672513604164,-0.03451519086956978,0.07063660025596619,-0.11963208764791489,0.07245630770921707,0.02337406948208809,0.04532930999994278,-0.04728301987051964,-0.00045768768177367747,0.07252044975757599,-0.03967352211475372,0.03841736540198326,0.03883856162428856,0.004332921002060175,0.029260506853461266,-0.037755805999040604,0.03754320740699768,0.043713558465242386,-0.0040831794030964375,-0.12192673236131668,0.0076627968810498714,0.028321197256445885,-0.10093580931425095,0.011289281770586967,0.04112973064184189,-0.028856955468654633,0.027679774910211563,0.004570458550006151,-0.005858105141669512,-0.037398695945739746,0.00981657113879919,0.00406958581879735,-0.016634240746498108,0.015826519578695297,-0.016154151409864426,-0.053977739065885544,0.03937206417322159,0.05013418197631836,-0.05948405712842941,0.004155145492404699,0.050089918076992035,-0.07074190676212311,-0.008318289183080196,-0.012203836813569069,-0.11768804490566254,0.05535675957798958,-0.009144248440861702,0.027565736323595047,0.005475188139826059,-0.011364848352968693,-0.04827385023236275,0.00870079081505537,0.037437260150909424,0.03730635717511177,-0.05348614603281021,-0.0347340926527977,0.04227868840098381,0.023329565301537514,-0.039606038480997086,0.03155016899108887,0.009991616941988468,0.025664016604423523,-0.032379474490880966,0.01704164780676365,0.03615355119109154,0.004331577103585005,0.044668812304735184,0.06045142561197281,-0.006274097599089146,-0.030566610395908356,-0.001652306760661304,0.03097514621913433,0.046870917081832886,0.01791464351117611,0.05366348475217819,-0.07575581967830658,0.019803127273917198,0.022615576162934303,-0.07322840392589569,-0.012241038493812084,-0.01438372116535902,-0.044189371168613434,0.025911344215273857,0.008027458563446999,-0.013196364976465702,-0.014072252437472343,-0.09069938957691193,-0.03753624111413956,0.023553375154733658,-0.03513271361589432,-0.01125091128051281,-0.021169481799006462,-0.0392991304397583,0.02702266164124012,-0.0030874533113092184,-0.006855643820017576,0.08268208056688309,-0.05253853276371956,-0.044861242175102234,-0.011485585011541843,0.010295375250279903,0.006245891097933054,0.008295498788356781,-0.026644177734851837,0.09730219095945358,-0.06355750560760498,-0.08618418872356415,-0.034536268562078476,0.019128289073705673,-0.06381499767303467,-0.0273381769657135,0.008782231248915195,0.012979481369256973,0.024539338424801826,-0.08401677757501602,0.05663143843412399,0.007629843894392252,-0.09245224297046661,-0.017253706231713295,-0.023869097232818604,0.0681585967540741,-0.021450523287057877,-0.05481775477528572,-0.056826528161764145,-0.0240379199385643,-0.0071683912537992,0.013345967046916485,0.026612766087055206,-0.0506192147731781,0.006908050738275051,0.013927816413342953,0.026050414890050888,-0.05055154487490654,0.012689952738583088,-0.02546132728457451,0.011350331827998161,-0.006856872234493494,-0.029245581477880478,-0.013119717128574848,0.027719413861632347,0.017393147572875023,0.01910359598696232,0.04915526509284973,-0.07675263285636902,-0.006301432382315397,0.015669431537389755,0.02582925744354725,-0.01199204009026289,-0.05497052147984505,-0.06306401640176773,-0.058293092995882034,-0.016218338161706924,0.01967962644994259,-0.002797294408082962,-0.020736481994390488,0.008487854152917862,-0.07004974782466888,-0.02090095728635788,0.005767429247498512,-0.041159432381391525,0.0530301034450531,-0.09245484322309494,-0.05039019510149956,0.01539581548422575,-0.016757244244217873,0.01586371287703514,-0.12433477491140366,0.005054456647485495,-0.03706654533743858,-0.0201862882822752,0.004740636795759201,-0.02393832802772522,-0.01687965914607048,0.0021155765280127525,-0.012427138164639473,0.02114451862871647,-0.015999015420675278,0.011835497803986073,-0.06959691643714905,0.02458665892481804,-0.006740227807313204,-0.0088577289134264,-0.029640834778547287,-0.06560928374528885,0.10065547376871109,0.026311514899134636,-0.013864190317690372,0.03472914546728134,0.011487678624689579,0.02739136293530464,0.055167220532894135,0.022043859586119652,-0.10556314140558243,-0.10583171248435974,0.0342583991587162,-0.04702379181981087,0.023262465372681618,-0.005912470165640116,-0.022451378405094147,-0.007329005282372236,-0.0628603845834732,-0.003115886589512229,-0.030870886519551277,0.008869501762092113,-0.024281993508338928,-0.04925190657377243,-0.00637433398514986,0.08124788105487823,-0.0009079375886358321,-0.013312205672264099,-0.0004931973526254296,-0.011832961812615395,-0.08927247673273087,0.04257702827453613,
