0.10580176115036011,0.10953091830015182,-0.054103996604681015,0.00912147294729948,-0.05690906569361687,-0.01641223020851612,0.018880588933825493,0.03904446214437485,0.04291743040084839,-0.010370368137955666,-0.04191175103187561,0.0012473772512748837,0.024813149124383926,-0.0196165069937706,-0.00302699557505548,0.0028403992764651775,0.06520438939332962,0.016429614275693893,-0.04807865619659424,-0.05562005937099457,0.047326233237981796,0.03591122105717659,0.00833018310368061,0.00026601762510836124,0.04340638965368271,0.05098622664809227,0.03516655042767525,-0.05508744716644287,-0.011187849566340446,-0.040916379541158676,0.03538689762353897,-0.01484351884573698,0.06571561098098755,0.11023054271936417,-0.015373866073787212,-0.015719065442681313,-0.031989481300115585,-0.005891882348805666,-0.03482094779610634,0.0011357179610058665,0.023885328322649002,0.025102341547608376,-0.04550877586007118,-0.0010227318853139877,-0.07849781960248947,-0.01785511150956154,-0.010552037507295609,0.016734661534428596,-0.01844099722802639,-0.006625419948250055,-0.038953036069869995,-0.0007195632206276059,-0.02684769779443741,-0.011799504980444908,-0.03601865842938423,0.0328906886279583,0.0013523505767807364,0.13974381983280182,0.005342106334865093,0.0017933177296072245,-0.0005568062188103795,0.0029391038697212934,-0.026658479124307632,-0.03048800490796566,0.1690433770418167,-0.06913799047470093,0.10085022449493408,0.11087276041507721,-0.08337599039077759,0.06049158051609993,0.05346328020095825,-0.1241941973567009,-0.01967664808034897,0.03319786861538887,-0.00985742174088955,-0.04481140151619911,0.0005525249289348722,-0.030936338007450104,0.050817910581827164,-0.1281731277704239,0.11928153038024902,-0.021159714087843895,-0.03459484130144119,-0.023458290845155716,0.03562815859913826,-0.05863393098115921,-0.03298346698284149,-0.0030789414886385202,0.016387540847063065,0.09066646546125412,0.010792024433612823,0.07494647055864334,0.018913818523287773,0.023760614916682243,-0.007427356671541929,0.03896899148821831,-0.11108246445655823,-0.152937114238739,0.02922101318836212,-0.07355818152427673,0.005571104120463133,0.02532922849059105,0.009394354186952114,-0.015838321298360825,0.11530321836471558,-0.04671832546591759,-0.02842407301068306,0.07079188525676727,0.12787534296512604,0.09002254903316498,0.04963112249970436,0.012070411816239357,-0.021999627351760864,0.05965423956513405,0.0739479586482048,0.006025094538927078,0.025411395356059074,-0.055641669780015945,0.06096817925572395,0.023609427735209465,0.03159305825829506,0.02405247651040554,0.027592839673161507,0.09920363128185272,-0.0017224979819729924,-0.02987518534064293,0.0260850191116333,0.06575801968574524,0.009653985500335693,-0.002988440915942192,-0.001433706027455628,0.13558068871498108,-0.06176873669028282,0.06331789493560791,0.02724515274167061,-0.015941450372338295,0.045805275440216064,0.0041646286845207214,-0.01268133707344532,-0.02005920000374317,-0.012836718931794167,-0.011179680936038494,-0.01955581083893776,-0.04169647395610809,-0.023900631815195084,0.06544417142868042,-0.06859055906534195,0.034531258046627045,-0.003724093781784177,0.02608388662338257,0.05703238770365715,-0.04260632023215294,-0.012178361415863037,-0.0024340548552572727,0.027368538081645966,-0.032659366726875305,0.0573544055223465,-0.08571933954954147,0.04230422526597977,0.04024171456694603,0.02113436907529831,-0.12880302965641022,-0.08618917316198349,0.05414528027176857,0.03567417338490486,0.014102140441536903,0.040591880679130554,0.017543286085128784,-0.09573433548212051,-0.0405685193836689,0.033874787390232086,-0.011586396023631096,-0.07534393668174744,-0.0028506526723504066,-0.012063933536410332,-0.034881409257650375,0.01776878722012043,-0.027449721470475197,-0.06033219397068024,-0.04612211883068085,0.021995028480887413,0.02080448716878891,0.02286318689584732,0.02610081434249878,-0.0267100241035223,-0.016027767211198807,0.020322218537330627,-0.01803956739604473,-0.060120951384305954,-0.04352938383817673,-0.02436099387705326,-0.07459625601768494,0.06616339087486267,-0.05533687025308609,-0.11167407780885696,-0.01365609746426344,-0.03537125512957573,0.0024887961335480213,0.04121360555291176,-0.010806014761328697,-0.019981829449534416,0.04625510051846504,0.026813821867108345,-0.026193613186478615,0.023725682869553566,-0.025632362812757492,-0.08106306940317154,-0.005089377053081989,0.14535921812057495,0.024202439934015274,0.005709817633032799,0.05108723044395447,0.0020022171083837748,0.07094596326351166,-0.03879093378782272,0.013807001523673534,0.05409856140613556,0.16697049140930176,0.008614148013293743,0.0003102256159763783,0.10377220809459686,-0.09046625345945358,0.07974869012832642,0.04452268034219742,-0.0755692720413208,-0.010874641127884388,-0.060483839362859726,0.034813106060028076,-0.03273125737905502,0.011253215372562408,-0.022272992879152298,0.008131170645356178,-0.10095623880624771,-0.056830935180187225,-0.01497562788426876,0.058939047157764435,0.003050335915759206,0.05924224480986595,-0.08199096471071243,-0.018495915457606316,0.09828933328390121,0.018954740837216377,-0.06479845196008682,-0.020276274532079697,0.03385072946548462,0.09015796333551407,-0.07962175458669662,-0.019514208659529686,-0.011935140937566757,-0.05262226238846779,0.01342039555311203,0.006691523361951113,-0.013514413498342037,-0.002052171388641,-0.045544061809778214,-0.04123718664050102,0.11475154012441635,-0.003767963033169508,-0.39696526527404785,0.051617175340652466,0.020985525101423264,0.0037796299438923597,-0.08226121962070465,0.20646044611930847,0.04719734564423561,0.06257893145084381,0.03865358978509903,-0.05317138507962227,-0.12100201845169067,-0.056801486760377884,-0.08426125347614288,0.08448342233896255,-0.02936507761478424,0.03875331953167915,0.056817229837179184,-0.045163344591856,0.0745435282588005,-0.052918754518032074,-0.030156496912240982,-0.1408965289592743,-0.013809348456561565,-0.057226214557886124,0.03322063013911247,-0.004863907117396593,-0.01859578676521778,0.08095500618219376,0.12256134301424026,-0.02319183014333248,0.3253229260444641,0.07509545981884003,-0.02913123182952404,-0.050001468509435654,0.0017675466369837523,0.0259381216019392,-0.04679381474852562,0.06486434489488602,-0.0013801142340525985,-0.13145701587200165,-0.07665251940488815,-0.01682901382446289,0.022708311676979065,0.10369613021612167,-0.04706074297428131,0.0927295908331871,0.0842287540435791,-0.03859119117259979,0.014057479798793793,0.026526760309934616,0.0699029490351677,-0.029183262959122658,-0.0478275790810585,0.024098169058561325,-0.05555623769760132,-0.10848016291856766,-0.04433353617787361,0.00687005091458559,-0.04768073931336403,-0.019235340878367424,-0.06157578527927399,-0.048432040959596634,0.07947301119565964,0.050987426191568375,-0.25832557678222656,0.06203258037567139,0.003348744008690119,0.08816754072904587,-0.041040703654289246,-0.05016811937093735,0.1116664931178093,0.025061458349227905,0.0676945224404335,0.05566737800836563,-0.06161581352353096,0.02549762651324272,0.04670288786292076,0.056831225752830505,-0.051898401230573654,0.033843863755464554,0.010360906831920147,0.00285744434222579,-0.07426538318395615,0.025725914165377617,0.041914936155080795,0.06302912533283234,0.009655431844294071,0.02188033238053322,-0.000451027910457924,0.07356958091259003,-0.008788319304585457,-0.12377111613750458,-0.020762404426932335,-0.030496099963784218,-0.04947984591126442,-0.0035142782144248486,-0.004686123225837946,-0.060170985758304596,0.05629539489746094,-0.012619702145457268,-0.15972232818603516,-0.0016275126254186034,-0.0028495502192527056,-3.1048053642734885e-05,0.04861455038189888,-0.03244755417108536,-0.0432850643992424,0.022250814363360405,0.07254485785961151,-0.06027758866548538,0.007037105970084667,0.03789467737078667,0.01123273465782404,-0.08015413582324982,0.032554470002651215,0.00876242108643055,0.035554803907871246,0.03952231630682945,0.004098633769899607,-0.012407123111188412,0.00673959543928504,0.0605306476354599,-0.006418018601834774,-0.008976083248853683,0.02198575809597969,-0.03570353984832764,0.03427747264504433,0.1203041598200798,0.02742011845111847,0.025982962921261787,-0.004586562514305115,-0.005900304764509201,-0.08541430532932281,0.042357224971055984,-0.053775541484355927,0.008919290266931057,0.017315581440925598,0.015267645008862019,-0.10794664174318314,0.06297076493501663,0.010351615026593208,0.03396214544773102,-0.014287360943853855,0.038968972861766815,0.006083904765546322,0.16144797205924988,0.02242574468255043,0.02648583985865116,-0.014566568657755852,0.018612025305628777,-0.031013229861855507,-0.01974579505622387,0.000853189209010452,0.014810968190431595,-0.0394744798541069,0.028493190184235573,-0.014842343516647816,-0.018535887822508812,-0.0057199313305318356,-0.011997717432677746,-0.03628833219408989,0.01216234639286995,-0.0254700668156147,-0.023788833990693092,-0.0022833519615232944,-0.0676838606595993,0.04593151807785034,-0.04163018986582756,0.07307960838079453,-0.013324299827218056,0.09587737172842026,-0.10690735280513763,0.033349476754665375,0.08515215665102005,-0.008642303757369518,-0.014916184358298779,-0.028348634019494057,-0.02604343369603157,0.014467296190559864,0.023279665037989616,0.015194656327366829,0.11856311559677124,-0.015073996037244797,-0.0284561887383461,0.04923612251877785,0.011775124818086624,-0.03223545476794243,0.0035482747480273247,0.0163946021348238,-0.0013812985271215439,0.01584777422249317,-0.02979486994445324,0.015538190491497517,-0.026192190125584602,-0.08749508857727051,0.01604718156158924,-0.11398438364267349,-0.20520859956741333,-0.059485115110874176,0.03311268612742424,0.03375229984521866,-0.03789755702018738,-0.02865494228899479,-0.022756103426218033,0.010047119110822678,0.07659279555082321,0.018981311470270157,-0.04350953921675682,0.020157277584075928,0.1324491649866104,0.013244668021798134,0.03586708381772041,-0.07733562588691711,0.01033862866461277,-0.007942017167806625,0.03909175097942352,-0.0577939935028553,-0.07321861386299133,-0.06677857786417007,-0.01595928519964218,-0.04094921052455902,0.008479231037199497,-0.08178107440471649,0.03715706244111061,0.035591818392276764,0.016103006899356842,0.020496957004070282,0.057452861219644547,0.057011678814888,-0.036131005734205246,0.060897331684827805,-0.04318113997578621,0.0025745416060090065,0.019880106672644615,-0.023115837946534157,-0.021609682589769363,-0.05571562796831131,-0.04825546592473984,0.04328200966119766,0.006135446485131979,0.03234388679265976,-0.036006033420562744,-0.0141990315169096,-0.007998742163181305,0.03651754930615425,0.02803596667945385,-0.002829001285135746,-0.0019843897316604853,0.03227601200342178,-0.003423742949962616,0.05004963278770447,-0.087635837495327,0.017099108546972275,-0.05614626407623291,0.027848001569509506,0.01707591861486435,-0.0939253643155098,-0.01898820698261261,-0.062440745532512665,0.001559461816214025,0.1272360235452652,0.12842631340026855,0.07121532410383224,-0.024463748559355736,0.013162440620362759,-0.006493853870779276,0.031382497400045395,-0.010133398696780205,-0.04099634289741516,-0.008410627953708172,-0.05646956339478493,-0.02072959952056408,0.004044823348522186,-0.05905811861157417,-0.03533339872956276,-0.03787463530898094,-0.009749121032655239,-0.02728319726884365,0.015773596242070198,-0.013249560259282589,0.040868908166885376,0.018969694152474403,-0.112942174077034,-0.06123112887144089,-0.043472278863191605,-0.014961921609938145,0.10586483031511307,-0.034082185477018356,0.027004458010196686,-0.06258103996515274,0.03237265348434448,0.006837093271315098,-0.03257486969232559,-0.030357636511325836,0.020312000066041946,-0.04337606951594353,0.017945894971489906,-0.06781382858753204,-0.05575618892908096,0.021408990025520325,0.0017272866098210216,0.025631848722696304,-0.01479012705385685,0.03380545973777771,-0.02659795992076397,-0.008759982883930206,-0.028088541701436043,-0.016642209142446518,0.02201407589018345,-0.0057468716986477375,0.009719213470816612,-0.006075303070247173,-0.033423855900764465,0.00025861855829134583,-0.06627955287694931,-0.010541358031332493,-0.03965059295296669,-0.06330200284719467,
-0.11789131909608841,-0.050177063792943954,-0.02394336275756359,-0.022583797574043274,0.03977648913860321,0.02476765215396881,0.0018967617070302367,-0.02284397929906845,0.004712498281151056,-0.04770319536328316,0.011053375899791718,0.03845689073204994,-0.008493189699947834,-0.023810436949133873,0.12452652305364609,-0.02564745582640171,-0.0426151305437088,-0.08098017424345016,-0.0446331612765789,-0.0097730103880167,-0.007665522862225771,0.008186048828065395,0.05693193897604942,-0.02227982133626938,-0.026201222091913223,-0.04269428923726082,0.030108526349067688,-0.060474690049886703,-0.06424769014120102,0.00025027227820828557,-0.04206470772624016,0.028109686449170113,0.046057309955358505,-0.04054689779877663,-0.03578081727027893,0.014712867327034473,-0.025188246741890907,0.011460384353995323,0.007794665172696114,0.005407382734119892,-0.15602126717567444,-0.040619198232889175,0.03527039662003517,-0.04460882395505905,-0.05788940191268921,0.042469192296266556,-0.06624718010425568,0.011670621111989021,-0.018126269802451134,-0.03211159631609917,-0.009430148638784885,0.017582997679710388,-0.05161512270569801,0.024471402168273926,0.0004788019577972591,-0.04870663955807686,0.001158232567831874,-0.08539353311061859,0.02734234556555748,-0.0027387221343815327,-0.030213087797164917,0.045165035873651505,-0.032648298889398575,-0.04692843556404114,0.16460271179676056,-0.11824250966310501,0.06643512845039368,0.017104798927903175,0.019061075523495674,0.04599987715482712,-0.022216161713004112,0.058281540870666504,-0.012124588713049889,0.01565723679959774,0.06578918546438217,-0.0310892965644598,0.046891018748283386,-0.0432712659239769,0.09816596657037735,0.0805378407239914,0.0020177385304123163,-0.0875125452876091,0.04211963340640068,-0.01098791602998972,0.06986524164676666,-0.004674658179283142,-0.0348115935921669,-0.08134328573942184,-0.03249480575323105,0.008881415240466595,0.04264559969305992,-0.03879743069410324,0.023126639425754547,-0.0470128133893013,-0.034294579178094864,0.031101830303668976,0.06068607419729233,0.06403795629739761,-0.016269970685243607,0.02545863389968872,0.012685953639447689,0.008047310635447502,0.04244992882013321,0.023665018379688263,-0.0952860414981842,-0.03029589354991913,0.11167324334383011,-0.027077870443463326,0.06453747302293777,0.006741974037140608,0.03557118400931358,0.06861499696969986,-0.0644952803850174,0.014281729236245155,-0.025605838745832443,-0.006299189757555723,0.07204977422952652,0.07847681641578674,-0.009564490057528019,0.018307596445083618,-0.014495842158794403,-0.03741971403360367,-0.0008814510074444115,0.07757594436407089,-0.007567224558442831,-0.004500896204262972,-0.017827287316322327,0.12754476070404053,0.04299502074718475,-0.003450182033702731,-0.062831811606884,0.012201346457004547,-0.0013854310382157564,0.10017690062522888,-0.0024163101334124804,0.01014785561710596,0.01895637810230255,-0.032280877232551575,0.05493076890707016,0.010031390935182571,-0.011624285951256752,0.028585392981767654,0.00029009737772867084,-0.057068586349487305,-0.03742837905883789,-0.062111493200063705,0.007375895511358976,-0.038552384823560715,0.0016446925001218915,-0.0011920735705643892,-0.024087395519018173,0.009286820888519287,0.03552919253706932,0.009104333817958832,-0.024625249207019806,-0.06472271680831909,0.01835978962481022,-0.08157969266176224,-0.049504391849040985,0.015859531238675117,0.16127274930477142,-0.09764661639928818,-0.05906442180275917,-0.0466880276799202,0.0219665989279747,0.022574717178940773,-0.004694559145718813,0.0391283854842186,-0.0465141125023365,-0.03811926394701004,0.04411979019641876,0.008537144400179386,-0.01703535206615925,-0.00842882040888071,-0.0006044770707376301,0.1619160771369934,-0.06388425827026367,0.013999897055327892,-0.001897425507195294,-0.00013068626867607236,-0.018425658345222473,0.005853804759681225,0.056219663470983505,0.04987140744924545,-0.01717507280409336,0.09889788180589676,0.041766878217458725,-0.006458495743572712,-0.024548862129449844,-0.024360748007893562,0.00732053117826581,0.07410635054111481,0.07049640268087387,0.02428819052875042,0.09935037046670914,0.001152482465840876,0.054606836289167404,0.005533955059945583,-0.011740462854504585,-0.013215594924986362,-0.0327569954097271,-0.042908716946840286,0.017413746565580368,0.000673089933115989,-0.03930120915174484,-0.12602603435516357,0.07279954850673676,-0.025337906554341316,-0.14476263523101807,0.0848616361618042,0.04105089604854584,0.022232171148061752,0.019260000437498093,0.010817088186740875,-0.0013028949033468962,-0.0877990648150444,0.018829530104994774,0.004238259978592396,0.029910316690802574,0.002330672461539507,-0.020411118865013123,-0.027372900396585464,-0.0957622304558754,0.00497780367732048,-0.082652747631073,0.014766276814043522,-0.011112600564956665,-0.00475845905020833,0.031165149062871933,0.01990877464413643,-0.02795417606830597,-0.018575280904769897,0.04327786713838577,-0.06197790801525116,0.01691911183297634,-0.029877323657274246,0.046018145978450775,-0.1027732789516449,-0.049056727439165115,0.017405040562152863,0.043674860149621964,-0.08155105262994766,-0.03898746147751808,0.006658890284597874,0.02852715365588665,0.02004583738744259,-0.02389606274664402,-0.06643540412187576,0.11609180271625519,0.025064578279852867,-0.008077343925833702,0.09271684288978577,-0.06856787949800491,0.08593999594449997,0.006960668601095676,0.04162820056080818,-0.04326910153031349,-0.008553896099328995,-0.3207332491874695,0.01573953591287136,-0.01588801108300686,0.04956481605768204,-0.05052313581109047,0.037982676178216934,0.06757302582263947,0.12833040952682495,0.055108729749917984,0.01170280110090971,-0.10776522755622864,0.06941135227680206,0.05949906259775162,-0.07294773310422897,-0.20298504829406738,-0.14788654446601868,-0.028496909886598587,0.01435742899775505,0.004576879553496838,0.18638333678245544,-0.040979426354169846,-0.09478331357240677,0.07460395991802216,-0.04146977886557579,0.040565766394138336,-0.04808703064918518,0.02926374413073063,-0.08475730568170547,0.00737500935792923,0.08799783140420914,-0.12177658081054688,0.05466943979263306,-0.0028541646897792816,-0.03212442249059677,-0.03379226475954056,0.010085620917379856,0.07173580676317215,-0.005824729334563017,-0.04440881311893463,-0.14747634530067444,-0.004888815805315971,0.11360563337802887,0.23345598578453064,0.0020466118585318327,-0.1378391832113266,-0.03123132325708866,0.07649773359298706,-0.05855090171098709,-0.1018541157245636,0.06075562164187431,0.15177254378795624,-0.06271310150623322,-0.11860525608062744,-0.018219346180558205,-0.08689896762371063,-0.08155915141105652,-0.03986611217260361,-0.015064792707562447,0.03874891251325607,-0.10455335676670074,0.00267019122838974,-0.10185036808252335,0.01585826463997364,-0.0009587752283550799,-0.030282702296972275,0.0025064521469175816,0.09999488294124603,-0.03550652787089348,0.0513434000313282,0.03600068762898445,0.04708174243569374,0.039857372641563416,0.0003861556760966778,0.0864701122045517,-0.03804527223110199,0.03935719653964043,0.02109718509018421,-0.036943186074495316,0.014689207077026367,0.03167857229709625,0.0005706117954105139,0.06173866242170334,-0.012324539013206959,0.1300610601902008,-0.13159194588661194,0.03253765031695366,0.007457684259861708,0.05184130743145943,0.07189924269914627,-0.2241154909133911,0.06401366740465164,-0.11707119643688202,0.0519963763654232,-0.08791440725326538,-0.0440770722925663,0.09228386729955673,-0.2532847821712494,0.10982789844274521,-0.010057653300464153,0.0443139486014843,0.07977881282567978,0.036127831786870956,-0.019021855667233467,-0.10866327583789825,-0.08076970279216766,-0.07273093611001968,0.07161668688058853,-0.041916392743587494,-0.05102458596229553,-0.14491479098796844,0.05668622627854347,0.020647555589675903,-0.09821879863739014,-0.007667075842618942,0.014114441350102425,0.06996283680200577,0.03728998824954033,-0.053018081933259964,0.0807923749089241,-0.04345933347940445,0.04600254446268082,0.026766585186123848,-0.04135960713028908,-0.009925361722707748,0.005536260548979044,-0.043280843645334244,-0.036361005157232285,0.015321937389671803,-0.063618004322052,0.0010794998379424214,0.009944967925548553,-0.008538132533431053,-0.023124996572732925,0.053560998290777206,0.02532215788960457,-0.009216069243848324,-0.018702948465943336,0.05013012886047363,-0.09626559168100357,-0.01869395561516285,0.028736108914017677,0.03562808781862259,-0.019752755761146545,0.0038188155740499496,0.04372376576066017,-0.08519993722438812,0.02225472591817379,0.012050488963723183,0.05077466368675232,-0.03447401151061058,0.023291846737265587,-0.015282663516700268,0.021017858758568764,0.021761883050203323,0.06091201677918434,0.012035258114337921,0.11667058616876602,-0.0187433660030365,-0.028642255812883377,-0.0019838351290673018,-0.008515854366123676,0.06814000010490417,0.05498450994491577,-0.03050306625664234,0.06463991105556488,0.020034808665513992,-0.030083412304520607,-0.021538404747843742,-0.0008298044558614492,0.0007509308052249253,-0.021637702360749245,0.01471478771418333,0.036806050688028336,-0.029442166909575462,0.03960616886615753,-0.049804288893938065,-0.005851026624441147,0.033844076097011566,-0.03976568207144737,0.05882101133465767,-0.03393379598855972,0.009060191921889782,-0.03334419056773186,0.02399691380560398,-0.06616366654634476,0.04622356966137886,-0.03238198161125183,-0.001697829458862543,0.022825077176094055,-0.03636491671204567,-0.03836367651820183,0.023664100095629692,-0.08031465113162994,-0.006591127719730139,0.014750338159501553,0.03190067037940025,0.1388864666223526,-0.026273999363183975,-0.020243417471647263,0.03755996748805046,0.014463242143392563,-0.11522992700338364,-0.14138095080852509,-0.038592830300331116,0.03399910405278206,-0.046158138662576675,-0.08142589032649994,-0.07179902493953705,-0.02547415718436241,-0.07866780459880829,-0.02659718692302704,-0.03215266391634941,0.16211114823818207,0.07074494659900665,-0.09612112492322922,-0.18915462493896484,-0.010348989628255367,0.0069237663410604,-0.11091674119234085,0.02886413037776947,-0.014766355976462364,-0.03150397166609764,-0.037918899208307266,-0.004874284379184246,-0.12715093791484833,0.04217620939016342,0.013903388753533363,0.12185457348823547,-0.02290065586566925,-0.16364364326000214,0.012286839075386524,-0.10629940032958984,0.04979679360985756,-0.05065574124455452,-0.08475933223962784,-0.03636353090405464,-0.06905404478311539,-0.005614769645035267,0.08134584128856659,-0.12662482261657715,-0.004050831310451031,0.028736775740981102,0.01943044923245907,-0.016923727467656136,-0.044409945607185364,0.1047644317150116,-0.07964204251766205,0.0024842412676662207,-0.042605746537446976,-0.03782082349061966,-0.11588205397129059,-0.14193817973136902,0.04185457155108452,0.0919320285320282,0.04449751600623131,-0.017722981050610542,-0.03522864356637001,0.04632941633462906,0.0016833364497870207,-0.0030250668060034513,-0.010043352842330933,0.012105445377528667,0.004840595182031393,0.004153703339397907,0.024382343515753746,-0.019013768061995506,-0.058703333139419556,0.047780416905879974,0.006051652133464813,-0.04175708815455437,-0.034845318645238876,0.021358691155910492,0.07382185757160187,-0.07014313340187073,-0.07506551593542099,-0.01663525588810444,-0.247587189078331,0.020371602848172188,0.024031201377511024,0.040447842329740524,-0.03511153161525726,2.8840446248068474e-05,0.04120854288339615,0.06253238022327423,0.045151468366384506,0.03955034911632538,0.016990510746836662,-0.012989877723157406,-0.08507613092660904,-0.055531084537506104,-0.06578363478183746,0.027126597240567207,-0.037064552307128906,-0.0590476393699646,0.07784991711378098,0.05486702919006348,0.0020316927693784237,-0.06997187435626984,-0.03285299986600876,-0.05282077565789223,0.047097351402044296,-0.022766191512346268,0.024220503866672516,-0.02865280769765377,0.00561189092695713,0.054556287825107574,0.01667126454412937,0.012444654479622841,0.014851988293230534,0.04807790741324425,0.02797546796500683,0.044700998812913895,-0.025164373219013214,-0.04085677117109299,-0.02311025559902191,0.027428094297647476,-0.037418775260448456,0.0330791138112545,
0.024781163781881332,-0.11420232802629471,0.03326915204524994,0.0073146154172718525,0.038680676370859146,-0.06689167767763138,0.01937117613852024,-0.0398666150867939,0.03760071098804474,0.035876162350177765,-0.021124087274074554,0.01691914163529873,0.00976733211427927,0.05191606655716896,-0.047066062688827515,-0.068269744515419,-0.13486459851264954,0.01803882233798504,0.019381718710064888,0.1152515783905983,0.012937302701175213,0.03171981871128082,-0.007056054659187794,0.0062323883175849915,0.04409902170300484,0.01332320086658001,0.0031467287335544825,0.020450444892048836,-0.02963312715291977,0.08709842711687088,0.01969394087791443,0.010393165983259678,-0.02008695900440216,-0.01714123599231243,0.002083847764879465,-0.03614938259124756,-0.02091953717172146,0.029379090294241905,0.026820272207260132,-0.02600930444896221,-0.050927262753248215,0.030738482251763344,0.01142649445682764,-0.05276123806834221,0.018893178552389145,-0.02403467707335949,0.022337043657898903,-0.03873489797115326,-0.011767378076910973,-0.05718472599983215,0.012890848331153393,0.021250031888484955,0.007415396627038717,-0.06961241364479065,0.017119131982326508,0.03462648764252663,0.03353117033839226,0.006478852592408657,-0.036766957491636276,0.005174171179533005,-0.029357628896832466,0.025176744908094406,-0.0015149309765547514,-0.03294561803340912,0.014883803203701973,-0.06913862377405167,0.02550484798848629,-0.06387941539287567,0.02363731898367405,0.06540317833423615,0.0007500873762182891,0.021909836679697037,0.032506417483091354,-0.08556446433067322,-0.11177689582109451,0.06267939507961273,0.02229100465774536,0.17791487276554108,-0.02945302240550518,-0.04816943407058716,0.0272290650755167,-0.014624993316829205,-0.07418038696050644,0.11455642431974411,0.002561283763498068,0.012010941281914711,-0.00149184197653085,-0.002378272358328104,0.043837688863277435,0.04706922173500061,0.00015401827113237232,-0.050472840666770935,0.05501163750886917,0.17478232085704803,0.024044444784522057,-0.05425235629081726,-0.12450607866048813,-0.17503030598163605,0.019249986857175827,0.08702275902032852,-0.007759698200970888,0.04360103979706764,0.05025868117809296,0.0328325554728508,0.09544773399829865,0.018014321103692055,-0.11065665632486343,0.009510163217782974,0.10570281744003296,-0.03345524147152901,-0.019868696108460426,-0.006055190693587065,0.025386005640029907,0.005423244088888168,-0.05196226388216019,0.05119442567229271,0.015243501402437687,0.10258382558822632,0.07446274906396866,-0.014856408350169659,0.013736912049353123,0.15836822986602783,0.037566788494586945,0.014925254508852959,-0.0010253177024424076,-0.07304836809635162,-0.012704119086265564,0.07404885441064835,-0.05429950729012489,-0.03640245646238327,0.029687006026506424,0.003157936269417405,-0.006127628032118082,0.13665661215782166,-0.02298598736524582,-0.04778069630265236,0.1242431104183197,-0.03518575057387352,0.028450649231672287,0.011558497324585915,-0.013441243208944798,0.001603631884790957,0.011815167963504791,-0.046865977346897125,0.02629936672747135,0.01593286730349064,0.00391180906444788,0.030187245458364487,0.009723242372274399,-0.017367741093039513,-0.05424950644373894,-0.005703839939087629,0.020884783938527107,0.025582842528820038,0.02938181534409523,-0.01653597690165043,-0.04844558611512184,-0.014973640441894531,0.011659940704703331,-0.038149069994688034,-0.05387317016720772,0.07922212034463882,-0.044527553021907806,-0.06352441012859344,0.015229692682623863,-0.01768183894455433,-0.01262870617210865,0.001905179349705577,-0.016181452199816704,0.018251465633511543,0.03327437490224838,0.0010101062944158912,-0.008464933373034,0.028263013809919357,0.03099382296204567,0.09260457009077072,-0.0316801443696022,0.03673646226525307,0.03103684075176716,-0.0545438677072525,0.028853263705968857,0.03994208574295044,0.06901869922876358,0.019365457817912102,-0.030280012637376785,0.04888099059462547,0.005951660219579935,-0.004822308663278818,-0.055672537535429,-0.01095887366682291,0.0006287646247074008,0.03530878573656082,0.05418916419148445,0.10319210588932037,0.03311596438288689,-0.04528817906975746,-0.037949997931718826,0.016763219609856606,-0.06854864954948425,0.022978229448199272,0.015945041552186012,-0.03711386397480965,0.04951607435941696,-0.012775742448866367,-0.08641425520181656,0.14988163113594055,0.0003141912748105824,-0.006634056568145752,0.15842902660369873,0.029282616451382637,0.05991725996136665,0.02888471446931362,-0.0005993019440211356,-0.06198316067457199,0.007595911156386137,-0.013956550508737564,-0.07859742641448975,0.12209407240152359,-0.018340758979320526,-0.020337659865617752,-0.15408013761043549,0.03442757576704025,0.037301599979400635,-0.08229397237300873,0.0005901008262299001,0.0920969769358635,0.006631416268646717,0.033923760056495667,0.024993784725666046,0.0006003585294820368,0.03206142410635948,-0.0031366334296762943,0.04116273671388626,-0.0018768524751067162,-0.04073149338364601,0.053027499467134476,0.05680297315120697,-0.010377299971878529,-0.0227714441716671,-0.017826449126005173,0.01271965354681015,-0.012891307473182678,-0.03588871285319328,-0.013049064204096794,-0.07383960485458374,-0.1725478172302246,0.0062792799435555935,0.05510735511779785,0.0016948234988376498,0.07705409079790115,-0.0875481441617012,0.02673271857202053,0.045421987771987915,0.047124385833740234,-0.034336380660533905,0.0051415907219052315,-0.07484293729066849,-0.04881589487195015,0.1413320004940033,-0.04171571880578995,0.16354632377624512,0.03891691565513611,0.09150223433971405,-0.10122856497764587,-0.12210075557231903,-0.12468329817056656,0.054496508091688156,-0.08745595067739487,0.06437607109546661,-0.19323591887950897,-0.0022430906537920237,-0.13668464124202728,-0.029852811247110367,-0.008093957789242268,0.02887621335685253,-0.06202300637960434,0.0010121127124875784,-0.15803739428520203,0.06299103051424026,0.18341082334518433,0.12423545867204666,0.0842520222067833,-0.07538362592458725,-0.0043535539880394936,0.04145045578479767,-0.0032523893751204014,0.09888716042041779,0.09567909687757492,-0.0858951136469841,0.03446726128458977,0.04310540109872818,0.01829468458890915,0.014458194375038147,0.014708529226481915,0.01445787400007248,0.015031206421554089,0.09592732042074203,0.06799475103616714,0.08031140267848969,-0.05444008857011795,0.20504935085773468,-0.040371015667915344,-0.11648842692375183,-0.0716065764427185,0.025265736505389214,0.06496072560548782,0.02010337822139263,-0.10744760185480118,-0.05860479548573494,0.07779691368341446,-0.14967726171016693,-0.04906223341822624,0.09666033089160919,0.03159574419260025,0.04772154614329338,0.07830537110567093,-0.1895260214805603,0.04295527935028076,-0.07552928477525711,0.2145085632801056,0.014797192998230457,0.013251557014882565,-0.038218703120946884,-0.08433189988136292,0.019743874669075012,0.01927150972187519,-0.02176322415471077,-0.053947482258081436,0.16730760037899017,-0.06444820016622543,0.029680533334612846,-0.039476972073316574,-0.0284620001912117,0.05266557261347771,0.022958051413297653,-0.08528047800064087,0.00036989100044593215,0.009337048977613449,-0.01895245909690857,0.07099119573831558,0.01747986115515232,0.034720275551080704,-0.09399155527353287,0.019657785072922707,-0.003904277691617608,0.09552466124296188,0.16213896870613098,-0.02567923069000244,-0.04678233340382576,-0.09287058562040329,-0.011612819507718086,0.0076362439431250095,0.08730082213878632,0.0748201385140419,0.08269328624010086,-0.06644340604543686,0.009015460498631,-0.038642071187496185,0.11071322113275528,-0.007889533415436745,-0.010288973338901997,-0.008215510286390781,0.00943049043416977,0.02376800961792469,0.10252101719379425,-0.0362338088452816,-0.031640950590372086,0.027851024642586708,0.012307471595704556,-0.011387807317078114,-0.0381830669939518,-0.027364617213606834,-0.046272408217191696,0.019525719806551933,0.011736801825463772,0.05029136314988136,0.06512848287820816,-0.007868439890444279,0.009599805809557438,-0.02373991534113884,-0.0259399376809597,-0.051160864531993866,-0.0382600873708725,0.07561112195253372,0.018890179693698883,0.0031455829739570618,-0.04362783953547478,-0.021769490092992783,-0.04561658948659897,-0.010879579000175,-0.027664178982377052,-0.05177612975239754,0.00890614278614521,-0.012659757398068905,-0.012199955061078072,-0.019777022302150726,0.03843726962804794,0.031215237453579903,-0.006259468384087086,-0.05233550816774368,-0.02361617423593998,-0.04730430245399475,-0.016797130927443504,0.02705705165863037,0.008916120044887066,-0.013674139976501465,-0.026418399065732956,-0.03115331195294857,-0.037698592990636826,0.0768449604511261,-0.017392108216881752,0.03169039636850357,-0.05054980888962746,0.0004713555390480906,0.06594463437795639,0.04688301309943199,-0.06545663625001907,0.012365918606519699,0.029177093878388405,0.011202014982700348,0.026487810537219048,0.004567396827042103,0.008604020811617374,0.022578665986657143,-0.0019755277317017317,-0.0003347416059114039,0.009989090263843536,0.004203495569527149,0.03337448090314865,-0.1314128339290619,-0.07764960080385208,0.008613478392362595,-0.03340646252036095,-0.022284606471657753,0.013496452942490578,-0.011864783242344856,-0.0028113005682826042,-0.0080336332321167,-0.024595003575086594,-0.07582250982522964,0.05730566009879112,0.02403077483177185,-0.026389766484498978,0.013752128928899765,-0.011943746358156204,0.06688983738422394,-0.011226519010961056,0.020202597603201866,0.053342342376708984,0.06434954702854156,0.010294384323060513,-0.0382881797850132,0.039778999984264374,-0.02355051040649414,0.02638637088239193,0.001263443729840219,0.048889994621276855,0.03009071759879589,0.011885100975632668,0.018560711294412613,0.03761699050664902,-0.029940307140350342,0.012532483786344528,-0.06585069745779037,0.04261571913957596,0.04773113131523132,-0.028469780460000038,-0.04769902676343918,0.042024463415145874,0.03595557436347008,0.06129641458392143,-0.06341838836669922,-0.06436473876237869,0.08454904705286026,-0.012563210912048817,0.0067130764946341515,-0.07102112472057343,0.06220727041363716,-0.025516003370285034,0.09396849572658539,-0.06787650287151337,0.014375937171280384,0.012454625219106674,-0.08594315499067307,-0.20550024509429932,0.15511974692344666,-0.03616277500987053,-0.024600587785243988,0.014339211396872997,0.014286762103438377,-0.05352369323372841,0.07187695056200027,-0.09339658915996552,-0.01519070751965046,-0.04444439709186554,0.043094199150800705,-0.026823338121175766,-0.0369868241250515,-0.02734355814754963,-0.019000407308340073,-0.02849465236067772,0.01129626389592886,0.00496576726436615,-0.07529386878013611,0.03183797374367714,-0.04373995214700699,-0.07522084563970566,0.03303796425461769,-0.027777040377259254,-0.02206636779010296,-0.018175363540649414,0.016897650435566902,-0.017629282549023628,-0.007813985459506512,-0.12374758720397949,-0.004612755496054888,0.026982026174664497,0.018679887056350708,0.0007309829816222191,-0.003675023326650262,0.05215577781200409,0.0008591532823629677,0.011823800392448902,-0.016987323760986328,-0.020258864387869835,0.014762376435101032,-0.022549381479620934,-0.05278193950653076,0.027702033519744873,-0.018048522993922234,0.01689166948199272,-0.03343344107270241,0.012236214242875576,-0.03202090412378311,-0.027404574677348137,-0.028852639719843864,0.01162770576775074,-0.02921968698501587,-0.059932440519332886,0.025594353675842285,-0.054155487567186356,0.003293378511443734,-0.020400945097208023,-0.07806502282619476,-0.11026076972484589,0.018687091767787933,-0.05968139320611954,-0.03949418663978577,0.0030921665020287037,-0.01703743264079094,0.025493230670690536,0.006840746384114027,0.0073869796469807625,-0.0028319370467215776,-0.021751463413238525,-0.0037148375995457172,0.05340803787112236,-0.03101985529065132,0.016559727489948273,0.028848515823483467,0.09808113425970078,-0.04845293238759041,0.0077555193565785885,-0.05424845218658447,-0.008617260493338108,-0.002840612316504121,0.04352608323097229,0.0345902293920517,-0.0098998062312603,-0.00546853756532073,-0.0802508294582367,-0.0515265017747879,-0.04717322811484337,-0.0408802255988121,-0.03331247344613075,0.008106013759970665,
0.04562672600150108,-0.0054725827649235725,-0.025298813357949257,0.027482982724905014,-0.030412444844841957,-0.013763641938567162,0.0025418067816644907,-0.08793778717517853,-4.909475319436751e-05,0.029705462977290154,0.0482032336294651,-0.01434009987860918,0.018220320343971252,-0.023459872230887413,-0.054992832243442535,0.025308365002274513,0.12329532206058502,0.14719079434871674,0.033794060349464417,-0.03758372738957405,-0.06730344146490097,0.010424353182315826,-6.298799416981637e-05,-0.02933083102107048,-0.008023601025342941,0.05653955042362213,0.05690418928861618,-0.011716754175722599,-0.07677697390317917,-0.027650129050016403,0.06508950889110565,-0.006301864515990019,0.017943786457180977,-0.008720132522284985,-0.018018202856183052,-0.005174295045435429,-0.037919867783784866,0.028219787403941154,-0.039589542895555496,-0.07099170982837677,-0.07913128286600113,-0.042541779577732086,0.03278527036309242,7.6817195804324e-05,-0.010918192565441132,0.011638130061328411,-0.004945318214595318,0.024143533781170845,-0.042155683040618896,-0.028238341212272644,0.00523219583556056,0.060260746628046036,0.0005861783865839243,0.06385542452335358,-0.0045061721466481686,0.03008468821644783,-0.04821005463600159,-0.06593465059995651,-0.02172751910984516,0.0206297617405653,-0.023918557912111282,-0.008542779833078384,0.04408518597483635,-0.03391718864440918,0.08543653041124344,0.021102923899888992,0.08362837880849838,-0.015590614639222622,-0.00228361994959414,0.08552169799804688,0.015494223684072495,0.0537840873003006,-0.002636956050992012,-0.015495533123612404,0.008817984722554684,0.020916776731610298,-0.04360269755125046,0.11742407083511353,0.03429277613759041,0.05425732955336571,0.06394696980714798,0.018666597083210945,-0.0418449230492115,-0.024040276184678078,0.0331181064248085,0.09300906211137772,0.08455649018287659,-0.006469449959695339,0.005443022586405277,0.03025244176387787,0.010202363133430481,0.048352085053920746,0.09421870857477188,0.06492649018764496,0.016760921105742455,0.03016291931271553,0.15568307042121887,-0.015374299138784409,0.06336691230535507,-0.05698111653327942,0.006789290811866522,-0.02639707550406456,0.029328960925340652,-0.07235611975193024,-0.013410419225692749,0.054534755647182465,-0.20107175409793854,-0.07551280409097672,0.11260378360748291,-0.023503286764025688,0.0073729283176362514,0.005661292001605034,-0.04758663475513458,-0.07278531044721603,0.06545689702033997,0.025384191423654556,0.028559507802128792,-0.02320922166109085,0.10550495982170105,-0.03050532378256321,0.06665177643299103,-0.052907563745975494,0.012129091657698154,0.045379482209682465,-0.07077473402023315,-0.0033927387557923794,-0.012932254001498222,-0.08382834494113922,0.09337956458330154,-0.055294059216976166,0.04884985089302063,0.1319696456193924,-0.015010233037173748,-0.008288111537694931,-0.009473785758018494,0.06706034392118454,0.0020213343668729067,0.018453575670719147,0.05189213901758194,-0.048290662467479706,0.0032348199747502804,0.019626595079898834,0.002623497974127531,-0.022642258554697037,-0.055640190839767456,-0.023166557773947716,0.012395326979458332,-0.05243351683020592,0.11520017683506012,0.02131582796573639,0.01660243608057499,-0.023954741656780243,-0.0031286191660910845,-0.06744981557130814,-0.03370800241827965,0.012440481223165989,0.011536499485373497,0.09900405257940292,0.01382074411958456,0.010407361201941967,-0.07777038961648941,-0.0475274883210659,0.004205950535833836,-0.006368965841829777,-0.024495990946888924,-0.02014498971402645,-0.05421972647309303,-0.03154127299785614,-0.035734377801418304,0.07218771427869797,-0.0923345759510994,0.01782856322824955,-0.015415620058774948,0.006982342805713415,-0.01783134788274765,-0.024499909952282906,0.030060330405831337,-0.014982281252741814,0.016909508034586906,-0.0052535743452608585,0.005343224853277206,0.0005952186766080558,-0.021743910387158394,0.04350470006465912,-0.0424511693418026,0.019196124747395515,-0.0451720729470253,0.029734106734395027,-0.0183528121560812,-0.02193468250334263,-0.010255509987473488,0.041494421660900116,0.0030847021844238043,-0.041876569390296936,0.022158307954669,0.11510276049375534,0.0025550536811351776,0.013226956129074097,-0.07840079069137573,0.1775825172662735,-0.017482146620750427,0.10490050166845322,-0.04228927567601204,-0.006417527329176664,-0.0765511766076088,-0.01435858104377985,-0.036651574075222015,0.0023361733183264732,0.09544974565505981,-0.043977297842502594,0.02153470739722252,-0.04750249534845352,-0.05832454934716225,0.09960201382637024,0.022563239559531212,0.07455729693174362,-0.04296916723251343,-0.039764657616615295,0.02323153242468834,-0.04527687281370163,-0.02618914656341076,-0.07601689547300339,0.039230749011039734,0.012788021005690098,0.009302468970417976,-0.048245035111904144,0.030762499198317528,-0.017541196197271347,-0.015935143455863,-0.0016676433151587844,-0.02239071950316429,-0.02693265862762928,-0.11462130397558212,0.03759175166487694,0.0008571862708777189,-0.01169490348547697,0.14568202197551727,0.07508914917707443,0.06424946337938309,-0.04282956197857857,0.027056962251663208,0.0024889111518859863,0.03537033125758171,0.019613923504948616,0.013625146821141243,0.03770383447408676,0.04638626426458359,0.04373497888445854,-0.04112963005900383,-0.12558765709400177,0.10773595422506332,0.07736842334270477,0.001354410545900464,-0.03151778131723404,0.01770816557109356,-0.031578291207551956,0.276406854391098,-0.058218181133270264,0.2718018889427185,-0.027553359046578407,0.004394963849335909,0.05938353389501572,-0.011778601445257664,-0.10425528138875961,-0.011814191937446594,-0.025036469101905823,0.09289152175188065,-0.0642494186758995,-0.10006465017795563,-0.10733889788389206,0.011576537974178791,0.10483282804489136,-0.03615185618400574,0.001503215404227376,-0.026284722611308098,-0.08991008251905441,-0.046076081693172455,-0.036878801882267,0.04436218738555908,0.09523215889930725,0.05006879195570946,-0.017087064683437347,0.04635077714920044,0.1963384747505188,0.03898661956191063,-0.06854767352342606,-0.026885032653808594,-0.28883907198905945,-0.2188349962234497,-0.04257843643426895,0.05888638645410538,-0.09623126685619354,-0.05487938970327377,0.008145584724843502,0.05377180874347687,-0.1396055817604065,0.2448982447385788,-0.0799751728773117,0.05007179081439972,-0.091136634349823,0.07688653469085693,-0.012139478698372841,0.1555316150188446,-0.06425800174474716,-0.0708627998828888,0.03159554675221443,0.08658269792795181,0.05462685227394104,-0.09799902141094208,-0.0077613540925085545,0.2384912371635437,0.1889900267124176,-0.09143849462270737,0.13157978653907776,-0.056414928287267685,-0.05959843844175339,-0.13571202754974365,-0.1369529664516449,0.0754062682390213,-0.04922012239694595,-0.05192795768380165,0.02836710400879383,0.012104117311537266,0.06310543417930603,0.08068618178367615,-0.07438696175813675,0.03028855286538601,0.029691973701119423,-0.04156513884663582,0.00998205691576004,-0.06791815906763077,0.03175528347492218,-0.038641307502985,-0.019662056118249893,-0.005919608287513256,0.009573954157531261,-0.05364921689033508,0.03713802620768547,-0.013424034230411053,-0.08229834586381912,0.08941184729337692,0.05110987275838852,0.06307867169380188,-0.028817832469940186,0.021015996113419533,-0.028331074863672256,-0.09163282811641693,0.09012991189956665,0.018525272607803345,0.033476680517196655,0.0156551543623209,-0.010047792457044125,0.177968829870224,-0.011622410267591476,0.03350677341222763,0.06265778094530106,0.0008467466104775667,0.08051605522632599,0.09605245292186737,-0.1430506855249405,0.09212227910757065,-0.01770716719329357,-0.02955922670662403,-0.07373188436031342,0.11471888422966003,0.006793363485485315,0.07354483008384705,-0.06375382095575333,-0.04330304637551308,0.08355572819709778,0.08157225698232651,-0.050872378051280975,0.020026925951242447,0.024533897638320923,0.027018705382943153,0.032364293932914734,0.012480398640036583,-0.14901103079319,0.0065641398541629314,-0.01241141464561224,-0.07945558428764343,0.050449054688215256,0.0790177658200264,-0.12439603358507156,-0.02705017849802971,0.004677376709878445,-0.01796448417007923,0.006893886253237724,0.004660633392632008,-0.0022326442413032055,-0.04511776566505432,-0.01690378598868847,-0.007097118999809027,0.0031157955527305603,0.033811233937740326,-0.0014904190320521593,0.07175861299037933,0.06743122637271881,-0.017783330753445625,0.0593227781355381,-0.06899482011795044,-0.02521374449133873,0.04136845842003822,0.01241237111389637,-0.05492085590958595,-0.007267079781740904,0.006001657340675592,0.022129803895950317,-0.02180725336074829,-0.026400087401270866,-0.009103620424866676,-0.0929688960313797,0.06487499177455902,-0.0010874168947339058,0.06528347730636597,-0.05071309581398964,0.022645866498351097,0.006589233409613371,-0.04435344040393829,-0.0021586203947663307,0.01794825680553913,0.009183679707348347,-0.030456073582172394,0.06884924322366714,-0.04822168126702309,-0.01064543891698122,-0.041442595422267914,-0.008254755288362503,0.04280776157975197,0.010579729452729225,-0.030353037640452385,0.014745461754500866,-0.035303711891174316,0.006368250586092472,-0.01933065429329872,-0.05078243836760521,-0.011769111268222332,0.06784626096487045,0.06195513531565666,0.05072081834077835,-0.05295795574784279,-0.05848538875579834,-0.0406353697180748,-0.04047969728708267,0.019212795421481133,-0.019993849098682404,0.022234952077269554,-0.08165448904037476,0.034675441682338715,0.04754836857318878,0.016441278159618378,-0.05077868327498436,0.04482441768050194,0.05813298746943474,0.13009677827358246,0.08884008973836899,-0.05794224888086319,-0.06810534000396729,-0.03518754616379738,0.026037435978651047,-0.02964078076183796,-0.12397228926420212,0.027607088908553123,-0.0487309955060482,0.0015270871808752418,0.002543151378631592,-0.03563890606164932,-0.010893166065216064,-0.009250042960047722,-0.04306132718920708,0.0898643210530281,0.08027224242687225,0.08207394182682037,-0.0769849568605423,-0.03613788262009621,0.07754632085561752,-0.13074499368667603,-0.04386254772543907,0.07356102764606476,-0.07166693359613419,0.024096226319670677,-0.019858526065945625,-0.03293557092547417,-0.040092989802360535,-0.06423735618591309,-0.004827127791941166,0.06429349631071091,0.13226796686649323,0.05335347726941109,-0.04398571327328682,0.05893595144152641,0.014482970349490643,0.028569497168064117,-0.00298166717402637,-0.01875762641429901,-0.0022913948632776737,-0.0272187702357769,0.04829590395092964,0.07730463892221451,0.023580962792038918,0.017393995076417923,-0.007969538681209087,0.04545292258262634,0.041068173944950104,0.035385388880968094,0.03722120821475983,0.049242518842220306,0.04259643703699112,-0.09082074463367462,0.05713389813899994,-0.018731649965047836,-0.05536365509033203,0.05264894291758537,-0.04602014273405075,-0.02620515786111355,0.12300874292850494,-0.0574180893599987,0.023540349677205086,-0.11563598364591599,-0.08944469690322876,-0.0448068231344223,0.0011851934250444174,0.0416591614484787,0.0018074295949190855,-0.00954405777156353,0.05460187792778015,-0.01566232182085514,0.0017097302479669452,-0.03288338705897331,0.05795173719525337,-0.08267398923635483,0.04859774559736252,-0.0015015037497505546,0.009584935382008553,0.05556264519691467,-0.036401934921741486,0.003949939273297787,-0.008107174187898636,-0.035314951092004776,0.16390962898731232,0.017377762123942375,-0.10140654444694519,-0.03926090896129608,0.008384604938328266,0.026852957904338837,-0.06471937149763107,0.08099464327096939,-0.11945146322250366,-0.09577101469039917,-0.03933098167181015,0.018828829750418663,0.11832138895988464,0.07077910006046295,-0.07278113067150116,0.016908377408981323,0.04914547875523567,0.026469197124242783,-0.042281512171030045,-0.012374486774206161,-0.014695764519274235,-0.1259545236825943,-0.01358113344758749,0.04006228968501091,-0.0328306183218956,-0.009372100234031677,0.021912651136517525,0.08097001910209656,0.04076334461569786,0.02072346955537796,-0.015064801089465618,-0.020041853189468384,-0.03200969845056534,-0.035822413861751556,-0.08295027911663055,-0.01095666829496622,0.045187633484601974,
0.04648691043257713,0.12041483074426651,0.1444801241159439,0.08474714308977127,-0.01628236286342144,0.08535519242286682,-0.01320686750113964,-0.061829209327697754,-0.012416652403771877,-0.041964586824178696,0.0037624617107212543,0.024132179096341133,0.000817911874037236,-0.007858031429350376,0.00506767351180315,0.030717570334672928,0.018968336284160614,0.09553613513708115,-0.005477377213537693,0.07497011125087738,0.05005917325615883,-0.029843326658010483,0.004175192676484585,0.03801557794213295,0.02013297565281391,-0.019753649830818176,-0.017010290175676346,0.02564617432653904,0.009148088283836842,0.04573746398091316,0.034128207713365555,0.0008519811672158539,0.0653364360332489,-0.046949271112680435,0.03256841003894806,0.023585239425301552,0.022343479096889496,-0.0011066652368754148,0.007447746116667986,-0.011438154615461826,0.10521835088729858,-0.043202150613069534,0.07102221250534058,-0.009703119285404682,0.05869843810796738,-0.04484662786126137,0.05029585584998131,-0.013682427816092968,0.036479536443948746,0.012206422165036201,0.0488898903131485,-0.02419327385723591,-0.0048203677870333195,0.09189921617507935,-0.06477157026529312,-0.032697420567274094,0.0015233011217787862,0.0761503353714943,0.029145147651433945,0.03709156811237335,-0.006997694261372089,-0.03529887646436691,-0.016102464869618416,-0.014987966045737267,-0.15186285972595215,0.0772843286395073,0.13091541826725006,0.2054172307252884,0.032777026295661926,-0.05186149477958679,-0.09347671270370483,-0.03957710415124893,0.06372720003128052,-0.007807270623743534,-0.054980043321847916,-0.025702722370624542,-0.040658820420503616,0.05080314353108406,-0.03280303627252579,0.17607909440994263,0.002104970393702388,0.10755599290132523,0.022721415385603905,-0.02293110266327858,-0.013240715488791466,0.018341701477766037,0.06824129074811935,0.0901203453540802,-0.012800263240933418,-0.01367374137043953,0.011748545803129673,0.10537301748991013,-0.04596361517906189,0.13360561430454254,-0.003121297573670745,-0.03550681844353676,0.06007945537567139,-0.008839217014610767,-0.04225348308682442,-0.003375099040567875,-0.009133057668805122,0.05966697633266449,0.0003093692066613585,0.036133911460638046,-0.033762458711862564,0.028638601303100586,0.04672766849398613,-0.04929247498512268,-0.04308063164353371,0.07618948072195053,0.10084591060876846,0.0013736567925661802,-0.015356157906353474,0.09576810151338577,0.11822067946195602,-0.1000375971198082,0.05523999407887459,-0.1183915063738823,-0.04228903725743294,0.06617516279220581,0.01469119731336832,0.011620108969509602,0.013923256658017635,-0.017867231741547585,0.04176316410303116,0.011572372168302536,0.015241914428770542,0.0558924674987793,0.04456821456551552,0.011919135227799416,-0.019409481436014175,-0.05898931622505188,-0.00333013036288321,-0.06582940369844437,-0.021821189671754837,-0.03268229961395264,-0.0463457852602005,0.01353304460644722,0.021110083907842636,0.033087730407714844,-0.04221666604280472,0.007477605249732733,-0.03169557452201843,-0.014880789443850517,-0.006238881964236498,-0.008278945460915565,-0.01845126785337925,0.006420501507818699,-0.059007592499256134,-0.006965851876884699,0.032306522130966187,0.058030616492033005,0.026110898703336716,0.028058160096406937,0.005644138902425766,-0.04337840527296066,0.020015796646475792,0.07170581817626953,-0.012115583755075932,-0.022060591727495193,0.02641819790005684,-0.10556097328662872,0.04156702384352684,-0.06480841338634491,-0.02011662907898426,0.015109102241694927,-0.02353709191083908,0.02464383840560913,-0.003018102375790477,0.06825756281614304,-0.012063185684382915,-0.004923774860799313,-0.005448238458484411,0.014915579929947853,-0.029118891805410385,0.022094514220952988,-0.052885401993989944,-0.04748935252428055,0.033438149839639664,-0.030051983892917633,0.0018655200256034732,0.013686168007552624,-0.0038751300889998674,-0.04686226323246956,-0.013447395525872707,-0.040957771241664886,0.039609428495168686,0.019951164722442627,-0.02055051177740097,-0.011607885360717773,0.002101924503222108,-0.0008135629468597472,-0.01986604556441307,0.03787090629339218,-0.010585983283817768,-0.007030360400676727,-0.09222693741321564,-0.02993907779455185,-0.011957626789808273,-0.04437243938446045,0.007421970833092928,0.01904500275850296,-0.028815042227506638,-0.010265498422086239,-0.0547497496008873,0.014332298189401627,-0.04075326770544052,0.015972428023815155,-0.17127305269241333,-0.004672492388635874,0.005424670409411192,-0.021071583032608032,-0.010288932360708714,0.02744576893746853,0.011299846693873405,-0.046396929770708084,0.0033777763601392508,0.06776948273181915,-0.03586556762456894,-0.02469073049724102,0.12276490777730942,0.0012712645111605525,-0.06836510449647903,0.08599580824375153,0.06675786525011063,0.05175331234931946,-0.02868714928627014,-0.02102096751332283,-0.01859813742339611,0.021436117589473724,0.08287782222032547,0.029572656378149986,-0.0007029895787127316,-0.057357218116521835,-0.03467312455177307,-0.03209523484110832,0.018938463181257248,0.034670956432819366,0.07331427186727524,0.025139981880784035,-0.0362626351416111,0.004069301765412092,0.05578552186489105,-0.06738828867673874,-0.053903624415397644,0.006427447311580181,0.013567762449383736,0.0156778022646904,-0.008094369433820248,-0.02979865111410618,-0.04396867752075195,-0.002054782584309578,-0.028517188504338264,-0.017452038824558258,0.02340857870876789,-0.01710745133459568,-0.0015072777168825269,-0.006594533566385508,0.057168588042259216,0.08474846184253693,-0.03724253922700882,0.005180885083973408,0.03735450655221939,-0.08363121747970581,0.024139007553458214,-0.03905879333615303,0.10885363072156906,-0.03460900858044624,0.03589479997754097,-0.17973977327346802,0.006509048398584127,-0.19708670675754547,-0.01322843600064516,-0.12976671755313873,0.0633116140961647,-0.07273036241531372,-0.06750262528657913,-0.0386529341340065,0.2018219232559204,0.0004715562972705811,-0.06910155713558197,0.01277857180684805,0.06340957432985306,0.04237974062561989,-0.1936904340982437,-0.10389193892478943,-0.026722528040409088,0.1424172967672348,0.07677401602268219,-0.019448431208729744,-0.1109844297170639,-0.08496131002902985,0.007567160297185183,-0.10209625214338303,-0.016620008274912834,-0.1417374610900879,0.1107734814286232,-0.08215784281492233,0.021279731765389442,-0.041833166033029556,-0.08073671162128448,0.07426759600639343,-0.052646297961473465,-0.12056772410869598,-0.028385048732161522,0.037956491112709045,0.02118394523859024,0.057263001799583435,0.0676303431391716,-0.06899472326040268,-0.09767869114875793,-0.16614776849746704,-0.18387697637081146,-0.09135779738426208,0.05068352073431015,-0.012608050368726254,0.20028024911880493,0.049941107630729675,0.08119185268878937,-0.07495499402284622,-0.024223754182457924,0.02810249850153923,0.010565836913883686,0.11271274834871292,-0.037405792623758316,0.01602986454963684,0.05802970379590988,-0.04054052755236626,0.017765862867236137,-0.005738584790378809,-0.006178646814078093,-0.0255525354295969,-0.04040074348449707,-0.04183259606361389,0.007788588292896748,-0.03213602304458618,-0.08289659023284912,-0.003978684078902006,-0.0124246496707201,-0.048832714557647705,0.02184683457016945,-0.01869247294962406,-0.08312896639108658,-0.03159525245428085,-0.048971135169267654,-0.03744497895240784,0.10481233894824982,-0.11806713789701462,-0.02175811491906643,0.025566106662154198,0.01319852564483881,-0.04786280542612076,-0.05187081918120384,0.06440309435129166,0.06832117587327957,0.08353275060653687,-0.04055729880928993,0.006646158639341593,-0.05715077370405197,0.014907519333064556,-0.06623082607984543,0.05466229468584061,-0.02206416055560112,0.06717502325773239,-0.04439236968755722,0.016837971284985542,0.017505167052149773,0.07086668908596039,0.1449577510356903,0.10209816694259644,-0.0857975035905838,-0.0199789647012949,0.009248809888958931,0.022930124774575233,-0.041959092020988464,-0.005763411521911621,-0.016687631607055664,0.10747813433408737,-0.05373188108205795,0.01213042438030243,-0.022716881707310677,-0.050360679626464844,0.04591996222734451,0.0040422165766358376,0.016343215480446815,0.10995594412088394,0.02331848070025444,0.03241954371333122,-0.05370021611452103,0.0372295081615448,0.03338594362139702,-0.05072330683469772,0.02234167978167534,0.011169027537107468,0.04485021531581879,-0.007458276115357876,-0.07261470705270767,-0.014828781597316265,0.020783336833119392,-0.03338799625635147,-0.0749058797955513,-0.04917634278535843,-0.02914554253220558,0.05447951704263687,0.026687266305088997,0.015181364491581917,0.013572297990322113,-0.03271763026714325,0.01502305269241333,-0.057029180228710175,-0.0086476756259799,-0.0031730742193758488,0.021588023751974106,-0.008093384094536304,-0.004729315172880888,-0.0295987781137228,-0.01115348469465971,0.027035735547542572,-0.02120986208319664,0.010392173193395138,-0.035622820258140564,0.006961692124605179,-0.014033141545951366,0.014865907840430737,0.0077399746514856815,-0.009746457450091839,0.002027059905230999,-0.009082379750907421,-0.08267728984355927,-0.00029385366360656917,0.012340194545686245,-0.01885846070945263,0.018448909744620323,0.05334295332431793,0.0009129552054218948,-0.04010249674320221,0.0019226375734433532,-0.07044968754053116,-0.027153950184583664,0.023665500804781914,0.015820225700736046,-0.08800839632749557,-0.05837255343794823,-0.011406476609408855,0.028769880533218384,0.04071331396698952,0.00949807558208704,-0.02505936101078987,-0.025502627715468407,0.0843501165509224,-0.08610674738883972,0.045296359807252884,-0.09536725282669067,9.279265213990584e-05,0.015263206325471401,-0.017258191481232643,-0.01026072259992361,0.0531170628964901,0.038815781474113464,-0.007331990171223879,-0.032948825508356094,0.08358237147331238,0.008490280248224735,-0.016475407406687737,-0.0010802060132846236,-0.06021953001618385,0.004056960344314575,-0.025047048926353455,0.02120216190814972,0.0006269417353905737,-0.02653789520263672,0.00497190048918128,0.029961347579956055,-0.013333181850612164,-0.004752255044877529,-0.056668609380722046,-0.022202933207154274,0.007652152795344591,-0.07466359436511993,-0.1202739030122757,0.02001851238310337,0.026826152577996254,-0.038864653557538986,0.06357251107692719,0.06452697515487671,-0.08501981943845749,-0.011001752689480782,-0.004516459070146084,0.051536932587623596,-0.05453819781541824,-0.027124308049678802,0.04362163320183754,-0.0018283952958881855,0.0262821726500988,0.041042476892471313,0.03236861899495125,-0.013049445115029812,-0.0005991671932861209,-0.0026686948258429766,-0.11375074088573456,0.026419419795274734,-0.0037802071310579777,0.04115940257906914,0.008783123455941677,-0.04040097817778587,-0.028452575206756592,-0.010935514234006405,-0.11863404512405396,0.001984348986297846,-0.04427092894911766,-0.016291728243231773,-0.0071850065141916275,-0.04845191165804863,-0.003954287618398666,0.09959956258535385,0.02337738871574402,-0.02353908121585846,8.030574099393561e-05,-0.12310170382261276,-0.04900410398840904,-0.009993908926844597,-0.023528531193733215,0.018978670239448547,-0.00541401794180274,-0.0644436851143837,0.007876217365264893,-0.04255177453160286,0.031056171283125877,-0.0127016706392169,-0.05139981955289841,-0.010094654746353626,0.051288265734910965,-0.02619895711541176,-0.06295029073953629,-0.03410511463880539,0.00969396997243166,-0.006947444751858711,0.012047044932842255,0.013263636268675327,0.12157152593135834,-0.025293856859207153,-0.07291809469461441,-0.0968739315867424,-0.024983691051602364,0.05502607300877571,-0.003681760048493743,0.00781547836959362,0.018232209607958794,-0.03397697955369949,-0.016327189281582832,-0.062309395521879196,0.010440192185342312,0.027067476883530617,-0.016645323485136032,-0.03346390277147293,0.0010521223302930593,-0.04822658374905586,-0.0005579895223490894,-0.0426223948597908,-0.05587911233305931,0.030891526490449905,0.0059511917643249035,0.016485346481204033,-0.003672839840874076,-0.02346717193722725,-0.012368200346827507,-0.0029306081123650074,-0.045676279813051224,0.03209734708070755,0.0038005926180630922,-0.06296171993017197,-0.015388689935207367,-0.0020552363712340593,-0.028721513226628304,0.013021617196500301,-0.0370895080268383,
-0.008558959700167179,0.04465440288186073,-0.03826622664928436,0.016866562888026237,-0.027229879051446915,0.09979584813117981,-0.03828773647546768,-0.025537392124533653,0.02890130877494812,0.05197231099009514,-0.018076078966259956,0.007389585021883249,-0.006140399724245071,-0.05120183899998665,0.054654255509376526,0.027749119326472282,0.009393168613314629,0.10299019515514374,-0.02885350026190281,0.02943979576230049,-0.04766565188765526,-0.053394511342048645,0.015735628083348274,0.0268853846937418,0.0008228601654991508,-0.014220030978322029,0.03979840874671936,-0.021431686356663704,-0.01253998838365078,-0.06781572103500366,0.005971687380224466,0.03190969303250313,-0.03361458703875542,0.06053702533245087,0.026469416916370392,-0.04355139657855034,-0.013638907112181187,-0.00873700063675642,-0.010604885406792164,-0.028695471584796906,-0.02970144711434841,-0.04891260713338852,0.011012619361281395,0.01592349261045456,0.012921417132019997,0.05917566642165184,0.0016035180306062102,-0.03812360018491745,-0.04281990975141525,0.0687808021903038,-0.021232159808278084,0.045149970799684525,-0.06762015074491501,0.009794812649488449,0.08562982082366943,-0.030481578782200813,0.02166697010397911,0.06452413648366928,0.04590405151247978,0.005068355705589056,-0.004457294475287199,-0.033712830394506454,0.039473097771406174,0.04189746081829071,-0.05212656781077385,-0.10239806771278381,-0.09851321578025818,0.04978664964437485,0.026262633502483368,-0.008406008593738079,-0.004170266445726156,0.07689156383275986,0.09023123234510422,-0.07430989295244217,0.02357349544763565,0.027309520170092583,-0.020056216046214104,0.008180972188711166,-0.07902801036834717,0.062430351972579956,-0.011987075209617615,0.09746671468019485,0.06374096125364304,0.03875686600804329,0.051743678748607635,-0.11210054904222488,0.01773477904498577,0.0072932555340230465,-0.00963622611016035,0.011957927606999874,-0.0058670626021921635,0.02509240247309208,-0.04252440482378006,-0.09413522481918335,-0.0529022216796875,-0.01622038707137108,-0.09634146094322205,0.05278781056404114,0.0034163265954703093,-0.025265926495194435,0.03308190405368805,0.0005513869691640139,-0.03377450630068779,-0.037333954125642776,-0.03047809936106205,-0.022400669753551483,0.0352855809032917,0.03729058802127838,0.011120324023067951,0.009473160840570927,0.03288106620311737,0.039571162313222885,-0.07622125744819641,0.0062839072197675705,-0.008370278403162956,-0.09900066256523132,0.0787721797823906,-0.11292668431997299,0.03247026726603508,0.027468720450997353,-0.03581777960062027,0.00098411925137043,0.04295939579606056,-0.05059180036187172,0.00649658078327775,0.04751250520348549,-0.03603288531303406,0.06893479079008102,-0.044568005949258804,-0.007139980792999268,0.14349256455898285,-0.15612664818763733,-0.02614589035511017,0.06457793712615967,0.03364848718047142,0.022986793890595436,-0.04415197670459747,0.04169686883687973,-0.008312803693115711,0.0014304922660812736,-0.044799793511629105,-0.10165848582983017,-0.009069645777344704,-0.025919979438185692,-0.08027654886245728,-0.027455685660243034,-0.03993827477097511,0.005901625379920006,0.02932092174887657,-0.08742024749517441,-0.07602065801620483,-0.023449566215276718,0.020238647237420082,-0.06962011009454727,-0.014261364936828613,0.056865379214286804,0.0027989817317575216,-0.04225081205368042,-0.02857016958296299,0.004502238240092993,-0.05882604420185089,0.08584555238485336,0.058489568531513214,-0.021428808569908142,-0.016615256667137146,0.0308788251131773,0.021774929016828537,-0.027515385299921036,0.021713249385356903,-0.034443993121385574,0.019911039620637894,0.010501203127205372,0.02590954303741455,-0.002827921649441123,0.033569879829883575,-0.0599401630461216,0.08061132580041885,-0.03522676229476929,-0.04143063724040985,-0.01622515730559826,0.008314142934978008,-0.01738794893026352,0.011261356063187122,-0.015064084902405739,-0.04072008281946182,0.018391860648989677,-0.004448924213647842,0.006245936267077923,0.018982624635100365,0.007739088963717222,0.021440204232931137,0.04181660711765289,0.017274774610996246,-0.09381281584501266,-0.009669659659266472,0.03608288988471031,-0.01365829911082983,-0.0517633855342865,-0.04219542816281319,-0.02032877877354622,0.014695416204631329,0.007709333207458258,-0.036787278950214386,0.016015229746699333,-0.02297021634876728,0.0028087527025491,-0.031019367277622223,0.006527405697852373,-0.18357166647911072,0.0671532154083252,0.00458191055804491,0.0022390740923583508,-0.03197305276989937,0.04147565737366676,0.01228315383195877,-0.05468455329537392,0.0517435185611248,-0.004363588988780975,0.030906323343515396,0.07333358377218246,-0.004930628463625908,-0.03958204388618469,-0.11327836662530899,-0.02821316011250019,-0.06375352293252945,-0.02055627852678299,-0.027091119438409805,0.04007409140467644,0.03503819927573204,0.02556772530078888,0.017385587096214294,-0.03234550729393959,0.0024749941658228636,-0.010868840850889683,0.04353079944849014,-0.006889737211167812,-0.0024518955033272505,-0.05496659874916077,0.027387745678424835,-0.00258524133823812,0.07303968816995621,0.00317877484485507,-0.0029050265438854694,0.00974944420158863,0.04399925097823143,-0.05963118001818657,0.04816018044948578,0.023518793284893036,-0.015495069324970245,-0.025782598182559013,-0.0629754289984703,-0.0012289085425436497,-0.01330456044524908,0.04807408154010773,0.025297632440924644,0.04594690725207329,-0.015713457018136978,-0.1215067207813263,-0.016754141077399254,-0.06726808100938797,-0.059641458094120026,-0.21127921342849731,0.09716436266899109,0.018589062616229057,-0.023883670568466187,-0.17325043678283691,-0.01146023441106081,0.04234255850315094,-0.014181433245539665,-0.002777846297249198,-0.2520381212234497,-0.13297709822654724,0.054175395518541336,0.0347282811999321,-0.102843277156353,0.13284854590892792,0.012954708188772202,-0.18866530060768127,-0.07061970978975296,0.23936733603477478,-0.03825374320149422,0.097898930311203,-0.012155858799815178,-0.06002093851566315,-0.06398104131221771,-0.10016221553087234,-0.08379736542701721,-0.09586045891046524,-0.09599608182907104,0.001362008391879499,0.06605315953493118,0.04650067910552025,-0.061751749366521835,0.1321447789669037,-0.08149100840091705,0.03132922574877739,0.025473229587078094,0.007442830130457878,-0.08624835312366486,0.1317572295665741,-0.028325706720352173,0.0418199822306633,0.01750507391989231,0.004671119153499603,0.07349797338247299,-0.023302173241972923,-0.1847981959581375,-0.1409347504377365,0.10132522881031036,-0.12862378358840942,-0.025890424847602844,0.016714178025722504,0.05666738748550415,0.1807188093662262,-0.016615359112620354,0.03916555643081665,-0.03870845213532448,0.07470284402370453,-0.03610055893659592,0.10541550815105438,-0.021208524703979492,0.010369458235800266,-0.05578857287764549,-0.18957340717315674,0.03983883932232857,-0.011742215603590012,0.07484930753707886,0.0035569912288337946,-0.08426035195589066,0.021197838708758354,0.04465221241116524,-0.01994202472269535,-0.0009519938612356782,-0.01651006191968918,0.026736393570899963,0.015582735650241375,-0.05382487550377846,0.0762418657541275,0.06328456848859787,0.04291900619864464,0.018438898026943207,-0.0961792841553688,-0.26219481229782104,-0.059319112449884415,-0.0017905158456414938,0.013052885420620441,-0.05178074911236763,-0.09977678954601288,0.029956791549921036,-0.03461931273341179,-0.013168838806450367,-0.040865104645490646,-0.024704111739993095,0.0366494245827198,-0.018389610573649406,-0.09729766845703125,-0.0054725478403270245,0.020256871357560158,0.2428407371044159,-0.06604509055614471,0.042153406888246536,0.019085532054305077,-0.016016345471143723,0.17725786566734314,-0.044894516468048096,-0.02311684750020504,0.009632395580410957,0.0004117926291655749,-0.10481499135494232,-0.027241641655564308,-0.11664783954620361,-0.018581941723823547,0.010736907832324505,0.0012581797782331705,0.054419081658124924,0.07291440665721893,-0.07104853540658951,0.04805847629904747,-0.09791151434183121,0.003336649853736162,-0.0004481790529098362,-0.00802378635853529,0.02636614255607128,0.12165599316358566,-0.009340178221464157,-0.05382199585437775,0.039217595010995865,0.0418829545378685,-0.00956375990062952,-0.034446828067302704,0.0002273979043820873,0.029982365667819977,0.013469275087118149,0.011093704961240292,-0.027099817991256714,0.029247339814901352,0.00989279430359602,-0.026978937909007072,0.01337497215718031,0.019588205963373184,-0.043729424476623535,0.07476109266281128,-0.0359412282705307,0.0011747676180675626,-0.01868176832795143,-0.0076699345372617245,-0.013904312625527382,0.03850386291742325,-0.02389090321958065,-0.0502835251390934,0.018186070024967194,0.014130366034805775,-0.001236469717696309,-0.021395504474639893,-0.025793034583330154,-0.010213686153292656,0.012009858153760433,0.00505790626630187,0.01743229478597641,0.008365616202354431,0.027704574167728424,0.016193391755223274,-0.0239406805485487,0.03967501223087311,-0.06432105600833893,0.009660990908741951,-0.017774512991309166,0.02927333675324917,0.024758117273449898,0.05861617252230644,0.03673132136464119,0.0036655713338404894,-0.021208683028817177,0.036567892879247665,-0.03184308111667633,0.006698630750179291,0.035494353622198105,0.015472309663891792,0.012561063282191753,0.002817929955199361,0.019970940425992012,0.015083078294992447,0.03169896453619003,0.018604332581162453,0.007184074725955725,0.05233433470129967,-0.0017372571164742112,0.06233205273747444,0.038036420941352844,-0.03853096440434456,-0.02797679603099823,-0.0045963190495967865,0.016538327559828758,-0.030432645231485367,-0.046792950481176376,-0.028259264305233955,0.027432478964328766,0.054912470281124115,-0.045466527342796326,-0.028905749320983887,-0.05129559710621834,-0.016260748729109764,-0.04372766613960266,0.036698117852211,0.0048861694522202015,-0.058908212929964066,-0.14389628171920776,0.15584434568881989,0.03495160490274429,0.03172073885798454,-0.10090465843677521,0.10967399179935455,-0.1406373679637909,-0.04623565450310707,-0.035466622561216354,-0.09691207855939865,0.053449176251888275,0.033416274935007095,-0.13165724277496338,-0.044883307069540024,-0.07723741978406906,0.03476923331618309,-0.05774959549307823,-0.018510688096284866,-0.0545622855424881,0.11599386483430862,0.009567911736667156,-0.03612565994262695,0.035965632647275925,-0.01760914921760559,0.022030901163816452,0.015324791893362999,0.042350877076387405,0.12447970360517502,-0.04435114562511444,0.006089911330491304,-0.12461260706186295,-0.0589551217854023,-0.11068520694971085,0.027420062571763992,0.0073551274836063385,-0.025492748245596886,0.04993584379553795,0.017436327412724495,-0.012321182526648045,-0.029422296211123466,0.048691265285015106,0.05705796927213669,0.014782662503421307,0.09517209231853485,0.029725681990385056,0.10212068259716034,0.06408052891492844,-0.09041649848222733,-0.01739988476037979,0.026548322290182114,-0.011722596362233162,0.010565143078565598,0.0441955104470253,-0.050083134323358536,-0.022403737530112267,-0.0011351676657795906,-0.00932167936116457,0.07361329346895218,-0.04089051112532616,-0.07606128603219986,0.009890051558613777,0.004014135804027319,0.005320318974554539,0.009337564930319786,-0.03384571895003319,-0.014331916347146034,-0.014351930469274521,-0.061415188014507294,-0.21761055290699005,0.06882157921791077,0.03944426029920578,0.019104009494185448,-0.1050824373960495,-0.07871950417757034,-0.050860244780778885,0.05682298541069031,-0.007794057484716177,0.005817666184157133,-0.03240446001291275,0.0027709726709872484,-0.02153213880956173,-0.03617146983742714,-0.026894398033618927,0.05665634572505951,0.027901677414774895,-0.022745035588741302,0.008199709467589855,0.0409364253282547,0.03518093377351761,0.041105687618255615,-0.06060902401804924,0.030234945937991142,0.020061790943145752,-0.0899667963385582,-0.0578458271920681,0.05526898056268692,-0.021528642624616623,0.04040445014834404,0.02257935330271721,-0.03356132283806801,-0.009253454394638538,0.027163516730070114,-0.041382696479558945,0.04428192600607872,-0.03627707064151764,0.06672952324151993,-0.039653368294239044,0.008572565391659737,-0.015015369281172752,0.03679859638214111,
-0.05231811851263046,0.10609298944473267,-0.023108677938580513,-0.05373535677790642,-0.042588621377944946,0.03684021532535553,-0.018644455820322037,-0.06165719032287598,0.009977438487112522,-0.00822044163942337,0.004702469799667597,-0.007347682025283575,0.009802966378629208,0.0020799944177269936,-0.020732462406158447,0.032868675887584686,0.04536457359790802,-0.02406417392194271,0.019868595525622368,0.06211443617939949,-0.04173881560564041,-0.027501052245497704,0.003075682558119297,0.032923825085163116,-0.06053997203707695,-0.06449335813522339,0.00798476580530405,-0.0027619567699730396,0.06562048196792603,-0.08300615847110748,0.014090310782194138,0.030622966587543488,-0.0036907203029841185,0.0109358299523592,-0.004910055547952652,-0.03160976245999336,-0.026865174993872643,0.0006542096380144358,-0.010895461775362492,0.02285148948431015,-0.09340044111013412,-0.03177518770098686,0.059015605598688126,-0.0050733089447021484,-0.0179827231913805,-0.00792033039033413,0.03229951113462448,0.05766817554831505,-0.06105490401387215,0.08451434969902039,-0.015354814007878304,0.01765672117471695,0.02996256947517395,0.05673730745911598,0.014207442291080952,-0.038927365094423294,0.034179702401161194,0.07537689805030823,0.05632141977548599,0.03829604759812355,0.000474339205538854,-0.044503092765808105,-0.0289921797811985,-0.05711439624428749,0.15806274116039276,0.016524774953722954,0.026249228045344353,-0.046259719878435135,0.010577109642326832,0.2692788541316986,-0.01664678566157818,0.03632501885294914,0.00019224858260713518,-0.02458159439265728,0.015242031775414944,-0.020588049665093422,-0.041961342096328735,0.05895884707570076,-0.03440503776073456,0.03799109533429146,0.03131311386823654,0.12365476042032242,-0.005309512373059988,0.08954454958438873,0.016444673761725426,0.015707047656178474,0.010865249671041965,0.04147232323884964,-0.05045405030250549,0.015295999124646187,-0.0003132136771455407,0.06209926679730415,-0.01682543195784092,0.05275142565369606,-0.0527886264026165,0.06236804276704788,-0.05482864752411842,-0.1712360680103302,0.016602886840701103,0.02610958181321621,-0.010312402620911598,0.027900854125618935,-0.023867174983024597,-0.03278948366641998,0.05117090791463852,-0.12292616814374924,0.08807207643985748,0.08403779566287994,-0.0646730288863182,0.00012277922360226512,0.0045886472798883915,0.05859735608100891,0.07230553776025772,-0.059650592505931854,-0.005183786153793335,-0.04565170407295227,-0.044506751000881195,-0.1365136355161667,-0.08168570697307587,0.0634785145521164,-0.021240301430225372,-0.01705685630440712,-0.028181210160255432,-0.07310312986373901,-0.009284247644245625,-0.028627244755625725,0.005525605287402868,-0.06515838950872421,-0.15963955223560333,-0.006178831681609154,0.04588191583752632,-0.013976565562188625,-0.024248449131846428,-0.04421437531709671,-0.004898841958492994,0.08713248372077942,-0.04796881601214409,0.005975536070764065,0.01662362553179264,-0.015504823997616768,3.111205660388805e-05,0.04071739688515663,0.04890967905521393,0.03676634281873703,-0.005515965633094311,0.018168672919273376,0.024783944711089134,0.004580825101584196,0.007208399474620819,0.06387750804424286,0.027149757370352745,0.06712853908538818,-0.011491118930280209,-0.004563753958791494,0.06007125973701477,0.071601502597332,-0.017330292612314224,0.043320443481206894,0.02305348590016365,0.07468970865011215,0.08624134957790375,0.050164494663476944,-0.06146179139614105,0.010574311017990112,-0.016771137714385986,0.02333923615515232,-0.00023876647173892707,-0.025169091299176216,0.030926456674933434,-0.0320960134267807,0.0801137164235115,-0.03861737251281738,0.05764050781726837,-0.011599536053836346,0.008425123058259487,0.10043589770793915,0.04949744790792465,0.007427348289638758,0.08828581124544144,-0.0028217032086104155,-0.028874827548861504,-0.010692677460610867,-0.07246734201908112,-0.016988132148981094,0.02639029361307621,-0.036519378423690796,0.03230735659599304,0.028556471690535545,-0.024764476343989372,0.019296353682875633,0.0429418608546257,-0.03491497039794922,0.018629057332873344,0.009682460688054562,0.041241925209760666,-0.052663885056972504,-0.07579351216554642,-0.01828347146511078,0.008996731601655483,0.014665249735116959,-0.01091006025671959,0.0364108607172966,0.01794690266251564,-0.010558285750448704,-0.030088195577263832,-0.03923323005437851,-0.00393772404640913,0.03355925530195236,0.12255913019180298,0.2385604828596115,0.06504607945680618,-0.09592403471469879,-0.06670375913381577,-0.01893254928290844,-0.013844352215528488,0.02621879056096077,0.09838748723268509,0.13714063167572021,0.03424613177776337,0.0571347214281559,-0.05450152978301048,-0.03943709284067154,0.024847980588674545,0.05487911030650139,-0.04683592915534973,-0.04150059446692467,-0.01736932061612606,0.012057018466293812,-0.0009755584760569036,0.008654127828776836,0.006662498228251934,-0.02065659500658512,0.013034738600254059,-0.09355857968330383,-0.02205703593790531,0.03584732115268707,0.05422855541110039,-5.698968379874714e-05,0.012469184584915638,0.007657875772565603,0.03834259510040283,0.028760386630892754,-0.03101634792983532,0.012511353008449078,-0.015849361196160316,-0.14186438918113708,-0.01365610584616661,0.026074349880218506,-0.05485982447862625,0.07573790103197098,0.10703305155038834,0.017608176916837692,-0.008381404913961887,0.022121116518974304,0.09160780161619186,0.03984161838889122,0.10841841250658035,-0.011724457144737244,0.06776134669780731,-0.03133932873606682,-0.01388289500027895,0.11955709010362625,0.051902834326028824,-0.14620818197727203,-0.04589859023690224,-0.014573346823453903,0.04556528106331825,-0.08550513535737991,-0.0955251082777977,0.37420445680618286,0.0938543751835823,-0.001671130652539432,0.1089458093047142,-0.10817720741033554,-2.02136061489e-06,0.0884787067770958,0.08384537696838379,0.013377371244132519,-0.02706434577703476,0.03419691324234009,-0.0029173020739108324,0.14342623949050903,0.10294950753450394,-0.027738433331251144,-0.12092020362615585,0.08985185623168945,0.055507224053144455,-0.19186635315418243,-0.10243342071771622,-0.06737687438726425,-0.12874910235404968,0.08609391748905182,0.007854197174310684,-0.01083490438759327,0.20272201299667358,0.04678450524806976,-0.18381094932556152,-0.005295201204717159,0.08148276805877686,-0.07229775935411453,0.09154674410820007,-0.012975363992154598,0.043297745287418365,0.003914055414497852,-0.12903937697410583,0.11462483555078506,0.09676084667444229,-0.038142964243888855,-0.01746591366827488,-0.13092836737632751,0.07156913727521896,0.1169121116399765,-0.10152077674865723,0.10392690449953079,0.10209665447473526,-0.1314300149679184,-0.09749651700258255,0.011930854991078377,0.051263224333524704,0.05761084705591202,0.013994954526424408,0.022157661616802216,-0.101466603577137,0.04762398824095726,-0.007154191378504038,-0.014946945011615753,0.14844825863838196,-0.031719885766506195,-0.16035829484462738,-0.055198218673467636,-0.01911952905356884,-0.05355342477560043,-0.026358064264059067,-0.022586848586797714,-0.01053627859801054,-0.042178161442279816,0.007044613361358643,-0.017655950039625168,-0.024213584139943123,0.04424765706062317,0.11320102959871292,0.02440054342150688,-0.00635600695386529,0.07066647708415985,-0.028157223016023636,-0.020972957834601402,0.016675807535648346,0.019554758444428444,0.014663642272353172,0.08707062900066376,0.052964456379413605,-0.024362506344914436,-0.05776919797062874,-0.0173987727612257,0.13823315501213074,0.04831910505890846,-0.07488949596881866,0.05454902723431587,-0.05577598512172699,-0.04572503641247749,0.029611391946673393,-0.026438426226377487,0.022984489798545837,0.08646489679813385,-0.10711031407117844,0.017419151961803436,-0.0012590159894898534,0.030428079888224602,0.0563504621386528,0.031184550374746323,-0.06846035271883011,0.024373622611165047,-0.018126685172319412,0.020860543474555016,-0.031240636482834816,0.022619180381298065,0.007120419759303331,0.10981498658657074,-0.004142141435295343,-0.007014719769358635,0.023019472137093544,-0.0037094741128385067,0.005283964332193136,0.10910627245903015,-0.02120218798518181,-0.012652590870857239,-0.06227213516831398,-0.012701580300927162,0.0029650155920535326,0.004969771485775709,-0.0010545382974669337,0.022946719080209732,0.00417772913351655,0.02127838507294655,0.01945195160806179,0.03689658269286156,-0.16812460124492645,0.05850841850042343,0.005294907838106155,0.02082783915102482,0.03525787964463234,0.0006955790449865162,-0.05132055655121803,-0.05708591267466545,0.010133090429008007,0.017145851626992226,-0.043360386043787,-0.0002019856037804857,-0.069407157599926,0.02337230183184147,0.03314591199159622,-0.03697611391544342,-0.11407472938299179,0.024158818647265434,0.0518142394721508,-0.00048178285942412913,-0.03606826439499855,-0.010095663368701935,-0.036227062344551086,-0.07903707772493362,0.01744833029806614,0.005533432587981224,0.025030171498656273,0.04461166262626648,-0.007678626105189323,-0.010408465750515461,-0.0022612172178924084,0.003035873407498002,0.02988080307841301,0.002929164096713066,0.005477834027260542,0.034219369292259216,0.03722477704286575,0.02606709860265255,0.006016789469867945,-0.018748009577393532,0.00916176289319992,-0.01910264790058136,-0.052263256162405014,-0.008944520726799965,-0.01462752465158701,0.04706839844584465,0.004611858632415533,0.00322712236084044,0.010097210295498371,0.06012111157178879,0.02403847500681877,0.006852245889604092,-0.05070214718580246,0.024457016959786415,-0.04563027247786522,-0.010049163363873959,0.03701947256922722,-0.01137349009513855,0.031746890395879745,0.09667155146598816,-0.04593854397535324,0.013621349819004536,0.015237051993608475,-0.05912580341100693,-0.04995078966021538,-0.004362359642982483,0.033194687217473984,-0.04877924919128418,-0.02698705717921257,-0.029134269803762436,-0.03840639069676399,-0.045383088290691376,-0.051428914070129395,0.03840288892388344,0.05745492875576019,0.06523088365793228,-0.0578828901052475,-0.005138423293828964,0.055749308317899704,-0.057238075882196426,0.05899970978498459,0.08285345137119293,0.011419384740293026,-0.0042543974705040455,0.03241020813584328,-0.020033618435263634,0.007878570817410946,0.05176306143403053,-0.10144089162349701,0.07144982367753983,-0.01574997417628765,-0.06653715670108795,-0.055514052510261536,-0.024036401882767677,0.030199283733963966,0.034571487456560135,0.05224912613630295,-0.07124227285385132,-0.02501673623919487,-0.01781890168786049,-0.02501048520207405,-0.022707290947437286,-0.019579146057367325,0.013047954067587852,-0.02195264957845211,-0.09883691370487213,0.0018008728511631489,0.04072580486536026,-0.028960485011339188,-0.03858070820569992,-8.403423635172658e-06,0.012257451191544533,-0.06684993207454681,0.02700664848089218,0.010961493477225304,0.0030331164598464966,0.03642681613564491,-0.03820465877652168,-0.0077839195728302,0.05442275106906891,-0.004186730366200209,0.01342828944325447,-0.06368516385555267,0.0018183066276833415,-0.06843622773885727,0.0016492827562615275,0.044953882694244385,0.011048299260437489,-0.05969396233558655,0.03745172172784805,0.03156088665127754,0.0019222397822886705,-0.00012078986765118316,0.04762256518006325,0.013517305254936218,-0.01237461343407631,0.03579428791999817,0.010053609497845173,0.01716669835150242,0.005200245417654514,0.011903850361704826,0.058868829160928726,0.03461853042244911,0.013006223365664482,0.03323047235608101,-0.06389996409416199,0.02632022462785244,0.008940223604440689,0.011015525087714195,-0.04853354021906853,-0.06436335295438766,0.010277826339006424,-0.016109533607959747,0.026207467541098595,-0.058071039617061615,-0.007238364312797785,0.0023058424703776836,7.129494042601436e-05,-0.010567461140453815,0.0008765512029640377,-0.05237185209989548,0.009218480437994003,-0.017089519649744034,-0.04542215168476105,0.0030049930792301893,0.008115191012620926,0.04599851369857788,0.017746701836586,0.014607671648263931,-0.001086322939954698,-0.019914589822292328,0.011205042712390423,-0.015195281244814396,0.0052617331966757774,-0.0386187843978405,-0.029030099511146545,0.008245966397225857,0.07991255819797516,-0.0036249966360628605,0.017343338578939438,
0.031906042248010635,-0.10764694213867188,0.0481000617146492,0.02324948087334633,-0.03752550110220909,0.04837555065751076,0.029145831242203712,-0.005855483468621969,0.002278293948620558,0.04174262285232544,0.00724317179992795,-0.014676986262202263,-0.014305518008768559,-0.05514596775174141,-0.05733748897910118,-0.01929366961121559,-0.09130948781967163,0.13520872592926025,-0.01737838424742222,-0.022350478917360306,0.013785037212073803,0.1273908168077469,0.0689074769616127,-0.03044304996728897,0.029975172132253647,0.03714659437537193,0.0008559630368836224,0.1018451452255249,0.04399577155709267,0.11915171891450882,0.013049167580902576,0.012897240929305553,0.05936465412378311,-0.0030635332223027945,0.009549614042043686,0.006572284270077944,0.05099046602845192,0.015834378078579903,0.02268763817846775,-0.013977723196148872,0.003528824308887124,-0.027673400938510895,-0.025897620245814323,-0.0012704846449196339,-0.03002653270959854,0.040761567652225494,0.04071103036403656,0.06122513487935066,0.004616012796759605,-0.022411532700061798,0.05442804843187332,0.03898913785815239,0.013112903572618961,-0.09165879338979721,-0.015288575552403927,0.016510041430592537,0.03101305291056633,-0.05586708337068558,-0.014785975217819214,-0.03552204370498657,-0.028902191668748856,0.023476475849747658,0.018046284094452858,-0.06591420620679855,0.17542538046836853,-0.21995747089385986,0.16022618114948273,-0.057108040899038315,0.02668924815952778,-0.02289891056716442,-0.052964065223932266,0.01735163852572441,-0.038828179240226746,0.04878178611397743,-0.03464348614215851,-0.03172281011939049,-0.017530163750052452,-0.011421610601246357,-0.14736495912075043,0.1334361881017685,-0.020229017361998558,-0.025662891566753387,-0.02142866887152195,-0.06753717362880707,-0.06877549737691879,-0.03489577770233154,0.035541143268346786,-0.07552160322666168,0.043205488473176956,0.06349515169858932,-0.010938278399407864,0.09691471606492996,-0.010416216216981411,0.029325151816010475,-0.028396982699632645,0.06040336564183235,-0.09884822368621826,-0.07214564085006714,-0.004871836863458157,0.02757345326244831,0.008404402062296867,0.00820012018084526,0.09117578715085983,-0.002364145591855049,0.026378119364380836,0.010741369798779488,0.16237004101276398,0.021440720185637474,0.11219026148319244,0.01848115399479866,-0.028381381183862686,-0.015730150043964386,-0.055990226566791534,-0.0054803695529699326,0.02197452262043953,0.06732400506734848,-0.04884738475084305,-0.015752604231238365,-0.010201549157500267,-0.06647269427776337,0.014709403738379478,0.28646308183670044,-0.006904453970491886,0.059138476848602295,-0.03202889859676361,0.037034180015325546,0.046657390892505646,0.024323485791683197,-0.1668836772441864,-0.05114036053419113,-0.01033191941678524,-0.10654854774475098,-0.01706347055733204,-0.014217597432434559,-0.05099444091320038,0.022677693516016006,0.004941590595990419,-0.03294725716114044,-0.00013386293721850961,0.04183190315961838,-0.03221389278769493,0.0443919412791729,0.004847561474889517,0.035493336617946625,0.054500848054885864,0.03289223089814186,0.04900522530078888,-0.018740922212600708,0.04155214503407478,0.010228054597973824,-0.023585155606269836,-0.04516233131289482,0.004227371420711279,0.018066294491291046,0.02712259255349636,0.013211952522397041,0.01297128014266491,0.028553316369652748,-0.00770361814647913,-0.03715033084154129,-0.00016314457752741873,-0.00679611274972558,-0.034604836255311966,0.06657874584197998,0.0015646553365513682,0.003854945069178939,0.03637082874774933,-0.01130338292568922,-0.01423119567334652,0.05275421589612961,-0.011616041883826256,-0.007123870775103569,0.02316862903535366,0.029196104034781456,-0.08278077095746994,0.007989846169948578,0.054754238575696945,0.016748623922467232,0.017670372501015663,0.005310748238116503,0.0026746648363769054,-0.032380878925323486,0.01594649814069271,-0.029050609096884727,0.03570913150906563,0.05481743440032005,-0.017079001292586327,-0.03049825131893158,0.006077389698475599,-0.017989564687013626,0.004541895817965269,0.01471796352416277,-0.13747766613960266,-0.21447035670280457,-0.05055254325270653,-0.0016330669168382883,0.08662288635969162,-0.09894704818725586,0.047690585255622864,0.026894384995102882,-0.006343727465718985,0.03556869551539421,0.09412325173616409,-0.033348411321640015,-0.029129190370440483,0.11722046136856079,-0.058634739369153976,0.03307104483246803,0.007948736660182476,0.10565131157636642,0.06322716176509857,-0.15115688741207123,-0.04230261594057083,0.03373388573527336,-0.030168579891324043,-0.0975332260131836,0.08110310137271881,0.06827470660209656,0.01800738275051117,-0.054975107312202454,0.03203605115413666,-0.07896792143583298,-0.07076846063137054,0.14953233301639557,0.023636087775230408,0.019348856061697006,-0.019503846764564514,0.060049235820770264,-0.028019150719046593,-0.04480671510100365,-0.00536757055670023,0.00010711544746300206,0.03480285406112671,-0.09246297180652618,0.12107899785041809,-0.01331334188580513,-0.01066605281084776,-0.036873187869787216,-0.03804899752140045,-0.008160706609487534,0.03641153872013092,0.023966656997799873,0.006743129342794418,0.07090689986944199,0.14157265424728394,-0.23253461718559265,-0.06693791598081589,0.029889198020100594,-0.018021337687969208,0.0019539385102689266,-0.021714773029088974,0.007622335106134415,0.0028016907162964344,-0.08269950747489929,0.07428131252527237,0.09881991147994995,-0.13095496594905853,0.031832966953516006,0.0044494871981441975,-0.12363719940185547,0.012775628827512264,0.010153843089938164,-0.19114179909229279,0.14716391265392303,0.056474748998880386,-0.13736654818058014,0.03181159496307373,0.03281159698963165,-0.009310068562626839,0.04246143996715546,-0.11803741753101349,0.26988884806632996,0.0732971578836441,-0.1440710425376892,-0.0006333193741738796,-0.12848320603370667,-0.03859720751643181,-0.17336641252040863,-0.05872207134962082,0.08026916533708572,0.010682212188839912,0.09280774742364883,0.01645517908036709,-0.17344166338443756,-0.16469311714172363,0.021725643426179886,0.013768487609922886,0.11948502063751221,0.06406272202730179,0.06473395228385925,-0.09565849602222443,-0.0056842416524887085,-0.06697042286396027,-0.037208303809165955,0.03471742197871208,-0.0479319766163826,-0.2863549292087555,0.20530889928340912,-0.12936292588710785,-0.06563293188810349,-0.001769055612385273,-0.02183784544467926,0.07240547239780426,-0.06901080906391144,0.14049135148525238,0.037179406732320786,0.1044100746512413,-0.03718200698494911,0.09548826515674591,-0.05613860860466957,-0.07147383689880371,0.039523616433143616,-0.03200626000761986,0.26104456186294556,-0.12068484723567963,0.015679797157645226,0.030210044234991074,0.025363296270370483,7.94332881923765e-05,-0.12358838319778442,-0.042720794677734375,-0.05288686603307724,0.07846999913454056,-0.048747468739748,-0.00774732930585742,-0.08753570914268494,0.1034557893872261,-0.033664073795080185,-0.04248635470867157,-0.04694245383143425,-0.05160720646381378,-0.04669493809342384,-0.014710858464241028,0.031964439898729324,-0.04967586696147919,-0.12057202309370041,0.007246066816151142,-0.056275635957717896,-0.05998764559626579,-0.007523753214627504,0.0004361978790257126,0.007745842449367046,0.01128191128373146,0.09092540293931961,0.034458473324775696,-0.01389668695628643,0.04721716791391373,-0.037434469908475876,0.054022278636693954,0.015524424612522125,0.01691581681370735,0.06821658462285995,0.13429303467273712,-0.10943073779344559,0.005463264416903257,0.07102588564157486,-0.005798469763249159,-0.0027287243865430355,-0.039072416722774506,0.046148572117090225,-0.04916135221719742,0.031101040542125702,0.03589043766260147,-0.03155102580785751,0.00577625073492527,-0.06122114136815071,-0.06272925436496735,0.10836955904960632,-0.08918014168739319,0.04611217603087425,0.010949946939945221,0.026800423860549927,-0.0014357278123497963,0.01000126451253891,-0.034311868250370026,0.03070816583931446,-0.001049922895617783,-0.05811053514480591,0.024490011855959892,-0.021966243162751198,-0.014973439276218414,-0.009338357485830784,-0.0012887163320556283,0.0005542657454498112,-0.0686354786157608,0.012822695076465607,0.048036687076091766,-0.015375539660453796,0.16664642095565796,-0.05034489184617996,-0.06498730182647705,0.07380034029483795,-0.0031356308609247208,0.04533528536558151,0.036960020661354065,0.022369496524333954,-0.16310669481754303,0.04177331551909447,-0.030232898890972137,0.07424414902925491,0.03673819079995155,0.06361738592386246,0.06104011461138725,-0.0531429722905159,0.016109250485897064,0.042726971209049225,-0.005702354945242405,0.018736734986305237,-0.022502079606056213,-0.1492983102798462,-0.0026346081867814064,0.0036655894946306944,0.10744016617536545,-0.014007315039634705,-0.08546137064695358,0.0017991652712225914,-0.028013933449983597,0.04454710707068443,-0.05665307864546776,-0.00571240670979023,-0.03531024977564812,0.019616734236478806,-0.06941074877977371,-0.03618364408612251,0.07818976789712906,-0.01713337004184723,-0.01106348168104887,-0.049908313900232315,-0.01657842844724655,0.0778670608997345,0.06923355907201767,0.030054882168769836,0.13603197038173676,0.07900253683328629,0.04204456880688667,0.08084087818861008,0.0014912213664501905,-0.01362877432256937,-0.02116379886865616,0.13932974636554718,-0.02575778402388096,0.003732497338205576,0.03240285813808441,0.009212167002260685,0.07191916555166245,0.04123317450284958,-0.011679815128445625,0.03900189697742462,-0.027993930503726006,0.004965012893080711,0.007892982102930546,-0.0870235487818718,0.14941608905792236,0.0296013280749321,-0.03497134521603584,-0.03257900848984718,-0.024756645783782005,0.019294101744890213,0.08767866343259811,0.0974796786904335,-0.05179693177342415,-0.01502249576151371,0.016461707651615143,-0.032919712364673615,-0.021079540252685547,-0.10179883986711502,-0.004701320547610521,0.02490282990038395,-0.045763276517391205,0.0783737301826477,-0.3174383044242859,0.02162199467420578,-0.026926962658762932,0.17482814192771912,-0.002862438792362809,-0.1427333801984787,0.03807970508933067,0.0869712233543396,-0.039764393121004105,-0.03584793955087662,-0.08733119815587997,0.04359937459230423,-0.08477897942066193,0.04201919957995415,-0.0858418196439743,-0.03972171992063522,0.0962517112493515,-0.06719259917736053,0.05290370434522629,-0.044089797884225845,0.04177190735936165,-0.038690198212862015,0.06783055514097214,0.03598765656352043,-0.1870947778224945,0.010022434405982494,0.19748206436634064,-0.030115997418761253,0.14494624733924866,0.004975763615220785,0.0671030655503273,0.03179146349430084,-0.05800551176071167,-0.2031756043434143,0.04262803494930267,-0.033657584339380264,-0.004935303702950478,0.05357160046696663,-0.05321929231286049,-0.053603645414114,-0.007579918950796127,0.09735427051782608,-0.060227517038583755,0.11979666352272034,-0.09392695873975754,-0.10203313082456589,0.06544188410043716,-0.02520538493990898,0.006290995050221682,0.05138244479894638,-0.004161756951361895,0.002876675920560956,0.03181752189993858,-0.0003961435577366501,-0.0007641799165867269,0.018551994115114212,-0.028132861480116844,0.014020999893546104,0.04461325332522392,0.04327632486820221,-0.01624174416065216,-0.02132820524275303,0.04425343498587608,-0.0006249520229175687,-0.002109027234837413,-0.005717269144952297,-0.013701966032385826,-0.04539308324456215,0.03201165422797203,-0.04036245495080948,0.008715983480215073,-0.009854470379650593,-0.015769410878419876,-0.023335805162787437,-0.04489918798208237,0.07760250568389893,-0.04856451600790024,0.007278260309249163,-0.07083910703659058,0.024787073954939842,-0.04702071100473404,0.054204970598220825,-0.04889097437262535,0.022101111710071564,-0.009210897609591484,-0.012898607179522514,0.03775552660226822,-0.008251243270933628,-0.030599692836403847,-0.03600849211215973,0.07363908737897873,-0.063502736389637,-0.02383229322731495,0.07412660866975784,-0.0031345472671091557,-0.017684219405055046,-0.004868387710303068,0.10022653639316559,0.07456058263778687,0.05130304768681526,0.0767640545964241,-0.07714778929948807,-0.02544795721769333,0.04853949695825577,0.003817526623606682,-0.053689341992139816,
