0.0013304860331118107,-0.02797725237905979,0.014699883759021759,0.09548640251159668,0.054522573947906494,0.052916355431079865,0.008867857977747917,0.01579306647181511,-0.08981523662805557,0.012561055831611156,-0.04432222619652748,-0.09850120544433594,-0.1369333416223526,-0.06900022178888321,0.005707249976694584,-0.013325714506208897,-0.12270305305719376,0.0004000775807071477,0.10017570108175278,-0.015018908306956291,0.024465691298246384,-0.011807562783360481,-0.028354523703455925,0.07060877978801727,-0.024024881422519684,0.10966741293668747,-0.031562596559524536,-0.0005217256839387119,-0.030759526416659355,-0.02733452431857586,-0.06693432480096817,-0.011414092034101486,-0.07727880775928497,-0.048576030880212784,-0.11316169053316116,-0.06387191265821457,0.08102742582559586,0.050323236733675,0.012418479658663273,-0.009705441072583199,-0.029383685439825058,-0.0073626479133963585,-0.05552789196372032,-0.02403891272842884,0.07203157991170883,0.1250115931034088,0.19010040163993835,0.1848316490650177,0.048815928399562836,-0.04069356620311737,0.05113314464688301,0.0058564357459545135,0.046086978167295456,0.02960953675210476,-0.0971728265285492,0.06481711566448212,0.04525042697787285,-0.007560787256807089,-0.04548373818397522,-0.0841909646987915,-0.09386192262172699,-0.019515924155712128,-0.005227888002991676,-0.01008920930325985,0.06873872131109238,0.035135410726070404,-0.025528643280267715,-0.09225305914878845,0.11112837493419647,-0.007038992363959551,-0.019409725442528725,0.04628711938858032,-0.09686939418315887,0.035323143005371094,0.02471189573407173,-0.009544922038912773,-0.012067349627614021,0.006310117430984974,-0.021478811278939247,-0.06358268111944199,-0.06718011200428009,-0.11461299657821655,-0.07990110665559769,0.0414949469268322,-0.05153380706906319,-0.016568930819630623,-0.01910252310335636,-0.07562435418367386,0.015461374074220657,-0.054986074566841125,0.08715926110744476,0.058293040841817856,-0.011097557842731476,0.04818112775683403,-0.007273348979651928,0.006805071607232094,-0.11237743496894836,-0.10052777826786041,-0.047544222325086594,0.021812524646520615,0.03137919679284096,0.11642860621213913,0.01238703541457653,0.049883581697940826,0.1347639560699463,0.09019016474485397,0.10767632722854614,0.02380751632153988,0.013034026138484478,0.012124260887503624,0.014431779272854328,0.1326257735490799,0.13777440786361694,0.08995962888002396,-0.004784185905009508,-0.021719031035900116,-0.03861325606703758,0.06340369582176208,0.009112918749451637,0.014859548769891262,-0.11662833392620087,-0.11846837401390076,-0.021269822493195534,-0.008455604314804077,0.06530633568763733,0.04105618968605995,0.05509722977876663,-0.006196201778948307,0.03022627905011177,0.057281140238046646,-0.0009675914770923555,0.07891513407230377,0.09515044093132019,0.0348946638405323,0.05006750300526619,0.013934433460235596,0.020192282274365425,-0.021553199738264084,0.013955176807940006,-0.07257403433322906,-0.007671213708817959,-0.06199345365166664,-0.005420089699327946,0.015426013618707657,-0.03665795922279358,-0.08156265318393707,-0.043326571583747864,-0.00411453191190958,-0.052006617188453674,-0.017402496188879013,0.016874153167009354,0.07400328665971756,0.06348434090614319,0.07248121500015259,-0.052225466817617416,0.08842949569225311,-0.018405845388770103,-0.09586457908153534,0.04420146346092224,0.009240483865141869,-0.03055049479007721,-0.07492638379335403,-0.02533935382962227,0.00778358057141304,0.007168404757976532,0.038098983466625214,-0.04942920431494713,0.01169543620198965,-0.04818493872880936,0.041811536997556686,-0.030316105112433434,0.09493152052164078,0.014934753999114037,-0.03803117573261261,-0.03268788754940033,-0.003970325458794832,-0.030947305262088776,0.025456365197896957,-0.06172504648566246,0.04367455095052719,-0.053627680987119675,-0.05476883426308632,-0.05285722762346268,-0.05632370710372925,-0.06848441809415817,0.00835679192095995,-0.0017053344054147601,0.06248451769351959,-0.0004461857897695154,-0.11643940955400467,-0.040872957557439804,0.0026853294111788273,-0.10032563656568527,0.004880002699792385,-0.034370869398117065,-0.06096244603395462,-0.02898617647588253,0.03239193186163902,0.01714792661368847,-0.03332643210887909,0.022092755883932114,0.06137664616107941,-0.09825799614191055,-0.03213615342974663,0.061795830726623535,-0.04822413995862007,-0.035905689001083374,-0.10453172028064728,-0.15178969502449036,-0.1370694935321808,-0.004273051396012306,0.05923708528280258,0.04039027914404869,-0.10349995642900467,-0.02267342433333397,-0.0492803156375885,-0.10905249416828156,0.011889872141182423,-0.048672839999198914,0.032190509140491486,0.023496359586715698,-0.13045644760131836,-0.0764860212802887,-0.1118573397397995,-0.12682995200157166,0.18961845338344574,0.1198413223028183,-0.0005623474135063589,0.037184834480285645,-0.03746231272816658,0.05138327553868294,0.05266796797513962,0.08519458025693893,0.029146376997232437,-0.011082565411925316,-0.015403148718178272,0.03558410704135895,-0.11220745742321014,-0.020639197900891304,0.04516670107841492,0.04798680916428566,0.0475020594894886,0.042032524943351746,-0.020542055368423462,0.021080752834677696,-0.03430430218577385,-0.1616203635931015,-0.17241227626800537,-0.1987210512161255,-0.09572950750589371,-0.10167530924081802,-0.03844080865383148,0.026518844068050385,-0.022835450246930122,0.11361292004585266,0.04547177255153656,0.03804578632116318,0.05503595247864723,0.0011716788867488503,0.03300720825791359,0.11146822571754456,-0.03311599791049957,-0.016663355752825737,-0.029350843280553818,-0.1646283119916916,-0.13799428939819336,-0.07170021533966064,-0.048303764313459396,0.03861576318740845,-0.014565466903150082,-0.006817634683102369,-0.014200136065483093,0.026276567950844765,0.010125739499926567,0.03545147180557251,0.03749646991491318,-0.06294569373130798,-0.06681051850318909,-0.023823710158467293,-0.013059776276350021,0.0882878229022026,0.006651109084486961,0.02351565659046173,0.0007155409548431635,-0.00448639364913106,0.07102981209754944,0.06026320159435272,-0.00985906831920147,-0.023129532113671303,-0.060529351234436035,0.06680650264024734,-0.0790230929851532,-0.09403169900178909,-0.08985596895217896,-0.01681516505777836,-0.08140601217746735,-0.027188889682292938,0.02080390974879265,-0.05363788455724716,-0.09137903898954391,-0.006882119458168745,0.006982652470469475,-0.033408597111701965,0.030162546783685684,0.05278421565890312,0.027982482686638832,-0.06511164456605911,0.0025412063114345074,-0.08351869881153107,0.0532662495970726,-0.06733348220586777,0.1076914370059967,-0.09155403822660446,-0.024593817070126534,-0.08015180379152298,-0.05621185898780823,-0.044776447117328644,-0.08494382351636887,-0.10748211294412613,0.015797242522239685,-0.0121156619861722,0.03722811117768288,0.017290018498897552,-0.008254550397396088,0.02100851573050022,0.014398460276424885,0.06782077252864838,-0.022778911516070366,0.03683748468756676,0.09974301606416702,-0.01322249136865139,0.08389149606227875,0.09711723029613495,0.0690738707780838,-0.09586123377084732,0.022119419649243355,0.10107088088989258,-0.018113624304533005,0.06531993299722672,-0.04838140681385994,-0.038157738745212555,-0.045987606048583984,0.04603200405836105,0.035523250699043274,-0.08239258825778961,0.0313614085316658,-0.041613779962062836,0.049959227442741394,0.07766933739185333,0.014041231013834476,-0.10484757274389267,0.046124137938022614,-0.0057146125473082066,0.008573777973651886,0.04912557452917099,-0.10888687521219254,-0.16915135085582733,-0.014067120850086212,-0.023792997002601624,0.039014607667922974,0.08562450110912323,0.0810292512178421,0.041205596178770065,0.06754057854413986,0.004638844635337591,0.08300960808992386,0.06887052953243256,-0.06084788590669632,0.01939968951046467,-0.002916996367275715,0.0552196279168129,-0.03987951576709747,-0.01390861440449953,0.048396892845630646,-0.01782289519906044,0.11742976307868958,0.0030421698465943336,-0.03403673693537712,-0.0748586654663086,-0.07986249029636383,-0.09413685649633408,-0.07428169250488281,-0.007487101946026087,0.07024670392274857,-0.03512798622250557,-0.03831133618950844,-0.026564229279756546,0.07366948574781418,0.0031727903988212347,-0.018065588548779488,0.04409801587462425,0.00845489650964737,0.0427074059844017,-0.0077155157923698425,-0.04119154065847397,-0.0628342255949974,-0.10830762982368469,0.026298867538571358,-0.09854327142238617,-0.08378789573907852,-0.018709784373641014,-0.12146203964948654,-0.07136082649230957,-0.05234026163816452,-0.057089630514383316,-0.050761736929416656,0.04554646089673042,0.06527219712734222,0.06193529814481735,0.05892661586403847,0.012562784366309643,-0.026193896308541298,-0.030017932876944542,-0.04270736128091812,-0.022203296422958374,0.0063183726742863655,-0.0004966893466189504,-0.06173262745141983,-0.04114360734820366,-0.010395349003374577,-0.036512695252895355,0.09038113802671432,-0.017425771802663803,-0.05291268229484558,-0.07146701216697693,-0.13791778683662415,-0.10261107981204987,-0.10311370342969894,-0.09110158681869507,-0.05593471974134445,-0.025576874613761902,-0.08215813338756561,-0.027031436562538147,-0.057236671447753906,-0.044113367795944214,-0.056814394891262054,0.014225308783352375,0.07556057721376419,-0.035433221608400345,-0.01757795549929142,0.004928512033075094,0.04778001829981804,0.0853177011013031,0.07590351998806,0.008454758673906326,0.10979756712913513,0.10905978828668594,0.076250821352005,0.09910985827445984,0.10879219323396683,-0.005332565866410732,-0.05797993391752243,0.0015479049179702997,-0.10023170709609985,-0.0005008058506064117,-0.0007918251794762909,-0.0047629475593566895,-0.05774899572134018,-0.035750288516283035,0.058145247399806976,-0.034955572336912155,0.04622694104909897,0.00014520378317683935,-0.016591167077422142,0.0290171317756176,-0.015078541822731495,-0.043272823095321655,0.0275131706148386,-0.09103737026453018,-0.029142137616872787,-0.10563298314809799,-0.023578224703669548,0.08571887761354446,-0.024328771978616714,-0.032157011330127716,-0.04009268432855606,-0.100540891289711,0.0043181548826396465,-0.06320805847644806,-0.022732842713594437,-0.01804746314883232,-0.05453123152256012,-0.10589469969272614,0.00020579423289746046,0.006077440455555916,0.014635258354246616,0.023951008915901184,0.00769831845536828,-0.055140171200037,0.09319410473108292,0.117462657392025,-0.05943821370601654,-0.07071748375892639,-0.009988929145038128,-0.11483199149370193,-0.05707637220621109,-0.011099656112492085,-0.020901868119835854,-0.08910935372114182,0.014670198783278465,-0.036834467202425,0.04878993704915047,0.02375333569943905,-0.07363853603601456,-0.07096747308969498,-0.05545949190855026,-0.009577729739248753,-0.03918779268860817,-0.16583018004894257,-0.11862457543611526,-0.010509374551475048,0.002104884944856167,0.03494300693273544,0.0004391462716739625,-0.051031600683927536,0.017651384696364403,0.0395730696618557,0.08422423899173737,0.15971122682094574,-0.07655149698257446,0.05097752809524536,0.019242078065872192,0.0463927760720253,-0.021030405536293983,0.07337436825037003,0.08760189265012741,0.03318587318062782,0.036940496414899826,0.02497210167348385,-0.012030048295855522,0.029629100114107132,-0.04689597710967064,-0.02149110473692417,0.049979183822870255,-0.007028053980320692,0.009572133421897888,0.02159849926829338,0.055758703500032425,0.07426632195711136,-0.047394365072250366,0.027761559933423996,-0.006114791613072157,0.009339255280792713,0.08360955864191055,0.03683700039982796,0.013213329017162323,-0.028628788888454437,-0.02256467379629612,-0.0059777298010885715,-0.0585237480700016,-0.0254466962069273,-0.08315856009721756,0.06988765299320221,0.03098253719508648,-0.08491451293230057,-0.06661251187324524,0.04702560231089592,-0.09542018175125122,-0.028465284034609795,-0.08059917390346527,0.01999836228787899,0.06605633348226547,-0.029499109834432602,0.006292879581451416,0.06414825469255447,-0.044433556497097015,-0.022400518879294395,-0.06447698920965195,0.11871736496686935,-0.011571473442018032,-0.10772973299026489,-0.039350297302007675,-0.017637135460972786,-0.01908431202173233,0.015980899333953857,0.01917211525142193,
0.08436637371778488,0.032496895641088486,0.014287936501204967,0.02737787738442421,0.010797969065606594,0.00978368055075407,-0.03669791296124458,-0.025752989575266838,0.046221375465393066,0.06742671132087708,0.0990917831659317,0.016599174588918686,0.04371977970004082,-0.014531319960951805,0.07636132836341858,0.006403177976608276,0.008861965499818325,0.021374916657805443,0.02380160056054592,-0.05596178397536278,-0.061712201684713364,-0.07872840762138367,0.03986304998397827,0.009377292357385159,0.031900957226753235,0.11488865315914154,0.11497847735881805,-0.012556811794638634,0.024528643116354942,-0.02513456903398037,-0.05826592072844505,0.023416271433234215,-0.004462883807718754,0.056571293622255325,-0.034113407135009766,0.023120008409023285,-0.009110099636018276,0.004763409495353699,-0.006193011067807674,-0.0704096108675003,0.04154127463698387,-0.019331444054841995,-0.03281829506158829,-0.051003824919462204,-0.036362845450639725,-0.019742704927921295,0.025381820276379585,-0.08781479299068451,-0.008785934187471867,-0.05298367142677307,-0.06658390164375305,-0.005287142004817724,0.006098177749663591,0.032479532063007355,0.05827173590660095,0.014888356439769268,0.02776586078107357,0.0559903159737587,-0.01742115244269371,0.050846878439188004,-0.06249624118208885,-0.08106987178325653,-0.019798027351498604,-0.10555419325828552,-0.05772584304213524,-0.07454629242420197,-0.04071062058210373,-0.049723364412784576,-0.018465960398316383,0.009558552876114845,0.06461858004331589,0.07673432677984238,-0.04496736079454422,0.04955638200044632,-0.06700173020362854,-0.0493636392056942,0.014955519698560238,-0.02406315878033638,-0.035261981189250946,-0.0591900534927845,0.0019392562098801136,0.018594376742839813,0.025541268289089203,0.016482427716255188,-0.04705075919628143,0.04471393674612045,0.05507225915789604,-0.007606115657836199,0.011620882898569107,-0.019582921639084816,0.01813703589141369,0.10838287323713303,0.02174670435488224,0.05458153784275055,-0.06494218856096268,0.005527087952941656,-0.011780081316828728,-0.08252698928117752,-0.05688883736729622,-0.003619164228439331,0.07460799068212509,0.06200094521045685,0.007675948552787304,-0.009791871532797813,0.01956764981150627,0.02636861614882946,-0.06332309544086456,-0.02332727238535881,0.008299014531075954,0.04548785835504532,0.016325438395142555,0.01706858165562153,-0.05098111554980278,-0.022269239649176598,0.031671542674303055,-0.09728876501321793,-0.1458601951599121,0.021167179569602013,0.07176750153303146,-0.04423612356185913,0.02937360666692257,-0.02814597636461258,-0.02713313139975071,0.01868487522006035,-0.01229972392320633,0.029509805142879486,-0.007798641920089722,-0.01423094142228365,-0.009038734249770641,0.03848635032773018,0.058151498436927795,-0.0008713125716894865,0.0361461341381073,-0.041587408632040024,-0.011258947663009167,0.022060642018914223,0.042900800704956055,0.008268210105597973,-0.07383599132299423,-0.14270339906215668,-0.07949522882699966,-0.002339443424716592,-0.034422412514686584,0.044900864362716675,-0.008544386364519596,0.03052157536149025,0.013659441843628883,0.02192663960158825,-0.06216150522232056,0.031314775347709656,-0.01875021494925022,0.05461575835943222,0.09467827528715134,-0.018102824687957764,-0.0018766829743981361,0.050988271832466125,0.020056549459695816,0.034054968506097794,-0.007657651323825121,0.036355700343847275,-0.01607447862625122,-0.06034674495458603,0.03250114247202873,0.04238012060523033,-0.04913255199790001,0.04436354711651802,-0.08222261816263199,-0.05030927434563637,0.012954064644873142,-0.06173869967460632,0.02564357966184616,0.00394843053072691,0.014332523569464684,0.011951623484492302,0.054940033704042435,-0.029644353315234184,-0.02668364718556404,0.04075523465871811,0.07862032949924469,0.06473749130964279,-0.10120975226163864,-0.0752963051199913,-0.0966399610042572,-0.06126347556710243,-0.04204218462109566,0.0014554908266291022,-0.05027647316455841,0.05021766200661659,0.017757514491677284,-0.010103686712682247,-0.03090919926762581,-0.04726555570960045,-0.02835652604699135,0.07883303612470627,0.03343907743692398,-0.04163472726941109,-0.043848443776369095,-0.01337184477597475,0.016925984993577003,0.10591127723455429,0.027037084102630615,-0.052284520119428635,0.073829784989357,0.02480752393603325,0.061430513858795166,-0.03846589848399162,0.04796111211180687,-0.023097079247236252,-0.06299935281276703,-0.01824433170258999,0.002783231670036912,0.05972953140735626,0.013684232719242573,0.0337207168340683,-0.019232144579291344,-0.00038719113217666745,0.021760376170277596,-0.08346419781446457,0.017809780314564705,0.026926511898636818,-0.08833574503660202,-0.02807730622589588,0.030037270858883858,-0.011399838142096996,-0.03873218223452568,-0.02667687088251114,0.08705609291791916,0.014651271514594555,0.006338769104331732,0.048311349004507065,-0.025153130292892456,0.026089563965797424,0.03633726015686989,0.05007913336157799,0.007759632542729378,-0.044705428183078766,-0.03700803965330124,-0.021110979840159416,-0.05406183376908302,0.004179050214588642,-0.04089191183447838,0.021735133603215218,0.03342120721936226,0.008211883716285229,-0.04907514154911041,-0.05936970189213753,-0.05338325351476669,-0.16304004192352295,-0.09798895567655563,-0.06825385987758636,-0.10682336986064911,-0.03255152702331543,-0.015883775427937508,0.03483186662197113,-0.033565860241651535,0.042573317885398865,-0.050713952630758286,0.011058459058403969,0.017909659072756767,0.026287663727998734,-0.044425323605537415,0.02860138937830925,-0.10828331112861633,-0.0068543944507837296,-0.024254469200968742,-0.034735143184661865,0.022929660975933075,-0.05207884684205055,-0.06814175099134445,-0.01696978323161602,0.05419473722577095,0.06366035342216492,-0.10386135429143906,-0.004243752453476191,-0.04358617961406708,-0.14562906324863434,0.006187510676681995,-0.05388419330120087,-0.07445213198661804,0.03453420475125313,0.01244649849832058,-0.027021517977118492,-0.07899733632802963,0.08330105245113373,0.10387077182531357,-0.013451116159558296,0.07485060393810272,0.10908155143260956,-0.056557342410087585,-0.038047272711992264,-0.01792854443192482,-0.03685487061738968,0.04617049917578697,-0.025682004168629646,0.02677215449512005,-0.051272325217723846,-0.06222247704863548,-0.014466567896306515,-0.10621727257966995,-0.14145240187644958,-0.019030628725886345,-0.10482535511255264,-0.003846426261588931,-0.024765416979789734,0.03289207071065903,-0.012594097293913364,-0.028805676847696304,-0.006129305809736252,-0.07638975977897644,-0.014659175649285316,-0.024502910673618317,-0.028765609487891197,-0.0008879685774445534,-0.035684362053871155,-0.03671732917428017,0.038956545293331146,-0.059234555810689926,0.008759299293160439,0.009463642723858356,-0.006445571780204773,0.030120011419057846,-0.01984744891524315,-0.0706094354391098,-0.007856502197682858,0.0012730065500363708,0.09079186618328094,0.018506869673728943,-0.07669404149055481,0.07775795459747314,-0.05228395015001297,0.023096274584531784,-0.043753042817115784,-0.08267442882061005,-0.03023577481508255,-0.00446642329916358,0.01350646186619997,-0.03410937637090683,0.030682576820254326,-0.0871642529964447,-0.005156146828085184,-0.030536441132426262,0.06082800030708313,0.13271328806877136,0.03828766942024231,-0.0598374642431736,-0.016973892226815224,0.08230132609605789,0.027615182101726532,0.022244440391659737,-0.10191520303487778,-0.08009566366672516,0.02504209615290165,-0.07746528834104538,0.09089861810207367,0.05888083204627037,-0.04642068222165108,-0.08192949742078781,0.01644207164645195,0.05217534676194191,0.030869314447045326,0.021510811522603035,0.016778625547885895,-0.0025956761091947556,0.0327705442905426,-0.047463830560445786,-0.01799367554485798,-0.03002043440937996,-0.06323343515396118,-0.05282476171851158,0.04645386338233948,0.11274617165327072,-0.02847287245094776,0.08312761038541794,0.008934399113059044,0.03279910981655121,-0.011230272240936756,0.024116219952702522,0.05026776343584061,-0.009992795065045357,-0.10099321603775024,-0.03831053897738457,0.014649344608187675,0.06869947165250778,0.026578232645988464,0.025654688477516174,0.03312341868877411,0.0781184732913971,-0.0008618010324425995,-0.039005033671855927,0.05610936880111694,0.038040582090616226,0.13194268941879272,-0.027685383334755898,0.002052157185971737,-2.2035263100406155e-05,0.043131403625011444,0.0309893935918808,-0.030062921345233917,0.020360181108117104,0.036032743752002716,0.005573117174208164,0.027448175475001335,0.015527160838246346,0.09536898136138916,0.129484161734581,-0.07134387642145157,-0.013852931559085846,-0.06895982474088669,-0.01645064726471901,0.06659594178199768,0.0023812921717762947,-0.016030244529247284,0.035086486488580704,0.02559017948806286,-0.012104368768632412,0.03687361627817154,0.05450411140918732,-0.003571949200704694,-0.047082606703042984,8.545452146790922e-05,-0.09572941064834595,-0.03837232291698456,0.020184308290481567,-0.07407151162624359,0.03798426687717438,0.008913790807127953,-0.02161688730120659,0.010576632805168629,0.010007908567786217,0.012434414587914944,-0.09383315593004227,-0.01983598805963993,0.0015427969628944993,0.062406349927186966,0.06417076289653778,-0.004751727916300297,0.04043162614107132,0.037694040685892105,0.04806520417332649,0.019195985049009323,-0.05610585957765579,0.0776602253317833,0.04431983456015587,0.0195003729313612,0.021339567378163338,0.13278810679912567,0.0784316137433052,0.03490762040019035,0.04415111243724823,-0.005148744210600853,0.02339460887014866,0.05628327280282974,-0.04337958246469498,0.021465588361024857,0.028843725100159645,-0.05207837000489235,0.019773541018366814,-0.04203225299715996,-0.15789827704429626,0.02028251811861992,0.054029252380132675,-0.03469656780362129,0.03331759572029114,0.06957520544528961,-0.04453716427087784,0.03357290104031563,-0.04125894978642464,-0.012965495698153973,-0.034822650253772736,-0.13726964592933655,-0.025051258504390717,0.005346360616385937,-0.006239454261958599,0.031501784920692444,-0.0002808699500747025,0.022453729063272476,0.01868368498980999,0.037241123616695404,-0.08227360993623734,-0.12325280159711838,0.032527707517147064,0.02401898242533207,-0.11010964959859848,0.02890782430768013,-0.0030819508247077465,-0.030203919857740402,-0.014570399187505245,-0.07053053379058838,0.028657110407948494,-0.03666335716843605,-0.06066371500492096,-0.07205688953399658,-0.030741337686777115,-0.042436763644218445,-0.12425456941127777,-0.0016907047247514129,-0.03774118050932884,-0.018608395010232925,0.008893631398677826,-0.08160136640071869,-0.01625930145382881,0.026171108707785606,-0.03030439279973507,-0.033031657338142395,-0.032215017825365067,-0.12130836397409439,-0.01832609809935093,-0.013590814545750618,-0.018923478201031685,-0.04566960409283638,8.233592961914837e-05,0.038327042013406754,0.08618622273206711,0.06390561908483505,-0.02238890342414379,0.00306371389888227,0.022297898307442665,0.05725281685590744,0.03951232507824898,-0.03165649250149727,0.07101710885763168,0.002442622557282448,-0.011846224777400494,-0.01628536358475685,0.024795886129140854,-0.016987919807434082,0.04095258563756943,-0.04265691712498665,0.06859233230352402,-0.02737480401992798,-0.01361631229519844,-0.01906559057533741,-0.00296499440446496,0.035791438072919846,0.050021689385175705,-0.06480877846479416,-0.05244375765323639,-0.02997549995779991,-0.04066619277000427,-0.022424299269914627,-0.01744096353650093,0.09450078010559082,-0.02473215013742447,-0.07386491447687149,-0.03971948102116585,0.05548398941755295,0.0682225227355957,0.07967028021812439,0.03260153904557228,-0.05844404175877571,0.02074733003973961,0.0005863087135367095,0.0049118772149086,0.008042590692639351,0.05440381541848183,0.05547850579023361,-0.06283526867628098,-0.0357886403799057,0.030779695138335228,0.017354492098093033,0.023744558915495872,-0.015491366386413574,0.09089527279138565,-0.03793784976005554,0.0024211215786635876,0.059227459132671356,0.08376311510801315,0.020635681226849556,-0.04953380301594734,0.055234394967556,-0.05160234123468399,-0.06509881466627121,0.04372270032763481,-0.013013804331421852,-0.002484284806996584,-0.06173941120505333,
0.0768834799528122,-0.025340860709547997,-0.12112458050251007,-0.08846324682235718,0.06800509244203568,0.01204268541187048,0.051487263292074203,0.0075152283534407616,0.0494358092546463,-0.0012615512823686004,0.07596177607774734,-0.04361787438392639,0.009694148786365986,0.1410684734582901,0.05564875528216362,0.06855461746454239,0.0877801775932312,0.007861262187361717,0.04725899547338486,0.05213291943073273,-0.03875499963760376,-0.03961879387497902,0.007700927089899778,0.0257278960198164,0.028855741024017334,0.06462347507476807,0.014780406840145588,0.003391437930986285,-0.021800843998789787,-0.03413079306483269,0.007283482700586319,0.028009483590722084,0.04024765267968178,0.016079135239124298,-0.0047820983454585075,-0.05213703215122223,-0.0063207936473190784,0.07923126965761185,0.07235605269670486,-0.02814835123717785,0.07286790758371353,0.12196039408445358,-0.08452749997377396,0.04356053099036217,-0.0038931150920689106,0.0205073244869709,-0.07260487973690033,-0.0038946112617850304,-0.016726316884160042,0.07514547556638718,0.033575210720300674,-0.03240487352013588,-0.03770345076918602,0.07918716967105865,-0.03285406157374382,0.06037796661257744,-0.07163979113101959,-0.06908959150314331,0.0324866883456707,-0.03164643421769142,-0.009120378643274307,0.02430136129260063,0.012970218434929848,0.03706302493810654,0.05476441606879234,0.09305471181869507,0.033979177474975586,0.041654784232378006,-0.13092422485351562,0.023690467700362206,-0.026683654636144638,-0.017058702185750008,-0.10451893508434296,-0.0641549825668335,-0.031585920602083206,-0.03463897481560707,-0.028389425948262215,-0.01901928335428238,-0.07978294044733047,-0.0879894345998764,-0.04278393089771271,0.0031789278145879507,0.08217902481555939,-0.06552527844905853,0.0002999981225002557,-0.014433268457651138,-0.07301679998636246,0.03950147330760956,-0.016081320121884346,-0.01316914614289999,0.09953940659761429,0.024797555059194565,0.060511406511068344,0.01769966073334217,-0.08415891230106354,0.018776660785079002,0.022451365366578102,-0.017347298562526703,-0.01150606106966734,0.042861826717853546,-0.043131109327077866,-0.013602777384221554,0.035801589488983154,-0.05697473883628845,0.06337611377239227,0.005497003439813852,-0.06821814179420471,0.07267492264509201,-0.046810608357191086,-0.07401756197214127,-0.02868441492319107,0.03412463515996933,0.010686657391488552,-0.01157196145504713,-0.006593361496925354,0.04919758066534996,0.019111253321170807,-0.038844507187604904,0.08325333893299103,-0.005271503236144781,-0.06560081243515015,0.012730318121612072,0.053031470626592636,0.013927801512181759,-0.01121227815747261,0.08822117745876312,0.045592837035655975,-0.03357761353254318,-0.0030262127984315157,0.029874205589294434,-0.07425576448440552,0.07895797491073608,0.05690596252679825,0.03913584724068642,-0.005994179751724005,0.008670602925121784,-0.1006772592663765,-0.00353246764279902,-0.006998445838689804,-0.04895849898457527,-0.07965921610593796,-0.06989697366952896,0.001713706529699266,-0.0017391341971233487,-0.021427830681204796,-0.03136973828077316,0.06271973252296448,-0.0488094799220562,-0.04244237765669823,-0.05889265239238739,-0.032447781413793564,-0.02744375355541706,0.010023513808846474,0.09465251117944717,0.05399875342845917,0.024985939264297485,-0.04292597249150276,-0.06448306143283844,0.03497221693396568,-0.05255630984902382,0.015151772648096085,-0.05074287950992584,-0.009787789545953274,-0.00995731446892023,0.01892327331006527,0.015998950228095055,0.016590559855103493,0.025813214480876923,0.011788192205131054,-0.011387129314243793,-0.08338217437267303,0.04582284018397331,-0.04196389019489288,0.07707104831933975,0.013458875007927418,0.0532558411359787,0.04687407240271568,0.049651920795440674,-0.0686836689710617,0.10212624073028564,-0.011832548305392265,-0.09616810828447342,-0.14215213060379028,0.01929168589413166,0.04201488569378853,0.06665196269750595,0.007827622815966606,-0.007468920201063156,0.03929098695516586,-0.00024870611377991736,-0.031104668974876404,-0.17849993705749512,0.0618135966360569,0.10954335331916809,0.07769319415092468,0.02374066226184368,0.004950591828674078,-0.05626889318227768,0.04973635822534561,-0.004629278089851141,-0.11011630296707153,0.007866421714425087,0.0064280275255441666,0.011493547819554806,0.030569517984986305,-0.012643194757401943,0.02876838855445385,0.006455188151448965,-0.1003762036561966,0.003817583667114377,-0.04198027402162552,-0.03789795562624931,-0.023174582049250603,-0.01983405463397503,-0.046068307012319565,0.04471085965633392,-0.05801262706518173,-0.09677884727716446,-0.07014761120080948,-0.024247733876109123,-0.14119026064872742,0.002634573495015502,-0.03152499720454216,0.09993390738964081,-0.0005941867711953819,0.02270967699587345,-0.0846618041396141,0.004941009916365147,0.008746773935854435,-0.06295539438724518,-0.044533949345350266,-0.033339496701955795,-0.015300333499908447,-0.0004813426057808101,0.03030058555305004,0.012814554385840893,-0.03749410808086395,0.06223459914326668,-0.00033290611463598907,-0.06473769247531891,0.05354762449860573,0.04702182114124298,0.023217516019940376,-0.061310555785894394,-0.04763917624950409,-0.049105122685432434,0.005220940802246332,0.019440390169620514,0.018080752342939377,0.054866909980773926,0.04131675511598587,-0.02544533461332321,-0.00867106206715107,-0.0656358078122139,-0.01780296303331852,-0.03155185654759407,-0.08180045336484909,-0.024285849183797836,-0.014766287989914417,0.025897759944200516,-0.0033346405252814293,-0.06237810477614403,-0.04693754017353058,0.008212956599891186,0.034033723175525665,0.0016878633759915829,-0.07244698703289032,0.024814963340759277,-0.008005999028682709,-0.023087918758392334,0.07148030400276184,0.01039872132241726,-0.10741549730300903,-0.049255453050136566,-0.03512030467391014,0.02209525741636753,0.14697103202342987,0.08740977942943573,0.004027201794087887,0.023510383442044258,0.043638426810503006,0.12023699283599854,-0.05391368642449379,0.06141681969165802,-0.038101498037576675,-0.03849199414253235,-0.08041518926620483,-0.04532308876514435,-0.05960186570882797,0.016893215477466583,0.0009883787715807557,-0.012191584333777428,0.014380375854671001,0.0728997215628624,-0.0045556919649243355,0.05000004172325134,-0.02114935964345932,0.03698698431253433,-0.003912446554750204,-0.22068943083286285,-0.010197961702942848,0.061624642461538315,0.034444212913513184,0.0018810891779139638,-0.05009136721491814,-0.017164068296551704,-0.06992330402135849,-0.048246920108795166,-0.1333853304386139,-0.03993459418416023,0.010761662386357784,0.05448750779032707,0.08055218309164047,0.007401566952466965,0.048912011086940765,-0.01217177975922823,-0.019954891875386238,0.05225076153874397,0.04800746962428093,0.010502812452614307,-0.022023294121026993,0.07897888869047165,0.045727670192718506,-0.017114784568548203,0.0002647491928655654,-0.018811633810400963,0.05935736000537872,-0.003761058207601309,-0.09038412570953369,-0.046207938343286514,-0.054224643856287,-0.009544715285301208,0.06913286447525024,-0.13641181588172913,0.031173499301075935,-0.0871562659740448,-0.009888321161270142,0.004147387109696865,-0.0565347895026207,-0.03814913332462311,-0.014869997277855873,0.019411558285355568,-0.016790540888905525,0.07716498523950577,-0.0380217470228672,-0.008390728384256363,-0.04095422476530075,-0.027091307565569878,0.019255133345723152,0.03520101681351662,0.03834318369626999,0.026124853640794754,-0.001754097524099052,0.07140812277793884,0.04472660645842552,0.0017697715666145086,-0.006254058331251144,0.119428351521492,0.015304572880268097,0.02920287288725376,-0.00759050203487277,-0.09354820102453232,-0.0703456923365593,-0.04736289381980896,-0.01846451684832573,-0.07050777226686478,-0.0704607218503952,-0.04210422560572624,-0.006995958276093006,-0.0021097296848893166,0.11312229186296463,0.011039472185075283,-0.024070510640740395,0.011080826632678509,0.002568530384451151,0.02634456194937229,-0.02718898095190525,-0.010813879780471325,-0.06793166697025299,-0.038480956107378006,-0.04480969160795212,-0.047586582601070404,0.03029012680053711,0.048805903643369675,-0.05065397173166275,0.04194948822259903,0.08564990758895874,-0.05612834170460701,-0.05094660446047783,0.12282928079366684,0.09151455014944077,0.005390000529587269,-0.08890876919031143,-0.008586548268795013,-0.0760335922241211,-0.08829446136951447,0.03154265880584717,0.0585266537964344,0.02036549709737301,0.013627844862639904,-0.01546513568609953,0.09739219397306442,0.03860929608345032,0.02325490675866604,0.08244451135396957,0.02224254235625267,0.010597670450806618,0.13919620215892792,0.05260159447789192,-0.06648454070091248,0.03945831581950188,0.08488275855779648,-0.01256309263408184,9.722307731863111e-05,-0.0022962288931012154,0.04747501015663147,0.05459273234009743,-0.02291530929505825,0.040295206010341644,-0.14003399014472961,0.06610965728759766,0.04633721336722374,0.04497959092259407,-0.0007925289683043957,-0.035036563873291016,-0.16351987421512604,-0.02222089283168316,0.009897512383759022,-0.0562916025519371,-0.05889149382710457,0.022577855736017227,-0.030912140384316444,0.036380115896463394,-0.045825161039829254,-0.08964262902736664,0.017780644819140434,0.014181558974087238,-0.023679599165916443,0.06707706302404404,-0.03278706222772598,-0.00938731711357832,-0.023848794400691986,0.0010953962337225676,0.11169413477182388,0.052122633904218674,-0.05438876152038574,0.07113105058670044,0.0584256611764431,0.09735427051782608,0.23752586543560028,-0.07076213508844376,-0.011524626053869724,-0.12280125170946121,-0.025520814582705498,0.03958163410425186,-0.04796590656042099,0.05584453046321869,0.13335269689559937,0.037079524248838425,-0.03814452886581421,-0.10062441229820251,0.019381605088710785,0.06492333114147186,-0.044557955116033554,-0.13803942501544952,-0.05465912073850632,-0.012251609936356544,0.003648537676781416,0.019092237576842308,0.006074783392250538,-0.049459308385849,-0.018203625455498695,0.09811537712812424,-0.031407009810209274,-0.0005654349224641919,0.011803041212260723,-0.026836497709155083,-0.0234500952064991,-0.03186289593577385,-0.14983737468719482,-0.030276022851467133,-0.05611187219619751,0.12261538207530975,-0.0056441244669258595,0.0295705683529377,-0.009227640926837921,-0.046330951154232025,-0.04189485311508179,-0.001167125767096877,-0.015034187585115433,-0.039321888238191605,0.032940227538347244,0.004341544583439827,-0.0006782212294638157,0.01682717725634575,0.014897853136062622,-0.017686259001493454,-0.0035368732642382383,0.06750807166099548,0.07720213383436203,-0.010523771867156029,0.11093594878911972,0.005560665857046843,0.17355263233184814,0.022068653255701065,-0.09943825006484985,-0.04326474666595459,0.04523741826415062,-0.04281008616089821,-0.10616257786750793,-0.09372837841510773,-0.12602297961711884,-0.09312993288040161,-0.04433659091591835,-0.029396861791610718,-0.07162192463874817,-0.0472453311085701,0.0020184656605124474,0.15365716814994812,0.024464832618832588,-0.021589869633316994,-0.020416785031557083,0.07757668942213058,0.002318587154150009,0.07843504846096039,-0.00624142587184906,-0.05141103267669678,0.06539572030305862,0.027694355696439743,0.016970355063676834,0.1333804875612259,0.0006708617438562214,0.047323375940322876,0.06192493438720703,-0.020858662202954292,-0.09282003343105316,0.0247665885835886,-0.024945147335529327,-0.04492044448852539,-0.005192279350012541,-0.09083728492259979,-0.0036132526583969593,-0.08114493638277054,-0.08041121810674667,0.005951176397502422,-0.048227012157440186,-0.014979553408920765,0.0536167286336422,-0.032966259866952896,-0.06962541490793228,-0.020357275381684303,-0.07574174553155899,0.05498587340116501,0.08252142369747162,-0.0630590170621872,0.0703827366232872,0.01437903381884098,-0.08544469624757767,0.0013275397941470146,0.05931444838643074,0.05476916953921318,0.01541231106966734,0.0005709665711037815,0.0693083107471466,-0.013679452240467072,0.05452393367886543,0.009115024469792843,-0.04331213980913162,-0.033837512135505676,-0.05834135413169861,-0.09925775229930878,0.0012643933296203613,-0.022245632484555244,-0.02614106796681881,-0.003341939067468047,0.011885423213243484,
0.07568182796239853,-0.13586772978305817,-0.04647480323910713,-0.03188030794262886,-0.0014619750436395407,0.025888146832585335,0.019615309312939644,0.06392040103673935,0.05195548012852669,-0.0049452767707407475,0.029147351160645485,-0.036792904138565063,-0.04337247461080551,0.07528284937143326,-0.009412378072738647,0.005915267392992973,-0.005168893840163946,-0.002781062154099345,0.007938474416732788,-0.07423041760921478,-0.007225973531603813,0.03252558410167694,0.016869066283106804,0.031813107430934906,-0.026045378297567368,0.012116710655391216,-0.042487308382987976,-0.04979651793837547,-0.07104650884866714,-0.06510111689567566,0.042454298585653305,-0.041761770844459534,0.05056726187467575,-0.02311834879219532,-0.009820095263421535,-0.02695082128047943,0.018936211243271828,0.0044410862028598785,-0.056163232773542404,-0.028056558221578598,0.014705612324178219,0.03225705400109291,-0.02099817618727684,-0.10226833820343018,0.07192365825176239,-0.07441651076078415,-0.08230765908956528,-0.031600240617990494,0.04627763479948044,0.0439266562461853,0.020852137356996536,-0.01931326650083065,-0.02019856683909893,3.1793366360943764e-05,-0.009826969355344772,0.060481805354356766,-0.07381625473499298,0.011847522109746933,-0.017536040395498276,0.02985253930091858,0.007707239128649235,-0.04973660036921501,0.014289060607552528,0.00812225416302681,-0.02157003991305828,-0.017435282468795776,-0.019341614097356796,0.04096963629126549,0.06735991686582565,0.01830550841987133,-0.03373612463474274,0.05487032234668732,0.08447796106338501,-0.06802356988191605,-0.03251449763774872,-0.01404835470020771,-0.09700874239206314,-0.07204722613096237,0.018852369859814644,-0.06713879108428955,-0.030310282483696938,0.0004649639595299959,0.08857516199350357,-0.05431007221341133,-0.022839047014713287,-0.08291950821876526,-0.01626145839691162,0.04260895401239395,-0.015523877926170826,0.010454677976667881,0.047894593328237534,-0.03374364227056503,-0.008666036650538445,-0.06924822181463242,-0.013138771057128906,0.04937690123915672,0.012967100366950035,-0.036679696291685104,0.017963832244277,0.03681689128279686,0.036150768399238586,0.08914273977279663,0.06884577125310898,0.11503482609987259,0.028980135917663574,0.0066926865838468075,0.02151002362370491,-0.005036947783082724,-0.02933930605649948,-0.0949397087097168,-0.0006041564629413188,0.004622119478881359,-0.04674835130572319,-0.020723748952150345,0.015972835943102837,-0.007846035063266754,0.06876401603221893,0.0066520413383841515,-0.017582464963197708,0.009785047732293606,-0.037730149924755096,0.00398749066516757,-0.03242246434092522,-0.049101442098617554,0.01978548802435398,-0.0011912628542631865,0.01257750578224659,0.1070728600025177,-0.06675609946250916,0.030101973563432693,0.012554042972624302,-0.021648233756422997,0.021910592913627625,0.045893725007772446,0.04872102662920952,-0.04367366433143616,-0.09034951031208038,-0.020085718482732773,0.01733088679611683,0.06409300118684769,0.03279685229063034,-0.058281514793634415,-0.014319083653390408,0.026039153337478638,0.017081135883927345,-0.04610330983996391,0.02640339359641075,-0.03321096673607826,0.03311885893344879,0.0010661029955372214,-0.036946769803762436,-0.05157589539885521,-0.04207488149404526,-0.061077263206243515,0.10075995326042175,0.006533138919621706,0.0022680656984448433,0.05436446890234947,0.025420496240258217,0.03955411538481712,0.006675355602055788,0.05433499068021774,0.07043790817260742,0.05042422190308571,0.043198611587285995,-0.004778191447257996,0.04868905246257782,0.056958116590976715,0.030368782579898834,0.038007140159606934,0.006791743449866772,-0.061416592448949814,0.03513369336724281,0.008400171995162964,-0.0259068813174963,0.005770634859800339,0.015707772225141525,-0.013787309639155865,-0.01896853558719158,-0.02902817912399769,0.01923031359910965,0.08208222687244415,-0.00569992046803236,-0.050596196204423904,0.013102942146360874,-0.00793851912021637,0.024036578834056854,-0.009564937092363834,0.05580025166273117,0.09453710913658142,0.07877060025930405,0.0073551912792027,0.004411238711327314,0.08828878402709961,0.056451864540576935,0.022482408210635185,0.007626140955835581,0.019765693694353104,-0.00969413947314024,0.005822048056870699,0.11741609126329422,0.00957105029374361,0.044135913252830505,0.07406638562679291,0.0318649597465992,-0.003175480291247368,-0.04023633152246475,0.031684789806604385,-0.09182460606098175,0.034059248864650726,-0.043398208916187286,0.0029982258565723896,0.0741071105003357,-0.006478441413491964,0.02571129985153675,0.026847008615732193,-0.0016375962877646089,0.0648849755525589,-0.02144457958638668,-0.013042517937719822,0.08367916941642761,-0.04563368484377861,-0.004224833566695452,0.01240705419331789,0.027803346514701843,0.04616723582148552,-0.009755012579262257,0.03585907816886902,0.04580780863761902,0.02017012983560562,-0.021455634385347366,0.03942354768514633,-0.015173746272921562,-0.04779158532619476,-0.031518470495939255,-0.16103984415531158,0.04385744035243988,0.006079778075218201,0.04898368939757347,-0.030327100306749344,0.044174328446388245,0.02701389789581299,0.028773166239261627,-0.009492475539445877,-0.12126471102237701,0.036970771849155426,0.007579239085316658,0.084756039083004,0.040107179433107376,-0.0011403914541006088,0.01851269043982029,-0.07169318199157715,0.01468720007687807,0.15772593021392822,-0.0019378100987523794,0.055326513946056366,0.13096249103546143,0.09463921189308167,0.022058378905057907,0.02607918530702591,0.018478022888302803,-0.11668230593204498,-0.09514693915843964,0.0023377160541713238,-0.1034846156835556,0.07378688454627991,0.016672464087605476,0.019360758364200592,0.03468448668718338,-0.04235877841711044,0.017742564901709557,-0.07750196754932404,-0.07619680464267731,-0.017438238486647606,-0.05811801552772522,-0.00869655143469572,-0.007303542923182249,0.0050705065950751305,0.025914417579770088,0.034516286104917526,-0.01484711840748787,0.0033381006214767694,-0.015009780414402485,0.019722580909729004,0.05879634991288185,0.0063786800019443035,0.02155325748026371,0.02116633951663971,-0.08904639631509781,0.009468503296375275,0.051918067038059235,0.017638951539993286,0.00950724445283413,0.0066114976070821285,-0.011592643335461617,-0.026836872100830078,-0.028781207278370857,-0.05508093535900116,-0.06670738011598587,-0.016031647101044655,-0.0315885990858078,-0.12936954200267792,-0.11912398040294647,0.027387535199522972,0.03599736467003822,0.041717492043972015,-0.02700691483914852,0.05313322693109512,-0.022806603461503983,-0.04365477338433266,-0.002072959439828992,0.015174162574112415,0.019366519525647163,-0.02862558141350746,0.02118639647960663,0.02972128614783287,-0.006167696323245764,0.07071175426244736,-0.010971564799547195,0.15308897197246552,0.03216112405061722,0.03356494754552841,0.05647079274058342,0.012268933467566967,0.04850239306688309,0.026447175070643425,-0.10719601809978485,0.01823779009282589,-0.06117115542292595,0.013510829769074917,0.022545110434293747,0.017251890152692795,-0.022390224039554596,0.050939206033945084,0.054444096982479095,-0.005979219451546669,0.036699578166007996,-0.08883347362279892,0.0371280163526535,-0.009523004293441772,0.009423808194696903,0.0399351567029953,0.09503183513879776,-0.00982595980167389,0.05732954293489456,0.05041659623384476,0.04979560151696205,-0.05551149696111679,-0.03969733417034149,0.002723186044022441,0.007551978807896376,-0.04454442113637924,0.06099002808332443,-0.03867306932806969,-0.046407438814640045,0.025168728083372116,0.044314298778772354,0.03443146497011185,-0.027797821909189224,-0.005186816677451134,0.02835809998214245,0.012653824873268604,0.12321390211582184,-0.06764588505029678,0.04623664170503616,-0.03325536102056503,-0.03318582475185394,-0.013560621067881584,-0.022781720384955406,-0.023685887455940247,0.09969566762447357,0.06097914278507233,-0.0025609303265810013,0.022297073155641556,-0.017156437039375305,-0.046352602541446686,-0.0457116924226284,-0.004575992934405804,0.009652216918766499,0.05196961387991905,-0.01940949819982052,0.08411263674497604,0.17864049971103668,-0.0181936863809824,-0.034977830946445465,-0.01047772727906704,0.041333697736263275,0.028596868738532066,0.04367578402161598,-0.04589451104402542,-0.002015624428167939,0.042543500661849976,0.012662366963922977,0.03259187936782837,-0.012685202062129974,-0.017855212092399597,-0.08136504143476486,0.024562260136008263,0.017559444531798363,0.03096652776002884,-0.014467506669461727,-0.00823842454701662,-0.011854221113026142,-0.0627303272485733,-0.04111943766474724,0.0419795922935009,0.09922169148921967,0.07499498873949051,0.072514109313488,0.05817265436053276,0.048734214156866074,-0.019454848021268845,0.04796496033668518,-0.028175735846161842,-0.010975743643939495,0.12101675570011139,0.028646981343626976,-0.005405856296420097,0.03172234073281288,-0.012481814250349998,-0.018290279433131218,-0.005029022227972746,0.04700934886932373,0.04710235446691513,0.026007523760199547,0.017124522477388382,0.009846054948866367,-0.01113037671893835,0.008006520569324493,0.009140620939433575,-0.005372750572860241,-0.03202561289072037,0.03522702306509018,0.2052375227212906,0.016835439950227737,-0.04745420813560486,0.00623867055401206,-0.018875185400247574,0.04863712191581726,-0.05808747559785843,0.022345200181007385,0.013147260993719101,-0.03857977315783501,-0.007924560457468033,-0.03377281874418259,0.012635651044547558,-0.02233988232910633,-0.025997960940003395,0.008922797627747059,-0.014557987451553345,-0.02791045419871807,-0.025496304035186768,-0.0528714694082737,-0.02988581545650959,-0.028879260644316673,-0.041975174099206924,-0.03811139985918999,0.05843641236424446,0.058525200933218,-0.020125500857830048,-0.03334552049636841,-0.020153287798166275,-0.029828844591975212,-0.03235778585076332,-0.09124874323606491,-0.01095610298216343,0.011922761797904968,-0.03432683274149895,-0.0070840055122971535,0.0757344663143158,0.01917927898466587,0.029813533648848534,-0.06747429072856903,-0.08476918190717697,0.04995763301849365,-0.08208934217691422,-0.004700447432696819,0.007157443556934595,0.05375300347805023,-0.027062799781560898,0.01986246556043625,-0.11303568631410599,0.019124159589409828,-0.030094482004642487,0.025756942108273506,-0.08093327283859253,-0.08469617366790771,-0.018651757389307022,-0.006408401764929295,-0.03776799514889717,-0.09092661738395691,0.012426321394741535,0.004292559809982777,-0.028570307418704033,0.006744222715497017,-0.0024633179418742657,-0.08438678085803986,-0.06239619106054306,0.0025808895006775856,0.02398040145635605,-0.04040319100022316,0.0145106827840209,-0.00803153682500124,-0.002758496440947056,0.02228272147476673,0.03859914094209671,0.02857932634651661,-0.042860329151153564,0.05338912829756737,0.0352017916738987,0.006604169029742479,0.012930959463119507,-0.00768521660938859,0.05769691988825798,0.14858703315258026,0.08108530193567276,0.04816974326968193,0.010272147133946419,0.001237262855283916,0.0077736047096550465,0.0036977191921323538,-0.01076379232108593,-0.03981003537774086,-0.13891345262527466,0.04793868213891983,0.007425196934491396,-0.10451993346214294,-0.012428566813468933,-0.013682068325579166,0.05989978462457657,0.006336590740829706,0.05703052878379822,0.16291950643062592,0.034481484442949295,0.08892451226711273,-0.02850266359746456,0.020381411537528038,-0.014534587040543556,-0.05609428510069847,0.0041485922411084175,0.06937485188245773,0.041408125311136246,0.09724369645118713,0.07491504400968552,0.0828118547797203,-0.004952607210725546,0.018085448071360588,0.06305364519357681,0.031311165541410446,-0.0028009465895593166,0.012299983762204647,0.006193883251398802,-0.013838338665664196,-0.09508458524942398,0.0066273631528019905,0.002669818000867963,-0.045544058084487915,-0.01885352097451687,0.006793754640966654,-0.019753150641918182,-0.00468089384958148,-0.029722025617957115,-0.03158232197165489,0.11256703734397888,-0.009091855026781559,0.049421537667512894,0.042334455996751785,0.006126643158495426,0.09059128910303116,-0.03383611515164375,-0.028349818661808968,0.05483970046043396,-0.007827270776033401,-0.010841744020581245,-0.008399423211812973,-0.02030547335743904,
-0.02358284592628479,0.01944308541715145,-0.09992782026529312,-0.06271985918283463,0.046589769423007965,-0.02334868721663952,0.04615914076566696,0.010762166231870651,-0.021769696846604347,-0.02287464775145054,-0.07398433238267899,-0.020084068179130554,-0.04758594185113907,-0.043050117790699005,0.003728298470377922,-0.03807373344898224,0.023512568324804306,-0.09002377092838287,0.029112789779901505,-0.006429779343307018,0.010616777464747429,-0.02235819771885872,-0.0005908412276767194,-0.01902061328291893,-0.034812260419130325,-0.00841196347028017,0.07184412330389023,-0.039367351680994034,-0.0029487116262316704,-0.034312523901462555,-0.020164601504802704,0.012507692910730839,-0.013601640239357948,-0.0399850457906723,-0.03583299741148949,0.07625024765729904,-0.049247875809669495,-0.0819815993309021,0.0548795647919178,-0.0942767933011055,-0.012951590120792389,0.044868335127830505,-0.10456296056509018,-0.007892601191997528,0.07312499731779099,0.031584542244672775,0.08914761245250702,-0.006862071808427572,0.10677044093608856,0.033547889441251755,-0.02118498645722866,0.1425502896308899,0.021410701796412468,0.05037480592727661,0.045127592980861664,-0.0007048596744425595,-0.015291823074221611,0.03480830043554306,-0.08970499783754349,-0.022095050662755966,-0.0070652104914188385,-0.040168892592191696,0.0038727503269910812,0.016408611088991165,0.03654753789305687,-0.0016668654279783368,-0.018375173211097717,0.057793356478214264,-0.034887246787548065,0.01409852970391512,0.041912466287612915,0.021586336195468903,-0.0008805692195892334,-0.04592107608914375,0.02285098098218441,-0.030123386532068253,-0.10461848974227905,-0.030958138406276703,-0.03433433175086975,-0.006132369861006737,-0.04104012995958328,0.0814337283372879,-0.0029946293216198683,-0.0028607386630028486,0.07636527717113495,-0.049611445516347885,0.0034042808692902327,0.03458721935749054,-0.06108974665403366,-0.011327844113111496,-0.018052546307444572,0.01719435304403305,0.03880453109741211,-0.013362421654164791,-0.05310964956879616,0.026372067630290985,0.03604508191347122,0.016390899196267128,-0.0073876469396054745,0.042945701628923416,0.02493976429104805,0.048782747238874435,0.16767944395542145,0.0343034565448761,-0.01979552023112774,0.07176835834980011,0.0560472197830677,0.0004597620863933116,-0.042438309639692307,0.0846032202243805,-0.045221902430057526,-0.061460964381694794,0.06033305823802948,-0.06410180032253265,0.009462843649089336,-0.06443489342927933,-0.04438341408967972,-0.05317414924502373,0.04600925371050835,0.02934855967760086,-0.02629338949918747,0.07725424319505692,-0.03179079666733742,0.03779706358909607,0.030178209766745567,-0.05568314343690872,-0.07760828733444214,0.03176950663328171,-0.06884720921516418,-0.023905649781227112,0.1075008437037468,-0.08359892666339874,0.04061629995703697,0.03318005055189133,-0.06096004694700241,-0.06032811850309372,0.05209001153707504,-0.029284333810210228,0.020643826574087143,0.07426728308200836,0.007314817514270544,0.006128418259322643,-0.03499278426170349,0.046888142824172974,-0.05361104756593704,0.029269989579916,-0.14618656039237976,0.014986630529165268,0.07888472825288773,-0.08794708549976349,-0.0025782231241464615,0.03023688681423664,-0.06545736640691757,0.09368877112865448,-0.18360525369644165,0.03314754739403725,-0.08271809667348862,-0.007949842140078545,-0.03989221155643463,-0.11094958335161209,-0.04373069852590561,-0.07598169893026352,-0.09825383126735687,0.026098698377609253,0.07224666327238083,-0.0242060087621212,0.04627187177538872,0.05317244678735733,0.17263680696487427,-0.026054250076413155,0.011254732497036457,-0.05391797795891762,0.04937196150422096,0.00015010144852567464,-0.0036263640504330397,0.07275667041540146,0.010105883702635765,-0.03865610808134079,0.08233083784580231,0.030428212136030197,0.008979848586022854,0.01828201301395893,-0.03923393413424492,-0.023946287110447884,-0.048632096499204636,-0.06361278146505356,-0.01595599390566349,-0.02554941177368164,0.09893088787794113,0.002077344339340925,-0.03557547554373741,0.03511851653456688,-0.007243154104799032,-0.020366359502077103,0.035566117614507675,-0.025079891085624695,0.000845274596940726,-0.024751223623752594,-0.06316288560628891,-0.0641416385769844,-0.025128966197371483,-0.08896224200725555,0.01676803268492222,-0.06879915297031403,0.08421260118484497,0.06006747856736183,0.019066641107201576,-0.003688670927658677,0.08195704221725464,-0.013622734695672989,-0.09125394374132156,-0.0009677800117060542,0.012081531807780266,-0.03703385964035988,0.028310740366578102,-0.059707123786211014,0.01928754895925522,-0.006496181711554527,-0.013625559397041798,0.022486509755253792,-0.12283279746770859,0.03984649106860161,0.037818148732185364,-0.059376299381256104,-0.023963289335370064,0.07032959163188934,-0.013874269090592861,-0.0010018605971708894,-0.07818341255187988,0.037016913294792175,0.04669109731912613,-0.06427914649248123,-0.027710333466529846,0.03481150045990944,0.041498031467199326,-0.0697391927242279,-0.011736229993402958,-0.07862287014722824,0.009282183833420277,-0.07341884076595306,-0.19749948382377625,-0.0034734951332211494,0.03601900115609169,-0.02279677242040634,0.047898732125759125,-0.023086579516530037,-0.06931550055742264,-0.005730855744332075,0.09139276295900345,0.06372182071208954,-0.10277411341667175,0.001992965815588832,0.01846298761665821,0.032541461288928986,0.11907822638750076,0.13483946025371552,0.010664848610758781,0.04876264929771423,0.028997212648391724,0.025721833109855652,0.029800325632095337,0.01948363147675991,0.040834955871105194,0.09308017790317535,0.046378131955862045,-0.06448033452033997,0.05379624292254448,0.06239305064082146,0.049535781145095825,0.010697400197386742,0.026663390919566154,0.05059380829334259,0.008623724803328514,-0.01405493076890707,0.04609091579914093,0.02080575004220009,0.07117121666669846,0.03991001471877098,0.037536658346652985,-0.02126043476164341,-0.09303781390190125,0.09383752197027206,0.004890031181275845,-0.005193865392357111,0.005341748241335154,0.008829870261251926,0.00919338408857584,0.014959676191210747,-0.01183605007827282,0.03021324798464775,0.11741829663515091,0.010059141553938389,-0.014125467278063297,0.045378684997558594,0.038208797574043274,-0.09575681388378143,0.044365618377923965,-0.010045611299574375,-0.015975167974829674,-0.08505270630121231,-0.05720021575689316,-0.028590841218829155,-0.0656733363866806,0.13219831883907318,-0.13279220461845398,0.027779463678598404,-0.016656214371323586,-0.06374803930521011,0.038355302065610886,-0.05869678780436516,0.07432503998279572,-0.024423465132713318,-0.06338950246572495,0.12787652015686035,-0.01056065782904625,0.012908410280942917,-0.03264234587550163,-0.0005373758031055331,0.07706639170646667,0.024855708703398705,-0.02407555654644966,0.12916700541973114,-0.062433622777462006,-0.04591361805796623,-0.041192676872015,0.04167359322309494,0.017936313524842262,-0.021255211904644966,-0.0961933508515358,0.07320661842823029,-0.034194909036159515,-0.05608241632580757,-0.020292552188038826,-0.04672174155712128,0.01410810835659504,0.01922501064836979,0.06863674521446228,0.019189419224858284,0.04103764519095421,0.06589240580797195,-0.11147133260965347,0.07448085397481918,0.051668524742126465,-0.06981615722179413,0.013986221514642239,0.09235472977161407,-0.02639354020357132,-0.0359991192817688,0.07032845169305801,-0.026289375498890877,-0.031955115497112274,-0.05206109210848808,-0.040447622537612915,0.0013238348765298724,0.08291412144899368,-0.08428455144166946,0.004803717136383057,0.06970182806253433,-0.047278232872486115,0.008264067582786083,-0.013658215291798115,0.00637162895873189,-0.028455330058932304,0.023495269939303398,-0.017422018572688103,-0.021568836644291878,0.029238896444439888,-0.07184016704559326,-0.017623241990804672,0.026557765901088715,0.014828337356448174,-0.06733177602291107,0.09920753538608551,0.0027208251412957907,-0.061940401792526245,0.04186057671904564,0.029545728117227554,-0.0055991834960877895,-0.00364470761269331,-0.005008355714380741,-0.0448438934981823,0.0012462480226531625,-0.08591888099908829,-0.00983874686062336,0.062252696603536606,0.0844261571764946,0.006081470753997564,0.03678510710597038,-0.03403964266180992,0.02007283642888069,0.09941481053829193,-0.10247917473316193,-0.019012168049812317,0.08529933542013168,-0.009731126949191093,-0.05069132149219513,0.08360553532838821,0.027395550161600113,-0.021939057856798172,0.09188488125801086,-0.06790810078382492,-0.013080321252346039,0.05269956961274147,-0.1455184370279312,-0.03975367546081543,0.06858747452497482,0.0823495090007782,0.08058714121580124,-0.012340937741100788,-0.01964675448834896,0.11121714860200882,-0.06430447846651077,0.07255487143993378,0.05378400534391403,0.061919357627630234,-0.07533447444438934,0.05901743844151497,0.05671345442533493,0.016942543908953667,0.048430342227220535,0.007788685616105795,-0.06174783036112785,-0.009593266062438488,-0.035574983805418015,-0.06132424250245094,-0.013011552393436432,0.036374807357788086,-0.08659922331571579,-0.03190101683139801,0.015325380489230156,0.031177669763565063,-0.09721550345420837,-0.036726173013448715,-0.13657638430595398,0.042463529855012894,0.026741020381450653,-0.057877179235219955,0.0037870656233280897,-0.06536503881216049,-0.0659165233373642,-0.014457844197750092,-0.04948966205120087,0.03634589537978172,-0.06641954183578491,-0.011417042464017868,-0.03756008297204971,-0.03565138950943947,0.1112629845738411,-0.18050682544708252,-0.02355683036148548,-0.10206223279237747,-0.041962020099163055,0.09298229217529297,-0.013589578680694103,0.04815299063920975,0.08254686743021011,-0.10169371217489243,-0.0055596609599888325,-0.03719531372189522,0.08089282363653183,-0.025413136929273605,0.019082140177488327,0.03331942483782768,-0.14580106735229492,-0.007601973135024309,0.10086792707443237,-0.19874317944049835,0.005282760597765446,0.005456447135657072,-0.12824247777462006,-0.00454677501693368,0.06028473377227783,-0.07488252967596054,0.024857716634869576,0.0818602442741394,0.023372774943709373,-0.02205888368189335,-0.03507600724697113,-0.026321647688746452,0.019452176988124847,0.048023663461208344,-0.043515902012586594,-0.028217706829309464,0.07641500979661942,0.08568599075078964,0.03662643954157829,-0.00897224061191082,-0.09704293310642242,0.029887238517403603,-0.03829781338572502,0.001785261440090835,-0.0011852411553263664,-0.03671809658408165,0.1628168821334839,-0.09217163175344467,0.06671630591154099,-0.03723342716693878,0.03430049493908882,0.01480881404131651,0.012447843328118324,0.04132674261927605,0.1044997125864029,-0.04862493649125099,-0.010550537146627903,-0.01728518307209015,-0.043052881956100464,-0.10008003562688828,0.016676409170031548,-0.10776294022798538,-0.06779558956623077,-0.017008237540721893,-0.14272230863571167,-0.02282964065670967,-0.030653854832053185,0.03711210936307907,0.02518574148416519,-0.021837502717971802,0.09149748831987381,-0.022989589720964432,0.010672828182578087,0.08599381893873215,0.09239819645881653,0.028001761063933372,0.03469415754079819,-0.02198014035820961,-0.029278511181473732,0.009580121375620365,-0.011373233050107956,-0.07412150502204895,0.007949301972985268,-0.03911206126213074,0.11999698728322983,0.07929437607526779,0.09522537142038345,0.07674864679574966,-0.05033612996339798,0.009067504666745663,0.051601942628622055,-0.006573188118636608,-0.044514164328575134,0.0012799535179510713,0.08122614026069641,-0.044039782136678696,-0.07179278880357742,0.044568609446287155,-0.024072622880339622,-0.07035564631223679,-0.0588737353682518,0.04864702373743057,0.037205908447504044,0.009526538662612438,0.033642757683992386,0.046852629631757736,0.024126451462507248,-0.035088106989860535,-0.007743012625724077,-0.01401535701006651,-0.020613249391317368,0.05348975583910942,-0.11159255355596542,0.05619124323129654,0.024546347558498383,0.019166061654686928,0.013102235272526741,-0.04128821939229965,-0.04309544339776039,-0.006533580366522074,-0.06842748820781708,-0.11840685456991196,0.037620775401592255,0.042350057512521744,-0.08016789704561234,0.012193114496767521,0.06505677849054337,-0.13714846968650818,-0.007543754298239946,
0.08722963184118271,0.03264763578772545,-0.002084329491481185,0.02918393537402153,-0.13893918693065643,0.0783676952123642,0.01502202171832323,0.11365704983472824,0.03073570318520069,0.041918981820344925,-0.0051285759545862675,0.02781902812421322,-0.012916851788759232,0.03560207784175873,0.03508008271455765,0.03879052773118019,0.07046674937009811,0.009193649515509605,0.04066518321633339,0.0666365772485733,-0.035494886338710785,0.04807285964488983,-0.05540577322244644,-0.0028116698376834393,-0.03618789091706276,-0.08281286805868149,-0.017228204756975174,-0.02444177307188511,-0.044580958783626556,-0.06476203352212906,-0.10434160381555557,0.006043910048902035,0.024270502850413322,0.03988691419363022,0.0417354479432106,-0.031028343364596367,-0.02674315869808197,0.01698208786547184,-0.03337936848402023,-0.05263227969408035,-0.11711793392896652,0.09341713041067123,0.013425267301499844,0.018694810569286346,0.01051293220371008,-0.006466578226536512,0.06646262109279633,0.014604141935706139,0.003258837154135108,0.06811977177858353,-0.03405975177884102,0.029840247705578804,0.026775870472192764,0.015860682353377342,0.0999433845281601,-0.12525320053100586,-0.005367930978536606,-0.018283244222402573,-0.03127126768231392,0.00883689895272255,0.06383305042982101,0.02949899435043335,-0.0032623105216771364,-0.03949790075421333,-0.11305293440818787,-0.016044091433286667,0.08404649049043655,0.2043946087360382,-0.03255945071578026,-0.026665009558200836,-0.07552939653396606,-0.0421893335878849,0.04314292594790459,0.029232220724225044,-0.07433286309242249,-0.10485156625509262,-0.09466107934713364,-0.02082812413573265,-0.05364460498094559,-0.05904657393693924,-0.01947137527167797,0.012926475144922733,-0.0989680290222168,-0.0059853196144104,-0.03911536931991577,0.02394171990454197,0.00407035555690527,0.017227770760655403,-0.012216469272971153,0.012504187412559986,0.0983949527144432,0.08597957342863083,-0.05657147988677025,0.012448934838175774,0.034385550767183304,-0.018357526510953903,0.06259755045175552,0.01666162721812725,0.011468208394944668,-0.01271040178835392,-0.01720442809164524,0.010528063401579857,-0.0012746696593239903,0.11899107694625854,0.01262358482927084,0.04363413155078888,0.07964884489774704,0.036216504871845245,0.014293134212493896,0.054685331881046295,0.03575035184621811,0.07335293292999268,0.09598549455404282,-0.05274641886353493,-0.03096737153828144,-0.017046481370925903,0.021487487480044365,0.03664329648017883,-0.08402395248413086,0.005547518376260996,-0.025516416877508163,0.05954925715923309,-0.050878312438726425,-0.003330686828121543,-0.06599216908216476,0.018076585605740547,0.012840096838772297,0.05326661840081215,0.05308157578110695,-0.043403297662734985,-0.018574317917227745,0.05734798684716225,-0.0032771744299679995,0.012646442279219627,0.004904254339635372,-0.061884164810180664,-0.017632728442549706,0.047015827149152756,0.03196272999048233,-0.08669261634349823,-0.07635378837585449,-0.04412355273962021,0.03323468193411827,-0.057889387011528015,0.017352065071463585,-0.022674761712551117,-0.037313755601644516,-0.05679057538509369,-0.06542649120092392,0.023951003327965736,0.013507019728422165,-0.009438477456569672,0.015395858325064182,-0.04222874715924263,0.012658403255045414,-0.04523602873086929,0.01171597559005022,-0.20117589831352234,0.03616384416818619,0.040730420500040054,0.018666444346308708,-0.002889913273975253,-0.052479542791843414,-0.03858739882707596,-0.028320766985416412,0.11754672229290009,-0.12204157561063766,-0.021813830360770226,-0.04357500746846199,-0.00494663929566741,0.06608250737190247,-0.04813137650489807,-0.09174342453479767,0.0037807454355061054,0.08093112707138062,-0.011454332619905472,-0.046873122453689575,0.02254984900355339,0.06568672508001328,-0.023458458483219147,-0.04012405872344971,-0.0672030821442604,0.06141337752342224,-0.0824054554104805,0.0385468415915966,-0.05576705560088158,0.056689441204071045,0.006988598499447107,-0.037340857088565826,-0.0540449395775795,-0.061074238270521164,-0.0617009662091732,-0.03211020678281784,-0.050577372312545776,0.04756403714418411,0.0393986701965332,0.005809211637824774,-0.03230902925133705,-0.04208117350935936,-0.05613554269075394,0.09095662832260132,0.0011272684205323458,-0.0581110343337059,-0.005324691068381071,0.01996776834130287,-0.009915497153997421,0.03889763727784157,-0.011646618135273457,-0.0336148627102375,0.03614475205540657,0.015215540304780006,0.07212840020656586,-0.029239844530820847,-0.06847336888313293,-0.018394814804196358,-0.050899844616651535,0.0815424993634224,-0.03320542350411415,-0.07708699256181717,-0.11914340406656265,-0.04625524580478668,-0.012965342961251736,0.01057843491435051,-0.0005120245623402297,0.012760432437062263,-0.028560945764183998,0.054622113704681396,0.017129989340901375,0.0023165163584053516,0.013686922378838062,-0.01919717714190483,0.0044447449035942554,0.0007304087630473077,0.0374847874045372,0.03377758339047432,0.053702082484960556,0.0391584187746048,-0.11088958382606506,-0.0226028710603714,-0.005774890072643757,0.02601834014058113,0.022124260663986206,-0.022257322445511818,-0.04481969773769379,-0.11772603541612625,-0.05962103605270386,-0.027714723721146584,0.08359352499246597,-0.058773111552000046,0.008633261546492577,0.0153160085901618,-0.0661221370100975,-0.09590362757444382,-0.12139954417943954,-0.004941781051456928,0.027939079329371452,0.14462998509407043,-0.009322392754256725,-0.02577267959713936,-0.07714027166366577,0.015244175679981709,-0.005461700260639191,-0.0062832310795784,0.02132265456020832,-0.011953448876738548,0.029213735833764076,0.038465943187475204,0.013451154343783855,0.06874028593301773,0.04612581431865692,0.018975218757987022,0.04488375782966614,0.015454253181815147,-0.014126644469797611,0.00013607491564471275,-0.0033587301149964333,0.0005071540945209563,-0.004932899959385395,0.016192449256777763,0.08058136701583862,0.06221524626016617,0.09694116562604904,-0.08724875748157501,0.02685304544866085,-0.009429370984435081,0.07746298611164093,0.007567327935248613,0.008296903222799301,-7.649538747500628e-05,0.0312936045229435,-0.059216342866420746,-0.13698728382587433,-0.06068067252635956,-0.08348160982131958,0.036601923406124115,0.059232763946056366,-0.09998177736997604,0.009534183889627457,-0.0891733169555664,-0.02583211660385132,-0.051194388419389725,-0.05411771684885025,-0.008356468752026558,-0.052674904465675354,0.047457389533519745,0.0712638646364212,0.012257513590157032,0.07304082810878754,-0.05313747748732567,-0.10642358660697937,-0.07840468734502792,0.04328249767422676,0.04082893207669258,-0.014493046328425407,-0.07554977387189865,0.0456952229142189,0.01266065239906311,0.056905217468738556,0.019323669373989105,0.0757884681224823,0.053040772676467896,-0.027605636045336723,-0.02073764242231846,-0.002249380573630333,-0.09325220435857773,-0.06070905551314354,0.0766124576330185,0.06277608126401901,0.05562905967235565,0.034663740545511246,-0.022121485322713852,-0.06597480922937393,-0.05057646334171295,0.08196327835321426,-0.026786405593156815,-0.052067238837480545,-0.108867347240448,-0.12376024574041367,-0.022843167185783386,0.04770425707101822,-0.028412865474820137,-0.030158348381519318,0.016662925481796265,-0.037963591516017914,-0.006824597250670195,0.09012271463871002,0.026214899495244026,-0.013668474741280079,-0.010397653095424175,-0.032809965312480927,-0.017293762415647507,0.07150249183177948,0.022297877818346024,-0.06113113462924957,-0.02786833606660366,-0.013080553151667118,-0.02232356183230877,0.027670828625559807,0.0028308574110269547,-0.021699190139770508,0.0026290155947208405,-0.028798893094062805,0.052043020725250244,-0.09503260254859924,-0.004941219929605722,0.011651336215436459,-0.03983527794480324,-0.04149647429585457,0.007228590082377195,0.006058954168111086,0.021521728485822678,-0.10294033586978912,-0.030350366607308388,-0.14561982452869415,-0.026045966893434525,0.0397772490978241,0.05395469069480896,-0.017816871404647827,-0.005910228472203016,0.05124155059456825,0.017432263121008873,-0.0010995768243446946,-0.01577184908092022,0.02433217689394951,0.08143539726734161,0.042204100638628006,-0.014975793659687042,-0.040044739842414856,-0.08970416337251663,-0.05412071570754051,-0.028681179508566856,0.08082924783229828,-0.040176909416913986,-0.038101572543382645,-0.09228193014860153,-0.04343467950820923,0.020123211666941643,0.008095941506326199,0.01262153685092926,0.00534072145819664,0.06627170741558075,-0.07405425608158112,-0.06780994683504105,-0.00313882646150887,0.005937268491834402,0.11081527918577194,-0.0020808258559554815,0.04314204677939415,0.08995566517114639,0.02191680669784546,0.07058510929346085,0.02441137470304966,0.04486788064241409,0.054036106914281845,-0.04779528081417084,0.011113200336694717,0.08905503898859024,0.08441386371850967,0.03626760467886925,-0.08611465245485306,-0.11623271554708481,-0.11004731059074402,0.028495047241449356,-0.030584260821342468,-0.006487636361271143,0.03328663483262062,0.042396895587444305,0.0912545695900917,-0.05515199527144432,0.03544653579592705,-0.04482167959213257,-0.022181352600455284,-0.04426242783665657,0.026165692135691643,0.007436690386384726,0.06619661301374435,0.048088062554597855,-0.023050330579280853,0.022156016901135445,-0.021901626139879227,-0.04962959513068199,-0.0997283011674881,-0.12828123569488525,-0.03073916584253311,0.11481264233589172,0.19680067896842957,-0.09070070087909698,0.04008229821920395,-0.008073048666119576,-0.04557006433606148,0.02042273059487343,-0.09371378272771835,-0.019905589520931244,-0.013310771435499191,-0.11894585192203522,-0.08531443774700165,-0.028670985251665115,-0.009598299860954285,-0.09438348561525345,-0.028828373178839684,-0.06178467348217964,-0.02095176838338375,-0.026894642040133476,-0.04960197955369949,0.05932085961103439,0.05971907079219818,-0.03870871290564537,-0.03565790876746178,-0.008360907435417175,-0.022825265303254128,-0.050898823887109756,0.03351638838648796,-0.012446969747543335,-0.008605844341218472,-0.03563552349805832,0.08235158771276474,-0.030306996777653694,0.020957691594958305,0.04273873567581177,-0.024091163650155067,0.07248708605766296,-0.03225955739617348,-0.009431027807295322,0.00915384478867054,-0.06313245743513107,-0.05680251121520996,0.030350403860211372,-0.05745391920208931,-0.028120534494519234,-0.07833638042211533,0.006855460815131664,-0.040101755410432816,0.12399018555879593,0.11183259636163712,0.027408797293901443,0.0110089760273695,0.07783635705709457,0.01742253080010414,0.05749918520450592,-0.015836607664823532,-0.049700986593961716,-0.06754708290100098,0.01377627532929182,0.0517597496509552,-0.005358685273677111,-0.0174869392067194,-0.0028930639382451773,-0.03581417724490166,-0.029921727254986763,0.022541752085089684,-0.053142912685871124,-0.009035944938659668,-0.053728025406599045,0.01884925179183483,0.06546791642904282,0.08373551815748215,0.00339916511438787,-0.05258592590689659,0.09232492744922638,0.033582691103219986,0.06716468185186386,0.0061217499896883965,0.12411011755466461,0.07133262604475021,0.06674297899007797,0.021063998341560364,-0.05034080147743225,-0.009993775747716427,0.08831076323986053,-0.02745387703180313,-0.029609566554427147,-0.056850727647542953,0.08071544021368027,0.04047023877501488,-0.058215152472257614,-0.07073237001895905,0.003827746259048581,0.03798316419124603,0.06307515501976013,0.004583684261888266,0.04279926046729088,0.053615082055330276,0.04975375533103943,-0.019103284925222397,-0.023825865238904953,0.08784810453653336,-0.06718002259731293,0.0015466153854504228,-0.026614826172590256,0.08153775334358215,0.1074611097574234,0.012440851889550686,0.0023232789244502783,-0.09800378233194351,0.013825209811329842,-0.013915731571614742,-0.0008138885605148971,-0.027109548449516296,0.02722906693816185,0.06804972887039185,-0.011063726618885994,0.10797357559204102,-0.02525212988257408,0.031290747225284576,0.004614964593201876,0.010879363864660263,0.08331192284822464,-0.029528141021728516,0.019799889996647835,-0.0868508517742157,-0.044468365609645844,-0.005451827775686979,0.019571775570511818,0.000426483282353729,0.06751711666584015,0.031372204422950745,
-0.05837266892194748,-0.08261246234178543,-0.07133471220731735,-0.06854948401451111,-0.0007906591054052114,-0.043511856347322464,-0.0528930127620697,-0.03939174488186836,0.010317758657038212,-0.042370572686195374,0.05439010635018349,-0.08228690922260284,-0.08887452632188797,0.019149594008922577,-0.028728822246193886,0.02657219022512436,-0.017361585050821304,-0.06353267282247543,0.019769294187426567,-0.006364311557263136,-0.09210937470197678,-0.05552132800221443,-0.006230818573385477,0.04797547310590744,-0.044279955327510834,-0.08231789618730545,-0.05663851648569107,0.006049626506865025,-0.009883019141852856,0.04815470427274704,-0.08784693479537964,0.014174175448715687,0.038961261510849,-0.008135760203003883,0.019602879881858826,0.06363217532634735,-0.09492791444063187,-0.07169230282306671,0.004546064417809248,0.09043741226196289,-0.027513351291418076,-0.09342068433761597,-0.07015453279018402,0.01941313035786152,-0.06677311658859253,-0.020718177780508995,0.07453479617834091,-0.005719844251871109,0.0724068358540535,-0.010089864023029804,-0.040274009108543396,-6.361677515087649e-05,0.024726692587137222,0.028921963647007942,0.009650090709328651,0.05003314092755318,-0.009443688206374645,-0.1332947462797165,0.004277640487998724,0.010011881589889526,0.09757533669471741,-0.03937998414039612,0.03951813280582428,0.10165731608867645,0.02925124019384384,-0.052916258573532104,-0.058365598320961,0.04003984481096268,0.0623076893389225,-0.01216987706720829,0.02518020197749138,-0.07726293802261353,-0.10676723718643188,-0.05581352487206459,-0.0020536035299301147,0.03885691612958908,0.025169318541884422,-0.09994523227214813,0.0031507534440606833,0.053740017116069794,-0.025498269125819206,-0.03351511433720589,0.0032982805278152227,0.006842399947345257,-0.009457305073738098,0.086510069668293,0.02755570411682129,-0.08688624948263168,0.05602295324206352,0.07025633007287979,0.05431634932756424,0.0030760474037379026,0.019539382308721542,0.08568205684423447,-0.028039956465363503,-0.04923194646835327,0.04140348732471466,-0.009230314753949642,-0.029310094192624092,0.11649961024522781,0.14425115287303925,0.06843439489603043,0.020660487934947014,0.06393584609031677,0.05191215127706528,0.03561294451355934,0.0478895902633667,0.08416587859392166,-0.09433510154485703,0.03795284777879715,0.027704572305083275,0.051992494612932205,-0.0022710543125867844,0.046101514250040054,0.002968762069940567,-0.052483752369880676,-0.05897492915391922,0.07448224723339081,-0.018919257447123528,0.0051893084309995174,0.0076362937688827515,0.04746003821492195,0.02195449359714985,-0.13242276012897491,-0.0329488106071949,0.08601348847150803,0.02509472705423832,-0.02001165598630905,-0.0036152612883597612,0.009348949417471886,-0.0070550874806940556,-0.011208397336304188,0.055662285536527634,0.052600350230932236,0.00454774871468544,-0.045685239136219025,-0.006487603764981031,-0.01648101583123207,-0.01265354547649622,0.012655355967581272,0.053423818200826645,-0.03578723594546318,-0.038411132991313934,0.03988759219646454,-0.06273026019334793,-0.06206304579973221,-0.007160740904510021,-0.011623474769294262,-0.06413508951663971,0.026073401793837547,-0.1743922084569931,-0.05078192055225372,-0.10883927345275879,-0.03364929184317589,-0.00045677469461224973,0.044213999062776566,0.03837622329592705,-0.02454504556953907,0.007809986360371113,0.05099882557988167,0.008291428908705711,0.0325312577188015,-0.089358851313591,0.03251836448907852,0.044904161244630814,-0.02540096640586853,-0.07986842840909958,-0.03021998517215252,-0.0020580582786351442,0.05968451872467995,0.11086751520633698,0.10456880927085876,0.08675487339496613,0.007419559173285961,0.13056853413581848,0.008166324347257614,-0.04821184277534485,0.04311450943350792,0.06050339713692665,0.0623958557844162,-0.06850093603134155,0.014282836578786373,-0.0022842641919851303,-0.03778329864144325,-0.06432172656059265,0.03620722517371178,-0.07436344772577286,0.05168335884809494,0.010378393344581127,0.06230970844626427,-0.05207180976867676,0.02565968967974186,-0.0793910101056099,0.024031667038798332,-0.0461457222700119,-0.014304039068520069,-0.11009425669908524,-0.025516459718346596,0.021007925271987915,-0.030123602598905563,0.008645052090287209,0.026517337188124657,0.01851443015038967,-0.031770605593919754,-0.04180479794740677,-0.0034499329049140215,-0.0458763912320137,-0.15499092638492584,0.010955573990941048,0.034687936305999756,-0.04302522540092468,-0.02256685309112072,0.024044539779424667,0.061027951538562775,-0.026702456176280975,0.05234432965517044,0.049094103276729584,0.06802167743444443,-0.0018592632841318846,0.06056669354438782,-0.06907946616411209,-0.04310514032840729,0.03062223643064499,0.05343152582645416,-0.07608713954687119,-0.0010563615942373872,0.07729552686214447,0.0386873297393322,0.0930824726819992,-0.06075334921479225,0.06260932236909866,0.0007698920089751482,0.0721520483493805,-0.014840987510979176,0.020217562094330788,0.07367974519729614,0.03574257344007492,0.03632286563515663,-0.004509915132075548,-0.04454975947737694,0.02943379245698452,0.019043656066060066,0.07745058089494705,-0.09642020612955093,0.013114068657159805,-0.11261353641748428,-0.03410274162888527,-0.04452420398592949,-0.05644538998603821,-0.061333559453487396,-0.12401951104402542,-0.05838237702846527,0.021152982488274574,-0.08021309226751328,-0.10074861347675323,0.056664660573005676,-0.009423727169632912,-0.04876495152711868,0.0020680464804172516,0.02164962701499462,0.009355254471302032,-0.08431658893823624,-0.013889092952013016,0.07535335421562195,0.030324263498187065,-0.022633155807852745,-0.06149929389357567,0.06732764095067978,0.011957279406487942,-0.006802811753004789,-0.05497157573699951,-0.07914723455905914,-0.040325507521629333,0.016065269708633423,-0.06809781491756439,-0.044965747743844986,-0.04095634073019028,0.06134364381432533,-0.045363761484622955,0.0503341406583786,0.03421312943100929,0.049984999001026154,0.029155343770980835,0.034792445600032806,0.012985119596123695,-0.03761531412601471,-0.006838093511760235,0.035246677696704865,-0.05586355924606323,-0.021533390507102013,-0.07380162179470062,-0.09103159606456757,-0.05086022987961769,-0.02907607890665531,0.044258929789066315,-0.04707029461860657,-0.04699122533202171,-0.08750955760478973,-0.09951452910900116,-0.06620927900075912,-0.09363706409931183,0.059268224984407425,-0.07975591719150543,-0.17009516060352325,-0.06674451380968094,-0.2089141458272934,0.08356358855962753,-0.04944440722465515,-0.06480120867490768,-0.00038113168557174504,0.006064264569431543,-0.009575191885232925,0.0779387354850769,0.010866380296647549,-0.030241502448916435,-0.01657898537814617,0.09549970924854279,0.07704146951436996,0.1224299967288971,0.04123595729470253,0.1258334368467331,0.06824791431427002,0.1263170838356018,0.09933045506477356,-0.017694571986794472,0.012331434525549412,0.022506386041641235,-0.052666425704956055,0.03529319167137146,0.07305430620908737,0.048370011150836945,0.036582086235284805,-0.012921475805342197,-0.1614571511745453,0.04460527002811432,-0.06927800178527832,-0.0849527046084404,-0.055010195821523666,-0.006930245086550713,-0.07177087664604187,0.0010856835870072246,-0.08104569464921951,0.02630872093141079,0.08106929063796997,-0.009625015780329704,0.04303189739584923,0.00657674390822649,-0.008662307634949684,0.01685057394206524,-0.0053556025959551334,0.05371353402733803,-0.07573598623275757,0.05997193977236748,0.09258034080266953,0.05142483115196228,-0.022736813873052597,0.03314442187547684,0.043608881533145905,0.010825293138623238,-0.0313938744366169,-0.1302851289510727,0.0028086460661143064,-0.06097622588276863,-0.005492618307471275,-0.07956034690141678,0.041125908493995667,0.034651659429073334,0.04703960195183754,-0.0097134318202734,0.08774099498987198,-0.05651652440428734,-0.028973523527383804,-0.021254314109683037,0.18008308112621307,-0.030618315562605858,-0.037627577781677246,-0.024753691628575325,0.06250552088022232,0.03244457766413689,0.13558587431907654,-0.04992081597447395,0.11142925173044205,-0.0037244835402816534,-0.03116103634238243,0.0824737548828125,0.08041084557771683,0.125651553273201,-0.058211177587509155,-0.09509605169296265,0.017471794039011,0.10530051589012146,-0.12129468470811844,-0.03628356754779816,-0.05172037333250046,0.05626611411571503,-0.016352323815226555,0.06531406939029694,-0.023233922198414803,-0.02275669015944004,-0.0015021036379039288,0.04738185554742813,0.07612106204032898,0.10067389160394669,0.057504236698150635,0.021062450483441353,0.0278452318161726,-0.010801560245454311,0.04822606220841408,-0.010124505497515202,-0.02156437188386917,0.005557212978601456,0.017071567475795746,-0.04454173147678375,-0.005277168471366167,0.07345481216907501,0.08477341383695602,0.03204433247447014,-0.020523246377706528,0.041442595422267914,0.011187409982085228,-0.09263399243354797,-0.0270086657255888,-0.045586198568344116,-0.02968253195285797,-0.046027522534132004,0.06732694804668427,-0.08009614050388336,0.04317423701286316,0.007831651717424393,-0.03561517596244812,-0.025613686069846153,0.03652598708868027,-0.05135200917720795,-0.046659551560878754,0.012289143167436123,-0.00879640318453312,-0.07768355309963226,-0.061214275658130646,-0.03358865901827812,-0.06858234107494354,-0.06500551104545593,-0.018098365515470505,-0.003970397170633078,0.010732987895607948,0.007891987450420856,-0.07929813861846924,0.011426867917180061,0.04839014261960983,-0.0803203135728836,0.010793749243021011,-0.01584562100470066,-0.023151636123657227,0.04249565675854683,0.059786465018987656,0.045258212834596634,0.0018043305026367307,-0.0493035726249218,-0.024180203676223755,0.07273340225219727,-0.1238841786980629,0.07874354720115662,-0.020235376432538033,-0.03110424429178238,-0.05636053904891014,-0.007951918058097363,-0.019056104123592377,-0.036998849362134933,-0.08360039442777634,-0.02642669342458248,-0.054053403437137604,-0.03352096304297447,-0.15849417448043823,-0.10050299018621445,-0.0411752313375473,0.053559280931949615,-0.021553369238972664,0.02298908494412899,-0.1549312025308609,-0.13148188591003418,-0.11542294174432755,0.010091356001794338,-0.06972359865903854,-0.07224941998720169,-0.10659892112016678,-0.015338404104113579,-0.0976029559969902,-0.08427644520998001,-0.09372416138648987,-0.046230487525463104,-0.16928285360336304,0.015073691494762897,-0.02835448831319809,-0.04657772183418274,-0.09643684327602386,-0.04817016050219536,0.03737561032176018,0.07513672113418579,-0.01123432070016861,0.04280844330787659,-0.02003410831093788,0.004819369874894619,0.07944187521934509,0.0199188943952322,0.02126772701740265,-0.05655611678957939,-0.042748481035232544,-0.011221463792026043,0.05296291783452034,-0.0948014110326767,-0.006763075012713671,0.029656577855348587,-0.03466048091650009,-0.025669453665614128,0.034045927226543427,0.03550440073013306,-0.0031225380953401327,0.003443023655563593,0.08999297767877579,-0.0640426054596901,0.030044304206967354,-0.07349863648414612,-0.061541952192783356,-0.022949226200580597,-0.17871765792369843,-0.005355382338166237,-0.007592229172587395,-0.06513474881649017,0.011194376274943352,-0.052552953362464905,-0.04840714856982231,0.02700117789208889,0.04723253846168518,-0.01805512048304081,0.024383410811424255,0.06012986600399017,0.0708189383149147,0.015103352256119251,0.03898061066865921,0.03132576867938042,0.06589275598526001,0.05074486508965492,-0.03150774911046028,0.04839225113391876,0.07383319735527039,0.03245697170495987,-0.012555669993162155,0.10981043428182602,0.09574975818395615,0.04423786327242851,-0.047901034355163574,-0.14051425457000732,-0.0998990386724472,-0.0998251661658287,-0.05377914756536484,-0.1433541178703308,-0.118735671043396,-0.08922754973173141,-0.09097694605588913,-0.016571206972002983,-0.07150646299123764,0.01329299807548523,-0.012951251119375229,-0.0303940549492836,0.019871080294251442,-0.06184094399213791,-0.027276456356048584,-0.037380583584308624,0.11357080191373825,0.03594747185707092,0.0151171013712883,-0.08094170689582825,0.06792057305574417,-0.04107574373483658,-0.03194541111588478,-0.05211661010980606,-0.059802524745464325,
-0.04028061404824257,-0.035960517823696136,0.07724923640489578,0.0005214025732129812,-0.09505713731050491,-0.025135939940810204,0.042583268135786057,0.09405948221683502,-0.007004421204328537,-0.011034458875656128,-0.03979397192597389,-0.1281186044216156,0.020860610529780388,0.041758209466934204,-0.018982674926519394,0.02599395252764225,-0.016977237537503242,-0.0714358538389206,0.033070165663957596,-0.0036441960837692022,0.09555764496326447,-0.048560503870248795,0.003924956079572439,0.14096568524837494,-0.042654071003198624,0.009728663600981236,0.08542298525571823,-0.04047180712223053,-0.02079722099006176,-0.24440719187259674,0.046973664313554764,0.013236308470368385,-0.1914486140012741,0.030782440677285194,-0.013619493693113327,-0.2688974440097809,0.0005599412834271789,-0.011425814591348171,0.05566546320915222,0.021478788927197456,0.000266164424829185,0.09379223734140396,0.004989637993276119,0.02454960346221924,0.06474445760250092,0.044425494968891144,0.018007753416895866,0.11049162596464157,0.06895950436592102,-0.032669927924871445,0.15633653104305267,0.025325266644358635,0.005260249134153128,0.13709458708763123,-0.031478941440582275,-0.0397760346531868,-0.07903130352497101,-0.00310221454128623,-0.016705984249711037,-0.13109514117240906,0.00041534239426255226,0.07183758169412613,-0.01686311885714531,0.014860310591757298,-0.05833792686462402,0.05586700513958931,-0.03938883915543556,-0.09437907487154007,-0.06965703517198563,-0.04496794566512108,-0.0713580772280693,-0.10319666564464569,-0.015374544076621532,0.009364552795886993,-0.08862442523241043,0.04997055605053902,0.053703323006629944,-0.04071264714002609,0.005882549565285444,0.04026966914534569,-0.04928383603692055,0.021056106314063072,0.1194576844573021,0.07312972098588943,-0.004613569937646389,-0.04116576910018921,-0.026259133592247963,0.05344842001795769,0.01905086264014244,0.026946166530251503,-0.06730102747678757,-0.04619523510336876,-0.05814037099480629,0.0785127654671669,0.030018523335456848,0.11582046002149582,1.4245696547732223e-05,0.018335919827222824,-0.11537494510412216,-0.05578736588358879,0.004115746822208166,0.13573364913463593,0.0014878700021654367,0.03536836430430412,0.10748816281557083,0.008340941742062569,0.01026227604597807,0.09697337448596954,-0.02924717776477337,0.02803865261375904,-0.019753102213144302,0.022522827610373497,0.034439779818058014,-0.06598644703626633,-0.0072612822987139225,0.013509470038115978,-0.05618886649608612,-0.006631318014115095,-0.0487125888466835,-0.053026508539915085,0.058967046439647675,-0.019860779866576195,0.08772362023591995,0.00723850866779685,-0.09017779678106308,-0.0796251967549324,-0.03954767435789108,0.032096367329359055,0.10916312783956528,0.0035804533399641514,0.006839738693088293,0.0264580100774765,-0.035313066095113754,0.009748929180204868,0.05646603927016258,-0.01928630657494068,-0.044333044439554214,0.0463549941778183,0.0288515854626894,0.058900877833366394,-0.0497194342315197,-0.017857367172837257,0.05333377420902252,-0.07039774954319,0.04911280795931816,0.009230864234268665,0.004949281457811594,0.04453282430768013,0.019237780943512917,-0.0954546108841896,0.027750300243496895,-0.055843535810709,0.041307494044303894,0.012605937197804451,0.016165312379598618,-0.03714929521083832,0.08183743059635162,0.022890238091349602,-0.12744063138961792,1.7189172467624303e-06,-0.0058857896365225315,-0.11696114391088486,-0.00104700424708426,0.037421416491270065,-0.05702083185315132,-0.09220051765441895,-0.024520298466086388,-0.02939014881849289,0.04619072750210762,0.017485901713371277,-0.04008181765675545,0.023009706288576126,0.05652879178524017,-0.02058638073503971,-0.03256600722670555,0.02423301339149475,0.04269508644938469,-0.013255679048597813,-0.039233990013599396,0.02604374848306179,-0.07041799277067184,0.010942090302705765,-0.046941760927438736,-0.0032133993227034807,0.045515283942222595,0.07365544140338898,0.005008614156395197,-0.012168816290795803,-0.019334150478243828,0.019205842167139053,0.011634055525064468,-0.11214575916528702,0.020877936854958534,-0.01252328883856535,-0.053492818027734756,-0.042972028255462646,0.0514017678797245,-0.10140678286552429,0.00864421483129263,0.06668204069137573,-0.05145036429166794,0.003216258017346263,0.059060096740722656,-0.060805920511484146,0.02609957940876484,0.01797671988606453,-0.012940801680088043,0.017613060772418976,0.06835547834634781,0.12203657627105713,-0.06346987187862396,0.09886407852172852,-0.010525691322982311,-0.0475299134850502,0.09564100950956345,0.038199011236429214,0.029396764934062958,-0.045199330896139145,-0.06332586705684662,-0.012554693035781384,0.0701567605137825,-0.0951303094625473,-0.007123310584574938,0.04295278713107109,-0.11384908854961395,0.023926718160510063,-0.0762762650847435,0.0014254212146624923,-0.03400985524058342,-0.10458027571439743,0.09186329692602158,-0.017473697662353516,-0.04110093414783478,0.10493836551904678,0.011675648391246796,-0.01015379372984171,-0.025283511728048325,-0.019708683714270592,0.024900546297430992,-0.054221488535404205,0.015039109624922276,0.04696119949221611,0.01043329294770956,0.0017698194133117795,0.054518118500709534,-0.0014108647592365742,-0.005343267228454351,-0.1042414978146553,-0.096433624625206,0.07792492210865021,-0.0018544044578447938,0.08910246938467026,-0.0051419539377093315,-0.03189652040600777,-0.08068583160638809,0.08471313863992691,-0.02244526892900467,0.028035776689648628,0.036718327552080154,-0.03905756026506424,0.017047593370079994,0.04397459328174591,-0.06989570707082748,-0.10222529619932175,-0.03100535459816456,0.07536815851926804,-0.09600012749433517,0.02660847082734108,0.08433832973241806,-0.0785127505660057,0.03347710520029068,0.08528254926204681,0.21964946389198303,-0.047379035502672195,0.011775883845984936,0.08238084614276886,0.0005736968014389277,-0.045096684247255325,0.06201993674039841,0.00432887626811862,-0.05340149626135826,-0.027251720428466797,0.038945987820625305,-0.03792434558272362,0.06241566687822342,-0.03131984919309616,-0.06427940726280212,0.12204918265342712,-0.05202596262097359,0.01139858365058899,-0.04980393499135971,0.0015355066861957312,-0.08274094015359879,0.015154480002820492,0.012511319480836391,0.019494520500302315,-0.083241306245327,0.01168083120137453,0.10720622539520264,-0.09232126921415329,-0.0015483564930036664,-0.05342795327305794,-0.11998814344406128,-0.005207536276429892,-0.06552837789058685,-0.1483270525932312,-0.05211988091468811,0.012153780087828636,-0.16378577053546906,0.042032577097415924,0.03475479036569595,-0.06482090055942535,-0.018638228997588158,0.01157514750957489,-0.11836351454257965,-0.03715565428137779,-0.018128952011466026,-0.022723376750946045,0.03208944946527481,0.07369717955589294,0.07361803948879242,-0.031355395913124084,0.09191551059484482,0.017094366252422333,0.045849014073610306,-0.011730869300663471,0.04977848753333092,-0.02980549819767475,-0.06365349888801575,0.0819387435913086,0.023793954402208328,0.0032131546176970005,-0.019393235445022583,-0.002927925204858184,-0.07249998301267624,0.02590005099773407,-0.026425734162330627,0.011672982014715672,-0.02319863997399807,0.003715281607583165,0.06961571425199509,-0.0038658916018903255,0.020611416548490524,-0.02762738987803459,0.04281122237443924,-0.08379355818033218,0.026368258520960808,0.030014509335160255,-0.023229841142892838,0.0672115609049797,0.032177090644836426,-0.0014659303706139326,0.05995931103825569,-0.05138491466641426,0.005339987110346556,0.029123613610863686,-0.054847944527864456,0.0063756913878023624,0.03439326584339142,0.03502913564443588,-0.06266152113676071,-0.024194607511162758,-0.13144274055957794,0.01823982410132885,0.04745896905660629,0.08902886509895325,0.012387332506477833,0.01866402104496956,-0.0429043211042881,-0.05390508100390434,0.10318847745656967,0.0823456346988678,-0.04650968313217163,-0.09148849546909332,0.03201787546277046,0.05165408179163933,0.03387327864766121,0.06270913779735565,0.024141032248735428,-0.0550166480243206,0.04555703327059746,-0.007874168455600739,-0.009939992800354958,0.01742153987288475,-0.032993730157613754,0.05833689868450165,0.005361001007258892,0.01226927898824215,0.04815942421555519,-0.06453034281730652,0.007961437106132507,-0.004840085282921791,-0.12838499248027802,0.05210912972688675,-0.06162011995911598,0.008660824038088322,-0.011692281812429428,0.0017474875785410404,0.0033382000401616096,0.006513434927910566,0.01926092989742756,0.015361187048256397,-0.024813154712319374,0.0030062058940529823,0.01096185389906168,-0.01150989718735218,0.030188366770744324,0.1419050097465515,-0.026431655511260033,0.1124039962887764,0.16088244318962097,-0.032332055270671844,-0.00937443133443594,0.1152670755982399,-0.04781259968876839,0.02406216785311699,0.03994385153055191,-0.0542510487139225,-0.06481514126062393,0.08465082198381424,-0.002458716742694378,-0.09179271012544632,-0.005577707197517157,0.0412776954472065,0.015202024951577187,-0.09069161117076874,-0.0012178620090708137,-0.021303607150912285,-0.12920773029327393,0.021618438884615898,0.021764617413282394,-0.07469857484102249,-0.04788046330213547,-0.006210881285369396,-0.009412329643964767,0.04058506339788437,0.08790414780378342,-0.0032739287707954645,-0.02544919028878212,-0.0525285042822361,0.11569681018590927,-0.03151912987232208,0.01651592366397381,-0.020448315888643265,-0.0014380390057340264,0.01999855600297451,0.031079264357686043,-0.017437944188714027,0.04303310811519623,0.021716035902500153,-0.053376778960227966,-0.047730959951877594,-0.006824865937232971,0.04539434611797333,-0.05423717945814133,-0.07880765199661255,0.012495019473135471,0.00978398323059082,0.049685005098581314,-0.011728898622095585,0.008851030841469765,-0.03261198475956917,0.0017721374751999974,0.1394958794116974,-0.061166536062955856,-0.05122195556759834,0.0397535115480423,-0.20113612711429596,0.018694456666707993,-0.0011500456603243947,-0.02052346058189869,0.04584987461566925,-0.052768856287002563,-0.11252962052822113,-0.015985317528247833,0.02395680733025074,-0.12092159688472748,0.04690560698509216,0.07822015136480331,-0.0010846141958609223,0.03342383727431297,0.05516655370593071,-0.02078460529446602,0.021430518478155136,0.04412467032670975,0.07049310207366943,-0.05870453640818596,0.01965690776705742,-0.12315955013036728,-0.08338383585214615,-0.028723498806357384,0.05308685451745987,-0.01948758028447628,0.021137744188308716,-0.05533517524600029,0.049127452075481415,-0.06794078648090363,0.04467770829796791,0.02367210015654564,0.08395619690418243,-0.04712406545877457,-0.07064671814441681,0.013492122292518616,-0.02960563264787197,0.02642802521586418,-0.0016370667144656181,-0.0206882543861866,0.012862096540629864,0.09976281970739365,-0.01701163873076439,-0.01678062230348587,0.038762036710977554,-0.0878397524356842,-0.03012588620185852,0.0646708756685257,-0.011795279569923878,0.042011652141809464,0.039587296545505524,0.056110747158527374,0.01411373820155859,0.03301864117383957,0.09589270502328873,0.0018531959503889084,0.02700781263411045,0.14966674149036407,0.02767181023955345,-0.08788313716650009,0.031603194773197174,0.06019299849867821,-0.0737115740776062,-0.06014874950051308,-0.027281953021883965,0.053642407059669495,-0.038905806839466095,0.017829321324825287,0.01534224208444357,-0.05158916115760803,0.01827244833111763,-0.05830137059092522,0.14119912683963776,0.06085670366883278,0.09000319987535477,0.1012892946600914,-0.032870858907699585,0.010011882521212101,0.06339673697948456,-0.006201114039868116,0.05396491289138794,0.07389811426401138,0.018088240176439285,-0.031896475702524185,-0.2122400552034378,0.011897596530616283,-0.0011287238448858261,-0.16514526307582855,0.000827220210339874,-0.021986043080687523,-0.09208362549543381,-0.008848961442708969,0.014037328772246838,0.08224110305309296,-0.01687055453658104,0.019722023978829384,0.16278161108493805,-0.040772199630737305,-0.027690168470144272,-0.02746349386870861,0.02917599491775036,0.023686619475483894,-0.01980196312069893,0.0037060941103845835,-0.056544229388237,0.0433233380317688,0.010903037153184414,0.008175347000360489,-0.011877578683197498,
