0.13547255098819733,0.051900990307331085,0.008718632161617279,0.08266259729862213,0.017608582973480225,-0.039166055619716644,0.020262403413653374,-0.032173220068216324,-0.013301646336913109,0.02424798533320427,0.013379158452153206,0.01774490997195244,0.032457899302244186,-0.041282977908849716,0.03660741075873375,-0.014912283979356289,0.012455062940716743,-0.005657870788127184,0.02954806201159954,0.028167573735117912,0.037320803850889206,0.005632838699966669,0.0033459211699664593,0.06973257660865784,-0.06330180913209915,-0.0681743249297142,0.11015288531780243,0.02251429483294487,0.01220163144171238,0.009313940070569515,-0.004799750633537769,-0.1185479387640953,-0.023028159514069557,-0.019899526610970497,0.011807609349489212,-0.016318686306476593,0.11231154948472977,0.14880219101905823,0.04183435067534447,0.02551029622554779,-0.06983503699302673,0.023416385054588318,-0.12319661676883698,-0.037680137902498245,-0.038415320217609406,-0.05457320064306259,0.038495246320962906,-0.062029723078012466,0.10170580446720123,-0.01642439141869545,0.014395923353731632,0.0703570544719696,0.0615130215883255,-0.05065588280558586,0.04484890028834343,0.0641498863697052,-0.015989765524864197,0.02403978444635868,-0.05371062830090523,-0.08185656368732452,-0.07298107445240021,0.005702410824596882,-0.009432271122932434,0.09587028622627258,-0.043727993965148926,-0.03660285472869873,0.02234666608273983,0.037485651671886444,-0.05899318680167198,-0.08795996010303497,-0.00171025434974581,-0.0639328882098198,-0.1530332863330841,0.07278074324131012,0.050592321902513504,-0.03342297300696373,-0.054594092071056366,-0.05491454154253006,0.009276928380131721,-0.012144474312663078,0.11006757616996765,0.08247414231300354,-0.03059813193976879,-0.013925724662840366,0.011911729350686073,-0.0032945899292826653,-0.03894732519984245,0.08438552170991898,0.002112095709890127,-0.049624502658843994,-0.002257639542222023,-0.05330353602766991,-0.016423983499407768,0.029533525928854942,0.12686975300312042,0.0914568230509758,-0.05675382912158966,0.00096624850993976,-0.0395018495619297,-0.0050247954204678535,-0.09971483051776886,0.039423055946826935,-0.0822782889008522,0.06839242577552795,-0.005064323078840971,-0.14975984394550323,0.10079219937324524,0.025971606373786926,-0.07606271654367447,-0.062099531292915344,-0.015058771707117558,-0.026769105345010757,-0.13405947387218475,0.06924688816070557,-0.0327238030731678,-0.12123510241508484,-0.03514481708407402,0.01754694990813732,0.03120160661637783,-0.09288714081048965,0.11725134402513504,0.12297642976045609,-0.17142799496650696,0.10656522214412689,-0.02529750019311905,-0.15293803811073303,0.01436025369912386,-0.0071800267323851585,-0.06016239523887634,0.010137493722140789,0.0900500938296318,0.003063773037865758,-0.033115457743406296,0.031861938536167145,-0.10885494202375412,-0.11000784486532211,-0.061888985335826874,0.0029191523790359497,-0.06755766272544861,-0.10720431804656982,0.032159510999917984,-0.03704407066106796,-0.07551399618387222,0.011657718569040298,-0.012238425202667713,-0.11579561978578568,0.009863261133432388,0.1259544938802719,0.02492479979991913,0.005082535091787577,0.06288871169090271,0.008267865516245365,-0.024480458348989487,0.0023163892328739166,-0.02578216977417469,-0.08447490632534027,-0.05522681027650833,0.04912314936518669,0.030424244701862335,-0.14321953058242798,0.028034264221787453,-0.018489768728613853,0.015837375074625015,-0.031906552612781525,-0.0012759552337229252,0.1362108290195465,0.02612609975039959,0.025944119319319725,0.13063371181488037,0.029811397194862366,-0.03125116974115372,0.07009121775627136,-0.03390893712639809,0.06829175353050232,0.06019873544573784,0.0014605761971324682,-0.08819792419672012,0.08863208442926407,0.0028060306794941425,0.020973170176148415,-0.12104834616184235,-0.017735103145241737,-0.027385752648115158,-0.16263417899608612,-0.05501805618405342,0.08709488064050674,-0.033286988735198975,0.06815196573734283,0.012393717654049397,-0.0023633670061826706,0.00974134262651205,-0.05961587652564049,-0.07659383118152618,-0.01702531799674034,-0.04583514481782913,0.11790129542350769,0.004056305158883333,-0.06903057545423508,-0.11231319606304169,-0.00986100547015667,0.07651882618665695,-0.06317289918661118,0.05295258015394211,-0.037097781896591187,0.0771668329834938,0.1526934951543808,-0.007086662109941244,0.03141143172979355,0.005823424551635981,-0.01712127961218357,-0.08421280235052109,-0.05390622466802597,0.0013691571075469255,-0.002669603331014514,0.11347660422325134,0.029764801263809204,-0.0792703703045845,-0.010561097413301468,-0.056500960141420364,-0.11797492206096649,-0.07171830534934998,0.09012558311223984,0.02606462500989437,-0.09011891484260559,0.14916448295116425,0.036041826009750366,0.049702003598213196,0.0018630081322044134,0.058851681649684906,-0.0030578584410250187,-0.1417441964149475,-0.06858544051647186,-0.05487635359168053,-0.031155599281191826,-0.09943270683288574,0.046119093894958496,-0.07654853165149689,-0.029144365340471268,-0.16928797960281372,-0.07370743900537491,0.07809515297412872,-0.11412123590707779,-0.09479702264070511,0.022833537310361862,-0.1351182907819748,0.0567811019718647,0.04351485148072243,-0.09764061123132706,0.030163152143359184,0.05316349118947983,-0.07739920169115067,-0.01891474239528179,0.011470782570540905,-0.059240542352199554,-0.013310592621564865,-0.025186318904161453,0.05812897905707359,-0.09415165334939957,-0.02385660447180271,-0.012476208619773388,-0.024976639077067375,-0.09325461089611053,-0.05552522838115692,-0.00888107530772686,-0.11443327367305756,-0.21680881083011627,-0.04589080065488815,-0.0399966761469841,-0.010059223510324955,0.00720931077376008,-0.005660138092935085,0.01857440173625946,-0.06454259902238846,-0.06317539513111115,-0.0805608332157135,-0.013467908836901188,0.006506215315312147,-0.11228041350841522,0.037766244262456894,-0.02811156027019024,-0.009281896986067295,-0.02524416707456112,0.10073921084403992,-0.034118931740522385,-0.06658229231834412,0.1022915244102478,-0.050190214067697525,-0.023440634831786156,-0.022323615849018097,0.04158366098999977,0.057635415345430374,-0.04762396216392517,0.141094371676445,0.01470873411744833,-0.058022309094667435,0.06231633201241493,0.000306343543343246,-0.007842865772545338,-0.05918422341346741,-0.07702326774597168,-0.04421302676200867,-0.14166562259197235,0.007474585436284542,-0.12578599154949188,0.04414018243551254,-0.007027503568679094,-0.00422221515327692,-0.06049877777695656,0.06367134302854538,0.053445059806108475,0.11180509626865387,0.0024157678708434105,0.09023392200469971,0.150092214345932,-0.015112788416445255,0.029165256768465042,0.06559543311595917,-0.017436310648918152,0.08157132565975189,0.0986766442656517,0.029511921107769012,0.017066268250346184,0.059831373393535614,0.023115718737244606,-0.000942708516959101,-0.060422901064157486,0.0518764927983284,-0.050828661769628525,-0.07687778770923615,-0.020070094615221024,-0.030080575495958328,-0.05302217975258827,-0.029841922223567963,-0.11658870428800583,-0.09078507870435715,0.045577846467494965,-0.09000414609909058,0.007417324930429459,-0.06158808618783951,0.04190182685852051,0.023550180718302727,-0.04483155906200409,0.007316657342016697,-0.052666936069726944,0.08820991963148117,-0.03701038286089897,0.16601358354091644,-0.03884105384349823,-0.05090738460421562,0.04642437770962715,-0.059964973479509354,0.01337494421750307,0.0460064560174942,0.049913693219423294,0.00018363568233326077,-0.025845445692539215,0.008808895945549011,0.007102807518094778,0.12365909665822983,-0.06317038834095001,0.0668446347117424,-0.006865707691758871,0.06582517176866531,0.07611905783414841,0.15562695264816284,-0.008284345269203186,0.010405253618955612,0.09562860429286957,0.004204385913908482,-0.006693566683679819,-0.06434830278158188,-0.0668727457523346,-0.1272641122341156,-0.09156672656536102,-0.049102604389190674,-0.03996037319302559,-0.01844121143221855,-0.058808330446481705,-0.09776584059000015,0.09670520573854446,0.018825750797986984,-0.05603547766804695,0.014847665093839169,-0.005619673524051905,-0.05845814198255539,0.04951191693544388,0.02511572279036045,0.06814137101173401,0.04670201987028122,0.006474822759628296,-0.023094093427062035,0.025009294971823692,0.08011668920516968,0.03672042489051819,0.018506258726119995,-0.01734207011759281,0.019025005400180817,0.03070751763880253,-0.012856053188443184,-0.03615475073456764,0.023675905540585518,-0.0557456836104393,0.04545902460813522,0.16846433281898499,-0.0806703045964241,0.011424195021390915,-0.016017578542232513,0.008328547701239586,0.00012150062684668228,-0.056164201349020004,0.07348316162824631,-0.008695337921380997,-0.09806599467992783,0.011880267411470413,-0.06961572915315628,0.05221980810165405,0.06381957978010178,0.13657456636428833,0.07035244256258011,0.02023339457809925,0.061162929981946945,-0.021438276395201683,0.05378805473446846,0.07572627812623978,0.030986664816737175,-0.03947828337550163,-0.09074040502309799,-0.04233984276652336,0.025785228237509727,-0.01248451229184866,-0.01284694205969572,0.02664891816675663,-0.05804694816470146,0.024870838969945908,-0.0534420870244503,-0.06304486840963364,-0.030691707506775856,0.0005149905919097364,-0.018625648692250252,0.0013270089402794838,0.006620020139962435,0.019696244969964027,0.050840601325035095,0.0025326840113848448,-0.027381937950849533,0.1739771068096161,-0.06736300885677338,0.022341111674904823,0.020544525235891342,-0.01741896942257881,-0.08314771950244904,0.0020834121387451887,-0.015707334503531456,-0.04075649753212929,-0.10452178120613098,-0.04223030060529709,0.05238520726561546,-0.1417957991361618,0.003570050001144409,-0.044757694005966187,0.0034332091454416513,-0.019691135734319687,0.00646739499643445,0.031368281692266464,0.0632394477725029,0.005188154522329569,0.019123084843158722,0.08378235995769501,0.04677338898181915,0.0004788349033333361,-0.02164020948112011,-0.032221369445323944,0.057792339473962784,-0.003826145315542817,0.008136918768286705,0.11729152500629425,-0.0063658845610916615,0.00038681633304804564,-0.04765399545431137,0.011390743777155876,-0.09289730340242386,-0.04835790768265724,-0.085735984146595,0.1281265914440155,0.04085925966501236,0.034428324550390244,0.012502756901085377,-0.0036828627344220877,0.00926851388067007,-0.07211808115243912,0.006278855260461569,0.014590645208954811,-0.015872232615947723,0.034783635288476944,-0.015651285648345947,-0.04891534522175789,-0.019380515441298485,-0.03773033618927002,-0.0034944480285048485,-0.04207285866141319,-0.034621577709913254,-0.028440818190574646,0.024239858612418175,0.11150096356868744,-0.11758339405059814,0.005896078888326883,-0.04512953385710716,-0.1239384189248085,0.05516607314348221,-0.09367635846138,-0.11831378936767578,0.019119102507829666,-0.1296323537826538,-0.019121788442134857,-0.005878394469618797,0.059196680784225464,0.1538287103176117,0.07708138972520828,0.04351155087351799,0.025247788056731224,-0.01221007201820612,0.08875257521867752,-0.0733213946223259,-0.03825201094150543,0.06665410846471786,-0.12302654981613159,-0.00872163288295269,0.01626785285770893,-0.03542594239115715,0.03287462517619133,-0.023583166301250458,0.0517071858048439,0.03566688671708107,-0.07111085951328278,0.11354861408472061,0.02177063189446926,0.06387195736169815,0.04438755288720131,0.03463561087846756,-0.09296886622905731,0.08178237825632095,-0.05890202149748802,0.033688947558403015,0.09375019371509552,0.04190303012728691,0.053007692098617554,0.09583882987499237,0.04161647707223892,0.07539400458335876,-0.0646943673491478,0.004477410577237606,0.01698370836675167,-0.02825309708714485,-0.0006359603721648455,0.0035503634717315435,0.01716836914420128,-0.04070708528161049,0.046780455857515335,-0.08578694611787796,-0.04571688175201416,0.014871017076075077,-0.020574187859892845,0.09467248618602753,-0.0218704491853714,0.03652355447411537,0.20305003225803375,-0.014581588096916676,-0.007502271793782711,0.09316151589155197,0.0763932541012764,-0.06912016868591309,0.06384540349245071,0.00870715081691742,-0.1284741312265396,0.041670557111501694,0.01930990442633629,
0.05128352344036102,0.057466477155685425,0.01300055906176567,0.03983454778790474,0.047641322016716,0.019169220700860023,0.006289600860327482,0.0749545767903328,-0.08839038014411926,0.11369989067316055,0.11594931036233902,0.0075024813413619995,-0.018492868170142174,-0.009662608616054058,-0.06773772090673447,0.0819396898150444,0.0467706024646759,0.04560277611017227,0.059904418885707855,-0.02302270010113716,0.003981960471719503,0.04054442420601845,0.06429500877857208,0.05769849196076393,-0.05351933464407921,0.008688398636877537,0.03332122787833214,-0.041964419186115265,-0.020515216514468193,-0.04831262677907944,0.03052224963903427,-0.031058046966791153,-0.0033084824681282043,0.000515364168677479,0.006155782379209995,-0.076804980635643,-0.12840569019317627,0.041546065360307693,0.06228397414088249,-0.05702129751443863,-0.06177657097578049,-0.0036183097399771214,-0.03771236538887024,-0.08475110679864883,0.004799176007509232,0.06571611762046814,0.032162126153707504,-0.027287306264042854,0.02865639328956604,0.050865355879068375,0.011584299616515636,0.07038780301809311,0.14237304031848907,0.08317194879055023,0.04845916107296944,-0.03241226449608803,0.04212993383407593,0.03358921781182289,-0.006357431411743164,-0.024087240919470787,0.08590605854988098,-0.003333060536533594,-0.04448917508125305,0.021759064868092537,-0.01858905516564846,-0.020921016111969948,0.008964880369603634,0.025953076779842377,-0.007443728856742382,-0.03249487280845642,0.0002049360773526132,0.08499457687139511,-0.06511162966489792,0.013758073560893536,-0.12461170554161072,-0.0411716103553772,0.028380785137414932,-0.030688853934407234,0.045025017112493515,-0.02104242891073227,-0.020177319645881653,0.012570812366902828,0.009615395218133926,0.08442092686891556,0.06258431822061539,-0.0024102204479277134,-0.03312470391392708,-0.031002221629023552,0.016496051102876663,-0.036542244255542755,0.020160123705863953,0.1300916224718094,0.05456908047199249,-0.04035831242799759,0.005773288197815418,0.02459675632417202,0.018007881939411163,0.10053900629281998,-0.024931596592068672,0.005317654460668564,-0.13484354317188263,-0.03402932733297348,-0.0005805562832392752,0.13355432450771332,0.03717857971787453,-0.10005170106887817,0.11154051870107651,-0.014145041815936565,-0.007854072377085686,0.08530089259147644,-0.0404965840280056,0.11066850274801254,0.06880057603120804,-0.026383548974990845,-0.028914373368024826,0.041511088609695435,0.02318856306374073,-0.0108783058822155,0.10936514288187027,-0.011892846785485744,0.024173380807042122,0.03374483063817024,-0.019167689606547356,0.06486564874649048,-0.048087187111377716,0.015055134892463684,0.12771452963352203,-0.012072151526808739,-0.012691495940089226,0.06335419416427612,0.07667795568704605,-0.0036933929659426212,0.06718182563781738,0.12837330996990204,-0.02621062844991684,-0.09984530508518219,-0.06210818514227867,-0.030645210295915604,-0.12048111110925674,0.0009386413148604333,-0.0026474979240447283,-0.004482510033994913,-0.08693896234035492,-0.006496995687484741,0.007952786050736904,0.01767151616513729,-8.164082100847736e-05,-0.04236886277794838,-0.00871242955327034,0.015241425484418869,-0.012035825289785862,-0.03755659610033035,-0.10622373223304749,-0.02487640269100666,0.05299753323197365,-0.05011213943362236,0.04706767201423645,0.04234679788351059,-0.02666720189154148,0.022032449021935463,0.10456287860870361,-0.16254223883152008,0.07165288925170898,-0.012277254834771156,-0.06752271205186844,0.029572485014796257,0.0921703353524208,-0.019964272156357765,0.10246583819389343,0.03868579491972923,0.009487062692642212,-0.07609432935714722,0.14646930992603302,-0.0767645388841629,0.031139977276325226,0.029091792181134224,0.02888687141239643,0.053289227187633514,0.0042012822814285755,-0.0013477582251653075,-0.08302344381809235,-0.20421503484249115,-0.07927952706813812,-0.061235710978507996,-0.03790901601314545,0.061022497713565826,-0.036651309579610825,0.033634867519140244,0.07331592589616776,-0.051690004765987396,-0.01225255522876978,-0.00783368106931448,-0.012293467298150063,-0.009546875953674316,-0.0827249065041542,0.0337710976600647,-0.09484152495861053,-0.10142842680215836,-0.054054368287324905,0.18296904861927032,-0.05710408836603165,0.0176776722073555,0.02321968786418438,0.019684774801135063,0.13943785429000854,0.0666416585445404,0.06155504286289215,-0.009525280445814133,-0.016576485708355904,-0.10807398706674576,-0.0025448764208704233,0.025328906252980232,-0.0465049110352993,0.0030681979842483997,0.03669598326086998,-0.06365544348955154,-0.059655722230672836,-0.14752793312072754,-0.007012013345956802,-0.004715417977422476,-0.11648550629615784,0.010675566270947456,-0.0486748181283474,-0.06983503699302673,-0.02294202707707882,0.07661410421133041,0.017897022888064384,-0.03558666631579399,-0.062467169016599655,-0.0361909382045269,0.07034790515899658,-0.014926238916814327,0.09758929908275604,0.03580886870622635,-0.06302635371685028,-0.14802183210849762,-0.018787801265716553,-0.07432132959365845,-0.11163728684186935,-0.10841718316078186,-0.03173365816473961,-0.007722935173660517,-0.057974256575107574,-0.0010265829041600227,0.0929696336388588,0.08690225332975388,0.021352561190724373,0.057183269411325455,0.056686628609895706,0.023638205602765083,-0.12347833067178726,0.09625456482172012,0.01132624689489603,0.0593741349875927,0.011905943974852562,-0.024849537760019302,0.06057874858379364,-0.02628089115023613,-0.03625782951712608,0.12675388157367706,0.019987620413303375,-0.10920262336730957,-0.05009373277425766,-0.16209739446640015,0.0033515605609863997,0.0013589500449597836,-0.05494828149676323,0.005787394940853119,-0.06138424575328827,0.03973022848367691,0.04152678698301315,0.006607917137444019,0.021135805174708366,-0.0758269727230072,-0.044263117015361786,0.0015562208136543632,-0.042662836611270905,-0.04024794325232506,0.03403849899768829,0.005521758925169706,-0.006503983400762081,0.14409637451171875,-0.05085477977991104,-0.06743521988391876,-0.0018943052273243666,0.031536150723695755,0.06152596324682236,-0.01274809055030346,-0.11158033460378647,0.10498024523258209,0.0005735874292440712,-0.06136057525873184,0.0032313046976923943,-0.004450902808457613,-0.02552514337003231,0.0037451998796314,0.015496484935283661,-0.10567634552717209,-0.13480237126350403,-0.10895131528377533,-0.11345918476581573,-0.059951797127723694,0.044625505805015564,-0.06080358847975731,-0.03699584677815437,0.07333565503358841,-0.030077489092946053,-0.11420445889234543,0.07765046507120132,0.05210644751787186,-0.029617462307214737,0.024341735988855362,0.07501950114965439,0.11334174126386642,0.03865005075931549,-0.014165517874062061,0.0809905081987381,-0.004330148454755545,0.016432305797934532,0.040186986327171326,-0.016856297850608826,0.0015079270815476775,0.0685846284031868,-0.08057325333356857,0.02622157707810402,-0.07955580949783325,0.07860884070396423,0.017329387366771698,-0.02868044190108776,-0.03627731651067734,0.06231808662414551,-0.12040417641401291,0.04874025657773018,-0.0089257238432765,-0.029990557581186295,-0.05665932595729828,-0.06022283062338829,-0.0002754745364654809,-0.05661231651902199,0.028632082045078278,0.04566230624914169,-0.02522016316652298,-0.014316769316792488,0.007401427254080772,-0.026630273088812828,-0.06715375185012817,0.0016376144485548139,-0.05340712517499924,-0.0031563476659357548,0.008231877349317074,0.08248421549797058,0.06453172862529755,0.042924411594867706,-0.0012385175796225667,-0.08460651338100433,-0.028028931468725204,-0.036557264626026154,0.000373070448404178,0.021056728437542915,-0.012003133073449135,0.04751429706811905,0.06740015000104904,-0.009731173515319824,0.08136903494596481,0.023681027814745903,0.02449065074324608,0.0038514919579029083,0.05304504930973053,-0.005743468180298805,0.0038926645647734404,-0.04483979195356369,0.0918707400560379,-0.02132026106119156,0.038864895701408386,0.08148927986621857,0.02229280024766922,0.0114749101921916,0.00848519429564476,-0.02364031970500946,0.049795035272836685,-0.05041883885860443,-0.06028153374791145,-0.014508751221001148,0.0059025404043495655,0.06479600071907043,-0.022712968289852142,-0.004878828767687082,0.051380354911088943,0.11940629780292511,0.001450051087886095,0.05344982072710991,-0.016304966062307358,-0.05529008060693741,-0.10778453946113586,-0.027513673529028893,-0.0647929459810257,-0.028140509501099586,0.050450343638658524,0.0020099657122045755,0.023260753601789474,0.013576678931713104,-0.025263164192438126,-0.014726107008755207,-0.02287416160106659,-0.042790040373802185,0.07749168574810028,0.15160292387008667,0.07779683917760849,-0.032153621315956116,-0.025228537619113922,0.023425763472914696,-0.02499094232916832,-0.1205170750617981,-0.05027981102466583,0.06616195291280746,-0.11505972594022751,0.019927389919757843,0.02595074661076069,-0.015602130442857742,-0.01763605698943138,0.022020911797881126,-0.028927365317940712,0.04388739541172981,-0.08514875918626785,0.05294642969965935,-0.0672273337841034,-0.005342133808881044,0.013411269523203373,-0.009256121702492237,-0.08554686605930328,0.055471695959568024,-0.08755175769329071,-0.010974807664752007,-0.14060260355472565,0.020361756905913353,0.038969267159700394,-0.11328697204589844,0.03452032431960106,-0.016041327267885208,-0.06198743358254433,0.04677214100956917,-0.07964885979890823,-0.028535764664411545,-0.035208262503147125,-0.16503240168094635,-0.046613194048404694,0.011226380243897438,-0.01900842785835266,-0.045991212129592896,-0.012163490056991577,-0.12236452102661133,-0.0851118192076683,-0.023958442732691765,0.04939165338873863,0.08469691872596741,0.10036022216081619,-0.013859857805073261,-0.11564122885465622,0.024426231160759926,0.014449646696448326,-0.12310975790023804,-0.12562882900238037,-0.039452750235795975,-0.06845385581254959,-0.05250175669789314,-0.04876917973160744,0.021430158987641335,-0.040627289563417435,-0.040195003151893616,0.05023102089762688,0.08768369257450104,-0.07621844112873077,-0.014919287525117397,0.07161669433116913,0.13620978593826294,-0.10460571944713593,0.11165665090084076,0.018103234469890594,-0.08561232686042786,-0.04488299787044525,-0.10308397561311722,0.03856274485588074,0.007424015551805496,-0.1385514885187149,0.07970540225505829,0.03504403680562973,0.007355261128395796,-0.08931571990251541,0.029602892696857452,-0.05439786612987518,0.060295622795820236,0.043226324021816254,0.008285247720777988,-0.01286343764513731,0.07432001084089279,-0.0908689796924591,-0.12419896572828293,-0.007486882619559765,0.06655494123697281,-0.060336530208587646,-0.0662066712975502,-0.022581573575735092,0.01447201892733574,0.0021194531582295895,-0.12213306128978729,-0.00015868278569541872,-0.19275334477424622,-0.061505988240242004,0.03215935826301575,-0.11050862818956375,-0.012115824967622757,-0.029163993895053864,-0.010408371686935425,0.03695657104253769,0.16288527846336365,0.0514092817902565,0.06811327487230301,0.05773116275668144,0.019011519849300385,0.0559706874191761,0.11340498924255371,0.07140710949897766,-0.0040497370064258575,0.031853292137384415,-0.06322239339351654,0.022754624485969543,0.06978703290224075,0.05077667534351349,0.03680047392845154,-0.009481887333095074,-0.0017207417404279113,0.10931268334388733,0.002251511672511697,0.007047062739729881,0.06976243853569031,-0.027670424431562424,0.013197667896747589,-0.060383059084415436,-0.01910950243473053,-0.006295911502093077,-0.06066562235355377,0.0557493232190609,-0.0014922517584636807,0.059142425656318665,0.040165990591049194,0.07880310714244843,0.13576501607894897,-0.08484198898077011,0.08335056900978088,0.0724153220653534,-0.03592671453952789,0.051269739866256714,0.00722569040954113,0.10412584990262985,-0.02555724047124386,0.056071940809488297,0.010899599641561508,0.02278251014649868,-0.04297764226794243,0.03183422237634659,0.07576888799667358,-0.07820532470941544,0.06741553544998169,0.061202339828014374,-0.03678900748491287,0.03882919251918793,-0.022078268229961395,0.04432813823223114,-0.1473824828863144,0.05019906535744667,-0.001033893320709467,-0.10076076537370682,-0.04128977283835411,-0.02060944028198719,-0.0402139313519001,-0.07883487641811371,
-0.033803459256887436,0.15049946308135986,-3.58366696673329e-06,0.02668844908475876,-0.09941599518060684,0.003820046316832304,-0.019285649061203003,0.018779220059514046,-0.06450366228818893,0.023851899430155754,-0.05514116585254669,-0.044343963265419006,-0.039640605449676514,-0.048092808574438095,-0.01577179692685604,0.003158214967697859,0.03526272252202034,0.038558922708034515,-0.004159188363701105,-0.06401407718658447,-0.0013362084282562137,-0.019027570262551308,0.06440070271492004,-0.04400157928466797,-0.039383839815855026,0.02895888313651085,-0.01989557221531868,0.0016060357447713614,0.025141287595033646,0.01655679941177368,-0.05115952342748642,-0.10883113741874695,0.03610497713088989,-0.050382573157548904,-0.06434532254934311,-0.06136799231171608,0.04565846920013428,0.003986637108027935,0.08682642132043839,0.017368856817483902,-0.05013277754187584,0.03819756582379341,0.025161325931549072,-0.005002968013286591,-0.001735541969537735,0.01910775899887085,-0.041896626353263855,-0.016812702640891075,0.005025271326303482,0.035483989864587784,-0.0660310685634613,0.0008154514944180846,-0.008553233928978443,0.030106566846370697,-0.004838019143790007,0.012814303860068321,-0.03790843486785889,-0.1051614060997963,0.003341148840263486,-0.002891724230721593,0.04594148322939873,-0.09425809979438782,0.002873764606192708,0.031102528795599937,0.0008779128547757864,-0.05397094786167145,0.05486553534865379,-0.1887742429971695,-0.002778866561129689,-0.0077089280821383,0.07756537944078445,-0.03807225823402405,-0.05450233444571495,-0.027917006984353065,0.025484764948487282,0.03941895440220833,0.015714148059487343,0.00420239195227623,-0.024756556376814842,-0.04318789020180702,-0.008784669451415539,0.06699176132678986,0.028191084042191505,-0.010156936012208462,-0.04951297119259834,0.06793714314699173,0.030616696923971176,-0.027226485311985016,-0.10774094611406326,-0.05725973844528198,0.037306759506464005,0.12824197113513947,0.008206374011933804,-0.013617568649351597,-0.09376002103090286,0.047718245536088943,-0.005155177786946297,-0.060422055423259735,-0.013292839750647545,-0.012223315425217152,-0.010930614545941353,0.004304260015487671,-0.052882954478263855,0.001751681207679212,-0.08899613469839096,0.04837910830974579,0.03866588696837425,0.016748161986470222,-0.05104456841945648,-0.006068972870707512,0.003508590394631028,0.020333638414740562,-0.014572139829397202,-0.005289251450449228,-0.06953492015600204,-0.06608135998249054,-0.05330275744199753,-0.08080125600099564,0.0008307968964800239,0.006850340403616428,-0.0060195219703018665,0.012612342834472656,0.02114906907081604,0.021146267652511597,0.0032681829761713743,-0.0073329671286046505,-0.028864786028862,-0.01326328981667757,-0.013545708730816841,-0.00016407910152338445,0.08615322411060333,0.0655774474143982,-0.004171732347458601,-0.046063896268606186,-0.01482570543885231,0.00023634161334484816,0.047224342823028564,-0.03043535351753235,-0.0927409827709198,-0.13639749586582184,-0.03452278673648834,0.0171196311712265,-0.016807766631245613,0.07385419309139252,0.03658939152956009,-0.000231232974329032,0.040820326656103134,-0.019280269742012024,0.020381618291139603,-0.0035027877893298864,0.08721907436847687,0.04845431074500084,0.09876098483800888,-0.016440128907561302,-0.04701346158981323,0.025536002591252327,-0.06339606642723083,-0.13389179110527039,0.018206747248768806,0.09083262830972672,3.923176336684264e-06,-0.002841015113517642,0.05581853911280632,-0.0572880320250988,0.01711314171552658,0.06859154999256134,-0.040706805884838104,-0.040203433483839035,-0.06007661297917366,-0.01212760154157877,0.048710428178310394,0.05277904123067856,0.04605003818869591,0.03197908774018288,0.04930676892399788,0.06970115751028061,-0.02146853320300579,0.01733274757862091,0.013361760415136814,-0.06257665157318115,-0.031242921948432922,0.08218355476856232,0.046165790408849716,0.046440571546554565,-0.12835589051246643,-0.05647809058427811,0.03919217362999916,-0.03426627069711685,-0.006972638424485922,-0.009220192208886147,-0.10430307686328888,-0.05079185962677002,-0.04381190985441208,0.11667077243328094,0.014111865311861038,0.0044899084605276585,0.015443898737430573,-0.020458020269870758,0.030809691175818443,-0.03495735302567482,-0.023837201297283173,-0.01479217130690813,-0.042995307594537735,-0.0123450867831707,0.05345841869711876,0.038893356919288635,0.006272738799452782,-0.0011834908509626985,-0.06473813205957413,0.011979171074926853,0.0992124006152153,0.05789467319846153,0.06692095100879669,0.05854085460305214,0.03959017992019653,0.07723314315080643,0.051480263471603394,0.06442082673311234,0.06219059228897095,0.041807692497968674,0.150087371468544,-0.008619178086519241,-0.062308866530656815,-0.052922386676073074,-0.008417882956564426,0.010731206275522709,-0.05631444603204727,-0.05123134329915047,-0.014299754984676838,0.07622178643941879,0.03730448707938194,-0.0049616489559412,0.06661039590835571,0.0753735601902008,0.026102708652615547,-0.006024741102010012,0.0030825950670987368,0.01759546808898449,-0.0007334023830480874,-0.0007248070323839784,0.004433486610651016,-0.034662678837776184,-0.006748360116034746,-0.0024201946798712015,-0.04901743680238724,-0.08009622246026993,-0.02430873177945614,-0.005850776564329863,0.0003121626505162567,0.010029787197709084,-0.016195006668567657,-0.056961968541145325,-0.003401202615350485,-0.035279639065265656,-0.021222727373242378,0.003906966187059879,-0.1476576328277588,-0.09931512176990509,0.027156393975019455,0.0872717946767807,0.03851930797100067,-0.054170917719602585,-0.0016048391116783023,-0.06539265811443329,0.04451791197061539,-0.009913451038300991,-0.010045317932963371,-0.014858181588351727,0.0176971685141325,0.03855374455451965,0.020570654422044754,0.03909054398536682,-0.013580961152911186,-0.02026757225394249,0.024395814165472984,-0.0769667774438858,-0.05898524075746536,-0.021642213687300682,-0.013065026141703129,0.005680897273123264,-0.08113546669483185,0.0008723932551220059,0.10049121826887131,0.04188641905784607,-0.018063126131892204,0.0023617304395884275,0.03446264937520027,-0.011711916886270046,0.01625075377523899,0.003053327789530158,0.03137543424963951,0.002533384831622243,0.037830203771591187,0.08083579689264297,-0.02692621946334839,-0.010470465756952763,0.007877345196902752,0.010137536562979221,0.02548837475478649,-0.056788958609104156,-0.038888443261384964,-0.21547891199588776,0.036359235644340515,0.02296484261751175,0.021085135638713837,0.01340634748339653,0.037330448627471924,0.01880810596048832,-0.006048629060387611,-0.03862585499882698,-0.045739393681287766,-0.07341756671667099,-0.046407949179410934,-0.12641306221485138,-0.04841345548629761,-0.019924761727452278,0.019541509449481964,-0.005607770290225744,-0.09088966995477676,-0.08132316172122955,-0.059261567890644073,0.020553026348352432,-0.02958705648779869,-0.06524090468883514,0.03839088976383209,-0.053549833595752716,-0.0022285920567810535,-0.01664838194847107,0.004903314169496298,-0.031046515330672264,0.07352753728628159,-0.044691577553749084,-0.021743962541222572,-0.03571052476763725,-0.04502078890800476,-0.02592264674603939,0.033319901674985886,0.07992585748434067,-0.03372020646929741,0.030067335814237595,0.07056796550750732,-0.01370782870799303,-0.018501965329051018,-0.025901280343532562,0.016335459426045418,0.0003426005132496357,0.07835503667593002,0.07729147374629974,0.005232826340943575,0.08142037689685822,-0.02754761278629303,0.007307535968720913,0.15802715718746185,0.029305875301361084,-0.028997911140322685,-0.02292417176067829,-0.0476534403860569,-0.0029518138617277145,-0.0009804402943700552,-0.06906542181968689,0.015854565426707268,-0.08736983686685562,-0.014180674217641354,-0.03560812771320343,-0.0689510852098465,0.013502659276127815,-0.013372614979743958,0.0152824018150568,0.019542714580893517,0.08999256044626236,-0.04584107547998428,0.010187102481722832,-0.03661220893263817,0.04039168730378151,-0.028968561440706253,-0.0270566176623106,0.021313218399882317,-0.01840313896536827,-0.050979383289813995,0.006935099605470896,-0.014453806914389133,-0.012945340014994144,0.0029863761737942696,0.016367565840482712,0.04279681295156479,0.011705230921506882,0.010539451614022255,0.0007156716892495751,0.08569958060979843,0.021881617605686188,0.010812719352543354,0.1440153419971466,-0.003398859640583396,-0.07455726712942123,-0.0625036209821701,0.05711789056658745,0.026490455493330956,0.03405148163437843,0.047550275921821594,-0.0008196564740501344,0.1555967628955841,-0.01971224695444107,0.03135720267891884,0.04645265266299248,-0.005450003314763308,0.02318110130727291,-0.036108020693063736,-0.03228925168514252,-0.012875249609351158,0.0972556546330452,0.10357023775577545,-0.08093346655368805,0.016922814771533012,-0.04876847565174103,-0.0007333319517783821,-0.025088408961892128,0.0700467899441719,-0.0296862181276083,-0.01220474299043417,-0.08481523394584656,-0.053563620895147324,0.03842950239777565,-0.027835791930556297,-0.030113009735941887,-0.06610244512557983,-0.056143030524253845,-0.011988802812993526,0.04124791920185089,0.06930100917816162,0.00292120105586946,-0.045082937926054,-0.055874865502119064,0.006672781426459551,-0.021238261833786964,-0.009702041745185852,-0.015402144752442837,0.06300149857997894,0.04660399258136749,0.002025917638093233,0.07675798237323761,-0.022308580577373505,0.03865556791424751,0.13552607595920563,0.022197991609573364,0.0039954944513738155,-0.10241840779781342,0.06373514980077744,-0.0011426325654610991,-0.05821618810296059,0.07310157269239426,-0.0009390328777953982,0.015574485063552856,0.01506053376942873,-0.06778773665428162,-0.14892157912254333,-0.009571227245032787,-0.035249486565589905,0.014549467712640762,-0.04701592028141022,-0.019917936995625496,0.011266532354056835,0.03045164979994297,0.019842712208628654,-0.044004421681165695,0.050895318388938904,-0.0027986913919448853,-0.017540326341986656,-0.04385228082537651,-0.05003521218895912,0.07352255284786224,0.09542383253574371,-0.009110168553888798,-0.02950807847082615,0.0642867237329483,0.04766302555799484,0.044482626020908356,0.022063586860895157,0.026256347075104713,-0.017238838598132133,-0.0440993495285511,0.012041452340781689,0.11245857179164886,-0.017981601879000664,-0.03925645351409912,-0.06642816215753555,-0.0023355421144515276,-0.019323168322443962,0.09574991464614868,0.008721058256924152,-0.04924684762954712,0.05642753839492798,-0.02657332830131054,-0.0131031209602952,-0.017027782276272774,-0.11049116402864456,0.01130641158670187,0.09119726717472076,0.05935126170516014,-0.04521683603525162,-0.10045763850212097,-0.10848654061555862,-0.02172194980084896,0.03704722970724106,0.031410545110702515,0.021384617313742638,-0.06045270338654518,0.04272983595728874,0.012479555793106556,-0.04741869866847992,-0.0344838909804821,-0.05005461350083351,0.0471682995557785,-0.004503668285906315,0.029957927763462067,0.06867118179798126,0.030111607164144516,0.013461328111588955,0.18683025240898132,-0.05863136053085327,-0.014179994352161884,0.038923539221286774,0.04010089114308357,0.047099143266677856,0.12886010110378265,-0.013964670710265636,0.04144662618637085,0.028897814452648163,-0.01410443615168333,0.05925183370709419,0.06817015260457993,0.06737140566110611,0.038068268448114395,-0.042768411338329315,-0.0644640102982521,-0.0649694949388504,0.14933331310749054,0.03309488296508789,0.018433429300785065,-0.015339144505560398,-0.029452795162796974,-0.022818489000201225,-0.047555942088365555,0.04046785086393356,-0.054578810930252075,0.08946516364812851,-0.06004457548260689,-0.004927036352455616,-0.033490538597106934,0.013632715679705143,0.009906653314828873,-0.013226478360593319,-0.005707998294383287,-0.015310432761907578,-0.08147693425416946,-0.06773494929075241,-0.027255523949861526,0.02274312824010849,-0.02533802017569542,0.036411650478839874,-0.05296136811375618,-0.02691948227584362,-0.010202830657362938,-0.097978875041008,-0.003137944731861353,-0.012578697875142097,0.05922703072428703,0.015493443235754967,-0.04516267776489258,0.003164825728163123,-0.1022317036986351,0.09968031197786331,-0.16852128505706787,-0.02526784874498844,-0.05884295329451561,0.03487575799226761,-0.01471055019646883,
-0.10082392394542694,-0.03598367050290108,0.0010303546441718936,0.027157165110111237,0.028236400336027145,-0.011519573628902435,0.002239116234704852,-0.05849430710077286,-0.040561042726039886,-0.0913202241063118,0.0011563480366021395,0.06481051445007324,0.015016505494713783,-0.008379125036299229,-0.02527608908712864,0.007074709050357342,-0.12637287378311157,0.03887570649385452,-0.004165364895015955,0.02156667225062847,0.059543315321207047,-0.00540804723277688,-0.07536371052265167,0.06213684752583504,0.032762255519628525,0.006718887481838465,-0.01141548901796341,-0.03436761349439621,-0.07678472995758057,-0.024081794545054436,-0.04898463189601898,-0.024984974414110184,0.08157558739185333,-0.05025840550661087,-0.09008403867483139,-0.10802776366472244,-0.0692823976278305,-0.03469669446349144,0.015924040228128433,0.0216350220143795,-0.074977807700634,0.03064168244600296,-0.10011658817529678,0.04164658486843109,-0.059432536363601685,0.023497173562645912,-0.023858405649662018,0.032764531672000885,0.0017757780151441693,0.11886104941368103,0.10152916610240936,0.040509194135665894,-0.001271928078494966,-0.023178240284323692,-0.11835434287786484,0.020978767424821854,-0.06878598034381866,-0.06483237445354462,-0.07019449770450592,-0.07024512439966202,-0.0774773359298706,-0.04979876056313515,-0.023192493245005608,-0.0342056006193161,0.021960927173495293,0.031618088483810425,0.03223699703812599,0.09883201867341995,-0.08658207952976227,0.016873212531208992,0.03197129815816879,-0.062148433178663254,-0.008401437662541866,0.02422790229320526,-0.007918259128928185,0.0106738843023777,0.03404126688838005,-0.07722259312868118,-0.07269034534692764,0.05562412738800049,0.004512356594204903,-0.020821595564484596,0.011620634235441685,0.0430758111178875,0.008912613615393639,-0.1936774104833603,-0.028700919821858406,-0.05168553814291954,0.03511117398738861,0.12580916285514832,-0.06621675938367844,-0.0564708448946476,0.05680438503623009,0.0022698158863931894,0.022064661607146263,-0.023461228236556053,-0.045065321028232574,0.0956600159406662,0.111971914768219,0.03106863610446453,-0.03371972218155861,-0.014677380211651325,0.07240383327007294,0.053474098443984985,-0.1093146875500679,-0.1289803683757782,-0.07716456800699234,-0.0005098648252896965,0.09496869146823883,0.07413793355226517,0.1344035267829895,0.05016341060400009,0.013001267798244953,-0.03264058008790016,0.0403507761657238,0.03766221925616264,0.017911003902554512,0.0016418187879025936,0.09138147532939911,-0.07571994513273239,0.08720730245113373,0.0007911682478152215,0.09155799448490143,0.08717245608568192,0.058379750698804855,0.0032333580311387777,-0.0016841001342982054,0.029035396873950958,0.005019449628889561,0.04048551991581917,-0.04032668471336365,-0.02686629444360733,0.025680268183350563,-0.0368448905646801,0.07177209854125977,-0.0018378286622464657,-0.0264945887029171,0.0736846849322319,-0.04233725741505623,-0.06686385720968246,-0.032105907797813416,0.06089284271001816,-0.05191108211874962,-0.042534396052360535,0.0576976016163826,0.07713910192251205,-0.010046477429568768,0.024338167160749435,-0.10438279807567596,0.05207274109125137,-0.04074211046099663,-0.12228906154632568,-0.08424593508243561,0.00714865094050765,0.04587459936738014,-0.025519734248518944,0.021094096824526787,-0.09574693441390991,-0.05506943538784981,0.0605417937040329,-0.02175917476415634,-0.00016289866471197456,-0.002836880274116993,0.004119965247809887,0.0269942544400692,-0.0433901771903038,0.016682669520378113,-0.03547091409564018,0.04925232008099556,0.029912393540143967,0.002900052350014448,0.006037303712219,0.017274782061576843,-0.0017992709763348103,0.07954878360033035,-0.0029147425666451454,0.03500261530280113,0.0331626795232296,0.1564992517232895,0.16455306112766266,0.009155361913144588,-0.09039992094039917,0.0018332337494939566,0.016228558495640755,0.04271673411130905,0.04983977973461151,0.02199092134833336,0.03517540916800499,-0.09665913134813309,-0.039771754294633865,-0.024527035653591156,-0.00991763174533844,-0.021239517256617546,-0.1109820157289505,0.029472829774022102,0.04581340402364731,0.07751168310642242,0.16800768673419952,0.015385974198579788,0.007637734990566969,0.06575719267129898,0.05084504932165146,-0.16949783265590668,-0.13437606394290924,-0.029891984537243843,0.027325088158249855,-0.0984702855348587,-0.04389994964003563,-0.05357741191983223,-0.01579519733786583,0.02348789945244789,0.10760955512523651,-0.0402815006673336,-0.10477105528116226,-0.04920792952179909,0.04826928675174713,-0.05873209610581398,-0.06475060433149338,0.03624855726957321,-0.03659104183316231,-0.07028853893280029,0.01757526583969593,0.07027671486139297,0.023191776126623154,0.06803938746452332,-0.005124329123646021,-0.08350832760334015,0.009460730478167534,0.14254583418369293,-0.0668058693408966,0.09038907289505005,0.007417531684041023,0.047401297837495804,-0.13441236317157745,0.042147696018218994,0.06463094800710678,0.030045757070183754,-0.05651811882853508,0.015500363893806934,-0.0147419273853302,0.03127366304397583,-0.06188412383198738,-0.00504801981151104,0.008162685669958591,0.030822603031992912,0.030522607266902924,-0.05116335302591324,-0.015348844230175018,-0.09072059392929077,0.08817151933908463,-0.010279619134962559,0.015150775201618671,-0.06103451922535896,0.062414366751909256,0.015864796936511993,-0.040194250643253326,-0.07092975825071335,-0.024725478142499924,0.011770433746278286,0.00821675918996334,-0.06447488069534302,-0.014211750589311123,0.0014605798060074449,0.05006040260195732,-0.0596463605761528,0.09055950492620468,-0.03909105062484741,-0.00772998109459877,-0.1228901669383049,0.00020778497855644673,-0.039436012506484985,0.0060913716442883015,-0.05221058800816536,0.01620504818856716,-0.1475946456193924,-0.007242738734930754,0.15702927112579346,0.06415664404630661,0.06841102987527847,0.05900202691555023,-0.027752067893743515,0.059080418199300766,0.10552936047315598,0.08891185373067856,-0.09822717308998108,0.046016693115234375,0.0872892215847969,0.15215396881103516,0.02362382598221302,0.02748137339949608,-0.02522033080458641,0.0368918851017952,0.06636335700750351,-0.02023526094853878,-0.0035646359901875257,0.04052560776472092,0.0187229011207819,-0.053346049040555954,-0.04645581543445587,0.07807320356369019,0.019393276423215866,-0.02760947495698929,-0.04544876888394356,-0.06229028478264809,-0.03727832809090614,-0.10138724744319916,-0.1085033267736435,-0.021754780784249306,-0.014300351962447166,0.1038379818201065,-0.0006425792234949768,-0.02343009039759636,0.06698278337717056,0.09277214109897614,-0.05892058461904526,-0.011526559479534626,0.07788650691509247,0.06623794883489609,-0.0034959884360432625,0.05766110494732857,0.037922706454992294,0.16670231521129608,-0.060110848397016525,0.018101362511515617,-0.04917973279953003,0.0043988595716655254,-0.07016307860612869,0.050408314913511276,0.032831937074661255,0.04063526168465614,0.06425829976797104,0.03472593426704407,-0.05289531126618385,0.03502527251839638,-0.0017659291625022888,-0.11282270401716232,-0.019190991297364235,-0.06225467100739479,0.0029105516150593758,-0.08207189291715622,-0.09422270208597183,0.06596001982688904,-0.00809962023049593,0.12242645770311356,0.028808588162064552,0.043993182480335236,-0.0035906415432691574,-0.0771750658750534,0.006270342040807009,0.025898650288581848,-0.028988249599933624,-0.012801743112504482,-0.08111432939767838,0.0010665029985830188,-0.03504634276032448,0.02764127589762211,0.039063677191734314,0.05280863121151924,-0.027015410363674164,0.05617988854646683,0.014673328958451748,-0.014028185047209263,-0.047672294080257416,0.006231673527508974,0.025971001014113426,0.01509747002273798,0.010059060528874397,-0.08655296266078949,-0.23996153473854065,-0.10590203106403351,0.0032197677064687014,-0.037771906703710556,0.06981820613145828,-0.018353665247559547,-0.0037624319083988667,-0.030442869290709496,0.0009823011932894588,0.04637197405099869,0.03564176708459854,-0.04276410490274429,-0.06363873183727264,-0.05245397612452507,0.12945175170898438,0.09303721785545349,-0.10476504266262054,-0.08986425399780273,0.006271504331380129,0.034665487706661224,-0.07587257027626038,0.02332690730690956,0.044804103672504425,-0.021533533930778503,0.05014948174357414,0.012762757949531078,-0.011187019757926464,0.005947900004684925,-0.05818383768200874,-0.011568741872906685,0.08209507167339325,0.12468377500772476,0.06695815175771713,0.021567124873399734,-0.05971020087599754,-0.1337597519159317,-0.03795560449361801,-0.043355103582143784,0.004873727913945913,0.0062537905760109425,0.07935545593500137,0.007230973336845636,0.003509774338454008,0.10881509631872177,0.0672684982419014,0.1461092084646225,-0.05765191465616226,0.01983705163002014,0.05105734243988991,0.07852340489625931,0.012791300192475319,0.05181758105754852,0.06437646597623825,-0.04215467348694801,0.188140407204628,0.014767739921808243,0.08103445172309875,-0.07316004484891891,-0.023662148043513298,-0.03965342044830322,-0.06601293385028839,-0.06605922430753708,-0.050040218979120255,-0.05303770676255226,-0.015397587791085243,-0.03182126209139824,0.07718633115291595,0.017881320789456367,-0.0895664319396019,-0.09430506825447083,0.04514811933040619,-0.022487059235572815,-0.03239978104829788,-0.05821056663990021,-0.009590615518391132,-0.030679024755954742,0.08696973323822021,0.06517744809389114,0.0560472346842289,-0.0754428505897522,0.02383873425424099,-0.15321038663387299,0.01249685138463974,0.06087372452020645,0.038417793810367584,-0.01822929084300995,-0.07160523533821106,0.014480753801763058,-0.0245154220610857,-0.042601265013217926,-0.09759747236967087,0.042122337967157364,-0.0330931581556797,-0.08144643157720566,-0.005272860173135996,-0.005825936794281006,-0.17795656621456146,-0.013025280088186264,-0.12525886297225952,0.00622692471370101,0.029338140040636063,-0.03837550804018974,-0.03472323715686798,0.0628102570772171,0.026307158172130585,0.01293653342872858,-0.02983066998422146,-0.04097411781549454,0.03151317313313484,0.01284162886440754,0.10294993221759796,0.08557514101266861,0.08086831122636795,-0.04681653901934624,0.03686205670237541,-0.07730215042829514,-0.006682591512799263,-0.05080325901508331,-0.06837622076272964,-0.0008137350087054074,-0.11601107567548752,-0.0423554852604866,-0.03645145520567894,0.014393960125744343,-0.09212619066238403,-0.11787667125463486,-0.012157279998064041,0.0403204970061779,-0.07500767707824707,-0.06387144327163696,0.09882079809904099,-0.005987831857055426,0.03770998492836952,0.02734161913394928,-0.12146497517824173,-0.18844681978225708,-0.07303361594676971,-0.06739630550146103,-0.07826975733041763,-0.059989072382450104,0.05169796943664551,-0.12141678482294083,-0.04499414190649986,-0.127738818526268,-0.13943640887737274,0.023804480209946632,-0.0198375191539526,-0.062148768454790115,0.1026604101061821,-0.08947703242301941,0.15828238427639008,0.022289304062724113,0.06701258569955826,0.09263847023248672,0.05470999702811241,0.028481565415859222,0.13795465230941772,-0.12353348731994629,0.050381023436784744,-0.07424143701791763,0.06412839144468307,0.04276876524090767,-0.018933627754449844,0.08266372233629227,0.03969355672597885,-0.005626476835459471,-0.03384280577301979,-0.05496739596128464,0.0356074795126915,0.03472989425063133,-0.0015043163439258933,0.08502639830112457,0.05219994857907295,0.09597429633140564,0.07064636796712875,0.02041044272482395,0.049483850598335266,-0.004180395510047674,-0.010449270717799664,-0.07802607119083405,-0.003300989745184779,-0.034429192543029785,0.06854386627674103,0.04076029732823372,-0.005491269286721945,0.08720477670431137,0.0798824355006218,-0.03142127767205238,-0.043371494859457016,-0.06978452205657959,-0.05385487526655197,-0.042681604623794556,-0.003805287182331085,0.07223410159349442,0.02575414441525936,0.019167909398674965,-0.01635211706161499,0.00622683996334672,-0.018384631723165512,0.0237407349050045,0.04433978348970413,0.033425796777009964,-0.03662114590406418,0.0021124400664120913,-0.049469854682683945,0.03945542499423027,-0.05607839301228523,-0.11352446675300598,
0.019726533442735672,0.04119991138577461,0.01896389201283455,-0.053963884711265564,0.24966515600681305,-0.10743514448404312,-0.014939338900148869,0.06245625019073486,0.011620696634054184,-0.036008067429065704,0.07042849063873291,-0.000508565572090447,0.0018481622682884336,0.1158386617898941,-0.05693386495113373,0.06399723142385483,-0.014365080744028091,0.0022220087703317404,-0.007456843741238117,-0.01582123525440693,0.029102347791194916,0.010437579825520515,0.042580246925354004,0.018624359741806984,-0.010367072187364101,-0.14524221420288086,0.01905745081603527,-0.04505467042326927,-0.13876035809516907,0.05008392035961151,-0.16122524440288544,0.09756245464086533,0.021974213421344757,-0.02332807332277298,-0.061198070645332336,-0.004491360392421484,-0.0017580983694642782,0.02298629656434059,-0.012454545125365257,0.0115183275192976,0.07033874094486237,-0.05191316455602646,0.03772715479135513,-0.053526073694229126,-0.08004341274499893,-0.046699244529008865,0.0011528563918545842,-0.0019086612155660987,0.0431784987449646,0.0009429393103346229,-0.05045217648148537,-0.09899026900529861,-0.04812248796224594,0.04043562710285187,0.016235798597335815,0.011352811008691788,0.024919873103499413,0.0018510117661207914,0.1269300878047943,-0.02668663300573826,-0.12027440220117569,0.03701990097761154,0.009800811298191547,-0.025710085406899452,0.002630099654197693,0.03677326813340187,0.06449182331562042,-0.046817850321531296,-0.028787100687623024,0.06078125163912773,-0.11107076704502106,-0.025604980066418648,0.012859465554356575,-0.048602450639009476,0.011487259529531002,0.023556528612971306,-0.06076028570532799,-0.04693976044654846,0.08889342844486237,0.03625243529677391,-0.021437544375658035,-0.0248238705098629,-0.06624279171228409,0.13035152852535248,0.1313483715057373,-0.04497973248362541,-0.04644038528203964,0.0022285720333456993,-0.09499133378267288,0.03660399094223976,-0.036448344588279724,-0.03237444907426834,0.03102944605052471,-0.08820727467536926,0.13945676386356354,0.009950262494385242,-0.031577493995428085,-0.06925599277019501,-0.029473209753632545,-0.08360420167446136,0.06294335424900055,-0.03484104201197624,0.08678261190652847,0.16354085505008698,0.06216278672218323,-0.08533642441034317,-0.03316589072346687,0.006058161146938801,-0.00724051846191287,-0.11102407425642014,-0.008330130949616432,-0.012408661656081676,0.14552001655101776,-0.029315439984202385,0.049606017768383026,0.02015979401767254,0.10654846578836441,0.04991251975297928,0.0205223448574543,0.0014983335277065635,0.044100549072027206,-0.028334563598036766,-0.0005447342409752309,-0.07302802056074142,0.07278307527303696,-0.06061844527721405,-0.014855722896754742,0.023831577971577644,-0.02135244384407997,-0.05991390720009804,0.03785892575979233,0.040626175701618195,0.036343879997730255,0.06469574570655823,0.02271231636404991,-0.1014472097158432,-0.08095058053731918,0.0064630331471562386,-0.039262525737285614,0.05444599315524101,0.01847238279879093,-0.040946733206510544,-0.006415228359401226,-0.014074569568037987,0.02302761748433113,-0.01775483787059784,0.0727381706237793,-0.001370878191664815,0.014047055505216122,0.07639945298433304,-0.0012230334104970098,-9.318713273387402e-05,-0.04902653023600578,-0.00019702193094417453,0.004028364550322294,0.03146905079483986,-0.050091881304979324,-0.01963290199637413,0.07157514244318008,-0.0202637929469347,-0.06995772570371628,0.07389762252569199,0.026206722483038902,-0.09863027930259705,-0.017362631857395172,-0.003883793717250228,0.15280617773532867,0.0468817800283432,-0.05136150121688843,0.049546122550964355,-0.06627599149942398,0.005488908383995295,-0.047672294080257416,-0.05576460435986519,-0.06507544219493866,0.09221893548965454,-0.021668873727321625,0.048401206731796265,0.04449789971113205,0.002635509707033634,-0.06377888470888138,-0.03846807777881622,-0.020092379301786423,-0.0647367462515831,-0.014236273244023323,0.05044667050242424,0.024634886533021927,0.07797927409410477,0.007338861469179392,0.007613319903612137,0.03847923129796982,0.06897591799497604,0.09199265390634537,-0.13108350336551666,-0.08722197264432907,0.0016635071951895952,0.03869173303246498,0.012584006413817406,-0.0853983461856842,0.012821981683373451,-0.002894357778131962,-0.01458448264747858,-0.061821285635232925,-0.01568077877163887,0.04146106541156769,0.11795539408922195,-0.030339311808347702,0.09569884091615677,-0.0364823155105114,-0.04337240755558014,0.0376509353518486,-0.01389444898813963,-0.005101286806166172,-0.03444139286875725,0.06837622076272964,0.054907429963350296,-0.07856396585702896,-0.10688083618879318,0.048680633306503296,-0.10138694196939468,0.023903178051114082,0.11461128294467926,-0.0936652421951294,0.17887331545352936,0.02060949057340622,0.0009225036483258009,0.044358640909194946,0.029954100027680397,0.031831610947847366,-0.07366974651813507,0.034261226654052734,0.0033680913038551807,0.016848864033818245,0.046684324741363525,-0.0007917893235571682,-0.017727019265294075,-0.015423398464918137,0.005040770396590233,-0.06868761032819748,-0.02146216668188572,0.0014506879961118102,-0.04897793382406235,0.012631583027541637,0.006624946836382151,-0.016595663502812386,-0.06627608090639114,-0.016307393088936806,-0.03778061270713806,-0.01250785868614912,-0.06388642638921738,0.044865161180496216,0.03528190031647682,-0.023523615673184395,0.042898524552583694,-0.03473735228180885,-0.03396420180797577,-0.005578294862061739,-0.0204915814101696,-0.05312718451023102,-0.12664896249771118,0.04250836744904518,-0.09199477732181549,-0.04761265963315964,-0.042614709585905075,-0.16799134016036987,0.005714987870305777,-0.013400917872786522,0.030543550848960876,-0.05656185746192932,-0.023778431117534637,0.045980483293533325,-0.06988997012376785,-0.04966557025909424,0.08865182846784592,-0.10796640068292618,0.0218112301081419,0.11829056590795517,0.03201291337609291,0.006232289131730795,-0.03705855831503868,-0.09841618686914444,0.04946254938840866,-0.006084464490413666,0.06410476565361023,0.013292095623910427,-0.013834298588335514,0.005992661230266094,-0.021588163450360298,-0.006311638280749321,-0.05234098434448242,-0.007175595499575138,0.12170378863811493,-0.013964168727397919,0.07099754363298416,-0.06575094908475876,0.008578810840845108,0.011344149708747864,0.017160948365926743,-0.08795199543237686,0.018105562776327133,0.05229597166180611,-0.05983264371752739,-0.08385063707828522,-0.04200208932161331,-0.11599430441856384,-0.012667729519307613,-0.07870641350746155,-0.06649034470319748,-0.013069694861769676,-0.027013622224330902,0.01125309243798256,-0.12630900740623474,-0.014477891847491264,0.0903388187289238,-0.027153626084327698,0.029010700061917305,0.17009809613227844,-0.028025450184941292,0.05984704941511154,0.12349226325750351,0.02275901474058628,-0.04224316403269768,0.052168894559144974,0.045224111527204514,-0.13780303299427032,0.03422155603766441,0.03708118945360184,0.018443919718265533,-0.029304204508662224,-0.03757442906498909,-0.03861198201775551,0.05080695450305939,-0.043683502823114395,-0.019101405516266823,-0.02398049458861351,0.0006689574802294374,-0.058737535029649734,-0.09897303581237793,-0.023716866970062256,-0.008332700468599796,-0.0475567951798439,0.011707011610269547,-0.0897570326924324,-0.024432243779301643,0.06134411320090294,-0.05534977465867996,0.06686230003833771,-0.01834588684141636,-0.0069443583488464355,-0.0269082672894001,0.012655269354581833,0.019445903599262238,0.07662385702133179,-0.03949998691678047,-0.006528750993311405,0.06695478409528732,0.07822820544242859,0.028865616768598557,-0.10677164047956467,0.06352453678846359,-0.04523799195885658,0.0679774284362793,0.02223593182861805,-0.0048683867789804935,0.06985054910182953,0.05451047420501709,-0.0449601486325264,0.10161752998828888,0.028571035712957382,-0.04380279406905174,0.09504818916320801,0.03431170806288719,-0.016342002898454666,0.06901820749044418,-0.0674908310174942,-0.08633120357990265,-0.14492012560367584,-0.02715519443154335,-0.0008674846030771732,-0.009809163399040699,0.03116544894874096,-0.04206911101937294,-0.0053031411953270435,0.10857140272855759,-0.08181294798851013,0.024764269590377808,0.05225691571831703,0.08543816953897476,0.03996267542243004,0.03817763552069664,0.08425271511077881,-0.11917052417993546,0.0242861770093441,-0.00382572622038424,-0.03895203024148941,-0.019735144451260567,-0.010715906508266926,-0.13832896947860718,0.033704400062561035,-0.015515638515353203,-0.08166658133268356,0.050849977880716324,-0.04157437011599541,-0.015138295479118824,-0.02276493050158024,-0.016826728358864784,0.05916249379515648,-0.012137185782194138,0.06736607849597931,0.04539060592651367,-0.061332762241363525,0.051624272018671036,-0.151026651263237,-0.05305353179574013,-0.04509320855140686,-0.10151993483304977,-0.06441865116357803,-0.04527224600315094,-0.019698401913046837,0.09878835082054138,0.018918588757514954,-0.013493293896317482,-0.018223179504275322,0.07904112339019775,0.04307915270328522,-0.0169266015291214,-0.08300498872995377,-0.07967577874660492,0.010542002506554127,-0.02480771765112877,0.008393936790525913,0.05138157680630684,0.0014742317143827677,-0.09607241302728653,-0.0009731950704008341,0.03128688782453537,-0.0843595638871193,0.013492705300450325,0.007924959063529968,-0.029503051191568375,-0.03826906532049179,-0.017945991829037666,-0.030436623841524124,-0.010079775005578995,-0.043297119438648224,0.06818905472755432,-0.04057640582323074,0.06023553013801575,0.02538963034749031,0.08667117357254028,0.05131300166249275,-0.06177797541022301,-0.013063978403806686,0.04704001918435097,0.05377054959535599,-0.10961884260177612,0.025089966133236885,0.08556942641735077,-0.0776529312133789,0.021994981914758682,-0.012326092459261417,0.056658629328012466,-0.04645296558737755,0.0004159677482675761,-0.03810901194810867,0.059145238250494,-0.008276582695543766,0.038019679486751556,-0.026545047760009766,-0.024862205609679222,0.00455878721550107,0.008128916844725609,0.05732323229312897,-0.0038063405081629753,-0.021078044548630714,-0.03430469334125519,0.07045844942331314,-0.014076818712055683,-0.02583051286637783,0.07252422720193863,0.03199302777647972,-0.18309585750102997,0.014540846459567547,0.023837734013795853,-0.04786109924316406,0.02693687193095684,-0.05884658172726631,0.024082664400339127,0.01120656169950962,-0.08004771918058395,-0.07301951944828033,0.07668092846870422,0.020209819078445435,0.059621475636959076,-0.03980114683508873,-0.0758158341050148,-0.03949980437755585,0.006447633262723684,-0.04547019675374031,0.05311231687664986,-0.0018516789423301816,-0.08311330527067184,-0.013914770446717739,-0.07626688480377197,-0.0175777617841959,-0.02532779425382614,-0.019182967022061348,-0.03401695936918259,-0.09864179790019989,-0.0379721075296402,-0.017777811735868454,-0.07953289896249771,-0.03846557065844536,-0.04197881370782852,-0.07258451730012894,-0.0181844774633646,-0.05846840515732765,-0.06523284316062927,0.07400930672883987,-0.07017765939235687,0.06661047041416168,-0.019480284303426743,0.005222190637141466,-0.009668814949691296,-0.007125186268240213,0.025378787890076637,-0.0498032309114933,0.040336184203624725,-0.0178664643317461,-0.07375400513410568,0.010262035764753819,0.02878437004983425,-0.0642147958278656,0.038587793707847595,0.07510660588741302,-0.04480767995119095,0.018046610057353973,0.04131901636719704,-0.008322701789438725,-0.03350076824426651,0.020907264202833176,0.002521176589652896,-0.027872292324900627,0.07986055314540863,0.051535751670598984,0.006243445910513401,0.031900305300951004,0.05080193281173706,0.010403649881482124,-0.03397448733448982,0.036169227212667465,-0.018413150683045387,-0.11530112475156784,0.046689413487911224,-0.05400444194674492,-0.006175902672111988,-0.004056365229189396,0.03269780054688454,0.006998771335929632,-0.07901066541671753,-0.01052503939718008,-0.051219455897808075,-0.10452406853437424,0.020507505163550377,0.03265084698796272,0.07518906891345978,0.033831700682640076,-0.05411394312977791,0.026712613180279732,0.03803708404302597,-0.12602724134922028,0.13782547414302826,0.0058874208480119705,0.052861288189888,-0.05424357205629349,-0.011289245449006557,
-0.08313211798667908,-0.008732019923627377,-0.060395341366529465,0.0643821731209755,-0.014894796535372734,0.027319960296154022,-0.04168587923049927,0.03766794502735138,0.046834856271743774,-0.044532660394907,0.007183764595538378,0.06734151393175125,-0.0188723336905241,-0.08233603835105896,0.027426835149526596,-0.011121329851448536,-0.02245243638753891,0.030304737389087677,0.054975055158138275,0.005830446723848581,0.018459882587194443,-0.019281739369034767,-0.016558129340410233,-0.004028800874948502,-0.061124350875616074,-0.03391805291175842,-0.08006017655134201,0.019295865669846535,0.0011430036975070834,-0.00773498835042119,-0.0025176636409014463,0.08267850428819656,0.07376635074615479,-0.003938391804695129,-0.038287874311208725,-0.037973809987306595,-0.10451594740152359,0.005347232334315777,-0.007359749637544155,-0.0011747271055355668,-0.043754179030656815,-0.05024302378296852,-0.008713812567293644,0.06180145964026451,0.024413246661424637,0.054986268281936646,0.09107325226068497,0.13801488280296326,-0.07963231205940247,-0.0034284519497305155,0.08556372672319412,0.05403456836938858,-0.021966995671391487,-0.014652976766228676,-0.10859766602516174,-0.03825569897890091,-0.005680582951754332,-0.07751976698637009,0.09161680191755295,-0.0674729123711586,-0.06708449870347977,-0.07932956516742706,-0.03373519331216812,0.09633119404315948,-0.044739969074726105,0.03352654352784157,-0.0234327744692564,-0.0336790569126606,-0.03598000109195709,-0.054432447999715805,0.016732700169086456,0.019343813881278038,-0.010726246982812881,-0.15407294034957886,0.019546419382095337,0.0015170203987509012,0.0596858449280262,0.05340847373008728,0.06437692791223526,-0.036670371890068054,-0.018505457788705826,-0.004592908546328545,0.0025456028524786234,0.05641668289899826,-0.013130026869475842,0.08609480410814285,0.04496988281607628,0.013825650326907635,-0.038457565009593964,-0.04519949108362198,0.039375416934490204,0.031713537871837616,0.12184976786375046,-0.03952646628022194,-0.06273014098405838,-0.010457162745296955,0.013654366135597229,-0.0015497943386435509,-0.02927415445446968,-0.08916928619146347,-0.17138729989528656,-0.08270783722400665,-0.008902504108846188,-0.05764266103506088,0.056596044450998306,0.010169667191803455,-0.030002504587173462,-0.015254120342433453,0.029855724424123764,0.008544973097741604,0.09582525491714478,-0.039888571947813034,-0.07106999307870865,0.062104497104883194,0.03655051440000534,0.012177023105323315,-0.0063942852430045605,0.005414536688476801,-0.04148377478122711,0.034308891743421555,0.012442770414054394,-0.01361964363604784,0.05864680930972099,-0.006971905939280987,0.00814246479421854,0.04871131852269173,0.04429652541875839,0.0007869172259233892,0.008687724359333515,-0.025055235251784325,-0.002576930448412895,-0.11281915754079819,-0.002065348904579878,0.05666641518473625,0.025996068492531776,0.030700094997882843,0.03640356659889221,-0.010485829785466194,-0.08094704896211624,-0.03009290248155594,0.05477170646190643,0.034894123673439026,0.02275504171848297,0.012557745911180973,-0.04825209453701973,-0.06345018744468689,-0.021807055920362473,-0.04060448706150055,-0.021054204553365707,-0.05595261976122856,0.06510452181100845,0.09007652848958969,0.09206902980804443,0.057205840945243835,-0.09992018342018127,0.03962120786309242,0.007191951852291822,0.0032907091081142426,0.0062694731168448925,0.06071305647492409,-0.01326941791921854,0.02660515159368515,0.1731467843055725,0.03610328212380409,0.13480818271636963,0.03781881928443909,-0.11393731087446213,-0.024193687364459038,0.015606855973601341,-0.04879802465438843,0.09424464404582977,0.15669305622577667,0.193913996219635,0.11321257054805756,-0.0012403050204738975,-0.018060976639389992,-0.02648109197616577,0.10213303565979004,-0.03535616770386696,0.024756260216236115,-0.021593861281871796,0.021829579025506973,-0.0653870478272438,0.020126860588788986,0.03484931215643883,0.02497027814388275,-0.014718934893608093,-0.0023775857407599688,-0.009311243891716003,-0.001782833132892847,-0.12166549265384674,-0.03543350473046303,0.01877126842737198,0.03989876061677933,-0.04214853048324585,0.024343036115169525,-0.06155186891555786,-0.050091370940208435,0.13431990146636963,0.011148940771818161,-0.10758081078529358,0.075480617582798,-0.05946587398648262,0.056716062128543854,0.01303777750581503,0.021062426269054413,-0.034738264977931976,-0.04551173374056816,-0.10177972167730331,0.016428429633378983,0.03571842983365059,0.14565406739711761,0.05067891627550125,-0.006587847135961056,-0.026061132550239563,-0.03133091330528259,-0.06489133089780807,-0.11406227201223373,-0.0869358628988266,-0.039389971643686295,0.11209080368280411,-0.03508419543504715,-0.07366656512022018,0.028748396784067154,-0.03339029476046562,0.0749010294675827,0.08350330591201782,0.11655862629413605,0.015973541885614395,-0.009424780495464802,-0.04081747680902481,-0.009535934776067734,-0.022934284061193466,-0.045084983110427856,-0.0017207091441377997,0.01819152571260929,0.060848429799079895,-0.057175248861312866,0.04406240954995155,0.026431716978549957,-0.0029458014760166407,-0.008040456101298332,-0.021988412365317345,0.04289951175451279,0.0021603899076581,0.06692758947610855,0.004754527937620878,-0.06746398657560349,-0.014407286420464516,0.03723621368408203,-0.014656259678304195,-0.007810563780367374,0.00017475849017500877,-0.053942013531923294,0.020827267318964005,0.0030939786229282618,-0.10477748513221741,0.00759502686560154,0.01846471056342125,-0.01599203422665596,0.016561979427933693,-0.05466635525226593,-0.07971704006195068,0.012286562472581863,0.06840567290782928,-0.01688484102487564,-0.021647367626428604,0.05491439625620842,-0.019522463902831078,0.050539012998342514,0.09594103693962097,-0.048081282526254654,-0.07447302341461182,-0.002154366113245487,-0.01711251400411129,0.10057541728019714,-0.044941019266843796,-0.0698288232088089,-0.012876884080469608,0.0822606012225151,0.1271830052137375,-0.019350651651620865,-0.07269183546304703,-0.00034822974703274667,-0.019291937351226807,-0.004310952499508858,-0.054829683154821396,-0.05548594519495964,0.08026395738124847,0.0222751684486866,0.07809101790189743,0.0374104268848896,-0.023395664989948273,0.05868189036846161,-0.00508582079783082,0.04363887384533882,0.024011923000216484,-0.16573257744312286,-0.08024214208126068,-0.09398952126502991,-0.022611957043409348,-0.07178298383951187,-0.011865690350532532,-0.07558594644069672,0.02921346202492714,-0.009841934777796268,0.0052285026758909225,0.029325714334845543,-0.0727059468626976,-0.009821334853768349,-0.005059442017227411,0.11610284447669983,0.03238694742321968,0.06803906708955765,-0.09515189379453659,0.04606243222951889,0.020515765994787216,0.04272396117448807,0.0015244771493598819,0.12305206060409546,0.00015378343232441694,0.00712549826130271,0.024463528767228127,-0.031470928341150284,0.03273095190525055,-0.10307161509990692,0.07795453816652298,-0.04503597319126129,-0.008586576208472252,-0.00297931139357388,-0.0522911474108696,0.002691688947379589,-0.07033807784318924,-0.055208612233400345,0.030923765152692795,0.02334313653409481,0.09526415914297104,-0.05911831930279732,-0.028719453141093254,-0.01302261184900999,0.05227215588092804,-0.02128087356686592,-0.060612812638282776,-0.12955644726753235,-0.06402503699064255,-0.002035641809925437,-0.0539395809173584,0.07422497868537903,0.021396979689598083,0.04676341265439987,0.006462813820689917,0.06433533877134323,0.09245041757822037,0.09149327874183655,-0.034845609217882156,-0.0856596976518631,-0.026188084855675697,0.017061015591025352,-0.01577780209481716,-0.014586093835532665,0.11156177520751953,0.03914575278759003,0.017748985439538956,0.04626327008008957,-0.0871591866016388,0.012600147165358067,-0.01912298984825611,-0.03046105057001114,-0.013151164166629314,0.017347173765301704,-0.06300133466720581,0.012954899109899998,-0.026766737923026085,0.0005388668505474925,0.0680902749300003,-0.0014899050584062934,-0.0406443290412426,-0.0302819162607193,-0.031016100198030472,-0.04647141695022583,-0.03654787316918373,-0.11234346032142639,-0.027612531557679176,-0.037258367985486984,-0.009483087807893753,0.03785919398069382,0.01649974286556244,-0.011133970692753792,-0.038651179522275925,-0.09710237383842468,-0.001765848370268941,-0.022737693041563034,-0.01591649278998375,0.05458103492856026,-0.05059114471077919,0.021380659192800522,-0.10875894874334335,-0.12238144874572754,0.08030103147029877,0.046313416212797165,-0.09280804544687271,-0.03365454450249672,0.01478748582303524,0.018828457221388817,-0.05342218652367592,0.127892404794693,0.031785231083631516,-0.008707863278687,0.034797005355358124,0.016723334789276123,0.004391048569232225,0.01196250133216381,0.053122326731681824,0.07684952020645142,0.011174334213137627,0.0666099563241005,0.13507351279258728,0.14010466635227203,0.06293976306915283,0.04151039943099022,-0.006753495894372463,-0.06620936840772629,0.018920425325632095,-0.114780493080616,-0.20422782003879547,-0.02350216917693615,0.02378329448401928,0.05455672740936279,-0.017829973250627518,0.0063257901929318905,0.02789432555437088,-0.01806514710187912,-0.10070081800222397,-0.1822318732738495,-0.04072284698486328,0.024806218221783638,-0.017055662348866463,0.021158510819077492,-0.03382949158549309,-0.02096627652645111,-0.011101905256509781,0.006278173997998238,-0.06091465428471565,-0.16638615727424622,0.036049071699380875,0.05098666995763779,0.07693089544773102,-0.030342040583491325,-0.029393814504146576,-0.022574568167328835,-0.10462129861116409,0.043998874723911285,-0.08872699737548828,-0.00931304320693016,-0.07077029347419739,-0.0532190278172493,-0.01773935928940773,0.01431373879313469,-0.03842030093073845,0.03170805796980858,-0.16177059710025787,-0.10162551701068878,0.04702428728342056,0.029896840453147888,-0.03546181321144104,0.06983010470867157,0.020765848457813263,-0.060557518154382706,0.08953201025724411,-0.02105456404387951,-0.08306916803121567,0.011342233046889305,0.04649071395397186,-0.019574802368879318,-0.0015530491946265101,-0.02017430029809475,0.04115164279937744,-0.08020923286676407,0.018936654552817345,-0.014605862088501453,-0.03311822563409805,0.032811786979436874,-9.382017742609605e-05,0.046740368008613586,0.014786737971007824,0.016266487538814545,-0.05943497642874718,-0.0014220994198694825,-0.07080750912427902,0.017226649448275566,0.016600649803876877,-0.0691482201218605,0.026142023503780365,0.031092556193470955,0.030774453654885292,0.05302828922867775,0.006837152875959873,-0.14441902935504913,0.034290604293346405,0.012370544485747814,-0.018430927768349648,-0.029870927333831787,0.07490687072277069,-0.013765339739620686,-0.061796750873327255,-0.03605533018708229,-0.11828327178955078,0.027944281697273254,-0.1871243566274643,-0.11125049740076065,-0.04114300012588501,-0.0074057443998754025,0.00917761866003275,0.09586683660745621,0.053981442004442215,0.07928711920976639,-0.018588822335004807,-0.021611640229821205,-0.06090056523680687,0.029716910794377327,0.025668999180197716,0.00020481215324252844,-0.0622468926012516,0.10578706860542297,-0.0298957247287035,-0.05969012528657913,-0.06992863118648529,-0.08455292880535126,0.011583976447582245,0.028772925958037376,0.008639650419354439,0.013085820712149143,0.010027141310274601,0.022318802773952484,0.04421132430434227,-0.015809636563062668,-0.08674045652151108,-0.0003133544814772904,-0.06472798436880112,-0.034052491188049316,-0.00696991290897131,-0.019544705748558044,-0.03111858479678631,-0.027688410133123398,-0.06199926510453224,0.03697387874126434,-0.02418202906847,-0.0014566922327503562,0.03792740777134895,-0.06767938286066055,0.005405353382229805,-0.1702955663204193,0.027403926476836205,0.12936413288116455,0.09559644013643265,-0.026920117437839508,0.010443038307130337,-0.01642933115363121,0.03286919370293617,-0.006314580328762531,0.06527449190616608,-0.04953053221106529,-0.028570689260959625,-0.042668964713811874,-0.015237485058605671,-0.034165237098932266,-0.05447526276111603,-0.09279345721006393,0.02080037258565426,0.039917029440402985,0.041860971599817276,0.005503782536834478,-0.02204393781721592,0.04434700682759285,0.003788942703977227,0.061772849410772324,
-0.08214613050222397,-0.011361171491444111,0.05322562903165817,-0.06281428039073944,-0.011751187033951283,-0.08163247257471085,0.03550489619374275,-0.025232112035155296,-0.07492033392190933,0.026180056855082512,0.04435516521334648,0.015230724588036537,0.04560965672135353,-0.2441013753414154,0.04735492169857025,0.08987313508987427,0.04569219797849655,-0.0008516628295183182,-0.08506008237600327,-0.0623888224363327,0.005958961322903633,-0.08582418411970139,-0.004917893558740616,0.013715785928070545,0.010669431649148464,0.016291087493300438,-0.008541278541088104,0.013949192129075527,0.033193670213222504,-0.0029434836469590664,-0.014650693163275719,-0.03606617823243141,0.04241147264838219,-0.05914522707462311,0.0034407658968120813,0.039008110761642456,-0.09108090400695801,0.043284960091114044,0.010398169979453087,-0.052507027983665466,0.03983645886182785,0.032061588019132614,0.01227523386478424,-0.0761161744594574,-0.05059034749865532,-0.008045889437198639,-0.03987899050116539,0.008692429400980473,0.106589175760746,-0.07308310270309448,-0.04799782112240791,0.0578467957675457,-0.022564413025975227,0.04227837547659874,-0.05932352691888809,-0.07252461463212967,0.022823164239525795,0.03557731956243515,0.05520597845315933,-0.0032653468661010265,-0.029362117871642113,-0.029848536476492882,0.006373393349349499,0.0250427033752203,-0.03993009775876999,-0.03464159741997719,-0.005517203826457262,0.01637689210474491,-0.028485825285315514,0.04348648339509964,0.04904650151729584,-0.015005630441009998,-0.054859332740306854,-0.06953569501638412,0.05056513845920563,-0.057962775230407715,0.08438761532306671,-0.0071465433575212955,0.05665610358119011,-0.0028703000862151384,-0.056609638035297394,-0.040618572384119034,0.04655227065086365,0.007321159355342388,-0.016474809497594833,0.0027277490589767694,-0.02600971609354019,0.0304203350096941,-0.04822538048028946,0.03745162487030029,0.024595366790890694,0.030763152986764908,0.023168882355093956,-0.0036704344674944878,0.12193223834037781,-0.030325694009661674,-0.03826772794127464,0.04673229530453682,-7.853805436752737e-05,-0.016878385096788406,-0.13826824724674225,-0.04453892633318901,0.02780304104089737,-0.05047876760363579,-0.007469119969755411,0.08006183058023453,-0.0835380032658577,-0.03651372343301773,0.04323543608188629,-0.04689982533454895,-0.03461996465921402,0.11494636535644531,-0.0002841224195435643,1.8248412061439012e-06,-0.13281087577342987,-0.009023277088999748,-0.00106070248875767,-0.08207840472459793,-0.0018745206762105227,0.0036029466427862644,-0.004804543685168028,0.022815464064478874,0.0009923597099259496,0.07574281096458435,0.016322487965226173,0.006548652425408363,0.04216751083731651,-0.02971585839986801,0.010293937288224697,-0.0009370885090902448,0.04289741814136505,0.010031205601990223,-0.08344913274049759,0.01816781796514988,0.022956565022468567,-0.07946203649044037,-0.04928986728191376,-0.054519105702638626,-0.06651551276445389,-0.02334454655647278,-0.06941421329975128,-0.060966987162828445,-0.0562489852309227,-0.034727297723293304,0.0380222387611866,-0.00621633930131793,0.023771649226546288,0.13379693031311035,-0.05761339142918587,0.022138958796858788,0.02101142518222332,0.10499060153961182,-0.013532338663935661,0.002037596656009555,0.03879624977707863,0.03992575407028198,0.028399718925356865,-0.06081407889723778,0.060294441878795624,-0.03384033963084221,-0.03184697777032852,-0.02689908817410469,0.05418415740132332,-0.09457404166460037,-0.05848345533013344,0.17917519807815552,0.014553277753293514,-0.004757988732308149,-0.0038769354578107595,0.02897307462990284,0.016522135585546494,0.019276846200227737,0.07067476212978363,0.038310110569000244,0.019476570188999176,0.08240572363138199,0.011742467060685158,-0.02782272733747959,-0.016259001567959785,-0.01758497767150402,-0.03443365916609764,-0.059086307883262634,-0.03397385776042938,0.0038225706666707993,-0.0574948824942112,0.03604646027088165,-0.009279264137148857,-0.0020571574568748474,0.03611796721816063,0.016966480761766434,-0.01611928641796112,0.039013177156448364,-0.0998433455824852,0.122144915163517,0.07483187317848206,0.047564178705215454,-0.03608440235257149,-0.017701152712106705,-0.06701870262622833,-0.06840023398399353,-0.09679658710956573,0.043973445892333984,-0.09307652711868286,0.04009973257780075,-0.03307933360338211,0.07198598235845566,-0.043487515300512314,-0.07190806418657303,-0.022052021697163582,0.013327456079423428,0.020290538668632507,-0.046501923352479935,-0.011546124704182148,-0.003436389844864607,-0.09430436789989471,0.011075248941779137,-0.03511326014995575,-0.030099600553512573,-0.009609549306333065,0.012151856906712055,-0.04464467987418175,0.021580694243311882,-0.003838967764750123,-0.013341897167265415,-0.01674824208021164,0.004181582946330309,-0.012936504557728767,0.013700896874070168,-0.03466956317424774,0.04767458513379097,-0.023289810866117477,-0.018212465569376945,0.010756873525679111,-0.04814472049474716,-0.051176875829696655,0.08521497249603271,0.023499831557273865,0.16625703871250153,-0.14807920157909393,-0.01361202634871006,0.0076635777950286865,0.028274791315197945,0.02367703802883625,-0.02241687662899494,0.03991037607192993,0.02382899634540081,-0.09310217201709747,0.07350771129131317,0.07430699467658997,0.06160309165716171,0.027491416782140732,0.05218052864074707,0.05157183110713959,0.0859108567237854,0.00629710266366601,-0.0185433030128479,-0.07481284439563751,-0.07608456164598465,-0.06279534101486206,0.024312101304531097,0.041671980172395706,0.07997412234544754,0.023758413270115852,-0.014245301485061646,0.09609939903020859,-0.11556803435087204,0.008260972797870636,-0.05158308893442154,0.010686313733458519,-0.03166649863123894,0.032428987324237823,0.05245770886540413,-0.02007993683218956,0.03653983399271965,-0.033562809228897095,0.060947906225919724,0.039915889501571655,-0.0549713596701622,-0.009886006824672222,0.037784725427627563,-0.02369123324751854,-0.00444031972438097,0.03525138273835182,0.11991525441408157,-0.026168180629611015,0.037210673093795776,-0.08347678184509277,0.021892119199037552,-0.051286086440086365,0.05286625027656555,0.029921581968665123,0.09033387154340744,-0.0024409759789705276,-0.005262522492557764,-0.002443178091198206,-0.042221929877996445,0.009639122523367405,0.01653122529387474,-0.000533657381311059,0.027763012796640396,-0.0033962386660277843,0.023706449195742607,-0.0463598370552063,0.024841010570526123,-0.02831249311566353,-0.009473017416894436,0.003051365725696087,0.0663963258266449,-0.05466170608997345,-0.012440555728971958,0.10047200322151184,-0.0504114106297493,0.05258353054523468,-0.14914870262145996,0.07951835542917252,0.07171875983476639,-0.009502140805125237,-0.04698144644498825,0.13340528309345245,-0.04002109169960022,0.015578702092170715,-0.09064855426549911,-0.02257208153605461,-0.015367548912763596,-0.00389950186945498,0.09270230680704117,-0.04673962667584419,-0.14019379019737244,-0.01187239307910204,0.005760325118899345,0.026625268161296844,-0.018776535987854004,-0.01664716750383377,-0.038394227623939514,-0.011445872485637665,0.013232050463557243,-0.02755286544561386,-0.010380786843597889,0.0706714391708374,-0.04780823737382889,0.016811475157737732,-0.0030504383612424135,0.07909521460533142,-0.07276339083909988,0.08732730150222778,-0.005967240314930677,0.03906125947833061,0.01671685464680195,-0.07396877557039261,-0.011202548630535603,0.0036339149810373783,0.08379676938056946,-0.030484341084957123,0.03505267947912216,0.01594691351056099,-0.08144106715917587,-0.008734289556741714,-0.020316965878009796,0.052903808653354645,-0.0007679012487642467,0.0025550511199980974,-0.01743440516293049,-0.022069158032536507,0.1899675875902176,-0.0817272812128067,-0.008900674991309643,-0.08974136412143707,0.010441204532980919,-0.010465254075825214,0.07024984061717987,-0.001002191100269556,0.031938984990119934,0.08076903969049454,-0.2022818773984909,0.04163664951920509,-0.016619842499494553,0.06602692604064941,-0.04372619837522507,7.429929246427491e-05,0.021053938195109367,0.006547566503286362,-0.06727606058120728,-0.022931315004825592,0.06370993703603745,0.0537584014236927,-0.01928546465933323,-0.0276118665933609,0.05265834927558899,0.04358140379190445,0.030270813032984734,0.01492510549724102,-0.12948092818260193,0.05944543331861496,0.024200158193707466,-0.0022950763814151287,-0.031723782420158386,0.04386233538389206,0.006459693890064955,0.0041253590025007725,0.05066486448049545,0.05329800769686699,-0.05084973946213722,0.0691714808344841,-0.045825082808732986,-0.009620580822229385,-0.05624997243285179,-0.027726277709007263,0.03557994216680527,0.027327531948685646,0.08885649591684341,-0.0014020355883985758,0.04024666175246239,0.014202362857758999,-0.013142780400812626,0.06507270783185959,-0.005149387754499912,-0.029200468212366104,-0.11254339665174484,-0.09789567440748215,0.007629185449331999,0.019086793065071106,0.0904032438993454,-0.07397659122943878,-0.03665144741535187,0.0440543070435524,0.019860096275806427,-0.11211377382278442,-0.1384848803281784,0.0244208462536335,-0.021991737186908722,-0.048444200307130814,-0.010417042300105095,-0.02574470266699791,-0.007817892357707024,-0.0017720452742651105,0.053062476217746735,0.02377385087311268,0.04747685045003891,-0.03133593127131462,0.025091763585805893,-0.015682252123951912,0.0020416772458702326,0.013952954672276974,-0.004023238085210323,0.1504725068807602,-0.13580523431301117,0.030648300424218178,-0.03427354618906975,-0.017174189910292625,0.04163593053817749,-0.03688804805278778,-0.04930267482995987,0.01170835830271244,-0.08395843952894211,0.10761560499668121,-0.06510944664478302,-0.030555110424757004,-0.026085037738084793,-0.020614510402083397,0.007140887435525656,-0.024367179721593857,0.027150200679898262,-0.012242278084158897,-0.07979894429445267,0.030529262498021126,0.012825683690607548,0.10767026990652084,-0.020515432581305504,-0.051889821887016296,-0.1379873901605606,0.002650192938745022,-0.044495414942502975,-0.18178123235702515,0.07016653567552567,0.050381649285554886,0.03675432503223419,0.0200846865773201,0.0373799167573452,-0.071189284324646,0.05038438364863396,0.019328532740473747,0.06237250566482544,0.03824400156736374,0.018855608999729156,0.045989565551280975,-0.030725520104169846,-0.03762328252196312,-0.07002104073762894,-0.036133866757154465,0.007641809061169624,0.06157393753528595,-0.033527959138154984,0.02327127382159233,-0.03094232641160488,-0.042925577610731125,-0.05553942546248436,0.02818731777369976,-0.0599166564643383,0.14384636282920837,0.08223778009414673,0.06292697042226791,-0.0010172228794544935,-0.08132730424404144,0.0069927615113556385,0.009964512661099434,-0.017834318801760674,-0.009989367797970772,-0.028275547549128532,-0.11203693598508835,-0.02670709416270256,0.02476843260228634,-0.0019126491388306022,-0.01968265138566494,0.050331875681877136,-0.0580250509083271,-0.0041017900221049786,0.02493429183959961,0.006600675638765097,0.011261268518865108,-0.04601314291357994,-0.021068822592496872,-0.029659003019332886,-0.06183532625436783,0.02376405894756317,0.022922391071915627,-0.032007601112127304,0.08617612719535828,-0.02155531570315361,0.03192446753382683,-0.029474793002009392,0.07953058928251266,0.06734351813793182,-0.0889301598072052,-0.018977226689457893,-0.04374529421329498,-0.018270915374159813,0.0023543634451925755,0.04067200422286987,-0.0324239581823349,0.05436835438013077,-0.03957459330558777,-0.02812187932431698,0.05729985237121582,-0.24763526022434235,0.09977854788303375,0.06654581427574158,0.07318168878555298,0.00572566082701087,0.005531029310077429,0.012990369461476803,0.06723689287900925,0.017312919721007347,-0.0365724079310894,0.08971323072910309,-0.04104216769337654,0.015232089906930923,-0.022230567410588264,-0.03428042307496071,0.03281773626804352,-0.03266972303390503,-0.025111518800258636,-0.12344520539045334,0.1523810476064682,-0.006456858944147825,-0.02098631113767624,0.07958270609378815,-0.05580660700798035,-0.006440420635044575,-0.10773128271102905,0.012119846418499947,0.052612196654081345,-0.025735454633831978,0.014350684359669685,0.006145204417407513,-0.008015494793653488,0.006614519748836756,
-0.06875839084386826,0.03864007815718651,0.03412477299571037,-0.004980255383998156,-0.033183056861162186,-0.07286879420280457,-0.13416637480258942,-0.01509037520736456,0.003683345392346382,0.018116312101483345,-0.060750484466552734,-0.07577019184827805,0.010788926854729652,-0.024817386642098427,-0.07703988999128342,0.06186679005622864,-0.07406646013259888,-0.049448851495981216,0.01067832950502634,-0.0358210913836956,-0.0767802968621254,-0.06823264807462692,0.07085900008678436,-0.013888461515307426,0.02210046909749508,-0.07696032524108887,-0.013112936168909073,0.08927428722381592,0.03904356434941292,0.03000435046851635,-0.04506202042102814,0.015557531267404556,0.055616188794374466,-0.05156281217932701,-0.04485786706209183,0.057215794920921326,-0.017324276268482208,-0.024487875401973724,0.03651881217956543,-0.12976950407028198,-0.04724280536174774,0.027249932289123535,-0.06500217318534851,-0.06747913360595703,0.05643552914261818,0.0960673838853836,0.026044460013508797,0.022319773212075233,0.11795207858085632,0.021261679008603096,-0.010314331389963627,0.2114972472190857,-0.0009480001172050834,-0.07870696485042572,-0.06429963558912277,-0.003861436154693365,0.02638884261250496,0.04425573721528053,-0.03717392683029175,0.08724848926067352,-0.04442986845970154,0.02884374000132084,-0.018404506146907806,0.03612104803323746,0.07929446548223495,0.06894934922456741,-0.07908526062965393,0.016178959980607033,-0.004269773606210947,0.05452418327331543,-0.010458109900355339,0.025069590657949448,-0.003035138128325343,-0.08512210845947266,0.0674530491232872,0.023510973900556564,-0.0185895673930645,0.03240099176764488,-0.049041375517845154,-0.026285769417881966,-0.01100893970578909,-0.06361047178506851,-0.015252981334924698,0.007225567474961281,0.07207270711660385,-0.13374243676662445,-0.009681102819740772,0.007661846000701189,0.029986271634697914,0.013957438990473747,0.08611774444580078,-0.020326368510723114,-0.11299741268157959,0.014027783647179604,0.009965546429157257,-0.03420376777648926,-0.04948505014181137,0.012767129577696323,0.07186681777238846,-0.06196540221571922,0.01039321068674326,-0.057609252631664276,-0.01982455514371395,0.01565057784318924,0.03235091641545296,0.01465079840272665,0.061545003205537796,0.05400532856583595,-0.1272464096546173,-0.03356485813856125,-0.0741676464676857,0.02256722003221512,0.032663743942976,-0.030972300097346306,-0.05056040734052658,-0.024820299819111824,-0.03759050741791725,0.0970291867852211,0.0036046707537025213,-0.018382927402853966,0.07422423362731934,0.010967729613184929,-0.06789174675941467,0.044136207550764084,-0.15132693946361542,-0.16694816946983337,-0.044901810586452484,-0.03679205849766731,0.057289980351924896,0.05214250832796097,-0.029930178076028824,0.04416723549365997,0.005947751924395561,-0.060971833765506744,-0.023277444764971733,-0.054524339735507965,-0.04656415432691574,-0.015147428959608078,-0.1678057163953781,0.11773926019668579,0.00792742520570755,-0.21664074063301086,0.09473350644111633,0.05762520805001259,0.06840544939041138,-0.01921859383583069,-0.05793183296918869,0.04262436926364899,-0.08013398945331573,-0.019982753321528435,0.13356155157089233,-0.1043306291103363,0.0037250735331326723,0.016690924763679504,-0.012668265961110592,0.04822968319058418,-0.12136659026145935,-0.02492283284664154,-0.11922647804021835,0.06641963124275208,-0.01826268620789051,-0.15854427218437195,-0.008515065535902977,0.06336279213428497,-0.06754517555236816,0.10048773139715195,0.051369454711675644,-0.03517721965909004,0.1746118813753128,-0.039745479822158813,0.014506421983242035,0.10095800459384918,-0.04401553422212601,0.01438803132623434,0.1339140385389328,-0.11782912909984589,0.07044237852096558,0.1294192373752594,-0.037557050585746765,0.010803209617733955,-0.04339423403143883,-0.08796171844005585,0.02415373921394348,-0.09989628940820694,-0.030851921066641808,-0.03470255807042122,-0.12426237016916275,-0.00046940281754359603,-0.05191429331898689,0.012652152217924595,-0.05255811661481857,0.007582630962133408,0.028112227097153664,-0.006783153861761093,0.05803360790014267,-0.001447714283131063,0.036776404827833176,-0.007230985909700394,-0.022682011127471924,-0.016472898423671722,0.010021965950727463,-0.10681113600730896,-0.020791271701455116,-0.043907370418310165,0.1533431112766266,-0.06012516841292381,-0.09819754213094711,-0.04781610146164894,0.05029492825269699,-0.010113896802067757,-0.03458697721362114,0.04453490674495697,-0.08606751263141632,0.0819019004702568,-0.02241792343556881,-0.12718039751052856,-0.15415433049201965,0.0333460308611393,0.03309064731001854,-0.06039521098136902,-0.044015318155288696,-0.010249607264995575,-0.12987461686134338,0.018598631024360657,0.016430318355560303,-0.05038350448012352,0.00544618209823966,0.07531867176294327,-0.10898708552122116,-0.05336837098002434,0.040391966700553894,0.06321492046117783,0.01199766993522644,0.025576908141374588,-0.005549789406359196,0.0020338420290499926,0.032950934022665024,-0.0323537141084671,0.0032344001810997725,-0.054919738322496414,-0.027354814112186432,-0.07348434627056122,-0.0587843619287014,0.0307227224111557,0.09640538692474365,0.07765132933855057,0.032961875200271606,0.08474104106426239,0.0341327078640461,-0.02377796173095703,-0.06271054595708847,0.004520225338637829,0.03864143416285515,-0.104671411216259,0.033418502658605576,0.10713884234428406,-0.052024971693754196,0.053544532507658005,0.013659205287694931,-0.0755443200469017,-0.05542829632759094,-0.13376151025295258,0.06924276798963547,0.006712428759783506,-0.09492115676403046,0.029841739684343338,-0.06193007901310921,-0.020200369879603386,-0.06240908056497574,-0.052422888576984406,-0.053919095546007156,0.10212072730064392,0.032364729791879654,-0.03315397724509239,-0.04045042395591736,0.04571090638637543,0.04701486602425575,0.09793060272932053,0.010774286463856697,0.07669252157211304,-0.08850910514593124,-0.02744499407708645,0.11973059177398682,-0.14566360414028168,-0.03410501778125763,0.10966838896274567,-0.05712611600756645,-0.010252110660076141,0.03327205404639244,0.03409610316157341,-0.03926611319184303,-0.025687331333756447,0.03630708530545235,-0.04274090752005577,0.0528988353908062,-0.01044556312263012,-0.0820436030626297,-0.001442042295821011,-0.06524612009525299,-0.049084436148405075,-0.08465496450662613,0.07491195201873779,0.06646504998207092,-0.12683705985546112,0.07193513959646225,-0.018690261989831924,-0.030246485024690628,0.04025384411215782,0.11768629401922226,0.028758874163031578,-0.032496802508831024,0.08789370208978653,0.06203783303499222,-0.024974439293146133,-0.002930764341726899,-0.043239060789346695,0.07727590948343277,-0.09967843443155289,0.04371167719364166,0.051064930856227875,-0.04232003167271614,0.10286260396242142,0.03259692341089249,0.022858094424009323,0.035336364060640335,0.06516844779253006,-0.00819307193160057,0.05603599548339844,-0.07051226496696472,0.0020566212479025126,-0.00514810997992754,-0.1164110004901886,-0.0721096321940422,-0.014001657254993916,-0.03369065001606941,-0.05890341475605965,0.06889238208532333,-0.15764133632183075,-0.012064555659890175,0.018032850697636604,-0.048682328313589096,0.014541066251695156,-0.08567104488611221,0.004543734714388847,-0.05866733193397522,-0.004797889851033688,0.012452719733119011,-0.06429965049028397,0.0425025150179863,0.11079786717891693,-0.025515645742416382,-0.009631326422095299,0.05783088132739067,-0.00892135314643383,-0.042771030217409134,0.053448669612407684,-0.0246836356818676,0.14863929152488708,-0.09217119961977005,0.005580855067819357,0.010363719426095486,0.014161419123411179,-0.022832777351140976,-0.02410094067454338,0.06426015496253967,-0.03969280794262886,0.07439932227134705,-0.006539136171340942,-0.03270741552114487,0.011248198337852955,-0.08659972995519638,-0.1182292103767395,0.04370947182178497,0.00919032096862793,-0.20529554784297943,-0.08021652698516846,-0.09835894405841827,-0.07354261726140976,-0.015870030969381332,-0.04635807126760483,0.10596175491809845,-0.02300817146897316,0.0013006856897845864,0.060311395674943924,0.009110256098210812,-0.01905958540737629,0.008648170158267021,-0.0023801964707672596,-0.15302424132823944,-0.06279309839010239,0.06907892972230911,-0.05671944096684456,0.061068881303071976,0.04702914133667946,0.011410541832447052,0.09538233280181885,0.12407702952623367,0.052263423800468445,0.05640982463955879,0.05909878388047218,0.06347169727087021,-0.09720252454280853,0.04656361788511276,0.08342459797859192,0.03813553601503372,-0.030523311346769333,-0.017524324357509613,0.04145585373044014,-0.0015613697469234467,0.0006479547591879964,0.0062207067385315895,0.0176074355840683,0.012352926656603813,0.022096572443842888,0.0007752121309749782,0.04085156321525574,0.02284885011613369,0.09225261956453323,-0.03587045148015022,-0.004487600177526474,0.06745637953281403,-0.07467513531446457,-0.027405057102441788,-0.10597386211156845,0.023839564993977547,-0.07169727236032486,-0.06270624697208405,-0.06581825762987137,-0.03522489592432976,0.005120010580867529,-0.10962947458028793,0.05804518610239029,-0.03190711513161659,-0.0352572463452816,0.0032766417134553194,-0.05073550343513489,-0.08153567463159561,0.033909816294908524,0.0805683508515358,-0.019486119970679283,0.023656746372580528,-0.15500806272029877,0.03071937896311283,0.023294983431696892,-0.07633951306343079,-0.0614229291677475,0.03735837712883949,-0.07940860837697983,-0.018682165071368217,0.020107794553041458,-0.01872941106557846,-0.050157204270362854,-0.042014237493276596,-0.037768248468637466,-0.12137452512979507,0.030493874102830887,-0.09200633317232132,0.06899654865264893,-0.043017346411943436,-0.057907767593860626,-0.033833786845207214,0.0053797755390405655,-0.013931721448898315,-0.038811858743429184,0.06865300238132477,0.021886102855205536,-0.051523491740226746,-0.035312049090862274,-0.003422399051487446,-0.019680537283420563,0.09041225165128708,-0.07184931635856628,-0.04944716393947601,0.018073145300149918,0.10579973459243774,0.06272311508655548,0.011395126581192017,0.09412714838981628,-0.07886488735675812,-0.02348749153316021,-0.03770441561937332,0.0017520723631605506,0.03210234269499779,0.024049682542681694,0.015412590466439724,-0.019466327503323555,-0.14200438559055328,-0.04868464916944504,0.01821579784154892,-0.22252602875232697,-0.06355365365743637,0.01658250018954277,-0.25337547063827515,-0.007615310605615377,0.03825346753001213,-0.04315032437443733,-0.01714746281504631,0.10109873861074448,0.011530444025993347,0.05750616639852524,0.05625128746032715,0.08837834745645523,0.1479036957025528,0.05570502206683159,-0.16256241500377655,-0.040453579276800156,-0.02630072645843029,-0.18845801055431366,0.017056934535503387,0.04335101693868637,-0.14799067378044128,-0.061836641281843185,0.018681904301047325,0.08664801716804504,0.05676877126097679,0.013298825360834599,0.1341722309589386,0.013174766674637794,0.019401511177420616,0.16897530853748322,-0.022601444274187088,0.12938405573368073,-0.06455761194229126,-0.1120210662484169,-0.057623784989118576,0.00994841381907463,-0.03972231224179268,-0.024007460102438927,-0.08151683211326599,-0.08480983227491379,-0.12920185923576355,-0.038786113262176514,-0.0013364446349442005,-0.047205470502376556,0.05109404772520065,-0.015487474389374256,-0.0035780875477939844,0.033729344606399536,0.03349342942237854,-0.056352827697992325,-0.035709165036678314,0.0033239354379475117,0.051956746727228165,0.0320466123521328,0.05034254863858223,-0.07924824208021164,0.02386908046901226,-0.07625745236873627,-0.0174802727997303,0.00815019104629755,-0.11850898712873459,-0.02343492954969406,0.002280654851347208,0.00787019170820713,0.016545496881008148,-0.09219162911176682,-0.023626379668712616,0.0037539005279541016,-0.017151784151792526,-0.048790343105793,-0.04375771805644035,-0.10198438912630081,-0.04368780553340912,-0.03564547374844551,-0.013266290538012981,-0.0655064657330513,-0.1715337038040161,-0.11280951648950577,-0.025978296995162964,0.018429096788167953,0.0207651499658823,-0.05805619806051254,0.039178136736154556,-0.05658876895904541,-0.04670078307390213,0.030989065766334534,
