62,-119,-79,68,
-25,-57,8,17,
-12,-14,-110,-39,
128,-40,-127,-47,
173,139,155,-20,
35,30,-95,12,
182,-83,101,125,
1,-60,45,1,
67,32,-250,-71,
-58,-23,-166,119,
-25,46,-27,-109,
148,73,-14,-93,
127,-30,-181,153,
126,-21,-59,-20,
-43,-13,-134,-61,
86,14,-41,-8,
-5,70,74,5,
-17,42,-71,24,
122,-130,56,-71,
-1,-117,-19,94,
-28,-94,34,3,
193,-83,67,-86,
-45,-31,32,-71,
185,-22,39,-122,
0,52,-5,26,
-34,-8,45,-18,
-60,-27,-179,-237,
2,84,-80,-117,
-81,9,180,-37,
-56,-50,43,13,
52,-40,32,75,
59,75,47,-93,
31,39,33,-20,
42,42,-150,17,
24,-79,58,-85,
-118,49,-83,-92,
-61,-5,-18,14,
258,49,-104,-174,
0,-64,40,101,
94,102,-114,-41,
11,-63,30,-74,
-19,-127,-22,64,
25,-25,132,25,
-54,-32,8,45,
-68,-97,178,-11,
66,-120,79,110,
134,-96,-13,26,
-52,-57,-189,231,
11,-16,26,0,
-20,-48,-78,-27,
1,-23,4,-39,
43,87,-6,40,
185,-21,43,-4,
134,42,24,-28,
157,108,-56,-23,
18,-110,-176,-31,
8,-127,-12,-166,
13,-26,84,-1,
-25,-35,46,-11,
99,-60,-103,-155,
104,-4,-85,-51,
40,-101,36,-67,
134,40,-46,-9,
13,50,-20,-51,
-160,-81,22,108,
-165,-152,-47,-75,
68,-178,13,37,
-117,53,12,-138,
-84,24,188,-176,
25,12,-105,118,
126,-166,-41,69,
36,-80,26,-64,
136,-100,37,23,
-85,-76,-156,154,
172,136,53,-158,
268,-26,115,-245,
-41,-158,186,-31,
109,-48,-22,50,
-82,-43,-132,-50,
56,-34,-175,38,
8,100,-95,84,
-157,-137,-56,20,
-35,-56,176,-111,
-42,34,174,89,
-138,55,111,-74,
-85,-126,-79,-88,
170,-96,12,-104,
151,-48,77,-150,
267,-35,44,-188,
-114,5,-41,36,
118,-80,95,-90,
-99,-3,-81,-4,
148,14,-25,194,
-311,31,-153,-78,
109,-38,3,64,
-82,86,-115,-66,
151,29,27,9,
-50,-139,164,157,
175,132,-218,49,
-40,31,5,-81,
147,-93,-132,-48,
185,2,174,36,
-110,35,13,16,
-83,-14,45,75,
74,-39,28,-78,
-44,-189,142,131,
-48,-6,-140,-59,
113,98,-15,-85,
125,-72,27,-165,
165,78,-163,29,
180,-64,-28,82,
211,-77,-40,31,
82,58,-44,-52,
82,-75,-104,-52,
-57,-45,1,-98,
178,6,113,-43,
35,8,157,10,
-78,137,-60,228,
231,134,612,-336,
-72,15,-103,-123,
-33,-24,33,-45,
-72,35,-65,-42,
145,-54,9,-98,
17,9,-1,21,
-6,-36,-2,-19,
148,91,68,-25,
190,87,175,148,
-20,-27,-45,-86,
-48,125,-40,11,
-86,-83,-49,-26,
59,-178,27,97,
22,-31,-106,3,
104,-68,-177,-81,
-26,41,-73,-42,
292,31,20,-128,
35,-128,69,76,
146,131,-89,50,
-4,-27,3,5,
-19,-91,73,110,
75,-41,164,-193,
-51,36,58,59,
44,21,86,-25,
4,-95,-45,-115,
41,23,-101,-22,
-7,-5,25,16,
64,-17,-43,-71,
-111,-5,-12,34,
-46,141,69,36,
4,-30,1,-60,
40,56,-9,-28,
68,-58,19,-24,
-11,-33,29,-43,
-248,-17,-285,55,
41,-13,44,-68,
-27,14,-222,-57,
-13,88,-4,-237,
86,-207,164,215,
31,10,-48,101,
-12,8,11,-14,
-17,-14,187,17,
43,-48,148,75,
160,78,-184,101,
133,40,-39,108,
69,-48,130,-46,
34,22,-22,-28,
25,68,-8,168,
3,-44,-123,80,
-88,27,10,-59,
36,-14,50,12,
13,-3,-51,-3,
80,21,-4,55,
136,-46,272,-41,
42,-17,-136,57,
94,134,11,129,
-6,-31,143,69,
-11,154,63,41,
67,-39,82,-25,
-42,5,-21,40,
-363,-14,-264,143,
77,-5,15,76,
-16,-18,28,-63,
7,162,-193,65,
-82,24,-171,166,
15,97,-72,-83,
-80,-26,-129,5,
-40,130,26,132,
3,-53,19,-1,
212,-67,-47,-145,
-49,21,2,71,
13,-83,52,7,
65,25,111,8,
33,-47,-75,-61,
-46,58,-40,100,
-115,-33,75,39,
212,-48,210,-75,
50,188,-7,-72,
41,3,-102,-69,
-106,78,50,7,
70,183,96,-33,
-7,-71,-28,40,
-53,-22,-138,-146,
56,186,-79,151,
173,84,0,16,
113,26,-152,225,
119,30,9,13,
123,-51,-12,9,
-51,116,-14,43,
-14,-67,-105,83,
6,-8,-58,77,
-29,-153,-52,-38,
32,102,-19,274,
-41,-6,-43,78,
-79,-3,69,-92,
-44,-214,59,111,
-25,106,78,66,
247,178,186,-77,
152,50,-174,-172,
21,-53,145,134,
53,30,-273,166,
145,58,-263,-336,
-5,60,96,-128,
-2,188,-249,50,
75,35,-94,-26,
60,109,86,34,
8,87,83,96,
71,-27,108,-5,
-9,65,29,-98,
-25,13,-104,-138,
-65,-65,13,63,
114,-135,401,-15,
105,-90,10,-41,
-2,192,-9,-155,
2,-27,-168,-3,
-39,-40,207,83,
10,106,84,-12,
146,-15,151,-112,
370,-122,41,-105,
100,67,-9,11,
366,11,26,10,
131,74,-3,182,
-102,-99,-12,-50,
95,156,-127,217,
-43,-135,138,8,
-29,25,47,149,
93,-248,-184,92,
9,149,-13,-47,
90,11,85,22,
-61,-23,-21,-99,
287,-35,41,-33,
185,-70,47,-23,
-96,-7,95,-99,
-161,-42,86,61,
189,63,140,283,
-61,-135,21,26,
18,74,104,-61,
79,41,-119,-34,
102,122,80,-214,
-189,-21,-11,-71,
269,31,345,117,
-59,56,-23,278,
-121,-242,46,189,
-203,-143,-30,-33,
-64,-331,-144,-154,
-189,-32,36,61,
4,-213,220,-52,
58,-5,217,177,
-225,272,215,117,
-325,-136,-259,-49,
-210,-69,184,74,
53,238,-71,5,
-393,-219,124,364,
-120,115,-169,-15,
181,26,-146,-46,
-90,0,-38,47,
113,405,-67,-487,
79,244,-87,41,
-4,-10,-244,72,
70,116,11,5,
26,-318,-8,-56,
52,-152,-252,-103,
9,141,250,170,
-146,-46,29,1,
193,125,-292,-229,
-140,58,-133,-186,
-32,138,-50,-182,
85,106,12,173,
-129,5,-261,114,
-8,-75,58,150,
459,302,513,77,
-10,89,204,-3,
89,-141,-196,39,
-130,87,167,66,
-36,-24,200,-80,
84,217,548,162,
-62,21,-108,-90,
222,13,51,29,
-35,268,115,97,
-119,88,360,-175,
251,-20,-44,-118,
-190,-41,95,-27,
-344,179,-108,-78,
27,306,-172,14,
110,-80,-377,-270,
-146,68,165,-66,
75,48,137,-20,
-58,-210,-214,51,
0,-94,215,54,
-259,284,113,-62,
-90,177,-272,-287,
-11,154,-265,9,
-104,183,133,118,
-157,-46,-169,-86,
-105,13,-128,107,
-42,160,-113,-154,
373,145,276,-211,
-133,99,-18,-10,
237,250,-42,-128,
-90,38,-14,306,
-68,-269,285,-85,
-38,23,-300,169,
155,137,57,-29,
-62,39,-76,65,
-1,57,-159,267,
81,123,26,179,
-118,-47,36,95,
-68,102,-52,63,
-7,119,-73,-107,
92,-56,-77,-25,
-138,56,223,-43,
22,-40,17,-48,
-38,-39,-6,0,
25,-31,29,196,
-104,55,25,96,
15,-31,52,23,
-157,-4,-237,6,
141,60,-129,97,
37,-47,-130,167,
23,14,114,-140,
-91,-20,-92,17,
-74,203,-216,-300,
162,-17,167,-225,
3,-91,-14,-65,
167,44,-15,-204,
-113,56,96,166,
-10,53,-99,-337,
-6,43,-104,-42,
-98,35,-268,-209,
-58,-66,16,49,
-47,72,47,-168,
-145,131,-59,32,
159,-31,-267,-100,
-210,47,168,-87,
-17,103,-18,-107,
-6,53,-188,18,
60,-20,-79,33,
96,162,193,28,
-172,-40,-94,-82,
7,8,163,158,
-126,-52,-24,21,
18,146,-42,171,
145,17,-5,53,
243,95,65,81,
110,70,43,41,
-103,-64,-42,-82,
63,-67,-118,-66,
312,-25,-16,59,
151,13,-87,121,
-239,-43,-109,187,
-3,-257,47,-199,
-87,88,-136,62,
19,-244,-107,-218,
426,73,197,-373,
-65,4,-75,38,
-18,50,-184,47,
85,186,-14,-35,
169,48,-75,-346,
-52,108,31,-28,
-2,29,-91,135,
71,52,-323,-180,
171,-107,51,80,
143,8,-63,102,
-29,-33,-115,-106,
-314,-36,52,-226,
-19,92,-237,143,
-115,142,57,-61,
165,195,222,99,
-116,132,-61,45,
-68,-18,24,-33,
-111,-5,48,-43,
10,19,-33,-74,
-18,-8,58,-69,
53,-75,68,-19,
19,100,14,-113,
94,140,4,62,
138,188,-110,-14,
-35,103,-58,-93,
-7,-46,-4,59,
-1,-58,-28,-50,
-64,-49,-32,-66,
3,104,60,31,
26,-119,47,50,
4,-79,14,93,
49,89,-47,26,
-19,62,-67,97,
-86,-107,-118,-86,
53,26,40,-38,
-96,-14,102,-118,
43,-97,26,-26,
73,109,-26,-3,
-73,107,165,14,
97,-37,99,-15,
-157,-88,13,145,
28,77,67,-59,
1,-86,56,58,
4,-100,-46,-125,
152,67,80,-120,
110,21,-107,-68,
92,83,60,-156,
1,14,11,38,
96,52,-45,-40,
-50,-68,-85,-51,
172,-88,45,-89,
111,-95,-122,-80,
-86,-4,-82,87,
78,-8,-62,-49,
-110,-147,-128,-114,
140,37,105,187,
-143,-124,-3,-56,
59,119,-77,91,
52,48,17,-78,
52,-6,35,-29,
-56,22,55,14,
-42,24,-93,-61,
-49,-57,43,36,
-3,-22,64,2,
0,-30,-56,43,
13,25,93,80,
-58,42,118,42,
-40,-44,83,-68,
-86,60,5,12,
-43,18,57,109,
94,6,258,-82,
-23,23,62,-156,
-163,174,167,200,
126,-103,129,-160,
37,37,99,62,
38,13,-18,-113,
35,220,123,104,
-103,-25,132,3,
-93,213,301,86,
-146,-48,-11,119,
57,-93,33,8,
-59,-62,49,86,
-59,29,-159,-52,
106,-151,-152,138,
141,20,21,45,
-79,75,-17,-100,
-180,40,-56,127,
89,159,-181,-4,
-285,16,-76,-141,
16,62,-10,75,
-65,-256,-423,49,
-228,-25,80,247,
-54,-17,-49,256,
-4,-106,53,-25,
-84,-11,-2,-58,
-8,-31,100,-85,
-81,-16,37,-15,
139,-124,211,83,
65,121,258,77,
-115,39,67,-26,
-121,5,-78,61,
92,-49,188,-43,
32,-121,220,-202,
-220,18,-66,-45,
-158,104,-105,99,
-6,-17,24,-82,
153,108,177,91,
22,-20,-149,40,
66,-182,-170,-181,
167,-31,84,15,
98,-181,49,129,
-80,11,-20,-37,
171,-5,-91,-283,
50,20,-12,144,
234,-87,-170,-37,
-40,-277,-163,-166,
128,100,-17,-45,
109,-18,-40,-9,
-125,-166,-63,-34,
212,-137,370,-79,
16,-81,21,21,
291,-104,105,-167,
92,83,72,-70,
55,17,30,118,
0,64,-84,8,
13,18,-70,-14,
53,-103,-70,-61,
-18,-69,-54,-14,
-69,79,-42,19,
49,176,-50,-116,
-296,84,-146,-239,
-53,129,-47,117,
97,1,-146,42,
-39,44,202,-61,
202,-17,214,-233,
211,48,201,26,
-247,8,-78,125,
27,-90,30,80,
-64,76,-54,-6,
-152,128,-121,-48,
-9,-56,-182,-171,
-21,105,88,65,
-157,176,-81,93,
4,21,1,-52,
53,64,22,-42,
10,31,40,58,
150,123,33,-64,
-157,18,-86,28,
59,-188,-83,-7,
29,35,49,-110,
72,-40,1,-22,
197,129,-217,-103,
50,103,-48,-73,
46,-144,-94,-26,
37,27,-1,38,
-30,-78,190,-44,
-79,151,-29,-96,
106,24,104,-22,
13,85,109,-127,
0,52,22,-77,
81,-15,10,59,
-63,-75,149,6,
-38,8,-32,-86,
31,78,-50,55,
-22,46,43,42,
140,-32,-74,-109,
-54,47,-119,14,
-90,142,-152,-54,
127,33,105,70,
-92,-39,39,37,
22,-58,26,2,
106,-8,-118,-43,
153,19,148,-46,
16,25,133,-37,
-171,-63,2,131,
103,32,-84,-40,
87,40,-51,-129,
-83,-63,-31,45,
-88,-22,-37,-49,
2,-40,-27,32,
98,70,-13,114,
55,-7,31,-10,
-72,-15,-183,-78,
3,-46,-9,-155,
-24,-27,26,-79,
100,40,-32,-20,
77,20,-45,-37,
7,31,68,-18,
153,-31,100,-27,
32,-59,-2,-78,
42,-27,-28,-81,
1,7,63,24,
-83,-46,143,232,
-29,-25,-37,35,
-172,130,-254,14,
-19,78,73,3,
58,-159,-162,-15,
-8,28,-137,31,
34,-27,-266,11,
47,-14,92,-28,
-94,17,152,-116,
63,-61,77,37,
-14,147,-138,-61,
179,116,62,5,
160,-106,-35,-93,
55,-25,-68,44,
60,-41,73,13,
-63,119,81,-183,
73,61,12,150,
235,-115,99,-8,
-48,-51,-98,50,
-27,110,3,-60,
-133,-31,5,7,
140,-26,-86,132,
-50,-7,-79,-24,
-83,195,71,32,
43,36,34,-67,
66,-84,-125,-16,
-50,-85,33,75,
77,-46,-1,14,
23,76,6,-97,
142,48,68,3,
51,121,-111,-33,
72,64,99,33,
51,-40,18,-126,
31,-3,61,72,
19,216,17,-28,
-33,-7,-8,-127,
77,132,99,-120,
30,14,29,-194,
-82,-6,24,-86,
-62,-23,45,35,
-88,37,169,-45,
52,-28,50,-35,
-30,167,34,27,
-79,-27,29,54,
-16,-75,60,17,
-2,-13,102,-69,
58,-13,-10,-3,
-73,10,105,14,
86,-178,-36,-76,
51,-59,20,82,
-28,95,-166,-257,
51,-15,-82,140,
-1,4,-9,25,
63,131,50,46,
33,92,6,128,
-57,94,14,9,
-49,8,7,83,
-7,-111,3,157,
-41,37,48,121,
7,84,79,155,
85,80,258,77,
40,14,46,82,
33,-53,-35,-84,
19,-21,112,61,
95,-64,-137,-62,
107,35,-64,47,
149,178,26,2,
178,148,236,65,
-2,55,85,41,
141,105,67,96,
-154,29,102,-97,
-15,-54,-30,-44,
11,215,153,-120,
20,-7,-17,58,
73,-29,60,-131,
100,-65,-22,-38,
-33,42,-96,79,
145,-13,10,135,
58,-37,113,21,
356,-104,-97,-90,
29,109,29,91,
167,11,-90,-81,
23,-83,7,4,
23,46,85,98,
15,-49,-21,109,
136,121,41,42,
-107,-69,-11,23,
118,-34,93,45,
105,31,-120,198,
245,-13,-48,132,
118,-89,-66,-116,
-78,-163,-46,-175,
237,76,71,-162,
70,97,3,-20,
216,159,41,193,
21,-27,-54,98,
113,-80,102,95,
-51,-40,-62,-29,
157,53,-24,-34,
-197,13,-104,-52,
249,2,-166,156,
93,-145,146,-61,
-43,30,10,-47,
-228,232,172,18,
86,-88,22,21,
-243,31,88,102,
-86,-87,22,56,
132,-38,-3,76,
-40,60,57,61,
189,124,-37,189,
-41,114,94,48,
-67,-219,-80,-217,
-122,63,-28,142,
13,-85,-12,49,
-114,-43,-16,155,
88,-103,42,122,
-54,6,84,-1,
-126,245,114,-41,
8,-76,-88,-34,
6,-135,46,30,
173,-8,23,55,
47,-27,-58,-224,
-66,-36,78,-241,
189,-107,97,40,
-23,-36,6,132,
-14,93,-88,10,
12,48,84,90,
-118,72,143,173,
144,-44,164,300,
-39,-58,-2,16,
251,-121,-72,14,
-26,195,-152,-4,
169,-50,-74,26,
-15,21,-116,-75,
-2,-78,-43,75,
18,149,200,-23,
62,169,114,-193,
179,76,-75,306,
54,47,-85,-145,
90,54,145,54,
138,28,-126,-35,
-201,-83,-96,63,
70,-18,20,108,
170,-46,32,-101,
46,-62,14,-23,
183,-203,-187,191,
-21,25,-49,39,
294,45,-51,-135,
79,-66,53,-44,
39,29,-109,15,
-60,-25,-54,-39,
39,35,45,-27,
231,24,-101,45,
179,7,13,-13,
-85,-96,41,-61,
103,-6,159,7,
-125,-14,-44,-20,
-42,19,-24,-1,
64,219,51,-88,
-90,-91,8,16,
41,16,-58,-103,
-15,-58,98,-63,
-80,54,10,34,
21,3,161,-162,
52,-8,10,31,
349,-59,-63,138,
-13,2,0,-49,
49,-41,21,-84,
-35,50,87,-11,
358,35,-23,-142,
-84,-29,-9,-37,
28,-14,58,-98,
-230,36,76,-57,
71,-22,-55,34,
-35,-46,-181,297,
-139,-48,-2,-32,
22,27,0,62,
116,-32,-66,104,
54,94,27,20,
53,-160,-41,108,
57,-91,51,75,
6,32,11,73,
23,-8,-100,-51,
-13,-52,-91,159,
223,-47,-3,-76,
-65,-39,16,-13,
-350,-34,-102,-55,
61,48,-30,-64,
13,-37,102,110,
64,22,-155,44,
-116,10,32,-80,
160,-252,258,-20,
124,-216,-157,220,
-79,39,-38,16,
218,76,21,92,
72,109,115,-149,
-110,74,63,110,
-51,59,-30,-16,
-78,20,93,-28,
52,-38,171,72,
128,303,56,-19,
57,21,-6,-68,
5,-15,141,-52,
122,87,-86,12,
-9,-41,77,-37,
-15,-54,-23,42,
-89,133,76,186,
-20,-86,52,50,
30,146,-118,-130,
-92,39,147,-20,
7,93,-27,12,
7,1,-44,6,
-32,-110,-96,-94,
-83,-179,-64,-58,
48,-107,183,-18,
-32,-72,30,344,
211,-70,-56,7,
35,28,-86,-122,
-123,-89,128,28,
-133,6,-15,-192,
5,90,13,19,
-37,-40,-6,-132,
167,12,-284,149,
-253,39,12,28,
23,128,53,114,
92,-97,-70,-65,
-81,-140,-90,86,
-71,33,-175,-86,
226,-313,-3,-134,
21,-136,-17,114,
-138,69,66,-5,
-10,173,28,-25,
-48,-5,127,-192,
149,54,96,-66,
166,-135,-194,-308,
165,-143,15,73,
-64,65,-116,-49,
112,3,-62,28,
-5,242,-19,73,
-45,26,-146,47,
-14,-241,-99,98,
-6,-25,-53,65,
-17,352,299,77,
-101,-44,48,32,
-235,-71,-15,-192,
111,-73,111,44,
79,-249,10,95,
47,-44,101,55,
-11,11,-154,-71,
104,-147,-140,-76,
82,-125,-122,73,
94,32,12,22,
-116,90,138,-116,
-59,-16,20,-68,
16,93,-44,-203,
29,-59,-57,135,
-32,-72,46,-17,
-28,4,-284,-31,
12,245,145,43,
17,-65,-44,103,
-137,77,136,106,
-122,155,-100,7,
-121,120,-141,232,
56,40,33,-53,
-135,-5,80,-23,
48,-8,-53,25,
-146,-14,221,-64,
-7,48,-111,-65,
-79,2,12,67,
-393,135,-300,-124,
-107,91,-58,101,
-97,-420,-358,-213,
-235,-92,-123,73,
99,-142,-69,282,
-98,-99,-49,-21,
-105,-516,106,353,
-6,-123,-101,-148,
15,-307,-23,212,
23,227,-62,-4,
379,587,-130,3,
-147,-18,-4,-139,
-59,97,-74,-8,
-163,-75,21,22,
-106,-127,142,262,
69,14,61,-75,
7,-17,9,-254,
-15,98,-178,-17,
-415,240,116,188,
25,-26,24,-186,
193,29,8,-176,
83,-162,-78,-56,
-2,-306,238,-6,
144,-100,-153,250,
-299,-124,308,373,
-230,34,-55,87,
74,-180,52,16,
109,-183,186,10,
-108,110,38,388,
-37,119,249,-40,
-100,-202,-92,137,
-230,-35,203,29,
89,111,-151,150,
40,-237,-129,154,
52,-172,129,-192,
-95,-108,-90,100,
46,-187,-117,93,
-129,181,246,407,
-180,-22,-34,49,
21,-159,52,-370,
104,82,-25,7,
125,-126,13,-45,
-17,394,156,-37,
-358,50,5,-215,
-187,214,-121,-148,
39,23,172,-396,
-173,79,-359,24,
-164,-174,152,32,
162,35,14,34,
-273,-20,38,-105,
188,-67,-231,112,
23,205,-55,74,
-149,-213,50,12,
48,-114,6,-123,
-76,-189,116,125,
179,-89,16,48,
-125,33,-122,-158,
-174,-149,-241,-20,
74,39,-125,187,
22,26,-72,-23,
-383,353,-399,-149,
-20,-199,81,115,
-75,-283,-137,191,
-125,160,16,57,
-102,72,-170,123,
-63,-39,-107,128,
139,-67,92,57,
85,-108,20,86,
88,-7,132,181,
100,-58,19,58,
93,21,33,8,
75,38,-2,37,
-90,-132,27,-16,
-137,-61,30,3,
-88,142,-56,154,
149,-103,-106,7,
-135,-25,-132,-32,
-111,-155,5,-31,
243,178,-13,-71,
-125,-46,-124,-124,
-101,-4,44,-44,
145,13,-125,-58,
-189,-157,-28,26,
147,-9,-29,-191,
30,1,-21,42,
147,-106,44,40,
-41,133,315,-111,
72,-50,131,-86,
121,13,100,-159,
-78,-64,-48,51,
-233,-44,-71,-16,
-125,49,102,-33,
140,-59,358,-212,
5,-57,-90,53,
97,-264,-97,17,
-156,53,12,-189,
-8,88,-263,-71,
98,0,-91,31,
128,-42,178,-26,
76,7,17,144,
122,21,-32,-8,
-37,269,129,12,
-36,-168,163,26,
-69,-105,72,1,
48,39,-80,94,
22,6,85,-194,
180,70,-4,92,
-187,-5,35,-83,
20,-126,172,210,
-51,-204,-59,-46,
38,32,-77,-27,
182,136,-127,61,
-176,-120,27,-25,
-56,-44,42,60,
-146,105,-291,316,
-114,-92,-453,-102,
-11,-106,-85,53,
143,-71,67,85,
-71,58,-121,1,
-92,28,-195,-177,
-186,-25,70,-71,
210,45,92,-107,
94,-119,-35,98,
229,-7,99,14,
13,56,5,19,
85,-155,30,28,
-257,-191,-80,70,
-16,6,-9,25,
-13,27,-157,23,
-44,42,-19,20,
-118,-21,172,36,
-59,103,-26,-5,
-55,95,-25,37,
-18,24,68,76,
-78,81,-113,16,
20,157,51,31,
-116,-153,81,32,
-148,118,-252,40,
5,-28,-3,-67,
17,1,-26,65,
4,-52,32,19,
-208,-90,-80,72,
-63,9,-7,97,
57,-4,-27,-62,
-211,-114,-53,18,
-96,23,-205,-35,
-9,-49,17,-56,
-37,-62,-23,-68,
-36,-81,-4,-108,
60,-95,33,220,
118,54,5,37,
-50,160,-35,-6,
-65,17,-4,-10,
22,86,48,33,
-74,72,-24,51,
-70,119,26,247,
47,-34,23,-16,
125,45,-34,-24,
-120,71,60,-25,
170,31,-168,213,
-136,-5,-14,23,
10,148,21,-31,
-68,-61,13,47,
10,95,-142,-15,
-2,137,90,112,
83,31,169,-60,
45,80,33,57,
-50,45,73,-87,
21,72,-86,96,
123,6,-58,-6,
-53,-52,-27,-49,
22,6,186,158,
-112,-60,20,-13,
22,-9,-13,28,
85,102,105,5,
36,-26,100,67,
28,40,-29,18,
-10,-74,-107,-21,
9,-32,74,51,
104,33,-95,-135,
-53,-101,-39,-72,
-58,87,93,-104,
108,85,-29,48,
67,151,-90,-49,
20,-16,-31,38,
61,103,42,105,
-22,180,-50,-40,
109,-117,-18,-88,
-36,80,-74,52,
-67,17,71,-70,
29,27,15,-54,
43,-17,67,-38,
4,-95,-27,53,
-69,138,-224,17,
-75,-124,182,137,
119,-121,148,58,
42,-24,0,-17,
75,62,-41,-177,
-5,-24,60,13,
166,74,-13,-119,
-7,26,58,-160,
16,-14,65,38,
137,164,268,-312,
82,-61,-62,-30,
49,119,16,61,
168,-128,36,-64,
192,114,145,-70,
-210,-13,83,-67,
6,56,-88,-60,
-43,131,-35,134,
-97,-57,63,-17,
-131,24,14,-109,
-80,-53,75,8,
-72,-5,139,-29,
33,5,47,-16,
213,-49,43,19,
36,-57,162,20,
32,65,-5,165,
-63,79,-372,-9,
254,-47,268,-115,
25,89,73,-119,
33,24,19,-250,
61,-36,3,-74,
111,-28,230,-91,
-78,-31,73,-17,
3,-15,-96,165,
-52,53,-17,-90,
97,225,-58,98,
-62,11,-57,138,
54,-64,60,101,
19,-168,106,-131,
-43,-2,-1,59,
-3,95,15,38,
80,128,-39,-123,
-15,199,117,-48,
192,113,-141,43,
88,-38,106,94,
3,-53,-30,37,
-48,20,98,-68,
39,231,12,301,
99,-133,63,-62,
246,-2,111,108,
-41,78,135,158,
-42,-131,-54,-11,
-137,32,0,-52,
-92,-143,-26,-174,
41,-171,74,87,
-112,120,-24,196,
-32,-58,-4,-7,
-6,220,102,17,
101,79,144,71,
-47,26,11,-227,
-138,22,-27,73,
27,183,68,47,
-210,118,79,-111,
-41,97,-22,-77,
32,72,250,93,
101,85,97,176,
29,-46,89,-190,
-27,-17,30,-30,
62,39,-8,88,
-31,82,-74,-22,
88,-17,200,-30,
143,-7,-38,1,
-35,-111,40,40,
-54,35,10,58,
-109,-50,-9,-59,
91,-16,67,197,
38,-23,-135,48,
36,20,67,29,
-152,109,73,-227,
-117,32,31,-196,
-71,38,47,-17,
146,43,19,75,
27,156,-73,107,
-154,-59,-120,-33,
104,-47,-105,34,
-21,-38,-24,-43,
32,30,94,-86,
-45,9,-35,116,
43,54,120,-63,
10,31,120,114,
40,-9,-191,-205,
87,24,36,2,
39,-45,9,68,
7,-17,145,-96,
34,3,87,172,
-85,-94,-156,166,
56,42,93,-53,
112,135,131,12,
20,-67,-19,-86,
86,-72,-71,2,
-4,74,-37,69,
-22,-4,117,51,
17,48,-12,90,
-95,-107,18,-87,
52,-6,-44,63,
117,-57,121,-157,
228,18,-28,-88,
-118,-147,-40,-45,
106,-48,42,80,
95,-35,5,81,
62,-56,3,-90,
85,-48,-34,87,
21,57,-41,63,
-22,29,-26,-12,
-85,-22,-34,87,
-82,-14,43,173,
68,87,-53,30,
-43,-215,99,-67,
-33,30,58,29,
-234,162,6,-6,
47,11,-140,-94,
83,-54,95,13,
94,31,69,16,
96,139,-14,-114,
-93,45,56,39,
-108,-15,-104,-98,
-174,-146,49,-113,
-127,9,-5,-179,
-157,-129,-23,-59,
-84,-53,23,15,
-18,112,-146,-291,
69,-106,94,17,
-147,-182,113,110,
10,-22,20,1,
-96,-34,-63,58,
129,44,14,13,
-133,52,14,88,
-3,-63,170,-73,
93,-1,-96,-31,
-28,-225,-96,77,
-96,19,-178,-108,
45,-31,161,56,
-192,4,-49,-44,
-30,-93,43,109,
-126,41,-61,-80,
271,115,-89,-142,
-87,75,-2,-14,
-65,-41,20,-26,
41,-56,10,-14,
-110,106,-78,-201,
-13,27,-63,-107,
65,-8,-46,152,
36,87,51,-93,
-74,6,22,-71,
121,-90,35,85,
-27,-43,-66,77,
-22,56,-37,-32,
-41,-43,-117,-141,
-27,-41,-57,96,
5,80,70,8,
117,-41,-90,-47,
-11,38,83,147,
-111,63,-4,-65,
29,44,-19,-43,
-34,135,-62,0,
107,3,-16,55,
-22,47,39,5,
-28,50,26,73,
11,10,74,23,
125,78,13,23,
-26,-10,-55,-24,
30,54,34,3,
7,6,-32,-111,
211,186,55,113,
26,-41,-139,-41,
-116,-179,-115,-204,
-79,-31,-66,-67,
-19,107,71,12,
-5,-125,118,-131,
52,178,-99,-3,
62,-16,38,29,
-93,-34,-186,-49,
15,20,60,-76,
67,-27,-5,74,
-125,-106,-119,137,
17,-27,-55,45,
80,-1,-31,36,
138,-74,77,-14,
53,-43,2,-6,
30,52,-10,-64,
40,-35,60,143,
-52,-48,-103,-53,
142,-123,61,68,
10,-118,46,57,
-2,-17,159,-109,
123,-81,-2,7,
-89,-177,26,-2,
-33,59,-1,6,
64,-3,74,-72,
21,75,37,27,
-50,171,-3,27,
-35,-115,53,-93,
-10,21,31,222,
169,67,-250,122,
67,-135,-79,24,
62,113,-49,60,
-163,79,25,10,
-60,-79,45,-18,
12,-83,11,-77,
9,37,116,-118,
285,-61,101,-136,
-13,-193,-99,154,
-90,-71,18,35,
50,-52,3,267,
16,32,97,-150,
-27,134,27,-83,
124,-187,277,194,
-44,-58,-171,-129,
33,-170,58,-5,
-154,107,-73,-39,
208,-33,-104,-46,
-153,-193,25,45,
-45,-113,66,47,
48,203,-56,250,
120,5,3,45,
261,-1,268,81,
28,-36,-68,87,
-69,-56,-76,-163,
-22,85,44,19,
-129,14,145,16,
-22,-82,20,144,
47,146,-108,-87,
55,-7,-12,-114,
91,-143,-5,11,
-65,45,-1,-2,
1,-41,-101,45,
-72,-35,-89,120,
147,-93,-12,-117,
-139,127,115,-46,
67,148,37,73,
108,-98,47,21,
-121,-43,158,-138,
59,-171,-58,19,
-22,-109,-88,-81,
-15,80,59,-40,
-105,-264,49,80,
135,-50,234,178,
-9,73,-37,9,
26,-228,36,29,
-51,59,-18,42,
407,-122,44,125,
136,127,200,76,
22,-29,-35,11,
95,10,-13,-18,
-77,202,-19,52,
27,-64,-57,-3,
-22,-141,-14,-87,
-91,-62,88,22,
20,-5,11,23,
20,-116,-50,157,
11,-35,81,-22,
-46,-8,-8,-69,
209,14,210,57,
-91,14,1,38,
-37,42,-7,24,
42,-26,87,61,
21,57,-135,47,
154,127,-21,-22,
37,-3,-58,-30,
-7,-20,48,-57,
-20,-73,71,-83,
-7,-92,-76,-104,
72,-122,-22,-49,
44,-21,128,120,
-56,101,54,-11,
193,-20,-106,144,
132,-16,24,42,
-26,-135,18,-63,
114,155,236,-32,
35,30,35,-10,
231,137,-79,-151,
24,40,-24,-75,
-55,56,77,7,
49,-59,-19,39,
-210,-229,165,98,
-77,20,10,-53,
3,-9,-43,-102,
-81,85,-5,-11,
24,-64,40,73,
46,45,86,-20,
-98,-49,-43,-76,
-55,-63,1,22,
-35,89,-4,3,
-96,56,-25,59,
-41,-70,30,17,
-33,-53,69,6,
-141,-37,83,-15,
110,-65,159,-52,
66,12,-129,118,
-142,130,13,56,
33,14,-34,-55,
205,-104,-19,-12,
-38,38,3,-82,
-198,-121,161,12,
123,71,-54,-86,
-121,-173,-5,-15,
159,-169,150,-15,
71,-26,-56,181,
15,58,-95,27,
-95,-127,48,-172,
-75,17,5,33,
75,5,-76,-17,
1,5,-30,39,
121,-6,-33,-51,
-35,29,-39,-47,
130,174,89,146,
-12,36,39,-65,
-119,94,-65,-13,
-101,-18,91,-101,
-26,-92,36,-43,
-99,86,115,-238,
-21,-37,41,-67,
99,-70,74,263,
145,-178,-21,-35,
-126,-36,-67,88,
50,197,-81,-16,
-68,-155,24,-118,
-34,-55,-138,154,
-109,98,22,79,
-17,47,226,180,
97,146,84,101,
26,133,42,25,
-142,11,-38,-7,
25,23,-57,134,
-133,56,55,2,
39,48,78,-75,
-69,87,80,-125,
180,27,-94,-160,
-83,93,-4,170,
14,79,-17,2,
-32,21,24,-35,
159,242,-198,173,
67,4,84,-95,
-216,-94,-34,11,
217,184,82,21,
124,-274,2,76,
42,-46,57,-2,
-3,-92,155,149,
72,-10,141,-45,
-198,107,-102,-83,
-19,-109,16,31,
-24,91,27,-188,
115,26,25,-18,
-58,9,35,-174,
-45,-67,49,71,
-37,-16,-22,339,
-33,9,-78,-13,
78,-138,-110,88,
-4,7,-14,-35,
-62,144,-15,160,
48,-30,92,-42,
-102,76,-42,30,
-13,-98,153,-107,
7,-40,66,135,
39,137,130,-43,
42,40,7,89,
-72,-91,-144,75,
49,-160,119,111,
-2,-85,-25,-87,
-41,2,88,-10,
-68,-77,8,-96,
-84,61,-11,-152,
-246,-277,23,241,
-97,-22,-23,-49,
-195,-50,16,-13,
2,-238,-72,-74,
-249,-41,-119,27,
-5,-127,41,-57,
131,-48,54,-153,
-146,-58,23,-102,
27,115,-45,-67,
12,-115,-201,-11,
-61,-60,25,-34,
-81,-2,-53,39,
-17,10,152,15,
63,6,-5,-6,
186,-76,-75,296,
-111,119,-52,235,
-51,88,-203,-175,
42,-289,24,50,
-58,-392,-9,18,
153,183,-223,86,
-102,80,-80,138,
-200,-86,60,146,
209,369,112,-354,
66,-32,-165,-43,
192,267,-235,-125,
17,-96,-195,-2,
119,-77,-107,51,
41,-111,99,62,
-122,118,-6,60,
110,49,-6,-96,
284,209,31,-284,
49,-219,-155,-59,
-54,-186,-75,1,
84,137,355,-120,
19,199,88,231,
236,-122,-174,-56,
44,-216,1,266,
-36,14,-18,-129,
-280,-493,158,37,
341,-177,362,-415,
26,251,-111,248,
29,44,-50,108,
33,-132,15,-80,
219,-46,112,-108,
-180,59,84,202,
-136,-265,13,-52,
6,-71,-47,-25,
-151,-37,-246,73,
25,15,26,122,
-244,-72,-75,96,
12,124,187,-253,
-228,354,-11,-110,
201,-54,-83,43,
-113,15,96,101,
-279,6,163,-129,
-152,283,-95,17,
-240,147,98,214,
139,-297,53,-9,
39,11,-4,80,
-7,-89,375,-171,
-14,-73,-4,106,
-192,-179,-3,-205,
185,154,58,-120,
-43,-140,-130,-151,
272,-93,324,-240,
-364,-308,196,7,
-27,-8,-39,35,
147,-165,-35,-199,
201,237,-331,-150,
-9,-158,49,-5,
-39,116,152,114,
-30,11,30,-117,
0,214,229,-95,
-107,-280,-309,-39,
-340,-38,-12,215,
-190,-57,26,35,
22,2,41,72,
-45,-145,-35,-1,
137,78,86,64,
-120,244,114,221,
15,76,-28,83,
32,64,-128,-20,
159,-24,144,97,
10,24,-91,41,
0,99,44,10,
12,-10,82,-100,
31,312,-153,94,
112,94,-7,33,
241,-45,229,-117,
-136,64,-86,-73,
322,-110,-273,-268,
80,-19,-94,-22,
-78,-42,-105,-44,
55,-107,-107,11,
36,-81,35,65,
11,-98,-30,403,
192,-24,30,143,
189,-23,-131,75,
-89,-189,-43,-31,
-47,83,17,75,
101,51,145,60,
182,-249,84,-62,
264,-208,-27,91,
28,55,38,-57,
36,222,-84,-232,
82,67,104,182,
103,79,0,-124,
-160,19,2,97,
207,-115,-7,-50,
252,21,9,-194,
158,91,-104,-43,
83,0,56,171,
104,162,-37,-222,
-90,-11,-46,-39,
-52,-205,50,-28,
135,-26,-1,191,
154,-127,-6,53,
64,1,173,93,
-111,-96,177,215,
0,-83,323,-142,
110,-77,-42,-24,
2,-61,-57,2,
-3,8,4,-153,
-211,-56,-175,-30,
-64,-23,-212,-99,
-36,-28,-44,40,
220,46,-75,89,
-212,-166,248,251,
20,114,13,46,
-66,-59,98,42,
43,89,-13,-44,
-18,-62,74,17,
-34,34,-18,-106,
288,1,11,-199,
305,28,-61,41,
31,92,35,53,
156,86,114,-84,
73,39,-202,-1,
32,18,-136,162,
-58,-104,-19,-96,
-106,141,-14,5,
-140,-38,16,190,
-165,3,53,52,
81,28,-57,-28,
-3,-27,-95,34,
-5,48,38,85,
61,149,90,-3,
9,-119,7,58,
-173,27,72,-52,
2,86,188,59,
-164,187,55,39,
-133,89,-27,-154,
-49,31,31,88,
104,-10,46,111,
13,58,161,-87,
-115,-24,83,-1,
-113,75,-32,-7,
37,-152,87,-248,
3,-55,32,97,
4,74,11,7,
31,-111,76,52,
-47,176,-49,-19,
-28,28,-8,2,
-121,-99,-132,170,
117,30,-24,9,
-165,-74,59,-101,
-111,-213,-1,88,
-51,-115,320,163,
-79,-5,88,60,
-53,98,28,37,
52,27,-128,-77,
23,63,199,106,
53,-1,22,43,
35,-2,-30,-27,
-79,48,-63,22,
96,25,-73,37,
-78,89,-53,-76,
88,40,-128,-22,
14,4,-10,20,
-10,6,-88,95,
-9,-11,151,15,
2,73,-76,-46,
-152,-54,-53,-214,
-144,-49,-96,-155,
5,-66,-19,117,
-11,81,34,59,
48,105,-28,-114,
50,-8,14,-122,
-43,29,-28,-53,
63,-57,9,115,
-47,-31,100,-4,
-22,86,-14,-28,
-128,147,56,53,
55,-19,-40,214,
-68,116,-54,35,
-1,-45,25,-74,
-56,35,22,-182,
-176,-172,1,-33,
-18,75,-23,-68,
-169,4,33,-23,
80,-69,-35,7,
-67,250,-22,-82,
-90,29,-29,12,
-193,88,51,-53,
16,292,17,11,
32,-27,27,7,
101,11,49,-65,
-88,11,-58,150,
-36,-123,0,60,
133,-56,-2,-105,
-34,85,-28,114,
-11,-5,212,81,
-93,-64,19,113,
51,154,-42,161,
-125,-14,-223,-36,
-57,45,18,127,
-7,-14,50,-220,
-9,-82,-165,-126,
4,71,-14,-83,
-129,85,-36,-66,
64,45,-97,-81,
219,25,10,-11,
52,195,-108,-8,
15,107,83,123,
-24,124,114,-1,
-3,230,35,-192,
65,121,-49,118,
17,244,-6,-45,
150,-86,-66,-124,
-53,-3,-2,-48,
133,25,-8,-85,
-70,229,54,-215,
-82,31,48,-124,
77,118,-142,-122,
-32,-19,56,-90,
40,2,-181,-7,
74,-108,-61,-179,
-34,-39,-104,-180,
-6,63,-118,-61,
180,-195,-11,-162,
52,-178,5,6,
-140,11,-25,77,
68,-31,-49,-46,
107,83,-16,8,
17,80,-26,-6,
-19,24,-80,-75,
-157,89,169,-155,
-63,36,-11,109,
164,-81,-124,-56,
-83,134,131,49,
-75,215,-18,-174,
-109,186,-197,-20,
-30,-70,-57,-27,
0,-20,-34,-5,
-39,-124,45,-103,
18,49,110,-66,
31,53,-57,47,
-318,-103,-50,131,
-84,83,70,64,
-59,44,174,187,
20,141,-109,5,
-163,88,-20,57,
223,52,-128,-57,
-106,-55,-9,-56,
21,93,141,-32,
-30,98,-116,-71,
-38,130,-72,69,
-35,145,16,-136,
110,115,-10,2,
281,36,55,-14,
8,106,47,-61,
2,-47,14,-46,
-67,2,43,-41,
-30,76,-82,92,
6,81,-62,-107,
243,71,34,11,
51,-11,43,-7,
35,59,78,92,
104,-51,-123,-27,
78,-47,47,-169,
62,-77,11,21,
-38,-1,-139,178,
10,-1,-147,-231,
23,-163,-156,-50,
-104,-48,-93,-58,
35,-126,-47,-24,
110,3,-24,-66,
-64,70,-17,-42,
343,92,-27,120,
-1,22,-26,-64,
46,101,-97,-189,
-51,3,-167,-28,
-42,80,82,-84,
176,33,-11,-47,
-81,122,49,-23,
87,88,20,35,
44,54,2,18,
-62,242,41,-78,
53,-8,57,-82,
-20,135,-188,-46,
-75,50,20,-5,
-40,4,-11,-168,
18,75,-51,-92,
-92,0,137,204,
-14,-28,-15,-18,
56,-25,-32,123,
200,-42,-5,61,
-58,-22,87,137,
-130,14,97,-17,
93,90,-32,-70,
221,47,1,-28,
167,176,-97,68,
7,71,-47,-49,
16,47,-6,10,
-12,34,-55,-55,
148,89,-13,-27,
111,176,-177,-125,
75,0,113,-123,
-3,127,-27,-76,
35,-38,3,-38,
27,51,-25,90,
-94,78,26,-34,
-40,6,-44,-86,
-81,-114,-86,-104,
80,1,-116,-81,
186,58,34,-76,
149,126,28,-77,
5,-10,-56,62,
-12,61,-55,48,
134,131,-17,39,
-193,149,-1,31,
-200,-41,-56,55,
-33,-42,-32,-45,
85,40,19,-35,
61,243,29,4,
-45,33,-126,-81,
-123,46,-139,156,
41,21,-58,-51,
-65,-27,142,61,
-47,-24,97,51,
124,24,-9,100,
-84,-32,-114,-92,
-93,-25,61,-138,
-83,-129,-146,15,
9,-50,89,-55,
-14,95,3,12,
8,-51,-7,-57,
-8,33,-17,36,
-55,-156,38,31,
133,-72,-28,-140,
-95,11,2,106,
6,-40,117,-86,
15,29,-27,-31,
-33,84,9,-124,
81,27,53,89,
-76,226,-114,-70,
-141,3,-31,-2,
-10,33,-29,-89,
-76,-61,-89,-127,
-114,129,-93,-97,
0,71,170,-112,
26,66,-74,137,
6,73,-119,-69,
3,-6,-52,172,
164,-103,-78,-82,
-32,-38,-136,-77,
-52,-101,-27,52,
-54,-14,116,-163,
-27,-70,25,-142,
-110,175,-135,67,
-20,-112,8,-17,
-37,-35,-63,68,
25,-68,-140,-60,
103,185,-18,19,
-75,87,34,-157,
97,-3,47,18,
-54,-187,-43,102,
0,-83,42,-63,
18,1,-67,79,
-13,104,61,95,
66,45,-24,16,
25,-73,34,4,
-93,-111,18,131,
-24,-31,178,-142,
3,80,-88,75,
-36,172,138,44,
38,-59,-233,-87,
-3,80,-63,8,
-103,-74,42,74,
-25,26,-45,-88,
23,-33,50,36,
-70,160,-25,99,
-75,93,97,-25,
-31,-16,-20,-81,
-52,49,-53,3,
-4,39,63,16,
-92,-72,-24,-299,
5,4,97,-39,
56,-18,309,176,
152,-51,195,-37,
-25,153,-5,-7,
35,8,57,-61,
-28,18,11,125,
-110,-91,-61,73,
95,111,-52,114,
41,8,22,-60,
-37,0,-47,-80,
-24,-141,221,124,
-61,82,94,4,
-81,102,-59,65,
-13,83,150,-41,
-185,39,83,67,
-69,65,259,-44,
31,23,183,213,
70,-123,116,18,
-150,34,15,-78,
59,11,31,99,
2,-23,65,136,
-96,-74,-103,163,
61,-62,190,93,
-146,64,69,-27,
-65,23,28,-46,
-137,-1,-45,-11,
0,33,-43,-154,
125,-137,-290,258,
4,4,-7,-1,
-17,-23,-42,193,
-184,192,-201,39,
48,145,86,-82,
197,25,26,-265,
-72,235,81,138,
75,-119,34,82,
-64,18,3,57,
-123,55,-164,67,
-57,-72,115,-87,
-119,-8,-126,-57,
26,161,-134,19,
118,-38,-100,-54,
-90,-56,179,-77,
-173,-172,-123,15,
206,-49,-19,44,
346,-117,168,-370,
-4,-107,130,52,
47,58,-95,-124,
-80,21,-224,-15,
-125,-92,31,-3,
-209,-116,-198,-16,
111,123,175,-98,
-2,-69,30,50,
-136,52,-82,-314,
-85,214,-27,175,
-34,5,44,-8,
28,-13,50,-194,
-28,-113,-52,45,
-86,-13,-291,122,
181,150,-44,212,
139,-114,148,-86,
-49,35,-60,68,
46,-1,79,62,
-63,123,48,92,
66,-184,2,-39,
36,42,39,-3,
110,53,178,-93,
-21,50,112,-21,
170,32,146,33,
-32,-9,-41,-47,
147,61,35,144,
-11,-9,-53,-9,
55,7,-49,-30,
-109,39,-90,48,
17,-41,130,53,
-32,-63,205,6,
79,114,-21,42,
34,10,-65,22,
171,88,54,77,
-14,62,25,70,
-126,-49,23,31,
-81,27,-52,62,
-11,-69,-19,30,
-77,118,115,-77,
-72,87,-28,9,
39,97,-60,125,
-31,-35,84,16,
-17,34,-33,-27,
77,-155,141,116,
-61,106,-51,-132,
-25,-19,-105,-171,
-42,-15,39,81,
-37,-103,-223,72,
17,75,-39,-17,
93,38,-72,24,
-106,55,-169,9,
118,-2,-17,0,
244,95,16,95,
-8,-283,167,49,
-63,-38,-13,-86,
91,1,-13,-46,
55,97,-131,27,
56,-40,-74,-62,
-31,-11,-32,-11,
-20,-7,-20,-4,
116,-24,-73,-205,
-66,89,-45,-78,
-21,-142,45,86,
-30,-51,5,1,
-34,-90,6,187,
-28,41,70,-21,
125,161,-43,47,
-67,76,30,124,
245,-87,-138,-39,
180,242,-85,-429,
136,-210,5,-34,
-54,18,-30,46,
-94,159,87,-79,
108,50,102,-1,
-26,82,-73,59,
29,1,-33,-21,
-8,36,-36,-29,
142,-119,100,31,
38,245,-153,95,
87,-63,75,-132,
13,27,83,-115,
218,-80,-24,64,
-5,18,3,-44,
-78,-160,87,86,
55,55,53,38,
-254,157,-145,154,
-31,15,-2,112,
155,-60,21,44,
-53,113,56,-59,
-11,-162,-41,209,
-147,-3,13,-139,
79,-7,-101,103,
90,-156,132,43,
-302,276,-116,136,
59,-108,-49,-174,
3,104,27,121,
99,-117,-19,88,
-84,-57,128,75,
-155,-70,33,-23,
-115,169,-19,35,
68,50,4,-175,
-138,-143,50,-20,
-44,146,-30,-77,
-31,90,59,53,
3,279,-85,-135,
-114,165,11,-37,
-35,214,-133,-146,
33,-8,-26,-41,
46,45,-137,-62,
-22,-140,-26,48,
-261,45,-267,218,
-86,117,24,257,
-109,147,38,-50,
-24,-181,-68,178,
-30,-50,75,42,
116,-112,-21,-22,
124,-75,47,219,
-22,122,-75,63,
3,-28,-141,-243,
-21,-2,-50,-20,
82,86,-195,160,
-51,-184,140,137,
86,-28,-336,-70,
-26,-88,-90,117,
70,-126,56,216,
-18,-95,49,-83,
-1,-12,-182,-193,
228,216,-290,-77,
53,-41,123,-53,
181,-21,-80,-101,
194,187,96,-160,
-87,0,-65,-23,
113,4,32,-122,
50,2,-86,-11,
6,-27,233,-131,
-407,-88,-370,240,
18,3,56,31,
-31,75,36,39,
104,-187,124,59,
12,-129,-91,-403,
-74,-12,-276,-71,
-16,90,14,123,
-123,-158,1,-88,
-29,-237,-79,75,
-142,95,154,-16,
-69,-65,0,170,
-130,-86,-59,-71,
50,-55,233,14,
228,-47,96,-147,
-103,-203,349,2,
-9,82,29,28,
245,37,97,251,
-300,94,-20,-91,
-126,210,-153,175,
1,61,-326,-186,
92,114,-56,-187,
170,16,-296,264,
51,-156,106,-408,
65,136,274,-218,
358,-220,-100,-1,
-28,101,54,150,
-128,44,235,49,
0,280,153,-252,
-320,161,76,17,
101,39,49,221,
134,-65,104,20,
-101,-22,45,-191,
141,237,23,10,
-249,-93,230,68,
-41,-58,43,128,
-197,-159,97,173,
164,-178,-353,328,
213,184,-27,-68,
11,8,201,-158,
272,181,75,13,
336,87,483,-273,
-295,-125,139,44,
124,-119,28,-110,
-180,25,-161,46,
268,-151,-173,53,
200,91,-147,106,
35,-11,-154,-300,
266,-117,-32,99,
106,-23,27,-27,
-116,122,71,118,
-87,-59,-229,-99,
127,-44,-190,-189,
-69,64,25,-103,
390,199,-193,150,
-351,-412,-114,-250,
244,260,-51,-4,
-183,-302,-109,-171,
-95,-378,17,-264,
62,29,103,284,
-116,358,-9,366,
249,10,-239,-88,
-164,44,-164,-139,
22,-122,-106,-70,
1,-219,27,224,
118,212,209,231,
-194,-182,42,-20,
-2,-184,-113,-6,
145,147,-119,-245,
31,167,-124,-122,
189,273,43,-139,
45,-117,-349,-465,
-75,-32,-103,-71,
660,0,248,-33,
-142,-52,44,-282,
13,-71,-68,-155,
-104,10,175,-204,
141,-3,-24,103,
86,91,-33,-16,
-160,-37,89,47,
-86,130,-226,139,
29,-3,186,-117,
52,-94,111,-42,
199,98,-238,-227,
-101,111,44,76,
37,-119,42,70,
48,-4,78,-68,
-158,-364,56,117,
170,-98,-66,-108,
-4,-19,257,24,
-51,-43,53,-65,
220,169,128,-164,
-44,70,-16,18,
-149,192,82,-73,
-50,-73,43,-65,
-78,-14,206,182,
109,165,123,126,
77,-8,-135,12,
101,-35,-66,-104,
68,-89,-206,31,
34,23,-55,-23,
40,105,-28,63,
39,-32,47,-33,
-59,83,-53,237,
50,23,-13,67,
117,105,-379,-276,
95,65,155,38,
64,22,-48,-55,
-246,114,-129,-37,
48,-41,130,57,
53,97,162,159,
-11,-63,211,-39,
83,48,-98,-99,
125,184,0,-55,
-47,25,-51,62,
95,7,17,-22,
31,112,39,-44,
5,-6,-44,211,
188,124,4,212,
43,292,162,50,
68,65,-159,10,
-42,12,61,-29,
41,85,57,173,
-12,25,105,80,
-97,179,61,-99,
-136,194,-36,59,
27,-34,-171,117,
-54,131,95,98,
-63,41,-170,-100,
19,-10,80,5,
32,54,-153,82,
-143,18,14,24,
-109,-97,-139,96,
-117,-38,94,-18,
-77,50,171,50,
136,-115,57,224,
2,8,-120,-11,
0,-210,114,8,
-24,9,-181,39,
-280,71,-24,297,
-51,-30,56,-173,
86,95,-1,-16,
76,123,-163,-5,
-7,-50,10,89,
80,0,-8,28,
25,-30,1,-139,
63,28,-22,75,
-58,22,-87,90,
99,106,33,121,
59,39,-9,16,
25,-58,45,-69,
75,-147,10,168,
-13,-205,-98,-127,
-9,84,41,-46,
66,-30,87,104,
55,55,20,111,
-3,-140,-39,-3,
-1,-70,53,32,
-54,-34,129,54,
31,23,60,-97,
28,11,-55,-65,
103,-15,-75,37,
-9,38,21,58,
-15,-13,-35,99,
161,-53,-25,-58,
52,-82,127,189,
-126,-161,-141,102,
-146,-106,-26,100,
-65,-19,-180,-13,
46,-31,17,-56,
-160,230,-152,-26,
55,-125,49,-3,
159,-70,136,284,
115,-7,9,46,
-61,18,-96,61,
-54,77,67,-68,
64,44,87,1,
4,13,-3,-52,
127,-25,91,57,
-24,-83,86,60,
108,127,69,-12,
-31,62,-123,127,
156,15,131,84,
-54,-131,-2,-116,
-69,-248,-1,22,
-60,-27,27,7,
-19,-30,23,-94,
-55,-19,82,67,
35,92,-66,106,
-3,67,10,-51,
3,-19,47,33,
-37,-15,-16,-52,
1,27,104,-80,
-36,46,-16,122,
-95,5,64,79,
-42,-53,27,46,
-149,40,-14,105,
-17,-204,86,-58,
-29,-73,-143,154,
-48,-25,-66,58,
67,-20,17,-11,
22,-99,-136,4,
-27,-86,-62,-63,
47,-95,65,-69,
-83,-50,37,-99,
57,-162,-11,26,
15,127,-129,40,
-145,-46,121,219,
60,116,38,108,
161,-5,-4,82,
31,42,151,54,
81,122,30,22,
-172,148,-35,24,
34,-107,-93,20,
101,-35,-140,117,
113,-209,53,-96,
-162,-68,102,-107,
-99,108,-73,25,
210,-81,-14,-231,
-44,139,25,87,
-130,-93,132,34,
78,-26,82,6,
-124,54,-96,265,
-32,-104,59,14,
12,-210,-69,51,
-70,175,19,-55,
1,-185,65,-43,
1,-1,150,193,
-64,14,121,203,
-4,-122,130,283,
55,-51,197,-98,
-6,-44,95,-126,
-89,-65,-160,-58,
51,-72,120,-5,
78,50,110,147,
116,-55,-16,-77,
102,75,-174,55,
61,75,-130,109,
-33,-20,129,66,
7,-57,-5,-28,
117,72,89,160,
41,-50,96,108,
-113,37,115,14,
113,-76,12,-49,
-35,43,-5,-40,
-33,1,25,6,
164,-30,-27,74,
-180,192,177,-22,
-18,-137,-97,-75,
117,-220,140,-34,
-29,-62,51,-86,
-85,-103,219,5,
-324,37,112,280,
63,94,112,85,
55,-71,36,39,
66,-75,16,1,
33,69,-142,-225,
-21,116,-12,38,
-84,-294,31,35,
7,-15,5,-38,
-2,118,66,163,
-34,45,17,-47,
156,184,-117,-61,
-13,-96,132,119,
75,-116,99,-150,
154,-60,-115,8,
-40,-27,75,41,
-9,9,109,-72,
-66,81,-72,-21,
14,-88,87,22,
17,14,33,118,
-34,31,-11,13,
62,43,-71,-9,
66,30,-1,-36,
-61,-29,-17,-7,
75,-53,-135,-237,
-51,85,-29,-14,
10,-34,-4,44,
-20,35,-10,75,
-34,-41,183,91,
10,-107,112,-106,
-3,-23,-23,0,
35,-10,-94,-19,
9,302,126,-68,
107,26,-33,10,
24,-9,28,-83,
-42,-130,-44,-52,
29,-228,95,-137,
18,-63,-61,82,
-42,7,75,97,
-37,68,-24,-32,
-84,-113,-24,-100,
-96,-30,-36,-57,
7,-47,36,25,
41,113,33,96,
42,41,-92,-30,
-3,-28,83,126,
47,-180,5,144,
39,40,-67,-87,
219,23,-8,105,
-106,-241,-30,164,
45,-87,113,42,
108,-57,34,105,
-52,-18,-8,-16,
90,102,-97,64,
53,-18,51,15,
8,-63,-118,-16,
62,-16,72,-23,
8,46,-28,-101,
23,-106,-105,62,
33,30,-140,-30,
-34,220,-267,-19,
83,4,18,-114,
-6,-83,38,-17,
5,33,-109,-15,
-20,-56,-2,-31,
-17,59,81,-28,
-39,62,259,4,
48,26,154,-22,
-76,-71,-114,-3,
-50,-112,-140,-111,
-115,31,86,27,
0,257,-71,-70,
-16,-9,118,12,
-120,-11,-21,109,
-21,-203,31,-94,
146,-57,125,86,
23,-52,-69,-34,
21,-82,-13,35,
-53,-69,-45,-22,
-20,82,-136,110,
126,-58,-142,-75,
35,53,90,13,
213,-65,68,169,
96,-107,-32,-112,
8,93,174,-109,
-16,100,87,-52,
229,-128,-85,-209,
32,29,50,-62,
-52,38,105,-11,
-14,-52,-78,-3,
-26,7,131,-14,
67,-36,167,-29,
56,168,-69,24,
29,-79,186,-44,
148,5,207,46,
-74,64,-102,-23,
107,-31,62,-66,
33,-10,-23,10,
-5,-25,25,30,
-155,7,-157,24,
31,109,-18,74,
92,-23,44,32,
-92,-29,77,22,
122,-168,-68,-21,
3,35,53,0,
78,-58,-172,-20,
130,-142,39,-138,
72,-33,-48,16,
-68,-63,-215,25,
66,42,-36,51,
78,0,-42,58,
-6,-105,-6,-105,
-137,-13,-61,-56,
71,-19,127,151,
-73,-30,83,-136,
14,12,-6,71,
18,11,9,-70,
97,125,-45,-122,
36,44,-36,-24,
-167,238,89,48,
61,-34,-78,36,
-89,-47,-80,70,
-131,-86,-50,47,
-34,128,-121,47,
130,9,58,41,
-130,-57,40,114,
-32,-3,-132,-44,
-163,-29,-132,52,
-20,-112,-62,7,
45,-72,157,-61,
-43,-9,102,-37,
40,-116,16,56,
2,34,-41,-33,
12,-28,-18,-29,
45,91,-168,-169,
-25,-55,-76,85,
18,-52,27,-40,
-17,-14,-22,-101,
29,76,-91,-55,
6,3,48,-127,
-26,140,44,44,
-181,2,66,-25,
-35,228,88,-97,
22,-50,16,120,
-30,144,-12,-87,
-77,-24,50,-34,
40,136,-205,83,
-60,-63,148,-99,
-37,154,-54,-100,
-24,-57,32,-23,
139,256,52,-99,
58,-8,2,10,
-23,99,61,-9,
-27,-135,-71,-12,
8,-178,-176,-178,
-19,16,117,-13,
-18,-98,208,-215,
-57,-399,-55,-162,
150,-109,-7,-205,
1,23,-54,-17,
52,8,-119,-19,
90,45,-46,32,
-14,19,127,165,
-26,96,57,149,
-42,56,199,5,
11,-66,-182,82,
-37,-38,-133,106,
61,22,-163,28,
2,15,-10,-38,
106,131,-135,-23,
-108,-333,-167,7,
66,81,8,-39,
-17,134,-242,-83,
67,240,-65,37,
-66,-164,38,-9,
41,-92,153,-54,
-46,-26,-106,-40,
-136,108,110,-54,
44,-23,-57,-29,
-96,275,-46,118,
0,-113,-24,-182,
124,104,-188,3,
126,39,-29,67,
-2,95,73,-7,
103,-83,25,29,
-152,-125,140,-28,
-86,-51,7,-38,
217,194,-221,85,
55,3,-16,22,
139,-204,-80,-112,
-25,-218,38,111,
156,-59,-318,20,
93,-42,22,-42,
-9,-105,-133,-10,
106,115,-41,-121,
-83,-8,-70,-49,
35,-68,-58,56,
-16,-136,17,24,
-66,21,66,-73,
98,49,52,-182,
6,-106,-263,-69,
3,61,-62,6,
62,183,12,-150,
29,108,-19,45,
-144,-101,-45,13,
-219,-58,155,12,
133,-3,50,14,
-49,95,-20,24,
31,5,87,-108,
-65,-17,122,-70,
137,13,-8,1,
63,-21,98,-136,
64,85,109,-112,
-90,-16,-3,-2,
69,113,-12,61,
-54,19,12,89,
-31,175,-62,-50,
-142,-131,8,-37,
131,87,16,-46,
-118,0,-30,6,
5,-33,180,-88,
-98,-284,-26,-209,
127,-23,59,-58,
-45,2,-54,21,
40,81,0,-99,
103,-6,-142,-25,
6,-16,26,111,
78,-149,164,15,
75,-46,-139,-37,
-52,-39,21,25,
131,58,12,-47,
48,150,-117,61,
25,15,-69,-73,
11,-28,-56,-57,
15,-202,170,52,
40,-5,-46,63,
-45,6,115,-93,
-8,93,-40,20,
-97,52,-13,-6,
30,-17,81,-75,
-22,-3,2,-92,
-22,32,-6,-126,
15,88,63,-12,
-19,159,29,76,
-22,-45,21,-100,
57,109,-20,-155,
-51,-20,-48,49,
-17,-71,80,161,
-8,-36,-88,59,
12,69,139,-122,
9,-36,55,-125,
-15,49,68,144,
-1,-45,5,-117,
-35,-84,-219,-42,
-149,29,37,105,
176,-39,52,32,
52,-86,-8,-44,
142,21,93,136,
29,92,97,-86,
0,-17,-32,41,
-119,-147,223,71,
13,2,-9,148,
-14,-51,-93,14,
120,-135,128,75,
-116,-54,-80,15,
34,51,72,0,
23,-121,-124,16,
-66,-217,95,72,
15,-15,-80,-131,
-215,-8,137,89,
30,71,24,1,
2,1,-3,73,
94,152,-82,37,
45,92,182,-60,
27,-76,133,-22,
0,-38,-82,-23,
99,-41,279,-159,
86,22,-40,-44,
-97,13,64,-67,
6,-11,52,22,
129,-77,115,-119,
-149,-82,114,46,
-35,-94,161,-30,
160,-55,-109,-55,
30,26,33,44,
82,23,-104,-183,
-50,134,121,-22,
63,-96,-84,-40,
82,-12,-7,-69,
46,43,-29,5,
33,-24,46,-120,
-143,114,177,-26,
-153,-43,219,-168,
172,42,-32,155,
0,49,85,3,
-60,-62,65,-11,
-132,102,-68,-129,
2,-314,363,-275,
-99,-92,-64,-79,
51,75,-162,83,
122,98,22,78,
-51,42,184,-63,
115,-88,14,11,
173,-26,27,11,
210,-36,115,-51,
-86,75,-85,-99,
81,-74,-43,-81,
31,8,26,63,
-58,-80,49,1,
165,26,-35,-216,
96,39,3,51,
-353,253,-188,230,
-140,-101,-104,43,
-107,-95,-41,-337,
-123,-10,-42,-84,
67,130,229,10,
136,-106,-66,-17,
42,188,-34,148,
-389,43,156,9,
389,26,-105,23,
-114,-3,30,-162,
-68,66,-66,103,
8,-4,-82,-105,
-18,107,-77,16,
-18,-17,105,51,
71,77,-11,-47,
47,181,169,232,
-45,-45,-70,-45,
60,-23,-41,-46,
4,-53,117,9,
-206,2,103,24,
-130,-75,-10,20,
37,10,46,-27,
183,-36,19,11,
77,-141,334,141,
61,-178,-270,-1,
-33,34,111,-47,
-67,-103,75,-27,
295,93,-167,194,
-12,-59,-18,126,
-138,-328,-124,159,
192,-184,-251,42,
218,-56,47,8,
-81,-179,-244,1,
-202,-270,9,39,
-40,93,30,-135,
120,-34,-33,-177,
197,99,-200,21,
477,56,96,12,
263,116,-28,111,
80,-103,-180,194,
-109,-77,32,-116,
302,124,-29,-12,
-95,-134,59,123,
-189,-204,134,28,
-48,46,209,281,
-22,-335,-16,-247,
101,-22,-22,-51,
-21,145,179,27,
-271,-195,134,55,
-271,-315,-77,-93,
91,-271,150,-76,
-26,-170,31,284,
70,314,18,-176,
244,19,245,303,
-8,10,-394,63,
-55,-127,287,-350,
43,-164,-24,103,
-57,19,274,-195,
-41,-194,34,26,
202,40,-13,2,
-252,165,203,-257,
62,-81,-52,-154,
232,-47,-93,-201,
-73,75,142,10,
-66,89,-91,370,
194,20,44,16,
70,-91,-232,50,
-286,-31,-154,123,
28,307,-9,-220,
-68,-228,222,46,
-177,97,291,41,
-53,48,-191,-329,
-270,4,-46,124,
-180,61,167,-66,
348,-26,304,125,
-153,75,-68,7,
186,-73,143,-237,
38,-118,118,-32,
-49,3,-197,175,
43,-18,-47,99,
40,10,53,-103,
-13,-111,86,-147,
80,-72,214,24,
110,38,217,-84,
90,101,202,-254,
-326,-93,315,-294,
113,176,89,-179,
57,130,78,92,
-141,-206,-2,-31,
-93,-10,202,136,
-96,-34,18,113,
23,66,-128,32,
100,-8,58,-66,
70,-112,-76,-115,
90,-169,-143,-3,
-43,116,-73,76,
22,-68,15,0,
9,48,-30,-63,
27,-114,63,188,
-23,27,47,113,
-38,-143,-84,7,
-14,-51,248,-93,
161,-54,-178,69,
-35,57,29,169,
-70,-6,141,14,
76,55,-51,-8,
-8,70,-20,28,
-94,-7,-29,72,
-124,108,63,-114,
-26,99,45,-4,
-120,-37,-114,-10,
-23,125,-4,-162,
-65,-98,-166,-65,
-68,-38,59,45,
4,-54,-136,-6,
13,-83,185,83,
93,2,-6,42,
127,29,190,244,
-43,-25,32,76,
-131,-139,-240,-255,
-67,-28,40,-167,
143,59,332,-37,
51,64,31,-76,
-43,89,-71,56,
39,-52,21,-4,
154,-14,67,-115,
76,59,-147,-15,
13,14,120,50,
16,18,-61,211,
43,92,71,-97,
-184,-32,189,69,
-80,27,53,-66,
121,-21,-13,-98,
-69,-11,-27,-59,
46,141,-9,117,
140,-24,-18,-37,
64,122,-73,-165,
97,-38,-37,-21,
77,-68,-14,-29,
-114,146,81,-156,
-120,-36,-4,67,
-10,38,353,-22,
-94,126,-266,-411,
43,-87,79,31,
-131,-203,11,5,
-29,-68,-200,-25,
57,47,112,-5,
26,12,8,-108,
240,90,78,-96,
-134,73,124,174,
-145,-215,85,-115,
121,-6,48,110,
117,-84,36,-57,
-73,-129,-345,-150,
-103,-96,182,14,
-7,-29,35,78,
131,53,-72,-19,
-95,-27,-6,56,
5,-114,-136,98,
-19,22,-85,14,
84,13,91,36,
23,-65,-44,108,
-94,83,10,-83,
-17,-74,-109,-26,
207,-86,72,-83,
45,166,134,20,
8,21,-129,-16,
-57,-56,18,-39,
-114,-45,-103,25,
55,13,14,48,
50,29,169,111,
-69,91,93,-82,
-128,107,40,54,
-115,54,3,-2,
55,19,-16,-18,
20,13,-4,-44,
89,-20,9,12,
-40,28,-24,-22,
-60,-127,237,136,
-33,-24,-9,21,
170,118,-119,52,
24,120,3,1,
339,-143,267,-98,
31,-35,1,73,
-2,-76,212,-115,
-246,72,31,-119,
147,52,242,-230,
28,-96,-6,-23,
-48,-7,104,43,
12,6,40,-93,
-199,21,84,-116,
82,18,-57,29,
-287,32,-123,9,
-115,1,-92,-10,
-31,86,176,-42,
-120,-114,145,-28,
10,-13,155,-88,
-171,-25,56,128,
12,-95,-65,-21,
-116,-73,105,15,
38,-41,-29,36,
-4,-28,-29,45,
40,25,-13,28,
-2,-13,25,-45,
30,-15,-25,-36,
-17,-20,-2,-51,
67,-44,-20,10,
43,2,146,203,
28,60,-42,-153,
62,-101,-15,-12,
33,-87,-65,-61,
14,-46,15,69,
213,-122,-145,164,
91,82,-52,-38,
205,101,-43,86,
3,-147,-36,207,
-59,-52,223,7,
-69,22,41,-27,
-90,-207,129,-96,
62,-44,87,48,
-65,-174,-121,-19,
-100,-68,-82,-13,
36,-179,-117,-39,
77,-10,-21,31,
-140,-12,22,-126,
32,-18,392,-5,
-138,113,1,-9,
-185,-66,58,118,
-115,-129,-80,0,
-223,157,182,-297,
-58,76,-18,-83,
-134,-2,-55,55,
289,-40,21,-105,
151,22,-9,17,
175,34,155,6,
220,80,2,59,
-137,265,-5,110,
103,-148,154,-116,
78,79,-81,140,
-74,87,5,57,
-59,51,-17,69,
-154,7,249,-105,
29,16,197,106,
-24,64,15,46,
131,-9,-197,-60,
116,-83,-161,209,
-188,214,227,-46,
-87,-31,62,-16,
31,179,97,22,
87,-33,118,90,
-123,-152,92,-50,
90,14,-96,-21,
-65,-53,95,73,
20,25,19,11,
10,-91,-7,150,
-145,49,-75,72,
-116,-70,148,86,
-94,-152,39,-63,
98,16,-83,14,
-134,-125,83,153,
-74,27,161,-42,
23,-141,238,110,
-53,32,-40,-80,
174,-66,132,29,
87,67,77,57,
120,67,92,-64,
-42,63,180,-99,
-6,116,-56,-111,
8,-71,-34,57,
-78,31,2,-9,
34,-20,94,-21,
-18,100,-5,-3,
-34,-84,349,-121,
-62,32,21,27,
9,-189,114,154,
47,61,98,214,
-168,-10,-81,-162,
-101,79,-3,81,
108,-85,-46,-7,
108,126,30,-47,
98,-168,41,135,
-83,-90,57,123,
-51,-95,193,-1,
-32,-79,28,-59,
-101,-207,43,120,
87,199,-90,-98,
25,-87,-39,15,
36,-8,5,52,
-15,8,-106,-96,
-40,82,-51,-151,
-169,35,-6,-36,
-32,-144,-31,97,
28,-71,113,-9,
-39,-44,150,-27,
67,76,-115,-68,
-198,-87,7,59,
28,10,-93,-57,
89,76,-49,132,
130,-4,80,49,
132,76,-48,4,
-11,44,1,-88,
-3,-82,-90,0,
-31,36,-173,-4,
-185,109,78,-141,
-28,-16,-32,22,
155,-35,-23,18,
144,-113,-50,63,
12,-100,66,-3,
14,79,105,4,
-51,-56,186,32,
-84,73,158,84,
-18,-5,-54,-15,
-29,11,56,-20,
-76,136,-12,-147,
118,-24,73,-214,
58,-27,-85,50,
-150,36,-11,68,
52,-25,81,-87,
-14,-34,43,-130,
-20,15,-82,114,
-78,-32,148,48,
-244,-90,27,95,
-45,13,-50,-92,
-195,62,82,-22,
5,-168,140,35,
-127,-87,103,112,
-33,-124,52,32,
52,3,6,-30,
23,-16,-109,39,
64,7,-31,-47,
24,-134,-84,19,
34,-115,34,131,
-121,-54,-23,-64,
35,57,-34,67,
-131,-145,59,101,
22,-41,80,19,
27,-126,237,125,
-90,-38,-135,48,
-43,-91,43,62,
-23,20,82,-26,
-18,47,-27,-3,
-24,-151,-91,30,
9,126,-26,71,
91,18,35,-98,
-12,2,68,-31,
-116,49,187,-100,
17,162,-83,-213,
-45,-2,-77,-1,
51,21,25,39,
-128,44,-11,-95,
-5,53,-46,-13,
-106,-119,17,-43,
-62,-29,-38,34,
98,-97,-88,-118,
46,54,32,-62,
-36,3,-168,52,
65,-75,-79,143,
-3,-17,-20,-114,
-52,331,-61,106,
-156,112,-17,-139,
34,-9,-56,48,
-9,81,43,138,
5,-76,92,-9,
-92,10,39,-78,
372,-10,-14,-210,
55,-24,-75,38,
-94,43,37,182,
-24,57,41,105,
-62,-12,117,-43,
19,-82,48,73,
-91,-114,-41,-144,
-12,73,8,-74,
99,-37,23,3,
93,-61,-27,20,
4,-11,-50,38,
117,-75,69,21,
26,-139,-119,-19,
-192,-32,130,59,
-47,59,49,-2,
-17,0,38,-1,
-2,-244,-4,27,
26,109,14,44,
42,-109,-56,1,
-59,-125,43,12,
-76,-7,97,2,
-53,23,1,90,
108,41,89,91,
11,-22,42,-2,
35,-86,-83,67,
19,60,79,24,
71,69,-4,28,
3,-125,-2,-42,
141,-47,27,-277,
53,-45,68,-146,
-3,51,17,38,
15,1,20,-15,
-79,15,30,-39,
-52,49,21,-16,
-75,92,152,-70,
-42,193,-30,140,
-114,34,146,-84,
-17,-78,-100,-109,
19,22,-52,-221,
-123,-64,-24,-158,
68,-7,-28,71,
76,64,-83,8,
4,5,-167,-46,
-3,97,-26,-105,
-27,-35,-71,2,
-20,62,-4,9,
-31,6,116,61,
-39,23,-101,-118,
-58,27,51,47,
-131,106,53,51,
-139,-101,77,38,
-23,-212,-9,313,
22,-6,-48,-109,
3,131,55,-128,
-44,84,75,-27,
-63,299,75,23,
-1,4,-39,48,
-21,143,-54,190,
-92,325,123,-25,
-42,0,27,-89,
49,-12,-62,-46,
80,320,-24,52,
-9,-107,17,-237,
110,157,157,-172,
129,15,66,79,
194,-50,-188,-149,
-94,35,-72,-134,
-102,-30,217,-78,
128,296,-154,-42,
26,170,-25,-144,
-153,81,-106,82,
108,195,133,-49,
-28,21,-34,38,
-160,260,-80,69,
-86,30,-25,-32,
174,38,109,36,
48,-4,21,106,
-50,-23,-54,-16,
70,18,-73,-16,
-142,59,4,4,
178,-265,6,31,
-98,-8,-54,-168,
-288,118,203,37,
34,-68,-26,-46,
59,-107,-179,86,
-132,-33,87,149,
-77,76,68,126,
-61,58,-104,-43,
-46,-11,-165,-65,
-55,-57,-91,1,
-96,115,-129,268,
125,-45,17,124,
-162,164,-28,-213,
13,14,-270,-13,
-45,-50,-70,48,
-40,59,56,91,
-34,-69,127,76,
-4,74,7,-153,
-156,-126,110,113,
-2,46,-151,23,
-33,-110,1,77,
-17,208,301,147,
-39,-90,-95,-47,
-164,47,-78,58,
-72,-53,-138,9,
-69,133,20,-44,
62,-2,-24,-157,
-230,124,-127,-25,
-162,2,34,-23,
-137,142,-62,-3,
-6,82,-8,-19,
-91,88,63,-18,
-55,-4,-71,75,
10,123,-203,-40,
-103,-189,-34,21,
-75,204,79,-53,
-62,48,-8,-24,
-32,139,33,90,
53,-82,28,-114,
-83,67,-42,-6,
-6,109,36,2,
108,158,7,-19,
-34,167,82,126,
-76,-57,-38,-51,
61,42,0,-27,
28,186,61,154,
55,64,23,-116,
70,93,52,71,
144,-36,-35,-161,
116,-55,-182,64,
108,116,-110,-72,
19,88,-113,-37,
-68,85,-34,25,
-2,-40,176,50,
48,59,8,27,
-200,-45,59,-51,
-24,-49,45,-16,
-79,-33,-114,-74,
72,39,49,45,
274,104,-68,105,
-3,71,-65,-42,
-227,-4,44,134,
103,-48,-72,-30,
16,143,-74,-110,
131,103,59,137,
18,95,-99,56,
13,-83,5,-54,
-121,-26,47,-29,
-108,66,-86,-28,
71,-3,121,-43,
3,49,4,-51,
63,114,-155,-22,
-30,-59,-73,146,
-1,36,27,51,
-181,172,-29,9,
-80,-43,-60,-33,
322,-96,-24,91,
54,76,136,70,
-11,-6,59,-11,
-58,29,35,40,
-41,-42,-44,13,
-109,227,86,-191,
23,71,46,9,
13,-10,-53,88,
-4,96,50,310,
58,116,-169,115,
80,-85,35,-87,
-15,-23,15,-115,
-103,103,49,211,
-61,-23,-195,-59,
-250,-69,-85,-134,
-48,-10,-113,13,
-30,-60,-33,19,
-20,-34,-46,-49,
62,-34,-5,-14,
-42,-94,-79,5,
214,9,111,22,
89,43,90,-4,
-98,-195,12,-127,
-109,22,35,164,
78,20,16,-143,
144,-159,-29,-137,
87,65,54,-47,
28,-130,-169,96,
-72,-115,-183,-83,
43,17,31,21,
72,15,225,-27,
66,-106,132,-94,
-88,70,-69,-70,
-44,108,159,88,
-156,-121,-94,41,
-81,-45,71,206,
263,-16,-46,-126,
96,77,174,199,
110,-40,70,-45,
-11,24,35,-15,
-35,-195,220,-139,
7,-157,-60,7,
-102,-24,473,-3,
-62,-19,20,-53,
54,-203,-31,54,
27,67,20,-118,
-4,336,-208,187,
-10,198,-2,50,
-253,222,-24,-84,
-104,-61,-34,140,
-214,0,-177,-61,
-91,54,-194,13,
-17,-276,-11,-26,
26,-170,-100,-60,
-7,53,-143,67,
41,-31,-18,-53,
183,-234,-40,57,
-74,-33,38,-55,
-6,-52,57,-155,
-46,98,58,182,
-32,-211,-64,143,
-30,-66,-79,-135,
243,-142,-181,-159,
86,-254,84,-225,
63,-154,42,-38,
-42,-128,112,-25,
-35,-33,-60,-138,
-63,9,-44,-19,
45,-96,-34,56,
44,-1,-34,-68,
25,78,93,-83,
71,65,313,26,
75,59,55,69,
40,-111,25,-28,
133,70,-64,-338,
152,-63,84,-46,
200,56,22,33,
91,71,-129,26,
49,120,62,20,
1,-55,-55,-30,
102,-17,152,64,
16,82,-30,-88,
-243,138,173,-36,
29,222,276,-132,
174,122,100,47,
52,-159,204,20,
-348,-625,56,-222,
-300,-30,210,-32,
-123,-83,145,3,
-73,401,121,236,
71,24,-188,15,
39,137,-154,185,
-47,214,-59,203,
228,-295,-69,222,
-248,26,11,65,
107,2,-153,337,
-317,-46,162,-11,
-168,-176,-338,-79,
142,250,186,-104,
-150,-12,-75,-151,
134,-74,208,89,
-201,-174,38,-157,
-170,46,107,-150,
75,-42,-109,109,
198,360,-105,-35,
-317,56,-49,256,
-377,173,-2,7,
-169,-228,262,231,
-188,-227,-368,178,
108,-176,-51,15,
-293,281,187,-44,
329,26,-87,-250,
278,213,112,-36,
-493,-53,-80,187,
110,149,-108,102,
15,40,-215,-196,
75,-15,75,207,
-240,-103,-11,-172,
-340,41,17,-89,
70,55,-54,77,
136,-67,-373,-81,
38,-99,-69,37,
124,-59,-31,276,
264,249,83,-111,
34,-54,211,149,
192,315,118,347,
-280,166,-130,-402,
-7,101,-41,-14,
188,14,-129,55,
-188,2,119,72,
55,120,11,-149,
29,25,19,116,
203,-312,-93,-132,
-67,6,-106,-17,
-187,-188,-137,-190,
-37,-17,-38,40,
-95,-44,13,149,
-224,61,10,249,
62,-105,357,-286,
78,-39,-164,-149,
-64,62,-38,13,
244,239,473,-20,
-95,93,89,26,
-158,171,107,187,
-289,-80,-11,-250,
-96,-163,-92,286,
143,94,124,-92,
30,110,42,73,
256,291,-152,62,
-106,138,-120,-36,
201,98,-73,39,
-16,114,-2,151,
70,-75,-90,-26,
113,29,61,85,
-62,-14,38,-122,
-48,78,189,-59,
55,-23,6,56,
238,68,69,208,
69,-68,164,-242,
122,56,199,-29,
50,1,-44,-95,
-39,-259,42,114,
109,-70,-14,98,
-43,-32,25,77,
169,-26,1,-8,
48,-31,126,123,
84,63,85,30,
138,255,206,415,
71,86,123,105,
1,-168,166,249,
-118,-153,-116,12,
63,-60,58,29,
-4,191,-4,-24,
-38,-49,196,-23,
139,-79,-57,27,
-168,-47,243,-77,
-115,47,-151,114,
-36,113,-60,-37,
48,-104,35,172,
-11,137,11,11,
90,97,90,-8,
-108,-121,50,170,
121,-46,151,-201,
-208,-28,110,0,
277,-43,39,-44,
25,-45,191,-95,
12,-37,-176,-16,
114,-172,156,-32,
-63,124,80,55,
-3,18,-102,76,
-202,206,183,-290,
-108,73,-22,33,
-30,-33,-19,14,
23,-9,14,1,
-211,169,30,26,
-91,116,-26,28,
-45,25,-69,12,
-133,135,-63,-226,
256,-3,-130,161,
-11,48,-30,73,
57,66,72,281,
50,45,-9,-15,
-12,-41,11,-54,
-98,14,50,71,
-217,87,-18,96,
-19,30,-47,24,
-17,-51,29,-68,
43,-66,-84,58,
-14,11,16,10,
16,-78,198,28,
-80,34,47,-18,
-43,33,-35,-46,
142,181,91,70,
21,-106,-16,80,
-71,-160,-26,-109,
-42,-87,-16,36,
59,58,22,-100,
47,-58,-70,-30,
-103,-57,25,-54,
-1,60,25,47,
-194,-64,-46,-270,
43,-17,41,-52,
83,123,-49,-23,
22,-34,20,35,
38,35,-46,-100,
101,67,8,22,
15,-57,-35,-112,
83,-3,-3,0,
204,22,-134,92,
102,117,-4,17,
31,-29,-3,-33,
-61,-8,-81,87,
-70,-67,0,-17,
-6,-100,32,63,
-182,-45,24,-184,
70,-79,-42,-26,
78,-79,-121,20,
125,-175,-177,-30,
189,145,-172,-199,
57,-80,-43,-140,
32,-243,104,2,
-2,5,-8,71,
-301,-72,-173,-275,
78,67,-19,41,
15,-6,-160,-27,
81,13,18,-27,
67,88,83,37,
116,-104,-19,-80,
-64,-99,166,-37,
-126,-9,-72,-45,
-8,44,-48,44,
-44,56,-1,-7,
-146,-20,-238,63,
-24,251,195,0,
-28,226,2,190,
99,39,97,165,
37,126,42,-90,
-25,-69,72,55,
-49,-50,-34,229,
6,89,-15,36,
-60,-24,35,-55,
72,-118,-31,8,
-76,55,34,-58,
-210,152,-77,82,
148,47,23,-86,
-36,-130,-34,38,
-22,30,-152,-6,
-27,99,-45,-131,
3,-86,51,51,
-49,-32,-49,-102,
107,17,40,2,
118,-68,-151,24,
-19,-90,-115,134,
-93,-64,125,-45,
-55,-43,122,-14,
-15,-90,-114,-71,
233,161,-7,55,
-14,158,41,175,
49,5,-117,113,
-40,32,-99,18,
-24,-26,68,147,
-5,-87,34,15,
24,-4,-18,-8,
-94,5,-58,73,
-83,157,-72,-265,
7,139,11,134,
9,45,71,106,
-155,83,45,60,
-44,-155,169,-158,
43,35,-91,-33,
205,-79,-53,95,
-164,-95,4,-86,
48,55,164,-59,
-9,41,135,139,
3,-92,-6,111,
185,-8,83,163,
-157,-78,1,27,
-143,-142,-90,69,
-191,36,-136,-246,
87,23,-17,122,
282,-29,173,19,
-247,87,68,-271,
149,169,219,9,
-39,-3,155,11,
-147,110,131,278,
-9,24,-44,145,
-161,-66,67,29,
37,-183,-53,-128,
-25,12,44,19,
3,-25,-40,-64,
9,155,59,153,
45,62,-198,-156,
184,-3,-35,64,
-211,-28,-15,-70,
35,83,-120,-47,
50,-9,-49,-18,
-132,-17,-116,-208,
170,124,50,308,
121,3,192,-85,
32,-135,-92,-238,
117,-37,27,8,
-161,-151,75,90,
-62,-80,159,272,
0,31,-101,-35,
30,92,-12,187,
-41,13,35,-23,
77,50,-6,28,
-202,-103,80,137,
-251,-191,-73,42,
-51,-44,-16,80,
129,110,-121,-239,
188,-5,-101,101,
74,-27,201,-37,
6,-39,-233,124,
185,-104,-35,92,
141,-124,-73,-10,
120,-148,-128,96,
-277,-68,-43,126,
-49,-81,201,134,
25,-3,-78,109,
161,126,46,166,
-66,18,9,138,
29,51,111,-36,
64,41,-109,39,
-55,-11,38,-28,
12,40,-76,-3,
105,10,-64,-7,
28,-70,70,41,
43,-39,15,-14,
-87,124,-221,340,
82,46,160,-143,
-26,46,18,-110,
-65,-39,-64,-101,
31,-245,62,-41,
54,-16,9,129,
-67,-113,-6,60,
47,-7,69,-128,
-154,-60,12,-27,
-14,-65,100,-75,
-56,190,111,-161,
65,3,-87,-57,
-136,-219,-116,16,
-38,-38,-55,-42,
-25,35,-49,-234,
70,-138,-82,-47,
109,91,101,-28,
76,-18,-144,-36,
14,34,-64,-176,
83,11,-32,44,
96,67,76,19,
-211,0,24,12,
-59,-35,-31,-49,
150,-8,-44,89,
4,-34,-134,24,
107,190,40,-87,
-11,69,-150,-152,
-40,127,-15,-5,
38,59,-80,105,
1,98,-2,-134,
83,-72,42,-89,
-11,-72,-38,-48,
-166,246,31,-48,
-41,-10,-106,55,
26,-90,-101,53,
39,-6,-1,2,
-1,26,6,-32,
-89,-209,-56,53,
79,19,37,302,
15,-114,93,50,
24,-10,5,86,
20,202,151,106,
1,18,40,-37,
164,-11,-12,229,
-56,86,23,35,
-160,92,-32,-6,
49,-79,44,0,
44,-5,-35,28,
33,51,-190,2,
-157,58,-127,-27,
-58,-10,-30,-38,
-24,-51,-35,8,
199,63,-120,384,
-125,170,80,148,
88,-22,103,16,
13,-17,79,-85,
23,-224,84,-16,
-16,18,77,-14,
144,111,-53,-114,
29,0,-4,31,
15,-20,28,55,
144,-30,1,37,
114,83,57,-67,
51,140,149,32,
183,-11,42,203,
204,178,80,-123,
-193,-119,105,-12,
-116,80,60,-83,
43,-31,74,-18,
93,-34,-121,38,
-129,-104,106,-146,
-219,-36,-150,-22,
24,31,36,-92,
-56,-107,38,-44,
-103,5,53,16,
28,-115,-189,1,
69,-73,15,-16,
-177,-16,-110,-19,
7,-19,28,22,
16,-35,-109,-94,
-134,54,-52,-30,
96,5,-44,-126,
-72,-178,-137,-116,
-101,-12,-96,94,
-165,27,14,-7,
67,57,-3,33,
-34,-108,29,149,
198,49,-15,61,
-6,11,-11,-2,
42,-99,17,-21,
-49,11,-36,-24,
35,46,-73,15,
69,35,-40,14,
-27,13,-2,-127,
-1,47,127,67,
-5,-103,-82,24,
-56,-89,-105,44,
-11,-110,-144,35,
-157,-124,-63,190,
53,-199,118,-74,
24,-126,-147,49,
-128,2,-51,88,
21,49,24,38,
139,-22,-99,64,
-144,-113,-33,39,
33,155,-1,-77,
-59,-77,-159,-77,
-7,-212,-40,88,
-158,118,145,-60,
177,-61,109,37,
-16,-121,-84,-3,
133,-12,70,99,
-41,-96,47,11,
-102,-7,-61,4,
-15,-160,15,-86,
-53,-67,-106,3,
-91,4,77,74,
-4,75,-15,-21,
-65,150,17,-106,
-12,48,98,-42,
-38,26,-63,-231,
28,-174,-94,-232,
61,160,-93,159,
9,6,19,-108,
-103,54,-114,240,
18,-14,82,-135,
135,73,-25,-186,
-108,133,64,-33,
-189,351,3,-75,
28,29,69,-183,
-135,-30,84,4,
-35,-68,20,-120,
184,-36,-92,-48,
81,16,40,-103,
29,-32,166,-114,
-20,58,-100,-143,
-214,-66,138,-3,
-313,-24,26,194,
-34,41,30,-8,
44,115,-194,79,
41,35,-99,-255,
19,40,-130,-21,
81,309,-50,-27,
94,-18,31,13,
-128,-72,109,63,
50,114,15,63,
74,148,132,79,
58,-43,58,15,
-112,85,-50,19,
138,-210,-23,-46,
-31,-29,-50,99,
-241,-12,-112,251,
142,-169,-121,-66,
64,-135,-46,95,
20,64,39,-166,
255,147,-162,53,
32,34,10,58,
-125,5,48,111,
-1,-135,-15,-3,
-247,122,-150,112,
65,30,58,-76,
49,118,-97,135,
-45,-7,91,-132,
-85,-109,-98,-25,
33,68,-65,-130,
116,-68,190,-97,
122,-18,-59,-47,
-66,50,283,57,
-300,-60,122,233,
-72,-52,-107,-60,
30,175,-67,20,
-84,4,61,133,
-108,200,91,22,
-47,-19,-30,-57,
-155,105,88,-54,
-27,36,-52,7,
-325,-181,-194,-4,
-53,8,61,-12,
26,61,143,-15,
-57,-53,42,14,
69,-24,-143,48,
-54,50,0,-61,
-68,67,134,2,
77,-43,106,-46,
65,83,38,-13,
19,37,-28,74,
-150,54,-210,65,
-62,-18,-66,-30,
43,-65,-213,83,
37,-34,69,-26,
-20,45,-44,31,
-2,19,58,-26,
123,-8,96,-30,
167,-59,37,-158,
-40,-16,-13,146,
46,29,80,-58,
31,-42,59,-44,
-47,22,-100,-23,
37,45,117,-110,
11,-62,19,-41,
-166,-76,-7,-3,
-167,1,-57,27,
20,-55,-32,60,
155,93,-194,-12,
-78,-38,70,-178,
-123,-21,-31,-126,
-44,9,-143,-178,
41,-47,-31,-16,
25,-2,148,3,
46,-42,-13,41,
-151,120,-184,18,
62,-83,-33,79,
-100,-31,18,66,
-86,-82,3,-45,
-53,70,75,-7,
127,27,-126,88,
62,-90,54,-118,
-194,-92,-43,133,
58,62,2,11,
-31,-44,-80,-30,
91,82,26,-79,
-92,-102,11,75,
-30,136,59,110,
-53,29,-4,249,
32,-15,48,60,
-36,132,143,140,
-28,72,-89,98,
18,-231,97,25,
4,-1,17,55,
-92,95,-26,44,
105,82,10,-192,
-73,56,-82,3,
-90,237,101,251,
17,111,-146,46,
8,-81,-23,9,
107,201,55,50,
-8,66,-16,11,
77,-165,-182,-10,
-3,-17,29,54,
-68,85,125,-161,
-43,-40,4,69,
-114,-144,-91,57,
81,99,75,31,
-63,-33,-57,-106,
21,158,10,32,
44,-44,82,-80,
-134,91,-49,111,
94,115,27,-95,
66,259,252,11,
51,-107,-46,19,
-101,56,-206,241,
-51,-75,105,-35,
-179,-94,-17,-212,
-10,39,87,37,
43,-34,-114,-61,
-23,67,188,358,
58,-41,52,-2,
229,-162,-113,-49,
-103,-59,-63,-68,
-135,29,-69,-60,
9,87,-64,-72,
-127,66,-66,-108,
39,127,63,-185,
-33,-112,-13,-88,
28,149,-110,-184,
-80,-71,-21,-72,
-103,15,-4,20,
31,50,-118,-102,
45,17,-63,-9,
146,98,-65,-48,
162,7,29,45,
66,114,-39,51,
135,-69,152,195,
218,107,-61,-146,
-78,17,-146,18,
162,-290,180,-288,
51,-22,44,-72,
-2,-19,236,-78,
196,63,-11,277,
16,63,-108,149,
16,-26,-5,-42,
-13,63,-37,106,
16,-50,-63,-81,
-45,10,-11,117,
-56,-43,-4,35,
143,134,3,91,
-114,116,-12,3,
-135,121,-186,37,
-228,-38,60,100,
-45,-136,84,-46,
-196,7,83,-220,
5,41,76,-11,
75,23,-8,29,
-17,-133,107,-113,
65,-15,-55,-86,
-17,32,31,-69,
109,-95,103,-43,
-130,-106,10,53,
-313,194,-26,-26,
-46,-109,19,251,
75,-12,48,62,
-145,-130,-37,-90,
-103,60,8,-85,
-95,98,-118,132,
-39,7,-4,81,
73,110,102,-71,
213,-106,-13,83,
-38,-111,-125,-92,
80,-91,-58,60,
17,-102,1,49,
-53,222,219,-202,
-6,107,-131,18,
285,311,312,20,
168,130,-312,96,
36,89,172,-414,
-365,15,-216,106,
74,37,40,-94,
-87,-120,-99,113,
268,48,42,-58,
-95,73,33,-58,
-147,-176,250,150,
101,-95,85,-108,
-372,178,-192,-49,
-161,-344,197,-138,
-28,-139,-86,-116,
38,132,332,121,
-9,-33,152,-28,
-174,-20,54,-92,
238,-431,63,561,
-249,196,8,-67,
-186,-20,42,-265,
309,159,470,-77,
294,107,79,162,
107,9,273,-250,
89,-24,-8,17,
-166,-58,-397,154,
-268,-328,180,748,
-201,161,124,160,
-28,-284,-12,272,
-50,-151,-33,-145,
-13,80,124,110,
225,162,-145,-54,
199,151,296,-209,
181,159,-73,-203,
111,-73,168,118,
-98,63,15,-213,
-70,298,-113,38,
157,-63,-107,-58,
-16,-286,-73,-69,
-206,-211,-290,71,
-85,-56,131,-19,
17,467,-429,-1,
375,-112,-46,261,
209,183,130,-414,
48,97,-50,205,
24,-62,-185,34,
-55,-48,163,-19,
-179,-247,85,175,
101,21,53,-74,
-183,-79,-271,247,
165,-87,108,-60,
-113,38,-43,37,
-63,-97,40,-74,
-8,116,126,155,
6,-64,86,-77,
237,108,132,-21,
246,43,-326,309,
163,95,-104,59,
323,52,123,80,
90,-101,-111,-54,
266,-75,368,-310,
267,131,-100,324,
-37,223,-142,-136,
50,-60,227,-110,
-127,115,87,142,
165,41,71,-32,
320,32,100,77,
140,60,-4,-32,
-216,100,-72,-20,
92,-2,14,79,
-81,67,57,132,
-119,19,-69,37,
110,-36,45,-108,
3,153,-9,-10,
-140,-51,177,-12,
111,-17,136,-1,
-90,119,-133,-106,
-33,-79,28,-3,
-236,-225,-253,20,
-1,12,-62,78,
-4,101,134,-96,
-22,9,-102,49,
-144,-60,184,-8,
-203,-18,52,317,
247,-102,6,3,
-79,54,20,-93,
-20,24,206,-88,
-54,52,-208,20,
-48,-97,-10,117,
31,33,67,30,
-78,-181,16,109,
38,-129,0,85,
285,53,5,15,
85,-15,96,39,
-121,61,63,19,
76,7,-120,-109,
-128,76,18,47,
-127,31,-117,-66,
18,-138,7,-138,
-88,-213,-206,30,
-103,-173,-123,-26,
77,34,-75,38,
107,6,171,42,
-101,49,64,190,
156,71,53,-80,
-68,237,-106,-2,
-160,150,107,153,
-112,-29,-37,121,
-25,-97,28,25,
138,-54,7,27,
-2,60,-12,96,
201,109,-115,-43,
255,-345,-174,24,
6,-13,72,28,
291,361,75,-67,
63,318,-129,294,
-47,-7,121,-19,
57,107,-33,273,
-15,63,24,-143,
-123,-23,158,83,
-56,-114,-62,-34,
41,-153,279,-163,
-92,-34,10,73,
-60,18,170,6,
57,-63,111,147,
-3,-66,-73,42,
-168,-164,-94,-191,
44,7,229,3,
-96,48,-30,-47,
181,44,-76,-54,
166,78,-14,64,
-37,-45,-44,59,
84,-18,28,58,
39,30,-4,94,
84,-32,-35,-19,
5,-48,-97,155,
-89,-49,-64,140,
-39,173,14,-72,
-91,-13,2,44,
61,32,-82,82,
-116,5,66,-42,
-69,103,-13,1,
-17,-65,-22,-19,
14,-2,4,-20,
-99,-39,-67,128,
-27,-73,30,106,
37,11,-10,-115,
-79,28,-102,78,
-1,-19,-3,152,
126,-29,-79,78,
59,-45,-40,15,
184,-135,24,77,
31,86,-149,34,
58,87,-60,-65,
-76,77,-137,93,
229,-130,139,58,
-73,18,-68,14,
-73,58,171,188,
-2,3,-21,133,
101,123,243,36,
7,114,-150,26,
25,113,-33,59,
-30,-63,18,9,
-301,-31,-109,114,
-11,-3,31,32,
-28,-129,-119,116,
-127,-64,45,82,
101,-39,81,76,
-118,115,-24,30,
-21,26,15,51,
-4,137,84,199,
-2,18,-194,85,
94,-123,-136,35,
-23,-93,36,23,
-48,-63,-35,44,
-39,-73,-97,48,
-22,37,-4,3,
42,-84,97,-29,
23,-74,86,-34,
12,-6,-61,-34,
-91,26,73,40,
-24,2,28,38,
69,-13,71,-51,
159,-108,91,-54,
-17,-137,1,-115,
-64,140,-149,-30,
-43,58,-11,28,
107,72,67,-66,
68,41,-48,-31,
5,-55,-52,0,
-140,-5,39,155,
-67,-46,92,-75,
-79,2,43,-1,
-92,-42,-126,-50,
62,-25,82,-38,
109,-97,-2,53,
-29,-4,48,43,
-55,-173,-61,32,
-162,29,-87,58,
-27,-119,-25,122,
-57,146,102,24,
-139,185,110,116,
-91,223,-164,-111,
159,173,119,126,
79,89,68,-93,
119,-160,92,-207,
192,39,2,-163,
-89,95,-10,64,
-68,-136,-66,63,
-120,-2,-160,15,
-107,34,-88,-129,
25,26,-67,144,
-46,-123,-45,103,
-181,25,158,-74,
-29,172,104,1,
31,-216,190,-111,
94,-28,-100,-42,
89,120,-232,-92,
-30,113,-95,-209,
-370,-286,-117,274,
-35,4,-34,7,
6,-43,166,13,
-131,47,-6,5,
424,-130,139,-330,
218,-145,-31,131,
-23,-76,86,-46,
-46,-93,31,62,
-168,72,13,-13,
182,55,15,-80,
64,-92,20,120,
-107,-111,-16,-114,
29,-1,-66,-93,
64,-97,-8,47,
81,41,120,-48,
349,302,148,55,
66,-95,9,-105,
-107,-171,2,85,
-58,-134,-26,12,
-258,32,-42,-110,
14,66,-128,172,
74,-224,1,55,
-115,20,34,41,
75,-37,73,-74,
-63,82,55,-77,
-79,6,-31,-138,
8,125,112,202,
28,59,55,-5,
165,-161,31,200,
-93,19,-9,-55,
163,-44,-216,145,
90,-155,-69,86,
-36,198,46,-90,
187,27,93,56,
-1,-140,-11,-30,
82,121,90,-27,
-84,69,80,94,
-43,-10,-6,60,
-60,13,-89,19,
140,-101,-76,51,
-32,-41,-65,214,
-73,74,66,55,
-68,-66,-168,15,
-11,119,-37,-107,
-129,23,-53,128,
-29,46,-52,39,
56,72,60,-73,
-112,305,-6,-60,
89,-107,26,17,
-22,68,174,-20,
37,-18,91,9,
-132,-57,-411,172,
-101,87,-62,-31,
-22,-76,-53,28,
10,-40,103,-115,
-142,52,156,96,
-53,-15,25,-1,
188,-91,45,-38,
38,16,-26,7,
-13,82,71,16,
17,27,12,-98,
-122,61,16,-37,
-116,28,-85,-15,
-102,28,0,91,
44,-87,221,74,
-141,-93,-70,115,
150,-91,-1,-86,
9,161,58,93,
114,-88,36,-40,
-71,-15,39,-9,
-45,5,-146,-25,
-20,-49,-42,88,
153,2,23,103,
-91,67,-6,76,
-42,61,-48,96,
-123,40,38,-99,
-98,-7,45,52,
-53,-31,-12,118,
-98,133,168,41,
-105,66,-77,200,
-11,47,-99,-110,
-10,-23,14,-7,
-37,-17,19,83,
-51,78,-38,5,
178,-81,-33,-101,
-32,-69,-176,-73,
-82,-37,-17,-52,
48,38,-36,-99,
31,-33,85,-19,
-46,-30,-56,-51,
-83,-35,-38,265,
-41,17,-3,-127,
39,-30,182,79,
-86,-3,-29,-2,
-24,-71,49,-97,
-87,-12,29,91,
-44,-20,-26,24,
50,94,23,-73,
-148,38,-69,20,
10,154,57,93,
80,-24,-99,52,
-59,24,-69,-81,
-8,7,4,43,
29,-143,-25,-49,
16,-9,-1,38,
11,33,-133,142,
-39,21,-8,-10,
-234,-34,6,-112,
-20,-40,25,77,
77,-89,10,-141,
-42,49,110,9,
61,-73,-119,69,
22,117,40,110,
-182,70,240,-30,
-82,-40,40,23,
119,-83,-38,7,
-26,-23,-73,-171,
75,63,19,-53,
33,-75,75,-62,
146,-17,-148,-16,
-123,-4,158,-29,
-34,47,105,33,
-33,117,-43,-34,
-44,-5,12,49,
-143,-43,-92,52,
213,1,115,-57,
-72,-46,3,-126,
-147,-117,-119,28,
15,-75,55,112,
53,1,-64,-2,
134,-135,-115,-50,
34,-142,-55,13,
-21,73,-30,-78,
-21,95,-84,-127,
-40,75,-51,10,
43,-4,-90,79,
-217,-71,-86,-40,
-84,-55,-57,63,
-15,76,-23,11,
-99,-30,80,-38,
-187,-90,59,-89,
138,84,50,-16,
-136,-100,131,-92,
-16,30,-15,24,
-70,-10,121,-92,
43,-114,-5,4,
79,-28,62,-136,
-58,73,-39,-109,
71,29,126,43,
-28,-8,-16,-93,
-8,7,-24,-67,
-36,71,45,-4,
11,-21,-46,-21,
33,-40,253,23,
77,-30,-10,57,
188,99,-180,-31,
-9,-51,-26,12,
14,-97,-12,25,
19,89,-40,93,
0,-69,-3,-30,
80,72,5,21,
-40,-8,-13,11,
13,-18,-1,-90,
-104,-41,-58,-60,
48,50,-18,-103,
-32,10,66,-40,
-36,116,-79,52,
73,-82,291,111,
-95,-33,78,87,
-133,202,-69,-342,
24,22,29,-78,
-70,-51,-25,-77,
-75,86,52,33,
153,-39,59,-41,
44,15,37,48,
-161,57,-13,186,
-186,188,-46,36,
75,189,-225,24,
69,-16,169,57,
165,21,29,65,
42,-65,91,-69,
189,64,-150,-211,
126,126,62,5,
-4,-62,-2,87,
-158,98,76,-35,
-154,11,-39,-98,
63,-22,-71,-137,
-28,158,63,-76,
-5,-9,49,-115,
-380,-96,68,128,
25,-55,-26,-78,
68,-19,194,90,
-43,-31,-35,-14,
-38,20,-209,9,
2,-16,-31,-64,
70,-142,-99,10,
130,55,-84,128,
-80,106,-16,-120,
-69,18,193,-115,
2,40,-13,46,
-76,32,66,-15,
-144,-66,-70,-21,
-8,32,12,73,
71,-92,28,-52,
-185,106,-186,75,
-97,52,92,-95,
-160,-64,163,-105,
28,-21,-35,116,
-260,120,-26,7,
128,58,328,55,
-24,-281,221,207,
-23,-8,-45,-57,
78,304,248,7,
53,8,-39,88,
-175,14,-39,116,
-207,140,35,85,
25,-135,-81,236,
6,-62,-53,-104,
-8,175,-68,-19,
-128,170,183,-197,
-30,-133,10,26,
36,56,7,-90,
-40,-149,42,41,
-150,37,-62,-66,
-108,134,56,71,
8,-65,9,-108,
38,36,34,125,
-86,-29,82,83,
15,-8,81,-46,
-91,-13,-149,-60,
104,-75,5,-4,
71,-140,43,-19,
0,-66,-16,4,
-45,-88,228,-142,
16,-43,88,-8,
-70,-189,82,-1,
-41,-7,23,21,
96,47,78,-94,
16,54,-42,-13,
122,-12,-223,28,
38,81,80,160,
-14,45,7,-85,
-7,-17,82,45,
75,14,-131,-63,
16,-21,-86,-9,
-3,16,-51,-82,
-121,-65,15,-90,
28,-21,-85,7,
-40,29,-111,-10,
89,-87,-41,-32,
84,-31,4,-11,
53,15,-95,36,
50,-5,-29,-40,
-16,-2,151,31,
36,-31,51,-97,
-28,-96,-80,96,
-108,25,-70,-34,
31,-29,17,-91,
1,-78,27,-41,
-38,-7,-17,62,
-3,-13,98,122,
0,10,-161,-85,
-229,-28,179,-91,
34,123,-13,15,
-15,-96,-89,0,
-76,5,-40,-49,
104,20,52,15,
134,-78,-57,-28,
-24,-24,-186,-1,
-27,-95,-14,56,
-44,-131,-25,-18,
44,-64,-46,-95,
-44,-91,105,-49,
-14,-104,25,-66,
20,34,-134,-66,
-48,-20,-48,-26,
18,-222,61,84,
92,11,-113,-135,
162,-72,-2,-76,
2,37,-98,164,
-15,-14,-139,-267,
-34,8,-34,-33,
172,39,44,-15,
-52,-16,47,-16,
-113,-17,-2,-26,
55,-8,-136,-7,
145,86,-130,-113,
54,-183,12,9,
-66,258,155,7,
19,-32,-92,-6,
28,7,-17,60,
-32,-155,-110,-110,
-47,22,104,-51,
96,38,-93,-4,
108,-151,-4,-14,
-137,-171,184,49,
-51,-23,125,33,
88,-132,-114,11,
-5,61,27,47,
17,107,-119,-61,
121,-105,225,223,
193,-74,-5,-20,
22,-47,152,-79,
-238,75,38,235,
0,46,-35,134,
-96,-128,-69,-159,
61,-107,-6,31,
172,-87,-77,72,
-30,13,-44,7,
20,-94,-101,4,
49,-92,198,61,
182,-113,295,-85,
14,-22,100,-21,
-37,19,59,-42,
33,48,31,-273,
-40,6,11,-65,
-8,-290,-212,154,
-117,79,-140,34,
57,-151,10,-6,
291,-162,-7,-80,
-27,-179,10,302,
-141,-7,-75,37,
215,95,-119,12,
25,-69,-9,-41,
-61,-7,82,-126,
52,201,56,-158,
-36,249,-18,-57,
135,15,-67,-71,
25,-106,-153,-210,
17,-55,-106,-90,
-5,63,144,306,
-126,67,-23,-138,
53,-109,-183,191,
-10,13,141,105,
96,-95,189,8,
-18,-71,143,40,
-85,110,-145,2,
118,363,172,-300,
-19,-94,-45,24,
-149,-74,13,51,
208,24,212,-107,
-8,12,20,-56,
-11,100,-197,219,
-122,2,-19,65,
101,-211,-10,86,
-204,32,80,-106,
-97,18,-45,-7,
-88,-42,18,61,
0,139,-41,-5,
52,-34,-142,108,
178,55,94,66,
-143,106,-44,26,
141,-47,-2,7,
119,-100,146,-44,
25,-117,113,41,
89,8,-73,-11,
-31,94,-7,-167,
-362,185,60,-92,
138,-133,-147,-92,
-467,-95,66,31,
100,118,-80,53,
-72,98,-212,123,
-18,119,46,98,
-136,228,-261,432,
39,-163,194,-130,
49,-119,-27,156,
-27,-205,236,-172,
-255,-275,244,-135,
-107,24,-152,-332,
-470,-78,10,148,
-247,372,-44,-52,
-187,-88,67,99,
92,-28,-92,-21,
-13,314,-59,-112,
113,67,47,-134,
146,161,-205,151,
-327,-72,61,-67,
10,170,-31,130,
73,-35,195,310,
-277,-377,19,349,
102,133,-93,-188,
179,-125,45,47,
-91,-172,101,-49,
-38,-256,232,186,
64,-55,271,-244,
-255,-99,28,119,
295,315,-144,-108,
68,232,80,-76,
265,200,11,55,
-230,133,-73,196,
-128,228,-95,336,
76,-104,38,364,
412,-39,-159,-210,
-190,6,-169,101,
378,-162,118,66,
52,-32,-129,-89,
39,-102,-54,-173,
182,-17,-106,-211,
-320,-208,51,-299,
-37,98,-412,319,
-150,-298,18,-662,
-378,-294,-95,73,
67,-27,24,-81,
-217,256,4,-109,
-262,-150,44,-24,
23,130,-311,262,
393,-104,43,-124,
37,38,-37,51,
114,-34,56,-21,
127,174,-50,41,
57,34,40,-72,
23,-181,-83,-55,
36,117,59,94,
330,-160,-154,-52,
-340,-295,3,-8,
-211,-48,162,462,
-161,189,-54,-173,
136,26,-244,-17,
-56,-226,-229,136,
-37,-81,-42,150,
172,112,-143,-148,
-98,-174,77,-55,
173,-109,-22,-55,
31,103,-42,-48,
134,-26,73,124,
-20,-71,104,-177,
3,75,-66,34,
172,-333,-14,-154,
137,106,107,74,
-7,-122,-83,-59,
-134,21,-131,90,
-133,207,-12,23,
113,-69,-120,83,
-111,-29,21,-80,
137,-66,-18,-119,
264,-201,-142,-263,
78,-56,-95,72,
92,54,34,27,
-27,144,67,-15,
-45,-194,-92,-109,
-180,64,-174,228,
-166,110,40,79,
-24,-6,-84,12,
162,187,-60,-192,
-41,-85,22,-4,
-271,-104,287,40,
19,-149,-106,-101,
282,85,-62,-106,
24,3,1,68,
140,14,-8,24,
-46,-56,9,-53,
45,90,55,-124,
79,-97,48,79,
-30,-33,-75,85,
125,-179,-41,-9,
6,121,-79,-6,
27,-83,20,-63,
52,-117,82,-115,
179,-96,6,-89,
133,-178,-161,-18,
31,49,-105,9,
74,158,-143,19,
-48,-56,-17,3,
20,-59,17,-181,
40,-147,-234,-37,
114,95,73,9,
5,44,-78,227,
93,30,-83,14,
-43,-5,89,-3,
144,-121,-198,-158,
38,56,141,51,
3,323,-108,146,
-159,-333,105,380,
-24,-17,-70,17,
60,103,-51,-21,
136,-102,7,174,
185,-130,47,56,
153,-61,-160,3,
101,274,-85,-230,
-56,34,-2,-112,
-1,99,-17,-76,
35,-70,-150,139,
96,-48,-92,36,
-65,232,-88,161,
67,103,19,53,
-103,-49,-37,27,
85,28,13,142,
78,-5,-132,-28,
60,-128,-1,-22,
-90,-34,62,40,
-1,-66,-74,59,
-72,-58,-29,-110,
-109,-16,47,179,
63,-42,61,-16,
-78,271,142,87,
-126,-66,-9,55,
-48,55,-68,-35,
-32,-58,24,70,
19,-132,-129,72,
-65,-44,-11,-103,
88,29,-1,-92,
100,-46,-62,-12,
-137,-1,87,-204,
19,26,19,-50,
-13,157,-2,-78,
70,86,43,-56,
-45,103,46,-24,
46,31,69,67,
91,-159,34,-173,
89,-114,-103,29,
140,212,69,192,
36,39,-47,10,
124,-13,138,41,
-32,-48,-16,-17,
80,30,-42,163,
17,125,-30,-146,
-175,-3,-201,235,
-66,102,-61,-4,
-119,36,-125,-37,
60,54,42,14,
-16,77,49,-104,
-105,-48,-76,56,
52,-138,-29,125,
-201,96,79,73,
-21,12,-29,147,
30,24,142,3,
-220,0,-125,-7,
87,-29,-128,125,
94,-71,-87,26,
-41,36,46,159,
46,52,45,-4,
11,-57,-64,33,
-6,68,163,95,
-21,6,-32,-23,
-6,11,70,-29,
71,-22,9,50,
-29,28,0,-39,
155,-18,-27,122,
51,-46,-96,92,
21,9,52,55,
39,-64,89,-102,
52,40,-158,-123,
-7,178,150,48,
30,-19,25,69,
-16,-32,-209,13,
-14,-58,-90,-10,
210,-64,-102,-10,
-7,-23,-141,-23,
15,-40,-30,71,
-199,-75,-33,107,
14,64,-154,64,
197,-239,-27,-42,
120,-123,48,15,
92,-46,59,154,
-23,-61,65,-57,
-6,-161,61,319,
-28,67,22,-11,
32,12,17,11,
-116,-45,132,81,
-154,161,-235,-53,
18,59,-9,-79,
-45,125,-15,-124,
-127,-166,-119,241,
-51,218,-40,123,
168,-26,29,117,
45,9,-129,-27,
-75,-6,87,-161,
-43,-78,-173,62,
-75,-82,-32,-126,
39,-63,169,-165,
77,63,-133,-76,
10,-56,-63,201,
-53,-21,13,-20,
-72,-73,-96,14,
-57,-319,-206,3,
-38,69,-67,-138,
6,-291,139,-121,
30,-66,-121,92,
13,173,-106,83,
-261,102,-2,85,
-121,159,-110,-150,
68,-8,-207,15,
2,-55,-153,34,
64,33,57,-32,
-181,60,167,88,
-14,-66,21,-67,
63,-9,82,-46,
-124,164,-33,62,
9,-21,-26,-106,
-52,101,10,-180,
-145,-81,120,-84,
-67,72,-49,-239,
-32,177,49,69,
-59,107,88,24,
-53,25,105,6,
137,-25,-84,112,
-63,120,17,190,
-14,39,-125,73,
-106,-80,-30,-14,
-22,113,-43,-49,
92,25,-61,65,
149,57,-60,-32,
-66,71,-28,-71,
102,-138,3,56,
-28,-30,214,-181,
227,-245,-88,-95,
-179,-107,55,95,
-47,-139,-136,-75,
64,-10,-110,46,
104,84,38,-2,
166,-177,-144,0,
44,-207,-79,49,
-184,271,139,60,
9,-104,-78,92,
205,-34,-66,47,
40,-50,-53,4,
22,3,-13,-29,
-29,-48,82,-64,
18,121,-24,16,
103,-176,-44,-40,
-39,48,154,60,
-3,62,-6,-4,
-5,14,1,94,
-57,112,-15,72,
-71,86,-108,-32,
-31,122,51,-70,
-98,23,-45,-57,
174,-62,211,-55,
137,-167,-205,38,
-12,32,-18,-5,
-133,65,73,20,
155,39,-47,62,
47,-211,9,65,
-97,-106,-118,49,
47,1,44,40,
118,114,-30,-22,
118,12,47,16,
37,-27,-130,-30,
-51,-2,-64,-157,
110,-95,-25,7,
-34,-53,-56,1,
-68,-17,95,50,
-14,-80,20,-41,
-198,110,-75,-109,
55,-26,-46,-165,
-70,-59,-45,-78,
34,-37,0,-151,
4,19,40,19,
-110,-49,25,-71,
-17,9,104,-124,
-49,73,106,-66,
-77,45,-11,-68,
15,23,-104,22,
-24,37,38,26,
107,-176,6,124,
-66,-204,-83,-125,
-15,-42,-4,-16,
147,61,-130,-44,
-81,-126,-4,49,
38,-93,-32,10,
142,63,36,30,
131,-8,-197,2,
0,-21,-58,90,
91,-30,-69,-55,
73,-354,-24,-8,
48,9,37,-3,
70,-30,-44,66,
-9,-95,15,108,
-10,52,75,97,
86,-36,-114,16,
-394,162,59,-107,
-61,-26,-146,-71,
-32,-21,-25,-29,
16,47,35,116,
62,-63,-35,110,
90,-156,0,174,
100,8,47,-29,
-39,75,150,65,
16,-63,-6,4,
11,66,-191,159,
19,190,-78,-21,
161,-171,92,28,
-72,-38,10,-44,
158,7,-111,177,
-126,57,25,-70,
-137,42,-3,-102,
60,-44,70,17,
60,-46,26,115,
34,-40,-29,100,
-32,-179,128,87,
-142,-21,48,50,
-33,32,-9,-33,
28,-9,49,71,
-90,-41,122,69,
-138,116,-105,-34,
103,-17,28,-20,
43,-77,18,-1,
43,-57,-4,-117,
9,-100,-83,79,
-29,65,7,41,
-19,188,37,-8,
-19,-51,-73,27,
-47,95,36,37,
-13,153,150,37,
-17,154,-182,-116,
120,-1,-27,79,
46,49,-10,-58,
-88,198,-47,129,
-3,5,-68,-4,
-135,132,-3,-42,
101,-136,-28,-21,
-213,-36,139,100,
2,53,-199,-73,
-48,49,15,-23,
33,-68,46,-98,
-38,8,72,-38,
-9,173,-21,-142,
-67,153,117,-102,
-50,89,-25,10,
12,-9,-16,7,
-42,-106,34,109,
-257,29,47,-19,
126,-148,-7,91,
-70,226,110,132,
-151,19,-18,210,
-104,98,55,42,
-168,53,157,-44,
-105,-53,56,-2,
128,-45,44,-21,
179,8,16,45,
1,-45,-4,104,
-103,-28,254,56,
66,-44,21,-39,
64,48,169,73,
77,-59,63,-9,
-16,-51,58,68,
-37,116,127,-101,
6,39,-7,-29,
-79,47,135,17,
45,103,-61,-15,
-74,-5,-43,-89,
-216,46,70,22,
9,-22,-107,-9,
-99,110,-111,182,
-153,288,168,108,
59,-250,-96,-251,
-74,50,60,45,
63,112,-57,-11,
-124,130,-5,-136,
130,68,6,-35,
-80,94,-84,-16,
-33,-64,220,67,
-286,-71,-135,15,
-1,11,-101,-206,
67,51,77,-20,
115,-61,124,-77,
104,142,-38,50,
-100,191,-54,137,
-34,140,135,13,
-54,-101,21,-14,
-34,129,102,138,
-45,-31,45,-19,
39,-128,-28,109,
105,-68,-23,95,
201,-156,22,-141,
-29,98,1,-16,
71,115,1,-42,
72,-6,-112,-75,
-2,46,-128,4,
-23,-18,27,-197,
19,-216,67,23,
-5,153,-142,-38,
-12,-112,-203,-105,
33,-107,-168,-100,
-143,-97,119,-87,
107,87,14,15,
37,-155,-184,-271,
118,45,-46,-71,
208,-191,29,-158,
106,-81,-53,-4,
144,52,-113,-123,
-174,70,137,105,
126,200,112,123,
35,227,-5,141,
93,170,179,35,
59,0,123,120,
34,340,146,38,
-118,72,119,3,
-71,118,-196,-53,
-33,-30,-14,-77,
48,-119,148,10,
72,-94,-84,86,
173,28,-123,-143,
75,89,-121,-87,
-346,-131,-55,114,
-275,-292,243,39,
138,162,-54,35,
-87,109,-28,-111,
-96,88,-8,88,
-215,-25,-34,-66,
-1,134,-10,68,
59,-102,17,-87,
-25,19,101,-57,
151,-91,-29,9,
-136,2,-27,-30,
-208,32,-51,64,
29,38,-100,-45,
99,-23,-71,4,
-39,23,174,-126,
-1,43,19,2,
-18,99,57,7,
-124,140,42,-34,
-45,110,6,4,
-87,-156,-5,1,
-55,-8,-6,-73,
-103,-31,26,-66,
-256,88,123,-24,
10,-28,124,80,
-74,4,-60,44,
4,111,190,10,
-31,116,-76,99,
42,-17,25,77,
63,-34,92,-28,
2,-22,85,-6,
-31,-47,38,9,
209,9,83,-47,
6,-101,54,-32,
-43,64,-8,-166,
56,85,-1,-10,
-24,155,-5,-166,
5,60,36,-163,
33,13,-15,-49,
-80,-10,-110,34,
-313,-39,-101,-67,
-34,-89,-66,45,
-46,48,-69,-75,
-108,21,129,-15,
-38,-8,54,-57,
-40,43,-44,95,
-26,-37,-127,-83,
129,-58,-85,5,
44,-49,-88,-209,
68,-78,24,49,
-37,-52,14,-20,
35,-87,-17,-190,
-86,11,51,18,
150,82,-51,-171,
-8,-21,-67,139,
-102,139,11,-79,
82,-15,47,105,
-178,-110,-64,77,
48,-5,18,-27,
-57,103,30,-33,
102,124,136,-84,
-71,-3,30,111,
54,-85,63,-15,
168,238,-62,-8,
-154,-64,6,-90,
52,-77,207,-50,
-36,-23,72,-14,
-209,123,-39,-41,
-61,-105,-56,17,
-82,-39,21,-137,
105,-78,10,-86,
-118,-50,286,-141,
-6,28,8,-17,
59,8,47,24,
7,143,-53,42,
-40,-76,13,-67,
61,228,203,149,
32,-26,7,5,
244,-166,-397,53,
-143,55,83,46,
-3,26,-140,168,
17,-99,37,32,
-90,-193,290,174,
184,-16,-124,3,
-29,9,185,-82,
10,-146,13,-83,
371,-43,-132,-10,
173,83,-137,26,
-182,85,-108,68,
-59,-18,30,160,
14,-35,-33,72,
125,-39,5,105,
76,-114,-172,71,
3,-96,-125,-141,
-3,-51,-106,-65,
-34,98,16,129,
-161,34,23,96,
118,-36,-441,-150,
-7,-38,11,18,
-3,78,-266,-314,
-158,-75,-134,47,
105,33,-69,-99,
235,-231,-156,71,
148,14,-197,27,
-9,4,-101,-6,
-29,122,-49,-2,
76,14,-146,101,
134,21,-13,-48,
-100,23,17,93,
-39,-212,135,98,
49,13,31,29,
-128,-21,-141,10,
17,22,-48,134,
-74,114,96,-98,
-137,-63,36,79,
-128,24,96,-122,
-133,10,64,-266,
193,26,2,9,
139,16,-78,-141,
288,-58,-46,76,
-370,-216,99,-134,
101,-43,60,-36,
95,-143,-126,-83,
39,157,-2,-143,
-56,134,127,-41,
-115,-59,4,-58,
-21,-28,-157,-8,
-4,44,9,127,
-217,-378,-123,-35,
-23,-160,3,41,
126,166,-94,129,
87,45,93,66,
44,57,-63,13,
-7,-20,76,-1,
73,68,23,54,
42,185,-21,-34,
209,-216,-246,-66,
-110,105,8,6,
-11,-90,-21,-37,
-28,-26,60,54,
-160,190,98,-38,
-101,81,-36,52,
142,-103,82,-200,
-4,-36,-131,-132,
-170,20,-25,-255,
-345,27,86,-16,
-224,-66,-168,-201,
-55,201,51,-86,
61,-111,-31,-148,
98,211,41,243,
151,-294,-42,181,
-70,124,-30,53,
153,32,-39,-77,
392,-152,-178,-57,
195,117,-163,159,
-50,75,-183,36,
28,18,-274,22,
29,124,12,4,
63,433,194,-226,
-205,-126,31,158,
51,-281,-12,-76,
-211,71,94,-111,
68,-68,-318,-187,
-41,-13,26,-65,
239,-127,-10,24,
119,96,-186,101,
358,-60,-260,210,
24,10,239,-133,
-44,-4,328,66,
-60,5,-265,-35,
84,188,-158,31,
-7,120,-67,-15,
194,-165,-112,-118,
126,-123,-7,-442,
-89,11,-202,-70,
242,-181,8,205,
118,-70,111,-145,
97,18,-24,120,
-39,-67,-199,-134,
-15,-167,-345,-33,
-34,47,-166,11,
80,129,47,-149,
-232,-55,-361,-263,
-141,-544,95,-303,
271,-170,-22,-360,
-8,428,102,-110,
-245,45,-25,85,
-204,-175,-11,-131,
194,-195,-111,-118,
139,-12,30,0,
149,-311,82,53,
65,-94,216,112,
-52,4,51,184,
-269,-92,-30,-49,
48,15,142,-9,
-81,-112,-6,13,
129,191,37,80,
-140,294,-295,-20,
226,-141,48,-426,
-93,286,-59,72,
66,87,157,-85,
240,-337,-182,164,
-42,-257,34,151,
-48,157,-169,177,
-74,19,-164,142,
46,-155,-165,146,
63,-98,-7,5,
32,31,154,0,
-42,-48,-73,-203,
10,-31,-63,94,
40,5,80,-69,
-74,-30,133,74,
-66,-132,130,13,
-16,-77,132,-1,
-56,-166,-71,170,
172,-78,-260,59,
-139,55,10,-70,
-99,51,-48,-143,
178,259,80,144,
-101,33,-61,-78,
-34,89,-123,68,
-16,22,96,-172,
37,-54,-145,-39,
-299,61,-120,96,
-116,-152,101,-168,
49,-116,-104,-29,
-133,108,-86,-148,
26,-137,-1,2,
-370,-27,-80,-295,
37,-73,-36,46,
-255,57,151,-45,
-56,-116,-54,-137,
340,8,55,214,
63,48,-58,19,
-7,3,-84,-38,
125,26,115,19,
-60,130,40,-8,
-82,-82,107,-105,
-251,-14,-65,-249,
-193,-101,-87,46,
69,-21,16,-99,
112,-36,-89,103,
22,-33,-131,85,
23,-51,-148,-30,
-33,21,-50,-1,
-28,-53,147,-89,
-277,89,100,-97,
145,15,183,-140,
-168,-24,-13,-61,
73,-195,10,-20,
55,-228,-26,19,
93,24,31,67,
4,-26,267,58,
-108,81,45,8,
-93,-139,-205,135,
75,-277,-142,-151,
-34,-64,36,175,
-79,-280,39,-40,
132,3,147,14,
-88,-140,48,81,
-3,-122,-122,106,
106,114,-96,-91,
-23,136,-47,-35,
-83,-106,94,4,
56,145,-46,49,
-66,79,71,6,
-111,-1,101,45,
31,6,43,-70,
76,-4,177,54,
56,-137,39,111,
0,-15,-71,-20,
-50,0,92,-55,
57,-29,10,101,
55,20,-141,-40,
3,-109,146,75,
-20,66,84,154,
-25,-5,129,-119,
-8,43,-217,-80,
127,51,-83,90,
-43,-86,-6,11,
-163,90,-28,34,
-3,25,-82,-35,
-148,-59,-36,103,
48,-61,56,103,
20,100,11,83,
-59,6,-71,-94,
123,-86,-74,33,
36,-64,-19,11,
49,-1,51,-3,
-222,36,-23,51,
-5,-28,62,-19,
24,176,58,-45,
-10,-37,230,-122,
-122,-119,234,11,
169,37,-24,-130,
-170,-71,30,-109,
79,60,-22,-96,
105,169,-47,81,
-12,-111,-13,31,
-114,-16,119,-69,
24,19,-17,40,
22,-67,128,51,
134,14,7,81,
-105,22,75,-154,
-14,-44,-90,88,
-119,107,28,40,
-233,-79,109,184,
-46,-57,-32,-166,
15,-10,130,-155,
-56,19,258,118,
154,-15,-75,-86,
-79,-8,42,60,
-1,32,18,-103,
-52,-62,49,77,
-42,29,129,31,
-105,-11,-49,-64,
11,-27,44,34,
-94,-29,-54,-44,
35,-73,-20,-99,
-85,14,25,55,
-147,11,-49,-267,
17,-9,-34,75,
43,-17,111,16,
-46,-134,-3,-3,
-131,-124,-66,-23,
202,-136,123,-99,
-30,-139,124,39,
41,112,-25,31,
167,-121,63,-84,
-12,116,-54,39,
-152,-9,18,-66,
-119,-130,-22,-135,
-184,16,83,-15,
-213,22,35,6,
26,36,15,51,
-153,44,187,-178,
-66,-90,-11,-24,
-70,40,59,-5,
100,167,229,-235,
-166,2,-190,-62,
-15,-17,95,47,
-79,-61,-140,103,
105,33,-90,-154,
25,-223,-84,252,
-34,77,148,46,
-241,164,-177,-54,
-199,-140,100,224,
70,-47,-11,165,
-75,65,19,33,
-103,33,114,-3,
-58,-137,55,-317,
44,-37,-52,149,
91,233,-123,-95,
-6,-93,-97,3,
49,63,48,21,
86,15,-42,146,
-8,53,-109,-83,
-101,-135,30,22,
-65,-183,-101,-52,
-104,119,171,-231,
-82,66,-80,22,
233,161,-18,201,
-56,-240,-187,-39,
-241,-8,274,-373,
-184,60,-119,-44,
-217,-120,210,-38,
6,-61,51,-10,
-154,7,25,-113,
-221,29,34,45,
26,122,-187,-9,
23,-62,-106,-151,
-38,-32,-152,-81,
-71,41,106,175,
-113,92,-34,-151,
-631,100,0,78,
135,81,195,37,
-257,-151,-62,-33,
-101,-15,5,92,
137,-237,75,3,
-47,115,24,163,
-85,54,48,79,
-69,-60,185,4,
-49,-4,59,18,
94,26,-67,-73,
0,-133,71,150,
-377,-16,127,52,
-47,-29,69,-87,
-190,-98,59,5,
-46,-40,-44,-145,
-192,-67,-9,-140,
-125,146,96,-105,
36,40,-171,50,
92,-77,87,45,
39,164,-175,40,
-137,-99,-18,108,
-226,105,-185,39,
-87,-85,-85,-61,
-150,14,56,-52,
40,-117,74,-108,
-15,-38,45,-156,
39,55,-65,50,
-26,2,-193,15,
200,-6,85,-81,
0,27,-87,-69,
-35,-67,-44,-62,
-42,52,32,-14,
-101,-180,54,85,
-15,-273,-112,162,
-115,-12,-7,20,
-5,-106,-167,-32,
-107,-40,-54,-84,
146,-12,0,71,
-102,-67,-49,69,
4,72,23,-15,
-90,98,144,-113,
63,-47,128,40,
208,99,69,-99,
-19,-16,-19,-65,
35,-7,-105,-79,
112,-24,-63,60,
-109,5,-30,1,
-77,29,-81,86,
-73,5,76,5,
30,-80,-75,96,
-202,-31,-80,-48,
-32,-80,71,-77,
-7,-270,-16,84,
-221,34,75,-124,
6,-36,-96,4,
16,-129,-27,-29,
-33,-61,124,38,
-121,-64,-74,-78,
-31,-122,-102,-20,
59,-164,-61,19,
-2,-38,-81,22,
16,-24,-39,56,
-59,-19,21,-35,
19,-26,16,-182,
-31,-96,186,101,
36,-31,114,167,
7,-78,89,88,
-75,-41,-58,80,
-19,-46,-50,13,
-204,23,112,-19,
144,6,55,-156,
-82,-89,-28,-16,
91,32,-67,8,
-155,79,49,-65,
38,140,43,-30,
-51,-171,78,1,
65,88,-40,16,
66,48,111,14,
72,5,-34,-105,
-84,-238,-105,-55,
119,-104,-162,-53,
78,82,33,-71,
104,-120,-72,-47,
-34,51,-83,32,
32,-173,237,-44,
-53,-59,32,67,
-140,-163,-33,115,
-68,9,29,-12,
19,184,139,25,
-80,-9,58,50,
43,-108,15,75,
63,-18,-21,-80,
-45,-46,-54,75,
-112,126,64,51,
170,-82,-103,54,
106,69,-5,-54,
-158,22,-50,144,
-33,36,149,57,
-44,56,-152,-2,
-62,-49,-107,30,
30,69,119,-57,
37,-141,5,-25,
66,3,-78,44,
-107,57,42,-185,
-23,181,98,48,
-87,-68,20,11,
-23,-161,-140,-3,
67,-124,54,13,
64,5,-92,-103,
-80,13,245,114,
-38,60,144,51,
-58,-60,14,-76,
24,155,-12,-114,
-151,141,52,19,
174,90,55,113,
160,-105,-78,102,
28,72,32,17,
73,-84,-44,-5,
-74,12,-180,4,
7,-22,81,278,
-100,-96,-145,-46,
86,3,1,172,
29,-96,63,62,
155,-198,107,63,
17,-42,42,-77,
-35,27,48,74,
-21,-6,-183,50,
35,163,14,-64,
11,-112,75,68,
-55,-59,-36,55,
-124,146,121,13,
26,-128,144,-43,
-164,128,-31,51,
-27,-32,-16,17,
28,4,-58,-48,
-4,13,35,-91,
-1,-31,-91,-13,
82,-64,71,132,
70,5,32,80,
-173,126,1,75,
-78,-31,169,-19,
-7,-45,46,29,
88,0,132,-45,
30,-143,45,33,
-15,-135,45,35,
-34,117,-19,-18,
47,-80,14,58,
-170,28,-32,154,
183,-68,4,-84,
41,-103,-49,-39,
-188,64,-33,-39,
1,-72,-56,62,
-54,39,164,-217,
-44,243,-6,226,
62,-212,181,-217,
-96,98,68,-104,
-118,-157,171,8,
43,-48,-55,-45,
122,103,100,168,
-76,76,9,-29,
-76,-51,-152,-114,
-181,25,386,-144,
-119,-17,-177,-36,
38,88,18,-17,
-105,77,-55,-77,
-188,-59,19,8,
3,121,-59,16,
-274,24,-81,-138,
-45,131,28,61,
-301,-165,63,-17,
-81,-157,-83,32,
-192,51,156,184,
-185,21,237,-1,
10,49,257,-16,
-314,-134,112,-60,
-29,-68,-83,89,
-13,-50,102,44,
16,-9,75,124,
-97,146,-57,-170,
55,-22,-39,-16,
-97,166,86,-24,
92,61,-196,46,
71,48,-1,9,
-134,-175,-53,-377,
181,-41,62,195,
62,-99,-75,42,
-1,127,128,25,
98,1,41,-103,
58,-15,110,-81,
-33,112,-180,130,
76,76,-44,-20,
-56,196,8,-315,
-82,-17,-52,14,
-59,73,84,-142,
16,-106,-112,4,
-71,6,-145,-113,
-207,148,-104,-48,
19,143,-99,22,
123,-161,220,150,
-133,-50,-172,-33,
-265,-48,251,36,
-42,29,153,141,
-45,-82,-1,77,
-118,66,127,-103,
55,-335,65,-336,
-22,50,81,29,
104,187,98,36,
-17,-30,46,43,
-127,51,69,65,
-75,59,21,-32,
104,256,-59,-212,
32,12,163,69,
73,106,57,-8,
68,-14,24,78,
26,-31,-11,-80,
-120,45,-92,116,
-5,72,51,-10,
-39,-15,-39,-111,
60,81,215,-214,
4,-12,34,13,
-92,49,164,72,
-27,-25,-54,-22,
-117,-23,96,-7,
16,-56,-34,-40,
-54,19,-133,41,
27,369,76,89,
143,-21,84,-80,
-39,-16,26,-114,
-50,-230,-49,-90,
-4,-34,-20,-58,
55,-91,-9,59,
16,6,70,-68,
75,-17,-164,-19,
-21,-160,-102,-219,
-18,206,-90,-47,
-45,-29,2,39,
-8,-86,26,-41,
8,23,-15,17,
-157,75,107,102,
-62,-59,2,131,
112,40,90,50,
0,-4,-16,63,
11,-6,193,99,
55,-7,-24,75,
-40,-25,90,51,
89,68,-153,-39,
-33,-79,86,108,
108,-36,-28,-288,
-170,187,-1,2,
-1,-4,-42,-101,
63,-92,178,-127,
-65,4,15,91,
37,4,87,28,
130,-35,-105,-47,
-46,65,-134,-60,
98,-13,-9,-81,
-30,-27,40,68,
11,-109,4,-125,
-10,56,-16,3,
19,107,-27,135,
5,-57,63,-60,
-119,112,165,-36,
78,77,99,-45,
9,25,79,-24,
206,15,103,73,
-132,-79,7,-81,
-11,77,7,189,
0,217,142,-15,
-28,70,-52,39,
8,-17,31,80,
-24,2,-105,-27,
90,127,44,-117,
38,97,-63,41,
21,99,109,-62,
-146,-15,-97,14,
-3,12,-125,-40,
-26,29,102,111,
23,-56,52,1,
11,96,-56,110,
-17,-163,-62,-44,
-165,130,72,43,
-152,88,-76,150,
2,42,-1,-1,
10,6,-69,83,
-40,9,-46,-250,
-74,-162,-71,42,
142,135,39,-47,
-45,-88,-89,-139,
371,6,187,359,
7,-137,-35,90,
-74,133,184,-126,
81,-162,59,45,
-21,13,18,-74,
61,-74,-89,-121,
64,-114,231,-37,
-119,-296,-8,-225,
125,117,85,-93,
135,16,43,260,
42,67,-128,-39,
87,-34,77,189,
182,96,-52,25,
219,-123,215,-65,
1,21,-66,45,
7,-58,-50,-125,
-264,205,108,176,
-61,231,113,433,
44,101,-13,-63,
-44,182,332,-200,
60,102,58,35,
39,-211,238,156,
-119,172,-221,-29,
-140,47,-240,-16,
-41,32,-106,38,
196,3,-31,-49,
-55,45,72,-72,
-97,-45,-163,64,
13,-98,32,-122,
73,-41,-28,-84,
147,49,-77,90,
-251,104,53,-46,
-2,-21,-143,12,
10,-39,-42,100,
61,-47,-164,-20,
113,103,124,-53,
106,-319,201,164,
62,105,-32,242,
20,56,22,15,
-41,-76,-36,-196,
-30,97,-39,32,
-123,44,174,75,
-124,18,41,122,
-14,-26,85,-16,
41,69,20,4,
-266,66,-239,-31,
-77,-113,68,-39,
-169,31,-39,-176,
87,92,-74,-61,
-140,42,-10,126,
-141,-94,1,47,
-34,93,-32,145,
-70,-19,25,-139,
57,-25,-61,-113,
-7,-544,44,171,
8,-60,-133,-236,
-233,-169,102,257,
107,-5,136,165,
42,33,122,29,
-86,257,-26,-90,
-29,120,50,202,
3,-78,-118,66,
-179,-93,15,-188,
445,-39,-141,252,
-15,164,-178,-556,
-97,69,-188,316,
204,-46,-54,36,
96,-167,61,323,
-240,127,-48,-51,
-22,75,167,145,
1,-72,139,-7,
-200,-65,97,-95,
-24,242,295,30,
-241,2,49,283,
43,-321,-310,-59,
-79,-289,16,-68,
-373,48,-179,-329,
-92,238,184,152,
-263,6,258,-42,
283,-151,33,-132,
-129,136,601,-132,
203,-123,151,65,
-66,-210,100,0,
-318,88,-124,105,
30,46,71,168,
-82,181,-356,118,
44,-86,-18,25,
197,-242,-50,86,
-187,18,-81,63,
140,45,235,-109,
-164,-164,19,-91,
13,-118,-61,-49,
-27,7,7,4,
397,28,115,-49,
-113,-42,-224,49,
-29,-27,-64,-39,
4,66,-76,-150,
-51,90,-87,231,
-174,18,96,187,
-112,163,-206,312,
67,-146,141,-87,
-127,74,29,495,
78,-171,-452,-155,
90,-156,240,133,
-134,-16,-221,77,
-122,298,163,198,
106,76,-198,90,
59,126,7,-226,
119,189,19,215,
-63,23,116,491,
0,194,7,34,
220,-250,15,-60,
-392,-518,-317,324,
-147,-56,3,-155,
49,-192,35,-286,
-317,147,25,321,
32,25,-46,-514,
-6,46,-25,-30,
231,26,-43,228,
-178,-105,-25,-250,
-36,82,-212,-81,
74,-87,-199,-123,
23,29,112,-94,
36,75,-136,-76,
78,227,158,156,
22,41,-90,18,
-119,1,33,156,
-64,-2,-232,81,
-12,-27,-158,-83,
120,-236,234,-44,
51,-38,58,148,
22,85,88,92,
222,160,-72,86,
119,-71,45,40,
-13,12,69,-4,
-28,-41,-45,117,
128,-95,-56,-125,
10,264,-179,-40,
-68,-164,-342,3,
38,16,-157,-49,
81,-186,71,67,
-31,-56,100,-7,
-29,-327,443,-26,
42,46,-166,26,
187,-7,343,-125,
-38,-47,26,279,
100,-128,-236,-337,
44,-15,-48,-44,
-34,62,57,-188,
6,62,47,-63,
47,72,46,120,
112,14,74,-239,
-30,115,60,-10,
-116,66,-50,-29,
56,71,31,-113,
14,-118,-28,178,
32,-8,-78,78,
-17,7,-45,186,
-66,-87,-100,-112,
-95,-67,63,-52,
15,151,303,29,
7,-75,46,188,
-29,41,-97,69,
77,59,-127,67,
21,-34,-123,-70,
-42,109,4,-291,
-96,42,-15,-256,
64,0,32,-56,
-33,14,57,336,
-107,-282,-179,-108,
121,42,53,10,
122,55,-4,-146,
-168,-71,-176,-145,
-71,-219,52,-44,
39,58,3,40,
-17,196,40,227,
52,198,28,-26,
45,-48,-22,-58,
13,8,129,-5,
34,75,-34,-67,
81,-202,-334,-236,
267,143,-3,-133,
27,109,23,-10,
-40,-137,-192,-103,
79,161,-90,58,
20,26,91,113,
-34,-26,-33,145,
5,8,-20,74,
-44,-1,14,16,
-49,-175,-26,-28,
65,13,6,91,
150,-43,22,-94,
22,-1,108,107,
26,-72,120,29,
-20,61,-115,-35,
-103,38,27,-165,
75,-75,60,-72,
-35,-93,85,-108,
86,25,49,-67,
-4,-9,-67,-128,
60,-21,-83,-93,
21,36,-16,5,
3,40,2,22,
-18,100,-65,-131,
-85,86,-28,-110,
34,67,175,57,
-36,204,-16,39,
-1,52,-156,-114,
-12,93,-44,-43,
-124,210,69,-188,
58,-25,-4,-16,
2,-131,-89,98,
-78,22,-67,-33,
105,-230,87,-52,
32,-40,-97,32,
-39,46,-53,23,
-14,-103,-93,28,
-9,-77,-12,84,
-20,-78,-56,80,
23,-138,-41,-5,
-30,-65,-24,-86,
-68,141,18,-124,
117,0,-48,-83,
70,162,-14,-221,
-11,14,-52,-153,
67,43,140,41,
-128,-82,-137,-123,
-102,-103,129,-34,
-7,-4,-25,1,
-96,-148,145,82,
10,-54,-24,-10,
58,40,28,34,
1,-19,-38,100,
-33,39,3,78,
45,47,-135,80,
70,147,-43,42,
-10,-24,-41,55,
29,78,-13,-67,
72,70,-77,-192,
-109,41,-182,29,
-103,-17,43,121,
32,-58,27,197,
-9,-11,-11,122,
112,-55,103,157,
5,37,-24,-2,
-7,-69,121,-235,
-15,53,90,57,
-37,-6,-7,-120,
156,151,65,-159,
93,-32,26,-165,
104,-25,73,-28,
-11,167,4,126,
-36,15,-121,97,
191,-48,20,-48,
28,89,56,-59,
85,146,-13,-41,
-70,-251,208,219,
9,-7,50,63,
45,104,-146,-6,
-53,80,-31,213,
-74,123,-56,-4,
-40,-55,2,30,
-43,-42,-12,127,
-134,195,-170,-67,
-76,-138,23,136,
-39,53,157,65,
-39,11,-103,-227,
80,-32,-69,-133,
-103,56,-12,-228,
-77,-30,50,-10,
-210,85,-88,-64,
-45,-26,-199,22,
-11,122,-85,69,
162,-39,-221,-450,
-35,61,18,-118,
-160,1,38,15,
-19,-229,131,-106,
76,-31,-46,-134,
-48,-6,-93,123,
145,-128,9,-5,
-30,-11,27,17,
-250,-3,8,103,
33,137,-122,-110,
54,-166,-108,-74,
60,61,161,98,
5,68,-123,-67,
-33,132,-76,-32,
67,151,-118,-36,
74,-40,151,153,
62,59,-126,76,
89,64,36,77,
68,-101,224,-125,
37,7,160,-80,
14,13,18,-325,
-66,152,-169,-116,
29,-59,21,-163,
54,-26,95,-11,
55,-59,-43,-42,
23,156,-86,-30,
124,295,-75,-56,
38,19,-34,-2,
-36,-93,-60,-394,
185,-76,134,-27,
-74,-27,6,-72,
15,86,-73,-52,
75,-23,91,-14,
125,124,-95,154,
122,-58,71,-84,
51,111,153,22,
50,-112,178,-1,
33,-27,67,-3,
54,243,-121,43,
3,-12,-36,-162,
-86,2,45,27,
8,49,57,-8,
-10,-34,-40,1,
-118,-100,69,168,
3,-12,-22,-71,
97,52,60,-83,
20,54,-74,49,
-41,-229,119,-88,
-33,81,6,-2,
26,16,-75,-33,
-119,-18,-48,-4,
-1,142,175,138,
-53,67,65,171,
-9,4,92,-75,
-114,-46,-30,-70,
78,187,-46,155,
-18,-18,-102,216,
-248,-16,-312,193,
-6,-5,-56,-5,
-2,-46,18,41,
-4,61,2,69,
-40,14,-123,7,
-63,-39,-101,-116,
71,54,2,-4,
-20,97,3,83,
63,3,60,16,
45,-176,55,36,
-62,120,75,-74,
2,-139,-85,-243,
7,59,-90,28,
11,-84,115,-98,
19,25,-72,-36,
-38,69,-1,-2,
-13,-105,33,-14,
-76,71,-58,4,
54,116,69,36,
-29,-23,-76,11,
114,-35,-3,131,
-175,49,-18,88,
97,94,-205,-42,
-5,-23,168,-27,
88,-55,-14,44,
40,52,75,99,
-62,-57,-61,119,
63,206,-198,23,
-40,-16,69,-27,
-45,-46,-2,-30,
143,-70,63,29,
166,-6,62,90,
20,-71,-15,-69,
49,193,-76,-75,
-87,-90,-13,61,
95,81,-201,44,
-59,113,-6,125,
-90,108,50,-19,
10,-70,-18,-12,
-53,-88,51,-92,
52,-58,170,-22,
4,138,102,12,
155,114,51,152,
-91,38,107,158,
53,-105,122,-7,
19,4,138,-11,
-84,-22,81,-9,
64,-39,19,27,
34,-11,-48,-56,
87,25,-1,-17,
-10,-1,17,-38,
-24,72,-84,-146,
-4,-64,13,-133,
130,100,73,-53,
-155,-112,-41,-118,
-250,157,-62,-27,
79,-73,45,-83,
83,-5,82,-13,
-134,-19,-59,23,
30,1,10,8,
97,-1,-33,14,
-76,-48,169,-91,
-21,43,-31,17,
92,-67,-1,-10,
-58,52,-27,-25,
156,21,171,-76,
-69,-9,16,-20,
-213,2,-114,-122,
27,-153,18,-49,
33,-72,-47,21,
6,-5,79,-46,
-92,50,77,24,
-44,-7,-146,52,
-10,4,118,-127,
-51,2,78,80,
-77,11,44,16,
-88,-11,25,19,
122,-47,242,-132,
27,16,-63,42,
-53,-136,92,168,
-17,95,104,-71,
-119,203,234,172,
17,1,83,-48,
-62,-46,211,-154,
-152,-59,77,-58,
-10,-180,37,-55,
-30,-106,-40,-57,
133,112,95,47,
4,65,45,8,
120,-26,187,20,
-37,-14,-23,-89,
28,-119,87,60,
26,-43,-70,-39,
85,-40,41,-53,
-107,45,21,-44,
63,33,-26,15,
84,60,-98,-15,
131,34,-21,-24,
28,192,43,-90,
3,-37,-22,-80,
72,90,63,18,
-23,39,92,-19,
-35,89,-5,2,
-82,-49,-167,-130,
23,137,59,24,
26,-19,154,-8,
-22,86,14,-41,
77,-20,58,-31,
55,-132,55,55,
-48,-39,-15,-35,
83,97,318,-84,
-195,-61,202,-53,
-201,168,-11,-43,
-35,-153,-1,-44,
106,57,-87,-21,
-123,-93,-1,116,
78,48,60,-204,
53,9,67,-71,
97,-46,10,-12,
80,155,-133,52,
-297,161,-41,50,
77,-7,177,79,
-56,90,-46,216,
-30,20,7,-25,
-33,-52,-64,100,
61,61,72,-84,
32,9,41,51,
28,-122,-143,-38,
-177,-120,-26,42,
-81,29,22,155,
347,160,40,-96,
69,40,1,216,
-44,202,206,19,
-166,-76,6,45,
135,197,-16,-95,
-55,-31,-219,28,
47,40,-100,33,
26,67,71,-29,
-53,94,24,107,
-47,-79,142,-8,
16,54,-5,-43,
152,-154,224,-134,
129,90,-124,75,
39,-103,254,37,
44,164,30,-23,
21,98,74,-72,
-25,49,-42,-33,
-274,-37,-36,-51,
-29,2,-30,-42,
66,-154,87,-52,
81,37,-31,140,
-181,-88,-1,126,
-136,-63,-69,101,
66,-532,243,-108,
-79,-85,95,143,
-69,-2,100,29,
138,64,-87,139,
50,53,-209,5,
194,135,-108,-117,
85,-74,240,73,
33,41,19,93,
236,-17,-343,7,
176,-100,334,200,
48,-49,58,50,
155,16,103,118,
74,-89,-150,-57,
-159,133,-17,79,
-163,49,-65,-15,
-13,-178,-137,-54,
63,141,77,64,
-53,22,-96,-283,
73,91,39,83,
-16,-48,-6,-10,
1,17,13,8,
-29,-50,49,58,
-81,13,16,117,
70,-143,45,-7,
38,-39,-72,-37,
260,83,17,32,
81,19,26,104,
-143,-55,143,88,
-29,62,-39,-1,
-160,115,-25,21,
5,-88,-6,19,
-67,-144,62,-136,
86,126,-49,24,
-188,-106,23,51,
9,71,83,-17,
-68,-22,-69,145,
-116,30,32,-81,
69,-100,111,46,
-52,84,-8,77,
-25,-54,-97,-31,
17,-100,-130,-58,
-116,5,121,136,
-129,-12,-40,36,
-49,-124,227,117,
28,6,-46,-44,
140,2,129,-39,
36,31,17,72,
-60,-79,40,130,
-16,-10,-109,118,
-96,41,90,-17,
-239,-14,74,-35,
-112,-23,-33,52,
52,94,-110,-124,
-110,74,20,33,
-19,-45,130,-26,
-28,75,-59,-67,
-235,18,-160,-49,
115,22,125,-11,
2,83,-61,-5,
-51,-65,76,-13,
222,243,33,-77,
10,-15,-52,-1,
126,152,-67,140,
10,-38,22,-26,
-7,36,113,-21,
69,24,-2,45,
29,-106,83,-171,
-35,164,74,20,
64,-28,24,31,
164,-83,-181,108,
-96,175,-78,-35,
-37,-17,39,-8,
191,-50,49,92,
-71,36,-106,53,
-106,45,27,-20,
82,-105,129,-1,
95,20,-4,32,
-11,-97,22,-14,
-189,-89,-168,41,
40,35,92,46,
-28,-37,52,-29,
10,-167,184,-28,
68,136,-52,45,
-67,18,10,165,
49,-147,283,-35,
1,130,40,-105,
14,-3,88,-173,
108,48,213,84,
-106,-110,98,35,
-55,-103,-2,89,
-93,-72,6,-100,
33,-20,72,-69,
-30,-106,-172,-190,
-22,104,97,14,
-70,-39,128,-20,
167,124,-42,40,
64,-55,3,3,
112,84,33,86,
-40,-63,62,54,
73,133,88,32,
173,55,-39,-133,
-66,182,210,228,
-85,-55,62,8,
-4,-35,9,-33,
254,-189,287,25,
-145,-33,28,73,
-79,248,126,-268,
7,106,177,29,
-217,-42,23,-75,
161,-92,-66,-193,
159,323,-52,26,
-39,-62,-95,72,
-51,174,-112,81,
238,-8,-55,-33,
-26,-35,-71,63,
134,9,-76,-13,
13,-86,77,-74,
206,35,52,29,
83,-84,164,98,
73,58,59,-36,
-124,-70,112,7,
21,40,-173,18,
-318,-127,-6,33,
-173,-93,40,-70,
143,117,-47,10,
-93,-68,-34,-66,
-31,131,-105,-43,
-141,49,-110,33,
-139,23,7,-100,
-148,236,10,-378,
-249,203,50,30,
48,-82,-156,-54,
-60,-58,38,-67,
-32,27,-47,-29,
-3,-57,-24,99,
139,-218,293,174,
30,34,182,-93,
77,79,-132,78,
-28,72,-6,-13,
35,257,309,-211,
-102,4,123,-131,
-105,-49,-16,247,
27,-22,-15,-24,
97,-92,102,204,
1,61,88,-29,
-11,51,159,-90,
59,-5,4,5,
-331,-90,-194,-4,
135,-128,-35,-26,
58,-98,-147,326,
-3,-141,224,-178,
-89,176,-161,-6,
363,-61,-83,-105,
-100,391,-174,319,
-18,-132,-119,-196,
-228,-57,-130,178,
-34,-25,-122,-106,
89,-355,366,-78,
88,153,-125,353,
-123,81,0,56,
-73,11,29,114,
-24,-419,-90,262,
39,91,-38,111,
-103,140,-69,300,
19,19,112,203,
9,51,-408,76,
-32,10,-126,-404,
59,44,144,-133,
-269,111,72,476,
-162,13,-369,8,
-377,1,-36,62,
82,-155,-303,541,
44,120,184,-134,
192,6,-48,202,
14,-328,239,2,
-129,95,170,-50,
-308,-11,102,212,
-295,267,-15,-245,
79,-92,-65,85,
-304,195,-381,-85,
287,320,-316,-285,
-122,74,81,68,
-156,-181,145,97,
-257,-8,64,-109,
-49,-119,-201,380,
77,223,-68,157,
346,231,-133,-284,
126,66,-58,-10,
377,-201,-203,-48,
202,216,-412,204,
111,83,-51,143,
-57,44,-12,328,
91,-379,114,-209,
-232,-289,61,166,
-161,304,-78,-105,
-91,65,-54,-8,
30,-22,147,-82,
-227,94,-186,10,
210,-198,103,-7,
188,121,42,-173,
229,-41,-94,-31,
188,150,1,-99,
274,-190,-217,-35,
224,-60,-42,-41,
167,118,-193,-63,
-79,335,-154,-257,
142,157,198,119,
-155,-236,-16,41,
94,230,-213,-37,
-192,28,68,-111,
-65,88,18,155,
-166,-60,-45,39,
-120,51,-160,-33,
-16,105,-102,-15,
-184,117,58,26,
-86,-43,-83,-223,
133,12,-63,-18,
-81,-73,6,-247,
172,-9,-99,86,
-286,-124,3,37,
-12,94,-30,71,
-180,3,17,190,
175,-78,-151,80,
133,-240,195,109,
53,-69,71,11,
110,-459,125,-132,
-90,24,-4,-52,
10,-26,88,64,
10,-106,178,-174,
-221,-18,23,28,
169,-56,-64,-112,
73,134,79,102,
-49,-16,-83,-66,
-219,-143,223,359,
14,-77,-24,-48,
-522,93,109,101,
-109,-108,-17,87,
44,-197,134,17,
-86,65,38,-109,
278,-106,-304,14,
123,-4,4,89,
106,-204,150,177,
-166,39,-63,51,
89,-166,36,18,
-27,-362,-24,-275,
-172,-94,-22,65,
28,-97,41,3,
-142,-225,-95,-55,
-150,80,-8,56,
90,12,-62,34,
-27,107,13,-98,
-9,23,75,87,
-10,32,-205,31,
-3,-64,61,54,
-136,94,274,-178,
-47,32,232,-174,
32,1,143,56,
-40,87,-16,19,
100,-419,12,31,
-154,157,-38,-76,
52,12,80,-98,
-132,-55,56,-72,
234,103,-46,-458,
6,17,-34,44,
222,144,-24,-110,
194,38,-47,170,
-230,-151,258,153,
19,46,-135,-98,
-22,-232,146,-26,
-212,-322,25,129,
79,73,27,157,
-75,-48,15,137,
44,-14,74,65,
-186,-160,16,-2,
83,-74,148,125,
-93,113,-11,46,
18,-2,-11,-54,
120,-48,62,-12,
-33,-215,1,-107,
105,2,-43,67,
-139,-120,-15,84,
107,-30,-107,46,
-110,43,45,31,
-99,-34,-56,19,
90,-187,125,126,
-256,83,69,70,
84,121,135,68,
-132,-39,171,-14,
-80,43,21,205,
27,-56,33,20,
112,-45,20,90,
97,121,159,14,
26,-34,-11,150,
50,91,-57,14,
-18,17,-30,-58,
-45,-77,-62,-30,
30,174,112,-165,
9,-152,1,9,
199,162,82,-29,
-1,20,105,65,
-98,-115,-53,18,
-37,-134,90,111,
99,88,18,-65,
-67,-58,102,61,
70,109,50,62,
43,27,185,33,
-176,4,12,37,
-46,13,137,11,
44,-128,71,32,
29,57,-15,37,
-60,142,172,46,
14,-10,74,132,
-108,76,64,14,
31,-144,-37,118,
-96,-38,75,-10,
-2,5,-10,-55,
-147,128,-51,-7,
-40,-51,-225,7,
20,-43,-74,45,
-106,-140,116,-85,
-52,2,77,-45,
33,53,-73,-100,
7,-40,63,-133,
-2,42,-19,12,
27,-26,-66,1,
-12,2,-8,-48,
25,7,121,-87,
12,68,-161,-187,
-50,32,-52,-38,
-15,-36,18,24,
-65,-88,53,3,
-72,-31,-114,9,
99,-53,-33,-31,
-158,-62,10,80,
81,183,-115,142,
-163,-29,44,-127,
62,58,19,-43,
-27,-60,49,45,
143,33,171,-35,
-64,-170,-146,-124,
32,-40,-109,42,
60,13,-138,-1,
-107,17,-80,-205,
-37,56,89,71,
70,45,-22,-192,
-196,76,54,5,
69,100,58,106,
163,-45,-103,-55,
-95,-78,17,9,
-8,89,-102,-80,
228,-30,-7,78,
86,43,163,-63,
-267,151,-79,69,
-39,-98,-50,134,
76,-168,22,-79,
-47,32,-61,-47,
-30,-71,40,105,
-24,-37,106,-197,
-32,135,-169,-13,
-172,63,57,-19,
246,-22,38,91,
-118,24,-38,-120,
-213,32,-160,209,
-92,-122,158,-105,
114,-112,-168,-179,
60,259,72,-55,
34,-124,190,-192,
-87,-165,-78,168,
-44,351,7,85,
-34,60,-12,-47,
-219,177,-72,-431,
-72,-89,60,-43,
-3,147,32,-11,
-28,85,-6,19,
-76,-139,208,97,
-4,3,38,86,
-75,-199,55,74,
-178,283,-109,4,
-58,-29,89,-43,
-18,26,101,15,
-109,143,-34,11,
-47,256,-181,2,
145,216,-109,63,
44,-34,91,-175,
89,-90,40,-17,
65,-31,-100,41,
217,17,-25,36,
3,71,25,-54,
152,73,-85,-104,
22,-43,48,129,
6,29,33,47,
208,-17,-92,48,
49,-182,-99,-166,
-36,43,-56,15,
-109,89,307,-9,
-83,-83,-69,-195,
-68,256,-64,-72,
-153,5,0,-95,
110,15,104,-77,
186,-116,28,59,
-210,116,88,14,
-44,133,119,-14,
40,171,-23,125,
-166,35,72,-5,
34,-159,70,-119,
-1,212,-32,-103,
-55,-75,82,-25,
-104,-29,24,-13,
102,-30,28,-65,
-71,26,-30,29,
41,10,65,-29,
92,67,-108,-74,
