19,-120,98,-151,
-113,-13,34,84,
44,251,-24,81,
-85,-57,93,-162,
-174,-166,127,-74,
-91,264,57,39,
-19,97,-129,-14,
103,-260,-117,-89,
95,79,-62,-38,
-116,81,-81,53,
-82,123,-64,-3,
82,77,161,216,
-33,-66,-38,-35,
58,-92,-47,22,
17,-227,102,175,
-91,100,23,-106,
-142,-68,66,-108,
-27,66,-74,201,
44,-337,72,15,
-39,203,-17,19,
-39,-39,101,-224,
-67,-178,19,80,
-77,-152,21,195,
35,-178,73,41,
-42,-4,-46,-204,
136,-35,-92,3,
133,-11,165,-216,
244,211,-86,38,
56,-52,-57,-200,
-44,229,-194,-175,
100,121,130,-69,
-39,-199,-134,29,
146,-62,115,111,
-11,-146,-18,-192,
-19,91,-211,-12,
-12,250,416,79,
-61,15,133,-41,
-62,48,7,21,
-148,-225,121,213,
100,150,125,-166,
-7,-151,235,17,
59,-171,34,170,
50,150,-27,208,
-44,82,34,81,
2,-84,-213,3,
-76,242,293,16,
129,-104,128,47,
-174,-107,-153,101,
4,-7,-16,68,
195,-222,49,-102,
-4,-31,-113,-175,
26,-44,-148,-63,
37,80,35,86,
4,48,-73,68,
113,-135,-86,-1,
70,124,-114,156,
-144,-262,11,-236,
207,95,-106,-24,
16,-54,153,-9,
82,19,110,206,
-116,207,-53,111,
25,-104,268,-63,
-123,103,-93,25,
-109,-310,-63,204,
-250,-71,0,82,
157,94,-98,182,
71,-39,-16,-123,
32,75,7,-157,
-140,38,15,-59,
-56,171,31,66,
-31,87,-58,-97,
114,-248,-71,-229,
-26,141,-85,-274,
-116,4,31,-82,
-114,30,-54,64,
-56,91,314,-19,
-78,-46,-46,-39,
-38,59,-92,-86,
-20,-106,-181,88,
-163,-129,-50,-112,
-101,-168,2,49,
81,-5,-1,310,
-210,-356,-104,-29,
59,40,-88,28,
118,63,32,-101,
-1,-55,-137,-281,
88,-46,26,65,
-135,-231,276,-158,
-31,-69,-299,-93,
102,-103,110,43,
101,-140,138,2,
46,14,21,-320,
-34,-178,65,-41,
-256,13,164,-66,
223,-23,14,92,
154,-40,85,143,
31,-112,-72,-39,
-70,-70,-67,-289,
147,-16,-3,-82,
-161,-1,-68,199,
151,250,-5,7,
100,-176,102,-89,
-112,-250,288,-62,
-219,9,279,-38,
-82,-30,-68,127,
-57,62,-176,39,
37,-22,-28,245,
49,-74,-114,22,
111,-211,-85,60,
20,156,19,119,
141,173,-1,245,
197,-105,-11,-121,
43,56,-151,-17,
75,-175,-38,147,
126,-8,-117,-43,
-117,-67,-128,-219,
253,-33,-15,16,
48,269,203,-220,
75,-11,17,-31,
-43,2,74,180,
-126,-263,82,66,
-8,95,-7,202,
132,-43,261,150,
-46,9,96,241,
80,218,64,146,
-108,78,59,147,
-40,32,-111,-9,
-26,-226,-57,-27,
30,33,-185,229,
7,267,-62,74,
25,120,-119,32,
54,-239,-143,-160,
-134,23,64,55,
-14,185,132,135,
-32,58,-262,-4,
227,-207,0,135,
-52,-69,-18,75,
-154,95,-9,42,
-60,-103,144,174,
7,98,71,-71,
-4,-120,-39,113,
115,-84,-129,-65,
-137,14,25,-117,
-20,3,48,-129,
-95,-84,43,-246,
-36,-63,-161,323,
-51,-230,-209,-41,
20,97,-7,-10,
134,0,174,22,
-123,-99,-79,18,
-90,-178,115,204,
18,30,65,343,
149,-21,-123,-272,
170,-35,10,83,
94,2,34,-17,
-89,95,24,-120,
20,-169,-191,-149,
-10,-96,-139,-210,
83,-7,156,-78,
30,-66,204,330,
-14,-20,-39,-102,
33,28,-93,-306,
0,8,-264,65,
-69,96,96,-7,
130,-37,87,-231,
28,-38,105,-160,
-112,-214,63,-46,
-41,-44,89,-137,
2,-71,24,-25,
9,-247,60,-130,
94,85,-29,193,
99,34,153,-117,
67,-214,21,-25,
-53,79,344,242,
-100,134,245,137,
-24,160,-265,-140,
4,33,-85,145,
35,-119,-71,84,
-64,-69,120,-86,
113,171,-118,-414,
61,-91,1,-267,
168,-29,169,-41,
-30,-7,52,-63,
-143,53,-1,196,
-3,17,72,238,
98,-59,-9,-64,
36,24,150,160,
-40,-100,75,99,
-64,172,-7,-212,
-22,3,-64,138,
40,-71,193,28,
100,-207,-50,124,
244,-177,70,-59,
-89,-153,71,-45,
62,71,85,-77,
19,-139,-36,69,
107,-155,-53,95,
64,255,182,212,
-44,-96,38,66,
-95,-139,-91,25,
103,-160,12,23,
64,-65,-141,-140,
138,139,-250,186,
57,-85,304,193,
-25,-48,33,75,
49,-220,123,-86,
53,22,280,-115,
170,-56,-14,180,
0,-184,174,224,
-43,-126,-140,-74,
-3,-381,107,124,
181,-13,136,100,
-56,-26,69,-141,
-9,85,54,-209,
9,-215,69,-123,
-169,-62,128,212,
-5,-155,-222,-75,
-53,209,-195,4,
-223,-84,67,-35,
36,139,-9,-66,
-19,271,16,-202,
-13,-74,-183,13,
-18,312,256,48,
-24,174,-133,-40,
-30,36,51,-92,
-183,-148,-107,-62,
-100,52,22,225,
46,51,336,173,
-59,316,-12,118,
-46,-138,95,-182,
162,-149,191,-90,
-19,-126,88,31,
53,-55,0,14,
-74,-54,156,184,
97,184,-48,112,
60,170,50,22,
57,-231,220,6,
8,113,277,94,
-102,-38,134,-47,
-91,-73,50,62,
-123,142,97,-16,
-2,4,-135,-23,
-160,-184,182,15,
224,-46,-142,-155,
-123,29,146,-155,
-24,57,-157,-167,
-18,23,184,-142,
30,-140,122,48,
24,-227,-153,-31,
15,-71,73,-11,
-88,-107,66,112,
-44,187,-11,115,
30,178,100,-62,
-9,-253,-63,104,
-43,-41,62,37,
-178,-108,16,-28,
208,-252,111,43,
-169,23,-50,33,
229,70,60,145,
-21,-83,-220,-67,
68,-44,243,55,
134,307,-29,247,
41,31,81,-117,
-11,93,-86,147,
89,-280,-82,-376,
117,198,-61,-288,
47,-74,212,194,
132,130,-47,27,
139,-51,-215,-30,
-66,-122,91,-137,
-15,53,-7,90,
31,-203,-171,289,
224,-37,-61,104,
23,-165,-187,-278,
-14,-227,22,-61,
123,117,-90,186,
143,-48,221,-31,
-174,-46,207,-262,
6,-13,205,-84,
10,27,186,113,
163,-71,-4,-121,
-145,-96,-173,78,
-46,-68,202,144,
-237,79,20,30,
-55,112,80,-122,
208,-42,74,-105,
-141,-47,129,34,
5,47,-9,60,
37,-136,-206,15,
3,-266,-383,-80,
-61,-133,64,13,
170,73,164,137,
-181,220,-58,199,
84,-323,3,-257,
37,-43,19,-204,
306,94,-90,-43,
4,152,-54,-3,
-2,-263,-107,146,
120,-38,129,45,
-40,-63,18,-29,
-137,-43,30,-36,
-44,114,152,75,
-97,184,-130,24,
-221,21,155,-57,
-88,151,114,29,
14,70,-111,-45,
-53,-64,75,-68,
170,-113,-153,-82,
-187,-10,-184,-87,
93,-67,187,-102,
-64,126,74,-2,
91,-59,134,120,
140,-199,-5,-3,
173,-61,-87,-50,
-216,-46,-144,74,
-125,303,-37,-143,
-109,89,-168,-116,
-121,-263,119,53,
-22,-138,6,155,
-77,-176,-23,27,
-63,-179,154,223,
149,181,184,-58,
-53,69,-6,78,
-135,-211,-113,79,
-45,-232,171,-84,
105,280,65,53,
121,157,-135,187,
-96,-24,24,-81,
121,-178,-65,-190,
128,2,81,262,
-35,-107,119,158,
23,49,145,117,
18,-78,6,75,
-23,-115,119,155,
129,9,137,151,
-111,57,10,-13,
-105,-24,243,-43,
-258,-161,-103,-372,
-61,-175,-63,79,
22,109,-112,-140,
26,104,1,-40,
31,-22,-69,50,
59,-125,-5,-31,
53,-120,16,-52,
26,-8,-97,-115,
-55,5,46,-104,
67,-74,-44,-174,
92,174,-38,-261,
3,7,87,-191,
-64,28,-92,-186,
-122,116,139,-42,
-68,104,136,-108,
-67,60,-2,-27,
107,-52,-41,191,
96,-134,-88,-136,
-16,109,214,-99,
-4,172,67,386,
-124,-39,177,-174,
111,-113,0,285,
-152,89,-55,-161,
-26,146,-175,35,
27,-61,147,75,
-61,32,-11,-99,
-66,-35,177,-231,
-84,82,-78,15,
42,-24,32,64,
148,93,8,241,
-67,-86,-83,-14,
-58,212,-63,-85,
54,215,34,257,
-102,-164,222,87,
12,-167,180,0,
123,-77,69,169,
-172,168,-51,-46,
24,173,-70,132,
133,34,-135,92,
11,-33,-105,-103,
156,-99,27,72,
47,-11,-81,-139,
-113,258,278,37,
114,174,-212,40,
-49,-383,-113,-21,
64,19,-44,115,
18,-217,99,-45,
-232,-84,58,16,
-60,-21,82,162,
-26,208,89,-119,
-68,-26,-232,-200,
137,-160,8,7,
-169,337,329,168,
-148,33,-229,214,
146,-257,-40,94,
-138,-156,-19,-86,
-81,31,-180,131,
41,331,59,148,
21,-30,-56,57,
-222,-243,46,-290,
-67,-41,52,63,
-55,54,201,-79,
45,-249,-145,69,
-91,-253,66,143,
-75,69,-107,-76,
-108,3,-15,-10,
-30,110,-37,-13,
14,14,-89,-167,
108,-136,93,-1,
-1,85,72,-163,
-39,-195,205,19,
-94,-16,-68,-336,
199,367,41,37,
-127,-115,-277,97,
30,35,-188,-30,
81,-58,-14,-152,
-65,29,-128,8,
-21,5,552,210,
123,-17,40,-6,
-10,183,-190,134,
-176,-148,-231,-26,
-42,7,78,13,
-115,-10,167,-120,
-133,115,-43,147,
19,-161,111,70,
14,-105,143,145,
-137,59,-67,15,
52,147,44,97,
91,-89,-29,-52,
-87,192,117,181,
15,-74,-184,13,
77,-264,105,-49,
39,130,195,52,
34,-10,-30,24,
176,-102,86,142,
119,86,-30,-80,
-23,30,-2,271,
15,-130,-107,20,
-199,83,-200,-388,
123,-86,-68,32,
-18,156,-235,41,
-51,-108,-134,-157,
-130,20,105,106,
-88,-109,-214,-134,
-140,198,80,-71,
61,-116,151,81,
40,39,6,243,
-208,170,131,-46,
-50,-137,-73,-57,
104,61,-62,-3,
74,-114,-78,16,
-266,63,-16,-79,
95,29,18,-43,
-4,167,249,-197,
-113,-41,-118,-121,
165,-23,2,-160,
-71,406,77,31,
-87,12,-98,-21,
41,-25,-172,115,
-270,-118,114,13,
108,88,137,36,
84,-54,223,221,
-116,15,238,-3,
-80,-62,-261,-235,
-99,-45,43,57,
-97,132,47,-164,
229,-350,-285,-42,
-12,3,-150,-23,
-131,-35,257,-46,
-66,59,-52,-252,
-42,218,183,-23,
-201,-290,113,-156,
181,-198,-69,239,
-113,86,272,-40,
-42,132,63,-42,
-51,88,-195,-119,
-54,15,4,41,
-56,-96,-186,-119,
-129,3,204,-144,
124,-96,116,194,
-86,174,97,-168,
64,-97,110,-44,
164,87,-9,125,
-131,-28,58,59,
-164,-73,-155,132,
157,-5,-126,56,
-84,5,62,-184,
190,177,-25,290,
53,-226,-104,107,
28,-165,19,125,
-273,-169,16,143,
-40,-77,93,19,
-91,-37,228,45,
-69,94,234,139,
83,91,-122,-250,
-41,-251,-178,231,
7,74,105,100,
68,22,12,-169,
35,-177,25,19,
149,234,-22,-21,
-128,-145,172,183,
146,-50,51,-152,
-58,55,-1,-203,
72,-203,16,43,
1,174,-82,-84,
-113,220,-13,-187,
18,3,-243,32,
-132,-28,-130,-175,
-112,153,43,62,
46,-229,-128,-66,
97,144,44,-1,
-75,-10,310,86,
-99,34,-5,-41,
-80,156,116,22,
50,-346,-38,156,
-154,171,16,18,
28,-12,298,118,
83,166,50,29,
-66,-100,-215,-119,
143,-59,-82,-118,
-86,217,24,-17,
-150,-41,-4,-50,
-3,-120,-120,-62,
172,-40,-216,-5,
74,183,6,-97,
54,-53,269,216,
31,57,7,172,
184,-30,-212,11,
104,-91,134,151,
-190,104,183,63,
139,-142,-35,-162,
28,-26,141,99,
254,87,216,-145,
65,-184,241,-62,
38,-38,-11,-131,
-30,-110,-117,-119,
-115,-146,151,176,
-92,-46,65,-134,
20,145,-30,-65,
104,13,-108,-165,
175,233,156,-54,
125,-46,-122,-96,
-45,68,96,-124,
99,-46,-37,36,
6,105,67,91,
46,31,78,132,
7,104,235,197,
70,-158,22,139,
-122,-244,-180,-49,
-82,-62,-67,-19,
-39,-31,-155,-44,
-89,132,-105,230,
-35,66,-76,258,
-69,-134,93,131,
-25,-220,-10,26,
31,-1,-39,123,
-151,-163,44,175,
-52,225,33,79,
35,178,25,-16,
-50,-220,-81,127,
21,185,-47,38,
-52,118,17,94,
-32,-42,86,1,
-104,70,-61,150,
-40,-9,-170,21,
44,33,24,-125,
72,77,-275,6,
65,-173,54,-30,
150,275,-19,125,
5,-17,-9,-188,
-34,198,98,58,
70,-114,-71,-202,
-193,44,87,-166,
31,3,-48,-261,
-180,186,218,-87,
243,130,19,139,
37,-22,81,-259,
-3,68,-80,101,
45,-64,145,46,
155,88,-60,8,
-37,-38,73,-3,
4,-81,18,-63,
-17,-116,-17,-158,
-114,86,-57,34,
-81,-61,-81,61,
-80,24,12,-59,
146,-159,-26,16,
217,85,108,64,
-202,39,-68,51,
-38,53,14,82,
17,213,-84,135,
69,35,122,-94,
-60,192,-101,82,
-67,25,-110,90,
-44,87,-242,89,
-156,184,-20,-31,
-122,-183,-254,201,
-134,-47,-38,-79,
-19,-17,-53,-32,
-20,-151,29,22,
-44,43,-75,-113,
-54,238,54,35,
45,-156,-108,-103,
-126,105,35,-41,
230,-113,223,-73,
59,41,-13,122,
-162,-137,168,-91,
-166,341,56,-54,
-6,77,-8,7,
-47,-2,-213,82,
174,83,56,16,
64,137,10,-51,
57,-170,-30,-87,
-99,74,24,-50,
56,211,-144,120,
-96,76,53,-45,
-83,-174,-110,20,
-32,-26,9,14,
74,-113,39,32,
26,4,82,-31,
-77,24,25,-30,
3,-14,123,22,
118,-57,-1,153,
126,-51,59,-114,
-9,25,144,-21,
228,60,157,-7,
-129,-57,-73,-80,
-10,-141,40,-9,
-189,123,-38,38,
-88,42,63,11,
-118,-133,-202,38,
-78,14,-121,55,
95,-109,-252,-106,
-66,-153,-255,-51,
19,-75,9,-84,
39,-15,53,-108,
132,3,147,-44,
-104,-80,37,32,
54,129,107,-44,
84,228,-73,-57,
235,98,-2,-3,
172,33,-84,60,
-254,-84,12,31,
-48,116,-198,129,
6,-1,22,-5,
205,-26,-65,75,
-98,-137,103,-144,
-16,-46,-189,266,
61,81,-7,-19,
28,-43,-38,24,
135,-21,121,-186,
-115,-116,-282,136,
136,214,-107,76,
-191,-97,-37,-24,
6,253,-28,-29,
-80,-132,13,15,
26,80,14,128,
-67,-8,16,-296,
-106,-8,-269,222,
13,60,-68,-96,
-152,-33,-134,139,
110,53,-13,4,
34,56,-19,157,
-189,-125,54,-71,
178,103,66,0,
197,-57,30,-108,
-105,-43,-220,-121,
-227,-44,-25,92,
35,-11,136,-160,
-46,2,-87,-19,
79,-147,2,-100,
270,19,153,-154,
-105,-174,-64,11,
189,1,16,41,
127,80,181,-116,
-200,-100,5,-135,
-23,-326,-81,7,
37,-82,-76,-81,
144,67,-43,23,
40,128,205,-190,
-154,59,-23,84,
37,42,-56,119,
-209,-112,-29,233,
149,-13,180,-214,
236,-74,92,23,
-107,56,110,48,
-55,123,214,-259,
71,-18,222,-227,
26,20,-60,40,
223,-11,266,-341,
162,-95,32,-163,
57,-25,-10,-55,
-13,-42,59,93,
34,110,-111,78,
76,56,13,26,
-155,-58,-89,-34,
-66,-99,65,200,
-133,-127,-187,-62,
-146,34,-111,94,
-53,-91,-181,148,
-24,79,-27,38,
20,11,99,-155,
46,74,244,-126,
50,172,-346,245,
-61,27,-35,162,
54,12,-162,168,
-3,-88,-68,-203,
107,50,-208,-42,
49,70,110,44,
-40,84,-137,119,
115,33,-16,-26,
17,-74,-33,87,
-29,50,-55,-2,
-103,-58,-95,-25,
-72,170,277,-95,
12,-21,-154,54,
-79,-68,-33,107,
-65,-79,67,78,
84,-11,83,45,
-104,-40,174,10,
-68,-36,-121,-95,
158,29,68,-153,
-82,-144,79,-136,
34,-162,100,-117,
227,48,-100,108,
49,23,71,229,
61,34,-88,136,
-86,76,204,-159,
13,129,110,-3,
75,160,-155,72,
-118,56,49,14,
184,22,112,-1,
47,83,-29,-74,
95,79,20,-109,
-76,-70,-156,-42,
39,-47,141,-96,
-122,-71,33,-62,
23,-45,213,46,
-62,-194,70,-56,
155,-72,-78,-117,
-57,-89,-72,-110,
65,199,5,54,
-49,-86,-13,107,
-140,-35,23,-183,
-54,16,-13,-19,
-79,3,56,76,
54,21,-155,144,
16,20,61,-112,
-199,-56,98,33,
25,-60,10,14,
154,-81,67,-184,
39,176,272,-55,
68,68,-216,10,
-250,-55,115,-85,
35,-28,94,59,
-88,199,-26,60,
44,-25,59,-64,
28,74,75,26,
-57,41,-17,-185,
24,124,23,43,
68,1,-91,-14,
42,81,-169,-64,
22,71,-21,202,
-19,-19,28,-25,
43,111,-178,-122,
-203,161,99,-99,
70,-118,187,-67,
-27,154,-114,210,
130,-29,-4,139,
-111,-12,166,90,
-96,-10,107,-54,
107,-95,74,68,
-128,-58,40,-21,
-111,-27,113,16,
85,-139,-79,19,
-1,-25,43,-95,
-27,32,-103,53,
90,-84,0,171,
130,50,-95,78,
28,-55,-76,-13,
-72,37,-45,-56,
65,-14,-39,25,
56,193,48,-133,
24,23,-74,-51,
-115,132,101,4,
-203,-26,19,-58,
4,144,95,50,
83,315,11,31,
-5,-13,52,-136,
-200,127,45,-59,
32,1,125,-209,
-108,112,-98,57,
-25,79,-62,-74,
-148,221,59,-67,
-2,-94,63,-162,
-3,-15,-36,66,
144,-63,139,13,
-68,56,-13,-127,
-100,-142,-130,-21,
-190,303,-164,-44,
-31,62,15,68,
-78,-79,-24,-19,
53,-29,-115,-1,
89,101,132,74,
90,-20,-80,-121,
26,227,-59,-130,
63,182,11,-161,
-80,112,-179,-84,
93,-32,-112,-121,
55,-103,-14,2,
112,-212,34,50,
-45,49,-180,100,
-111,-137,-85,58,
89,-60,34,110,
13,46,-152,-136,
-61,-11,-111,184,
83,63,125,-64,
-25,-22,30,155,
34,-193,33,-56,
-63,-71,-307,104,
55,-1,-84,-27,
-17,100,18,51,
53,-190,64,-84,
88,110,-117,56,
157,163,-49,-41,
-19,-164,216,-92,
116,31,139,97,
194,-1,88,25,
239,71,71,-113,
63,-159,16,45,
-32,282,-153,230,
-8,32,175,-122,
12,57,92,-90,
40,-117,7,6,
-199,-168,-67,96,
-125,109,160,-336,
98,-231,-32,-122,
38,79,47,-161,
-173,-123,-15,92,
-83,-136,89,-281,
-31,12,28,210,
-83,-79,89,-64,
150,-126,-81,553,
-155,-293,-84,-248,
2,302,-120,-171,
-85,-69,49,118,
-51,198,-7,-34,
152,-65,-66,-147,
39,15,192,-45,
-119,84,-131,232,
-53,-24,-15,36,
19,183,-158,193,
-71,14,-149,-185,
-117,177,-10,-127,
-39,94,114,-130,
60,11,-75,212,
-30,-23,-192,-37,
11,60,-21,-81,
-135,-15,40,-170,
-66,-29,111,-91,
-117,-28,155,-106,
-82,-129,-140,-18,
137,-116,52,92,
361,224,-104,287,
-135,-132,-74,-84,
30,-105,-115,113,
120,44,78,-45,
-163,3,122,-118,
-3,-260,-125,88,
-121,148,31,-65,
171,72,-107,-81,
63,108,-34,125,
-90,-131,-43,-133,
69,242,51,-104,
-284,-30,-81,-188,
-123,83,-107,133,
80,30,181,2,
32,13,57,-16,
-80,-170,-27,32,
79,98,64,193,
-101,3,195,-117,
225,-100,-129,310,
83,-162,-122,196,
16,55,45,117,
13,-69,-329,451,
-56,154,132,-259,
45,-123,-80,-133,
-162,216,-114,43,
-137,59,-71,-120,
-77,-127,-9,-81,
113,89,208,-13,
66,-201,141,-16,
-69,164,258,-175,
122,64,-103,77,
-94,185,-113,234,
0,189,272,-164,
-288,-50,-26,-210,
47,116,-54,-435,
153,-119,-37,127,
221,19,23,12,
53,208,150,93,
-50,18,-46,31,
-104,182,-55,-65,
85,-216,-69,4,
75,343,88,13,
-107,-276,79,58,
-255,83,11,158,
-11,-2,25,-200,
51,-19,-137,49,
93,90,-167,157,
46,47,-18,233,
62,-19,59,-29,
-75,247,27,-60,
63,-51,-62,132,
-209,-186,-90,80,
-60,15,-10,191,
22,-97,-279,-63,
26,83,32,-23,
-30,107,14,14,
59,-98,18,75,
4,-102,-77,31,
-16,83,-12,-94,
-37,297,-75,15,
97,17,-95,1,
72,229,98,32,
111,-240,2,72,
-107,-101,8,85,
-144,90,-17,100,
-24,-27,-146,-68,
152,-15,-134,100,
-80,14,160,-75,
89,-102,11,133,
65,-235,-103,62,
48,8,-58,115,
-46,260,9,15,
-67,-57,-118,86,
80,160,-75,42,
-121,112,299,104,
-201,307,-153,-119,
-175,192,-82,96,
97,36,-29,-98,
65,-1,147,79,
-25,45,23,-28,
-33,112,61,46,
40,5,107,6,
-244,-96,124,-157,
-133,50,40,-79,
49,147,106,-70,
-33,14,-126,196,
-105,-117,128,-26,
-111,-64,-226,121,
-61,-167,-153,43,
-98,19,-40,81,
-179,68,-178,11,
53,214,24,-128,
-65,53,-28,-27,
16,100,101,12,
-153,183,2,72,
-97,-138,149,43,
50,82,20,-27,
-51,24,-83,-1,
-125,54,-72,72,
142,-29,-166,-200,
86,31,-163,33,
-98,174,-150,185,
93,-196,2,135,
100,-92,-42,-24,
151,-29,-37,26,
-54,179,-24,-58,
36,-149,-5,-76,
-177,-92,67,-219,
115,-75,49,60,
-110,112,-27,10,
90,-190,124,-131,
-26,20,72,106,
-106,-15,-3,21,
32,56,72,100,
-71,-37,6,97,
-82,24,-83,-74,
-54,138,252,1,
-47,-116,189,170,
-76,-71,-102,27,
64,-65,-20,-48,
87,36,6,-85,
88,77,-16,-2,
-71,121,78,85,
-20,83,-91,18,
-19,-23,3,-97,
112,-91,-42,98,
-53,82,89,122,
-33,-132,59,-134,
-108,71,41,-94,
36,9,11,-29,
-25,-40,127,45,
-69,-21,-55,10,
59,70,107,90,
40,25,-26,38,
-28,67,-193,-87,
-167,26,6,35,
19,146,4,92,
166,173,63,62,
-71,-1,7,20,
116,-58,-16,19,
26,133,-30,-70,
-72,-10,-89,-149,
87,-13,-32,67,
17,-71,-113,2,
-72,-166,31,18,
114,164,51,-42,
-108,-56,74,16,
-42,155,-51,-67,
24,-44,19,-118,
138,26,148,-74,
-74,87,-26,-68,
-72,-107,30,95,
105,42,61,-52,
-15,68,66,-55,
-7,62,-77,7,
93,-74,-126,-47,
-151,84,-78,-45,
286,34,-70,230,
16,113,60,-105,
-70,279,-67,-12,
-83,-39,28,-39,
-146,-2,-7,14,
25,-69,66,89,
18,-198,26,-14,
-63,133,80,262,
244,-119,-48,-14,
73,-27,55,150,
-157,-86,-29,41,
42,71,41,287,
78,-59,151,-49,
8,-263,-136,-30,
39,-83,-34,-290,
-151,-151,57,108,
3,230,96,-13,
-287,-87,89,-3,
-52,-30,9,14,
111,-37,-38,114,
28,-98,55,-85,
-80,-10,75,7,
119,16,36,-134,
-90,-18,218,-76,
-107,-18,-10,109,
74,-50,-12,36,
-25,-21,-43,-1,
181,7,64,-4,
34,-100,80,19,
-48,-94,-17,-139,
-138,85,127,-2,
-91,-50,41,-74,
-96,44,-66,145,
-138,-11,36,188,
-98,-101,-14,-157,
112,4,-1,-143,
43,17,28,-4,
12,-53,198,17,
85,-95,-152,-48,
-295,-35,91,36,
-161,-46,86,38,
-208,12,-109,12,
92,-61,61,-47,
113,68,139,5,
-9,55,121,-61,
68,21,-87,17,
55,7,151,107,
-40,71,64,-135,
-28,159,-66,104,
-53,202,-9,-16,
-234,-33,-64,-89,
123,-21,-98,1,
-94,133,61,-59,
251,-51,-56,16,
-42,-166,19,-94,
-65,-15,-111,-84,
-3,241,-55,-360,
118,102,43,97,
151,-38,190,172,
-20,9,-32,-93,
-113,19,56,37,
44,20,-90,94,
-10,71,-147,-8,
129,-85,-31,86,
-195,114,-43,384,
184,-33,126,-78,
-60,177,-62,-36,
42,-32,-23,109,
-73,-59,-30,108,
128,3,86,296,
210,-33,-88,38,
3,-30,261,-23,
-151,105,40,-2,
95,-89,27,-13,
-11,-81,-90,-75,
-2,103,256,4,
39,-39,157,-14,
-72,24,-2,-107,
-200,248,-174,-83,
77,16,94,31,
94,-96,28,-52,
-27,-95,-36,-102,
47,-41,236,-43,
-8,-72,-145,132,
98,89,-30,23,
-106,114,34,64,
3,-80,114,-318,
139,-11,-74,-117,
128,2,327,-12,
66,-39,-3,-57,
27,-26,103,-40,
22,-62,-98,31,
123,-90,-73,10,
-84,-107,-173,116,
89,44,61,-8,
83,34,-104,5,
-41,147,29,72,
173,-43,211,-41,
-79,-140,-101,-45,
-113,133,-100,78,
-125,86,-38,-75,
170,-117,70,-16,
149,-113,-28,123,
128,-166,106,-75,
-107,147,150,-53,
-97,8,20,-5,
-48,30,189,-15,
-77,-28,21,-35,
-74,-57,-84,-71,
-64,22,-43,49,
-36,34,178,-12,
61,-50,29,-133,
81,-63,-73,56,
150,-135,72,-129,
-31,-82,-156,-3,
55,-16,-73,60,
24,134,-63,64,
-165,-262,-81,80,
-118,-42,-123,5,
-31,20,-64,-2,
183,-29,-250,-54,
167,-96,80,19,
67,-24,72,-54,
-60,115,-54,-241,
-99,-133,-16,120,
5,50,130,-1,
218,54,-141,63,
-113,92,4,25,
-33,20,19,69,
-87,56,-49,70,
-94,122,-173,-50,
-58,-42,224,101,
-104,-17,-36,-45,
-104,-22,96,23,
-9,234,-140,101,
224,148,238,-86,
-102,-18,87,-249,
-12,52,55,-130,
58,77,45,-28,
157,-217,-185,-3,
53,-82,-18,-3,
-66,85,-267,-301,
-81,24,-46,-69,
57,61,-78,87,
89,-203,65,314,
267,117,-38,-79,
-94,102,1,-87,
-56,0,-128,94,
126,70,51,-111,
53,107,-107,11,
96,-385,24,-159,
86,-41,-41,-28,
-14,-75,-82,-221,
110,-102,-112,-4,
-32,-284,47,-32,
-101,179,4,64,
-35,-149,54,-24,
57,-4,-55,-184,
111,50,-180,-101,
25,-83,-69,-9,
45,106,235,38,
-43,-123,-6,49,
44,45,-80,-17,
-87,-100,-82,138,
-57,-137,119,55,
166,20,-6,152,
91,171,127,-60,
28,72,-168,189,
-52,18,-100,-145,
18,54,-118,-20,
-29,-81,41,109,
82,-44,-76,-5,
-1,140,-120,-32,
-62,-104,-141,51,
-66,121,10,173,
-67,-60,86,-132,
105,35,154,102,
-23,55,-16,-152,
-30,-12,68,-24,
60,-55,88,-102,
94,216,139,-8,
-17,89,-96,-67,
26,-31,-56,-213,
11,-71,24,-114,
33,-147,134,30,
-151,8,-161,21,
66,-22,13,-22,
-116,61,-125,87,
-75,-79,-304,-6,
-60,-46,-177,-76,
19,37,-66,-99,
-100,-87,-104,51,
-16,122,-170,-42,
-58,-125,115,6,
100,85,-186,58,
44,10,-41,-39,
-20,19,-89,62,
43,-58,56,149,
2,-202,-111,0,
156,-135,203,-85,
7,21,7,-15,
12,45,83,4,
-75,-165,-32,126,
-134,-38,-60,-170,
-40,73,9,241,
-57,-59,-219,-20,
185,40,-91,-212,
6,-135,-119,-264,
15,-18,99,10,
69,-128,138,13,
73,-18,-13,283,
-129,53,112,182,
-36,91,90,3,
85,-127,-149,190,
-126,183,30,-102,
45,-105,182,191,
-27,-250,-226,-158,
-10,30,7,166,
-1,-30,-14,-167,
191,-96,-54,-27,
65,-77,39,132,
-47,-88,-45,5,
77,21,-142,-16,
68,-43,-130,-98,
146,-177,-60,-57,
-4,29,-27,-52,
-30,-29,41,-163,
-100,183,-7,-232,
-159,-6,1,163,
87,55,-89,-35,
-57,67,320,-54,
113,-292,-70,79,
48,29,-4,-326,
27,-256,6,-74,
-39,96,-145,161,
32,13,-59,36,
-61,-132,-62,62,
-24,136,-134,19,
8,-70,41,289,
-77,-47,-34,100,
54,54,-130,40,
-66,-14,255,151,
-70,37,-99,130,
-83,14,-34,201,
116,-171,119,130,
45,126,-112,-111,
86,7,-237,-86,
-47,139,-235,-21,
-49,49,-208,-170,
0,81,49,-116,
41,66,-102,-38,
-58,-20,-30,-124,
36,211,-126,6,
34,-175,-147,-134,
-60,86,-130,-92,
43,66,191,80,
108,7,94,-117,
35,131,64,-12,
69,-4,68,-63,
52,-19,60,-25,
-69,71,-109,-9,
-79,97,77,-77,
182,-51,-50,-10,
27,-94,181,-12,
-24,-43,146,-40,
79,-16,-36,110,
-86,59,-76,-104,
-10,-44,-58,61,
20,115,21,135,
34,68,-231,-13,
-7,88,229,-256,
-96,-99,96,-91,
68,-16,114,165,
-18,23,156,-199,
19,-88,394,-73,
4,54,-212,127,
83,-44,177,-6,
100,-101,-141,-80,
75,-97,-71,-80,
92,-6,69,-35,
-1,-5,-46,15,
110,-17,-16,-14,
-26,165,151,-273,
5,96,-104,115,
7,-5,216,-102,
-7,34,206,133,
104,-30,137,255,
35,88,-98,-175,
8,51,-1,-191,
-37,-22,-38,36,
-80,-91,-52,-45,
-13,38,118,-35,
-97,-66,-188,-51,
-50,-21,66,150,
77,47,330,71,
-1,-8,-135,-4,
33,-68,-138,-139,
-98,5,63,-94,
90,47,130,-165,
2,29,124,6,
-114,112,-243,39,
-5,-70,-73,-195,
19,-3,-74,32,
-56,0,31,78,
10,61,82,-123,
-31,70,330,-65,
-22,-118,-48,112,
24,28,14,218,
-104,89,184,49,
-2,-71,-80,-98,
21,-73,-373,-257,
6,-76,133,-52,
-54,137,-74,-36,
-36,63,-89,-23,
-7,109,-91,-32,
-34,19,103,-217,
-37,6,51,-179,
-51,91,75,-34,
176,105,20,-44,
-30,-28,-130,-94,
-11,-152,94,-146,
-1,-27,317,90,
-35,-154,-188,-16,
21,15,96,93,
67,-3,-108,20,
87,-161,-29,32,
57,36,-30,-157,
167,356,-120,-201,
33,-231,145,109,
84,-51,-191,100,
-131,2,32,-19,
266,68,28,172,
-78,-89,-190,-20,
174,74,15,114,
-104,-531,-102,-125,
-30,227,69,-213,
16,-163,128,-24,
243,152,206,226,
133,-131,-7,116,
-179,102,-10,-61,
-109,-48,-115,168,
-42,56,-71,-21,
199,1,6,-56,
77,135,-33,41,
36,106,-86,10,
15,137,-34,-301,
107,-257,107,118,
105,-230,76,-56,
167,84,-25,134,
-51,-195,3,-5,
46,-144,-6,80,
-70,66,-46,-180,
-81,200,131,17,
178,-54,-196,-46,
36,-225,3,-131,
-217,-199,-108,-33,
-205,50,-30,-109,
0,9,-21,161,
-92,-80,-268,15,
-70,110,-25,-7,
226,-70,54,-26,
-46,69,48,-63,
-14,-63,69,-19,
32,-313,-27,175,
167,100,29,-199,
-187,-62,-20,60,
60,113,-78,86,
-261,69,35,-140,
-4,-16,-179,-27,
24,280,-100,-106,
86,-259,-158,145,
80,4,24,-138,
223,305,-92,-19,
189,-108,-185,-31,
-65,-154,90,83,
36,-7,109,96,
-166,-370,40,129,
-22,-141,82,87,
-18,-90,-31,-75,
48,-131,-64,149,
227,194,-173,-290,
-18,21,-161,7,
-41,100,103,60,
-66,119,37,25,
-12,95,-81,-147,
-13,-8,-161,-61,
-162,64,-73,147,
225,298,-6,154,
-160,263,-8,72,
-17,282,39,-49,
227,-425,68,-21,
32,-292,-62,-183,
67,260,-98,-47,
-31,-34,39,15,
-7,-3,-45,-40,
-112,-348,141,-36,
-82,143,110,190,
-86,-48,-65,-110,
0,358,-170,62,
3,-159,63,-173,
102,-9,44,-40,
-50,-148,145,137,
14,-24,-73,-121,
-175,74,-43,-110,
-216,57,3,80,
153,11,176,114,
-36,-73,153,-145,
-195,-122,157,-94,
-195,-255,-1,9,
-43,56,-143,-36,
261,-15,-167,99,
-33,19,-117,-180,
194,-72,207,-28,
-275,193,-157,-38,
-106,67,37,132,
-13,-210,-141,-96,
-156,-61,181,183,
188,-203,-237,-120,
-282,161,118,-119,
-368,337,-203,120,
-187,-104,70,90,
-149,-16,-139,243,
-84,180,-58,2,
-17,-97,-14,34,
-107,-339,-8,-30,
-8,-124,19,31,
168,93,98,0,
-83,175,-32,17,
49,18,-37,-210,
75,195,80,-22,
-130,-180,66,-7,
-355,2,-58,-42,
206,149,50,50,
152,-53,-86,-139,
-58,-59,65,55,
-68,-30,17,-151,
118,-32,85,-179,
297,388,-41,57,
77,201,230,-102,
12,121,42,-79,
-148,117,-159,-24,
-7,29,-23,157,
63,-344,-186,-196,
100,-69,-14,84,
153,-218,17,-271,
-273,-145,-144,-195,
-87,54,107,135,
-10,-92,-47,-154,
116,-10,9,-49,
-178,-29,-2,224,
23,93,183,229,
198,-35,-118,-193,
1,-238,-54,33,
-56,-74,92,124,
115,25,49,61,
-81,25,-35,-22,
49,-99,29,29,
75,-61,-195,116,
-101,73,-239,-135,
-137,14,-32,120,
-26,-43,291,-100,
-62,-97,-136,68,
102,34,34,21,
34,-78,28,-206,
-65,104,8,96,
3,-109,39,181,
73,9,390,20,
-253,-20,-304,-5,
36,34,-31,73,
-19,-44,-289,89,
-55,-26,-192,149,
131,56,0,66,
-162,-25,-220,88,
168,11,-189,-111,
-65,65,119,85,
-73,104,-126,181,
-91,77,-45,-56,
63,-107,171,-66,
95,-11,-281,23,
-105,30,-318,-40,
112,164,20,75,
-26,-14,-231,-114,
34,-79,-192,12,
-47,83,239,-58,
26,-8,-28,-66,
53,-35,30,206,
242,-70,84,98,
-55,-44,26,-110,
-23,-17,19,-88,
-56,-13,-175,15,
109,130,103,39,
-163,136,-3,80,
5,10,161,-212,
-72,-12,423,77,
142,17,416,57,
-56,44,-119,7,
-14,74,62,20,
-36,110,132,-110,
-56,-29,52,74,
55,107,301,117,
19,-69,172,-43,
87,-62,2,-42,
-4,-34,-128,-207,
-16,-69,2,181,
-87,203,-22,178,
-195,99,98,3,
30,-10,-72,12,
-76,37,13,150,
-80,-29,226,-219,
-163,100,48,0,
148,86,95,300,
89,3,-240,-129,
-72,-51,69,120,
-23,35,136,171,
44,-92,216,207,
-57,-85,161,70,
-165,90,-239,-75,
51,-40,235,81,
-23,89,-1,-45,
89,-32,31,98,
-62,-47,-110,-31,
208,45,154,-37,
7,-162,-19,-333,
-154,84,-159,-40,
-66,78,36,195,
119,-118,8,197,
99,-100,-51,127,
-44,-93,126,-29,
78,-194,14,-97,
-48,-14,135,-93,
87,-51,247,149,
126,-66,45,-76,
-83,-39,15,139,
46,101,-40,-14,
168,17,-20,-114,
76,-29,103,69,
36,113,175,28,
117,-105,-146,-64,
142,121,138,-14,
56,21,-37,-24,
73,20,117,-163,
27,-16,113,66,
64,-117,63,-105,
-21,20,104,-278,
-199,122,-75,-26,
-200,73,-60,207,
111,-127,-20,105,
-37,-116,-46,-157,
-106,-246,-8,-14,
23,126,12,106,
149,-28,57,-10,
93,-58,64,61,
-145,7,-88,120,
-324,77,105,-139,
130,-71,102,127,
-112,-18,-9,60,
152,-81,-128,-389,
123,-33,-10,-183,
123,-70,211,7,
-20,10,66,2,
-50,-83,23,217,
-43,16,-17,69,
1,-112,-145,-201,
144,-7,-63,-149,
141,99,-119,15,
215,94,40,-73,
-49,35,30,-55,
-116,-222,2,-49,
133,62,33,143,
-198,-202,137,-91,
5,-22,-120,-201,
-128,-129,81,-166,
271,186,35,9,
-53,-90,83,343,
-167,106,-103,73,
-112,-66,4,33,
-19,-6,-46,-143,
75,51,25,35,
14,19,-68,226,
220,-104,161,19,
-160,-90,110,-40,
87,-47,84,83,
79,-249,39,-75,
-6,102,-73,-118,
131,-17,-184,-112,
-10,-41,-30,39,
73,53,-188,-203,
-304,222,-67,-89,
-3,-14,49,113,
-49,64,73,195,
65,-37,-58,-59,
-34,18,1,-160,
-26,107,-52,16,
-61,-153,-52,-27,
102,140,21,37,
-70,-16,138,-100,
-29,-70,-57,5,
-26,-52,-68,6,
120,-61,-158,-65,
137,-57,-6,88,
1,17,68,-175,
-81,103,-84,0,
264,11,-26,42,
65,-74,55,31,
-45,-32,70,-156,
-58,-59,-195,49,
-10,43,82,-55,
-169,32,63,-312,
-107,22,-135,66,
134,68,-190,-88,
11,5,28,93,
-117,-5,-21,-44,
-50,6,-88,-10,
-69,-4,-68,-14,
-24,-5,39,46,
89,156,-63,161,
-118,-51,-104,100,
-62,95,121,-230,
-55,-95,-22,45,
-118,205,-28,69,
50,192,-3,-153,
198,-162,-18,-19,
-21,-156,102,48,
27,84,63,-134,
-58,-5,-36,56,
-66,20,-211,279,
-117,-139,-36,-3,
155,-3,55,28,
185,-45,58,164,
-129,-174,57,-98,
57,-168,199,-35,
-58,-166,-43,-6,
64,-112,201,197,
-112,-85,-1,-23,
104,112,-63,-72,
159,73,74,72,
-41,-107,-41,-44,
-63,136,-106,274,
-206,-97,-90,115,
-96,174,-20,39,
-79,192,-5,8,
69,97,-26,-164,
-137,-63,93,187,
20,153,-38,106,
-70,63,-205,-72,
-7,202,86,-74,
-119,63,23,22,
-64,45,102,14,
-54,29,-41,-3,
4,22,121,-81,
58,7,-201,-220,
-35,-149,0,16,
-14,57,315,101,
8,-62,4,97,
131,-10,-133,-25,
-1,-14,-279,-38,
-100,36,-94,145,
-110,-83,26,-74,
18,65,266,151,
-83,90,-74,92,
-73,-51,-262,18,
118,-35,22,-39,
44,-155,87,-168,
151,-22,-1,-122,
-89,-88,-5,11,
140,-8,-94,-137,
72,38,176,-39,
0,28,130,65,
16,-71,171,10,
32,45,57,107,
9,74,86,-174,
29,83,-125,-206,
-17,135,29,-109,
61,-101,-185,82,
48,5,-61,68,
-127,203,-52,170,
-35,11,-121,-105,
-40,-24,152,245,
-12,54,179,-4,
27,-125,-243,-112,
-63,65,-207,200,
16,-64,66,-304,
-43,35,193,31,
139,-32,131,9,
-58,-40,-338,35,
88,40,-53,31,
54,-44,-111,203,
-106,40,-77,66,
-77,27,139,-73,
-32,-71,-183,122,
-166,-93,-57,-82,
-13,-50,51,26,
36,-25,65,40,
-24,108,-82,-58,
-13,49,-161,60,
-57,-31,-61,138,
12,54,155,144,
-171,-19,-67,127,
138,69,-231,-64,
75,-50,-73,-47,
-17,-41,78,36,
39,-86,288,-33,
-59,116,-78,61,
72,-95,-193,-72,
-47,-11,123,118,
51,57,153,-154,
-36,42,164,86,
-138,-4,-56,41,
10,48,-30,-45,
19,-76,-239,245,
-76,114,63,12,
-48,103,-51,3,
115,4,38,61,
57,199,1,-80,
3,-349,51,58,
111,116,35,185,
-4,300,-59,109,
-8,21,-9,-49,
-67,77,39,48,
14,-237,131,-77,
-3,-177,-1,-5,
-70,-90,-51,150,
32,242,-8,130,
-114,138,-73,51,
-28,-64,144,-81,
-46,-78,-61,33,
-65,-187,-83,-76,
-12,-60,115,-23,
-139,-265,-66,64,
-17,192,-31,67,
45,178,-4,-100,
139,69,15,-10,
-82,5,0,-88,
-91,128,7,-42,
17,-72,51,206,
-1,-408,21,-80,
-28,265,81,-29,
17,-77,-26,37,
10,2,35,58,
9,145,41,-74,
-72,52,-73,40,
-47,184,-48,41,
-53,139,-29,-42,
4,-294,-14,-193,
54,-34,-79,-29,
5,-85,87,89,
-113,276,-121,24,
3,-68,-52,-90,
-41,-131,-78,-20,
-106,184,-20,-199,
47,-92,-94,68,
95,87,-100,14,
50,-1,-21,-87,
-50,96,57,-37,
-25,52,-69,101,
18,148,19,-90,
10,213,139,40,
89,-12,154,-136,
43,-58,-45,-100,
106,-231,-207,28,
-30,-79,38,-136,
-15,-90,46,-19,
-51,13,-21,-213,
155,-321,45,-100,
32,-160,17,-59,
-55,-52,49,-116,
77,107,54,-93,
-31,231,-109,-8,
-12,-143,57,62,
-119,-27,44,119,
-97,136,-50,28,
128,-52,195,-145,
78,122,9,65,
47,15,78,-159,
-71,81,-67,-48,
-17,-79,42,102,
206,-110,182,-44,
-41,181,17,177,
27,-189,47,40,
175,95,144,165,
-110,243,-12,-88,
72,-6,-60,-68,
-128,13,-26,-236,
27,-63,42,114,
-18,-44,121,93,
-30,-56,-12,-121,
-68,45,-65,117,
-34,-107,11,-35,
30,267,8,158,
15,108,103,-52,
-72,-179,-60,-26,
-107,86,114,-67,
-73,83,-37,122,
-92,147,-106,106,
122,-65,118,44,
89,186,47,-59,
59,-78,-27,1,
-233,0,15,15,
-90,7,9,80,
60,-94,14,-23,
-28,-35,-27,-122,
-66,81,-128,-47,
13,43,0,217,
92,122,38,-55,
-126,-37,-20,-193,
44,154,-50,147,
78,250,95,-124,
56,-114,-54,-61,
-37,86,-72,-79,
42,-302,-56,42,
-200,68,-97,36,
83,-153,113,30,
-25,23,-24,147,
-41,119,-39,17,
-20,-16,-71,-162,
-9,-24,47,-199,
-73,230,-89,20,
-39,35,36,17,
-12,-45,-50,-78,
2,207,-2,-102,
131,158,-11,190,
75,-153,119,-75,
-48,-124,24,23,
87,-42,-13,181,
-49,50,-21,-52,
105,-64,-79,169,
-153,-51,-3,-147,
125,-215,-90,76,
-52,-185,45,119,
124,7,-19,26,
66,185,42,25,
67,-91,-176,3,
84,33,-62,-102,
-133,-12,-30,-24,
-10,38,47,-107,
98,198,142,77,
82,34,-9,-182,
37,91,141,-19,
10,42,-48,-74,
-57,90,-91,-77,
105,-181,113,60,
83,-34,28,57,
-31,-1,16,1,
18,-159,91,-146,
-16,304,-29,148,
-27,72,37,-90,
93,-104,8,-157,
46,46,40,-146,
-18,24,1,61,
-5,128,-24,-12,
55,290,-36,-50,
9,-182,2,50,
-21,134,4,-26,
-79,36,-50,35,
-4,-46,24,100,
-69,-4,-60,185,
-110,48,76,-99,
-29,170,-112,40,
111,28,10,-78,
-82,10,51,15,
-88,-191,-95,-16,
-127,330,-47,-30,
24,-233,-78,-135,
71,41,-11,-27,
-76,-50,-20,46,
-14,38,-64,-38,
48,-110,-85,-116,
-13,275,11,66,
-88,-54,-72,-31,
63,228,-11,17,
41,-89,-67,46,
-19,60,-46,47,
-18,170,-47,19,
-3,-46,74,-139,
90,28,-71,-57,
43,106,22,20,
-123,-233,-80,100,
-59,331,-81,75,
-34,-23,46,-51,
75,122,12,-34,
54,321,35,177,
5,-77,167,-28,
-75,-163,-153,-237,
-63,246,40,-6,
27,123,-39,38,
96,204,73,141,
-124,43,53,74,
-1,14,-10,-81,
-38,71,-31,-1,
114,14,-94,2,
-43,-134,-23,58,
9,148,-82,148,
-75,-349,-119,57,
-60,89,49,-21,
32,-62,38,1,
11,126,105,10,
-5,-73,51,-55,
24,93,-94,30,
-27,82,-1,42,
134,215,72,91,
33,134,-66,-37,
11,-115,106,52,
7,137,2,12,
-10,-39,12,158,
-27,169,-39,36,
-72,198,67,-56,
-113,-309,-42,43,
67,48,24,167,
49,147,166,44,
45,-40,-317,-108,
88,110,171,-164,
-46,-72,85,16,
-59,-64,-91,128,
-64,-119,-17,62,
105,49,267,108,
-141,-13,-36,-84,
-43,114,33,186,
-33,-67,-98,-15,
-55,20,113,63,
13,-105,207,-275,
12,-237,-89,-18,
-47,31,-74,21,
-139,33,35,-348,
1,93,43,-123,
-79,126,163,36,
-1,48,58,-120,
-70,-69,91,274,
-41,-307,12,-25,
4,190,-96,65,
44,24,106,118,
11,-37,70,91,
-153,191,98,20,
-120,146,59,-207,
11,-93,-7,78,
-29,-26,162,69,
-51,-60,-56,65,
24,-118,-12,-41,
-45,58,-208,52,
89,203,-76,-205,
-44,44,-186,35,
-80,-79,-207,-127,
28,-57,-42,-215,
-59,-203,31,-68,
-5,67,-131,-14,
72,-174,-58,185,
123,-93,44,137,
-41,-111,41,-148,
59,-13,76,-57,
40,136,143,192,
151,-168,-57,-206,
54,85,86,-53,
53,-40,-122,-84,
4,39,-4,-46,
55,60,59,81,
26,-241,-181,-326,
-29,-240,54,-113,
55,-136,12,-61,
45,128,20,-53,
-75,-51,20,97,
-53,-33,-109,-20,
85,-16,101,-35,
36,9,-7,175,
89,102,5,-187,
34,76,-253,40,
-48,1,-155,33,
-111,221,-10,-46,
-47,-287,74,-87,
68,-12,21,-2,
110,-118,116,45,
123,199,-8,80,
-184,-211,-181,57,
165,101,107,-240,
133,-129,96,5,
48,200,77,3,
38,77,-13,-163,
50,-70,-28,-129,
-31,17,-56,16,
-151,-30,-5,-115,
-28,-40,175,0,
-227,-55,-10,-73,
56,203,-8,64,
-134,50,-38,-38,
2,-165,79,35,
70,-30,-78,-183,
20,66,-161,-152,
-96,45,0,168,
106,-25,29,-50,
211,17,171,86,
83,-400,-114,-36,
107,183,120,-200,
-282,118,42,-403,
-193,-73,-27,4,
66,-99,-55,74,
-18,63,62,-198,
166,94,101,-174,
52,-107,199,-5,
-275,68,24,-79,
-8,250,-3,-129,
-96,-99,-104,-132,
-151,75,-53,2,
163,-200,68,48,
-142,-49,-138,-411,
-119,112,-81,57,
84,-190,-73,73,
-97,71,45,83,
102,23,49,260,
-184,-57,-96,-116,
-208,66,4,-140,
51,-187,-28,3,
40,-33,118,-15,
-195,-186,-133,-60,
65,100,102,173,
67,77,101,39,
348,-201,146,118,
-37,36,-165,-28,
66,150,-291,63,
-287,26,24,-19,
138,159,76,42,
-2,-252,3,-45,
187,-212,53,244,
-16,-289,106,-50,
84,61,-199,25,
22,-98,15,205,
-32,-311,-120,-195,
-8,-8,-7,-26,
39,-31,-162,-126,
32,-61,27,124,
281,25,101,-85,
74,-157,-183,-144,
-45,257,-72,187,
100,-360,77,-128,
23,-54,-28,-249,
-14,-84,102,78,
18,-22,-31,-91,
9,-197,-63,-256,
12,-18,69,-123,
-122,144,-12,24,
-28,-52,94,61,
37,-10,56,106,
-40,-56,-21,-126,
-31,103,-13,-108,
79,94,-56,147,
127,32,29,-39,
100,-59,38,105,
-214,17,36,-82,
-50,159,-3,-89,
31,0,-37,54,
26,-320,-92,118,
58,125,26,-15,
47,-126,-158,2,
25,-95,69,147,
85,77,103,108,
8,-34,-134,-244,
-18,-42,-66,41,
-101,101,-60,-145,
35,-130,-46,-36,
4,-189,-69,279,
-19,3,3,-93,
62,-117,-41,-137,
274,-21,81,105,
-72,-219,26,133,
-21,52,59,18,
39,-84,11,80,
-16,161,-100,11,
32,-212,5,32,
-25,76,-13,40,
89,-10,-129,281,
11,-157,-74,47,
-53,-310,-20,55,
-10,-77,-27,147,
-52,7,32,187,
-226,69,-67,112,
26,-64,-59,-77,
-3,-170,168,49,
-25,-228,-57,87,
-87,44,88,11,
132,-6,90,6,
12,-98,6,91,
27,93,-12,147,
-34,267,-105,-36,
32,-113,-79,12,
93,255,102,-263,
81,-81,-97,178,
-42,156,-67,-7,
-133,33,-135,-54,
-92,-11,-109,8,
-2,50,-31,67,
-104,-128,105,-72,
-39,87,-32,57,
-18,115,-29,-131,
-80,-154,-72,94,
172,-74,-108,-66,
-18,62,-79,-17,
61,-59,30,4,
-87,-144,-49,-77,
170,-151,-36,182,
-111,26,-24,-31,
63,315,-57,35,
20,-454,-58,35,
-200,102,374,-85,
28,193,-43,-21,
63,-61,-66,29,
30,93,-35,9,
-40,-168,50,56,
-149,-236,301,17,
33,-13,155,-55,
-74,-17,-262,-166,
138,170,-19,-203,
38,-109,-43,-87,
-62,-104,171,88,
-80,-174,18,92,
205,-248,5,-261,
77,-87,-163,-117,
-57,-115,23,-103,
-65,37,-23,-165,
57,30,130,-86,
124,47,-149,-159,
129,69,-58,-86,
1,-49,-6,-55,
-166,-310,-93,122,
-255,197,103,24,
-31,-152,125,-52,
111,68,-21,-52,
183,85,88,164,
162,-202,-54,-20,
134,161,43,43,
-36,0,51,-63,
69,-272,27,-126,
58,-231,16,-109,
52,38,190,-39,
74,43,-93,-155,
-3,38,-65,154,
-128,33,12,-26,
-132,84,203,-41,
124,-203,-114,14,
-155,-67,-28,-154,
-53,-206,-76,221,
-39,118,57,64,
10,-35,-113,-113,
195,280,-123,81,
22,175,194,33,
-21,75,113,53,
-267,-114,17,21,
-216,-123,-116,-64,
6,-83,41,101,
-142,51,89,1,
2,-133,-110,-47,
86,-32,48,3,
50,-111,5,101,
9,34,-10,0,
-75,-91,122,292,
-88,-25,-66,-31,
-220,-154,71,-84,
1,-161,-164,128,
-84,99,126,-24,
-23,56,-170,156,
-88,122,64,-206,
117,285,145,81,
121,-44,-223,47,
-161,-111,-133,-266,
-322,-158,-8,-78,
-91,-51,226,-124,
-30,-387,-19,40,
-424,167,185,-245,
132,-41,5,155,
28,195,-147,-136,
7,-23,123,10,
-94,-32,7,17,
-143,82,26,-82,
28,-98,45,18,
150,41,53,35,
43,26,-102,99,
-136,-50,45,-177,
-69,-79,-55,98,
-101,-88,58,27,
268,-12,-56,2,
212,108,100,-114,
-12,26,134,60,
-245,43,-32,22,
166,256,135,-44,
-114,-178,-3,10,
117,-7,66,-30,
145,-101,-117,-27,
-76,-145,-23,3,
-129,-72,-88,-62,
-34,-24,17,-140,
117,88,132,-27,
93,226,175,216,
88,24,-8,116,
-57,169,69,-51,
-205,-8,12,66,
-37,111,-40,-26,
117,-4,12,55,
-112,41,-106,177,
367,30,46,133,
-8,40,-87,-33,
-60,146,-46,-69,
-16,-167,81,139,
492,-1,75,49,
-92,-280,-144,57,
-29,41,-84,29,
5,68,98,-3,
64,81,22,192,
-25,118,-126,-146,
36,8,136,-38,
-42,43,-81,47,
21,-16,-44,-208,
-299,31,-24,-173,
237,45,73,163,
-146,-16,52,-40,
150,-205,-107,131,
-100,-119,-19,112,
180,-226,213,-189,
-93,4,-51,-99,
-371,62,-44,-85,
99,-83,133,127,
-44,-41,45,-97,
10,53,-81,-12,
70,169,69,167,
16,287,-105,251,
-144,-35,-27,-142,
-10,95,34,-54,
33,-132,26,-30,
-65,-126,-74,-42,
-59,15,154,7,
-139,-231,111,-197,
-12,-60,-15,-116,
-228,213,138,73,
140,244,45,119,
97,158,-47,100,
-85,-123,1,168,
-128,-31,-156,-183,
105,97,95,-33,
5,-16,4,19,
87,136,59,179,
-55,-97,63,-108,
7,-28,-34,-142,
37,53,-7,61,
-79,-92,23,-23,
-13,-255,52,79,
3,-15,28,-167,
-42,-227,-76,-65,
-87,63,-45,178,
0,183,-41,-9,
-58,-71,-69,-25,
33,-98,-63,30,
-91,114,-217,36,
-255,94,-49,-52,
-75,-183,-28,-23,
-66,9,-35,2,
-29,-26,-135,22,
8,272,30,-105,
111,-213,3,86,
-102,-26,61,22,
-44,-49,5,20,
70,144,-102,-7,
27,131,72,-34,
-26,114,-73,194,
43,-42,-4,-16,
135,-40,23,-120,
3,-118,-96,-11,
32,92,5,-26,
123,10,-11,186,
-120,-97,-21,25,
-46,7,-52,-141,
82,26,186,56,
-49,-170,-45,104,
92,-14,-89,33,
148,-11,99,94,
-79,66,-19,11,
132,-37,-72,-10,
-165,170,-14,11,
-121,122,-107,11,
-287,-93,-101,-98,
180,-188,14,-52,
67,177,-41,-171,
-18,-180,-47,-80,
149,150,-12,-97,
26,-86,-78,67,
12,-287,168,68,
5,161,-118,-34,
81,188,-66,14,
-49,-25,72,46,
-103,-105,20,-97,
31,34,-86,142,
-104,-118,75,26,
7,80,-97,-45,
-90,-55,-38,28,
56,16,177,95,
118,-120,142,39,
65,111,-82,-40,
-57,28,15,8,
223,65,54,62,
-162,-30,43,-179,
177,75,-24,-52,
-53,73,-34,107,
-78,58,-16,71,
163,-101,-103,-126,
110,-21,40,88,
45,134,26,26,
273,3,15,-179,
4,93,18,45,
-112,-6,-69,-37,
-132,142,-45,-140,
-83,56,-48,-4,
-155,96,43,16,
140,20,-55,-93,
-110,-87,-151,-50,
-117,84,-88,101,
-75,25,-12,16,
182,12,-30,17,
-286,58,-181,-68,
157,-89,12,64,
-113,-74,-90,-54,
-199,-56,-21,-120,
3,51,-28,97,
-117,84,-87,-143,
-39,-13,-73,180,
41,117,21,-161,
-20,-10,129,-65,
-132,-45,-52,-43,
-228,-14,67,-126,
166,-7,-198,-120,
88,-136,129,28,
-93,-49,-12,-105,
-32,82,27,98,
-37,55,-62,-250,
124,20,152,-242,
121,104,12,10,
60,24,71,175,
248,-130,153,1,
84,-20,106,232,
137,56,143,55,
35,-3,118,-243,
-200,26,-276,18,
219,-122,58,170,
133,-40,-31,84,
2,-3,32,-55,
-190,6,-18,188,
31,-69,-177,-172,
-87,-51,14,-62,
-54,-36,-76,-133,
99,62,-117,-176,
-24,-132,-31,5,
30,143,-58,5,
36,-96,43,146,
-48,-139,365,98,
104,-69,250,245,
-46,-35,181,-215,
18,133,6,42,
-333,40,-169,131,
53,-83,145,167,
-38,52,308,-228,
53,84,-93,-58,
-102,-88,-15,195,
-9,156,-83,93,
20,106,-134,85,
59,-146,257,117,
111,125,104,232,
5,-1,-89,-181,
118,-79,-191,-7,
-127,30,11,126,
172,73,-38,8,
80,108,27,226,
188,-54,163,193,
103,-57,-49,124,
-184,69,-29,-142,
-133,138,-43,61,
-127,91,59,-193,
-222,-72,-185,40,
-34,-13,123,316,
-56,105,-103,-32,
113,-55,90,-397,
162,50,121,-365,
5,122,-59,229,
-46,55,36,-6,
-210,72,-58,66,
156,-83,-231,-258,
156,66,-106,-196,
19,94,-126,-71,
-232,56,-52,15,
195,-141,39,-90,
23,153,-39,-75,
-145,-40,89,-163,
-22,80,-124,185,
2,-16,43,-200,
-111,54,14,368,
44,10,60,-289,
20,72,-148,-114,
-5,-21,-85,73,
-4,56,-178,295,
-93,-14,-30,379,
119,27,204,-249,
38,60,32,52,
-26,5,113,134,
14,77,129,104,
246,-74,345,147,
223,78,278,44,
-22,1,-49,-204,
9,-4,26,37,
80,-1,30,158,
180,-119,-80,16,
-114,106,7,-152,
-26,-59,-26,-109,
89,78,-190,78,
71,-179,14,-294,
-91,-2,-33,221,
-291,11,182,65,
-219,-20,-144,10,
53,-11,-38,139,
-186,43,334,-107,
22,-69,99,-251,
24,-41,-54,6,
-20,76,181,190,
67,230,-15,55,
-49,-28,218,-1,
99,45,-16,80,
-63,9,-3,-46,
-31,-107,-114,-265,
-38,22,72,49,
129,78,41,-110,
-228,211,-244,-139,
-97,9,107,-78,
-132,-198,-27,83,
-143,9,-126,88,
-88,-87,122,25,
-106,-79,81,50,
88,136,-184,-10,
59,27,21,-23,
-76,-44,-91,242,
24,-57,186,-131,
183,35,-14,26,
-60,28,213,-272,
-180,8,79,14,
319,-55,59,67,
-67,51,225,-30,
-291,1,-239,-115,
-21,102,-111,-70,
-148,-43,130,-22,
26,127,-114,-144,
94,-67,46,-14,
200,6,51,-148,
-58,83,166,-68,
-44,-49,93,-121,
-17,67,-154,-154,
-142,-67,-90,148,
-28,-62,16,127,
-188,-164,-93,-122,
112,-28,-288,-91,
-74,-21,-152,110,
18,-33,142,-208,
-57,18,-16,-58,
29,-65,-145,-180,
98,23,214,5,
204,-26,57,-184,
-86,29,-235,-285,
12,-60,-30,126,
-164,53,144,-21,
32,2,-53,-97,
30,-10,-202,-28,
256,-38,270,-18,
71,51,224,-95,
-60,50,16,40,
-101,-55,-27,106,
-103,-123,6,-69,
54,34,161,-114,
167,-36,152,-6,
140,45,5,-58,
137,-79,-113,85,
112,-44,-154,-143,
145,-63,-182,-188,
-234,-9,67,-225,
-4,45,-173,140,
5,-160,48,136,
102,63,218,197,
98,177,-110,61,
-137,-28,-68,-17,
-16,-124,124,-205,
-7,-110,61,40,
-196,-41,-28,21,
-148,19,71,58,
239,71,77,-29,
-153,-18,170,-69,
-107,149,-58,-116,
59,-97,10,-12,
-102,18,57,-57,
119,-95,287,49,
-86,107,-169,-177,
-31,77,-218,-22,
299,55,-88,171,
-1,-54,50,298,
-212,71,135,-49,
15,-41,-100,29,
-85,56,-77,113,
-159,-35,-97,195,
-117,179,41,-16,
112,-53,-165,-48,
-81,-11,19,-119,
140,105,33,56,
239,134,-143,147,
-89,67,-217,-73,
101,89,-179,131,
8,38,-93,61,
-142,53,-127,165,
32,34,67,84,
-136,-119,-107,-72,
-233,57,-98,-48,
-141,-3,-147,132,
-240,5,90,-215,
-115,104,-79,70,
95,-1,39,96,
-106,60,12,11,
-205,-7,112,13,
-136,3,-97,-11,
77,62,52,39,
65,-1,9,91,
-108,-56,-82,8,
13,25,-121,61,
-148,-115,151,272,
111,-203,-38,35,
-67,-106,-95,43,
87,-13,-83,118,
300,-182,110,18,
29,59,-7,83,
60,94,-61,-89,
15,91,60,99,
-141,-22,-348,-161,
153,-93,-210,-15,
231,5,59,-34,
-48,-62,-63,117,
-20,-65,39,-163,
120,163,-141,-170,
3,287,-136,-37,
-125,-196,46,-66,
88,27,-115,-20,
-62,-42,-113,-140,
-6,52,65,253,
31,5,320,-138,
-9,113,-2,101,
74,-67,-15,190,
-100,-129,203,-22,
-124,85,-97,41,
-30,-42,-87,-4,
80,-187,80,14,
-55,-283,-96,151,
-40,150,-209,-31,
-3,-141,48,-164,
-109,-156,12,-232,
62,174,109,2,
43,-326,-17,-59,
-152,-27,53,-104,
-106,63,24,191,
-34,199,-97,-116,
-49,-208,-55,282,
103,-81,-151,120,
-171,-82,39,-103,
-58,88,-310,-29,
72,-102,-46,37,
104,-161,96,31,
2,93,175,-122,
-131,-37,-87,26,
-168,-59,-123,-17,
137,-131,177,126,
101,38,-73,86,
-22,168,-474,181,
-44,177,-44,-143,
-5,245,11,186,
-119,82,64,255,
-124,311,148,77,
-23,4,-186,148,
40,-10,17,11,
35,88,-156,-18,
-187,163,-45,-67,
57,265,-38,174,
-277,-2,-24,21,
-231,-93,-73,-177,
203,-199,-54,79,
-60,-92,-90,-83,
9,-8,222,-131,
-26,101,-43,7,
7,176,-117,-160,
87,-64,-245,-164,
79,-13,-17,-32,
-133,-106,-43,87,
23,58,-54,248,
129,-89,-4,135,
-325,123,-60,-162,
-21,36,-137,79,
287,-18,-28,184,
144,-43,-40,235,
-157,220,-52,113,
-218,72,-67,279,
31,-166,126,-124,
18,-165,-181,67,
-129,-188,111,63,
78,13,-94,2,
153,209,-406,33,
-75,-137,80,15,
-121,-107,-82,109,
-302,241,34,-204,
66,154,-83,-110,
51,-257,391,-350,
-9,-55,129,113,
51,-55,-16,138,
250,-101,-6,-105,
-50,159,73,-161,
140,-238,49,-4,
12,-92,92,100,
-136,65,-104,99,
-222,-34,-29,263,
-124,-93,-101,-80,
-20,81,94,-14,
216,35,88,72,
-3,-85,-28,-60,
67,4,-92,233,
160,-96,-45,-40,
-95,-8,111,127,
74,-30,-82,-171,
34,-16,98,105,
85,-96,21,-110,
25,16,-145,138,
-133,-69,155,27,
97,-29,114,-15,
24,-23,-50,52,
2,72,-15,22,
-81,7,-107,-178,
167,55,-273,42,
151,-99,-71,53,
-264,107,42,-13,
91,-70,232,122,
64,20,150,17,
192,-15,113,-155,
116,91,2,-52,
148,39,198,-66,
-122,50,58,-206,
-80,172,-216,202,
166,117,-165,-127,
106,5,-71,114,
99,9,-48,248,
-147,27,123,14,
-49,135,-178,-76,
-217,-131,-8,-116,
18,42,-60,164,
-99,29,77,111,
-23,-26,-85,208,
-47,20,231,185,
209,28,-132,-143,
-70,69,-344,-230,
-1,85,-69,184,
-205,89,-73,106,
67,-136,30,23,
4,8,26,-96,
3,-22,171,93,
-93,-5,127,-98,
-15,-68,110,-91,
-59,-1,1,26,
99,77,109,22,
21,14,-185,42,
58,-69,40,58,
-11,15,-136,117,
106,-34,-6,20,
-44,-166,61,-168,
169,-62,-91,-21,
-119,21,-13,-251,
3,-10,-34,148,
-97,62,78,73,
-125,11,249,117,
52,88,-51,110,
-168,-121,15,145,
-9,61,-379,78,
93,58,-105,-216,
-153,-58,3,174,
46,125,-71,1,
71,32,-41,53,
80,-25,80,-259,
-213,130,61,-112,
104,140,-1,14,
211,-100,23,-20,
-28,-11,-51,-274,
-264,59,-158,71,
-59,113,-85,-23,
130,26,46,49,
360,-66,94,207,
26,33,131,-154,
-74,-20,115,156,
-146,145,-138,-95,
-183,138,77,59,
-3,-123,112,-72,
69,-213,13,-33,
-187,79,-117,-7,
183,143,18,125,
88,20,-61,-249,
137,37,-49,109,
56,21,-72,-25,
113,36,-101,36,
6,67,-13,39,
-4,14,-94,-48,
-217,113,-25,-114,
-61,-12,73,-29,
120,-38,67,-50,
-18,-16,-12,14,
-91,93,96,45,
-133,24,-3,-18,
-195,-22,-20,49,
-233,56,38,-93,
6,26,112,-130,
-30,18,-12,-194,
139,-103,71,-17,
-69,23,-58,-40,
-65,98,-48,68,
-85,39,20,-165,
121,-165,31,-60,
29,-26,-22,-12,
232,-32,57,-141,
137,22,-80,74,
67,-76,113,204,
181,261,-32,14,
-85,179,-189,151,
-267,1,-35,-162,
-104,32,-72,4,
54,-2,-71,121,
67,69,-26,-105,
106,14,-199,171,
268,15,-67,-136,
-266,26,-120,-6,
173,94,-105,-98,
-150,52,54,-118,
4,-216,-117,-120,
77,133,53,26,
-25,-54,14,1,
217,33,-109,191,
220,-182,-16,25,
168,66,38,-32,
28,-14,-115,-145,
17,-191,-37,24,
230,105,-23,-1,
22,-43,-77,-2,
138,-59,108,19,
145,-209,-95,58,
-326,426,-8,-90,
234,41,137,-22,
-215,-57,163,-43,
26,-94,83,95,
-198,50,71,189,
-21,295,-39,-67,
40,3,41,-1,
119,-111,56,212,
-69,-9,-22,84,
122,-30,4,62,
35,149,-40,-145,
87,55,-41,91,
12,-226,-178,-49,
-78,-245,-158,0,
-123,36,-75,-11,
176,196,-91,105,
-12,185,11,120,
-124,80,107,50,
84,-32,-77,28,
-94,-119,-144,-51,
54,-37,152,48,
13,-2,113,-5,
-186,111,-114,63,
-99,-52,-62,-104,
182,-144,-92,71,
57,-99,-75,63,
65,77,39,56,
-116,-44,-29,-43,
-1,-124,-32,-161,
61,55,-179,-158,
-218,182,-176,-75,
-43,66,-150,7,
-127,-13,-130,75,
-105,22,78,100,
220,-6,-82,-19,
183,-153,3,-79,
100,-161,-41,10,
243,-13,64,-36,
245,-50,110,-32,
-215,-15,-237,122,
123,-32,128,-44,
-27,112,-20,236,
-106,-24,74,-93,
-84,48,41,-142,
-99,41,-184,-39,
16,45,97,153,
-12,209,-18,-186,
-135,-45,-87,101,
-57,133,-115,15,
209,-91,-18,65,
-219,-144,66,-17,
93,-29,-112,-176,
-122,-123,-91,25,
1,73,-134,-178,
198,-154,83,-14,
226,2,-42,-165,
126,-164,-2,42,
-172,105,-53,-27,
-64,-70,64,146,
-141,3,46,76,
-99,-120,-6,-55,
-19,-67,16,100,
-178,93,93,71,
15,-40,-99,-264,
-162,52,-13,-39,
257,12,-32,-19,
128,-28,-222,12,
277,-10,43,-11,
-79,157,-5,-25,
59,125,43,115,
-229,86,45,74,
217,-92,-91,79,
66,33,-47,6,
-31,-44,45,19,
-92,-5,-67,48,
-143,71,155,-143,
146,-38,-18,87,
-97,-27,54,-259,
-173,114,-298,128,
108,-32,-41,49,
78,132,118,-109,
109,-97,-16,96,
99,-94,-27,-98,
96,-68,-185,153,
196,25,110,-71,
95,30,45,122,
47,-7,-4,-88,
-30,-119,119,-116,
-35,133,62,-31,
63,47,163,1,
19,16,174,-63,
112,100,254,109,
-312,119,-135,-13,
-82,-92,121,-172,
146,5,-15,31,
-183,-98,-24,-91,
-252,-39,46,136,
-56,-9,43,-50,
119,-20,103,-58,
132,-88,-49,-119,
-244,-26,4,-111,
-38,86,59,48,
141,9,138,-33,
2,53,79,-27,
19,-30,-109,84,
129,9,88,201,
-150,67,0,-16,
54,-112,-13,44,
-110,64,1,-166,
34,-60,26,83,
-71,-100,-31,97,
-107,-63,4,36,
-100,-154,-11,-138,
14,51,-27,-236,
114,-61,-35,-231,
144,-2,-32,-9,
24,66,-16,44,
2,1,-70,-34,
-176,10,-108,23,
-81,-26,-14,7,
23,2,-71,-8,
6,18,-245,-88,
-8,-8,-69,107,
13,-21,-143,78,
-70,-36,-102,-90,
-39,-146,10,-39,
48,21,-52,37,
9,70,-165,-35,
21,34,117,-27,
-126,6,-74,-49,
-24,-7,-170,-157,
-6,-60,-208,-220,
4,20,-161,60,
17,-25,-46,42,
-76,-60,297,41,
96,-91,146,93,
-5,62,241,-48,
-51,81,18,63,
-20,113,170,88,
18,-46,-27,108,
60,-40,-2,155,
-81,160,1,-65,
36,48,-48,-29,
-119,39,-130,49,
-44,-67,115,183,
18,-38,-52,-174,
-88,-98,-22,130,
-75,155,-254,97,
-37,104,-130,-175,
-198,78,-16,131,
5,43,131,70,
-66,-27,-268,-54,
-18,-3,-154,-138,
-192,-23,-148,85,
-81,74,218,-108,
12,5,-118,161,
-25,-57,-125,19,
-68,3,-73,-204,
-48,-73,-293,-53,
-22,-17,208,245,
-105,-84,77,-30,
85,-47,-208,123,
133,36,224,29,
32,62,96,-141,
83,-59,-49,96,
-75,99,149,35,
139,90,13,20,
-84,50,199,58,
53,15,219,88,
163,137,-28,0,
26,-51,20,-85,
43,-17,-71,-214,
38,12,40,-61,
-93,155,9,264,
-108,-65,-130,-13,
57,5,103,-79,
105,7,-98,22,
21,-80,33,17,
-61,-24,5,-35,
48,73,-17,-12,
166,74,-50,-12,
-62,119,-165,-15,
-19,-209,-39,-68,
51,10,22,44,
139,-121,-51,147,
-8,-96,317,38,
102,-38,201,30,
-82,-133,73,-211,
-199,115,26,-32,
-121,85,-55,-131,
-5,120,-101,-165,
-26,-59,104,-39,
-34,-59,-54,-76,
-13,-106,143,141,
41,-258,-223,-6,
-73,25,-151,60,
-98,69,60,-5,
92,97,30,122,
-135,-72,167,145,
-103,-214,83,98,
48,22,40,45,
7,-45,-116,78,
155,0,122,78,
68,-93,-42,-117,
46,115,133,-83,
-54,51,-106,-67,
-95,134,-26,-19,
-2,133,144,-39,
-129,47,57,-80,
80,37,-35,-74,
129,-95,184,245,
-199,178,-66,131,
-58,110,68,154,
-139,192,45,-114,
-122,13,58,17,
-69,-36,5,-164,
-3,54,-135,-4,
-5,-89,28,101,
-9,101,302,110,
-10,-1,88,6,
-277,-224,249,56,
-13,-83,-91,-31,
-59,-49,12,-43,
-35,14,118,53,
-45,-105,-152,44,
-12,-182,2,149,
44,48,78,32,
-176,83,8,79,
117,-82,-81,36,
102,134,68,-93,
35,22,78,108,
-48,7,68,-100,
326,115,49,-52,
-85,153,-25,144,
45,34,-254,175,
-21,-117,-170,-159,
20,19,10,54,
-83,72,-64,139,
-58,-122,43,138,
-160,56,-195,-223,
11,13,1,-115,
-8,79,-233,92,
-41,-80,-215,-69,
-32,76,134,52,
-129,33,33,-93,
46,81,36,148,
112,-66,-61,101,
111,-53,-72,-11,
39,-77,-86,15,
4,-107,134,-40,
54,-80,-165,-77,
34,92,-15,-207,
-100,77,30,-62,
41,-24,-13,37,
-83,65,-82,142,
50,17,-197,-54,
-156,-158,-28,-1,
137,-94,-95,-56,
85,-74,-40,-162,
87,180,-13,7,
-134,19,-49,-10,
70,111,21,-102,
-143,115,28,59,
-30,-243,103,128,
60,-58,-96,-1,
140,-48,-105,80,
87,-15,35,-66,
-196,-209,13,58,
60,39,-88,55,
-161,-22,68,38,
-103,89,49,-93,
-73,298,-83,58,
-7,71,29,-95,
17,-21,32,0,
139,-237,-31,135,
40,290,1,-63,
7,110,-58,81,
102,-6,-78,37,
23,-125,134,-2,
-98,-97,-280,-238,
246,-33,18,126,
-21,-41,-66,53,
174,-5,189,-64,
-88,-76,-16,108,
125,-242,31,-106,
149,44,91,-13,
-18,120,-87,-170,
-179,-149,86,137,
16,-5,22,38,
105,34,89,-126,
-62,-5,41,124,
23,100,68,-64,
93,-155,24,226,
-40,-17,135,67,
71,121,26,-119,
202,-36,-45,14,
346,326,99,53,
-60,133,-11,240,
150,-108,-119,139,
45,88,-129,-267,
146,4,-83,-53,
33,133,173,-105,
31,-153,-23,-107,
-36,147,219,76,
51,-77,-97,21,
17,51,68,95,
-119,-230,-2,176,
-205,-52,-153,152,
-165,-35,-32,-60,
21,156,-138,-177,
-83,-160,54,-130,
47,-155,-36,316,
-130,-89,-55,96,
-193,4,113,-184,
-190,-129,115,6,
220,23,157,122,
-153,-164,-163,-52,
51,-9,52,114,
-40,100,122,123,
-86,-21,-234,-119,
71,86,-85,-20,
84,157,76,-34,
102,-52,-261,3,
157,-156,150,-180,
-85,-92,-173,-101,
-67,-71,101,46,
-88,-59,78,-68,
0,-64,73,73,
81,-135,68,178,
175,-71,240,57,
17,-11,54,139,
-26,-2,17,-10,
18,-129,-1,19,
-185,57,-11,-130,
-35,-5,-76,-71,
83,-209,207,220,
31,59,127,19,
35,-78,-54,140,
-115,145,39,-30,
-50,-75,-206,-63,
1,-46,-284,-85,
1,121,-81,-123,
-64,49,78,-22,
15,-26,-284,43,
90,-20,0,9,
25,-79,-29,62,
217,135,-63,66,
67,62,10,221,
30,30,128,-23,
59,-78,-183,27,
-41,-77,-165,210,
-45,-75,244,177,
-70,7,87,-112,
82,-122,35,-169,
164,18,-61,-104,
-72,39,276,-117,
192,-64,-33,53,
103,-86,60,-60,
80,64,-61,47,
-83,-31,337,16,
247,-28,286,113,
79,-58,60,43,
188,40,28,-13,
17,67,-205,-318,
27,-22,133,-48,
19,67,189,152,
-29,-21,-19,36,
-154,-29,-95,-285,
-52,9,34,93,
66,53,-61,-292,
-38,-116,-355,-104,
101,152,-27,-76,
14,-105,-146,-188,
-68,5,-50,22,
-49,126,-130,-78,
55,25,-240,-4,
-41,27,-213,91,
-116,39,116,-58,
-183,-78,201,-102,
136,-161,140,-144,
-94,174,359,354,
-108,141,-43,102,
-248,37,-75,-94,
30,-121,-35,156,
9,79,122,88,
114,35,50,125,
78,-102,-84,5,
242,-158,-165,48,
-38,48,122,-52,
-18,-13,-4,79,
-45,60,87,110,
267,133,179,270,
-131,-100,186,55,
206,-22,-119,-142,
115,44,242,84,
-90,-162,75,27,
108,36,279,120,
-80,21,-7,-146,
-221,-183,150,17,
6,33,120,130,
-51,-29,19,88,
-69,17,152,-53,
-100,-146,-227,-14,
-59,-5,-95,-3,
184,9,179,20,
25,55,92,-62,
-113,-71,-127,58,
16,-100,-113,-30,
330,84,-6,79,
-71,0,40,-288,
176,65,-243,-130,
-23,133,130,3,
99,-20,37,18,
-15,-41,111,-172,
-67,-157,105,82,
-33,176,179,-173,
168,23,-51,-83,
122,-254,96,-144,
138,-30,43,56,
-102,126,180,-5,
109,-31,66,-118,
-118,50,128,-24,
-17,-95,160,-55,
-52,-54,2,-56,
109,32,-105,-138,
162,-139,-68,-75,
125,69,-159,130,
67,55,-302,3,
-46,87,-201,-16,
24,136,-124,-49,
-7,-68,15,265,
-122,-87,-207,-186,
-30,135,-160,122,
-259,-76,53,170,
180,-60,-186,48,
-51,87,-74,313,
-266,24,-59,-111,
70,73,75,260,
-12,112,-133,213,
-190,-13,-103,-53,
-119,-86,143,-60,
-148,-158,74,17,
-294,-53,-150,146,
116,20,-48,92,
39,90,-96,-286,
41,-40,-28,-50,
45,67,-60,-134,
-40,29,-17,-180,
329,-12,54,-125,
178,48,88,-35,
-92,-93,144,23,
-88,16,98,29,
-147,-143,-106,-63,
-59,23,163,-139,
151,61,38,166,
325,-49,-48,46,
-78,-171,70,155,
-69,-19,101,-58,
77,110,100,-93,
-20,-26,-69,54,
100,87,-86,-134,
216,-24,-104,187,
-115,54,-4,-168,
-11,185,-146,-70,
27,-84,224,-98,
31,110,67,141,
-82,43,-90,256,
75,75,177,169,
69,-138,-68,-36,
-25,-16,-70,11,
85,-106,183,33,
-88,97,-296,-75,
113,-20,-101,108,
-127,71,-204,111,
56,49,151,104,
-76,77,-130,-60,
189,-121,-18,-242,
15,-23,156,32,
56,-106,126,97,
-85,-66,81,-11,
36,-169,121,200,
88,32,64,78,
-165,170,-18,-2,
117,40,-67,133,
-60,-81,193,216,
-157,30,27,-88,
-44,-29,157,-118,
42,-161,-202,-67,
-100,37,203,-180,
-57,36,-140,118,
-356,-170,-78,-56,
-138,-36,-53,-50,
-41,-42,-46,-16,
30,24,2,-31,
1,-132,-7,-162,
263,77,143,108,
-191,-20,93,-28,
158,-106,-93,-13,
88,-64,-32,188,
57,-31,-128,-34,
39,113,-116,-44,
222,80,-7,-113,
-303,184,60,-94,
-359,46,95,301,
72,-48,27,-64,
-24,56,90,-12,
322,-22,80,-222,
-102,79,169,105,
126,-50,-98,-80,
16,-123,48,77,
136,-36,12,-115,
12,49,-143,-17,
62,109,382,-47,
-32,101,220,107,
-104,-15,-191,-93,
-62,-221,-155,-85,
-5,-15,-114,-36,
-103,-138,-52,19,
16,7,256,78,
116,-36,-4,64,
99,194,-197,-27,
86,-65,117,186,
38,-88,86,-13,
0,131,-109,-101,
84,-120,-43,223,
-34,47,126,-70,
-48,-79,-169,26,
113,-182,174,-32,
59,-152,138,-32,
-16,58,135,59,
-26,68,-55,-20,
138,-158,65,23,
-85,-56,-234,-133,
9,94,-215,-161,
73,-89,24,-193,
130,-83,-271,17,
46,39,-151,-104,
64,-33,-147,-78,
59,-29,26,-124,
-149,-209,180,-66,
80,189,-9,-201,
21,14,-141,88,
145,107,-177,43,
-11,-109,77,-6,
167,220,203,-179,
93,-83,146,66,
-7,-16,92,-18,
-80,-2,-94,-59,
14,51,-92,37,
-111,47,17,-192,
-51,5,83,38,
-87,159,149,-46,
41,-274,377,157,
57,-147,-22,-28,
-18,-113,96,-69,
-17,9,-269,89,
-99,-151,-302,-70,
35,81,-32,193,
-167,171,-166,11,
87,-106,-88,-157,
-119,64,30,100,
29,-4,-109,-95,
-20,223,-46,-78,
6,58,83,-49,
-49,-42,-216,-6,
206,165,221,-111,
-84,102,72,-164,
-4,252,70,107,
-69,-75,-103,134,
-66,93,-91,-79,
-109,23,149,-8,
-123,-149,128,15,
57,-209,104,-40,
38,-121,140,-248,
143,-120,137,101,
8,-11,34,-64,
87,48,284,-193,
-86,79,-4,107,
-37,126,-183,-5,
-182,-134,-55,-18,
180,81,88,-69,
-21,47,15,145,
103,5,87,126,
-7,-39,57,189,
114,134,106,40,
46,151,-151,-4,
56,46,243,98,
-95,-108,18,-78,
-37,10,20,145,
127,-15,-158,-1,
83,-132,-197,78,
84,-106,76,95,
123,-72,125,95,
-244,95,164,-44,
-57,137,-58,-55,
168,-67,27,-16,
-209,22,-11,-128,
91,127,-55,33,
26,-9,-163,-188,
31,-119,-138,127,
-189,-112,-202,-1,
31,72,-168,-30,
-166,-168,27,37,
-70,-58,177,-297,
-41,142,3,-125,
97,-15,-88,65,
7,2,-61,-184,
47,126,19,-80,
50,225,-9,-9,
16,178,-84,4,
-113,139,94,-24,
9,-95,27,101,
-77,152,-185,183,
50,121,73,1,
-51,-187,89,93,
77,30,-191,-113,
-90,-3,172,-41,
-55,-142,221,6,
-55,-84,168,-133,
-139,-5,-64,19,
10,53,-81,86,
-185,98,-45,171,
-1,140,51,9,
-28,45,-53,-26,
-161,92,17,-31,
-8,-97,-167,121,
110,-47,92,33,
19,79,-162,-94,
227,-97,43,-16,
104,110,15,98,
-111,-40,153,69,
-63,108,213,-19,
70,-106,72,42,
169,175,-37,-61,
247,-28,60,78,
-80,-289,69,-100,
73,-77,-125,-55,
5,155,-159,-36,
237,70,-175,14,
-125,-20,-163,-108,
93,47,75,75,
53,63,-71,168,
-92,56,-114,-53,
-118,-129,28,101,
151,30,85,-118,
-133,-77,67,-34,
31,-42,86,2,
-50,86,-7,94,
-30,-34,48,-43,
-138,54,30,120,
-29,-49,213,-48,
-114,-11,-115,90,
-82,122,81,-135,
46,-123,-82,33,
94,34,-150,-12,
22,-10,-42,27,
112,-159,125,193,
-19,-5,44,21,
42,98,62,190,
44,74,66,266,
-61,21,153,5,
-96,-11,-7,275,
-86,-151,90,-35,
-111,-96,-129,-27,
-101,103,-170,293,
-25,16,-145,44,
-9,-104,137,46,
-94,-31,-83,297,
-198,152,29,30,
52,73,110,-34,
-192,18,-53,-62,
94,-59,144,152,
-80,-76,93,111,
-136,122,77,-201,
-112,-17,-69,144,
-54,-26,48,131,
-146,-11,13,-114,
182,23,96,6,
93,-121,-129,51,
74,-83,-5,75,
-51,-182,145,87,
17,-59,-76,126,
36,-79,172,-68,
-44,27,-113,61,
-14,100,-71,85,
25,39,44,69,
-3,-84,-17,-1,
-163,61,29,10,
-135,34,-65,-49,
29,29,-177,149,
141,-59,-95,40,
245,111,-82,78,
59,-16,-168,-76,
-94,23,-40,-128,
-33,117,136,103,
19,32,59,171,
199,12,33,187,
144,32,-55,-141,
63,24,62,68,
-83,-40,151,-178,
9,-51,-33,-54,
106,-166,-195,32,
-13,159,79,9,
273,43,-40,-113,
74,-20,72,-22,
-208,-66,-82,63,
109,-7,-78,33,
47,-275,76,-10,
102,91,105,-60,
50,-14,172,56,
20,-176,104,-26,
-3,208,185,-144,
-179,221,-58,89,
-135,17,89,114,
56,159,-78,-77,
-150,42,-28,31,
-24,-26,23,100,
-256,-250,-196,-114,
-171,-68,140,-71,
-165,-37,67,49,
-178,24,168,56,
-229,167,147,-3,
-150,22,-31,-39,
-152,-198,69,-75,
173,123,186,-13,
-21,-97,-228,-88,
-72,225,-7,-8,
6,61,79,-7,
-267,-103,15,129,
-122,-117,-75,4,
17,216,-3,66,
-34,136,102,80,
71,160,19,56,
-11,70,-41,-53,
9,-79,8,82,
-54,138,46,-65,
-150,32,-102,67,
-42,-106,-11,33,
-111,136,-77,-29,
62,143,-89,-51,
-27,-112,38,-64,
62,-37,-163,71,
-64,-25,-56,35,
209,115,12,-7,
-5,-228,-19,-98,
-21,-157,140,-11,
105,160,-198,-71,
56,75,59,-73,
135,-235,9,99,
-62,126,-67,-41,
0,50,-42,64,
176,-234,3,93,
214,-75,-47,6,
-311,-77,-44,130,
-41,27,-91,67,
114,99,106,44,
91,112,209,104,
-148,-196,127,40,
89,111,7,57,
12,29,-103,17,
88,180,32,49,
136,-266,-96,-111,
-82,88,-46,-25,
-26,-120,118,-39,
-128,-107,82,38,
-84,-176,6,-110,
-136,0,63,72,
99,-271,-63,-177,
12,20,79,-51,
-118,103,77,70,
80,-309,-76,-103,
42,-13,-194,-97,
117,-56,-40,-117,
-15,-59,16,-8,
53,84,-81,76,
188,39,89,-65,
26,44,-145,-56,
-91,150,-6,118,
-54,30,-47,-109,
29,-163,-131,95,
-6,17,-129,34,
-30,-69,-124,-172,
55,-98,80,54,
-51,127,73,95,
88,-101,-119,94,
-19,7,114,-14,
-146,-6,60,94,
-124,-184,88,-6,
-88,-33,-171,16,
-79,48,48,-25,
64,175,130,-11,
45,-97,129,11,
-24,20,-76,-2,
-70,132,-51,-164,
37,-160,-115,186,
11,95,-38,-18,
-7,149,-69,-27,
86,-190,-66,-42,
-2,-63,-105,80,
20,77,33,-30,
-79,87,147,38,
62,-48,-105,29,
-139,130,-76,50,
55,-28,-106,-36,
-34,31,-96,69,
-121,42,-110,59,
-101,-109,100,107,
206,135,-226,106,
-64,-237,108,132,
95,-101,117,88,
151,-20,-6,-87,
66,-106,-207,54,
16,-127,48,37,
-122,-158,-102,32,
-185,-141,203,-21,
61,61,-147,110,
32,-44,88,-15,
108,-61,-193,156,
-170,-191,129,148,
22,-3,105,-8,
2,-138,13,75,
2,195,137,111,
-218,37,105,-15,
176,-92,30,-15,
9,26,215,67,
-17,-115,59,67,
-179,-74,20,-179,
7,-50,-65,-84,
96,-173,30,112,
35,179,176,-37,
16,-154,-59,3,
31,117,96,-19,
-99,67,230,-142,
-7,16,4,-103,
55,-197,-139,-90,
77,-132,-61,-34,
-61,-36,-89,32,
105,-98,-33,-96,
-51,-41,-109,23,
138,151,-67,89,
248,56,28,17,
77,-60,177,54,
-111,-152,-26,17,
-1,-106,-196,-119,
33,-29,-91,58,
-82,-191,-188,-56,
-78,-55,-76,-32,
-137,-37,-76,144,
-31,102,47,4,
24,46,217,82,
-40,55,21,27,
-7,113,53,46,
139,-125,-278,-87,
6,-51,60,131,
-31,-130,-17,-44,
-15,-2,1,77,
53,50,-112,48,
66,-14,-128,-78,
144,-121,81,26,
-47,99,-88,-16,
128,27,148,115,
150,-67,-91,-46,
9,-99,169,17,
-34,11,-84,23,
59,2,187,79,
37,12,-37,51,
-44,2,-92,29,
-119,13,174,-28,
162,-2,13,-59,
-71,-174,-100,-37,
-158,-93,-189,-153,
279,-42,-10,96,
-80,9,-33,-67,
60,10,183,-3,
-79,-98,-50,-90,
42,49,-124,3,
21,44,113,114,
-59,-77,-81,184,
10,-81,80,85,
-130,-340,-221,-93,
145,-91,-84,17,
20,-95,68,65,
101,-63,154,187,
69,182,64,-105,
-44,20,27,-24,
92,20,229,135,
-215,53,87,97,
-51,94,-81,-179,
86,59,333,14,
105,-99,157,-29,
68,168,110,-88,
8,92,-443,92,
-2,68,-86,-98,
-130,42,60,102,
-62,-82,7,-11,
-177,-292,33,43,
-264,20,67,-20,
21,3,144,-13,
-197,-55,-91,123,
40,-45,26,73,
-22,80,-178,-24,
187,75,77,164,
24,-82,-114,12,
166,200,-44,-125,
-165,49,-172,20,
190,-14,26,-14,
325,82,-104,-134,
95,135,-99,11,
61,-59,-123,109,
36,-232,-166,-24,
147,-130,91,61,
252,184,91,98,
-58,-52,-8,295,
-63,35,252,-104,
143,-44,-95,-46,
-2,88,62,2,
-116,62,22,-15,
103,211,-111,-169,
-86,-28,171,-39,
-87,13,-132,-73,
57,-72,-14,-64,
-61,41,-49,-42,
190,38,-14,167,
163,-58,38,19,
-154,52,13,17,
86,-23,86,46,
40,69,140,5,
221,-35,53,-173,
-131,164,-18,-144,
-99,-109,42,-47,
-138,245,47,-162,
15,70,-125,-27,
-262,-171,-71,0,
44,47,1,-31,
75,30,117,60,
-166,43,-18,-204,
-8,-138,83,99,
29,66,145,-44,
-94,273,20,22,
-120,45,26,-4,
-217,-56,-110,-138,
16,-14,56,-69,
-260,-27,-28,31,
-32,-38,15,-9,
72,-86,12,93,
68,-171,186,172,
-196,87,-45,-258,
-86,6,3,151,
-116,-66,160,46,
-188,-100,79,-81,
-94,107,-24,-93,
105,35,109,44,
152,-80,3,135,
136,-102,150,-51,
-86,-6,31,-62,
112,-25,-94,30,
182,-197,-18,-8,
-10,79,255,143,
34,86,-13,17,
-350,-151,-122,-208,
-204,-58,235,-120,
22,101,-11,28,
-147,27,84,-146,
-18,-66,-14,-66,
-281,-153,98,46,
-105,51,116,-47,
125,106,-117,-215,
145,99,-90,-32,
-173,-172,-265,-55,
68,-81,-24,82,
230,11,33,40,
45,-205,174,-31,
37,-63,-19,-15,
64,-184,-181,-43,
12,-29,-42,147,
150,228,-119,-36,
169,-50,-147,-45,
261,54,103,100,
84,-24,-136,-49,
-144,-59,-34,-90,
-126,11,-137,3,
93,192,61,39,
-84,-32,-134,-84,
-234,-77,-7,-51,
52,-22,238,112,
-10,-336,-205,59,
11,24,-31,109,
241,47,127,34,
52,-98,-131,-3,
-161,-78,-47,-51,
-66,-134,-74,79,
230,2,-112,46,
-229,121,77,-85,
-147,-66,23,-138,
-160,85,23,3,
-131,-1,-72,113,
-194,-137,-21,7,
70,74,72,101,
156,-206,-207,59,
-76,67,-117,23,
111,22,291,-26,
183,181,107,-37,
76,78,302,-16,
4,-30,92,69,
-10,-87,45,-31,
-31,150,-61,6,
-256,218,108,0,
-226,-1,57,-24,
-211,112,-85,-101,
-44,-119,9,-134,
-52,3,-129,14,
-102,5,141,37,
-141,-87,-194,-89,
-156,85,27,305,
51,41,37,-177,
30,78,339,206,
176,-55,-113,-52,
13,-100,96,-50,
-47,-53,80,51,
-18,-28,-27,-8,
241,133,261,241,
57,79,9,-134,
-34,-66,-1,-79,
-279,3,51,-82,
-72,-50,-173,4,
86,72,255,-20,
-161,-25,137,-72,
35,-239,-36,-197,
39,-123,-46,-144,
91,-80,-147,78,
1,119,11,18,
113,-7,72,97,
-85,147,-80,2,
134,-46,183,-42,
-85,121,-74,95,
-20,-42,-24,-112,
-69,-43,91,-146,
151,-105,46,122,
-164,-32,93,24,
32,258,20,43,
109,-168,-251,-28,
-50,24,-132,64,
253,69,-15,-67,
10,38,-124,-87,
-154,-148,110,54,
39,-68,67,-71,
-90,71,-273,-12,
-5,12,-5,-92,
166,88,39,111,
-42,-75,-46,-42,
141,65,-64,95,
100,247,7,-125,
-56,-91,93,18,
-99,104,120,-158,
-35,-145,54,77,
166,176,0,84,
-240,47,-132,161,
94,-157,62,-4,
87,123,124,-20,
-203,164,60,-214,
7,112,56,32,
47,84,87,137,
116,-50,-175,56,
-7,89,114,3,
-28,-55,147,-27,
32,88,-67,-30,
-43,-36,-3,75,
-158,-104,-100,-39,
72,-71,19,61,
-14,127,14,-25,
-267,-122,52,197,
-177,-104,-219,-96,
-220,-84,-98,131,
49,-33,-147,-25,
67,-31,-54,60,
-131,-108,12,-162,
-5,80,-137,-44,
-16,127,-129,111,
40,118,234,-34,
115,-23,121,-54,
38,64,-131,340,
-158,-98,-16,132,
37,-6,40,110,
-135,-86,174,-29,
22,38,99,-12,
59,-267,75,192,
111,-12,-130,73,
-135,-94,-72,187,
-99,-139,68,10,
121,41,88,20,
-105,-73,-96,77,
121,-123,8,-23,
-166,196,44,-2,
197,-156,63,54,
74,-139,-1,-101,
113,-17,67,-27,
80,-71,122,-53,
79,-107,22,-112,
-50,-74,-59,126,
6,7,55,126,
-8,-54,17,-105,
-138,-135,146,-49,
-37,-177,13,109,
104,104,249,-220,
-7,-127,2,-64,
20,-19,142,-130,
-44,-62,-61,-105,
-8,70,91,-33,
-76,216,164,171,
140,2,-200,-275,
127,-92,-142,-62,
1,-17,123,-94,
15,-200,85,8,
28,-85,-20,87,
-127,94,107,-114,
139,86,121,14,
72,-27,-48,-61,
43,-52,-88,113,
113,44,157,-11,
96,-10,-67,-97,
-16,-54,-70,-9,
36,-85,140,20,
-20,61,61,-149,
-70,12,-88,36,
80,-175,-40,-31,
184,-41,-22,-174,
43,-157,-75,136,
77,50,219,-124,
45,-41,158,-79,
135,-127,-111,100,
-112,-41,127,59,
-148,24,-9,-69,
-132,90,-217,-2,
-43,137,6,-66,
7,-198,-36,-32,
-192,-3,130,56,
86,112,106,27,
104,-58,55,74,
23,-195,139,-51,
-155,-50,-103,131,
30,-69,-100,43,
-36,-57,-10,7,
21,-31,34,-91,
44,-109,39,100,
-4,116,-142,-180,
-24,-311,-90,-22,
45,113,22,50,
-156,272,-4,-51,
-121,-88,5,-82,
39,213,-97,243,
118,-35,-86,-60,
-204,-23,-249,3,
62,-21,-206,95,
118,43,182,-35,
15,169,17,91,
-62,-93,-54,-11,
-92,-154,76,73,
-64,-201,-102,-7,
62,-35,-32,-150,
-34,154,-11,-25,
89,144,102,-74,
-84,-168,-15,-21,
-120,-40,-35,120,
-104,-208,-29,-15,
7,16,10,-174,
-46,-74,8,-108,
-120,250,-134,17,
143,100,108,-56,
-71,-338,257,-99,
24,44,-35,-140,
-98,-115,64,-8,
-87,52,163,-25,
-59,-58,97,14,
7,73,-119,-40,
-104,-41,-64,-78,
83,-96,-92,-176,
177,-237,79,96,
69,68,-62,47,
34,7,32,-81,
-75,-266,-62,109,
-27,8,-5,16,
-103,155,171,-49,
79,-206,-8,-129,
19,94,-34,-50,
60,113,18,71,
-20,-50,113,-101,
-46,191,-32,122,
-50,24,50,-17,
41,-56,10,36,
-9,91,154,-91,
112,-109,90,163,
62,-196,131,-171,
65,-4,92,197,
109,15,57,-68,
13,-112,-132,0,
-205,84,-61,65,
18,-3,-31,-12,
66,45,11,-59,
47,-221,-85,-56,
-218,93,19,-205,
-127,58,-130,88,
31,-97,-190,-71,
-127,53,44,-38,
30,-63,-106,17,
-17,-118,-136,-12,
-39,117,66,-5,
-111,-51,-1,-100,
-41,-73,28,14,
-87,20,-76,23,
39,-216,-121,104,
32,111,-212,253,
-105,89,-27,22,
42,-90,43,96,
-70,24,-64,24,
71,-154,65,20,
-118,69,28,53,
134,-112,78,132,
61,82,22,-97,
109,18,46,81,
-51,-219,-63,0,
7,-27,77,161,
-38,-162,91,80,
-112,-51,104,-4,
50,3,-58,-19,
150,105,-136,88,
-22,-77,160,-61,
-108,74,199,5,
-85,-260,-21,-33,
1,-124,136,-181,
-47,113,22,178,
-62,84,-147,-104,
58,255,-89,-4,
125,-91,124,-57,
35,56,-88,-101,
118,-4,-47,-15,
-108,149,197,4,
-10,-261,7,52,
177,46,66,73,
-141,59,-72,201,
-38,68,-48,-57,
-17,-202,15,-52,
-15,-144,-38,32,
83,-15,177,-64,
-43,63,39,-6,
156,21,-58,-112,
-123,-18,-184,80,
-96,-72,105,-123,
-57,-38,85,111,
26,355,-90,91,
2,-6,-21,-95,
36,-127,-4,-57,
-25,-31,100,-19,
-4,22,-7,-45,
48,176,-127,-107,
-23,-170,20,-26,
104,-75,-6,-202,
183,170,-173,46,
127,-147,-111,-5,
-34,86,-166,-45,
-173,-47,-91,-50,
-148,99,37,69,
-52,268,30,-10,
-96,-87,-170,10,
-92,-255,-93,-82,
0,-137,-129,-114,
4,-40,-38,-80,
-100,-47,136,-58,
25,7,46,-22,
94,-62,5,-107,
198,36,255,113,
32,85,32,-152,
125,-41,-115,-82,
102,154,6,15,
-199,-62,17,-35,
135,233,-153,140,
-37,40,-72,-88,
77,-2,64,-21,
-34,127,-124,210,
19,17,71,-45,
35,-66,16,-104,
-168,45,51,-45,
-22,2,-135,94,
56,-60,50,73,
-76,41,-21,8,
111,-133,181,-171,
14,56,137,-189,
204,-132,-205,-96,
99,25,40,-99,
38,17,29,-11,
-78,110,100,-1,
50,-50,-34,129,
-127,-5,-2,160,
39,16,-63,16,
83,106,40,9,
-161,-92,-61,-42,
-81,-39,-55,68,
18,-86,-38,34,
-8,-115,18,-110,
14,129,232,-60,
-4,-102,-68,36,
95,19,119,-235,
49,-193,-83,-148,
-17,109,-81,-32,
53,-112,58,31,
31,-179,87,-109,
-55,-3,-317,-28,
-87,8,-110,96,
134,40,-10,-87,
132,30,-54,-115,
22,-5,-198,98,
14,5,156,-109,
0,71,-59,107,
-45,248,94,-48,
-122,-105,61,-40,
-53,44,-71,-21,
32,21,-81,126,
-29,-70,32,189,
178,-65,107,47,
36,38,27,-148,
-41,16,-123,270,
184,124,-45,-100,
252,-19,43,-25,
45,79,-110,-140,
-59,-36,17,-17,
-189,1,140,-197,
-4,-67,-68,137,
-217,-55,31,21,
171,-13,-107,-188,
111,9,-104,-134,
12,65,-95,-57,
-32,-56,-320,-192,
-130,107,81,-67,
-102,-45,-35,-62,
56,88,-10,102,
-40,95,111,236,
-45,15,33,97,
-16,-9,57,12,
-146,-57,-14,-32,
-104,-21,44,-91,
-130,-32,18,-294,
-26,47,78,-130,
218,-99,78,-57,
16,1,224,59,
-171,65,66,-411,
-65,-28,-53,-48,
-21,71,71,192,
-64,92,-37,38,
-9,-264,-63,-45,
-173,-114,-62,142,
-158,-6,-101,24,
-133,76,55,91,
12,18,18,88,
17,25,32,-46,
-76,-232,9,-17,
-48,226,80,22,
13,-3,97,-188,
-11,67,76,-77,
-103,-25,-70,222,
121,49,37,6,
-51,109,-134,124,
-110,205,-14,57,
70,-15,20,73,
-95,-88,21,-136,
-60,-103,37,-271,
105,-161,115,44,
-46,240,50,149,
-20,-199,-80,-89,
-156,-116,67,-137,
-93,21,7,-43,
-3,-80,45,-200,
-8,-111,-230,160,
-40,149,-78,413,
-164,-23,170,-250,
44,-5,-80,-71,
-26,-4,-98,67,
25,5,37,-45,
-12,-55,143,91,
-145,-8,65,-255,
133,12,175,-99,
19,-152,-33,-77,
-32,120,-88,-87,
-24,165,84,0,
81,1,114,-80,
10,-86,61,71,
57,-109,24,135,
143,-121,39,154,
122,-215,110,-178,
-139,23,79,-11,
-23,46,-27,-94,
-73,15,-16,-199,
-44,-14,-32,-7,
-89,119,45,-217,
1,-11,65,-159,
177,-118,138,-36,
-8,-90,39,63,
-49,-86,28,28,
180,-48,-63,-250,
-88,-88,70,-206,
63,-206,95,-156,
-18,82,23,200,
208,-86,82,-118,
12,104,-79,122,
-2,-38,118,-131,
-173,17,62,-63,
36,18,19,-42,
19,20,-58,-103,
64,52,-6,51,
-19,85,-36,-34,
68,22,54,-21,
44,-1,-67,139,
19,39,53,-20,
222,-63,-22,135,
-92,-19,14,-5,
190,-7,-140,-39,
26,-127,98,76,
-35,0,88,-80,
16,-93,38,-125,
-19,105,8,-58,
-11,-40,26,-24,
-18,-223,18,-49,
8,32,-118,94,
-100,-13,22,161,
72,-238,-36,-100,
-28,138,-45,48,
-79,-91,41,70,
-91,-92,-143,-187,
-41,-57,-56,-69,
88,19,2,62,
-75,52,-4,190,
4,-108,-8,89,
190,214,-62,86,
10,-105,-74,9,
29,50,8,35,
65,-55,101,64,
269,204,-130,58,
-95,-78,22,84,
-104,32,-12,-41,
-133,5,1,-46,
-42,-50,-30,-189,
-54,122,42,52,
-17,-5,-54,160,
-288,-6,-82,135,
-69,85,-133,-205,
20,67,-17,-113,
58,-37,97,-223,
-107,39,25,85,
41,73,65,264,
-46,142,4,9,
148,80,-105,-136,
16,97,-52,31,
128,-10,-45,-54,
-77,-118,-34,115,
-37,98,-55,191,
40,-137,19,-37,
-84,-21,-145,-43,
-128,-16,-23,49,
-211,62,-67,47,
-15,-45,-187,180,
93,-55,-228,-137,
9,-21,-29,53,
7,-31,15,-87,
-12,160,142,-8,
57,-6,-104,-137,
131,-292,89,124,
-37,97,-105,48,
-75,59,-152,57,
128,-89,-21,-63,
-26,-68,2,-25,
188,-142,38,42,
10,-58,165,-148,
-96,57,257,37,
-28,-9,-124,-257,
32,139,-16,194,
-14,-27,-18,-32,
167,-34,45,-12,
-280,50,-122,-132,
114,-141,48,19,
-178,-57,-6,-92,
295,25,25,12,
-52,13,106,208,
-59,-96,-66,18,
-249,47,-62,190,
19,-138,101,19,
-76,-81,-72,79,
-55,-218,-9,-62,
83,-89,160,109,
16,-24,78,167,
132,-76,-76,17,
223,-58,99,-256,
116,-125,90,-213,
-169,-21,126,-126,
-58,-143,-117,-187,
-22,-54,156,155,
265,-25,-125,-155,
-127,78,-66,-47,
-79,-269,-9,143,
-87,-153,253,-45,
-100,8,-200,-117,
-86,-81,-47,-41,
103,-61,-157,283,
2,215,12,-295,
239,-5,-85,-60,
39,-103,-124,118,
146,-57,-17,-72,
-245,62,71,166,
169,-72,6,91,
-200,-213,160,-22,
45,-24,119,56,
-49,-129,-44,-40,
34,71,47,-2,
232,134,-2,-36,
69,55,-272,71,
-150,-5,260,44,
176,55,16,176,
-15,-2,46,137,
-352,-60,-32,-183,
-106,-59,253,-122,
-157,93,-113,-78,
-184,70,104,-11,
23,-91,106,53,
76,1,70,-77,
0,178,170,-2,
-6,-142,96,116,
31,196,-69,-25,
-42,76,41,-94,
119,84,-46,-180,
-121,42,-163,-157,
-108,191,-2,149,
-1,139,128,-209,
129,141,-319,-74,
158,9,-40,-78,
-116,-8,84,58,
-60,166,-98,-147,
28,-181,48,3,
-68,-238,-151,-48,
21,-3,-71,19,
-58,-87,51,137,
74,-12,90,-149,
-245,-8,52,-54,
204,-385,193,-68,
-211,131,170,55,
-173,-113,-104,164,
-189,-21,200,-81,
177,46,143,115,
115,252,93,-102,
65,18,-249,26,
-69,328,-51,186,
-234,40,-55,79,
-170,274,199,175,
-33,108,56,-373,
60,-16,-26,-278,
123,156,70,-49,
-214,-26,65,153,
-89,179,-43,230,
-105,25,117,12,
-6,-85,88,-73,
75,-67,-147,152,
-200,-38,69,-9,
-45,-239,35,-24,
-47,-175,75,18,
25,215,64,-33,
82,-261,268,88,
146,19,29,142,
-179,91,27,105,
-27,-394,30,-226,
-175,97,20,-40,
-115,-62,47,-149,
243,-80,561,29,
99,21,64,-149,
-74,32,-84,-27,
121,18,-59,-247,
241,-180,181,-196,
-20,426,148,-277,
-16,184,-246,-21,
104,164,130,103,
36,120,69,66,
35,39,-15,102,
149,73,160,213,
205,154,155,308,
129,-6,19,40,
150,0,16,11,
-136,-275,-44,150,
-51,-227,-272,-219,
-236,134,-66,-166,
-72,15,-83,-2,
55,-336,-181,148,
-343,9,-148,-358,
50,-378,-97,1,
-57,-121,140,-61,
-147,-158,93,208,
24,35,-292,-292,
74,-153,44,110,
-31,-164,21,92,
-9,-43,6,83,
248,-182,55,15,
96,302,-79,19,
32,-5,91,-18,
-77,270,-269,87,
-10,44,112,243,
42,-72,64,-33,
23,93,37,186,
92,102,2,216,
-13,0,-76,-103,
152,197,-80,310,
24,-173,-28,-11,
143,96,86,-180,
-133,-27,-242,-1,
0,158,4,-103,
-101,-135,-47,-170,
51,-11,43,-46,
244,-257,141,68,
-114,-178,76,-173,
108,-2,-130,120,
-18,-193,38,-103,
-81,-144,37,145,
-139,-89,-50,162,
53,-6,52,75,
97,-57,84,120,
-4,5,114,329,
52,-56,57,163,
-102,162,-6,-121,
-119,-189,-126,19,
66,178,34,132,
163,94,167,-105,
178,19,-46,-147,
-61,127,-73,-81,
15,210,-100,115,
16,-55,179,87,
77,412,-48,149,
-141,-199,-189,58,
96,116,55,-91,
-26,263,-62,6,
-12,34,103,-88,
-106,295,102,134,
-18,-26,-64,122,
-155,213,-285,65,
-31,-218,-116,-155,
38,-110,128,291,
-52,27,148,245,
72,132,22,-32,
50,138,-197,32,
-39,-35,31,108,
-32,-141,-105,-78,
-59,79,38,-178,
36,-8,-62,56,
47,107,-8,126,
111,97,64,69,
88,1,-241,-135,
-31,-23,-226,-98,
52,-97,58,27,
36,-28,-4,-28,
-123,199,-21,122,
2,-134,-58,-59,
-24,380,44,154,
9,-291,92,127,
50,-77,12,-5,
-80,70,39,-203,
-142,81,-36,76,
-135,353,-160,85,
-23,-342,-114,-83,
13,-45,-164,124,
3,-94,-141,89,
1,-51,45,76,
-74,-41,-55,-110,
-93,195,-30,6,
70,-7,1,-117,
57,-23,-104,1,
-134,6,-12,27,
49,47,73,131,
-176,49,58,39,
274,8,61,14,
-8,-31,173,95,
139,-95,47,-44,
-237,-26,-168,-73,
-165,-79,51,45,
90,-15,-38,22,
-45,130,49,22,
-139,-45,-132,54,
-46,8,101,111,
145,-1,29,-28,
109,-21,61,4,
38,-52,-169,72,
9,103,107,135,
11,-141,197,74,
-21,-174,-53,-81,
265,-73,56,26,
-164,28,16,-71,
-33,19,-163,61,
-169,-55,46,-115,
-123,58,-72,104,
84,-39,-57,-152,
48,65,196,92,
-277,-11,142,55,
-47,-113,-62,-155,
-103,-103,-47,-193,
293,-53,212,125,
-213,144,19,38,
-98,15,-44,-10,
-22,-168,7,-52,
202,-75,59,27,
68,84,63,-22,
-40,-128,-69,-207,
223,8,60,146,
-161,-85,147,119,
-8,27,-97,14,
214,-73,122,128,
48,94,-43,224,
-74,136,11,42,
1,-23,50,240,
4,53,0,30,
-23,109,-50,-86,
-64,11,-8,95,
60,-64,-150,-133,
-93,35,-38,19,
118,-170,-94,80,
331,-27,-53,-106,
-103,-46,204,-74,
41,32,87,-110,
119,77,-90,5,
160,144,-168,204,
-73,3,49,159,
-80,-65,47,-36,
76,20,-26,81,
-230,-7,-257,9,
-323,216,116,-41,
5,111,77,-66,
73,61,-23,148,
-90,10,41,22,
-126,-165,310,-71,
82,-6,57,-52,
-25,-66,-10,-46,
358,-114,38,71,
-244,-38,-73,-69,
86,15,1,-119,
-104,-63,-50,179,
-46,-42,-8,125,
-79,103,-262,-87,
150,-76,-44,-48,
154,68,123,114,
-45,-46,82,32,
79,-176,-48,59,
-71,-164,37,-102,
108,-69,89,33,
-1,42,83,95,
14,-13,-12,37,
-110,-195,-10,76,
-51,-106,35,205,
103,89,57,50,
23,-43,34,0,
-156,62,126,6,
62,27,119,157,
-78,73,32,84,
93,-118,-16,14,
19,-20,-35,-173,
-80,4,-20,2,
111,69,121,-31,
146,101,57,-85,
-302,56,-167,0,
-145,111,4,-44,
3,229,196,252,
225,11,67,-45,
23,-66,-123,28,
149,96,-31,61,
18,-62,-225,-11,
-137,94,-139,-67,
-161,53,-63,33,
-82,-62,-14,-108,
-56,54,14,33,
63,-20,-60,-4,
71,-17,316,105,
130,-19,62,7,
-36,43,73,50,
195,-59,43,47,
121,-46,-182,-147,
57,-157,76,99,
-100,46,-272,-125,
-177,120,-45,-65,
-97,-222,-65,186,
121,27,13,-3,
8,-104,277,-81,
-10,-18,28,65,
155,-8,-125,-123,
-51,-38,-173,93,
166,119,29,-183,
71,-33,-81,122,
-44,-100,37,-134,
119,-7,29,-67,
23,-59,30,-18,
-37,-172,21,-98,
-8,-15,-92,185,
17,120,48,143,
71,27,-46,-81,
-62,4,-57,70,
10,109,-132,145,
119,-31,-1,-15,
-22,73,-113,-110,
-82,39,-92,-98,
247,74,51,66,
-46,-114,5,-50,
-15,9,-47,87,
-168,-184,-57,-162,
25,-82,-46,26,
90,129,-65,203,
210,-227,-1,72,
77,63,-133,88,
97,-71,65,-268,
-2,-17,29,116,
-91,-40,-116,137,
168,135,-79,-32,
58,117,-52,73,
41,36,87,79,
-64,-19,-70,389,
-16,122,30,125,
36,-157,-137,157,
-172,150,-61,120,
125,-40,-80,-65,
-50,27,213,-104,
-12,-83,-58,-48,
-65,-123,-9,-21,
277,-196,83,-120,
219,-11,-19,45,
76,-57,-43,-130,
-57,-20,-92,-165,
-60,-19,4,30,
44,3,154,152,
-28,-75,-97,72,
-36,-13,-60,220,
-86,39,-122,140,
217,-133,40,-8,
-87,63,165,80,
74,32,-23,-98,
28,32,-68,-185,
73,68,74,83,
-87,-67,77,-22,
-168,-104,68,42,
-73,-40,46,37,
-146,96,-56,-3,
-54,-52,97,107,
190,9,272,63,
142,-8,19,-54,
-55,-100,84,-7,
-178,81,-86,21,
-42,180,-104,-139,
-166,216,-235,-22,
58,-89,-24,-109,
84,109,73,103,
-180,-13,-189,305,
-83,-8,-5,-64,
31,-55,93,-7,
-18,9,8,-141,
-11,73,126,100,
88,10,24,49,
-97,173,1,-118,
-179,179,-52,35,
-141,112,122,20,
87,-113,-356,127,
-17,33,-53,-102,
23,2,171,132,
84,-181,-155,72,
47,158,4,-6,
15,-294,124,-40,
125,-208,-50,-25,
15,77,172,119,
-25,16,132,-19,
24,-102,357,-97,
67,-203,50,-100,
-53,-20,147,-2,
16,-69,69,78,
149,-22,76,-185,
-126,-51,57,147,
262,93,199,-133,
232,175,89,-50,
-218,-4,128,35,
-172,-193,-46,-129,
-134,112,-211,12,
31,12,-38,-120,
7,-156,-94,-150,
-132,4,156,140,
-27,-98,-241,122,
-91,-73,-73,-159,
29,-105,-79,-76,
33,-14,115,-28,
21,-58,-103,72,
54,144,129,70,
-68,-248,-22,38,
-59,-164,1,29,
-39,-98,-43,-64,
62,94,187,116,
-1,141,-271,89,
-5,-236,51,-142,
-101,-170,-100,-126,
37,-191,-59,-93,
-27,67,174,11,
139,-7,117,168,
-51,120,15,180,
-24,147,-152,237,
-53,-38,-124,-41,
-19,141,-152,-106,
-56,-109,-9,-99,
19,-174,-181,-133,
-57,-103,-60,-1,
2,86,-113,34,
-172,-149,247,-176,
-104,-140,-108,-150,
-67,92,-59,-143,
-71,-5,30,-45,
-101,48,-149,-68,
-8,31,74,-60,
-207,-137,28,-113,
-78,30,195,-247,
-51,-62,155,-28,
254,99,10,77,
-226,-34,106,160,
-124,80,176,113,
-15,-223,175,-5,
-2,3,-156,57,
-22,176,9,-136,
135,-150,-64,-281,
6,-9,215,-8,
-27,-45,-333,100,
65,-6,-33,67,
57,-35,-27,118,
-6,-45,-161,24,
105,-49,30,-91,
-107,-171,9,4,
-11,55,128,-144,
-93,-70,-178,-1,
84,188,313,-140,
-167,133,281,56,
-6,-95,-48,7,
81,-112,355,111,
-53,-92,-132,-89,
291,-154,84,1,
-103,15,-173,24,
90,-70,60,-52,
203,181,78,192,
-59,-14,-13,-28,
52,-54,-107,65,
-224,96,-33,-41,
96,246,-155,-238,
65,-293,-48,57,
86,-72,31,149,
-42,23,66,17,
9,10,-64,-218,
-10,123,248,-120,
88,-178,7,-173,
-197,188,-20,53,
249,72,-26,173,
-7,50,-61,-365,
18,98,88,385,
-103,130,97,-234,
-22,-4,271,-122,
140,-103,-416,165,
0,-195,-25,-56,
20,-272,24,44,
-16,-160,-67,64,
-30,19,24,105,
-19,-129,329,58,
82,101,116,245,
-70,-1,-30,255,
156,-288,-96,-47,
67,180,-70,105,
-322,74,100,129,
-56,-235,-140,-233,
-23,-108,-51,27,
-98,335,118,-83,
-54,30,74,22,
-278,-187,-105,-165,
26,-87,-29,-41,
73,-37,57,-142,
-87,193,-152,-72,
-45,61,-121,-73,
-11,-150,-75,46,
375,-56,137,-352,
27,96,141,93,
-75,29,97,-61,
-154,120,244,59,
28,84,123,29,
-114,-114,-33,-233,
14,39,-63,214,
121,144,-130,-12,
34,-41,-261,84,
150,-41,-207,-48,
-4,109,-376,-93,
-11,-240,25,-104,
136,-197,329,-46,
80,119,-275,4,
103,-132,-29,-85,
-84,-49,164,-183,
-38,115,21,-2,
27,103,112,-140,
31,132,262,96,
-199,-133,134,-47,
90,-25,-49,83,
-46,263,54,-42,
-39,-280,-50,-277,
-27,-62,32,-198,
9,68,169,-58,
22,-50,129,50,
-13,-68,254,25,
11,-86,42,-66,
182,134,-24,13,
-31,87,-118,6,
83,171,9,134,
-50,-303,-389,60,
-111,-156,218,14,
-45,-7,94,-125,
-66,-208,-177,-244,
-104,-199,158,32,
23,-162,23,-29,
-5,82,63,236,
102,-100,-16,152,
-64,-37,-5,-71,
147,-139,40,191,
46,19,-5,18,
-86,-52,161,84,
-1,225,-51,-7,
-16,-62,259,34,
-183,-2,30,-17,
22,-175,85,-75,
-83,-37,-16,3,
-22,-89,40,-144,
53,109,-108,373,
-2,1,196,15,
79,-37,-175,284,
-91,-23,-133,162,
24,-13,-42,76,
-76,28,-67,-125,
72,2,-31,-16,
-128,-51,-68,12,
68,288,175,7,
-46,52,38,-94,
-144,-161,105,-76,
140,250,64,100,
-148,-50,-81,-78,
-12,210,-155,-67,
10,-239,6,-148,
6,-73,200,-61,
-147,163,169,19,
-34,-70,-327,-73,
-128,264,55,177,
-17,13,234,4,
40,-81,-83,30,
81,110,-108,-55,
149,122,21,86,
128,141,-143,45,
-19,-42,-154,10,
-96,12,-140,-156,
-92,-91,199,69,
111,297,19,31,
107,171,-371,33,
-149,95,-80,-79,
136,137,-42,-9,
78,84,70,72,
159,43,280,-335,
-76,-45,78,-18,
-43,28,191,52,
-118,39,-136,75,
86,17,-126,72,
107,88,149,3,
-12,91,-32,110,
81,4,23,169,
5,-122,11,-118,
24,74,197,28,
-131,-81,188,-190,
-11,196,-3,-121,
-189,-2,-267,-34,
-41,83,55,-153,
-218,-173,8,-154,
-61,52,319,26,
-85,70,-39,-39,
-229,-61,-71,-138,
-20,-12,137,34,
-333,46,59,76,
202,97,-110,90,
100,157,347,71,
90,-45,70,-239,
14,-185,-67,-173,
86,-67,-156,59,
-224,-199,-21,-111,
152,51,57,23,
89,-116,25,12,
-49,104,30,172,
-60,-128,41,-141,
9,170,-100,65,
185,32,288,-94,
-38,41,208,164,
-101,29,69,98,
77,-21,181,-107,
64,120,-10,82,
14,-100,20,-13,
42,-289,-156,16,
-27,-121,58,54,
-16,75,-13,-108,
-7,-279,-65,-165,
-6,-62,181,-20,
-314,88,-136,-140,
67,-126,-130,-426,
2,-258,72,175,
225,-71,-244,-153,
-479,-214,129,-232,
-4,6,-18,-142,
-125,39,42,151,
133,232,138,-6,
-104,-80,203,43,
-51,-1,241,-11,
60,124,201,-42,
11,-20,-55,43,
61,83,-166,6,
29,-346,-71,267,
-6,228,70,327,
-146,-20,-131,-119,
91,-21,-67,35,
44,354,67,-15,
-64,-58,-178,-58,
10,191,-192,110,
-10,55,-60,27,
-55,109,-17,-7,
-150,117,-24,-94,
66,233,212,-32,
-155,114,187,-4,
123,97,-298,64,
84,155,-10,-212,
-30,-24,25,-187,
-31,-49,-13,-162,
-120,20,-266,-214,
-127,115,-9,-120,
153,22,-65,-68,
-83,-20,150,70,
202,77,24,-119,
-190,-55,24,-212,
-20,-66,-11,16,
32,-155,-114,-47,
122,202,241,-151,
-154,-58,-28,96,
-145,86,-100,149,
-32,13,217,-94,
-66,-128,-226,82,
-43,-12,123,35,
96,144,83,-62,
-95,-9,-131,320,
-76,-168,-104,-281,
-23,-46,-57,78,
-76,-186,103,357,
231,184,-34,-168,
57,47,-68,-53,
99,129,-171,-150,
-100,-132,-71,155,
45,-21,1,-175,
48,15,308,-147,
34,172,86,97,
112,95,156,-180,
53,-21,128,103,
-5,230,54,-74,
23,-58,-38,-71,
5,-122,-131,321,
66,6,-53,174,
-43,20,-48,314,
-184,80,45,104,
-24,-134,204,111,
-16,-156,-182,100,
138,89,7,-162,
-107,-264,-74,79,
11,41,-99,216,
-215,-139,-52,102,
164,37,101,182,
-169,-95,216,-129,
-4,64,131,77,
-247,-3,-32,-105,
41,-177,-65,-96,
197,98,-4,147,
-178,67,-106,-86,
5,110,-5,-52,
62,110,-52,190,
30,-11,-61,95,
18,-162,-25,-96,
-105,-166,109,54,
-14,247,185,101,
-20,-17,-261,-115,
111,-44,81,60,
-133,-157,83,-164,
28,-66,-73,125,
114,70,174,54,
33,280,38,111,
20,165,27,-173,
-91,-76,-352,115,
-30,-115,72,76,
57,-18,-43,-126,
112,5,-117,87,
-111,-40,-260,-17,
-15,42,-110,29,
65,35,227,-102,
65,-31,159,68,
-19,35,11,31,
-17,258,-27,-241,
89,-107,310,7,
196,-42,51,-161,
6,25,244,240,
-112,-89,42,110,
-70,-180,-23,181,
192,104,207,204,
66,36,-4,72,
71,-115,272,-67,
113,-103,239,-186,
-79,195,96,186,
-16,58,21,-194,
-22,8,18,133,
-17,22,148,171,
-4,135,27,22,
21,47,-66,-168,
-25,148,-218,126,
40,72,15,105,
-90,138,-107,-83,
3,-127,206,38,
106,3,195,93,
-20,-15,-87,-219,
115,14,249,-138,
167,-3,45,-57,
-16,-50,-153,-102,
16,41,1,90,
19,-29,183,67,
-38,-39,-120,138,
-76,-37,193,29,
-125,-215,-65,-136,
-105,-86,97,-17,
213,194,32,-55,
-151,-95,195,212,
-39,8,63,285,
-44,-146,-29,-117,
18,-79,141,143,
37,-64,128,99,
0,-36,-48,-150,
-69,98,156,-122,
-155,-14,77,-107,
135,-24,-176,160,
39,-7,-73,-80,
144,-23,-21,-44,
-126,-11,-170,19,
-59,78,105,-28,
16,-168,-215,-19,
-100,123,-46,-135,
25,-116,143,23,
-10,57,-178,16,
91,-86,134,-51,
96,117,131,-85,
75,158,6,-84,
-122,218,169,91,
-78,-16,245,-52,
22,-92,195,-86,
34,-168,51,22,
-7,-54,39,-142,
-7,62,-76,75,
9,152,51,-176,
-55,-226,-321,-16,
-3,9,0,-97,
27,197,143,-60,
-47,-107,215,-19,
156,-122,-89,-42,
-40,-163,-200,-46,
-150,-84,-61,-18,
4,-185,-96,4,
-13,57,106,31,
-102,-278,-250,-95,
35,-71,-39,-24,
97,-10,-77,-184,
-66,-130,-4,24,
84,-143,50,6,
135,-86,62,-17,
-10,132,29,116,
129,55,-14,-56,
-61,6,-275,110,
-14,-145,-27,37,
105,138,-6,196,
104,118,-32,-95,
-39,37,-294,-88,
225,-91,99,-12,
-283,-3,62,13,
41,-23,-149,133,
76,-61,-17,-53,
-60,81,8,47,
12,290,29,165,
188,-42,-31,-37,
87,-86,-40,-41,
67,111,-377,-72,
-198,-52,-36,-20,
239,230,-128,92,
8,-230,37,-115,
-85,-56,-97,35,
-152,0,-181,41,
100,70,83,-235,
-90,-142,-94,-63,
55,146,-144,73,
-43,-194,98,-92,
-147,-104,39,-6,
-55,-22,299,164,
202,215,15,35,
3,109,166,40,
-205,-31,-249,118,
188,45,265,213,
142,-148,-98,62,
-41,64,17,-163,
-65,30,-175,-72,
-14,42,73,6,
-129,-187,-217,179,
-99,-29,83,44,
1,58,141,-27,
78,-145,-79,225,
-68,36,-13,-14,
-7,-30,-77,-2,
-45,112,199,-96,
112,-71,-60,44,
134,67,310,-6,
62,-11,180,-133,
110,-207,46,-101,
-94,-65,124,141,
-106,-99,-43,-66,
126,4,203,82,
29,-145,-153,-25,
-115,63,-28,-53,
-9,150,-87,-16,
174,-111,24,122,
-21,45,-136,127,
91,24,62,-10,
26,-22,-27,-84,
200,-155,-207,77,
-28,215,260,2,
-118,97,-197,-63,
-58,9,-98,-106,
-23,-49,-5,-108,
-122,-134,2,12,
-1,-68,65,-175,
-138,-71,-124,-138,
-63,-19,84,-196,
138,-104,-109,47,
-5,53,-73,-37,
-7,38,148,-25,
-36,-157,-255,13,
-94,-12,-39,-80,
7,69,-92,-72,
-244,-173,-220,-31,
-20,14,-158,-31,
-26,168,22,67,
63,10,198,74,
2,98,147,-49,
-47,192,87,-51,
-3,142,90,21,
-103,99,45,-83,
-95,-137,-51,-54,
75,19,-56,3,
200,14,-127,146,
-68,-76,141,-39,
72,27,28,-215,
45,58,17,-164,
194,15,-161,30,
-79,-97,-111,-31,
62,8,-68,274,
-73,113,17,128,
69,136,-23,13,
-93,148,20,160,
-47,-31,353,46,
-67,137,49,41,
-67,-65,-57,65,
-27,38,46,-138,
98,-188,277,124,
201,-18,-6,93,
75,264,-175,11,
85,-155,-166,-192,
-26,-34,-142,-30,
82,28,-68,78,
66,71,78,-3,
18,125,-161,87,
-51,-111,146,-16,
32,-162,12,-149,
24,31,114,-72,
-27,109,122,-52,
66,208,265,85,
-152,49,194,57,
9,-84,-169,-113,
135,49,-70,136,
30,-121,-69,-8,
21,90,178,-55,
-4,-149,-312,-32,
34,-57,-157,34,
101,180,-1,-56,
-151,-21,165,-182,
66,-14,-72,86,
144,84,-16,23,
86,54,-101,-11,
113,15,-200,158,
-95,34,122,70,
-76,-56,-180,19,
-44,65,-111,-183,
-123,154,164,-67,
-9,-127,59,-215,
-48,-112,-84,64,
133,28,88,132,
90,-2,192,-90,
-29,-251,-90,212,
29,-61,-377,106,
-9,235,51,-103,
-105,-175,-142,204,
-106,-270,155,57,
155,172,53,104,
-122,-183,259,91,
-80,8,60,70,
-71,80,83,62,
166,121,93,6,
28,-82,222,17,
74,92,157,184,
3,119,-20,122,
-3,12,154,167,
87,-145,-163,-175,
18,56,107,1,
4,7,-55,16,
-154,-99,-136,-89,
-40,114,-2,34,
113,-107,84,-195,
97,-56,-11,-74,
-14,-116,34,153,
-4,188,-74,137,
-45,125,-54,-8,
-38,69,-67,22,
-20,71,-3,34,
96,57,-80,35,
-47,-23,118,77,
-20,-68,37,-52,
-10,111,1,188,
-43,-167,35,106,
24,-13,44,-16,
-157,-98,-48,-60,
181,74,-29,227,
-311,-148,-155,80,
-50,26,-118,-22,
2,-48,57,57,
-3,-1,66,73,
-113,-29,-136,-65,
15,82,-44,-128,
192,-8,169,0,
-112,-46,5,-11,
253,146,-2,45,
-197,-106,-78,-44,
-128,27,70,39,
25,1,51,-69,
70,4,-60,2,
-32,-37,74,-139,
97,75,91,-10,
-78,-106,64,-15,
43,133,29,-153,
53,78,113,-38,
-139,-17,-205,106,
-154,-51,16,7,
140,-196,6,-172,
-165,-118,108,-93,
115,73,47,126,
-33,35,69,-61,
122,122,-166,-148,
142,87,-1,16,
-188,-43,-46,19,
234,78,196,-150,
75,116,131,42,
-103,87,-49,112,
-63,-44,66,63,
19,-52,-19,-119,
77,-68,-110,70,
78,98,-88,-67,
96,-61,-169,20,
131,163,-124,-170,
-94,56,49,171,
100,160,-12,-94,
102,9,5,-153,
-71,10,96,78,
-152,-119,82,31,
195,-71,231,-145,
224,72,119,134,
82,108,-65,-100,
-216,-155,86,-168,
-9,-79,-51,-297,
-10,-88,188,18,
-1,-68,56,116,
-54,54,3,-68,
-109,-59,-122,18,
-2,-42,-166,-219,
63,110,136,-191,
-63,-106,67,10,
-164,-58,164,-91,
143,204,95,-116,
-37,45,-131,-182,
156,67,-139,140,
-146,-61,42,-108,
-1,46,-80,-31,
30,-76,-80,-222,
47,-69,150,7,
-67,-78,-21,-25,
-44,-68,-284,-6,
-21,33,4,-67,
-191,-121,-27,-37,
-36,-93,134,85,
-7,16,217,9,
44,-163,0,34,
-102,158,194,-55,
-43,68,-100,-108,
41,-46,91,-20,
56,79,91,76,
248,37,80,142,
-110,-9,-41,71,
-27,23,-111,146,
41,-89,111,126,
70,-77,-18,-73,
-190,-78,-248,-119,
-172,-49,-52,-166,
-32,-129,108,9,
42,81,-50,-49,
-221,22,120,34,
47,4,136,-21,
-108,129,-218,90,
42,-69,182,-21,
-137,13,-77,65,
-32,-5,-66,-4,
-197,88,109,-160,
59,-77,-134,-308,
12,101,17,143,
-90,36,61,23,
165,38,-246,30,
120,86,194,-44,
28,9,101,128,
66,-106,-95,-181,
43,-24,-67,-59,
163,225,158,-33,
77,-65,-46,43,
154,-60,51,73,
120,-96,-66,-11,
-179,-7,167,37,
114,-41,11,-98,
8,127,-160,-124,
116,-7,250,-41,
-14,-132,344,-15,
41,-139,-1,75,
335,-3,194,9,
159,182,-60,40,
-127,72,166,-160,
75,35,42,-16,
204,206,97,6,
200,159,169,126,
-83,-171,2,-52,
-75,-56,-46,-178,
17,-130,-66,-253,
-64,-85,-137,-4,
80,-24,95,206,
-76,-2,77,69,
72,-119,83,-63,
137,257,195,0,
10,-49,-11,102,
-31,-7,-197,-181,
-27,60,-39,14,
214,-73,-210,-123,
-92,-223,-91,91,
149,35,1,-4,
-141,-124,2,49,
63,-19,261,56,
-21,-107,-48,-165,
-39,-139,71,15,
14,-91,101,44,
-62,-19,-143,61,
-20,-32,156,-145,
12,13,145,58,
162,-48,-59,50,
18,10,168,34,
31,-61,7,104,
-33,-7,-210,81,
85,-87,135,-17,
196,37,-49,33,
68,51,-104,31,
69,-7,-111,-28,
-25,147,-13,-36,
-187,-146,-12,-1,
28,-154,-34,-74,
-82,-185,-29,85,
130,-159,-47,-101,
-59,154,236,237,
76,-72,-46,-14,
-14,-90,200,-182,
225,27,11,0,
-91,29,28,-33,
51,-50,-134,-148,
1,-44,193,14,
-227,-75,-92,32,
173,70,31,-106,
208,-85,90,141,
-11,70,87,140,
-22,6,107,4,
-18,13,125,-121,
-152,45,187,86,
-41,-2,-90,54,
202,102,-61,-130,
44,8,109,108,
-155,132,-126,70,
142,-49,93,-66,
-8,11,112,-142,
-134,-100,-70,17,
177,-110,-79,-126,
156,-86,-35,-25,
258,159,101,-108,
-59,74,-48,79,
-71,-151,-205,-181,
-7,58,-171,-28,
160,110,49,17,
242,82,6,93,
-98,-98,31,-106,
-20,71,-73,32,
212,-40,52,-65,
-45,33,137,49,
-62,131,-194,180,
-33,55,-103,10,
-37,-136,96,-129,
113,274,56,-125,
-86,69,30,101,
39,-17,74,-122,
85,-128,-85,-144,
118,-99,116,-28,
-150,44,240,-105,
-38,-11,-109,141,
108,-189,39,138,
49,-8,45,50,
-118,-11,-81,42,
84,10,57,97,
164,75,-47,-32,
41,-145,152,32,
26,12,49,-121,
3,83,43,-133,
118,0,-3,127,
102,-135,11,154,
-39,144,4,1,
-154,68,-2,89,
-184,25,-69,86,
174,137,18,130,
101,-65,-54,-160,
-38,-93,13,-84,
71,-119,113,39,
7,-58,-5,-48,
162,-22,66,61,
-154,9,151,-182,
-149,-192,-134,-60,
-85,27,-131,33,
-242,48,-7,117,
-138,-22,24,-36,
157,-7,35,-150,
-56,70,22,-35,
-33,-101,-116,9,
268,119,6,21,
6,-10,21,-158,
159,-11,102,-61,
108,95,158,-23,
-90,-45,-159,87,
-116,-58,-20,-140,
95,-24,-43,-38,
-97,-1,70,39,
-10,88,66,2,
73,-149,241,-98,
244,232,-18,66,
103,205,73,-20,
199,-67,-49,-32,
95,168,-132,-35,
-88,89,303,160,
-85,67,-77,-75,
-74,-27,34,-168,
-84,-19,239,49,
-50,138,-32,-56,
42,-51,164,-137,
190,-52,-9,-64,
-22,65,148,-32,
-119,-123,41,-121,
15,14,-129,138,
16,-50,-27,196,
93,-60,18,-214,
-98,120,103,-140,
72,-77,-123,-174,
-55,61,12,-26,
59,76,92,-67,
74,-24,84,-29,
-60,-100,113,9,
-2,-44,8,34,
75,-28,144,-47,
64,-173,-9,102,
-88,-25,-114,-10,
-142,-53,79,-31,
190,36,-94,75,
143,205,-74,107,
-101,7,12,79,
-251,12,127,63,
195,398,228,-53,
-164,-92,-138,191,
180,181,-47,-113,
-133,140,-113,-32,
-250,-237,83,145,
-130,66,143,12,
317,190,-131,83,
13,105,-168,-20,
-164,102,-163,167,
17,-177,19,99,
-55,86,-28,49,
-173,156,-147,249,
54,-170,216,-281,
-49,36,-204,-237,
143,75,58,31,
-251,-154,152,-211,
-106,-72,-224,-78,
-95,-27,188,-122,
-95,103,108,10,
-41,-89,-28,-55,
-20,137,-84,-95,
39,139,-51,35,
-25,162,-133,-149,
-26,-127,10,-150,
-184,-18,-410,-251,
-94,2,-69,130,
61,155,94,-48,
55,93,-87,13,
-107,-134,-65,-61,
77,-154,-258,-133,
-63,218,-65,-70,
126,95,29,246,
56,-200,-67,-114,
208,-339,81,32,
115,260,-136,161,
-89,-178,-65,54,
126,-41,54,73,
37,-39,-30,-205,
-63,-126,115,123,
-116,-214,57,126,
-35,29,-11,-3,
173,-121,150,52,
-3,16,56,-109,
-34,-8,149,15,
-68,195,-158,-47,
-65,-69,193,-12,
-65,79,14,-54,
31,-50,-18,22,
-174,-157,-320,-129,
137,117,-147,55,
121,33,77,108,
-122,92,-19,-72,
1,-236,-112,129,
149,244,131,-36,
-68,-339,-238,327,
-29,-33,111,-169,
102,-214,98,-5,
-32,-65,-196,100,
111,-58,7,-129,
-9,-75,-124,-108,
-23,-224,56,228,
256,-138,158,-246,
-57,15,61,-56,
-152,-225,21,-87,
77,-125,81,-66,
-224,15,81,-190,
60,-105,217,-48,
106,-31,156,47,
-14,-55,-132,87,
-182,-72,304,4,
38,-54,145,99,
39,62,-59,98,
15,-250,48,3,
136,-73,-229,-73,
-23,-71,-54,126,
-257,-116,80,67,
136,99,-29,-244,
53,80,18,-220,
10,-103,-37,152,
-43,-153,166,156,
104,-82,-154,-37,
43,5,-41,198,
-63,-39,40,-29,
-113,7,-202,-60,
97,-217,290,115,
-244,67,27,-117,
-29,4,58,127,
5,-28,98,187,
-49,-154,-53,81,
182,85,-87,133,
194,-37,-119,29,
-55,-134,44,-87,
-4,27,-216,27,
109,-37,61,-191,
-21,7,221,4,
231,-92,-16,13,
-12,-59,-45,-228,
83,-65,-9,308,
-18,14,220,243,
-40,-105,62,53,
19,227,-81,96,
78,-58,294,-28,
33,33,-60,218,
0,-100,-182,13,
-134,74,130,-141,
97,52,-66,37,
-128,-123,-234,-103,
-4,52,3,9,
34,157,214,-172,
114,146,-131,-175,
-137,129,105,-139,
-85,239,-110,113,
21,66,-47,2,
-118,134,-361,-67,
-269,-210,-68,207,
101,-184,3,96,
-112,-57,-18,82,
77,42,-3,-83,
166,0,185,228,
207,-45,-135,-132,
-37,-103,-256,-256,
116,-83,302,-157,
-124,-45,49,-84,
74,-6,39,-31,
-204,-51,105,62,
76,-39,-19,-240,
-49,-110,29,8,
60,2,110,-132,
-66,47,-10,203,
134,-119,-7,122,
-170,61,35,-25,
37,-113,-166,-2,
-102,-70,-24,-3,
68,53,166,6,
68,157,97,-26,
-82,82,-24,82,
-21,-46,-131,168,
-14,60,-74,-89,
-138,-53,1,-172,
32,-35,-27,104,
11,-57,183,-4,
163,-62,60,-31,
-4,-24,2,5,
24,57,38,27,
139,-97,-52,-41,
175,58,117,-14,
245,17,72,-133,
-41,-54,-12,-45,
168,8,-62,-45,
111,-13,6,-116,
80,70,34,-63,
-29,112,-133,43,
-116,0,-46,2,
255,26,-109,-47,
-180,-61,126,-167,
-158,-171,87,-52,
-138,-21,-83,54,
26,75,138,-28,
-39,62,216,45,
-28,202,-44,27,
-49,-45,-101,-63,
-32,102,-69,-134,
-130,-45,103,188,
106,103,19,-98,
227,72,51,70,
-94,-41,187,-25,
-68,12,-108,-97,
-57,63,-50,123,
208,-57,68,38,
-37,34,95,-15,
2,-34,-16,185,
9,0,-48,34,
87,118,-21,147,
10,-30,-31,69,
52,92,31,147,
-11,-36,-23,145,
134,-109,33,-95,
97,87,-27,36,
-87,163,-11,84,
-136,-6,49,27,
-177,43,21,-70,
-39,-102,36,-53,
89,-131,75,258,
98,-53,-21,-78,
13,38,73,-90,
-76,-92,-141,214,
-13,-5,-17,-82,
24,64,-78,-89,
-289,9,99,118,
167,146,140,-34,
-109,-17,-46,-226,
182,-99,-52,-263,
7,192,-14,-8,
155,23,103,104,
-82,-24,27,-241,
-103,-94,15,-128,
50,-19,-41,-229,
-14,-21,27,-10,
94,54,10,11,
-177,-1,-110,-23,
-106,-35,-128,-123,
110,44,-42,64,
-141,-206,5,-209,
14,93,239,247,
-107,-150,-25,122,
-28,113,-115,18,
-31,117,-148,-44,
134,-57,205,-217,
41,-178,-20,-34,
86,-52,54,-12,
207,-82,1,61,
-183,166,201,67,
194,17,-56,19,
120,19,66,-184,
-1,41,-54,-197,
-30,60,55,6,
-11,-41,-79,-20,
119,14,35,18,
-66,-92,39,-64,
-72,-251,-38,-56,
75,-188,21,121,
96,-95,-144,132,
38,-39,10,1,
-69,-80,46,444,
56,143,88,-96,
-89,-87,-54,18,
-21,82,81,-44,
59,-203,-1,10,
154,77,8,-94,
5,-43,119,-68,
215,-44,-77,44,
-85,140,123,-151,
134,-33,26,-168,
5,142,113,-135,
-80,-88,-52,-130,
47,35,-31,116,
214,3,63,-10,
-64,-58,-94,75,
232,28,191,41,
-106,-2,18,-39,
18,-42,-43,112,
195,57,82,-71,
-21,55,-134,108,
109,7,110,-79,
-154,-103,73,-153,
36,135,-45,-159,
172,-99,90,22,
-157,119,-57,49,
-6,-180,-75,-94,
64,262,30,-66,
39,58,136,-97,
211,-21,106,184,
-307,-98,-262,-147,
-76,58,57,-37,
-88,17,14,-265,
-20,-54,18,-64,
123,-38,94,96,
3,-28,58,121,
60,-57,9,-112,
-106,69,-1,-240,
80,130,169,-18,
183,-102,-202,-286,
9,23,241,275,
34,17,-62,-100,
16,34,181,-50,
75,61,67,49,
-112,134,-97,-17,
-30,137,-71,173,
74,-48,-15,-3,
101,68,83,11,
-80,-39,-29,-53,
220,-124,142,19,
34,42,-19,185,
35,-1,-40,-1,
73,72,187,90,
-95,168,39,89,
125,-45,-39,-270,
-25,-18,132,-64,
45,-1,-124,-78,
22,22,28,51,
-121,-82,-224,-111,
-58,12,-15,215,
-74,51,47,97,
-164,-229,-137,22,
0,-47,-260,-29,
-71,-76,-200,-1,
133,-74,26,-63,
-47,-36,92,-2,
12,-76,-54,-186,
12,159,42,-101,
-43,-224,111,-111,
130,-32,-164,18,
14,109,-71,106,
-52,-99,235,-45,
-12,-14,210,-14,
-77,23,175,-40,
112,101,-28,-41,
-208,-5,-103,-60,
-82,-15,131,-201,
-220,2,77,56,
202,-177,-166,189,
-1,60,9,197,
-5,-70,122,-154,
46,-15,-155,-224,
46,50,79,-75,
-101,-11,-58,-64,
-38,-100,189,-260,
-145,-59,59,-207,
-65,-33,-153,24,
99,-140,33,-103,
25,-173,-77,100,
-3,10,-148,111,
43,18,-260,-29,
-144,-145,-11,-172,
-40,115,-128,-214,
-207,118,58,30,
17,87,-165,-6,
-104,-110,88,125,
24,92,-204,27,
-123,24,0,17,
-25,-56,26,-80,
-50,165,-60,-95,
-61,94,-100,-55,
6,59,102,8,
80,-102,113,-42,
-161,-135,119,42,
167,165,14,-46,
123,-88,-404,-105,
-43,141,43,-1,
47,1,-99,103,
-35,-92,-191,-10,
-168,-50,-40,-72,
-153,15,75,-75,
92,-103,11,-70,
74,-93,222,57,
9,-51,-309,14,
118,-86,-228,-1,
67,50,177,195,
75,-91,-193,12,
-82,-176,-106,41,
-111,18,14,-92,
66,59,-92,52,
52,-64,-59,-72,
63,-35,-10,22,
6,65,-196,16,
105,-66,344,0,
-40,10,-21,-34,
18,-74,90,21,
-17,2,-93,-126,
33,-11,143,-68,
16,17,-225,62,
-16,-92,56,151,
-31,147,-182,-92,
-297,-126,65,-91,
-60,-7,-9,-56,
-101,4,166,-79,
127,-177,97,-93,
-68,85,0,79,
290,-107,-22,74,
-51,-13,115,-12,
-42,-27,107,3,
-86,-155,-142,2,
-103,71,144,76,
-94,73,-69,-4,
92,60,-67,61,
-72,66,224,-65,
-134,-28,-39,-16,
-41,-7,-223,66,
-19,-180,-1,3,
-196,67,-61,-1,
25,22,-24,-95,
32,-11,-265,14,
62,-61,-9,-140,
-149,43,122,39,
84,-72,115,94,
-63,64,165,83,
106,106,-35,121,
39,-94,190,-113,
51,-52,0,67,
-37,153,9,-2,
2,203,95,73,
61,-206,192,188,
-105,17,-64,-32,
-68,-49,-13,-89,
117,-37,156,-11,
-27,200,-316,-149,
105,-52,31,-115,
65,125,44,6,
12,39,0,105,
-4,133,-224,-21,
132,62,248,49,
-15,-108,-97,-102,
-55,-43,11,136,
19,-7,-33,-47,
-75,19,34,30,
-252,-277,-160,31,
-38,-17,18,45,
-24,-104,16,-91,
60,49,112,32,
-97,-112,-111,154,
98,45,169,4,
212,-153,-10,148,
120,-182,-33,-7,
-164,-180,-66,-193,
-32,-246,335,17,
18,-56,-363,78,
-20,29,-58,30,
-2,-187,18,-55,
48,-219,-64,-151,
14,-33,-32,-71,
42,-17,249,158,
-36,20,-144,31,
-137,209,-30,-56,
-4,-121,-95,-121,
-21,26,-77,44,
-25,-36,51,84,
-2,-33,-10,-69,
-57,-49,-9,56,
-21,-21,-35,22,
-12,154,-7,-105,
-59,-61,-70,-125,
-66,27,87,-44,
-51,60,-260,72,
59,-86,-146,-16,
256,88,66,140,
-63,10,136,-1,
127,-5,-221,-130,
-157,55,-76,11,
-8,-112,-35,-5,
49,-67,-117,12,
-194,129,14,63,
112,83,-36,14,
-205,-19,172,-84,
-63,122,-217,96,
-116,123,176,-48,
-73,-22,-4,23,
105,-95,-34,-89,
232,133,103,-35,
-87,-29,140,249,
133,137,-52,62,
93,252,-27,94,
-245,-88,165,-127,
-75,-182,87,-10,
-117,-115,195,208,
213,-10,-8,13,
-19,15,-57,-73,
62,-164,25,-154,
33,-47,-225,-14,
-18,-48,85,-29,
-104,-62,-334,-181,
-131,40,24,-104,
113,85,-321,-14,
127,-4,22,-9,
-84,67,209,-103,
63,145,342,65,
95,-34,-75,-4,
77,16,66,86,
71,-25,-33,76,
-256,9,-125,-5,
-134,-132,242,-85,
-54,-74,-180,46,
-62,-92,31,-3,
29,-37,185,-86,
-169,36,44,195,
140,-111,112,-87,
191,110,169,109,
78,-194,206,36,
-224,-136,-212,26,
-2,-84,-3,-104,
-130,-30,-82,-248,
-119,63,211,-38,
-51,54,-94,140,
4,4,-352,147,
222,-29,110,-12,
221,100,66,-29,
110,-9,-139,347,
-233,-13,-184,-131,
-50,24,-91,-34,
-4,43,115,-49,
141,-74,59,42,
-143,32,-53,-39,
38,29,172,-184,
-116,158,-53,-120,
146,172,-77,114,
-108,-61,169,-64,
44,52,-45,22,
183,27,102,204,
-97,-80,-163,-26,
49,69,-62,-133,
133,134,289,-15,
-50,-40,-108,42,
-38,-27,-66,16,
184,171,189,45,
138,-5,175,113,
-33,76,0,-55,
-114,34,76,-158,
74,33,7,-29,
-153,54,76,-68,
82,-177,18,-113,
-51,-11,-90,-87,
92,-120,105,45,
182,-15,145,-124,
-60,-14,-238,29,
41,-116,209,-97,
63,95,226,-117,
-18,-83,-86,79,
87,-69,113,94,
-74,-138,20,0,
190,13,-216,-22,
102,50,281,11,
-258,-154,-33,-53,
130,-185,84,7,
172,99,47,-48,
115,-262,144,25,
-1,175,-124,-71,
-134,-128,20,29,
151,-154,145,123,
251,24,37,64,
58,228,112,19,
-172,126,-279,-237,
129,46,-74,35,
-36,65,-45,-39,
43,49,-57,-39,
100,-4,141,156,
-150,145,-207,27,
-6,-43,185,69,
-71,-73,128,-72,
31,13,-63,80,
40,78,-351,187,
-22,205,16,-101,
31,-47,61,102,
-218,-118,-186,-124,
38,-32,-149,-41,
-222,-145,-174,-58,
99,5,-37,-48,
307,68,-61,47,
-328,-16,-303,124,
114,-5,-29,152,
-3,124,101,90,
92,-162,153,-127,
-94,13,45,-52,
77,-96,-81,-109,
118,229,-63,202,
101,122,7,46,
11,-261,40,180,
87,-288,42,-31,
-48,-24,-26,97,
36,-70,-225,-39,
120,140,10,73,
-182,44,-200,-50,
133,-86,50,101,
-50,-7,115,179,
195,-62,53,19,
33,15,27,59,
-41,78,-191,85,
-86,-1,-102,-44,
-34,-96,36,-265,
156,39,260,101,
-171,66,-116,137,
-35,63,-76,99,
-67,113,-136,56,
-96,20,-57,37,
122,-53,7,-13,
-172,-32,-342,7,
-6,-5,-3,89,
162,58,118,1,
56,-28,193,226,
54,-133,329,43,
43,-22,66,-43,
361,-79,-18,4,
100,-1,-117,-46,
98,77,-194,-135,
244,46,-100,-41,
24,152,-3,76,
-98,-32,22,-276,
15,-85,-66,-157,
206,244,-21,146,
-69,-14,-103,-134,
86,-4,-159,-88,
-309,-5,-46,-158,
-262,-151,-26,-68,
-15,27,154,-75,
126,203,331,50,
-13,0,47,154,
253,-60,31,55,
-92,212,-165,16,
37,51,-136,146,
22,-76,-17,34,
-277,95,-65,-103,
-41,-8,82,45,
196,128,211,105,
78,-85,-136,43,
94,-87,245,94,
-83,107,-56,92,
-50,-45,-79,27,
-52,-92,-94,127,
-153,11,343,-155,
-130,-38,-90,1,
-169,-73,-184,-38,
58,137,-73,248,
-84,-157,-177,75,
-51,94,91,103,
136,-59,299,4,
178,-111,-156,189,
-40,60,-36,-180,
103,-108,9,-35,
-53,281,232,342,
373,-70,30,98,
104,-247,-61,123,
120,23,-110,-31,
-16,1,-123,44,
-22,-129,166,-40,
165,121,192,128,
-130,50,149,23,
173,-118,-73,-152,
127,43,98,149,
106,-25,44,-110,
241,-187,-112,3,
131,-146,-192,-185,
18,-20,-86,-103,
53,281,-82,-210,
189,215,147,-50,
-65,142,30,-122,
83,-73,-3,-25,
-207,57,143,85,
235,-174,-199,203,
12,9,74,-16,
-29,-116,165,-45,
61,-184,134,129,
13,36,206,-83,
19,-74,412,244,
-114,206,-145,-10,
-17,102,-311,-249,
235,-12,-7,-54,
49,-38,65,-166,
49,163,-5,28,
66,35,-39,-51,
-96,-48,196,78,
-239,-120,-304,-145,
84,-36,-40,-14,
357,-112,241,160,
6,16,140,261,
1,-218,-329,78,
2,29,-123,-237,
-165,-32,127,191,
177,-27,-88,-46,
143,84,52,151,
-24,34,-56,202,
8,-174,20,32,
-207,84,85,36,
26,49,-223,-1,
68,-84,248,149,
-74,-105,-50,162,
89,5,-97,91,
-183,-56,120,-12,
-65,87,-159,-53,
224,59,140,-200,
261,143,-110,-166,
-48,-147,207,190,
-37,16,44,24,
31,-3,38,-125,
-270,19,141,-58,
-79,-100,-189,27,
210,41,-149,115,
46,-15,28,87,
69,29,175,57,
-23,108,237,144,
121,58,-186,55,
251,33,-121,-29,
17,46,-211,47,
54,144,266,108,
147,43,73,104,
-155,109,-75,-23,
107,-25,60,-178,
-68,-18,-173,-70,
40,42,66,-66,
8,-140,191,33,
-142,55,-103,15,
-51,26,75,-19,
10,-79,-77,-75,
-61,21,141,142,
9,-89,-66,139,
-85,-30,-307,-177,
36,114,-203,-50,
-21,26,-27,-3,
6,102,31,325,
-25,13,240,-92,
76,-81,-168,-227,
-95,-91,-109,-118,
92,-21,-216,0,
-131,63,22,85,
-91,-125,-194,23,
-7,65,-111,105,
-164,-156,22,-26,
-116,26,-75,-293,
77,-20,52,-104,
77,-34,-57,-30,
93,-2,-293,-75,
56,-69,-111,-176,
-51,12,-55,88,
-360,-115,-163,99,
69,101,74,159,
-148,-254,-11,5,
-42,425,50,-15,
33,113,85,-79,
122,108,162,-57,
-26,-30,-137,-16,
153,-235,125,-87,
-262,87,-49,-91,
83,109,192,-57,
