25,-12,-32,38,
105,-99,-40,30,
-79,38,-62,-97,
-10,-64,-91,81,
-56,95,-230,-128,
135,226,196,-4,
-63,-25,123,-258,
-4,143,19,-284,
-26,-74,-58,154,
-22,-34,9,139,
-60,-37,-271,97,
5,129,158,88,
66,97,-98,44,
-168,-70,13,192,
3,316,-138,-131,
-88,84,-132,-228,
-81,60,-1,175,
33,63,5,22,
32,104,40,-213,
14,-124,-53,-43,
-108,186,140,-57,
94,-72,65,23,
-166,-35,29,44,
-81,25,-48,-135,
-2,-5,5,-161,
116,-38,61,-58,
77,6,-4,-67,
-22,170,46,38,
-26,67,57,79,
-26,93,-174,-70,
138,134,117,177,
113,68,131,220,
-67,-203,-53,14,
62,36,17,-63,
-12,-156,9,86,
72,178,95,-88,
-67,126,-251,4,
-106,-53,39,-85,
123,41,140,-188,
70,249,-43,-198,
79,-4,40,94,
-7,9,85,27,
-49,27,-6,157,
47,178,-119,-84,
-45,-59,203,-77,
-145,-38,-136,97,
-130,-169,-30,-239,
-36,37,50,-63,
50,110,-10,-236,
101,-17,-28,-38,
-84,-14,70,-62,
5,-6,-2,-254,
-67,34,-49,-82,
43,-157,164,166,
-4,-55,-163,-130,
153,58,29,186,
65,-163,-101,-4,
25,131,97,197,
-57,36,-157,74,
-47,-73,71,-123,
-43,33,18,188,
-22,-2,13,167,
-80,7,194,13,
88,23,-148,-130,
72,-35,-278,164,
42,-74,-120,97,
-40,127,-64,-121,
61,-2,-128,13,
-103,41,-73,-249,
217,-61,227,94,
-141,31,-69,-233,
77,146,46,-96,
-253,-18,-208,29,
-80,-79,-124,-10,
33,48,11,-153,
84,171,135,120,
68,-148,150,-260,
-108,24,-44,87,
119,112,-88,148,
-81,-121,-91,-111,
7,-39,-244,184,
13,-144,1,-223,
253,134,2,112,
-76,244,-190,-40,
-136,10,-116,67,
-221,-69,-47,-17,
31,-120,42,-59,
122,23,-19,-359,
105,-199,-13,-234,
-81,74,24,-69,
100,125,38,-196,
70,83,-88,-44,
-210,-6,-45,-33,
135,123,-1,-34,
31,86,35,125,
26,-26,119,259,
163,87,-164,87,
-14,-64,-6,-13,
-106,-133,-47,25,
88,133,89,-85,
-158,-42,-105,203,
-170,-211,-95,-150,
39,-32,10,370,
99,72,-154,-66,
95,-69,-92,-191,
-47,73,-112,-63,
-3,-56,-31,7,
210,279,-105,85,
2,165,-74,91,
-3,48,35,320,
-153,-142,142,-207,
-128,32,-172,-80,
-169,-59,-332,-21,
295,136,-42,235,
-137,-60,7,-64,
-85,94,-27,95,
-253,36,-268,99,
90,-38,-91,151,
61,60,-33,-275,
-40,203,-6,288,
34,-78,187,-54,
138,69,3,72,
-57,-154,55,94,
-233,72,-155,133,
-171,-122,258,-96,
-18,78,-55,34,
2,-9,50,170,
147,20,5,-64,
123,30,-183,22,
-187,-128,-146,88,
-8,-15,23,-234,
-143,5,-33,-183,
134,88,15,-124,
102,37,346,171,
-117,-11,-25,12,
78,28,-162,-33,
-27,-56,-217,55,
-9,52,-295,-130,
68,-93,-268,-145,
9,34,192,260,
-25,-65,144,2,
-80,164,240,66,
92,89,268,42,
-17,-12,-157,-203,
-317,89,-84,-70,
55,131,-272,-245,
13,35,18,70,
7,91,-63,-187,
13,18,-296,-205,
-87,-7,-5,175,
22,57,-12,229,
-49,-31,225,-327,
150,-2,11,241,
-124,6,-10,-186,
99,26,-319,-268,
19,79,-16,53,
-120,13,94,-34,
-145,-212,-159,-97,
219,96,-148,-192,
155,-140,220,39,
-42,50,-75,-18,
19,-114,-395,77,
-55,-47,-86,-29,
-66,192,-116,-48,
-202,-10,-135,46,
-132,-288,27,-11,
-62,-2,4,276,
5,-12,-304,-18,
-23,-75,104,10,
65,65,1,-5,
-49,103,106,49,
-84,66,28,-3,
155,-81,128,57,
0,11,-6,-138,
-56,-160,-70,91,
-32,-39,56,49,
-103,116,1,-309,
130,214,34,178,
38,30,-139,64,
-178,-80,-234,99,
-82,42,54,-153,
-102,7,144,121,
67,-83,-86,-170,
-70,-200,-89,228,
70,-154,-88,-26,
-69,68,147,156,
76,13,-86,-7,
152,-90,-19,247,
25,44,6,-200,
-77,-269,-130,-30,
-100,-173,-62,173,
45,65,-254,5,
-66,-35,34,-149,
130,-130,114,-36,
63,-76,82,-97,
-49,107,-113,22,
136,65,-7,1,
-64,-79,47,137,
-229,-41,143,-292,
-81,78,44,117,
29,-96,-70,-69,
60,150,79,-284,
11,106,-46,0,
48,-137,152,97,
30,-16,-38,-43,
44,1,-190,23,
-53,37,-63,-111,
75,93,123,2,
4,-50,151,-9,
-112,247,113,-184,
118,-233,40,-93,
98,-44,298,84,
24,126,34,-83,
112,-160,7,24,
91,14,184,132,
-63,-43,12,-179,
-234,-22,67,-210,
90,-12,192,-204,
11,-190,154,-299,
128,-12,83,-88,
103,-41,71,-117,
-107,25,-112,-40,
76,119,123,-95,
38,-14,-103,59,
-162,182,41,-6,
-117,49,-115,107,
-67,-40,91,-216,
-120,-87,15,-132,
72,-33,-92,76,
-127,89,-4,166,
44,-2,-7,224,
19,-32,39,-162,
-103,-1,86,-151,
44,-63,-1,-2,
40,-87,-1,-52,
-21,65,-107,-62,
-30,175,-212,-58,
17,-211,-29,207,
-111,-60,91,167,
-73,200,-140,-96,
40,140,35,47,
53,74,134,131,
-13,51,-78,46,
130,-54,-77,56,
-31,-49,10,44,
-110,-27,-159,103,
-148,-55,-41,-112,
123,-39,-19,183,
-108,56,48,-42,
71,32,41,-99,
-100,-6,-154,-66,
21,-15,-135,185,
284,100,-43,-41,
43,78,-36,-188,
-172,199,-77,101,
2,-81,-52,-163,
-106,-45,-124,-295,
-114,-16,338,-45,
47,5,178,92,
56,67,42,-169,
186,38,-22,-93,
-81,-138,37,-91,
-10,95,-167,-55,
45,-90,46,73,
-255,-71,-165,-21,
56,109,39,-30,
61,-2,33,-12,
12,-44,194,-32,
-75,-111,-181,-169,
85,-86,4,-129,
181,172,-108,-38,
-65,-169,-113,-138,
127,-113,-101,-31,
-392,89,31,-16,
81,23,148,19,
263,80,214,-23,
-318,30,-185,-45,
-64,-175,181,208,
-100,-228,168,142,
-51,-3,66,41,
-108,-120,32,22,
34,121,-6,284,
-69,-295,211,37,
-151,-149,62,-38,
57,-39,131,-153,
71,8,-5,56,
147,-39,126,50,
48,74,51,62,
19,-264,68,14,
46,22,-96,-198,
-123,-197,8,-181,
278,-121,-206,144,
4,81,-20,58,
-282,164,46,118,
-309,-21,-5,-149,
199,-118,-18,-300,
125,58,183,94,
-317,-43,-93,-47,
24,76,100,110,
404,220,-184,137,
36,41,-54,-80,
276,94,13,34,
161,182,-67,49,
-51,29,-156,-119,
99,32,-29,-100,
-28,-34,-167,-150,
-85,-104,-97,-171,
-98,-101,-142,-68,
-311,36,-42,-9,
32,-112,-179,212,
-102,-150,-52,-62,
154,47,-204,-26,
-229,-89,-189,159,
-43,157,141,-17,
73,-50,36,-167,
15,-11,-179,23,
-106,-29,35,59,
82,159,-38,-291,
100,12,104,120,
-249,-94,-158,-30,
120,170,-58,-50,
-244,-26,64,-260,
99,24,149,162,
-5,-89,18,121,
-32,14,-90,2,
28,240,-29,193,
56,-205,39,-49,
-48,-35,-105,173,
16,-98,60,-43,
-6,170,156,85,
61,-69,139,-120,
-58,-10,167,-176,
-77,-48,-216,-48,
176,45,274,-207,
33,-3,139,-31,
-24,-80,29,-2,
-72,127,-127,76,
-70,166,32,93,
-83,51,-182,-45,
52,83,143,-26,
287,-74,-180,18,
12,82,142,-189,
-101,92,-7,37,
-62,-211,40,28,
-32,-303,-96,1,
-160,105,101,-23,
-128,-219,-7,-7,
6,-102,-20,-82,
-220,160,-20,15,
-14,-110,-139,-217,
193,-7,197,284,
138,201,107,175,
-59,-109,-106,-110,
1,-6,-509,62,
-175,-123,196,-216,
-114,103,-40,123,
8,-181,272,6,
-317,-29,-204,123,
-309,60,-101,-142,
-182,-120,-207,-281,
-130,-4,-70,63,
234,85,48,-16,
3,121,-51,98,
14,-80,-62,-216,
-204,-66,-40,47,
114,161,146,17,
2,96,79,150,
-134,-112,-5,-26,
-48,-23,98,-108,
141,-193,-72,47,
-57,-103,-22,197,
-202,-272,-248,-211,
-404,-229,165,-84,
-8,-187,-198,21,
39,-172,-233,-167,
-160,195,179,29,
-35,86,-147,47,
-25,-40,94,41,
-20,-34,-74,-67,
-111,-7,-178,-5,
-64,169,105,-114,
-44,-30,-26,-138,
-56,167,294,-66,
1,-116,-226,-90,
-137,-15,111,115,
140,96,136,-128,
-40,67,-83,-101,
-25,-8,116,-97,
-14,92,-66,19,
-43,-19,145,-100,
-113,-7,52,-49,
38,-20,-64,233,
-69,-12,29,-144,
-22,196,-217,25,
-8,269,22,54,
62,63,203,4,
-49,26,-41,-16,
-91,-144,-109,-92,
-136,57,-86,84,
-1,178,-33,214,
87,8,-65,-191,
-41,-129,-240,-9,
21,-84,-26,-18,
-45,-72,-54,-96,
15,145,64,-241,
50,-4,-70,-167,
-38,-31,-6,-52,
41,-30,39,-46,
-76,75,168,-130,
-68,14,-116,217,
-80,-116,-38,29,
43,78,7,51,
8,-153,196,122,
-43,48,44,-15,
-155,98,-68,16,
94,-48,-89,25,
-84,64,-223,-82,
-62,-12,-4,-8,
-36,-172,3,-84,
109,-8,43,4,
84,-58,-220,14,
81,-77,-79,-218,
145,-110,23,-26,
-41,-67,-165,-113,
82,-78,-5,-34,
-149,138,-239,123,
10,-3,65,-46,
170,-180,-17,-163,
8,53,-48,-106,
2,38,180,135,
88,197,131,-67,
-107,147,-132,24,
143,5,211,-123,
-15,18,15,53,
-75,-178,38,-107,
-122,111,-134,31,
-2,3,-134,-227,
-40,54,-61,102,
112,9,65,-5,
-86,-150,-31,188,
25,-11,132,-63,
119,-15,-1,192,
-68,-16,-49,-132,
13,-20,47,-62,
160,-18,-15,-127,
62,93,37,-93,
115,69,22,99,
71,3,-1,-11,
-145,81,13,-66,
6,223,74,124,
-190,186,164,148,
-5,-39,-39,-89,
76,248,-37,66,
-88,28,150,200,
-11,48,-28,-99,
-123,0,6,-52,
-191,72,78,-102,
15,109,69,100,
239,202,-128,-182,
-25,11,61,97,
-62,62,-54,73,
44,92,-38,36,
21,-111,-78,123,
-80,165,62,-162,
-81,-255,16,36,
-119,-213,22,180,
19,-92,-13,163,
24,135,98,20,
-21,49,-49,78,
54,-98,-34,-80,
-116,-93,123,170,
-22,12,30,1,
19,-102,-158,-46,
41,114,-145,-35,
-85,-121,-123,-27,
-256,-133,3,-315,
-128,-95,226,-45,
-154,-139,79,-80,
69,-47,-104,99,
-62,155,-86,416,
-18,10,-76,182,
-30,-55,66,66,
-53,-78,-71,4,
-127,21,32,275,
7,-159,-140,-141,
138,-97,-51,54,
9,92,8,-38,
-93,-121,-126,-56,
39,82,-79,0,
24,-94,-183,14,
54,11,168,98,
41,-147,55,-224,
276,234,3,119,
21,231,-11,11,
109,-64,-37,-136,
192,-71,-191,-93,
272,-83,-78,3,
-191,40,62,130,
57,-259,7,117,
42,118,-9,140,
-6,72,-33,-10,
-3,-96,-74,-71,
29,-125,83,-176,
143,26,20,255,
-182,80,108,34,
-69,143,-59,174,
-216,-22,36,129,
29,25,-33,307,
106,-4,-50,-170,
41,34,-67,5,
-25,130,-74,71,
146,-123,-150,-170,
14,259,20,42,
-51,222,48,175,
27,92,45,105,
45,-158,-153,-60,
37,-60,-61,128,
36,193,54,-58,
-166,-147,-51,-135,
96,-39,48,-27,
-52,-239,17,-183,
51,97,38,-245,
145,45,-34,57,
-99,167,78,46,
22,-202,66,-103,
4,83,0,105,
41,312,99,-46,
162,104,6,-26,
-100,126,-48,195,
-176,-169,-8,67,
47,80,211,3,
-37,-90,53,80,
156,-155,-12,-178,
13,66,-32,66,
36,156,33,277,
-38,17,-63,-35,
52,-155,-56,57,
-10,-114,0,168,
-80,-44,-132,-18,
119,-242,199,24,
78,-6,118,69,
-155,-156,-73,-24,
261,-71,-143,-69,
317,82,-104,-164,
-69,-17,-4,32,
-48,-395,-134,-27,
-151,88,-64,63,
96,-36,-143,-62,
169,-46,30,59,
220,-61,-179,42,
-49,19,-93,28,
-18,-233,-245,-63,
-112,87,-47,7,
124,-58,-168,139,
79,115,-17,48,
63,-96,89,122,
106,121,30,-31,
226,205,134,147,
173,32,-229,-99,
-176,24,171,53,
105,-61,65,99,
-55,0,184,19,
-137,-48,72,-60,
-182,49,232,56,
-163,-66,116,18,
-153,-215,7,-47,
-5,-192,11,96,
-29,-165,-52,-290,
-58,-90,-33,0,
-134,192,-85,100,
-111,-43,-216,189,
26,10,51,-154,
193,53,67,-28,
64,-95,-184,-279,
152,299,10,289,
15,-289,-75,103,
-82,55,204,-107,
13,-101,-105,14,
163,102,49,-39,
-106,-62,-121,14,
-99,-40,-36,115,
227,102,-116,-141,
93,101,-412,24,
101,-125,-90,-144,
-45,25,-239,-128,
212,22,-209,77,
-121,45,-56,50,
216,-12,67,184,
-76,116,-134,190,
124,-59,87,224,
49,-46,52,134,
108,-44,31,65,
-14,10,-180,75,
-73,89,3,-18,
-151,-60,-111,-213,
-63,38,209,-110,
49,21,93,65,
50,-12,-9,80,
-29,96,24,-42,
-70,-80,-20,13,
-271,-149,-37,-10,
-12,-70,93,-160,
-289,93,104,-45,
-199,189,-84,154,
95,200,7,2,
12,-131,-114,-201,
89,108,32,-29,
117,-13,81,-195,
-138,88,58,-79,
-351,-87,64,-204,
80,-91,-311,-4,
-192,-8,260,31,
148,58,238,-187,
80,-96,50,-145,
108,152,-40,-27,
-203,135,83,20,
-5,58,80,-42,
177,-172,-146,-73,
-37,72,1,98,
-31,-202,165,-161,
303,-165,0,-155,
256,23,160,29,
104,150,-17,-150,
-321,-132,56,55,
14,-66,-58,-63,
-120,76,223,28,
-155,2,-37,-160,
-52,34,55,-54,
99,49,33,-3,
-107,91,131,-101,
-52,117,64,-175,
-68,29,145,18,
-73,-95,183,-38,
57,-23,148,181,
-37,-36,164,-141,
212,84,174,-84,
130,252,23,77,
188,20,-163,-160,
264,-48,-7,-146,
-100,72,-178,86,
-10,-24,133,104,
-9,-135,-109,179,
152,246,-7,69,
-195,-83,-373,-17,
-58,7,-8,-130,
131,52,-6,-39,
-30,17,-79,-169,
87,-43,-65,-102,
62,-16,-98,72,
-12,71,-56,-83,
-20,-74,-127,-67,
319,79,77,-11,
41,-269,-132,-186,
-33,-213,148,-13,
74,140,-109,-196,
-23,104,-106,-192,
164,5,123,-50,
-137,-131,-193,-152,
-9,-24,160,-10,
155,141,97,-1,
-103,-17,-150,-159,
-4,-228,-174,114,
18,-194,9,129,
36,64,103,-150,
-86,-122,-123,-192,
14,109,369,239,
-182,-10,35,46,
-220,150,238,-88,
126,-58,270,-36,
-41,-5,-141,12,
28,13,114,-108,
61,-180,119,90,
-82,0,107,29,
-169,-219,78,-87,
131,27,-107,-26,
-54,-144,-48,-136,
90,-80,232,-56,
-7,137,-73,113,
93,-12,-94,196,
-110,31,33,-155,
2,9,-47,70,
80,-33,48,-131,
111,-8,42,94,
182,-68,-67,169,
87,-22,-162,2,
119,-59,226,132,
131,152,109,276,
-32,77,21,-56,
-16,-13,-256,89,
-180,129,-123,83,
-25,19,-206,178,
-21,-67,-3,149,
46,168,-153,-37,
-19,-82,197,261,
-97,105,-293,125,
-3,30,-101,129,
-124,89,-242,-38,
43,-105,122,187,
12,106,-12,144,
406,-65,-240,-78,
-30,-106,115,9,
-83,15,-70,-20,
-58,112,127,192,
25,-295,-26,105,
157,-24,47,-29,
7,12,-179,44,
146,163,222,-64,
-162,57,-63,19,
-46,2,-164,68,
258,-52,103,109,
-59,-42,-155,-18,
206,56,17,9,
18,-49,90,-35,
57,131,28,-167,
-128,76,-156,-115,
201,68,94,89,
-89,86,48,1,
-21,-41,-124,-25,
198,-112,228,33,
54,61,-189,-24,
-9,-67,45,-103,
76,27,-218,22,
-46,-54,-333,9,
-44,8,-73,116,
109,116,-40,-30,
-64,-111,-4,23,
22,-62,277,-88,
-38,-40,243,-126,
-105,-41,29,137,
94,197,-22,171,
-215,20,15,115,
-8,81,-113,6,
181,85,15,38,
-9,-42,-158,-130,
-111,16,1,24,
88,48,2,-52,
-64,111,137,-17,
-113,-70,-381,2,
-124,-130,-34,-23,
-30,-86,80,100,
8,1,-4,109,
-72,-246,-207,-27,
108,52,27,12,
-8,-87,-2,73,
90,19,58,-83,
-14,100,-150,21,
56,-119,-118,-159,
254,53,-57,-2,
-61,70,-91,177,
123,160,97,45,
-8,195,-113,-10,
-122,14,-13,92,
26,-117,-149,33,
-159,-88,195,102,
-31,-50,-13,-99,
-182,-41,216,-23,
64,163,190,-288,
-37,148,113,8,
-184,203,-147,-55,
-86,-136,218,87,
-28,-67,-261,102,
105,43,294,61,
-103,8,249,-18,
43,194,-133,33,
-53,56,-146,46,
-45,22,-123,-23,
-87,129,257,106,
15,-59,-278,-206,
-32,-42,-124,-106,
-25,32,-175,-27,
39,-109,307,-261,
-217,50,-295,-182,
-215,159,-143,-130,
265,80,210,103,
-221,-69,-64,-150,
163,127,-69,-21,
-99,69,179,-142,
-186,-30,-12,-30,
-11,11,-259,64,
38,-4,43,-110,
78,-3,75,-49,
-2,-55,136,93,
-102,34,-23,-185,
-63,-50,120,-200,
211,58,-140,-16,
22,3,-261,75,
138,-179,-173,-115,
211,-3,86,-1,
18,86,61,-212,
-19,-53,66,-28,
18,97,135,139,
316,68,-80,-299,
-83,-17,111,-68,
-53,9,-40,-75,
14,47,26,-210,
142,-10,69,-330,
67,27,-63,78,
95,-227,-64,-29,
26,130,101,-108,
-146,115,111,50,
20,64,-103,-23,
104,-145,135,-164,
-96,-90,-33,-202,
205,-71,136,277,
254,14,259,-314,
-47,-89,-70,213,
-175,115,95,247,
132,98,50,199,
91,169,125,6,
-181,7,51,64,
-3,14,106,19,
-123,-96,213,203,
19,-44,-87,165,
23,65,-136,-45,
121,141,-30,199,
-215,33,-32,-26,
-159,-99,-65,76,
-31,42,-65,162,
-64,43,-154,143,
-201,-129,16,61,
-149,-79,135,-255,
-58,-48,-331,3,
-318,-205,53,-133,
-248,18,155,-222,
-66,10,-21,249,
-18,-124,-55,35,
108,29,-213,35,
92,110,-13,67,
-19,86,-40,-112,
101,13,-47,-251,
-70,7,129,342,
-223,63,-187,71,
-1,-19,95,103,
9,-275,18,-71,
97,138,130,-48,
-80,-156,-241,-122,
-289,-219,-5,-143,
35,263,285,-64,
146,-82,94,102,
49,-196,153,10,
33,-38,-157,-202,
77,-53,-69,-99,
-136,17,229,22,
46,173,286,187,
51,69,56,32,
20,-69,260,190,
141,166,-6,117,
278,14,99,-81,
209,-91,122,22,
-71,-71,-181,36,
5,18,95,209,
142,25,12,26,
4,-114,-51,219,
-51,-229,-88,-48,
-121,18,-60,-97,
95,-63,-189,212,
5,-80,52,109,
-145,-114,6,124,
61,-124,10,-16,
21,-96,182,-19,
68,-198,156,145,
-13,49,-362,64,
23,-130,165,-12,
37,64,147,28,
206,-54,180,79,
93,-22,-184,-177,
-68,-220,59,187,
-14,-202,126,349,
-76,153,240,-95,
-269,-18,-24,-92,
-114,195,-87,-216,
-167,-44,209,218,
55,-150,-127,1,
238,287,248,22,
-78,-127,-86,238,
-113,-185,-52,4,
-43,-1,-23,-49,
405,-61,125,-114,
-123,-87,-58,-80,
-351,-129,-160,-92,
-151,-57,-237,120,
-98,335,-83,36,
-15,29,-100,-101,
-366,186,123,42,
-128,79,-196,-181,
-175,-278,-271,-115,
115,239,-51,-307,
-75,-98,-5,92,
-192,188,-296,115,
143,-121,195,-15,
44,114,-95,-125,
92,-51,-141,-72,
-94,-26,127,-89,
198,-78,25,-51,
101,67,66,-185,
88,-169,-27,-6,
134,-189,-26,152,
-185,8,-156,-38,
-181,-41,-113,71,
-151,-284,-176,-36,
78,92,-49,-14,
-37,99,122,-156,
42,84,10,-1,
137,72,-250,106,
-18,61,-167,-121,
94,-61,-178,-230,
-136,156,134,-149,
49,58,263,137,
-144,128,211,-38,
-2,-91,117,94,
190,-73,215,188,
83,2,-92,-73,
38,-189,12,-166,
-85,-40,-27,-47,
-153,-6,-109,-128,
20,75,-15,17,
-71,27,-35,92,
35,25,-103,42,
126,110,72,142,
11,184,28,164,
-10,20,-51,171,
-32,30,-106,64,
87,40,81,59,
-254,26,-358,200,
82,25,189,-314,
-50,-64,-160,-378,
88,180,194,-13,
-84,-83,3,-74,
-47,68,254,-36,
-313,-40,-30,5,
131,-94,-77,-12,
-93,-68,201,117,
-169,91,72,177,
117,65,-179,-168,
41,-126,-146,-84,
-355,12,59,-242,
3,-45,-82,-84,
119,141,-147,-100,
75,-19,-144,91,
58,-31,212,23,
193,-205,-72,-155,
8,250,26,188,
-167,-95,16,83,
-135,-205,-110,-142,
-119,-21,71,-238,
-46,5,214,-74,
23,-141,133,115,
-179,3,-56,-40,
-69,-68,54,89,
-217,40,-221,14,
19,-216,32,-73,
-22,-119,119,-6,
152,-6,-116,-164,
-27,-280,204,159,
-49,-8,-97,-218,
-53,27,99,22,
14,101,128,213,
84,-42,-31,-105,
44,52,-89,19,
-88,10,-234,-27,
-33,69,231,80,
50,-22,-259,95,
81,-42,9,158,
-101,-10,-54,77,
213,-6,102,53,
-3,32,76,-64,
25,-19,-16,-8,
-83,-220,56,-150,
-16,87,-192,-170,
2,-71,2,-204,
-90,-1,-48,65,
43,-1,169,-3,
-208,-52,-180,25,
-87,-94,-15,50,
-170,191,-99,91,
-198,-76,27,-94,
-220,-3,-73,-308,
107,-161,118,-113,
-38,-21,-267,86,
-25,78,189,37,
218,-20,386,-47,
111,99,74,105,
-17,-75,170,-92,
69,-19,12,-100,
106,-151,-80,152,
61,89,126,217,
146,112,27,148,
-158,95,93,-18,
69,-75,82,-94,
148,10,41,-181,
140,61,-64,-8,
57,171,71,-41,
-3,-136,93,82,
-19,142,-16,21,
61,-85,88,51,
-162,59,97,103,
111,77,148,27,
-84,-48,118,113,
-221,10,-142,134,
-89,79,-82,-7,
-29,-194,-127,-99,
-172,-93,-139,-144,
-177,-99,56,102,
121,44,-131,9,
-8,75,-229,-77,
-102,-47,16,67,
-23,204,83,23,
91,30,53,89,
-149,-82,-348,134,
33,158,66,-58,
136,-149,-131,-110,
-116,46,-164,-233,
13,-92,145,-23,
124,-48,69,-154,
-65,51,12,-31,
208,33,-101,-34,
-134,-203,43,52,
-88,90,123,75,
-110,130,43,-34,
93,-5,63,-45,
-5,197,99,32,
179,-136,-87,54,
-21,-24,49,-189,
140,-35,-183,-97,
-50,-6,-31,-6,
118,-46,-157,151,
-185,148,-86,-173,
36,-202,-107,35,
139,3,41,166,
-60,144,170,53,
35,-112,-132,-113,
-60,-214,-106,-106,
98,74,16,0,
69,38,-121,106,
-10,-85,-29,163,
105,-97,-65,100,
-64,-34,-20,-21,
-62,84,301,88,
-158,145,-175,-48,
-95,-56,-23,-98,
-138,-69,-30,-44,
-172,-27,20,135,
2,-64,168,-203,
-24,37,-146,-19,
40,150,23,-179,
24,-89,146,-129,
22,152,165,-54,
38,-132,-183,76,
-199,41,-240,87,
173,234,366,4,
-18,208,74,-48,
4,-70,133,-282,
-51,161,281,-78,
104,-20,-26,-318,
63,192,226,-172,
19,121,-50,105,
21,-237,138,-102,
-155,-79,92,-150,
85,53,-145,30,
12,32,234,222,
83,-69,73,-14,
-14,-36,78,-34,
-4,-55,94,73,
-50,15,-187,-349,
-7,-113,50,-75,
-37,55,44,89,
-21,-59,155,-58,
20,164,-94,-102,
41,-55,51,61,
8,-61,-4,14,
139,-140,42,91,
-51,-65,-29,-71,
94,135,93,32,
65,252,11,-34,
-6,-19,20,63,
63,-174,38,-206,
-57,41,-264,-2,
11,-28,189,-228,
-48,18,-341,-74,
9,-81,-232,-15,
14,207,-56,-31,
104,70,322,70,
79,-297,-46,-116,
5,21,-75,-127,
37,-10,91,71,
-83,39,-188,-45,
52,73,6,146,
-18,-27,-274,99,
94,-3,18,-205,
104,-101,35,82,
65,92,-3,-105,
6,-93,-176,40,
-62,49,-21,-19,
-51,249,-41,193,
-31,70,-76,3,
23,-36,122,-9,
-51,59,-54,93,
15,-22,-249,-15,
75,99,-99,-118,
-39,107,208,-33,
119,-89,135,58,
-25,-69,280,257,
-27,179,282,97,
113,-29,-227,-173,
83,-150,-44,151,
-111,65,77,112,
-46,-28,108,-20,
110,91,-7,289,
66,43,-15,91,
-16,26,-51,33,
-86,-13,408,148,
65,-35,109,112,
-96,-35,-37,118,
0,119,109,365,
128,89,1,-96,
80,-30,-90,-264,
100,40,82,132,
108,39,4,55,
-45,115,-233,-90,
-26,243,1,-107,
-12,-43,195,27,
-84,-70,-190,-348,
101,-136,162,128,
-76,-133,-115,399,
35,-158,85,160,
28,-66,23,212,
2,-171,38,305,
-8,26,-125,79,
83,-149,-51,28,
72,-80,-91,-176,
-22,-37,40,169,
150,126,62,77,
37,-104,-181,137,
78,132,-11,-210,
-132,74,-156,10,
-74,-76,167,-17,
34,-80,-197,-6,
104,-182,77,370,
-36,-212,-142,-175,
-181,-29,-129,146,
-86,-36,245,-171,
1,59,-68,52,
-39,1,-56,-191,
-106,-48,84,2,
-61,50,-116,71,
139,68,176,-128,
62,105,231,231,
-125,47,-298,70,
89,8,238,-23,
-46,-108,-90,-129,
38,42,59,609,
-215,31,-306,-80,
73,-67,-162,-69,
17,-33,101,114,
-11,209,26,-153,
-145,-14,85,104,
60,163,-131,-148,
-142,-3,144,-76,
77,-16,-98,106,
65,20,-53,-27,
16,107,114,202,
5,17,-6,-58,
204,-47,-168,120,
-28,-69,67,-2,
-70,-70,84,13,
-98,-79,-45,69,
189,-9,12,129,
-2,6,37,59,
-7,35,57,41,
-15,-201,14,-85,
4,-21,-170,-114,
42,50,-37,31,
-65,19,175,-237,
-71,-94,-7,-57,
107,88,-116,-92,
-180,41,93,-161,
-172,-72,37,-35,
128,-10,-91,-122,
58,-43,-157,-9,
-53,-1,-160,-100,
88,102,-21,-158,
-89,54,35,-33,
68,-65,-154,112,
-94,-28,-87,-26,
8,-52,55,130,
-9,0,50,-161,
-150,10,43,-41,
-45,-54,-122,-80,
-97,-31,-168,55,
26,-239,11,25,
69,-26,120,-179,
-114,-31,45,-52,
95,-89,-139,144,
94,-147,97,79,
-25,78,134,7,
-147,77,-113,112,
55,-141,105,-21,
108,130,-115,-154,
188,86,73,-14,
0,-84,-196,62,
-47,-111,-129,63,
166,-17,38,65,
80,58,-55,-43,
-107,-93,177,83,
64,94,40,-261,
112,-119,-41,-94,
64,99,22,-27,
58,30,-16,-168,
-42,81,-15,47,
69,-29,-184,-4,
15,-47,-76,3,
-84,-37,-46,212,
-38,349,98,-178,
-145,-54,-121,95,
61,176,250,-137,
25,50,23,-96,
-139,117,-283,-31,
58,16,-113,25,
6,36,-72,67,
27,-24,155,40,
-244,110,14,-70,
-12,94,15,79,
-44,-42,20,0,
-30,7,106,80,
-98,12,61,40,
-108,9,-176,-68,
-124,117,-42,-49,
74,-43,91,-50,
6,-188,58,-238,
-71,0,-77,-1,
-65,-95,28,-63,
56,34,-24,-3,
107,31,-125,-116,
-11,-22,-7,-3,
-221,44,-136,-157,
-76,3,-46,67,
-160,135,93,-43,
-211,-35,-254,-73,
21,-84,145,-56,
92,-40,-94,-229,
57,91,69,-72,
-131,-20,-136,75,
111,-84,-118,-29,
-248,22,-158,66,
-52,-28,-37,-113,
98,-1,63,-60,
-138,-70,-15,111,
161,-9,-122,78,
-215,-165,-11,-161,
-44,139,-109,24,
-65,-22,-189,-146,
89,-122,38,-37,
-185,-89,-319,4,
-66,-190,104,-150,
-201,96,-171,-7,
169,6,-129,-162,
-64,-143,27,-114,
-81,-5,63,-23,
224,37,254,46,
-178,32,-111,49,
-17,-41,33,-23,
-92,34,133,-72,
-96,190,28,41,
190,14,-147,-84,
-99,-20,-88,21,
163,-164,48,-42,
-80,18,-233,11,
-51,-93,27,38,
-172,113,-36,5,
-121,68,-194,162,
12,59,-123,-33,
-113,-120,107,70,
-57,-122,-20,-73,
76,-41,-9,18,
-167,8,-79,37,
-17,8,-12,99,
-151,252,3,77,
-15,-74,-2,33,
97,6,65,91,
-144,-7,-98,23,
31,70,-28,-93,
184,146,59,6,
208,-10,-44,10,
-88,0,-93,-158,
73,79,84,47,
17,-53,-20,33,
65,33,60,-160,
186,-30,19,105,
148,22,25,-2,
21,29,5,17,
-16,-46,55,113,
29,-59,-33,29,
86,-106,-78,39,
222,52,-127,25,
-153,-70,53,-35,
-85,-34,44,-82,
127,15,-227,-44,
-118,-76,111,81,
107,-32,-4,-118,
-69,-18,24,13,
-32,18,179,139,
153,63,-157,-252,
42,-261,-66,110,
33,-65,-149,-45,
95,-61,15,-54,
-119,1,-117,125,
26,-111,-53,20,
-130,92,-110,-51,
-156,19,29,88,
-69,19,83,24,
169,-75,38,110,
243,-116,-60,141,
-45,60,73,8,
178,-28,6,-58,
97,50,-95,-229,
-171,-119,-141,17,
-29,-48,-133,-2,
103,26,-160,-77,
-255,0,-163,30,
-139,73,-61,-116,
-113,14,93,-64,
-229,183,-9,50,
-170,-152,223,1,
-60,103,-237,8,
109,157,50,-59,
35,-18,-52,177,
121,-144,69,62,
15,62,-127,-28,
-13,108,145,-73,
103,31,222,-34,
82,-19,-100,78,
-71,87,-82,47,
-151,-30,105,-145,
10,47,-240,113,
8,20,131,-46,
45,-69,118,120,
-236,119,70,-2,
-98,65,-5,-39,
41,66,53,-142,
120,-36,12,5,
29,75,4,176,
-85,-3,25,-120,
-135,-121,38,-84,
157,-97,-71,-16,
-26,11,-174,103,
-170,-102,146,233,
37,65,176,-129,
16,-134,0,73,
-73,-27,13,143,
8,-127,167,-30,
51,14,-30,182,
-29,-78,5,-8,
-96,-9,70,-67,
-54,14,-48,-231,
66,-37,-109,43,
85,68,-17,-83,
116,7,111,-31,
-172,-118,-165,-141,
-47,-139,-23,110,
-41,-186,-159,71,
-11,35,-83,-113,
-100,-28,47,34,
-108,-127,-37,-58,
-28,7,-23,5,
10,24,-42,-39,
10,-9,58,-107,
8,159,-160,-114,
14,32,27,-295,
100,-1,-174,19,
25,-4,37,16,
79,73,136,-169,
-55,5,-84,0,
-36,-13,-98,-194,
-35,-66,-27,39,
-20,-46,-2,109,
33,115,62,-51,
97,-56,117,7,
39,71,-50,-34,
-49,37,-131,-76,
24,110,188,-85,
-66,-74,-314,89,
-25,-215,34,-5,
78,-69,15,-133,
26,-137,-146,37,
26,-5,-44,195,
78,-95,-67,192,
-110,-156,74,86,
52,40,-175,123,
-16,81,-112,39,
50,120,-109,-284,
50,67,38,126,
-16,-33,-248,96,
-69,-210,2,39,
100,-90,-58,124,
-104,-63,-147,-181,
80,-114,-132,214,
-17,170,67,-81,
-82,31,-43,-82,
2,-6,-109,157,
101,196,17,-15,
45,83,148,-80,
70,-65,-116,-168,
23,-9,5,214,
7,0,131,194,
-80,106,-89,-28,
-136,-110,-90,-22,
46,8,121,-109,
78,99,-84,-80,
20,42,-95,12,
-82,98,97,-161,
0,80,206,140,
-41,-111,-59,-133,
103,60,96,123,
432,51,323,96,
-192,-38,-230,-336,
169,-65,21,121,
52,-13,-189,-33,
-170,-63,-31,-21,
-54,79,-235,-73,
10,-53,24,43,
234,-46,152,-2,
122,-55,60,123,
12,-121,-30,28,
-141,14,-155,-62,
171,167,159,-84,
-103,-93,-174,100,
-279,99,4,-300,
137,131,60,-81,
-32,-83,-89,237,
-27,-27,-55,-301,
-50,-114,-169,50,
27,113,-303,-173,
63,13,-81,-61,
-27,102,-72,-9,
141,44,32,-16,
-208,-117,-103,-78,
-223,-117,56,33,
-37,-6,156,-8,
54,6,104,59,
222,61,318,145,
-192,134,-208,-225,
-71,48,-89,15,
-92,-18,-76,-295,
-159,-113,-283,144,
72,135,-300,-211,
-43,-37,-81,-156,
-110,8,68,-112,
220,57,-59,-40,
-32,28,53,-195,
32,54,264,116,
-47,-72,115,-21,
61,-42,-63,12,
-115,-38,110,108,
-49,-35,-40,54,
-113,-97,-12,229,
106,-47,-125,-39,
-175,-56,-192,-258,
101,84,-229,155,
-151,-86,198,-176,
-178,-43,-264,-141,
-218,-16,98,-35,
254,-88,175,-86,
8,-82,50,-248,
99,20,283,-211,
11,-15,-76,-47,
88,47,25,-62,
158,-57,56,-351,
-152,45,-49,114,
-230,-65,39,46,
-276,55,56,-305,
-83,33,-54,-90,
-240,-31,-91,55,
-39,138,-191,64,
112,3,3,-163,
31,-66,-17,211,
-179,100,23,-153,
-107,-55,153,58,
-17,145,116,191,
-33,-17,-34,-39,
-60,-49,194,57,
-41,34,-129,-2,
-43,87,110,130,
12,-8,-39,7,
113,-99,4,32,
-46,34,223,-51,
126,165,-65,47,
-38,-65,-80,47,
-86,-19,92,-118,
-255,-58,-74,-110,
-145,33,-57,-88,
-89,38,34,31,
-1,5,43,101,
-207,-11,215,297,
1,50,-225,89,
31,-172,-150,-39,
-90,101,1,-122,
-7,-3,16,-99,
-92,-105,-79,34,
33,-113,-239,187,
-87,8,32,180,
-206,41,152,-20,
-274,6,57,-69,
85,25,-58,-5,
129,-215,-65,58,
-145,-122,-178,-31,
-11,-50,8,-105,
31,171,269,10,
-293,-33,60,52,
28,96,135,-128,
-72,149,-24,-74,
24,94,-118,188,
-236,120,189,-128,
-192,42,-21,-185,
127,4,-179,70,
-58,15,-67,177,
-206,39,-205,-1,
151,100,-52,25,
-201,20,-29,148,
243,-97,117,50,
-20,5,-334,31,
-61,76,-111,-100,
110,-17,-7,-55,
105,40,59,41,
-44,61,-118,-225,
31,-88,-218,48,
117,-28,-131,-23,
45,-86,-67,48,
-7,-61,46,65,
-246,76,49,77,
-181,181,-58,56,
-208,42,-101,-8,
-120,-41,-4,-160,
206,-48,-164,-33,
-285,94,-30,-128,
-126,49,56,-57,
242,-91,-125,23,
-35,-89,-99,46,
-120,0,124,-59,
120,112,-7,-115,
13,92,45,93,
129,-53,-73,46,
34,-100,68,12,
-42,69,-118,127,
-192,28,37,-67,
40,-93,1,38,
96,115,52,-209,
131,85,188,118,
-62,113,35,-21,
205,53,121,-75,
-77,-28,-94,-35,
-133,67,87,36,
-36,91,99,133,
-15,-53,-145,-110,
61,-30,36,96,
75,21,-4,47,
45,67,-67,31,
7,57,47,-88,
-128,0,83,-95,
-158,112,-116,25,
33,70,-17,-242,
97,-112,-55,61,
49,-37,107,-139,
-10,99,34,-186,
-31,-43,-258,96,
-64,66,147,-103,
-111,-7,15,140,
195,-27,-55,166,
-77,52,-16,138,
57,-13,94,68,
-78,125,-135,-13,
-15,37,33,-203,
83,-10,-36,24,
-106,-142,-258,75,
-110,-202,-194,179,
129,-109,80,-120,
135,5,-23,84,
92,76,61,44,
-78,-178,-110,140,
19,-3,137,64,
23,-120,-105,38,
-56,-110,-64,-3,
-6,168,47,-256,
40,-13,29,93,
98,-90,23,173,
31,20,70,18,
54,40,-74,106,
-71,-20,189,-90,
-148,-21,10,13,
-181,117,2,-97,
-20,-185,-180,-69,
-157,-19,-92,40,
21,126,81,-120,
53,212,-41,-106,
2,10,68,-145,
-49,-39,-16,154,
-82,50,125,126,
-150,-106,-139,-132,
-29,77,80,51,
-57,114,22,19,
-177,-76,-234,30,
-29,44,-163,-3,
32,67,-36,-66,
-26,90,141,128,
-108,-4,-141,-268,
223,-44,18,231,
66,-63,145,-34,
-170,13,-97,-112,
78,7,9,17,
-8,61,-40,-73,
0,113,88,101,
-29,-44,-16,-22,
4,196,113,56,
-18,53,47,-96,
115,-45,93,-31,
96,55,136,56,
-151,-5,-76,238,
171,-46,-51,-122,
-201,88,-198,-162,
-70,-90,77,-249,
228,107,155,105,
35,-91,-32,276,
164,-141,-145,-61,
-220,7,-209,-2,
-139,-142,40,-10,
156,-103,65,-91,
26,0,180,307,
-197,-28,-54,159,
-131,10,-124,137,
-71,94,132,-154,
-51,68,-96,-160,
15,-35,46,150,
272,95,98,44,
57,42,100,-70,
194,-29,-170,-84,
-15,-39,79,-36,
-82,77,-67,28,
-179,20,45,-322,
99,-99,-181,-126,
27,89,-74,72,
-5,-12,-80,160,
-102,-3,23,-168,
49,-123,-171,-98,
78,-104,-123,37,
-112,32,-222,71,
186,109,-133,75,
136,-105,-33,63,
7,-21,84,209,
-123,13,13,-88,
-13,71,-5,-189,
-77,-43,43,-67,
21,23,-135,-22,
-275,-92,-229,-216,
-37,45,-318,-49,
206,20,-11,-83,
21,-77,-89,-97,
198,148,-95,-68,
-232,84,65,60,
-37,-87,291,-45,
-16,-24,-26,-163,
-62,148,-59,175,
-205,-245,-240,-61,
-91,67,192,-174,
12,56,259,88,
-65,-88,-78,-230,
59,-16,-132,-13,
27,158,-56,-66,
28,-260,-66,162,
-80,63,-11,-113,
-44,-153,226,247,
109,-12,116,48,
-168,92,63,-68,
80,7,54,-37,
91,-56,-37,44,
-228,19,77,102,
-54,-101,-53,104,
32,-85,126,57,
-68,155,135,42,
-23,38,69,17,
56,14,27,-47,
147,-2,-66,38,
161,-59,-199,-10,
77,299,-31,-174,
-9,-50,51,41,
104,20,95,-91,
119,-89,-57,243,
-76,-31,74,-139,
94,-214,-176,47,
-89,-129,-92,-68,
-5,-70,37,-106,
-125,-68,-148,78,
131,87,-11,134,
-4,-32,91,83,
43,-169,140,157,
-109,-32,-121,-25,
57,69,-79,127,
159,-200,-2,90,
7,-128,-28,-217,
158,64,-18,106,
-57,34,47,-10,
-22,-172,-170,41,
-134,-82,162,58,
72,-90,-72,119,
82,-42,-79,-6,
12,105,-67,69,
7,-46,117,-202,
102,25,31,-55,
205,22,-53,-20,
23,-131,-51,65,
113,233,-33,-31,
102,28,183,37,
47,-44,44,-27,
-173,-4,-16,-84,
149,119,-55,-7,
49,131,63,-79,
-41,-121,215,27,
-138,57,-210,-166,
-1,-34,-245,94,
174,-68,212,92,
-79,-184,253,-120,
-48,1,-144,-124,
16,267,15,46,
-224,25,127,103,
-68,8,-6,-101,
-9,-113,-243,-142,
107,-183,-193,-103,
-280,-20,-11,-74,
122,-89,203,104,
6,-68,-78,31,
-92,-269,83,-57,
-127,-38,-147,-79,
73,57,-76,-148,
10,164,39,-123,
-61,53,81,-62,
2,-213,49,30,
-306,3,103,-63,
11,64,-33,54,
40,71,26,65,
-46,-37,104,-30,
61,43,6,5,
2,195,101,31,
-8,-62,-133,16,
12,-18,-13,96,
-2,71,63,40,
-103,31,126,-98,
-2,-44,-129,-63,
-190,-22,174,-71,
-70,-62,-90,-42,
221,-16,228,12,
-16,-307,-270,164,
-17,-4,-42,63,
3,73,-9,-121,
19,-51,-18,84,
-271,-97,-8,-35,
84,-59,39,-9,
-175,51,95,33,
39,30,30,27,
-11,-133,252,14,
-19,13,-65,76,
-17,-3,117,-2,
85,202,90,-17,
58,-165,-25,-155,
-70,-24,4,-85,
-142,-87,4,-59,
4,30,-12,-120,
112,34,-21,218,
106,42,-33,-154,
2,-102,131,-145,
-24,80,72,-65,
-81,8,13,-159,
171,3,-31,-50,
-70,-31,57,183,
98,202,-56,86,
117,26,108,56,
53,49,-106,230,
134,25,10,-57,
-88,102,103,-16,
-13,-6,54,50,
1,130,-77,19,
-30,-67,108,23,
-34,28,-110,-52,
17,17,-124,-57,
-1,-27,-162,125,
58,14,-258,-102,
-15,149,144,-84,
-6,-65,35,15,
72,66,28,171,
-47,-24,-14,12,
59,11,5,-60,
-163,-12,-83,69,
93,-39,-121,74,
61,-90,-200,82,
-229,-7,36,-80,
-2,116,-49,52,
127,18,-142,-148,
33,83,-15,93,
12,-80,-79,-162,
117,26,-128,-22,
-141,60,32,97,
-1,-5,-105,-157,
13,-159,113,-96,
99,-68,-59,-9,
97,-48,-191,230,
-22,-118,330,-20,
13,296,-27,87,
108,43,6,37,
75,58,-281,31,
-9,29,11,41,
-196,-204,-70,159,
-217,11,36,-263,
-57,-95,31,-60,
-11,131,129,-170,
20,-32,94,116,
-97,-81,24,-127,
32,42,110,-17,
129,-10,-110,301,
103,-59,-138,-15,
-157,-66,-12,-255,
57,-109,-5,51,
26,-162,41,27,
162,123,-210,196,
-55,191,-38,-61,
-248,-240,180,-254,
96,37,-1,201,
-58,199,-144,139,
29,-124,59,4,
-92,-132,-58,-139,
22,12,6,-99,
-27,-35,172,112,
271,31,-152,-232,
-9,-118,93,-36,
62,97,-181,-34,
6,-141,74,-15,
66,63,147,-7,
-75,9,3,-32,
-4,139,-14,35,
264,170,149,-134,
-69,62,-63,69,
116,90,148,-77,
-162,46,-40,-51,
-9,160,-44,4,
69,145,6,-67,
-93,-184,114,170,
111,-16,-189,198,
-36,-133,11,-110,
-21,-327,-196,102,
-158,33,35,-91,
-76,-103,-296,97,
111,126,-34,90,
66,65,69,91,
40,222,-105,-32,
65,17,-52,173,
-111,-21,43,-212,
36,-93,-39,-24,
67,88,-105,-55,
94,91,70,25,
-131,-144,-63,-30,
39,108,-7,-115,
-155,57,-1,-140,
-109,-37,46,-27,
23,-112,-25,-46,
-86,-68,82,-9,
-159,111,-67,80,
-39,93,124,-38,
53,-188,-10,-62,
79,94,-106,15,
116,-66,57,154,
36,-165,-84,7,
29,172,40,-42,
-56,-16,-184,-95,
-145,21,-10,-117,
138,7,-36,145,
-119,-179,-34,-133,
-137,138,-47,-172,
-76,-162,-25,-73,
-197,35,-259,-49,
46,51,-4,270,
-46,118,32,-30,
239,-24,40,-272,
57,56,46,-66,
172,-119,36,-136,
-84,-50,-72,-37,
120,-161,43,116,
40,-47,-81,73,
9,15,-23,160,
-25,300,-28,-18,
-39,-117,-73,33,
212,-274,-139,-9,
290,117,-44,23,
-46,107,56,58,
-117,-23,222,101,
144,25,61,-159,
-72,74,-82,48,
47,153,85,-88,
-15,40,-34,-38,
10,-92,61,16,
125,-293,-163,92,
-61,-37,-97,-64,
33,-76,-42,-82,
-53,217,25,23,
81,181,-72,79,
-42,-22,84,-116,
147,55,48,84,
91,54,-49,53,
24,-37,65,73,
8,7,-73,-202,
235,-151,52,-118,
58,-35,25,-102,
-31,-51,13,166,
153,-187,54,-56,
-60,1,-113,71,
232,-248,47,-56,
59,34,-62,-119,
-67,-41,-36,-71,
128,197,129,-99,
22,-222,85,-80,
-53,92,105,-51,
66,41,195,-31,
15,55,41,100,
52,-45,5,-78,
-185,-122,30,62,
89,-240,39,-238,
29,93,-2,-80,
159,-38,36,-114,
-201,105,-58,13,
-93,40,-72,-125,
-53,-75,-90,38,
87,54,224,-197,
3,-63,-41,95,
-53,-145,-15,-21,
-32,0,100,-125,
157,18,9,-151,
120,-64,44,244,
-186,178,-108,146,
144,159,32,108,
68,21,68,176,
-125,-83,80,-133,
-75,-20,-137,200,
-67,203,-66,-197,
53,54,-205,-57,
-74,122,-7,-22,
-34,-188,-42,220,
-15,-76,-95,9,
59,-246,117,-76,
-32,-16,-40,114,
-196,-156,35,51,
68,40,22,-125,
-328,-135,68,-49,
-79,-70,-138,-32,
36,-131,152,112,
48,-54,-266,169,
81,-97,106,-52,
-69,159,67,59,
-156,5,-80,-21,
-151,-90,-10,19,
144,-16,-112,52,
93,34,-152,64,
-201,28,-174,60,
-34,-39,-144,58,
-74,24,50,-175,
-30,-31,-134,-29,
-17,97,-114,60,
33,173,258,-36,
228,11,-23,194,
-22,174,-122,158,
-26,87,97,173,
-84,260,101,180,
62,74,-4,106,
11,-203,144,10,
42,-99,-72,151,
-67,-179,-126,-88,
-70,-251,320,-140,
-95,5,-106,-103,
-132,228,-4,-104,
-305,-50,-198,-108,
114,-91,-4,-46,
-92,60,-34,-181,
-34,-101,-13,19,
-250,131,-46,188,
-40,-26,138,-233,
150,109,72,2,
200,-174,233,-67,
100,71,-10,104,
8,149,-19,114,
-198,-101,114,-27,
-10,205,25,219,
156,39,-115,-21,
167,118,-191,-30,
-6,-193,21,-64,
-12,-218,-2,126,
27,-15,262,179,
244,108,-162,86,
36,-121,66,-155,
-42,-351,-141,-108,
43,-1,72,168,
35,-206,-75,138,
173,-2,73,-147,
-72,-3,63,113,
119,324,174,-55,
250,193,4,58,
93,-53,-20,157,
7,336,49,-183,
102,-90,-10,-153,
176,44,85,12,
8,136,188,55,
-72,-177,-182,-59,
-79,175,-138,32,
-182,-109,62,-81,
-169,-102,-18,18,
-23,51,229,-7,
-1,-67,101,-121,
-400,-271,-35,-59,
-342,-32,-208,43,
33,522,-42,-142,
-60,15,104,-265,
80,-97,-45,221,
-45,215,203,14,
58,127,-6,-103,
16,-209,-222,-14,
-47,-92,-117,-75,
33,54,129,-83,
-25,-174,-105,-74,
-216,64,191,-68,
48,144,-84,-101,
-11,-341,200,-170,
-78,39,104,-28,
195,202,-108,376,
110,166,121,-89,
-95,13,252,-311,
294,210,-227,149,
-65,101,42,18,
-72,24,-75,138,
-91,-49,13,-123,
-64,-12,62,-181,
-34,-177,58,114,
186,-87,-35,199,
-19,-414,271,11,
103,-75,-98,180,
-284,-93,53,-230,
-231,-379,-226,104,
-6,-122,163,33,
-1,-65,110,75,
-161,401,-32,44,
134,-72,147,179,
39,158,-117,13,
119,245,-200,217,
183,43,-212,-170,
-34,251,-113,-16,
4,-39,-83,126,
251,206,-101,-137,
-48,136,208,85,
-36,109,-6,80,
-7,-191,-24,33,
-8,-42,-28,-23,
141,40,-3,-8,
-94,32,-19,-167,
43,-7,48,-8,
-97,-36,33,154,
149,-83,-218,-131,
0,-172,168,94,
199,63,5,123,
-62,-165,-25,32,
100,194,-31,194,
-25,14,-38,-37,
109,93,85,54,
81,146,-137,-124,
-160,-47,-128,70,
9,57,-127,-132,
279,45,-4,70,
169,44,123,96,
-52,259,-52,-98,
24,-5,25,-101,
-141,-77,63,-70,
-94,-28,-167,32,
-49,41,58,109,
-224,-221,-27,-68,
-2,105,57,113,
28,97,-58,-99,
-43,-88,-71,3,
18,0,-142,-95,
-31,-104,-52,-25,
81,49,80,73,
-23,-293,265,13,
-62,144,35,-36,
181,79,44,21,
-59,89,85,-143,
35,232,-93,51,
66,-3,19,-28,
126,-425,73,129,
-93,66,142,2,
-34,-159,7,-75,
177,61,20,-2,
-111,84,-82,197,
161,65,102,-1,
-26,-26,-24,59,
155,116,61,62,
-89,-80,-211,-80,
170,-29,-86,-129,
-174,-223,-35,-44,
134,67,-234,-19,
-111,-176,-23,196,
36,-267,41,89,
-87,-170,-82,197,
83,-203,-58,173,
69,-66,-177,115,
-53,-41,24,89,
22,55,68,-30,
24,-118,-78,-18,
-149,189,-50,-76,
93,-127,-84,-211,
76,74,-60,-4,
-31,360,287,-77,
1,-128,6,-95,
-45,-98,-99,-126,
-149,-65,100,-123,
-9,-97,112,80,
-10,49,51,-22,
-70,105,-85,0,
190,-117,-86,-72,
-13,-24,-64,-191,
12,-16,27,102,
-126,-85,-191,-20,
-55,43,10,-24,
-53,-16,-57,-45,
-39,-194,104,90,
-32,30,-9,77,
-132,-160,-7,302,
158,22,-66,-30,
168,216,-19,36,
70,-86,0,-16,
-39,25,-175,-177,
-173,-83,113,-66,
-38,48,-91,77,
167,-9,218,108,
-94,-69,-98,29,
-40,-23,-155,62,
-152,43,-17,-133,
-37,62,-33,45,
37,50,-19,6,
2,-43,-91,-123,
115,-92,-53,25,
157,-200,7,106,
-18,-179,-25,68,
32,-83,-90,-136,
-2,-48,-25,-171,
-116,15,-87,34,
-53,88,-45,-94,
-96,31,-84,10,
-17,-129,40,-103,
-15,110,171,43,
-97,142,106,-128,
-92,-134,-101,69,
153,21,76,-194,
126,157,-210,99,
38,96,126,90,
49,63,258,96,
-223,81,-21,16,
162,-56,-51,50,
109,22,113,120,
-95,165,-70,-140,
-167,152,-154,13,
-152,-4,-128,71,
-72,53,111,-141,
-135,107,-90,-54,
-55,12,-17,33,
95,110,-1,38,
137,-58,-88,79,
59,172,115,-142,
-147,48,-111,18,
-87,-5,46,-125,
5,13,-54,19,
87,78,42,-163,
64,147,35,-84,
-35,17,-45,86,
-35,-88,201,212,
34,-70,45,-97,
75,53,-20,-33,
-172,-22,-57,70,
-135,176,-294,118,
35,139,-128,-84,
40,-45,-72,-108,
-81,18,6,-108,
134,115,75,298,
-210,-88,-57,-59,
68,68,-76,-138,
-60,37,4,14,
-266,-124,334,73,
-74,19,-81,55,
-9,-33,-10,-48,
4,-68,56,-17,
82,-45,-69,-168,
78,-124,-254,-57,
42,85,49,-29,
61,-161,-16,50,
-18,130,-87,-167,
-272,197,-33,177,
-33,109,103,97,
1,-113,21,37,
-82,-37,62,-121,
-68,-104,-202,23,
109,117,250,-33,
149,43,60,59,
1,74,-46,21,
-130,-225,174,-31,
146,-131,73,199,
-34,-26,159,-13,
-21,-38,-165,-5,
128,-40,126,294,
51,21,282,133,
226,76,-56,-4,
239,-73,-196,-146,
70,12,43,-84,
90,-113,-174,17,
-61,150,77,-31,
-46,71,-151,85,
-79,-10,-123,-147,
-186,-86,-164,-45,
218,37,-89,89,
6,-100,102,164,
180,44,104,217,
90,-150,21,-177,
-113,20,-58,-81,
-128,-104,-14,-267,
40,-78,171,283,
10,-95,-44,2,
-53,-112,-62,79,
330,-40,37,107,
-181,135,186,32,
-179,-124,-146,-38,
-51,34,197,-1,
40,86,-42,13,
26,56,115,134,
-61,-68,188,-203,
-70,-49,-47,38,
60,-195,-11,-65,
-18,119,91,-51,
130,54,25,118,
-24,45,161,94,
-212,-170,56,-104,
0,27,-26,58,
54,-52,95,23,
-50,7,-155,-42,
25,-11,-22,-63,
46,-21,-26,-18,
-40,6,-81,-144,
-90,209,85,216,
131,-5,27,253,
80,-77,40,22,
111,57,108,-160,
-148,54,214,-14,
15,-141,-151,110,
-55,8,280,-6,
56,-108,127,-42,
-33,-46,3,33,
-82,-167,179,40,
171,-153,-22,25,
8,75,-43,-30,
193,-135,28,-101,
-88,28,129,110,
-237,-40,261,4,
-17,-6,-44,-54,
62,56,-25,80,
93,-23,-101,46,
-53,86,-123,-2,
-22,135,144,96,
-44,72,-266,-38,
-83,-62,100,85,
-63,-83,-27,-96,
37,-83,-16,19,
-121,-99,12,-75,
-43,22,37,-52,
58,-86,-8,-103,
-82,74,111,77,
128,94,-43,60,
-171,-107,-162,-77,
-74,96,153,6,
108,-184,177,96,
-173,194,97,-46,
102,173,-25,-25,
66,-76,1,-13,
-144,-104,231,38,
26,45,165,-37,
150,-63,-242,-35,
128,-53,50,-25,
-11,6,70,37,
88,-179,-101,-35,
137,30,20,-99,
33,-75,-7,-108,
-76,-37,-42,62,
-173,41,22,55,
269,26,-11,-58,
-40,26,-213,-86,
-185,-43,119,18,
40,2,-101,42,
-23,22,179,-50,
-46,-47,-308,217,
-118,-69,207,-71,
-67,-90,78,-138,
-68,-162,-339,-11,
119,100,39,183,
77,88,68,-135,
-62,-85,-102,89,
-180,18,-222,-43,
146,169,177,12,
184,-12,-108,-16,
-11,65,72,9,
-86,-14,-11,25,
21,-161,12,24,
86,-92,37,57,
-100,42,15,-8,
89,-56,-29,-25,
-48,-129,-67,11,
76,-26,-91,-11,
65,-293,379,-116,
63,199,-87,-22,
-55,16,165,223,
13,75,62,52,
319,-173,12,213,
-46,49,17,119,
64,147,-225,-25,
58,61,-186,-36,
221,-96,-40,94,
-150,-17,12,-133,
175,-167,-44,227,
51,2,-141,-182,
-251,-63,-191,35,
-130,33,-106,54,
203,149,37,-10,
-71,-38,-28,185,
147,-8,66,-244,
-28,-126,-13,-268,
35,-4,-23,-72,
0,94,80,-49,
-130,-90,159,-40,
-132,-226,-130,-143,
27,57,-40,98,
-56,-46,71,-24,
-175,5,-172,18,
-75,-79,-156,-160,
-123,-61,-98,160,
-118,-231,-26,-64,
-97,-132,-69,28,
-67,25,18,-103,
-25,238,26,-139,
-61,-106,10,-156,
-35,-18,-134,74,
87,-27,-11,222,
-122,268,-55,14,
-216,-53,-108,-45,
119,98,-9,126,
-93,45,59,-45,
-72,202,79,159,
35,-52,-185,-255,
11,-21,-27,147,
-74,-149,119,-84,
57,-58,-150,-164,
-104,39,123,-201,
-57,-214,119,9,
-8,-132,-64,-113,
-174,-25,91,-203,
-41,223,108,-130,
-80,-107,-38,-117,
-16,54,33,-181,
88,-96,215,-66,
-134,187,56,80,
-107,130,62,-38,
-232,-109,-4,17,
-24,-193,16,-17,
-8,146,-148,-101,
-9,221,85,7,
-215,-105,74,302,
178,-102,-45,-138,
-206,68,36,3,
153,-24,-3,-116,
177,-69,7,15,
-330,-52,-82,-26,
183,1,14,22,
115,-39,184,-149,
-44,-126,44,105,
-177,57,114,133,
-116,42,47,-1,
-13,-112,159,60,
120,-178,-65,-80,
68,-73,-275,30,
234,-207,59,-62,
319,-15,-177,-46,
-79,-3,-26,-28,
-61,-66,140,-117,
74,11,-22,-5,
155,-35,-281,37,
-125,17,-91,31,
-124,-43,-116,-13,
-205,35,-80,-143,
158,-33,192,-99,
109,75,169,149,
-6,6,-123,57,
-51,-145,163,-99,
-8,224,256,62,
153,-51,-9,-185,
-164,-50,-153,247,
54,125,144,1,
-106,-63,-109,-56,
-34,-6,-37,114,
-139,17,-300,52,
47,47,156,-121,
-41,-122,-285,160,
27,108,-69,43,
-103,-48,74,41,
-70,28,-138,-158,
-231,-34,-72,-110,
48,-127,-134,129,
30,140,-146,19,
-61,-51,-205,52,
-2,-21,27,490,
97,31,-76,182,
95,96,-179,291,
58,-27,-55,-128,
-219,51,69,117,
65,152,308,189,
-329,-6,-94,111,
-83,-61,-70,-28,
-42,-179,36,-91,
4,-65,35,-80,
-104,-107,56,34,
-36,259,199,-192,
81,124,-50,-47,
190,160,-155,-41,
-158,42,-85,-165,
-237,-33,-30,243,
-340,8,52,204,
-285,16,-31,-107,
5,137,128,5,
89,125,-422,-55,
19,-52,36,106,
148,-86,97,-77,
137,-141,30,-33,
-130,82,187,36,
-26,-199,41,34,
-21,75,75,94,
-50,-91,-48,-253,
-94,-53,19,-77,
-72,-177,-1,-84,
-156,-14,-87,-24,
-199,172,178,180,
125,10,172,-21,
19,-38,26,164,
-65,15,-134,-19,
-12,19,-68,21,
-8,-35,-178,128,
13,69,-96,-74,
-83,-135,4,-38,
-196,167,86,143,
-36,57,-72,-123,
38,-74,-310,111,
108,72,25,-118,
126,41,-124,-239,
88,-92,-20,-26,
19,-42,85,-2,
165,-36,53,-34,
-68,31,-89,-40,
19,-28,130,-30,
77,45,59,23,
-209,-38,-13,-13,
-71,117,-214,282,
73,111,38,16,
-186,18,-302,-52,
1,-26,26,98,
100,-5,-34,-53,
58,-46,100,75,
-10,-91,-241,-103,
62,84,-5,-67,
71,-14,-60,-50,
-58,6,69,151,
-192,-110,-31,68,
21,-92,53,108,
4,-31,63,53,
-246,208,-238,85,
71,-10,63,100,
-110,92,68,32,
97,-104,-9,0,
-21,-51,1,-4,
-114,98,66,25,
-66,241,76,143,
36,-27,-138,101,
-329,42,-30,-23,
4,-43,124,-24,
-111,219,-39,-37,
111,-125,50,-277,
30,118,113,-26,
-186,-116,-184,-37,
166,-13,-66,-105,
-139,131,-3,-110,
13,-69,21,-35,
297,-203,-108,83,
5,-123,-7,52,
110,-30,-84,299,
62,72,-101,115,
242,-123,-29,80,
23,17,-58,-54,
145,172,92,-175,
-86,142,98,-110,
26,-77,-24,190,
-25,63,83,55,
73,-39,50,-54,
76,-10,63,-258,
57,-51,68,-43,
-139,-123,-113,232,
7,246,138,3,
-135,36,59,-89,
75,-259,26,-82,
31,-95,-11,181,
45,-126,-124,43,
108,-115,90,-72,
1,155,-32,-143,
19,-92,-24,9,
-179,-61,134,62,
57,-90,-110,-213,
10,-6,-97,-166,
65,-217,-81,56,
9,-29,-24,-16,
62,-127,-68,-35,
-176,-162,123,-77,
137,-69,1,-156,
-41,-155,-159,-105,
42,-146,-96,-281,
-53,-96,-2,-165,
-340,-54,-12,-62,
180,-122,38,-43,
44,45,191,-7,
-108,45,-89,-63,
12,129,13,20,
138,-46,-97,-221,
55,-1,174,44,
-49,33,-17,-79,
-156,55,-212,270,
-14,-156,25,28,
-28,-16,76,6,
-66,-42,-59,-111,
41,213,90,81,
-55,85,-50,-35,
-2,228,-56,-24,
-70,45,57,319,
81,339,53,-8,
168,197,213,0,
10,-162,-43,-290,
-169,-98,63,-99,
189,226,65,-53,
-200,25,-97,-37,
-191,-64,-8,204,
21,-66,-164,26,
-74,-139,-34,119,
113,177,-102,-105,
190,91,114,30,
35,119,-167,15,
54,48,-48,-41,
79,317,208,-99,
122,140,81,121,
99,-33,-19,-114,
-187,-195,98,-178,
163,22,118,81,
-11,108,47,-2,
102,29,-246,103,
-149,-131,-16,129,
-22,26,33,-153,
33,-132,82,167,
173,111,-118,67,
61,133,32,47,
-86,-126,-7,-152,
39,121,331,143,
190,-53,-197,-92,
-57,68,-56,31,
14,-29,30,172,
23,-51,130,103,
65,27,-4,-2,
130,54,28,-163,
43,30,254,175,
-95,122,-124,-161,
43,-40,-159,315,
-193,119,15,93,
-157,36,2,-127,
229,-179,-51,57,
-30,224,77,-184,
13,99,-60,-31,
-71,70,-41,-11,
-120,27,-147,2,
86,77,-54,-43,
94,-128,33,-36,
-11,62,117,-160,
10,-223,67,-260,
73,-95,377,-185,
-90,-43,-61,30,
57,-80,26,-5,
261,125,82,-205,
-186,-93,-170,178,
-63,-240,61,101,
-26,-194,-138,-158,
-76,85,-31,314,
67,-120,40,208,
48,-115,69,-106,
193,-108,52,-30,
-11,72,-175,307,
-241,-45,102,56,
179,-81,97,-165,
79,275,81,190,
110,160,81,31,
-185,-124,162,-119,
-124,-55,-40,114,
177,-67,411,91,
-38,-127,131,-102,
-140,-158,56,-121,
-108,112,164,-152,
54,49,-126,-164,
-172,174,-7,14,
65,-157,56,-39,
-140,90,-269,-131,
-208,-309,92,-135,
-91,22,-46,116,
-194,52,-245,162,
106,61,-316,191,
-70,-56,53,10,
-64,50,87,-152,
-9,-174,-235,103,
-359,-274,-98,-9,
-77,-82,-161,80,
-140,129,304,-170,
-60,45,117,-105,
173,4,138,-14,
55,55,-35,9,
-108,8,10,-158,
-58,-105,227,-118,
133,45,45,-23,
12,-159,29,-252,
-42,-73,-57,95,
92,-35,15,64,
-32,-15,36,58,
-40,-42,-41,-34,
-24,127,413,-14,
112,-105,-10,166,
-45,-16,-100,-47,
22,-11,100,115,
64,-243,10,10,
179,-149,-69,-30,
-116,-201,32,-116,
79,-61,30,80,
26,-66,-77,-190,
100,-150,-253,-131,
-24,109,58,-106,
65,6,-47,98,
-174,-122,-84,149,
6,16,247,-101,
217,130,37,-160,
90,39,40,81,
61,-21,149,-97,
24,82,0,-142,
-78,-169,-78,-126,
-119,-63,33,79,
-53,127,86,123,
68,89,113,-130,
-104,61,-96,-90,
-94,165,-29,-31,
144,50,66,-57,
-6,-72,-79,-61,
35,110,70,-193,
13,51,-22,-83,
82,62,55,17,
-47,71,69,-219,
-54,-156,-37,171,
-71,253,54,101,
-51,9,-17,-250,
11,50,156,183,
-46,-22,36,136,
-29,36,-59,19,
-90,11,-12,30,
43,-146,-156,107,
80,-39,46,0,
-97,-82,14,-10,
3,-20,78,-117,
-27,52,164,-220,
-52,27,95,4,
-86,-26,-95,11,
-45,213,55,118,
46,-136,-101,-123,
-86,45,-135,-67,
-171,0,-12,213,
-120,-49,123,108,
-56,-13,158,92,
-113,-84,141,20,
114,144,209,-287,
112,49,-6,8,
11,118,86,40,
24,13,-35,166,
94,27,-32,22,
-79,82,-34,-3,
-51,199,158,-47,
-2,106,15,66,
-180,-100,-30,-72,
95,-210,-149,-173,
60,-34,225,-82,
-311,-53,-4,132,
-268,159,-96,147,
-61,161,138,-10,
189,56,-9,371,
13,-139,132,-9,
211,75,168,116,
6,176,-144,-39,
67,-43,-109,41,
-288,-120,124,-59,
-205,-25,-119,-153,
59,-47,13,177,
155,175,-73,-74,
134,-169,-105,90,
-49,-112,18,35,
-92,257,61,136,
102,166,-9,-52,
-40,-75,53,-5,
112,-157,106,4,
-14,-1,-164,-153,
-157,47,76,-69,
155,-42,19,70,
36,-115,30,5,
-88,225,-50,16,
-40,-62,-115,26,
85,108,-39,-168,
-48,-9,-233,-49,
232,91,94,-24,
-9,331,-11,-107,
202,187,27,-67,
-20,-177,-15,-52,
116,156,100,175,
-261,-107,73,-80,
-9,140,24,77,
-81,355,-121,-19,
-7,118,-31,-14,
-6,-44,32,270,
6,-196,41,33,
165,-121,113,93,
-38,228,-58,-270,
6,186,-42,104,
136,-12,-219,86,
-106,-172,26,199,
-148,41,177,108,
54,-182,-143,-3,
-98,103,-45,-74,
-262,-163,162,-105,
43,91,-30,-26,
-143,139,-187,61,
102,233,124,10,
-89,-71,185,203,
-58,-129,-44,245,
-118,-288,-61,83,
-199,-35,-32,-27,
120,-162,164,57,
-66,-272,95,154,
106,-59,155,36,
-143,30,-37,120,
-36,-11,115,-114,
-119,78,10,49,
-13,341,356,110,
185,-62,66,172,
-90,196,-172,-90,
-134,32,-210,65,
-75,-78,180,181,
151,11,45,88,
-144,189,-26,113,
-13,100,73,101,
115,-443,-91,151,
-135,-86,38,87,
220,-166,104,-50,
-11,-12,-23,-298,
60,-112,-74,145,
-71,95,170,-155,
-141,84,-7,-8,
75,-111,-269,208,
-48,67,-81,-62,
127,-100,-77,104,
41,-85,-36,-170,
103,133,-27,169,
167,-85,27,40,
76,-113,129,37,
33,49,145,-5,
-62,-198,-122,-125,
-45,14,-119,-104,
-167,-398,141,20,
315,-238,-73,-85,
-145,123,-15,-86,
-217,218,-50,133,
75,-35,-93,-70,
117,31,-109,-97,
-219,57,135,243,
-125,-78,-1,-171,
-65,-100,75,2,
218,-153,-102,-77,
-34,-54,192,275,
-152,-41,30,-29,
-25,42,-1,132,
-189,70,-64,109,
-130,-224,-16,63,
114,214,178,241,
48,289,5,-21,
-66,208,-176,30,
36,-10,-85,-69,
-86,-433,-58,-85,
108,120,-215,-77,
-118,148,216,-165,
-161,-115,172,-37,
-25,47,-171,-85,
-74,-248,-167,-69,
-216,191,33,-267,
28,59,5,101,
-46,-13,127,-98,
73,-54,106,76,
-361,28,-26,-55,
-22,416,-47,97,
34,90,10,-104,
-84,-284,113,42,
-57,-19,347,40,
-97,224,128,-86,
-84,50,99,6,
159,-32,11,94,
4,100,83,-77,
6,26,-74,71,
-44,-57,-76,28,
93,-75,-3,81,
157,-46,-127,-63,
-161,62,-88,114,
-53,70,77,-33,
-161,-9,1,98,
3,119,62,-91,
35,-102,217,-34,
146,-156,56,30,
-163,111,60,73,
-100,57,72,-14,
-216,-8,-270,-54,
18,60,-228,-27,
-38,-69,-34,-101,
74,247,-67,-63,
131,-45,-204,-118,
-159,-6,-34,73,
22,-217,10,38,
22,-95,-8,-114,
-162,-51,-145,97,
102,46,-56,-70,
16,-24,96,-85,
-99,220,27,193,
3,-29,-42,-293,
134,144,-59,-188,
38,11,170,112,
-127,-35,-204,-98,
124,202,48,54,
-67,-59,-191,218,
-5,-92,-127,-25,
67,28,-211,18,
77,182,138,-33,
114,-19,65,-35,
-95,122,-110,28,
-88,72,-133,-72,
25,-20,154,96,
-171,-34,-107,-128,
-165,-153,2,93,
-40,268,-110,-49,
39,97,-152,-86,
-93,-147,175,159,
-146,-92,79,288,
74,-204,182,53,
32,-121,40,48,
49,20,-82,-73,
-128,105,-3,51,
-93,-188,-22,-112,
-77,67,12,68,
-90,-60,-139,-15,
-87,96,42,-187,
32,-228,-174,6,
-51,100,180,-213,
26,49,-159,-33,
17,-31,-145,95,
36,101,38,4,
-12,36,95,-90,
22,-64,-18,141,
-143,-164,27,-32,
99,258,130,29,
64,-136,104,85,
45,73,-19,-257,
3,-26,226,-89,
62,-78,31,-200,
-87,84,-93,149,
12,-46,11,-18,
-158,-59,-26,10,
-60,-11,35,-194,
-67,-36,175,124,
181,-127,-263,50,
-79,13,84,124,
27,-52,182,-12,
-91,88,161,126,
243,75,49,8,
111,-55,163,107,
153,-31,-51,182,
-41,9,-155,105,
3,-5,53,-41,
-111,123,106,-98,
-29,-58,-75,8,
222,-247,-66,172,
74,-148,85,14,
42,-16,-37,112,
-61,-118,236,221,
-88,13,-79,43,
-111,-175,71,-178,
150,60,102,231,
149,-72,10,17,
1,140,-112,33,
160,-60,-67,-30,
-36,-105,-43,-25,
-60,100,43,330,
-31,-7,277,83,
-15,55,15,-298,
-31,41,-102,-99,
14,146,-5,-84,
120,-8,-29,-171,
-60,27,132,61,
9,-56,24,-119,
74,-100,158,64,
-109,12,91,-80,
-76,0,-229,277,
-142,34,105,71,
-60,23,-36,17,
-103,189,-152,85,
-6,-170,82,-10,
30,-156,65,110,
-20,-141,117,-2,
132,44,-46,-7,
-103,50,-73,-115,
0,147,-122,105,
10,-29,-37,34,
-4,73,-28,-7,
-7,-76,97,156,
5,53,2,197,
-41,-115,8,-117,
-104,-112,-30,-40,
41,-67,-6,-116,
-158,49,21,20,
80,-43,-17,141,
130,-59,58,-61,
120,-75,183,-184,
-133,22,-165,125,
10,-131,-3,-140,
-39,-38,41,6,
47,-81,-9,-34,
-119,-43,-29,-237,
169,-96,43,23,
-81,61,16,-297,
-36,172,172,-37,
74,-54,87,-93,
-13,-118,-82,-133,
-126,12,-57,7,
164,-57,-160,50,
-85,33,55,86,
-131,70,15,27,
78,180,100,131,
-34,-148,84,-20,
125,67,-33,-11,
-133,2,161,77,
-115,-244,-22,-219,
158,-268,121,130,
-80,106,-67,312,
-170,-78,-14,135,
89,36,-77,91,
-97,-132,104,-36,
-25,-114,-93,-85,
45,167,71,36,
-89,-304,-33,-119,
-70,-184,53,-112,
118,-168,38,-46,
-19,-78,35,113,
-86,-18,-127,45,
103,-121,-97,-257,
-203,-21,59,141,
-193,214,176,268,
105,50,194,42,
24,-60,70,113,
-28,-26,41,-100,
-129,-17,-52,-72,
101,-92,167,-8,
-68,-60,-74,-198,
-145,16,112,-38,
3,37,-25,148,
0,-110,164,133,
1,-72,20,-66,
-8,1,-1,-168,
-34,-89,-54,171,
-88,236,-163,-139,
92,228,-129,204,
51,74,-48,52,
177,-69,-226,-25,
-14,16,-162,-119,
-44,-11,-112,-18,
56,188,-171,136,
-142,-121,-110,-74,
-34,145,51,-90,
-38,85,-154,59,
100,-87,-44,-123,
-167,-1,42,29,
3,101,182,-134,
35,-170,84,-72,
174,19,-48,74,
138,88,-185,131,
-28,-23,-19,-156,
96,-172,6,-128,
66,-3,-100,152,
26,174,3,34,
-107,92,95,-270,
-8,-151,-72,14,
53,11,64,-97,
89,59,19,26,
81,-127,-74,-134,
129,-189,-60,-42,
-48,119,107,186,
-133,-219,48,-246,
-152,68,81,165,
121,209,-77,-25,
123,-29,7,14,
-23,-60,-25,21,
-12,12,155,55,
-36,-133,97,90,
-60,128,198,-123,
-39,130,43,172,
-106,-153,127,-11,
59,76,-26,-245,
-156,50,-51,-146,
-176,149,-171,154,
118,50,-32,76,
154,47,76,-45,
-137,-105,154,-125,
-55,12,-113,59,
-155,-54,-4,135,
-7,10,12,36,
-75,122,-128,245,
-100,-137,75,-294,
-29,-234,-200,-23,
137,71,-54,-62,
-127,-184,-29,-184,
-117,225,72,114,
73,193,-24,96,
58,-12,-114,-337,
91,-123,-64,16,
-230,162,-80,61,
-187,155,71,-64,
34,89,-36,62,
-119,-120,-79,-187,
30,-114,169,12,
45,70,105,-150,
1,-66,-105,-96,
-31,-137,131,177,
-112,6,109,168,
-105,59,12,-16,
-8,-81,-109,99,
51,158,-37,24,
135,146,-22,39,
97,-60,-74,-64,
32,56,-5,-153,
-52,135,-82,30,
-147,-12,131,0,
-87,24,-21,25,
82,-21,-54,8,
54,82,-106,168,
-5,39,4,-123,
-138,-4,-35,-131,
62,-82,99,8,
-116,-133,33,-273,
-90,-88,94,240,
-153,161,-18,141,
-11,-52,116,8,
103,3,4,-160,
158,196,-27,69,
-18,58,34,-74,
94,163,149,-11,
-19,82,-51,169,
-88,-117,-18,-209,
-93,151,-26,-26,
-67,-8,36,-176,
99,-78,18,180,
-75,67,-213,-49,
-105,-31,19,36,
-72,-60,-76,-54,
83,142,-152,-16,
-62,142,121,-62,
79,-100,215,82,
60,-10,-11,249,
188,-130,-46,78,
191,46,30,37,
129,82,-71,-136,
-127,-74,39,1,
18,-17,62,-59,
-47,-96,70,-45,
-44,56,5,76,
33,20,-63,145,
152,-9,-17,-80,
57,-81,-112,15,
12,-73,93,53,
-18,-208,-33,-107,
-8,-22,198,-83,
-181,-96,-25,-58,
-69,-6,-78,-88,
-76,-135,-268,47,
-13,3,52,-44,
-50,-63,21,49,
-118,18,46,140,
-203,-132,-158,-98,
27,-30,48,144,
53,-29,87,-137,
-1,-137,290,35,
202,59,-105,224,
-66,110,-202,175,
-93,0,-5,-126,
223,64,183,-61,
161,175,-205,211,
98,-6,35,29,
60,-154,167,5,
-61,179,67,97,
-100,103,-132,9,
-12,-40,-94,150,
-47,-132,-34,-198,
-15,24,-195,-175,
143,-85,-181,0,
-192,89,41,83,
-46,63,-84,132,
-203,19,36,53,
24,-57,2,143,
-147,2,33,-272,
155,-17,-27,-31,
141,-125,239,-6,
-35,-228,-14,105,
49,-17,16,52,
116,34,-154,208,
-45,25,253,171,
61,204,84,-69,
49,-60,142,41,
152,79,140,-145,
-241,124,-159,160,
40,108,-21,204,
127,-95,-233,-59,
106,158,35,-135,
-152,129,-12,-89,
-117,145,125,127,
-14,276,68,55,
-19,-194,-102,38,
-168,193,-215,-133,
-307,-136,-48,7,
-261,-67,46,176,
16,-28,-30,62,
226,5,58,126,
42,175,-4,97,
-3,-14,-165,-83,
233,60,-15,-95,
22,126,5,-43,
-120,38,78,0,
-50,-65,-17,34,
105,157,40,-35,
-24,259,149,70,
97,-148,-144,201,
104,-70,68,-165,
173,-76,-66,124,
76,-131,92,-231,
-113,-59,32,94,
11,-51,-149,-108,
177,95,-170,-43,
45,48,-390,-237,
-75,-67,-75,23,
-46,228,-35,-61,
-56,-27,-54,-74,
54,108,-106,109,
108,-28,-295,61,
-89,-77,-73,-78,
-157,-289,-76,-41,
246,313,146,-195,
316,-216,-120,-256,
-72,23,-218,-14,
-107,-79,-33,-51,
84,156,161,-108,
45,172,39,-7,
220,-188,160,-153,
-25,-22,136,44,
-137,274,-26,69,
-94,-173,-245,288,
-76,20,104,147,
90,3,-176,-29,
-194,-108,-136,-22,
68,-30,36,-303,
-173,-15,-1,125,
86,-49,147,10,
-139,-112,3,-235,
32,-203,-202,-122,
-243,-138,157,-72,
-43,38,-303,-152,
154,60,81,253,
-70,-177,-5,-209,
-58,-115,-78,130,
-134,313,-11,-35,
-57,-25,150,162,
-184,-177,136,56,
-101,-115,131,204,
-27,-163,52,109,
-26,-5,194,-68,
105,-87,-102,-99,
-123,-266,158,-58,
122,28,90,114,
-142,-65,-9,-114,
18,-41,-143,-1,
41,-68,29,143,
-25,126,41,103,
-41,-122,71,-65,
-147,-8,-11,-211,
72,-79,181,-253,
-188,-40,80,-136,
45,59,-1,114,
77,-237,9,196,
143,230,75,139,
185,241,-8,194,
75,-176,-60,-130,
-134,-137,-112,192,
-37,1,-104,-243,
71,-60,-88,79,
-72,1,-26,106,
20,46,-44,-228,
-35,-52,-122,-219,
-8,53,122,-32,
13,223,-45,27,
21,-70,-85,9,
-150,69,-45,182,
139,-42,35,-80,
58,-129,-145,-239,
281,-114,81,-139,
13,-311,-16,-92,
82,41,-14,49,
45,111,-12,169,
-32,-138,165,-72,
-161,-96,-56,-71,
-155,-66,83,-108,
11,152,10,199,
54,-93,-93,286,
85,-208,-82,10,
-167,20,100,7,
-329,-130,-184,-79,
107,-218,-22,-163,
-161,-160,109,203,
9,-8,82,162,
119,-249,155,-208,
-55,-162,149,320,
40,86,172,34,
-33,-56,146,119,
-72,-123,88,-459,
-58,3,4,139,
54,-66,-13,-106,
204,135,-53,129,
43,-236,-101,208,
-194,-291,181,-21,
-179,-57,-97,211,
-193,6,189,-170,
-170,107,-8,-131,
-100,-155,-67,-22,
199,-89,258,-182,
-198,149,-15,-26,
-173,-237,5,-77,
193,91,18,80,
-9,10,26,-160,
42,-127,-140,-28,
-60,49,99,84,
-128,82,143,86,
51,-113,-91,-129,
44,7,80,120,
-161,8,-111,-101,
5,226,111,-2,
-116,-40,215,72,
64,-79,-84,-435,
-120,-69,124,-71,
-77,-57,-148,65,
-54,-179,-143,-48,
59,103,-17,70,
-72,158,67,108,
51,-1,-44,-46,
-30,-167,-89,-4,
106,-78,46,123,
-57,38,-51,-57,
-19,156,-119,100,
-89,70,-13,40,
-71,-59,63,-181,
77,16,-33,32,
-1,-98,-25,-91,
-87,-103,163,-161,
273,-19,20,-166,
42,127,55,217,
-29,-148,21,-250,
178,-80,185,72,
-53,-145,74,-216,
-219,20,-98,-44,
100,-156,-235,83,
-102,-66,-59,113,
54,-18,-188,130,
-65,-42,28,86,
9,-73,-150,45,
-159,7,-105,-246,
-43,-155,22,-61,
-6,-41,259,187,
76,174,-4,153,
-35,174,-297,94,
22,14,-227,101,
-24,138,27,31,
17,-69,36,149,
87,81,2,79,
-199,-21,-1,-66,
-97,18,39,-261,
-145,38,-157,-117,
-168,9,64,-60,
60,-30,20,-219,
86,163,-212,113,
63,12,15,-130,
-19,189,72,141,
-11,-126,-38,-196,
-4,-153,-128,27,
-25,-76,-143,55,
-145,-170,-22,-106,
-185,149,-230,-18,
-9,-97,-7,-36,
139,-129,76,-48,
101,44,11,81,
-280,-168,-91,-145,
101,114,204,-124,
326,122,38,27,
-80,12,110,28,
163,138,-3,0,
-143,-82,-332,-209,
-5,-49,-122,-18,
-121,-44,159,-97,
-26,128,117,-8,
-19,-168,15,-83,
21,528,-61,143,
24,122,21,10,
-245,117,53,-19,
-34,-71,233,-81,
-167,-45,-161,-130,
-167,24,122,126,
-242,170,-138,170,
3,-12,86,-45,
34,-79,-162,6,
141,211,120,-31,
66,62,198,86,
-160,70,213,-90,
211,24,-133,-75,
136,-176,-152,48,
59,125,-82,43,
0,37,-114,101,
-144,-162,-347,93,
-251,3,62,-148,
143,-187,-90,-36,
147,-135,53,1,
-122,-84,-114,-216,
170,39,-165,-131,
-56,-225,74,-282,
-54,58,-38,17,
80,-112,83,-65,
-100,-317,-220,44,
54,9,4,29,
10,20,140,93,
-52,134,-62,127,
-360,-175,-62,-17,
66,27,-73,116,
114,-134,-118,-30,
-34,136,207,-165,
36,111,-248,-69,
141,86,153,-126,
-204,-79,-42,188,
65,20,205,-156,
4,-86,51,176,
9,-184,-118,188,
-93,-118,140,-204,
-110,73,15,105,
-1,122,201,-55,
-20,-85,200,93,
49,142,129,130,
105,-50,-37,-12,
160,-61,100,29,
-103,-3,22,-21,
-74,-84,116,20,
7,33,155,16,
-72,-89,-196,2,
45,8,-73,142,
-21,15,-39,-21,
-59,-106,-154,-146,
191,51,149,248,
2,-79,253,-58,
-112,32,40,170,
65,78,-41,199,
22,-117,-211,-109,
22,93,33,144,
-170,140,268,-219,
176,-19,-139,31,
44,47,177,194,
105,240,-178,128,
-37,22,71,-108,
-30,289,-68,57,
-4,159,149,91,
-52,-145,48,-282,
-122,-5,31,-114,
-264,-35,97,65,
77,-7,26,-36,
-56,2,93,146,
65,76,-59,139,
-116,9,17,12,
-14,-11,32,-50,
92,168,71,115,
77,30,33,158,
94,-15,144,-143,
11,-263,-96,-52,
-76,-65,93,200,
-4,23,18,85,
-163,-13,71,5,
157,125,-116,-224,
44,-3,10,166,
-40,94,-240,-155,
-92,-220,-216,-147,
-90,-109,114,55,
-91,-194,173,-235,
78,-19,-53,40,
198,68,-15,-22,
93,-188,42,-92,
52,148,-64,24,
20,-202,-61,211,
116,155,-1,63,
-116,-5,18,-237,
1,113,0,214,
-104,78,90,-38,
29,-33,69,-94,
-43,17,-42,-258,
-77,45,-22,-19,
-274,-161,151,-34,
152,-14,186,61,
40,-34,-80,130,
-108,35,54,-179,
69,-148,4,-231,
-166,-69,130,-63,
42,185,-46,-36,
89,14,69,204,
-70,39,-180,-95,
-184,65,-15,143,
56,151,-9,-379,
-91,25,-29,-88,
-242,-206,89,163,
16,-130,-35,-142,
41,48,-32,236,
-145,-74,-200,109,
-97,-146,-128,118,
-71,-331,-8,-5,
43,70,51,-106,
177,77,-188,-62,
-116,-10,-30,-16,
192,114,-157,68,
70,-18,-80,-274,
52,170,128,268,
-79,11,-129,-46,
84,-16,101,27,
-263,203,-158,-63,
52,75,-148,63,
-185,13,-110,-55,
110,-249,217,88,
193,155,-41,-71,
-95,-120,14,-68,
-53,74,-36,8,
74,-268,-248,-172,
33,-17,229,-33,
182,10,-27,-79,
36,-31,30,74,
-142,-100,166,37,
-168,-111,-62,-3,
99,25,170,-96,
31,-15,113,-35,
-232,34,-46,49,
40,-6,-60,181,
-128,-10,-20,-44,
-105,51,10,280,
-29,-116,43,-61,
-16,33,-11,56,
-28,99,-51,9,
108,53,146,-79,
-221,-83,-251,-141,
120,-45,-12,139,
-96,-16,36,34,
44,-102,24,91,
96,-17,-45,103,
-90,47,-74,0,
324,83,174,191,
-9,-26,40,66,
79,-63,-47,2,
-58,-98,27,79,
-97,45,-167,-6,
-198,-72,222,68,
-319,58,-104,55,
-143,38,53,-49,
24,69,-94,63,
-220,-81,-158,10,
45,18,-59,-66,
60,-154,22,23,
26,-61,-105,-63,
-200,200,-34,49,
183,80,-56,-103,
281,21,-78,69,
-44,83,11,-41,
-277,-4,-194,33,
-4,-38,-5,-89,
35,127,-83,30,
79,45,31,70,
-144,30,-153,-82,
-320,7,87,64,
90,-54,-38,178,
31,3,-111,-49,
-104,-131,93,30,
15,-72,-137,4,
-174,80,-58,29,
147,-22,111,30,
97,-53,98,51,
60,24,-94,-106,
-43,-78,154,109,
-84,-62,-17,-99,
116,-72,-107,-38,
-17,315,89,24,
-148,77,50,-225,
-146,53,78,64,
-282,-62,-68,-26,
-166,188,-193,-14,
-156,83,47,-53,
13,-52,-42,-28,
-82,-171,201,-106,
-88,-155,-79,-18,
253,-81,31,-74,
82,67,-93,-74,
-68,87,61,77,
27,-10,-39,45,
39,-99,-10,22,
34,-253,155,-77,
-59,210,-229,52,
-74,-130,-86,39,
-77,204,197,38,
26,50,135,13,
-128,235,-34,154,
-133,-32,77,-18,
77,112,74,-102,
0,-73,-5,278,
-60,-47,98,12,
86,173,-258,-122,
220,-53,100,101,
-211,-49,267,56,
98,33,-8,138,
21,-180,-147,0,
-477,-115,169,-33,
82,107,-18,-13,
197,-164,-34,81,
-83,-115,51,31,
82,118,-65,-40,
-102,106,84,3,
68,-105,-112,129,
-172,-88,-43,152,
-109,-114,-43,79,
-39,107,-66,89,
-141,-138,1,-98,
42,-4,162,30,
-76,93,-323,-43,
22,-24,-157,-28,
189,35,48,51,
79,27,-93,-77,
277,12,114,-100,
136,-37,-27,101,
-89,63,53,168,
104,-86,57,-37,
-47,62,68,7,
-92,-112,154,-51,
-105,191,-176,-16,
98,-152,27,9,
116,50,50,135,
3,-149,4,-161,
-143,-4,-35,-22,
-127,-60,-158,-145,
0,36,21,-80,
181,-22,-84,31,
38,104,-94,178,
64,62,-52,-33,
92,49,-4,169,
72,193,-49,11,
-92,-263,-30,61,
119,155,158,134,
5,91,-77,-165,
182,-16,48,33,
-57,37,-4,140,
-130,2,109,-108,
48,154,-153,-83,
-229,-76,129,-187,
-71,9,-4,-113,
-31,-1,-173,36,
-87,-27,-127,80,
164,-111,-252,-77,
247,-8,35,42,
-68,-106,125,-61,
-189,-172,-84,-120,
236,145,120,117,
-22,-162,-94,14,
257,3,68,138,
-97,129,-21,-289,
57,145,71,42,
-84,-87,-44,49,
-136,-13,43,68,
-6,56,180,145,
148,-16,160,216,
82,1,3,96,
-31,-22,-226,-71,
115,174,272,2,
-9,157,112,-83,
182,-1,88,171,
192,-208,-126,22,
-440,-57,7,60,
126,128,205,56,
113,0,72,27,
4,240,200,111,
189,-103,104,-147,
137,136,71,-46,
-85,180,-36,92,
27,-10,10,-7,
-35,109,58,115,
-84,-196,-69,-51,
-249,271,-39,-22,
15,33,91,28,
-41,-41,23,-35,
-125,55,150,-108,
1,55,-2,22,
213,-66,-170,-56,
191,180,77,96,
154,-30,37,-106,
-164,-45,-9,130,
137,-285,173,13,
12,-95,-39,87,
179,-11,38,-9,
-61,-80,-55,-179,
191,24,-42,60,
-232,-30,56,-33,
-115,12,-2,-4,
-83,-98,-116,-112,
-8,-18,-276,-15,
295,70,-95,112,
142,-140,255,-55,
-82,68,52,90,
-65,149,22,24,
-69,-66,-10,187,
122,124,41,88,
-254,114,32,50,
51,-91,20,-18,
1,-2,84,50,
78,-191,-56,13,
-3,82,-58,109,
-79,-189,107,72,
132,65,138,-94,
-192,-24,118,-116,
180,281,-97,-28,
-201,-105,-98,-151,
-21,-55,153,-14,
72,-22,-31,100,
-83,112,10,-70,
-125,110,-57,0,
141,163,113,-71,
78,-43,-108,-114,
-77,-87,-92,-12,
-9,49,51,6,
157,-208,169,21,
312,86,-141,-98,
23,-87,284,-19,
-52,-255,-174,2,
-298,-153,-141,22,
-90,-140,-99,-121,
-126,-92,-89,-28,
123,-46,-251,-140,
120,29,18,119,
6,-24,-195,13,
-126,15,-152,-8,
146,108,-26,18,
-202,140,-17,-51,
49,-75,123,125,
-169,119,154,124,
-45,-77,92,-28,
-168,-150,-165,186,
-143,5,-352,-36,
-56,-80,52,-19,
40,25,38,10,
36,144,-166,-26,
-335,-198,174,19,
-28,50,-181,50,
-178,31,-29,-47,
174,-102,294,62,
68,89,-27,56,
73,-47,46,-34,
-11,-44,110,-92,
120,80,-73,44,
30,128,167,12,
-158,10,-25,-49,
-35,2,-72,-57,
44,184,-2,72,
-47,-120,26,-99,
-79,-54,9,50,
-169,-63,22,-17,
-12,-125,-73,91,
-59,85,-69,63,
26,-88,-91,29,
125,-129,-93,33,
128,-135,-122,-24,
-133,15,-104,63,
-2,-97,203,26,
21,-26,152,-149,
-14,-188,-144,-29,
50,6,-21,-136,
-79,50,-45,-125,
95,-130,273,-7,
115,76,-212,94,
181,-179,64,-50,
-86,-38,143,-178,
172,-104,-100,-15,
354,232,80,67,
-3,120,-110,3,
-72,326,-177,-49,
-50,-265,-169,1,
54,-22,262,-51,
-49,-46,-12,-1,
-32,138,163,-110,
147,-33,157,90,
-80,-50,47,41,
103,-111,318,56,
-220,248,-120,-13,
300,-54,-74,-156,
144,-277,-104,21,
328,-75,79,-40,
143,126,-43,-93,
-163,43,17,171,
-66,-124,-107,203,
-290,37,22,4,
14,63,-162,-13,
-12,-12,38,175,
86,35,-228,-59,
-280,-145,-131,36,
-256,141,-143,-53,
221,314,-43,-93,
-97,-85,73,102,
-80,159,-122,-75,
-53,28,-40,-99,
6,-218,68,39,
-132,71,48,-25,
-312,-441,29,16,
-106,-13,-64,-6,
-149,188,-177,-98,
77,-468,222,-147,
24,-37,43,26,
-46,-320,77,106,
29,43,-50,23,
72,-332,-109,121,
-109,-45,-40,68,
85,129,84,36,
-169,113,133,-159,
402,34,119,-207,
-44,138,-19,53,
-69,205,61,43,
-271,72,-9,-102,
-67,439,-91,0,
-15,-219,-80,-44,
-4,-57,55,83,
-80,107,66,118,
-318,-367,111,-41,
-151,221,-79,43,
-231,-98,220,-37,
-143,-7,-158,42,
-50,-80,17,-39,
-185,171,-224,43,
123,-95,-127,66,
158,-118,174,105,
85,-95,-29,39,
-123,-21,-107,-111,
-122,-197,-21,60,
44,263,-123,119,
95,-5,-116,-15,
385,-92,-126,56,
-183,126,-232,97,
-62,318,99,-71,
320,-103,191,21,
93,-82,162,-52,
106,-607,-238,-191,
-63,45,-90,58,
70,-77,78,88,
-106,-148,270,34,
275,1,66,53,
-40,-176,87,-98,
199,-74,95,77,
270,148,48,76,
39,6,-53,-27,
-56,-63,-1,-6,
-235,98,-55,-118,
-55,-64,175,73,
312,-5,15,-25,
-153,-79,-43,-28,
-68,-71,221,165,
89,-55,-4,67,
-170,19,9,113,
-119,116,146,50,
-135,-81,-233,35,
-236,117,-14,-160,
-142,10,-92,49,
-82,-299,1,-6,
80,-41,41,64,
20,224,-59,22,
80,20,-123,31,
-8,245,270,58,
-283,21,110,-68,
11,123,124,-3,
51,-206,-21,-63,
77,-83,94,-105,
-144,282,115,29,
41,72,148,-47,
-99,-23,63,-2,
46,-86,158,82,
228,89,-68,-85,
2,39,-220,-89,
-53,-198,-53,74,
251,9,-58,-42,
73,70,126,-7,
55,-237,-103,5,
-72,-56,143,82,
-132,-88,-112,25,
92,-282,-112,-65,
42,61,-157,-64,
-93,6,48,38,
32,141,-39,162,
-168,46,125,-15,
-54,97,120,102,
-91,18,138,41,
-180,-16,-221,-67,
97,268,76,-24,
19,21,-227,10,
7,217,-20,-65,
-87,178,42,99,
118,66,119,98,
274,62,142,90,
-102,43,-65,87,
68,83,-63,-42,
-102,139,-47,215,
-211,-120,92,15,
32,-40,-263,-4,
115,-87,275,-13,
-85,3,261,110,
-103,44,190,146,
-157,-70,114,172,
21,12,-5,-108,
204,-18,127,45,
48,172,75,120,
-87,46,247,21,
45,7,-2,129,
17,-30,42,2,
63,11,-2,47,
220,-7,259,-71,
-43,54,120,-150,
12,-27,-150,128,
-34,-37,-36,42,
145,-59,154,-34,
281,-83,-250,27,
-101,48,-304,101,
-65,32,143,-278,
-50,20,-72,-64,
21,67,-308,134,
92,116,-62,-65,
-66,78,-227,28,
-19,10,72,-171,
98,51,-78,-132,
-201,34,-145,90,
-10,-130,-21,-125,
160,-59,110,-45,
-28,-83,-260,-176,
-167,97,-272,106,
-56,-46,-227,126,
-185,100,7,-127,
1,-83,-147,-100,
-11,2,-45,-51,
150,112,22,-26,
-211,-45,92,109,
8,-12,8,-34,
27,-92,124,42,
12,-17,-50,133,
120,-67,-114,1,
170,63,-11,60,
-56,16,76,-62,
-111,5,305,-61,
-41,-41,-208,-132,
111,-57,-173,77,
-222,-9,74,55,
141,-6,-39,180,
-112,5,-410,91,
-112,-22,-100,-5,
-138,-87,-329,-49,
-72,142,99,-121,
176,-21,97,-12,
-8,-63,107,-49,
-78,103,143,-114,
-13,-54,-9,74,
17,-75,-42,105,
-48,72,42,-98,
-93,-53,-188,-169,
69,-94,243,-264,
-50,-21,-149,-67,
44,-41,-68,-188,
-58,-77,68,122,
112,57,205,-128,
-284,56,-365,58,
-88,-133,-31,25,
30,-45,64,-4,
-287,85,-74,14,
166,117,75,144,
-65,91,-138,-13,
-79,-39,-38,66,
-91,140,-132,-46,
-146,22,210,-31,
24,22,-46,52,
50,-9,69,12,
69,206,14,7,
-7,-264,40,33,
-47,32,74,-76,
-264,-156,-398,123,
136,3,141,-64,
50,-72,-114,-28,
-25,32,-363,-13,
25,-106,-143,42,
40,40,-107,-217,
197,-4,-69,84,
115,93,-250,108,
257,-33,-58,-61,
-211,-154,-129,17,
-9,-127,-52,-134,
58,19,-140,-167,
-202,33,-181,40,
267,98,-108,-109,
83,34,-18,-51,
57,-21,55,-162,
-12,-146,-120,-23,
99,-152,132,-28,
24,-73,-81,-103,
-93,85,119,-71,
6,48,-51,-8,
127,-191,90,15,
-81,104,-62,148,
-41,-67,-24,-85,
-7,6,-153,-34,
11,3,40,-22,
-36,-9,-36,-18,
134,-83,-176,27,
64,11,65,-93,
32,52,55,22,
76,91,11,-24,
-201,69,-146,20,
-41,-86,13,-2,
-127,87,-74,-32,
-146,262,-76,57,
88,-47,-87,205,
-134,-58,141,-92,
71,55,-51,3,
144,26,-86,101,
-98,70,-99,-46,
-65,113,195,20,
37,-107,134,-117,
-87,77,-128,-18,
18,95,-106,-116,
-41,2,-88,-146,
125,30,108,-85,
-238,-47,-423,-108,
-74,-41,50,-157,
-47,173,104,83,
25,-59,-83,85,
-86,-7,-255,205,
134,-55,62,54,
85,80,213,66,
-258,-132,130,5,
278,-19,146,161,
-339,-136,-17,135,
22,-11,-125,-10,
-46,-43,-178,-83,
174,-3,5,-51,
-217,-161,-46,73,
27,-27,-78,-6,
99,121,182,25,
83,149,96,-80,
-121,10,-50,-93,
-80,-31,-215,112,
111,-51,-39,23,
-122,-38,-69,-11,
51,143,-15,0,
-75,62,-85,107,
65,-1,29,73,
-69,30,193,54,
-63,125,-207,27,
167,-1,90,18,
-71,40,-83,-30,
72,-21,-169,-101,
-35,-191,90,-20,
-59,-2,-116,4,
35,87,50,-43,
124,226,32,-31,
113,-42,-34,-2,
-250,-53,-216,-124,
151,-118,200,47,
-38,-18,69,-155,
-23,-49,96,-114,
-206,-146,-234,-88,
83,111,35,-73,
28,41,-53,9,
-22,27,-58,65,
64,-14,-11,-185,
109,97,106,58,
-97,16,-39,-127,
127,35,-78,77,
25,61,69,-8,
-19,176,69,55,
-183,-40,-72,-51,
10,-35,-42,-13,
70,89,-90,-85,
-2,35,43,39,
-69,-89,-78,-19,
-37,25,-250,40,
47,-36,85,-16,
28,38,86,-50,
14,-35,9,-30,
-61,-104,-212,-61,
22,81,153,28,
198,-64,15,50,
-24,131,-114,-171,
5,-10,-29,23,
-188,-182,0,-4,
52,39,-90,72,
-138,29,-192,14,
80,-47,-94,-78,
-6,99,-330,38,
33,-187,90,-66,
-251,-14,-246,49,
-148,-161,154,44,
123,60,277,46,
-156,66,-246,68,
89,40,194,-113,
-241,-48,-142,18,
-160,-41,-185,80,
0,80,116,137,
33,74,122,-219,
42,94,-113,87,
-56,-29,-46,195,
-94,-9,62,-42,
-87,-100,-28,-21,
-89,15,-148,79,
104,56,-197,-40,
-248,116,32,-57,
-22,-52,116,-4,
-201,97,62,-73,
160,35,-97,149,
-83,-248,131,-37,
49,44,160,-62,
81,49,-23,-99,
-27,73,281,-18,
-47,71,47,65,
9,-157,-12,63,
91,97,90,100,
84,5,-91,112,
150,72,132,12,
223,15,45,53,
-6,97,48,-105,
-61,-42,-367,-142,
87,163,-202,-128,
-61,-171,44,109,
-158,-69,74,10,
-132,-115,116,-61,
-49,29,-138,52,
1,-68,-119,-108,
90,26,116,-19,
6,195,30,-80,
37,88,234,-34,
-164,119,130,8,
-43,69,-32,-148,
-7,-108,-44,8,
-56,-54,62,-80,
-43,-145,-23,-3,
-212,-54,-169,-75,
170,127,84,2,
128,-1,22,81,
-243,2,23,-50,
44,41,77,147,
-18,-5,56,13,
138,-152,-97,16,
-73,-132,-87,-30,
-161,70,7,86,
37,88,160,-45,
-32,5,107,136,
138,-46,177,-55,
87,148,193,-3,
-91,-70,-188,16,
-105,-95,56,96,
-22,-120,-124,-19,
-82,-11,62,-37,
7,8,-112,17,
-75,-53,16,-32,
-178,-50,-48,-16,
-210,-163,28,98,
155,1,392,135,
-47,163,53,-64,
-143,-72,306,16,
-289,4,-69,-177,
-7,59,99,-52,
-112,30,15,77,
257,58,162,20,
95,56,71,-25,
180,-87,16,-104,
-38,-237,63,-45,
-106,-159,-118,-40,
-109,82,-235,51,
59,40,-85,26,
77,53,236,-15,
-184,62,-88,113,
-25,32,97,148,
-45,-38,-113,12,
-40,-50,82,-26,
-155,40,126,-45,
183,-18,-199,-15,
-102,35,146,-31,
-102,-95,109,5,
-162,-123,57,-141,
133,-14,236,5,
22,-92,-145,-10,
165,2,249,-63,
158,-27,73,-34,
-125,18,20,61,
-212,-96,-213,-72,
151,164,-182,-23,
-99,27,216,141,
-73,61,-9,-86,
-222,-23,-119,-80,
98,60,-142,-2,
-159,-8,73,205,
-8,-24,-154,-48,
86,190,-42,-76,
72,90,197,-27,
-152,-81,-88,37,
152,-116,-177,-91,
9,14,289,54,
41,45,5,-9,
-282,17,-212,-12,
-198,61,-53,-156,
-89,152,68,21,
114,51,-147,63,
0,-41,78,-138,
-79,75,-80,114,
157,-106,14,16,
215,-28,-34,110,
136,-32,26,-216,
-137,111,-173,38,
217,95,162,137,
-7,-50,133,43,
-31,74,10,-87,
34,82,24,-27,
-10,-70,-395,62,
-121,17,140,-53,
62,-145,-198,83,
156,-63,224,22,
121,-26,-250,-88,
-65,-221,86,33,
-422,35,-143,-181,
-137,62,147,135,
30,-145,156,186,
-70,16,-43,38,
-142,-195,44,-76,
-126,-35,-86,42,
114,-70,-123,113,
-11,5,91,124,
224,0,186,-114,
114,108,-18,-6,
4,-113,2,-36,
-93,-54,51,-24,
-257,-63,-126,-42,
-182,20,-154,-208,
-59,35,71,-64,
176,-25,118,32,
-20,58,-59,139,
-75,-74,-135,-56,
67,41,-224,-47,
57,-87,104,114,
98,-76,45,-23,
-36,-20,-49,5,
-244,95,-43,-11,
-101,101,-193,164,
-119,-40,-93,74,
-43,-36,137,-46,
-145,5,-209,-5,
354,-17,208,31,
20,-102,-48,77,
-107,-107,188,119,
-16,-106,-244,22,
119,-4,-355,-55,
2,67,-11,85,
64,-27,95,-194,
-39,-24,-102,-10,
-41,99,191,6,
-39,114,-177,52,
66,-54,-122,157,
-71,37,283,-11,
-9,48,31,-84,
-25,-63,-103,95,
-7,88,44,64,
-98,51,383,89,
40,-7,28,-66,
-239,66,-36,-16,
-238,101,-80,-75,
-43,96,158,52,
-29,-19,-43,-70,
-65,37,-160,-48,
-136,32,55,70,
-19,-157,-59,45,
-18,-111,11,162,
21,99,-153,99,
-110,174,-284,88,
197,7,32,21,
138,-53,68,-44,
30,76,100,37,
-86,54,103,132,
151,-44,-274,-42,
232,-9,-37,-73,
12,-25,-164,-48,
65,-85,-118,3,
164,69,-80,-201,
77,81,2,37,
-32,12,40,10,
106,-217,-80,-71,
-5,74,86,-37,
-169,-104,-141,-93,
-14,141,16,-45,
-199,-98,38,-103,
-4,-53,-77,165,
-88,54,-202,93,
-39,-24,-32,94,
168,44,-20,101,
-161,-6,61,1,
-189,116,95,-23,
-118,-176,-53,17,
-11,149,79,41,
-167,-111,129,-195,
82,88,76,-105,
133,-17,144,45,
72,133,41,138,
187,45,-149,115,
-62,-15,262,-9,
-89,8,-109,153,
-74,62,145,-56,
120,-84,-109,-28,
-7,17,15,-193,
131,-127,-60,-9,
-124,31,-74,61,
172,56,-42,-93,
1,-96,15,27,
74,-19,92,215,
-30,32,-64,-21,
-85,-78,-15,-22,
66,164,-246,-55,
353,-98,98,38,
-31,-95,-90,-20,
-99,-44,-120,19,
-87,40,19,-3,
-10,11,46,119,
-153,-44,-146,25,
-76,19,-149,166,
370,29,-144,30,
-72,2,119,92,
-192,115,4,-105,
102,41,-61,87,
-1,-102,173,-104,
-107,-176,-52,42,
83,-82,-206,175,
-135,98,-145,-20,
-35,24,0,112,
-70,21,40,6,
-64,79,81,23,
-121,87,22,29,
-72,-96,-165,14,
15,-60,-181,31,
201,41,17,161,
18,168,123,17,
4,-49,-102,-142,
-108,-52,-74,154,
379,0,33,195,
15,51,-31,-4,
-86,-135,6,136,
45,-134,67,117,
33,60,11,16,
-2,9,-43,-205,
-11,-1,182,216,
123,91,-109,136,
107,-91,-188,6,
-26,134,-2,125,
-149,-81,-227,6,
-78,73,-59,187,
-474,-19,-15,-219,
-180,21,1,-189,
-44,61,-137,10,
114,104,72,87,
99,-200,-39,61,
-95,99,-4,0,
-85,-57,-71,91,
6,-93,-126,-88,
1,-96,-124,85,
-229,-165,96,-239,
194,15,30,-98,
48,219,203,-49,
-127,40,-83,-89,
140,96,-113,-189,
48,-6,222,-58,
-15,-148,-37,140,
15,91,-105,-32,
72,71,-201,60,
-40,-31,77,116,
188,-124,177,-15,
8,-56,252,-133,
-160,68,65,131,
-164,-9,-89,125,
-62,68,78,100,
100,4,163,49,
-17,-125,-20,-116,
-162,-179,8,-85,
176,99,205,226,
80,-68,-139,-34,
-357,51,-70,50,
-223,101,85,137,
-69,185,-58,248,
43,-74,-96,210,
9,65,31,119,
260,-77,-70,-10,
71,104,-162,98,
-109,52,63,-189,
309,113,-103,5,
200,-2,-70,-100,
-224,-121,-211,116,
92,-37,-61,16,
-7,-12,30,308,
82,-15,111,-81,
-214,1,51,-218,
-101,50,-232,-359,
-356,-23,-11,-44,
-126,-96,-142,175,
35,38,-97,-95,
-117,-83,-22,55,
358,7,22,147,
129,6,149,165,
-186,2,-69,-143,
75,-89,-9,-172,
-1,-11,85,-26,
138,28,-56,-52,
3,-30,47,-159,
-183,133,24,-164,
-107,-47,-110,-27,
-173,-45,-71,-206,
87,89,-47,-81,
-101,113,-108,27,
-147,101,-63,223,
140,-127,-9,-66,
-122,-150,76,14,
-129,142,6,93,
34,65,24,146,
-72,-138,27,163,
87,44,122,74,
88,0,-14,94,
-6,-94,45,-32,
97,-92,32,18,
78,-40,-151,-9,
-170,-107,-37,88,
-217,1,104,-86,
72,-40,-79,-181,
-133,-93,14,-86,
111,-14,35,-103,
-21,16,-198,-53,
100,71,34,-123,
175,8,49,20,
-86,-123,20,-107,
-245,107,-108,-23,
-89,-37,-166,104,
96,114,-157,-129,
-70,40,157,-273,
-226,61,-23,-142,
126,-48,-69,3,
-208,-34,-48,119,
94,-68,-144,-90,
-159,-88,-56,136,
19,-161,-16,89,
-88,82,21,-199,
191,68,5,-32,
-344,2,-17,-7,
-92,25,137,-75,
-250,41,-42,154,
66,-1,-63,-87,
-143,-24,-201,178,
-76,94,48,-132,
41,-104,-12,-2,
-149,-11,23,99,
157,-49,57,43,
193,11,2,-89,
-73,18,1,-131,
82,-134,-17,-45,
53,35,-106,105,
298,-12,12,-188,
-265,71,-107,29,
80,37,-121,31,
9,-185,7,49,
-159,-105,34,93,
-190,165,-42,-136,
-59,39,-54,18,
232,11,-113,115,
167,-138,14,291,
-300,82,-95,17,
-101,-83,81,-25,
48,-29,184,31,
283,-33,-54,-136,
-137,30,-122,-84,
-272,-76,14,-94,
28,59,147,214,
0,122,-17,73,
-5,24,-105,-32,
-51,-79,157,4,
80,79,-5,-157,
31,-64,-118,-88,
-75,76,13,-133,
-137,45,93,-189,
50,84,-28,86,
25,-90,61,14,
163,-50,-152,133,
4,-13,-49,-22,
257,-174,39,243,
-100,122,-104,31,
-9,128,-20,1,
156,64,-76,-57,
43,-133,-105,-19,
-49,43,25,48,
-119,-38,174,190,
-5,-62,18,4,
135,5,214,0,
1,46,123,146,
-118,-49,-59,-63,
104,115,104,-199,
-23,-80,124,185,
-160,65,119,38,
-62,84,-7,-91,
26,39,-31,116,
-93,-9,-43,62,
120,-99,57,-126,
184,159,243,30,
39,73,-35,58,
-41,91,118,-172,
-116,6,-33,65,
181,-134,50,-59,
-109,-194,-126,47,
135,-30,-214,0,
149,-39,-104,-91,
-128,-26,22,-117,
173,-62,2,39,
-111,-228,-208,128,
3,101,-43,101,
-89,45,133,-4,
88,55,-136,-88,
17,52,17,-54,
-28,97,213,-69,
58,-183,-65,35,
-158,-24,-109,184,
-61,-54,40,-61,
92,-160,3,106,
80,87,-76,92,
34,104,103,-97,
60,96,-18,-203,
-118,56,-34,-192,
72,17,221,-19,
113,30,43,-83,
72,-23,-78,10,
-146,27,-71,-110,
85,-254,94,108,
-70,-132,143,264,
-17,84,-145,168,
-2,22,-83,45,
-30,-115,-130,51,
12,67,153,-173,
82,-78,33,-81,
-88,62,200,-34,
11,-49,39,2,
-109,-4,95,139,
86,-4,49,59,
95,7,-150,86,
30,-92,103,-23,
123,3,126,20,
-99,120,186,80,
81,-105,-178,197,
167,64,58,102,
120,-18,23,5,
-2,-46,-10,108,
17,-15,-28,229,
28,83,33,65,
211,88,-149,-58,
-59,-51,-5,-178,
-60,-102,9,-51,
-38,30,-185,111,
23,-186,278,-93,
-47,65,-11,-86,
-5,78,245,-98,
5,31,-151,-170,
38,8,-176,-206,
140,-67,-58,260,
-11,-38,-87,-319,
-1,-81,-1,-192,
-91,-7,179,198,
-3,-103,5,-64,
-208,6,42,123,
151,-6,48,186,
83,-63,41,48,
-40,107,173,-187,
-158,68,-7,69,
211,-13,-28,-37,
63,-134,-135,74,
27,-134,142,22,
0,-98,-97,-165,
94,-121,-116,-50,
-111,-27,-90,105,
-81,-274,-234,-32,
120,-117,119,150,
-66,-16,69,40,
-7,-83,-108,-116,
-222,45,243,154,
-166,47,-105,36,
-13,15,34,63,
116,-57,-57,292,
-126,-47,16,-232,
28,-59,-31,20,
40,-86,1,-14,
-176,73,-68,-7,
175,-17,-82,-297,
-8,-79,-151,-261,
51,85,172,226,
-50,32,201,-283,
259,-41,98,-219,
136,-25,-76,-167,
45,-73,-33,-32,
-19,-158,-82,-16,
-217,5,-150,109,
156,65,-93,266,
59,170,-82,-33,
4,57,89,126,
195,189,176,33,
-7,193,-168,-13,
109,113,-52,127,
-55,129,-87,-62,
-109,-88,70,42,
-85,-100,149,118,
51,-43,43,3,
34,13,-49,-31,
-200,24,-8,18,
111,-122,-14,-43,
-79,-15,-69,87,
113,65,-154,82,
-45,-220,-113,134,
-101,130,-131,247,
-60,98,-125,45,
67,-6,176,66,
43,-26,-57,-67,
0,-3,75,-150,
137,48,63,28,
-58,-146,122,-39,
-76,19,-149,333,
50,132,-153,-12,
139,-174,-25,-4,
-75,-55,-27,-8,
64,-5,-55,-122,
3,-117,91,-192,
-7,14,21,62,
-45,110,181,121,
14,91,136,-187,
-67,-41,-13,256,
-29,33,102,246,
37,38,3,-87,
-76,173,-43,-69,
14,-88,-137,-178,
318,41,77,-140,
118,-157,139,-15,
-21,16,-75,-198,
9,-67,-53,76,
171,47,3,-81,
-65,-21,-5,-140,
-110,-213,-46,260,
84,50,291,-80,
-112,29,-62,209,
-102,123,25,-196,
-129,95,29,-35,
-87,95,45,28,
32,77,-117,15,
83,84,-134,209,
0,-12,120,-84,
-25,-90,150,-16,
242,-77,-20,-72,
-142,38,152,-146,
-27,-9,-7,25,
-35,-45,-111,-45,
-35,109,61,-8,
-20,113,76,-182,
1,69,-89,-46,
-154,-54,-48,-63,
23,-23,-40,-183,
61,-85,19,88,
22,91,34,90,
-134,93,34,120,
-32,-50,-41,149,
-10,-88,165,-100,
25,-81,21,-77,
68,-68,17,134,
31,48,90,-73,
1,-11,-22,-64,
-12,4,20,130,
89,-19,47,-275,
-161,-32,24,189,
92,-127,-147,-92,
-146,-62,41,28,
7,134,294,-29,
-68,34,-164,13,
-34,3,49,52,
20,-178,-100,48,
-29,-54,104,159,
-132,-9,110,-23,
-35,-82,58,37,
-5,47,-109,-6,
-41,65,39,101,
27,5,-12,101,
-179,-71,-114,-77,
-60,131,-96,-56,
-38,-81,-73,-73,
-145,-167,37,26,
-84,26,51,-21,
-36,-16,13,-38,
68,-15,-60,-25,
-130,-51,-107,-53,
-58,-77,-3,-96,
-2,101,183,40,
53,-57,58,34,
5,-3,-128,-18,
-195,20,-70,-11,
97,-44,48,48,
-69,7,-16,-33,
66,94,18,229,
-42,-78,-198,29,
90,-18,20,-16,
93,28,-27,-11,
74,33,201,61,
36,45,3,-86,
29,49,-82,70,
159,-113,-39,-62,
186,134,31,218,
-50,-19,-136,-17,
89,16,-118,-69,
109,-64,-92,-138,
-87,-46,92,-23,
15,55,-29,-84,
13,67,118,122,
-102,-6,-177,-102,
6,80,-7,78,
-9,32,-132,83,
55,-50,17,83,
-13,11,124,43,
-205,-75,31,50,
-19,111,131,-41,
-44,2,-63,-18,
92,54,-48,-28,
-51,-15,31,-22,
36,-30,-36,-237,
64,-100,-74,83,
-126,34,90,89,
11,-11,5,-136,
6,-48,109,37,
67,-4,-32,-90,
48,63,25,-29,
-30,-44,86,-129,
-71,144,-139,-61,
-109,24,118,1,
22,-82,-31,-110,
162,-192,-105,-104,
-145,154,-74,4,
44,-51,-53,165,
-46,21,67,6,
75,33,87,89,
-4,156,94,45,
-5,49,15,94,
-220,14,211,105,
-289,64,-55,-2,
-64,-74,29,67,
-65,65,40,-100,
-82,91,191,196,
-31,14,-46,-38,
-279,6,-46,61,
37,100,-32,78,
31,-42,-44,32,
12,45,69,81,
51,62,38,-13,
-241,43,-46,131,
137,-28,12,158,
-3,-55,-88,111,
-33,187,-198,-8,
25,108,28,20,
254,-36,-50,69,
-14,22,-65,114,
-17,28,47,-82,
-48,-59,-58,9,
-32,5,14,-160,
35,-22,312,-36,
48,19,-85,-61,
13,-157,-36,167,
33,-65,-53,-34,
149,6,78,-80,
-156,103,-72,62,
-9,-214,-149,-98,
88,1,-136,-189,
24,81,101,-91,
-20,-108,-160,4,
35,-3,-46,43,
94,-190,-264,-119,
-85,-39,122,76,
154,-27,-113,-56,
-1,-123,130,-30,
61,-43,-175,56,
-158,99,48,25,
-71,-132,-221,27,
26,-127,-6,-40,
99,-152,217,-147,
-79,-110,-3,31,
43,46,183,-68,
8,-9,122,-21,
57,-240,-144,-45,
-68,20,-91,-6,
-5,-113,-71,87,
-14,-232,8,122,
129,-42,-90,-137,
-119,66,144,-83,
70,-5,41,41,
9,50,24,29,
-4,-45,65,-60,
-46,41,-137,143,
-5,36,-49,-170,
95,101,76,47,
-107,32,-23,-6,
22,-47,79,7,
-65,-16,-18,-216,
160,17,2,74,
56,-179,-83,16,
65,50,-50,57,
62,-14,2,14,
-105,-89,15,275,
68,41,157,-153,
16,89,73,-138,
85,19,106,122,
-36,0,1,-82,
84,-18,-66,-21,
-104,-11,-34,-66,
147,-65,10,-152,
-40,-39,86,164,
-20,74,136,-77,
-21,-55,40,-172,
-53,-45,58,-72,
116,-22,-62,-124,
-107,-10,-20,27,
181,56,-112,-214,
83,-90,-120,-24,
42,-180,-14,-98,
8,-68,-58,-129,
101,33,4,98,
143,7,185,-164,
-190,-86,151,-77,
34,-47,24,155,
-38,9,112,-56,
-98,134,21,-177,
-28,71,-66,37,
-39,6,-85,130,
-40,-184,5,-38,
-27,-149,100,-61,
-3,-25,-78,158,
-92,121,-60,-45,
-48,173,8,-99,
109,-10,50,76,
-20,36,45,-174,
-50,137,-57,23,
92,-111,-56,-41,
-63,35,106,149,
82,-84,-62,2,
-21,-90,-74,44,
-44,-143,-195,98,
-34,33,-21,-34,
-31,53,-103,144,
64,-28,-50,-37,
117,-60,-48,8,
-12,-4,77,-322,
72,-113,51,147,
-109,-21,48,67,
37,75,-92,-24,
-49,130,140,14,
-82,35,-29,128,
74,23,6,-187,
-124,-80,14,-2,
95,-104,-111,65,
191,-34,292,-51,
31,-85,106,129,
-184,32,7,-171,
-76,-36,128,243,
-59,-35,-63,-2,
-308,-68,-149,-149,
269,7,-35,109,
-19,-85,-28,121,
154,11,89,-5,
-87,-28,-23,5,
94,71,-11,117,
4,-57,-72,40,
14,85,197,-7,
-181,-66,-10,3,
-178,-46,-11,-108,
-14,17,-90,-101,
146,102,-30,177,
-100,-66,-128,-48,
-102,34,164,-94,
-167,8,124,3,
-137,15,23,-43,
-13,-86,104,138,
-138,49,-359,159,
-39,44,-181,-145,
-182,91,69,133,
112,-49,-186,66,
189,36,-52,151,
-4,76,67,-227,
85,145,-56,71,
273,0,129,-8,
16,-52,-68,-7,
185,-21,-89,-74,
-276,-191,-36,-68,
122,96,-12,19,
167,44,-346,100,
73,-10,36,-123,
-66,96,33,-100,
12,-50,40,-61,
348,-69,-86,-66,
-198,74,-6,-51,
-91,-17,232,-98,
-102,-20,87,31,
-10,73,69,-5,
21,-62,131,-131,
-105,156,-26,71,
-36,52,41,74,
201,11,238,-33,
86,-24,144,-98,
132,-111,96,66,
-15,-23,174,-1,
-89,2,47,-115,
25,-1,160,-98,
-180,-120,-195,164,
13,32,-298,-109,
263,-87,-98,-84,
-36,122,-219,-44,
139,116,-314,40,
-56,-23,19,10,
78,-144,93,-116,
55,19,149,60,
-198,113,122,71,
261,-86,-48,-3,
-232,8,26,-286,
-221,-132,72,50,
71,-72,-63,-100,
146,338,98,88,
-159,75,14,33,
-133,123,170,27,
120,-144,154,-59,
-357,279,-85,143,
457,-71,-53,-279,
-178,-34,-114,-14,
220,302,241,245,
149,-69,73,-164,
0,-136,82,155,
-212,27,-33,-102,
-19,-105,61,-9,
11,199,-117,-41,
-19,37,-128,-117,
-225,-107,141,-105,
37,57,3,24,
74,-13,-102,-80,
-170,39,263,-23,
219,208,-142,81,
-144,111,17,178,
-139,76,-24,26,
12,-26,-148,-168,
-193,14,-133,49,
96,-3,170,-46,
0,-86,-246,-118,
144,30,-311,-129,
-90,-22,36,23,
102,-284,90,-101,
-150,-62,-35,37,
-24,28,43,20,
598,123,-50,-38,
-391,-49,-133,-80,
36,0,-63,-136,
76,20,-36,-290,
-99,133,-77,46,
-148,204,60,-67,
-272,14,196,144,
52,27,-91,-140,
-247,-206,135,-253,
-29,-11,-25,98,
-212,119,90,56,
-110,-109,146,-96,
27,-226,224,102,
-173,161,154,24,
-299,-84,161,68,
138,-165,-98,-31,
9,50,49,59,
162,-205,-61,96,
-75,8,141,205,
-45,-232,140,-166,
-1,-36,80,203,
103,12,105,-201,
-35,-88,-208,-3,
259,-60,244,37,
-11,113,-102,56,
203,-109,87,-64,
-103,-178,-12,43,
134,7,98,70,
33,91,70,248,
-103,29,94,-188,
204,180,162,160,
-152,176,-154,134,
97,-49,-76,-162,
-138,100,195,124,
-53,12,170,-136,
14,-173,78,-49,
-89,20,-61,-100,
36,152,142,49,
47,-47,-222,98,
-296,7,-196,202,
36,89,104,-90,
16,-172,50,-111,
73,4,137,157,
3,-45,157,90,
-15,-34,54,268,
-16,-64,19,-146,
263,68,8,-65,
42,250,-252,-112,
74,-10,126,104,
57,-22,-64,130,
0,136,14,130,
50,-13,-57,102,
96,195,-41,180,
94,-44,-34,5,
-74,121,188,-3,
-96,115,158,-1,
-71,43,14,75,
250,83,66,111,
-47,-11,166,86,
-19,84,-205,-36,
21,170,134,-65,
-29,94,12,42,
-140,-7,-96,-113,
71,-41,131,-88,
-217,67,-53,84,
91,-65,-284,-14,
-123,-99,182,130,
-67,208,140,242,
10,-149,-53,-168,
-38,57,120,0,
-47,-10,-50,-98,
-75,119,-16,279,
85,36,65,71,
164,57,-80,4,
132,20,-16,116,
87,25,182,53,
-128,-33,115,7,
-2,52,60,-19,
-1,130,-4,92,
-65,-79,-131,-23,
49,-66,-32,-34,
6,-129,243,195,
102,-92,-60,-196,
41,-2,196,204,
-98,105,-222,-147,
-2,-38,215,-151,
3,-238,1,-175,
-38,131,320,-26,
48,55,25,80,
-127,20,-50,51,
29,-242,6,-103,
-225,187,-10,-217,
-75,63,-4,-186,
-6,-187,-19,-39,
-52,85,404,-92,
73,-141,-9,-70,
-175,-28,34,1,
101,-12,5,-79,
-11,-3,174,181,
93,-9,-28,-4,
3,1,-32,209,
0,-94,82,214,
-238,26,-1,-5,
167,14,8,-69,
-229,-114,-78,111,
91,89,-209,44,
91,66,-102,-153,
0,27,112,-171,
-126,63,50,-66,
-122,-44,-53,-134,
-76,-14,85,25,
-104,169,-100,147,
-75,7,127,-185,
-130,21,-87,-191,
31,60,-61,-26,
5,80,-68,48,
152,36,-25,47,
-58,-57,-58,141,
-65,-19,213,152,
-115,-61,-55,-116,
143,-129,118,3,
101,64,118,-80,
31,15,-73,-81,
-18,12,55,28,
88,16,-111,90,
-65,23,-105,-63,
-160,-20,16,-75,
18,12,58,69,
157,9,-120,74,
-58,-21,-106,-1,
-14,-13,-37,-98,
-98,50,159,-72,
-6,-50,-4,-163,
-45,77,-31,2,
-107,-70,-173,-4,
166,-20,59,-128,
-207,47,0,-134,
148,-6,85,107,
-6,41,115,6,
-137,-44,-86,-77,
35,-93,-133,119,
-42,-21,-25,125,
40,43,-116,200,
-154,-28,-44,-41,
104,80,-72,-137,
166,15,35,-163,
-71,-8,-51,87,
-157,-9,-73,-266,
-98,33,46,20,
134,-36,14,149,
-160,-41,53,-86,
211,-107,-131,56,
71,-7,-11,6,
-9,-19,24,-46,
-25,-35,-81,101,
197,-58,25,115,
47,-17,-128,7,
128,31,-61,-70,
99,44,61,-45,
-186,71,-12,-15,
162,-149,2,-86,
-195,4,221,126,
-193,-32,44,-29,
166,17,-93,-109,
9,-23,20,-263,
55,25,4,106,
111,-130,104,-183,
-343,111,82,-5,
-153,33,-276,110,
-101,-173,-260,-179,
184,-247,-63,-39,
11,76,-42,143,
28,43,-146,-155,
-188,-48,-44,54,
230,-45,57,-34,
212,-16,54,112,
264,59,-285,91,
-14,34,-133,139,
143,-126,14,-64,
163,148,-88,8,
164,107,-38,-25,
126,-35,17,-298,
157,164,-82,-120,
-136,-28,59,19,
10,4,-62,-16,
311,11,45,-20,
14,-28,62,88,
-122,-2,224,186,
-55,-40,29,67,
-285,-33,-261,77,
-248,-122,122,47,
65,-29,-50,-172,
-312,-17,-190,150,
150,-155,-70,-43,
-275,-148,149,123,
-119,87,-86,62,
65,-67,251,-147,
176,53,-196,-124,
-77,77,-196,-75,
-87,97,-270,-6,
307,7,73,92,
20,11,97,-12,
131,124,-13,127,
44,20,-101,36,
-35,-119,32,180,
112,68,115,-146,
187,-37,219,108,
-276,-94,98,-265,
-136,-18,202,145,
-15,-54,-96,269,
-19,1,52,-194,
-48,74,-288,-120,
-232,-4,151,-133,
-56,-3,23,-28,
-36,-25,-14,-127,
-266,-25,176,-157,
31,137,-231,111,
-173,128,108,91,
149,-75,87,-41,
-15,-10,-168,17,
91,93,54,54,
-8,-127,-2,-228,
-101,39,-61,-92,
111,-78,-58,-89,
82,-44,-93,158,
26,30,7,15,
77,47,-167,88,
61,-31,183,29,
7,-7,85,64,
158,74,-91,12,
-11,110,25,71,
-18,-62,-78,-105,
-4,23,-127,52,
-182,-21,-109,95,
-26,-11,25,23,
14,83,-26,136,
193,-92,-25,-249,
-27,44,-122,-165,
-124,-13,62,58,
50,69,131,-84,
-61,-36,-244,83,
-22,24,-62,10,
15,78,-69,-10,
18,-35,68,64,
-108,26,126,88,
-55,-95,90,172,
13,38,120,-264,
35,-51,137,-20,
104,-118,-194,72,
-66,-20,-116,-51,
-9,-2,203,-34,
-282,34,143,-139,
-70,26,20,-186,
-115,21,-287,77,
86,78,-75,-69,
48,25,-46,-95,
-76,16,-7,12,
224,-173,-113,-79,
43,-47,-35,77,
63,-33,-2,-168,
-21,41,218,-243,
41,-7,-167,-24,
118,15,97,96,
-49,98,-266,23,
-30,-41,48,-109,
-27,38,-175,81,
78,73,-154,64,
63,87,-10,-142,
65,22,-106,-32,
188,47,-71,31,
86,-117,146,-8,
-32,-17,-61,22,
52,11,239,29,
-128,-95,-187,1,
-12,-221,220,30,
-15,65,-319,-57,
-80,105,158,-38,
-42,-9,-148,-137,
-15,37,144,-27,
-122,117,55,124,
11,99,-104,-46,
-145,-29,131,151,
134,19,100,127,
58,97,-254,8,
-26,-107,150,-4,
21,87,-7,-84,
30,10,-33,-33,
-5,-59,-11,29,
-86,1,49,-58,
120,163,132,-25,
92,49,30,42,
26,12,-28,63,
78,-106,-20,23,
54,67,78,-88,
98,17,-169,19,
54,-13,4,115,
11,76,40,124,
91,20,-1,55,
11,23,5,12,
37,-52,86,52,
129,52,-10,-122,
-24,95,-67,-105,
15,42,35,87,
-11,-50,-93,-30,
-89,81,83,-99,
161,61,-63,79,
-16,-42,8,-34,
-86,-100,-133,-76,
28,98,11,-12,
-97,13,183,-238,
-74,-23,105,-78,
-31,49,-150,100,
163,-28,39,-126,
-97,52,-61,27,
-46,-72,-17,16,
31,149,-128,-30,
-24,26,-15,-22,
-125,-57,-46,27,
90,60,-166,28,
-1,32,178,60,
-79,83,97,120,
5,43,-139,25,
-25,92,92,-36,
19,-97,17,-152,
-47,-62,-54,80,
-96,-15,-165,-75,
-53,-37,124,-58,
-61,-120,219,-98,
67,36,-51,-136,
-65,-9,-2,-5,
53,-18,297,-17,
-206,-166,-56,80,
64,191,25,45,
-59,76,98,51,
25,72,78,-114,
-132,33,-39,-43,
89,106,113,-43,
-107,37,100,25,
-10,1,106,87,
92,-88,-80,97,
182,40,85,-30,
-36,-24,2,173,
-35,33,42,-120,
144,7,143,78,
183,-13,-51,82,
-93,43,39,37,
-83,29,-139,1,
-84,83,-60,113,
-37,5,-56,128,
-64,-92,83,43,
16,-38,236,-112,
-31,-137,174,-154,
115,-162,10,-133,
-49,141,148,-83,
-47,-39,39,42,
6,-94,-32,-68,
-51,-143,97,-75,
52,63,5,121,
14,-11,225,-76,
133,261,8,-35,
-131,38,-113,51,
153,-36,-204,18,
130,1,-4,68,
44,38,184,218,
116,-136,81,-132,
41,53,120,-14,
108,40,195,-55,
-28,-7,-105,-86,
-7,-148,-140,58,
52,-25,-86,-54,
-1,-87,55,58,
124,91,46,28,
72,10,-22,106,
-48,55,-31,-177,
-264,155,79,-87,
77,-93,40,74,
-78,13,121,-113,
21,73,-70,-240,
67,8,-71,43,
91,104,-28,-201,
-52,336,13,152,
169,-83,-59,-27,
43,332,-84,127,
-101,2,5,10,
-111,-90,1,-11,
-23,-154,85,-13,
39,-33,6,6,
57,-220,193,-141,
-52,54,-85,-14,
-40,-43,-221,-70,
73,163,18,-132,
188,-189,57,81,
-35,-49,153,-82,
83,285,20,22,
-55,-1,52,91,
81,76,99,11,
35,232,34,61,
24,232,-94,136,
-122,173,-231,117,
16,-64,19,0,
67,69,59,-72,
18,113,184,-63,
31,101,22,125,
-22,-34,-19,-107,
38,7,-57,-95,
-48,-41,154,103,
-61,13,-181,-117,
89,-153,-23,213,
64,71,32,-155,
-82,80,-41,-70,
-21,55,-189,-14,
55,277,14,55,
-127,-90,-27,-12,
130,-198,-65,12,
-78,113,109,-13,
-97,50,-12,141,
184,119,-70,-66,
-166,-91,31,-29,
-1,33,30,-20,
-102,-57,-114,-80,
-53,168,-87,-7,
-84,-145,62,138,
-117,-176,-2,89,
71,50,-32,125,
-55,75,130,-269,
-97,-57,23,36,
205,-50,-1,-32,
-78,-17,100,152,
24,-128,-41,-88,
114,-90,159,82,
-21,-162,14,-42,
-26,27,27,178,
93,-28,-82,137,
62,-148,-75,-198,
49,-124,-115,141,
136,310,85,89,
8,-155,83,64,
94,-21,-24,-106,
-220,-166,135,-293,
73,97,-10,-234,
21,-19,-107,-1,
87,-181,-44,-96,
169,-24,12,43,
207,53,-101,24,
66,260,-157,87,
-36,-63,-1,20,
52,94,29,-112,
51,2,-30,-51,
13,-32,-152,3,
-4,-154,-47,-17,
17,-203,-75,-204,
272,-22,-26,-41,
102,-46,-71,53,
96,42,-81,-11,
278,22,-13,4,
155,-9,-56,-14,
97,23,-45,70,
220,-48,-78,-96,
-56,-67,-111,50,
47,93,89,77,
-61,12,-47,46,
-19,-43,82,-43,
-90,-18,-173,-223,
50,2,-71,-28,
92,-34,68,-218,
66,112,118,-85,
60,60,-102,26,
98,220,-142,169,
20,-88,-16,-61,
47,-51,124,142,
13,-233,87,-35,
-84,-43,-224,88,
-222,-22,-59,28,
-6,-1,83,97,
150,-51,66,-141,
34,-8,-166,-61,
-47,-131,113,-46,
6,166,-9,165,
-127,253,-89,-73,
-85,-7,-27,-58,
-78,198,-116,-39,
280,134,236,-40,
-24,-53,34,76,
-14,91,138,-10,
-2,153,-46,-79,
-2,159,16,20,
111,101,169,200,
-55,-52,-33,40,
11,-108,-158,-78,
109,-200,-72,11,
-60,154,80,-85,
0,-37,151,-42,
60,-8,1,79,
-120,37,237,32,
-23,-95,106,21,
126,74,-79,119,
-83,123,61,-203,
-85,-76,-34,-81,
-37,-66,99,293,
-32,24,4,148,
16,-114,97,-69,
18,-177,-108,-17,
-109,-198,198,-96,
28,79,202,141,
91,82,-41,8,
-127,146,54,-86,
45,41,-27,1,
-59,-124,-29,80,
-103,-240,151,36,
7,70,-136,208,
-91,-125,-284,-2,
93,64,-155,-5,
33,64,29,24,
42,117,-308,42,
-6,-131,37,29,
-85,133,297,-40,
-136,-14,17,149,
-46,158,13,-37,
53,41,242,-109,
-51,171,-116,-32,
12,13,81,-71,
-6,5,-90,-132,
24,148,86,133,
0,121,20,-66,
119,-72,-21,-77,
28,229,24,200,
73,26,141,102,
-57,-221,62,-84,
-14,-101,128,-235,
-101,23,-95,-62,
-69,-126,42,-88,
-19,2,-86,0,
24,-120,-218,-174,
-119,-51,-131,128,
-136,155,-42,-110,
46,-22,-283,139,
94,126,62,-25,
-38,51,207,0,
22,166,-30,-215,
-30,-67,-108,19,
45,48,175,-5,
-136,217,63,37,
168,-11,101,-61,
35,-130,-143,-179,
50,88,135,-59,
74,-107,91,26,
-59,-42,240,21,
-94,16,-7,-76,
212,117,-57,25,
12,-83,-68,6,
-31,154,61,28,
-80,223,-72,-21,
-76,-213,-193,-55,
65,-95,-30,199,
-96,108,8,-52,
64,-230,80,-32,
-23,57,-91,-46,
-135,62,233,22,
70,155,129,16,
41,-183,-55,21,
-34,66,256,-180,
-59,59,167,-94,
101,-33,-51,41,
-11,3,9,193,
-97,5,-74,-44,
65,-328,89,12,
2,123,133,-221,
-37,-25,-95,-203,
-65,-80,-74,-133,
23,32,48,-56,
-37,-330,-6,-184,
79,-84,-129,-219,
-72,-167,185,-33,
86,-75,-205,-178,
-59,154,-139,49,
-97,31,44,-177,
-12,72,185,-55,
68,-15,-389,-114,
-93,-131,-26,141,
-41,9,60,-125,
-71,-148,30,-8,
48,-188,11,-24,
165,-42,195,133,
24,74,-194,-245,
-69,48,-86,-76,
159,155,-62,345,
-38,-13,261,-39,
-127,-146,46,-103,
-81,-188,116,61,
81,181,283,106,
68,342,-59,53,
-55,-445,-129,-148,
99,-280,150,-117,
53,-140,44,-72,
123,45,195,41,
-93,-170,-206,-157,
20,-117,50,125,
-69,-246,-109,-19,
18,-62,-8,-72,
-43,118,-81,165,
8,-41,17,-89,
38,29,130,141,
-11,161,-11,-77,
52,306,-89,112,
117,145,102,99,
-53,-136,155,166,
-119,-46,123,17,
-43,214,251,-86,
8,-153,169,-264,
-212,-125,50,19,
-115,104,185,-182,
-12,-83,35,-205,
-65,-152,-28,-28,
-78,-103,-79,107,
-9,-167,47,101,
-16,-23,-24,163,
34,-47,-55,23,
9,255,-15,90,
-1,-25,-52,-34,
5,34,47,-41,
21,-77,9,-85,
8,103,102,230,
-103,-110,256,-256,
-110,55,55,-221,
173,-185,123,19,
-58,-58,26,-332,
26,-16,-233,75,
30,-213,-22,52,
66,-45,176,-10,
25,-60,-115,8,
52,89,151,167,
86,-35,-214,-162,
53,-48,-167,33,
78,-82,203,39,
102,203,91,-262,
118,114,-117,45,
177,-3,226,121,
12,-218,-96,88,
31,120,-140,-3,
-177,197,28,49,
110,-224,137,-21,
-40,-287,-13,-14,
120,-142,-164,-78,
40,-48,9,-165,
105,-22,-20,-129,
108,-257,-220,77,
52,-146,-29,54,
-57,-254,-114,-128,
43,-272,-113,15,
11,-126,-141,24,
-139,106,321,110,
64,34,357,226,
-32,-51,-26,-12,
34,72,-37,-149,
-70,244,-20,-81,
39,178,3,-44,
96,53,119,-24,
88,60,9,-79,
-8,-21,-77,-36,
-25,215,-22,-146,
93,-66,-124,-56,
102,52,-65,-58,
-7,-96,-184,-318,
50,-61,24,217,
-161,-264,83,-76,
59,-56,-89,50,
86,173,-211,77,
102,76,-149,72,
-57,-78,10,-207,
129,10,-175,54,
-234,43,14,22,
-17,-41,-77,61,
-186,-57,-61,-54,
224,-49,50,87,
-56,141,-126,-50,
133,-28,-117,-36,
65,120,142,-31,
-17,53,-8,107,
51,18,-73,-50,
9,-155,-20,78,
-95,-41,-84,104,
70,0,-9,195,
-178,3,45,-65,
44,46,-67,158,
-36,40,-125,-92,
-30,32,-122,-92,
-34,38,37,-201,
54,-121,-101,-102,
16,44,135,-58,
-91,-31,18,137,
-12,16,-120,133,
-205,215,92,31,
71,73,-66,-40,
-31,-8,-125,71,
-14,-101,-33,-93,
-31,83,31,26,
217,-87,131,-79,
-97,48,30,-57,
-52,-136,-71,-138,
-59,-2,38,241,
-136,-166,-34,340,
57,5,-240,61,
-6,-84,-203,146,
93,-62,-16,27,
-40,34,-40,59,
98,0,53,-20,
143,-27,-133,115,
-139,95,-109,-139,
-176,-25,132,274,
-25,-62,-65,17,
-99,142,-178,86,
-58,272,-38,-101,
-77,-55,39,-33,
-129,-3,77,-96,
16,96,-88,13,
-29,128,-108,-80,
59,-71,-63,136,
-91,-29,54,160,
-9,-101,-43,89,
-226,-102,-69,13,
-77,46,78,-230,
-51,16,61,6,
59,-28,-87,-50,
76,-61,-94,30,
-41,-122,-30,-86,
-180,184,-32,108,
-93,-13,211,-287,
141,-19,87,100,
77,-4,-41,-156,
-86,41,24,-63,
-168,-3,-54,109,
-40,-117,-86,139,
8,-38,43,94,
-29,-37,74,-30,
-35,12,-256,160,
8,-120,64,4,
-96,162,-202,-15,
62,68,137,-191,
-40,24,-40,46,
3,137,-97,-27,
3,129,117,-120,
-77,-12,-22,98,
-44,-64,-128,-56,
57,-51,-99,165,
183,-87,-18,63,
-115,-16,32,-129,
5,51,73,26,
-59,17,17,154,
59,280,207,-24,
0,34,66,-2,
-201,159,-157,-46,
-39,8,47,-160,
154,60,-3,134,
-75,22,-14,-82,
-41,163,9,6,
-117,33,16,47,
46,-61,28,-203,
7,-146,-203,-106,
22,-107,-9,-12,
129,-2,73,136,
-67,-16,8,-25,
-76,121,223,-18,
40,-143,-215,-81,
-55,21,-203,20,
-55,-27,-11,-90,
2,1,37,75,
-106,-102,-123,13,
31,-18,120,87,
108,-110,92,189,
27,110,-121,48,
30,-119,-48,-46,
-79,53,204,61,
-89,147,18,76,
-3,225,-59,83,
-57,-79,-115,27,
-52,338,-115,67,
97,4,57,77,
67,107,-155,-90,
59,6,104,76,
-59,17,-71,-16,
75,-3,201,-80,
-122,43,144,43,
-61,-145,226,4,
40,-171,29,-210,
-14,-43,-21,-119,
33,-176,155,87,
18,-188,-80,-176,
35,-67,12,115,
-161,-52,-27,12,
-9,-165,-103,107,
17,27,-46,-114,
50,-139,-27,-69,
126,150,173,-103,
62,-25,1,-8,
-3,126,56,-32,
60,-29,90,-67,
215,201,100,-10,
-18,-12,-60,-109,
153,79,68,100,
0,44,16,-155,
142,-74,34,-86,
-119,-153,139,-128,
116,0,209,106,
114,12,-67,-67,
-110,-23,230,-9,
-7,-32,43,76,
-219,-9,-93,121,
-85,-76,144,1,
38,5,-44,22,
-163,71,-105,-76,
-53,-1,-210,51,
-28,-18,-77,-23,
-162,-29,10,-54,
-4,63,23,-103,
-57,-42,174,19,
-64,14,90,-56,
180,-144,120,-66,
-49,-46,60,-4,
-50,85,43,213,
161,-206,-20,34,
24,77,227,74,
9,-115,20,-74,
50,31,115,-123,
128,49,-229,183,
-50,-61,-68,-117,
25,-144,167,-170,
-35,65,-87,-1,
50,-63,-24,-84,
47,40,136,6,
14,-121,56,-17,
5,-15,18,105,
-11,51,55,0,
189,90,-134,103,
-45,-141,-252,23,
97,73,70,40,
91,-141,98,-54,
42,151,-256,65,
146,-45,-26,-55,
22,39,189,81,
37,-259,69,45,
28,-158,123,-10,
26,-113,7,-35,
1,34,229,46,
76,-43,13,-25,
64,-43,168,-97,
59,1,7,-90,
29,-14,109,-118,
171,-6,-9,10,
-41,33,-53,-103,
187,58,85,138,
42,-125,-25,23,
38,70,-95,72,
-109,-29,-5,2,
201,-121,-195,99,
54,91,-359,-32,
-48,-67,-170,-201,
-108,-113,223,-48,
94,-109,21,-27,
114,41,-72,22,
85,84,184,38,
36,-27,-23,74,
17,-22,-63,-27,
-26,-218,89,-33,
3,-38,-318,72,
76,106,284,-128,
-23,211,-8,100,
-4,-125,-136,36,
-183,-31,-60,32,
98,212,227,146,
216,-106,-74,116,
5,177,-121,27,
96,-91,-62,-66,
-194,-73,-154,41,
153,-112,21,4,
165,208,23,-62,
493,53,-42,47,
26,93,44,50,
-26,91,133,-30,
89,-1,119,-45,
-7,-27,-144,78,
-302,-159,-169,-59,
-386,36,-70,-86,
-30,124,64,-72,
4,202,22,23,
-151,146,22,-26,
-259,-32,-25,-4,
153,-46,61,-72,
-59,-267,-49,50,
-390,-237,-131,-32,
122,-45,112,-221,
-235,-131,-8,-13,
-9,-80,20,52,
-102,-109,41,34,
-505,-130,-100,-10,
126,40,45,-135,
143,-51,342,8,
-107,-51,-114,16,
-103,-99,64,6,
-122,-2,-82,-62,
-106,94,-210,-58,
-84,-49,-151,-78,
-555,-243,162,-27,
-51,167,-28,-44,
-90,-239,-308,-27,
-51,49,141,43,
155,-23,5,-88,
-38,180,46,7,
-8,-137,-4,-58,
193,1,261,10,
247,58,93,66,
52,-91,-127,113,
-359,5,25,-45,
-28,111,-171,-20,
25,-39,-20,-55,
-56,113,58,70,
-14,-28,-116,27,
-84,162,177,-53,
-156,-79,-256,14,
-42,135,-106,32,
103,94,10,135,
-256,-213,-109,18,
-35,91,147,51,
-150,-112,-72,-36,
206,69,17,-217,
24,147,-3,-5,
-67,10,-29,-3,
369,-105,123,-3,
-69,97,-162,75,
115,0,-249,-9,
164,137,283,179,
201,-57,14,105,
-293,87,-22,35,
-65,51,-167,109,
124,79,318,-58,
-47,61,-3,28,
-79,172,-33,-129,
-335,27,-249,-69,
-145,7,56,87,
-77,65,-82,-68,
529,124,118,-90,
-109,35,-121,-22,
-25,229,22,92,
4,-122,116,71,
130,-154,-113,29,
-132,286,-116,-21,
-196,43,70,-50,
-14,-85,108,-124,
-79,232,130,-2,
-210,-162,-146,7,
-112,106,-220,-66,
-35,130,-11,-36,
-177,-245,-207,68,
-414,-15,-251,75,
193,92,-1,-108,
-314,-208,-61,-49,
-38,2,-45,9,
-14,-65,-41,-67,
-464,-292,112,-75,
205,-139,74,21,
97,20,170,1,
-194,-72,83,3,
-53,-221,-94,110,
-39,64,111,-69,
45,8,89,-25,
-107,148,-135,-167,
-143,17,-86,53,
186,16,44,83,
14,-228,-176,-65,
112,25,193,-8,
-211,61,-38,42,
-58,41,130,30,
-97,-72,86,35,
234,70,132,103,
145,156,191,123,
59,142,211,-138,
-465,118,-135,-65,
-192,-154,147,-20,
119,-303,-18,17,
154,-92,-168,81,
-183,51,-159,-157,
-33,-3,-298,36,
-268,43,-91,15,
159,84,-61,14,
28,-31,-99,37,
-36,-156,-139,50,
23,105,-89,23,
-72,42,-106,109,
247,-52,-6,-67,
308,273,-64,46,
153,105,-44,-64,
248,84,-117,96,
-57,-174,-109,-92,
-127,-49,54,-122,
31,-5,204,166,
89,-18,-58,-61,
-287,-27,-7,-170,
-34,-38,76,186,
90,72,184,105,
77,-80,122,-34,
31,137,88,-94,
-286,-210,17,3,
-70,70,-30,-126,
-55,19,-171,-109,
291,17,70,-59,
-171,263,163,63,
-233,135,140,-18,
119,-15,474,13,
11,52,-5,-22,
-238,108,-35,61,
-120,-95,-81,65,
160,-150,-97,-49,
83,-13,38,-11,
-51,-151,119,39,
-70,-2,-48,-10,
-29,71,176,-58,
-113,-128,104,-25,
-48,-134,149,75,
296,127,184,28,
-126,4,-123,16,
240,66,-183,-168,
-130,126,39,48,
-186,-131,-71,-266,
131,27,71,-15,
-99,141,19,44,
-59,-102,159,-3,
-53,-68,105,-73,
18,33,-58,-31,
13,240,-32,8,
-109,131,-73,-20,
85,-80,-274,-14,
-72,87,29,-127,
154,57,-144,29,
19,97,208,-3,
-32,76,-55,-64,
-176,216,-30,130,
98,27,8,-125,
-115,-16,38,118,
249,39,56,174,
-120,140,145,98,
-57,-58,-163,33,
141,153,3,96,
-17,-54,-68,7,
150,32,-49,-22,
-119,-115,1,21,
-312,66,-129,-93,
71,-43,-95,47,
-8,67,-17,-52,
271,-42,-167,49,
43,-61,-208,207,
254,-31,-1,206,
152,-101,116,142,
-198,-35,153,-47,
78,107,34,-133,
184,-28,101,-135,
137,348,-27,41,
37,103,139,-46,
-141,-171,-15,-199,
-127,-172,10,94,
38,44,-127,61,
51,-167,115,13,
91,-159,91,10,
303,109,50,34,
-238,-310,-274,-6,
-7,206,43,70,
-337,-50,24,-17,
-120,-144,-58,-147,
-42,165,173,-58,
46,-26,153,-1,
11,-176,-42,-21,
-97,-17,-34,-53,
224,10,-137,157,
75,-36,-41,-13,
-131,-193,-120,65,
144,3,52,-96,
1,-79,-77,70,
118,67,129,45,
35,13,49,47,
-111,-44,-173,-52,
-57,65,27,-66,
168,11,239,175,
-152,-231,-344,-1,
44,332,70,-22,
33,-331,-51,-68,
-28,-179,44,174,
-148,-23,-179,84,
53,-473,-148,20,
-11,268,46,-164,
-33,-4,28,-62,
-211,236,-108,-48,
11,-296,63,-8,
-69,-345,-554,-32,
-5,344,169,-90,
-145,-188,-137,61,
-28,-136,24,-39,
-42,-93,-16,-60,
26,45,-67,-130,
63,-253,184,51,
-215,-5,-12,33,
73,226,109,-107,
30,-113,75,63,
-88,-78,1,53,
-146,-5,-33,37,
-121,196,-21,-155,
17,-6,99,-97,
-199,3,-109,7,
61,368,-48,-54,
59,-254,-130,77,
-176,98,199,-61,
17,-220,91,67,
-155,-93,21,59,
-62,-235,-72,9,
-156,-98,-278,-7,
2,61,79,60,
171,255,202,70,
39,-16,22,-79,
-136,102,-49,75,
-82,83,-22,70,
-105,-83,-123,-3,
0,-136,158,-69,
-65,-320,-322,127,
4,-170,-94,42,
-107,1,120,5,
-205,-73,208,-94,
14,-20,-408,43,
158,-226,-188,-149,
-11,85,347,-79,
53,-240,-211,-14,
19,211,5,-15,
-30,6,-150,-20,
416,-47,4,-42,
-60,-98,104,-13,
-202,34,63,-31,
-196,-27,-336,30,
148,64,144,-87,
59,-11,-66,104,
-112,-9,-217,-28,
-31,173,-292,44,
24,159,-104,28,
4,43,40,148,
55,-4,341,-22,
138,-66,-208,-81,
77,156,-376,-40,
-47,30,240,7,
-1,70,56,209,
-62,-119,-349,123,
104,22,8,-92,
6,-291,164,-106,
-51,32,101,113,
151,-97,-50,106,
-217,6,-63,157,
147,62,-181,-279,
76,-13,183,-152,
-126,103,314,-85,
-102,81,-30,-242,
58,115,-38,11,
-90,178,-147,46,
155,-111,-113,-56,
106,-245,-96,-122,
-9,166,-111,137,
3,187,-289,116,
109,19,-137,46,
-137,19,65,-15,
7,-60,85,-112,
-79,28,-75,210,
-140,52,-76,-112,
-141,65,394,-45,
116,120,90,-137,
170,46,-86,54,
84,-132,-3,-89,
-74,160,-86,31,
77,-191,-13,-331,
-155,-81,-434,-62,
127,-132,-104,-51,
162,76,4,-88,
-96,9,86,-62,
123,-29,53,-133,
-229,-45,-472,152,
-21,14,61,10,
-78,-16,235,-29,
-190,171,47,-12,
-129,-39,-24,-176,
-250,8,-22,-75,
48,-164,-2,-134,
97,-49,-2,-2,
51,69,22,81,
-57,-88,25,89,
23,-43,-96,122,
-152,-101,-31,82,
-245,66,147,45,
303,155,39,113,
-109,274,-83,-127,
-151,129,116,-175,
-129,-206,100,-109,
-142,43,29,-109,
-24,-105,231,-317,
-52,224,-8,-47,
212,136,32,-173,
10,-178,-34,1,
-30,142,76,89,
-167,211,-112,118,
61,14,-84,48,
-61,91,57,-100,
33,-1,-94,-48,
-165,103,87,-129,
73,105,-261,-54,
-92,7,-154,13,
-140,-16,218,354,
-135,-38,232,181,
80,157,-13,-67,
91,-250,107,-27,
-32,-95,21,-200,
130,24,-68,-71,
84,-333,-256,90,
-96,-35,-272,-133,
45,-79,97,88,
-23,20,45,2,
75,-95,119,34,
55,-5,28,-32,
-318,74,51,-37,
20,36,56,-83,
-123,-80,-145,74,
-112,-209,-127,-67,
-82,132,78,-48,
186,-115,-101,-169,
0,58,58,-55,
-96,8,11,118,
162,74,131,122,
98,-186,30,-271,
11,179,-133,140,
-58,49,110,20,
-100,-134,64,84,
-191,-109,-19,-100,
-221,-121,77,102,
401,39,-57,174,
-207,8,82,-156,
31,-34,-115,119,
-25,-152,93,-101,
126,-298,191,-31,
121,-73,100,82,
-217,-83,-149,-245,
-293,-57,-118,-18,
-64,128,208,-40,
167,-77,138,19,
5,-74,60,159,
252,8,-96,123,
-365,-41,108,-144,
162,-134,-32,169,
95,-21,-104,25,
